O-O 2.725774 -0.440796 0.043446 -0.627801 0.170873 0.183090 -0.161066 -1.343392 -2.335200 1.601525 0.374528 -1.901210 -0.001789 0.762547 -0.284688 -0.157014 -0.397141 0.651459 -0.118428 -0.474203 -0.270618 0.380651 -0.335075 -0.653579 0.166062
Nf6 1.432791 0.383645 0.313231 -0.659298 -0.060061 0.253531 0.251041 -0.443961 -1.462454 1.011227 0.431088 -0.751700 -0.120367 -0.185621 -0.324397 -0.531152 -0.443358 0.479450 -0.177883 0.281694 -0.104281 0.085036 0.663531 -0.317597 0.613142
Nf3 1.186519 0.343121 0.359143 -0.742711 -0.043682 0.253015 0.371678 -0.644511 -1.370815 1.184291 0.266927 -0.950614 -0.007322 -0.357779 0.035050 -0.499004 -0.341195 0.617576 0.028228 0.181957 0.171528 -0.023409 0.706398 -0.246611 0.661969
d4 1.191610 0.391611 0.295679 -0.820293 -0.022918 0.115283 0.377809 -0.400159 -1.244218 1.144340 0.200845 -0.966597 -0.050266 -0.770786 0.048820 -0.444674 -0.562858 0.764383 -0.025203 0.120537 0.393011 -0.046398 0.718195 -0.518366 0.649695
Nc3 1.470537 0.326284 0.493837 -0.658778 0.062719 0.229974 0.391747 -0.473145 -1.588388 0.764530 0.363034 -1.293285 -0.077677 -0.136351 -0.338301 -0.597769 -0.504083 0.593623 0.090248 0.140693 -0.350350 0.063424 0.287881 -0.687579 0.440423
d5 1.510399 0.179306 0.359928 -0.566728 -0.064601 0.083014 0.276953 -0.613439 -1.688751 1.067861 0.377495 -0.978069 -0.240393 -0.035325 -0.192106 -0.511956 -0.591062 0.708273 -0.051830 0.074034 0.113538 0.112510 0.215804 -0.517998 0.494938
e4 1.136339 0.492273 0.415021 -0.646483 -0.071580 0.063233 0.306916 -0.381869 -1.394421 0.786431 0.358548 -0.875837 -0.141491 -0.205318 -0.245106 -0.529202 -0.455272 0.691480 -0.081038 0.040804 0.027509 0.006734 0.551495 -0.321358 0.657872
c4 0.946920 0.396793 0.515975 -0.642924 0.012627 -0.065232 0.438192 -0.197658 -1.396575 0.909081 0.435605 -0.776948 -0.211341 -0.252944 -0.173936 -0.371302 -0.517000 0.762831 0.012654 0.195049 0.153623 0.009104 0.505728 -0.329571 0.416871
c5 1.140883 0.185810 0.270174 -0.688689 -0.144756 0.050300 0.233471 -0.521233 -1.605140 1.043344 0.262941 -1.288778 0.061903 0.248500 -0.192798 -0.470301 -0.078344 0.671874 0.315499 0.103137 0.182042 -0.025137 0.383651 -0.351078 0.436409
e5 1.380604 -0.188350 0.284365 -0.646885 -0.128031 0.069101 0.208025 -0.182382 -1.338730 1.023286 0.269136 -1.008150 0.434168 0.294185 0.196567 -0.268781 -0.367875 0.062643 0.217041 0.238573 -0.063390 0.261178 0.300783 -0.422565 0.456229
Nc6 1.437077 -0.123768 0.041823 -0.743546 -0.012129 0.187842 0.307257 -0.601629 -1.221228 0.961210 0.328249 -1.525159 0.132631 -0.012749 0.572699 -0.371069 -0.641628 0.322170 0.033203 -0.156057 -0.079813 0.468823 0.239810 -0.824899 -0.074773
e6 1.339657 0.225537 0.597449 -0.854964 0.296953 0.170920 0.384531 -0.714802 -1.468433 1.376981 0.213657 -1.064368 -0.130944 -0.500741 -0.318170 -0.453079 -0.535363 0.707979 0.053057 0.233155 0.103086 -0.061125 0.453253 -0.689741 0.799305
g6 1.068632 0.220244 0.528799 -0.276272 0.328476 0.245954 0.367195 0.058068 -0.906790 1.007367 0.602492 -0.608086 -0.041412 0.195825 -0.146443 0.002997 -0.485787 0.038862 -0.127278 0.187985 0.255122 0.413434 0.634648 -0.211841 0.206983
Be7 1.410764 0.082843 0.458378 -1.016071 0.320773 0.291494 0.219685 -0.663929 -0.984792 1.583181 0.892601 -1.330149 -0.317290 0.461312 0.032804 0.059127 -0.561557 0.364047 0.299175 0.080629 -0.442427 0.834157 -0.072756 -0.018936 -0.209316
d6 1.681326 0.207021 -0.058481 -1.038626 -0.065011 0.126398 0.404919 -0.652125 -1.926471 0.841320 0.314198 -0.799679 0.023230 -0.400252 -0.250959 -0.415543 -0.617381 0.737442 -0.110410 0.435768 -0.102888 0.138372 0.478702 -0.752909 0.615996
a6 1.177378 -0.198261 -0.167704 -0.795626 0.112724 0.049672 0.360127 -0.479903 -1.540330 0.878913 1.055533 -0.991666 -0.112843 0.289731 0.271277 -0.186256 -0.233976 0.666131 0.211180 0.644764 0.070951 0.532977 0.244791 -0.914028 -0.054187
b5 0.792938 -0.225593 0.085002 -0.233175 0.216251 -0.275962 0.188196 0.149189 -1.537040 0.469416 0.978995 -0.790990 0.110508 0.890396 0.245870 -0.333213 -0.404848 0.188758 0.056621 0.517295 0.035617 0.319757 -0.037286 -0.391384 -0.199114
a4 0.512569 0.005892 0.381709 -0.206234 0.236269 -0.123162 0.382237 0.339118 -1.255352 0.413690 0.963263 -0.914396 -0.035205 0.938348 0.202855 -0.174040 -0.288251 0.038666 0.141084 0.339151 0.335923 0.288500 0.231976 -0.404674 -0.216170
a5 0.433202 0.071653 0.207984 0.024054 0.108546 0.034280 0.259652 0.348193 -1.126021 0.316019 0.759387 -1.129713 0.055589 1.001837 0.132462 -0.279023 -0.019398 0.145795 0.216001 0.188272 0.384322 0.253773 0.242719 -0.281789 -0.266856
f4 0.992355 -0.044818 0.006763 -0.121224 -0.061800 0.113705 -0.098536 0.482546 -0.989648 0.594331 0.647678 -0.513396 0.260457 0.535713 0.382596 -0.364593 0.235581 -0.816952 0.316373 0.364139 0.226536 0.566013 0.210941 -0.189015 0.354330
b4 0.530575 0.013495 0.087549 0.022345 0.364094 -0.009139 0.039218 0.294680 -1.371656 0.182290 0.535443 -1.212826 0.330143 1.071986 0.300586 -0.356753 -0.246962 -0.327512 0.322381 0.263122 0.296087 0.292228 -0.026723 -0.088066 -0.278189
1-0 0.397341 0.630408 0.598054 -1.093332 0.277379 -0.429804 0.372397 -0.171814 -1.212637 0.408997 -0.063255 0.106727 -0.275467 -1.232636 -0.226844 -0.581128 -0.490268 0.372774 -0.043422 -0.372301 0.168036 0.135087 1.187214 -0.296960 0.778759
f5 0.923551 0.445222 0.059768 0.087687 0.316811 0.140737 -0.058048 0.426367 -1.011878 0.428068 0.732076 -0.460978 -0.057178 0.514640 0.071935 -0.381581 -0.113837 -0.467673 0.112082 0.175895 0.070830 0.563689 -0.084369 0.406556 0.145167
Be3 1.360572 0.006223 0.062522 -0.653419 0.419162 0.038038 0.208955 -0.242935 -0.958995 1.180714 0.705474 -1.351762 0.098939 0.562985 0.354135 0.293563 0.070065 -0.309385 -0.099586 0.107086 -0.255797 0.775230 -0.324733 -0.346922 -0.293235
g3 0.983550 0.337522 0.012907 -0.239367 -0.077595 0.271596 0.231237 -0.295659 -1.099980 0.689242 0.620155 -0.683251 -0.106966 0.086173 0.104231 -0.297168 0.411574 0.363776 0.158324 0.346781 0.197869 0.434930 0.674910 -0.493200 0.388388
Bd3 1.188066 -0.407372 0.438518 0.458697 0.308576 0.316449 0.070105 -0.289648 -1.552858 0.926564 0.546596 -1.316888 -0.343699 0.563437 -0.710245 -0.317180 -0.228021 0.315609 0.355887 0.034849 0.246240 0.594406 0.397696 0.114045 0.198306
h6 1.005091 0.140793 0.729109 -0.243751 -0.145891 0.279076 0.584437 -0.067620 -1.226267 0.972535 0.300262 -0.875165 -0.031205 1.022044 -0.287254 -0.035884 -0.239434 0.038833 0.143703 0.013425 0.205031 0.332632 0.401464 0.226982 0.264168
h4 0.511642 0.321950 0.323296 0.069352 0.065810 0.335201 0.226821 0.587396 -0.796346 0.315183 0.883786 -0.392683 0.142184 0.717863 0.216490 -0.325489 0.360072 -0.498451 0.316564 0.280252 0.286101 0.364576 0.705898 -0.035724 0.138896
h5 0.538765 0.493652 0.367643 0.094069 0.347290 0.335102 0.134067 0.733789 -0.618520 0.366610 1.091075 -0.450737 0.132172 0.565110 0.171793 -0.047188 0.082876 -0.608704 0.189926 0.405716 0.203449 0.452930 0.579906 0.255269 -0.014784
1/2-1/2 0.669798 0.735626 0.330380 -0.465036 -0.044740 0.259172 0.126264 0.051175 -0.722203 0.731746 0.610073 -0.918150 -0.037870 -0.462458 0.089370 -0.628900 -0.518438 0.650436 -0.045838 0.380404 0.134985 -0.164781 0.850206 -0.603859 0.360066
cxd4 1.808989 -0.307223 -0.017206 -0.469566 0.309679 0.417320 -0.054962 -1.015538 -1.225880 1.453542 0.060074 -1.205082 0.462134 0.093595 0.649248 -0.008863 -1.056233 0.940493 0.191134 -0.275796 0.392769 0.326214 0.143253 -0.548060 0.276399
c6 1.151991 0.181617 0.073802 -0.570003 -0.358765 -0.015517 0.347907 -0.480235 -1.659353 0.787493 0.388427 -0.994785 -0.402481 0.010811 -0.251939 -0.507194 -0.095559 0.801047 -0.006394 0.092199 0.173730 0.144126 0.304261 -0.399214 0.432772
Bg5 1.757852 0.076682 0.372758 -0.577142 0.216234 0.263495 0.462654 -0.529923 -1.442273 1.256972 0.593215 -0.605597 -0.335209 0.474353 -0.200003 0.199853 -0.379018 0.162657 -0.064739 0.109750 -0.284109 0.871055 -0.224699 0.156589 0.130522
h3 1.005665 0.195033 -0.347274 -0.513610 -0.539547 0.065976 0.555272 -0.219014 -1.157152 0.813872 1.014469 -0.633411 0.053001 0.951489 0.415397 0.196875 0.439794 0.143393 -0.263209 0.510284 0.331460 0.387655 0.372119 -0.020989 0.276626
Bg7 1.505335 0.151159 0.440746 -0.691045 0.285760 0.141700 0.471509 -0.469212 -1.621771 1.095205 0.452151 -0.550252 0.073211 0.162870 -0.061568 -0.062986 -0.344025 0.028304 -0.109168 0.210204 0.108877 0.113492 0.310165 -0.037429 0.247973
b6 0.714019 0.278843 0.017700 -0.167310 -0.012010 0.116771 0.220042 -0.470097 -1.473179 0.449450 0.517310 -1.215783 -0.174245 0.700751 -0.193608 -0.572733 0.458187 0.668229 0.346126 0.381017 0.079118 0.394346 0.298822 -0.513075 0.248691
Nxd4 1.827378 -0.323708 -0.248740 -0.592726 0.190430 0.311929 -0.025793 -0.760642 -0.889841 1.214977 0.014424 -1.113488 0.602292 -0.215381 1.056758 0.225967 -1.051053 0.148135 0.057006 -0.112916 0.468516 0.650699 -0.172096 -1.035733 0.185922
Ne5 1.026914 -0.318235 0.227608 -0.190497 -0.266239 -0.196689 -0.300544 -0.046779 -0.829533 0.910658 0.319776 -0.903003 0.239584 1.114488 0.307694 -0.144160 -0.006309 -0.230936 -0.093481 -0.400455 -0.074951 0.521024 0.049327 -0.287061 0.394488
a3 0.854668 0.134310 0.797948 -0.014770 0.363120 0.379092 0.701660 -0.231363 -1.406461 0.547810 0.071019 -1.397031 0.139067 0.796790 -0.165266 -0.313454 -0.609458 0.381748 0.554261 0.184062 0.288461 0.255547 -0.018036 -0.368992 -0.068027
Re8 0.795094 0.531523 0.099903 -0.313380 -0.572373 -0.080884 0.440810 0.128455 -1.267719 0.467321 0.288926 -0.374504 -0.366808 0.926991 -0.223420 0.419671 -0.126196 -0.071150 -0.118025 0.303579 0.936030 0.637239 -0.021787 -0.182565 0.543188
g4 0.554308 0.300619 -0.020166 0.011484 0.189519 0.250477 -0.002294 0.511864 -0.740091 0.541924 1.231712 -0.361748 0.024113 0.554889 0.126802 -0.281667 0.090520 -0.515811 0.049212 0.552747 0.024094 0.535913 0.468868 0.537149 0.334157
Nd7 0.868537 -0.322442 0.436862 -0.047008 -0.045697 -0.142991 -0.338854 -0.266327 -1.138067 0.623328 0.477824 -1.469693 0.220933 1.287128 -0.302636 0.018478 0.156203 -0.282193 0.412488 -0.050623 -0.344885 0.566743 0.340148 0.274534 0.079122
cxd5 1.515811 0.054926 0.469348 0.108066 -0.094919 0.168774 -0.275190 -1.095321 -1.541089 0.567408 0.258417 -0.861015 -0.678601 0.713973 -0.490617 -0.383566 -0.494200 0.880168 0.153109 -0.319990 0.083144 0.712909 -0.402125 -0.717726 0.692092
Be2 1.435200 -0.689262 -0.042814 0.186149 -0.233867 0.302996 0.101350 -0.117578 -1.419114 0.954208 0.574508 -1.283796 0.266139 0.500601 -0.025611 -0.576368 0.158878 0.216836 0.391544 0.335934 -0.321267 0.479295 0.711456 -0.132598 -0.158098
g5 0.437641 -0.030012 0.476322 0.099726 0.010343 0.210634 0.163092 0.585726 -0.691494 0.592879 0.930318 -0.345205 0.252258 0.697892 0.208071 -0.421385 0.165522 -0.748061 0.135706 0.498302 0.075604 0.221658 0.628525 0.154553 0.487591
Qc7 1.524527 0.197175 0.795995 -0.175897 -0.147604 -0.158074 -0.356563 -0.711354 -1.240314 0.832569 0.285840 -0.556772 0.329109 1.559716 -0.104492 0.867640 0.250918 0.089361 0.190501 -0.066705 -0.069642 0.580689 0.217783 -0.531821 -0.808787
Re1 0.791558 0.453689 0.140944 -0.238526 -0.551605 -0.099297 0.371576 0.038383 -1.230725 0.670894 0.297955 -0.635868 -0.359683 0.650436 0.030767 0.412802 -0.283298 0.131135 -0.031826 0.220181 1.204294 0.546319 -0.047761 -0.057923 0.612464
Bb7 1.199000 -0.236528 0.155171 -0.381160 -0.435847 0.156195 0.132302 -0.644746 -1.435914 0.830053 0.426318 -1.258359 0.163267 1.131207 0.148782 -0.473376 -0.395220 0.539707 0.127486 0.085882 -0.262346 0.489897 0.190891 -0.442103 0.157675
Ne4 0.717113 0.819163 0.499057 0.009423 -0.067332 0.123400 -0.080147 -0.224619 -0.825898 0.567071 0.040141 -0.966784 -0.089492 1.250755 -0.249099 -0.627992 0.229389 0.293336 -0.072548 -0.372669 -0.430324 0.422218 -0.420177 0.189677 0.714342
b3 0.682659 -0.057529 0.479710 -0.263360 0.238714 -0.064394 0.403635 0.207718 -1.141098 0.706309 0.462316 -1.104931 0.426650 1.087612 -0.070859 0.176043 -0.828545 0.000934 -0.051964 0.575343 -0.009894 0.415838 0.120392 -0.094500 -0.249833
Bd7 1.197830 -0.754740 -0.197062 0.148067 0.049364 0.115242 -0.385612 -0.076520 -1.401749 0.636673 0.643763 -1.114372 0.112031 0.706421 0.097940 -0.178958 0.024983 -0.407364 0.428302 -0.106192 0.231191 0.738708 0.386430 -0.036210 -0.466330
Rc8 0.298246 0.160792 0.381365 -0.070868 0.340377 0.074603 0.188158 0.032710 -0.520750 0.003876 0.752271 -0.945758 0.305240 1.077306 0.446598 0.303718 -0.538699 0.348470 0.177976 0.174613 0.102427 0.959103 0.410484 -0.832711 0.273081
e3 1.419664 0.359315 -0.135097 -0.369820 -0.099574 0.306283 0.296811 -0.556078 -1.440344 0.939554 0.346747 -1.378787 -0.330230 -0.041514 -0.717380 -0.389977 -0.250612 1.262756 -0.299538 0.029191 0.055615 0.116291 0.450195 -0.579093 0.603555
Qc2 1.376967 0.909305 0.965524 0.122695 -0.126587 0.165984 -0.244635 -1.005909 -1.291653 0.603939 0.247692 -0.912551 0.075575 1.641673 -0.413717 0.480983 0.181268 0.579959 -0.172256 -0.254866 0.098078 -0.043418 0.167687 -0.354867 -0.291707
exd5 1.517932 -0.343537 0.385930 0.058245 0.038468 -0.137467 -0.427289 -0.699343 -1.340500 0.695945 0.454668 -0.714135 -0.667196 0.437413 -0.280097 0.036152 -0.950426 0.628780 0.180722 -0.247527 0.323142 1.080676 -0.557907 -0.931190 0.352482
Nd5 1.051100 0.244948 0.371105 0.008787 0.211823 -0.076273 -0.052340 0.102944 -0.885199 0.272440 0.317976 -0.718151 -0.247584 0.762250 0.173748 -0.351142 -0.570331 -0.133916 -0.180533 -0.347454 -0.249117 1.018388 -0.532294 -0.662482 -0.038796
Bg2 1.445676 0.136248 -0.015075 -0.435109 -0.438318 0.310343 0.495048 -0.685734 -1.619075 1.154248 0.168166 -0.898252 0.089837 0.321228 0.129990 -0.870004 0.017412 0.877669 -0.128391 0.172174 -0.157699 0.009637 0.436732 -0.449086 0.212934
Qd2 1.868881 0.217468 0.386073 0.743813 0.160489 0.380654 -0.473462 -0.372793 -1.399405 0.413898 0.006558 -0.252514 0.867534 1.401447 0.051960 0.379163 0.089165 -0.390480 0.060941 0.237232 0.290271 0.466153 0.371685 -0.482662 -0.658149
Kg7 0.188470 1.158255 0.749235 -0.095139 -0.444108 0.011263 -0.033297 1.114231 -0.005579 -0.422377 0.730008 0.308696 0.193070 0.112485 -0.129290 0.382783 -0.590951 -0.509940 -0.494216 -0.071289 0.206041 0.128630 1.681113 0.159695 0.622931
f3 0.827421 0.496997 -0.145762 0.055828 -0.405795 0.148049 -0.058928 0.024129 -0.917646 0.305570 0.767382 -0.791388 0.072149 0.750133 0.119231 -0.390254 0.368922 0.165278 0.153371 0.477675 -0.208592 0.428627 0.237656 0.137162 0.328175
Rc1 0.260843 0.322362 0.305100 0.286061 0.327724 0.206245 0.215596 -0.063366 -0.590787 -0.133110 0.594475 -1.246581 0.228530 1.095714 0.196565 0.119488 -0.423226 0.630672 0.091107 0.124778 0.173773 0.770228 0.490275 -0.785112 0.490515
Be6 1.234543 -0.318124 -0.078413 -0.028763 -0.402956 -0.172559 0.251130 0.670893 -1.248528 0.635857 -0.057425 -0.998337 0.063682 0.545710 -0.033862 -0.264900 -0.265978 -0.338242 -0.084099 -0.052430 0.102358 1.040342 0.056062 -0.449033 -0.278331
Rd1 0.513372 0.729584 0.332506 -0.342367 -0.489329 -0.166069 0.386170 0.515477 -0.449357 0.289043 0.166002 -0.991606 0.306039 0.622844 0.250024 0.363803 -0.257660 0.224212 0.199637 0.252945 0.170138 0.643594 0.079996 -0.467213 0.148634
Rd8 0.260217 0.779803 0.271122 -0.500963 -0.579406 -0.289329 0.306274 0.828320 -0.339923 0.049262 0.126814 -0.717469 0.313634 0.744697 0.202671 0.292196 -0.159583 0.244223 0.239268 0.209265 -0.159645 1.003725 0.337019 -0.394476 0.253665
Bd2 0.761764 0.536937 0.247317 0.017769 0.574584 0.273789 -0.084358 -0.681632 -1.169086 0.715287 0.774156 -1.442290 -0.314608 0.891682 0.037775 -0.295236 -0.120957 0.517256 0.165822 -0.162861 -0.095378 0.378819 -0.324938 0.520880 -0.238754
Qe2 1.437295 0.596587 0.588268 0.102286 0.038024 -0.094336 -0.498010 -0.627689 -0.881467 1.332075 0.347520 -0.361516 0.381189 1.392247 0.037620 0.814113 0.252154 0.600399 -0.223893 -0.028816 0.076113 0.485667 0.156356 -0.008391 -0.601972
f6 0.722948 0.098921 0.220448 0.006710 -0.137481 0.063072 -0.158631 0.379095 -0.867234 0.279438 0.266133 -0.581298 0.417563 0.566481 0.186399 -0.066677 -0.329599 -0.652622 0.565812 0.261604 0.001143 0.645909 0.295558 0.535724 0.113648
Rb8 0.571846 0.076232 0.286967 -0.195224 0.155660 -0.268281 0.620167 0.723867 -0.936420 -0.661777 1.131387 -1.006880 -0.099001 0.640640 -0.176749 0.350254 0.043950 0.182087 0.126419 -0.190032 -0.258161 0.185407 0.314148 -0.594289 -0.115044
Qe7 1.242290 0.663939 0.543250 0.209608 -0.151637 0.075734 -0.387699 -0.524691 -1.244329 0.562370 -0.253598 -0.071170 0.662133 1.544306 -0.220047 0.491770 0.553020 0.002921 0.097690 0.018064 0.178467 0.445785 0.571160 -0.032364 -0.329647
Nbd7 2.215670 -0.841413 0.729902 -0.401377 -0.350446 0.080821 -0.162593 -1.478997 -2.163882 1.572914 0.800866 -1.661107 -0.248072 1.109728 -0.842628 -0.064104 -0.065692 0.571763 0.104155 0.151083 -0.609764 -0.286283 0.037016 -0.148105 0.443922
Bf4 1.023180 0.154505 0.561801 -0.722631 -0.236579 -0.280390 0.237171 -0.640769 -1.049362 1.141684 0.720000 -0.696859 -0.457288 0.624261 0.266625 0.174688 0.070873 0.043763 0.076660 0.285664 -0.155300 0.893457 -0.433710 -0.234200 0.486842
Nxd5 1.675355 0.064046 0.629903 0.228867 -0.089255 -0.174829 -0.369370 -0.357732 -0.930354 0.286405 0.032692 -0.550411 -0.654368 0.449746 -0.005295 -0.344157 -1.055364 0.566417 -0.131529 -0.839644 -0.125558 1.271639 -0.827928 -1.166431 0.259858
Nc5 0.378232 0.033655 0.150405 -0.133837 0.049092 -0.228759 -0.354548 0.423074 -0.673213 0.216203 0.171898 -1.550918 0.369680 1.288533 0.103030 -0.122183 0.067758 -0.828604 0.036694 0.008776 -0.028875 0.299497 -0.275689 -0.390628 0.010688
Nd4 0.888664 0.109955 -0.320540 -0.142910 0.143626 0.111010 -0.121824 0.082347 -0.736196 0.117419 0.142945 -1.040816 0.443801 0.598015 0.813190 -0.121062 -0.231960 -0.770066 0.113768 -0.006372 0.229149 0.631208 -0.329436 -0.630553 0.039429
Nd2 0.811379 0.081488 -0.034482 0.185648 -0.118980 -0.001680 -0.038226 -0.436188 -1.264512 0.536918 0.624886 -1.573449 -0.025821 1.224353 -0.226386 -0.202191 0.112566 0.381556 -0.292016 0.103048 -0.346714 0.210920 0.023838 0.315593 -0.072630
Kg2 0.237396 1.537139 -0.054441 0.177443 -0.604974 0.261750 -0.251872 0.569786 0.396601 -0.228224 1.123283 -0.485750 0.314787 -0.026938 0.748935 0.648973 0.553014 -0.060571 -0.408720 0.112057 0.745141 -0.351789 1.300803 0.012069 0.749024
Kf7 -0.253239 1.085829 0.567906 -0.346154 0.089595 0.269369 -0.249677 0.829713 0.105292 -0.578228 0.905249 -0.313128 -0.106914 -0.424704 0.309923 -0.199178 -0.850978 -0.827789 0.524919 0.126973 0.056372 0.735805 0.983297 0.658914 0.686069
Bd6 0.426650 0.283931 0.531435 -0.505721 -0.012374 -0.141106 -0.157432 -0.682162 -0.682008 1.073967 1.007742 -1.159530 -0.788928 0.695526 0.125126 0.149759 0.127378 0.204009 0.360421 0.164450 0.087939 0.929212 -0.183005 -0.010629 0.578298
c3 1.071006 -0.279180 0.269854 -0.403729 0.331406 0.001785 0.404391 -0.117544 -1.180456 1.263185 0.147044 -1.166936 0.080221 -0.038794 -0.017227 0.247940 -0.878251 0.411525 0.246672 0.199955 0.440993 0.403479 -0.050574 -0.011161 -0.147833
Nxe4 1.080538 0.954185 0.366680 -0.061241 -0.198588 -0.563876 -0.535809 -0.210253 -1.161479 0.774648 -0.285157 -1.017934 0.005796 1.139573 -0.918139 -0.460433 0.107455 0.623906 -0.592868 -0.250191 -0.952476 0.088259 -0.887195 0.802285 1.036753
Ke7 -0.691362 0.392343 0.323286 -0.502452 0.205802 -0.089622 -0.336508 1.059839 -0.066916 -0.191947 0.442300 -0.937497 0.567799 -0.550461 0.471530 -0.922864 -0.380085 -0.621888 1.065121 0.188805 -0.740237 0.992932 1.405240 0.791268 0.397410
Kf8 0.334199 0.909371 0.650832 -0.193461 0.056765 0.304434 -0.384993 0.890525 0.051025 -0.464014 -0.047335 -0.327080 0.291504 -0.147243 -0.162541 -0.087691 -0.954719 -0.399919 0.601114 -0.701913 -0.286182 1.046257 1.171180 0.427382 0.281241
Nc4 0.252796 0.019055 0.240574 -0.007598 -0.002504 -0.668550 -0.003537 0.438471 -0.610521 0.221617 0.689998 -1.109064 -0.030915 1.315169 0.300445 -0.121263 -0.078706 -0.208966 -0.596588 -0.097486 -0.518907 0.573480 -0.394836 -0.185879 -0.263546
Bb4 0.522924 0.830976 0.504800 -0.489148 0.322284 0.287948 0.252732 -0.582030 -0.798656 0.546852 0.486752 -1.615389 -0.383085 0.367944 -0.176767 -0.144856 -0.389574 0.738581 0.311414 0.146766 -0.180477 0.483352 -0.086485 0.006681 0.291311
Kf2 0.188239 0.820859 -0.501177 0.849069 -0.649160 0.587203 -0.155728 1.082249 0.356216 -0.466647 0.834066 -0.974376 0.174518 -0.536612 0.531979 -0.343602 -0.014992 -0.055088 0.290988 0.460605 0.432189 0.525535 1.058699 0.067194 0.561780
Bb5 0.671941 -0.503677 -0.102884 -0.152651 -0.273706 -0.037678 -0.105030 0.174567 -0.912830 0.293328 0.527903 -1.410637 0.215655 0.275141 0.106681 -0.057448 -0.418724 0.098142 0.281531 0.163323 0.216235 0.541681 0.823955 -0.626410 -0.101904
dxe5 1.266497 -0.528610 -0.007214 -0.658450 -0.829523 -0.708770 -0.394517 0.021838 -0.941749 1.234874 -0.442326 -0.870537 0.916458 1.123725 0.241011 0.360156 0.338060 -0.343710 0.111640 -0.538730 -0.419787 0.659832 0.159495 0.434173 0.372972
Rb1 0.569629 0.340569 0.239314 -0.110227 0.313947 -0.073281 0.624209 0.369634 -0.943167 -0.684920 1.089362 -1.528539 -0.001102 0.363588 -0.043641 0.514956 0.214849 0.261049 0.441186 -0.296039 0.140233 -0.330250 0.242787 -0.370538 -0.028488
Qd7 1.173707 0.986427 0.299290 0.178789 0.248672 -0.069734 -0.573231 -0.713942 -0.930156 0.257941 0.385583 -0.050851 -0.064883 1.147421 0.401169 0.766366 0.250104 0.001009 -0.211284 -0.399541 0.403692 0.916160 -0.091840 -0.165722 -0.752964
Qb6 1.361331 0.090761 0.389637 0.040590 0.122627 -0.250874 -0.757232 -0.482201 -1.031111 0.470615 0.286765 -0.715499 0.620105 1.197841 0.115988 0.888799 -0.196536 0.089178 0.076113 0.031711 0.132913 0.416561 0.178009 -0.557511 -0.784462
Bc4 0.783655 -0.213708 0.378741 -0.154981 -0.153915 -0.197634 0.266096 0.418833 -1.031233 0.740083 0.115320 -1.120684 -0.117312 0.310244 -0.346339 -0.276299 -0.362831 0.027347 -0.150779 0.040439 0.167099 0.598302 0.335296 -0.723814 0.105966
Bf5 0.886534 0.215677 0.292250 0.338901 -0.306169 0.027846 -0.040028 0.091571 -1.156112 0.749468 0.059226 -1.021937 -0.582104 0.516058 -0.744793 -0.322670 -0.026041 0.125313 -0.004459 -0.187394 0.487319 0.521652 0.174110 0.272356 0.460443
Nb6 0.498289 -0.716941 0.466433 0.046992 -0.002621 -0.626743 -0.097598 -0.031600 -1.135394 0.232611 0.730411 -1.153459 -0.200498 1.493037 -0.371709 -0.102303 -0.246584 -0.049000 -0.405913 0.143896 -0.614108 0.749553 0.057443 -0.683118 -0.234915
Bg4 1.291866 -0.376042 -0.274701 0.122181 -0.589231 0.057712 0.224483 -0.122432 -1.277572 1.151041 0.142917 -0.825894 0.008481 0.536741 -0.009787 -0.167463 0.256459 0.042519 -0.055186 0.195768 0.460152 0.607671 0.341628 -0.059827 0.281990
Nxe5 0.901817 -0.675418 0.009925 -0.612968 -0.738298 -0.922488 -0.766718 -0.131868 -0.587670 1.256890 -0.161586 -0.993507 0.915516 0.927530 0.707559 0.238653 0.157832 -0.151983 -0.080666 -0.726162 -0.228817 0.354308 0.053288 0.150379 0.748195
Bxf6 1.871627 0.174377 0.408649 -0.377600 -0.267971 -0.146963 -0.322466 -0.160181 -1.245025 0.283210 0.346494 -0.130321 0.094516 0.649419 -0.210871 0.551580 -1.227709 0.315057 0.470199 -0.336357 -0.478515 0.826981 -0.709132 0.747005 0.332441
Kh8 1.539987 1.140893 0.636366 0.186768 0.074585 0.088701 0.255967 0.398614 -0.828764 0.252986 -0.713645 0.843468 0.059248 0.581215 -0.441133 0.199434 -0.127281 -0.417717 -1.171229 -1.451956 0.330786 0.312873 0.573938 0.321419 0.078018
Ne7 1.106849 -0.024753 -0.245450 0.056445 0.261232 0.465802 0.116845 -0.194168 -1.046592 0.483843 0.375524 -0.752895 -0.543524 0.366061 0.263187 -0.555990 -0.083564 -0.166784 0.157580 -0.637521 0.137202 1.451336 0.332600 0.060771 -0.628731
Rc7 -0.385816 0.444944 0.160112 -0.232530 0.305716 0.144191 0.161285 0.947973 -0.137684 -0.581997 0.682080 -0.469158 0.281684 1.241547 0.102748 0.088761 -0.195557 0.196225 0.232289 -0.329670 0.297710 0.823292 1.034499 -0.685408 0.233239
Kh7 0.766061 1.682898 0.903996 -0.091874 -0.232001 0.001721 0.276479 0.702661 -0.315788 -0.364425 0.337561 0.793489 0.037757 -0.123935 -0.107955 0.585430 -0.405526 -0.455178 -1.026479 -0.360043 0.450952 -0.060230 1.457370 -0.170430 0.120629
Qb3 1.080958 0.583662 0.647742 -0.097605 -0.176225 -0.241010 -0.519659 -0.975826 -1.257002 0.276863 0.238936 -0.757117 0.105171 1.467873 -0.138130 0.509277 -0.095507 0.746474 -0.132379 -0.392484 -0.028713 0.225973 0.116705 -0.740324 -0.718477
Rd7 -0.189805 1.123315 0.031112 -0.825080 -0.116705 -0.039741 0.273613 1.246290 0.091113 -0.166062 0.330192 -0.266631 0.203593 0.758109 0.197694 0.322769 -0.067850 0.012596 0.273655 0.080651 0.197873 0.967694 0.309512 -0.509335 0.043494
Kf6 -0.571126 0.742178 0.107590 -0.570473 -0.197928 0.440101 -0.015988 1.399156 0.269725 -0.284720 0.955156 -0.570176 -0.226982 -0.837092 0.300977 -1.195609 -0.575186 -0.673086 0.118366 -0.014374 0.377119 0.051924 1.531757 0.004516 0.918240
Kg8 0.352823 1.623548 1.300023 -0.213061 0.283394 0.124277 -0.250532 0.762739 -0.071159 -0.105460 -0.388410 0.619116 0.575444 0.111845 -0.298902 0.118604 -0.496280 -0.554474 -0.309623 -1.001266 0.267678 -0.027130 1.580745 0.384862 0.536447
Qd3 1.129847 1.187743 0.528765 0.509046 0.221091 -0.093529 -0.740371 -0.439951 -0.684683 0.373835 0.353272 -0.215602 0.239857 1.072989 0.054635 0.896190 0.175945 0.434834 -0.238188 -0.058030 0.236087 0.591113 0.088900 -0.178777 -0.599983
dxc4 1.280208 -0.145527 0.807025 -0.430213 -0.680917 -0.478834 0.094590 -0.516057 -1.261201 1.135576 0.185939 -1.276738 -0.276355 0.582804 -0.340006 -0.314723 -0.793764 1.501257 0.004356 -0.471120 -0.464536 -0.061804 -0.106007 -0.331148 0.229925
Ne2 1.187778 0.083807 0.245406 0.511962 0.441473 0.823938 -0.035683 -0.267669 -0.675438 0.569174 0.299788 -0.995026 0.217996 0.631618 0.153229 -0.236178 0.442444 -0.615863 0.663000 0.319935 0.148437 0.587977 -0.128587 -0.360371 0.119823
dxc5 1.081523 0.021514 0.167880 -0.658766 -0.525775 -0.222694 -0.760046 -0.649272 -0.957055 0.688995 -0.249229 -1.979998 0.146720 1.133084 -0.605947 0.132869 0.512878 0.573685 0.806099 -0.606611 -0.471819 0.325745 -0.282082 -0.291432 -0.033971
Bc5 0.496784 0.583807 -0.255617 -0.921163 0.244234 -0.281119 0.158006 0.181077 -0.216592 1.007194 0.569954 -1.388186 -0.130573 0.126415 0.463669 0.564757 -0.207173 -0.016305 -0.356451 0.132763 0.128645 0.944167 -0.180406 -0.242023 -0.165761
O-O-O 2.024727 -1.263665 0.648341 0.275370 0.893919 -0.775870 -0.627612 -0.481743 -1.404510 2.419816 -0.614309 -0.241339 0.827148 0.500317 -0.091158 0.033898 0.885483 0.078094 1.368891 0.561745 -1.350928 2.143902 -1.076007 0.285784 -0.412928
Nf5 1.066107 0.592115 -0.274806 -0.079348 0.358431 0.224647 0.080998 0.321787 -0.528098 0.527465 0.244907 -0.438680 -0.378741 0.252650 0.340868 -0.300482 0.097141 -0.835289 -0.411744 -0.555193 0.055463 1.177667 -0.442745 0.225065 -0.280478
Rd2 0.132010 0.989064 0.046740 -0.101311 -0.176894 0.206222 0.447209 1.467126 0.026001 -0.032607 0.165280 -0.521847 0.476746 0.740419 0.197543 0.033505 0.001831 -0.028737 0.181526 0.496727 0.409143 0.581733 0.129102 -0.803964 0.115796
Bb2 0.975633 0.593731 0.289460 -0.538357 -0.176942 0.439810 0.359747 -0.773112 -1.146377 0.607825 0.404184 -1.580013 -0.196896 1.112445 0.400554 -0.092578 -0.416915 -0.106046 -0.068829 -0.201912 0.145240 0.027207 -0.345726 0.174243 0.070349
Bf6 0.579042 0.816729 0.708117 -0.264414 0.154291 -0.102721 0.333234 0.128291 -0.396548 0.411938 0.568015 -0.477909 -0.042352 0.741449 0.412443 0.547839 -0.190689 -0.456574 0.172231 -0.155287 0.037717 0.678793 -0.342263 0.584936 0.204753
Ke2 -0.522077 1.016734 -0.038838 0.808225 0.034565 0.092660 -0.112788 1.069466 0.742650 0.130430 1.019790 -1.494156 0.174201 -0.662920 0.851214 -0.746253 0.004150 0.518106 0.250229 0.607057 -0.627578 0.457480 0.539448 0.746265 0.193116
Bc6 0.462733 -0.175877 0.117580 -0.014098 -0.772060 -0.291783 0.015284 0.691109 -0.778892 -0.024618 0.453575 -0.804639 0.057254 0.701346 0.287752 -0.179852 -0.116971 -0.205664 0.370761 0.047980 0.054871 0.687218 0.395379 -0.227398 -0.287855
Bxc4 1.132613 -0.589504 0.744417 0.100673 -0.438931 -0.870284 -0.039065 0.317814 -1.124039 0.631204 0.219656 -1.006292 -0.072234 0.829474 -0.600565 -0.026947 -0.730901 0.918686 -0.153980 -0.236067 -0.641573 0.412290 -0.265120 -0.601978 0.130983
Nf4 0.855656 0.110987 0.443145 0.550251 0.147454 0.418138 0.089824 0.170188 -0.499044 0.265960 0.056722 -0.440948 -0.179934 0.565077 0.274968 -0.545937 0.687884 -1.262838 0.101477 -0.337520 0.435730 0.605229 -0.112430 -0.673989 0.292478
exd4 1.522252 -0.470613 -0.246871 -0.005224 -0.301884 0.277937 -0.220292 -0.788813 -1.034427 0.899353 0.022641 -1.014210 0.142711 0.592705 0.545857 0.169698 -1.053359 0.540117 -0.062538 -0.387126 0.834234 0.547831 -0.345475 -0.676102 0.197264
Bb3 0.656131 -0.761454 0.250890 -0.064179 -0.605343 -0.236625 0.568012 0.707211 -0.837511 1.106476 0.167143 -1.107701 -0.356130 0.618686 -0.141751 -0.064381 -1.017012 -0.226110 -0.475840 0.061223 0.675394 0.856599 0.544376 -0.633902 -0.473276
Qa5 1.570839 0.122474 0.857129 0.365636 0.250083 -0.046166 -0.424793 -0.442213 -1.133691 0.148828 -0.105096 -0.893302 0.867994 1.306643 -0.342226 0.772399 -0.182724 0.421463 0.599597 0.110373 -0.474022 0.256060 -0.054380 -0.634172 -0.648416
Kf3 -0.410560 1.368749 -0.221176 -0.173805 0.033495 0.614919 0.098348 1.366801 0.664075 -0.134575 1.498164 -0.749063 -0.339671 -0.833170 0.403509 -0.917283 -0.354669 -0.390232 -0.248589 0.650611 -0.023620 -0.067421 0.711022 0.212162 0.903630
Kh2 0.897027 1.686341 0.021193 0.272076 -0.645776 0.202019 -0.180890 0.393381 -0.021411 -0.224940 0.544083 0.004057 0.371047 -0.274581 0.470576 0.960921 0.850483 -0.333695 -0.558188 -0.077385 1.046805 -0.570664 1.228549 -0.546911 0.202180
Nb3 0.488413 -0.325466 -0.077483 -0.306181 0.389343 0.033924 -0.070205 -0.272285 -0.650778 0.785872 0.386463 -2.106259 0.476726 1.239247 0.373551 0.221681 -0.195387 -0.355887 -0.009762 0.204298 0.111819 0.292212 -0.207320 -0.396435 -0.687701
axb5 0.606655 -0.285029 -0.624633 -0.313054 0.227386 -0.566915 -0.328200 0.037364 -1.358405 -0.543523 1.185343 -0.514640 0.438246 1.013355 0.880090 0.265567 -0.612540 -0.033523 -0.169031 0.037234 -0.032682 0.238262 -0.411101 0.212465 -0.532350
Nd3 -0.123038 0.533188 0.346693 0.337293 0.207318 0.107366 -0.339306 0.091291 -0.166824 -0.055448 0.516686 -1.405087 0.115837 1.248903 0.539713 -0.270714 0.536665 -0.927851 0.024360 -0.104783 0.244397 0.007598 -0.213045 -0.145403 0.288152
Ke3 -0.804886 0.382362 -0.199907 0.406030 -0.133205 0.474310 0.130357 1.570118 0.190650 -0.249345 0.925853 -1.235407 0.054633 -0.716415 0.505682 -1.856784 -0.309868 -0.445779 0.349627 0.763338 -0.045615 -0.054461 0.864230 0.153486 0.858584
Ra8 -0.265214 0.475601 -0.056382 -0.329664 0.381344 -0.249896 0.839660 0.858781 -0.716482 -1.268109 1.336537 -0.796150 0.232706 0.593946 0.526112 0.402781 -0.002164 -0.152448 0.006776 -0.027864 0.211499 -0.102351 0.550604 -0.032968 0.087403
Ne6 0.322985 0.630403 0.191364 -0.393280 0.130515 0.125994 0.085153 0.205016 -0.450027 0.089654 -0.062702 -0.534415 0.187778 0.831382 0.512808 -0.385679 0.468302 -1.472164 -0.179665 -0.162396 0.204968 0.467105 -0.098357 -0.454214 0.304824
Bd4 0.289825 0.767675 0.241499 -0.395340 0.323828 -0.361222 0.026359 0.528990 -0.237559 0.262993 0.695120 -0.725207 0.066177 0.427629 0.466631 0.546291 -0.032004 -0.510733 -0.173226 0.244398 0.113415 0.484033 -0.357758 0.043667 0.185728
bxc3 1.526684 -0.020767 0.807628 0.403778 -0.030646 -0.204063 0.163975 -0.162291 -1.205179 0.319481 -0.289112 -1.311174 -0.131995 -0.026074 -0.796574 0.384198 -0.362050 1.134757 1.168258 -0.251595 -0.221174 0.283943 -0.771899 0.199185 0.295425
Qf3 1.385942 1.087745 0.575068 0.161155 -0.226206 -0.268400 -0.423333 -0.069773 -0.623915 0.753190 0.268770 0.587547 0.209543 0.757707 0.359620 0.818676 0.191096 0.077637 -0.205785 0.112257 0.044744 0.836716 -0.003685 0.090875 -0.586625
Kh1 1.907354 0.875232 -0.480100 0.180843 -0.187028 0.128451 -0.217532 -0.252536 -0.352874 0.744995 0.331686 0.258594 0.401273 0.164244 0.554864 0.950819 1.473072 -0.550137 -0.846050 0.037166 0.566752 -0.025029 -0.079767 -0.719670 0.218972
Bxd5 0.979199 -0.064856 0.431009 0.531029 -0.225289 -0.565742 -0.336934 0.444565 -0.772809 -0.238381 0.024510 -0.021276 -0.349820 0.764797 0.186785 0.013211 -0.951322 0.288642 -0.056628 -0.689552 0.204432 1.429707 -0.568824 -0.896089 0.105118
Kf1 0.371140 1.633300 -0.395886 0.677929 -0.457174 0.472443 -0.387574 0.414200 0.778218 -0.149551 0.608869 -0.984492 0.089045 -0.445357 0.799254 0.055652 0.653497 0.529941 0.105406 0.090363 0.025630 0.569826 0.358528 -0.110016 0.497775
Nd6 -0.040926 0.422077 0.025138 -0.050705 -0.111682 -0.321197 0.071997 0.493506 -0.684783 -0.357849 0.159976 -0.714384 -0.152309 1.069691 0.093092 -0.693693 -0.076184 -0.524006 -0.629303 -0.251584 -0.366317 0.794225 0.069794 -0.147963 -0.002032
Ke6 -1.023414 0.749481 -0.036582 -0.785185 0.319812 0.065859 -0.028449 1.187199 0.133350 0.012744 1.278111 -0.840763 -0.569654 -1.003326 0.539861 -1.537162 -0.629483 -0.346709 0.227343 0.159598 -0.107721 0.431509 0.862327 0.720754 0.644512
Bf8 0.321587 0.805670 0.658494 -0.290909 0.271345 -0.048639 0.564857 -0.055907 -0.604796 0.170022 0.688139 -0.661947 -0.150068 1.254530 0.163390 0.637870 -0.112554 -0.573816 -0.458428 -0.059127 -0.033720 0.758576 0.217443 0.259886 -0.478770
Ne3 0.691108 0.223367 -0.408512 0.522174 -0.034447 -0.000618 0.129471 0.827513 -0.605688 0.187049 0.603298 -0.488239 -0.169121 0.691716 0.428654 -0.452262 -0.025766 -0.542861 -0.940668 -0.149806 -0.080614 0.718315 -0.052899 0.111869 -0.616073
Re7 -0.205419 0.936971 -0.040889 -0.301046 -0.225140 -0.125013 0.050180 1.177531 -0.676415 -0.172344 0.212217 0.321072 -0.108405 0.858551 -0.339722 0.090857 0.237776 -0.230530 0.157935 0.085466 1.211806 0.669833 0.637763 -0.101745 0.446627
Rc2 -0.281169 0.982699 0.107578 0.131387 0.512516 0.480671 0.399214 0.749615 0.217124 -0.623093 0.906301 -0.780402 0.287839 1.263061 0.205648 0.119647 -0.095550 0.546195 -0.065848 0.151594 0.347073 0.242104 0.344963 -0.946232 0.430959
Qe3 1.012720 0.753226 0.528355 0.657684 -0.273227 -0.120419 -0.616498 0.201925 -0.618557 0.297264 -0.273412 0.137074 1.020611 1.144135 0.225774 0.634907 0.517495 -0.205037 0.100977 0.321603 0.165294 0.498915 0.614943 -0.278034 -0.521115
Rad1 1.597885 0.449697 0.096881 -0.645762 -0.893918 -0.032107 -0.274092 0.021967 -0.778817 0.922759 -0.542766 -0.259313 0.240712 2.106040 -0.001785 0.565087 0.171997 -0.566361 0.038976 -0.320529 -0.228727 1.612626 -0.785140 -0.337380 -0.371314
Bf3 0.546274 0.071445 -0.092842 0.461258 -0.996639 -0.141651 0.065398 0.720119 -0.790737 0.111619 0.423886 -0.554391 0.115659 0.689250 0.360190 -0.387805 0.403840 -0.158508 0.331612 0.339788 0.130260 0.822612 0.427083 -0.002865 -0.102808
d3 1.137303 0.115852 -0.276439 -0.608956 -0.128829 0.470307 0.444174 -0.634263 -1.130364 1.143949 0.149765 -1.472864 -0.064060 -0.248457 -0.009689 0.123598 -0.619993 0.682564 0.021050 0.254699 0.996332 -0.201103 0.171800 -0.177153 0.309106
Qf6 1.145542 0.886024 0.496121 0.600041 -0.560488 -0.094101 -0.486006 -0.122644 -0.854581 0.266832 -0.584573 0.372403 0.663563 0.701737 0.442439 0.457140 0.512826 -0.268461 0.181174 -0.226111 0.715888 0.512023 0.620939 -0.113252 -0.148956
Qd6 0.820336 0.612687 0.556719 0.270770 -0.415921 -0.359764 -0.866155 -0.302393 -0.855416 0.374772 -0.279121 -0.046229 0.425411 0.988639 0.077564 0.639365 0.154517 0.153209 0.043389 -0.108230 0.778254 0.651750 0.775030 -0.596175 -0.472881
Be4 0.425775 0.189280 0.301631 0.465617 -0.502357 -0.069647 0.156882 0.589841 -0.540978 0.403587 -0.002687 -0.751596 -0.177140 0.412329 0.288026 -0.488729 -0.032788 0.253155 0.199971 -0.518323 0.460784 0.778144 0.345406 0.020252 0.183456
Kg6 -0.196307 1.323861 0.459865 -0.873580 -0.168284 0.396339 0.111350 1.345395 0.344372 -0.089768 1.333457 0.225666 -0.216088 -0.739313 0.310303 -0.711466 -0.676968 -0.623532 -0.483888 -0.022103 0.119944 -0.533800 1.415750 0.089554 0.768291
Ng5 0.663129 0.506307 0.579268 -0.057894 -0.278852 -0.043065 0.146704 -0.314224 -0.839391 0.776072 -0.545377 -0.447746 0.090725 1.067245 0.138260 -0.632929 0.721817 -0.571088 -0.238035 -0.823302 -0.065063 0.291816 0.036788 0.585571 0.814217
Ng4 1.150442 -0.004569 -0.397362 0.035659 -0.185865 -0.222213 -0.009737 0.265874 -0.629132 0.940672 0.482166 -0.230289 0.508830 0.789063 0.576159 0.080675 0.321162 -0.617832 -0.910460 -0.117993 -0.298446 0.345077 0.006651 0.693108 0.269657
Ra7 -0.073636 0.323165 -0.021340 -0.693644 0.426671 -0.013880 0.761910 1.097341 -0.640404 -0.892881 1.042296 -0.555759 0.187148 0.910469 -0.029985 0.075577 0.037757 0.028315 0.051378 -0.581457 0.138630 -0.166461 0.751321 -0.223951 0.211116
Bxe4 0.726184 0.807735 0.260655 0.469195 -0.493631 -0.592897 -0.445175 0.361386 -0.656216 0.272133 -0.327498 -0.655179 0.173622 1.192867 -0.494885 -0.221665 0.087667 0.669708 -0.388975 -0.535423 -0.582013 0.308390 -0.657608 0.722253 0.818563
Rf8 -0.024606 0.816704 -0.006487 -0.094952 0.464546 -0.512358 0.308638 0.852156 -0.767138 0.336739 0.000669 0.562891 0.315804 0.407976 -0.069136 0.176458 0.805463 -0.029253 -0.457217 -0.053939 0.629016 0.437637 0.768898 0.258441 0.556641
Bc2 0.555282 -0.499150 0.162383 0.418516 -0.600244 0.088877 0.306829 0.720815 -0.969637 0.858165 0.364391 -1.442951 -0.375721 0.789492 -0.319521 -0.147888 -0.235039 -0.698293 -0.245429 -0.163005 0.664345 0.421569 0.560719 0.544732 -0.627026
Bd5 0.160790 0.286349 0.142804 0.175119 -0.668798 -0.471252 0.184044 0.847254 -0.560374 0.064808 0.124820 -0.712141 -0.198836 0.486934 0.201816 -0.354397 -0.191278 0.035085 -0.248509 -0.322568 0.406162 0.639907 0.443474 -0.389180 0.169878
Nb5 0.502657 0.196664 -0.108072 -0.324624 0.509809 -0.072773 0.096054 -0.455552 -0.987602 -0.570612 0.503795 -0.972440 0.093076 0.891870 0.626900 -0.377527 -0.258773 -0.350123 -0.118347 0.108992 -0.605872 0.925767 -0.522355 -0.692020 -0.307160
Kd7 -1.300389 0.556338 0.126366 -0.356360 0.994992 -0.643403 -0.371178 0.293760 -0.585064 -0.324299 0.659566 -0.586440 -0.292066 -1.178864 0.879358 -1.130436 -0.074907 -0.311936 0.975501 0.397516 0.039317 1.378641 0.665158 0.794605 0.039853
Qd8 1.135084 0.455169 0.485624 0.181841 0.005151 0.005274 -0.046605 -0.444212 -1.045164 -0.095821 0.325447 0.182686 0.316896 1.211598 -0.104048 0.962411 0.403584 -0.405748 -0.238583 -0.132289 0.114518 0.547235 0.746874 -0.083727 -0.713887
axb4 0.408703 0.030816 -0.338361 0.450830 0.208011 0.104054 -0.169846 0.286660 -1.298146 -0.754720 0.191461 -1.311990 0.606645 1.149119 0.291742 -0.307045 -0.205314 -0.210279 0.344454 -0.251923 0.425546 -0.252542 -0.321741 0.308709 -0.441766
Ba6 0.451605 -0.363279 0.067669 0.464818 0.085237 0.078225 -0.130831 -0.570316 -1.091412 -0.126136 0.492072 -1.468713 0.202347 1.209515 -0.192952 -0.147152 0.159886 0.443914 0.212949 0.208483 -0.145631 0.297435 0.224669 -0.529294 0.139550
Kg3 0.018789 1.236785 -0.162462 -0.078232 -0.356060 0.762507 0.005926 1.257918 0.474222 0.001680 1.142259 -0.201082 0.133706 -0.888116 0.567929 -0.624604 -0.190168 -0.382326 -0.444729 0.270744 0.750815 -0.825525 1.608134 -0.219616 0.722885
Bc3 0.058669 1.157308 0.382428 -0.352026 0.073252 -0.021664 0.234377 0.121081 -0.462627 0.037500 0.630180 -1.285055 -0.243964 0.800307 0.267139 0.170103 -0.104379 -0.247048 0.166617 -0.010442 0.153515 0.267342 -0.424195 0.742969 -0.023505
Ra1 -0.304887 0.352311 -0.083478 0.015417 0.385388 -0.219853 0.941691 0.913569 -0.822421 -1.297501 1.200614 -1.148211 0.369332 0.407070 0.547763 0.391831 -0.121369 -0.045191 -0.043509 -0.062071 0.506002 -0.571956 0.542257 0.123547 0.073472
Be5 0.325273 0.864227 0.693775 -0.252423 0.044862 -0.334460 0.185725 0.233505 -0.239248 0.335250 0.681038 -0.275134 -0.368502 0.465226 0.423293 0.288583 0.254437 -0.331136 0.139607 0.065075 0.012575 0.829282 -0.452138 -0.010595 0.680931
Kd6 -1.479039 0.060086 -0.154829 -0.306348 0.452712 -0.354744 -0.071820 1.045495 -0.610697 -0.142324 0.670231 -1.113617 -0.486386 -1.177469 0.647892 -1.998826 -0.280374 -0.445213 0.659177 0.211476 0.601475 0.381608 1.116790 0.467535 0.315506
Bxf3 1.335880 -0.279282 -0.144384 0.027563 -1.527666 -0.321212 -0.096331 -0.563031 -0.938849 0.613715 0.112990 -0.633966 0.451721 0.980400 0.971823 0.144014 -0.017558 0.915969 0.225754 -0.319191 0.103103 0.265054 -0.313032 0.065411 0.732683
Na5 0.631774 -0.659930 0.008079 -0.057894 0.030120 -0.407129 0.086344 0.108939 -1.035239 0.517503 0.426641 -1.739700 -0.028848 1.320574 0.128524 0.140340 -0.337528 0.116914 -0.122554 -0.301700 -0.157211 0.760130 -0.229281 -0.342743 -0.984629
Rd3 0.013790 1.049161 0.326362 -0.160862 -0.228717 0.083358 0.281481 1.610805 0.335162 0.198477 0.484230 -0.461475 0.259800 0.637954 0.327651 0.196140 -0.112632 0.256058 0.663506 0.260091 0.438271 0.514042 -0.063006 -0.359262 0.093066
dxe4 1.062788 0.354638 -0.045210 -0.048558 -0.617043 -0.164173 -0.422182 -0.238037 -0.851568 1.155421 -0.229560 -1.049313 -0.063175 1.094883 -0.838923 -0.148868 0.123276 0.677224 -0.368446 -0.328687 -0.501734 0.147458 -0.379781 0.956516 0.564793
Bxe5 0.505516 -0.063908 0.246474 -0.295440 -0.636474 -1.033249 -0.664241 0.197090 -0.316010 0.604199 -0.023582 -0.514930 0.704108 0.990887 0.662044 0.662370 0.282432 -0.218350 0.129390 -0.418085 -0.031124 0.581304 -0.261080 0.280530 0.918527
0-1 0.736606 0.810051 0.255839 0.402143 -0.141811 0.071737 0.453176 0.037080 -0.187596 0.996078 0.275940 -0.632927 0.039106 -1.546390 0.362626 -0.413542 -0.190267 0.926814 -0.417207 0.859667 0.416764 -1.149962 0.138708 -0.529807 0.655635
Kd3 -1.073240 0.630157 0.047354 0.359452 0.583395 -0.102768 0.396166 1.385963 0.003171 0.089345 1.276510 -1.113296 -0.418933 -0.949196 0.670115 -1.735348 -0.559552 -0.017084 -0.050438 1.155286 -0.205640 0.151396 0.059167 0.482412 0.254913
Re2 -0.075606 1.277841 -0.192910 0.053119 0.161513 0.176800 0.415107 1.129670 -0.288888 0.172096 0.339225 -0.058346 0.110921 0.718206 -0.033520 0.343885 0.248761 -0.173044 -0.168154 0.813403 1.250131 0.206348 -0.272501 -0.194750 0.496255
Nbd2 1.615194 -0.617327 -0.494707 -0.886599 -0.862061 0.074902 0.362178 -1.538797 -1.963542 1.847560 -0.027237 -2.320355 -0.270472 1.210904 -0.203620 0.047535 -0.439041 0.647385 -1.000306 -0.599990 0.152253 0.064885 0.349408 0.379621 -0.554200
Bxc5 0.396071 0.346363 0.052235 -0.859045 -0.186958 -0.702627 -0.649623 -0.076651 -0.244008 0.634598 -0.138208 -1.987138 0.175340 0.795854 -0.161839 0.551555 0.426124 0.298952 0.483638 -0.511026 -0.287429 0.471966 -0.534524 -0.250925 0.128430
Bf1 0.443412 -0.106490 -0.026770 0.771621 -0.539942 -0.027162 0.280148 0.122191 -0.843781 -0.458300 0.562509 -0.946245 0.187796 1.147655 0.415789 0.029361 0.682204 -0.195489 -0.147921 0.180305 0.367196 0.301697 0.615387 -0.656138 -0.261768
Nb4 0.506116 0.072657 0.351470 0.320350 0.513950 0.247856 0.249336 -0.164739 -0.477067 -0.021781 0.093290 -1.557488 -0.091507 0.891318 0.662411 -0.403529 -0.442491 -0.190922 0.147985 -0.435333 0.187550 0.505135 -0.777613 -0.901477 -0.421565
Bxd4 1.047677 0.076058 -0.211068 -0.114333 0.151824 -0.257270 -0.559384 -0.125017 -0.171135 0.662947 0.136241 -0.798721 0.728319 0.625156 1.034828 0.821540 -0.655576 -0.124808 0.002608 -0.071081 0.497312 0.596735 -0.853245 -0.399523 0.345656
Rd6 -0.216214 0.808468 0.239652 -0.721800 -0.450503 -0.048721 0.202145 1.551322 -0.152553 -0.330930 0.271537 0.100302 0.236722 0.798925 -0.026809 -0.033187 -0.182998 -0.014500 0.734373 0.158188 0.389684 0.807590 0.540903 -0.756191 0.280426
Nh5 1.698215 -0.143214 0.242978 0.518775 0.093415 0.469377 0.088854 -0.110720 -1.106193 0.512947 0.631403 -0.220370 -0.309681 0.903831 -0.344655 -0.063137 0.985860 -1.122693 0.041347 -0.089971 -0.149536 0.644312 -0.255016 0.004781 0.216667
Ng3 1.516730 -0.023711 0.114422 0.815884 0.148385 0.569628 -0.015369 0.200474 -0.928746 0.804469 0.731112 -0.251399 -0.446896 0.678302 -0.704701 -0.258369 0.528196 -0.885280 -0.266777 0.283472 -0.091642 0.437336 -0.315209 0.490727 0.091913
Rfd1 1.517905 0.586337 0.031315 -0.682565 -0.950474 0.360809 -0.215836 -0.347270 -0.473227 0.055973 -0.223910 -1.000879 0.450043 2.605846 0.064464 0.758022 0.210606 0.163216 0.392998 -0.549831 -0.742159 1.402776 -0.456898 -1.055866 -0.522697
Qxd4 1.585188 0.067421 0.126640 -0.037713 -0.307231 -0.245902 -0.964987 -0.477673 -0.654130 0.679819 -0.490575 -0.428861 1.020452 0.328015 0.602924 0.571425 -0.867220 0.683293 0.269830 -0.288768 0.266065 0.596044 0.047130 -0.571273 0.304380
Na4 0.422501 -0.439374 0.400597 0.113481 0.070078 -0.388087 -0.379561 0.132085 -0.800502 -0.081477 0.471964 -1.671988 0.221386 1.649596 -0.307745 0.002931 0.403330 -0.438035 0.388336 0.244493 -0.741882 0.691636 -0.288926 -0.675535 -0.378427
Ng6 0.855104 -0.029723 0.097885 0.047563 -0.105484 0.373828 0.127892 -0.211903 -0.544946 0.994672 0.201168 -0.249525 -0.306235 0.644884 0.616579 -0.125596 0.746322 -1.002176 0.011177 -0.681056 0.446440 1.043056 0.248100 0.249461 0.004207
Rb7 -0.351511 0.636337 0.178381 -0.646687 0.604395 -0.190032 0.457079 1.316247 -0.358150 -0.990599 1.253505 -0.557729 -0.070178 0.506273 -0.165180 0.348902 0.210355 0.045984 0.372163 -0.387003 0.222246 -0.116987 0.640038 -0.303299 -0.127844
Bh4 1.234807 0.182974 0.485746 -0.289526 0.008501 0.144900 0.442073 -0.478665 -1.073485 1.410854 0.679590 -0.590087 -0.751643 0.454466 -0.492049 0.113066 0.570593 -0.059003 0.134953 0.323731 -0.140177 0.634813 -0.369073 0.392799 0.241880
Rc6 -0.513207 0.644710 0.439235 -0.511883 0.429555 0.160948 0.141763 1.028892 0.128157 -0.679474 1.144768 -0.080365 0.087051 1.052096 0.210846 0.013863 -0.511362 0.240520 0.375046 0.029740 0.110228 0.582095 0.374830 -0.870870 0.386411
Nc7 0.365506 0.199214 -0.031547 -0.173818 0.145933 0.040668 0.119509 -0.337333 -1.313368 -0.793826 0.492628 -0.618309 -0.236422 1.146629 0.252586 -0.620917 -0.040823 -1.060533 -0.204050 0.175158 -0.101899 0.563654 -0.456999 -0.463169 -0.037958
Rf1 0.152809 0.831112 0.045435 0.329406 0.505420 -0.414438 0.421885 0.945618 -0.518410 0.501312 0.108425 0.304918 0.514400 0.167734 0.156576 0.415616 0.731351 -0.227516 -0.403317 0.366880 0.857382 0.081102 0.282301 0.378693 0.576401
Rf7 -0.016771 1.038801 -0.053636 -0.250184 0.936055 -0.072319 0.149692 0.746597 -0.897126 0.132653 0.066374 0.776986 0.198865 0.539332 -0.220562 -0.137365 0.770220 0.023150 -0.043260 -0.404536 0.814698 0.456467 0.570099 0.295242 0.360180
Rd4 -0.207096 0.628141 0.259640 -0.259300 -0.532920 -0.190427 -0.005998 1.910444 0.133503 0.190405 0.454562 -0.137349 0.400437 0.784905 0.157619 -0.230409 -0.423572 0.324172 0.564755 0.319099 0.437667 0.315431 0.203472 -0.491208 0.306607
Kg1 0.688886 1.728099 -0.382714 0.747636 -0.574969 0.151104 -0.475519 0.418232 0.468195 0.220333 0.486911 0.025063 0.450908 -0.440764 0.741591 0.165922 1.137732 0.699974 -0.726891 0.078205 0.478280 -0.315662 0.899180 -0.350298 0.627057
Kd2 -0.463784 0.108566 0.278176 1.726347 0.313771 -0.100943 -0.044303 1.278940 0.059575 -0.043004 0.582440 -1.167590 0.094641 -1.109654 0.459614 -1.018316 -0.260607 0.157484 0.635104 1.116908 -0.067410 0.386724 0.234156 0.635812 -0.004767
Rac1 0.861865 0.198000 -0.006687 -0.092773 -0.359297 0.409053 -0.594309 -0.802699 -0.388248 0.079343 0.038180 -1.012473 0.238806 2.715109 0.200524 0.332111 -0.075758 0.302477 0.177069 -0.653592 -0.525202 1.637754 -0.190607 -0.618867 -0.145082
Na6 0.898253 0.199559 0.069632 -0.206704 0.275857 0.484488 -0.126247 -0.968461 -1.568038 -0.200232 0.081887 -1.599076 0.105157 1.305801 0.066812 -0.980955 0.080709 -0.298588 0.427444 -0.038354 -0.542725 0.095382 -0.663258 -0.378581 -0.183885
Rc5 -0.321339 0.384805 0.218917 0.087891 0.045566 0.335386 0.053748 1.460899 0.143228 -0.598055 0.986136 -0.238983 0.183210 0.911970 0.469539 -0.283490 -0.751579 0.592457 0.683906 -0.162023 0.600972 0.669571 0.642832 -0.997636 0.083116
exf5 1.362335 0.476297 -0.432752 0.314203 0.804100 0.260567 -0.304640 0.360441 -0.889093 0.278050 0.369970 0.127633 -0.254980 0.266699 -0.101122 -0.088589 -0.105448 -0.818307 -0.178858 -0.277395 0.035807 1.130964 -0.796567 0.681556 -0.193108
Rg8 0.636969 0.441002 0.046015 -0.083952 0.678133 0.273948 0.898779 0.736449 -0.840199 0.328116 0.230317 0.679598 0.341954 -0.476791 0.424114 -0.156399 0.765179 -0.137363 1.039994 -0.022389 0.184285 0.824748 0.444595 0.916447 0.139949
Qc6 0.496453 1.325185 0.741869 -0.169162 -0.218645 -0.650556 -0.689756 -0.165795 -0.532480 -0.094429 0.252321 0.104940 0.449244 0.911692 0.426019 0.958496 -0.090651 0.152270 0.095679 0.279426 -0.080068 0.761065 0.244502 -0.303366 -0.868537
Re3 0.059547 0.785196 0.063486 0.345593 -0.327159 0.099189 0.084120 1.331653 -0.383112 0.259372 0.294829 0.061281 0.117081 0.664492 0.130136 0.126016 0.089879 -0.172594 0.441180 0.339575 1.514425 0.169069 0.066178 0.130639 0.464244
Qd4 0.707961 0.986988 0.560834 0.416335 -0.458543 -0.395507 -1.048116 0.142619 -0.651973 0.024602 -0.363611 0.145137 0.899436 0.672012 0.028484 0.642600 0.050077 0.062430 0.090943 0.379989 0.465524 0.100049 0.744971 -0.516106 -0.510737
Ke5 -0.947842 0.371163 -0.144431 -0.278002 0.340610 0.351082 0.385525 1.454568 -0.245042 -0.132301 1.136690 -0.843446 -0.719871 -1.528031 0.327531 -2.381318 -0.495380 -0.592980 -0.037438 0.287235 0.435732 -0.420875 1.077899 0.063106 1.010655
Rc4 -0.390872 0.623168 0.243224 -0.150120 0.595020 0.272377 -0.067646 1.193831 0.438862 -0.205790 1.194903 -0.502098 0.291060 0.903760 0.542468 0.047232 -0.588794 0.577205 0.446235 -0.005962 0.553169 0.281556 0.270174 -0.872197 0.338703
Bh6 1.183249 0.220449 0.232438 0.256896 0.780805 0.018164 0.363336 0.060030 -1.079189 0.355986 0.165397 -0.134093 0.433567 0.860870 0.100921 0.364743 0.306387 -0.871183 -0.390679 -0.197807 -0.167712 0.354068 -0.264400 0.641086 -0.287062
Bxc6 1.028172 -0.510292 -0.457570 -0.568605 -1.049209 -0.724371 -0.148866 0.111539 -1.098256 -0.176272 -0.251079 -0.975452 0.367940 0.126626 0.917888 0.223740 -0.405359 0.231541 0.698616 -0.493582 0.111337 1.191781 0.067295 -0.740872 -0.406534
Qc3 0.615930 1.146225 0.401019 0.683944 -0.501838 -0.233601 -0.784071 0.028199 -0.720215 -0.361125 -0.206504 -0.259047 0.793603 1.151719 0.150792 0.607695 0.191521 0.076625 0.077904 0.053272 0.443627 0.104209 0.666792 -0.203370 -0.811406
Ke4 -0.952834 0.651617 -0.006746 -0.577937 0.420111 0.288023 0.559953 1.289442 0.249504 0.342659 1.589895 -0.996636 -0.705423 -1.508815 0.852983 -1.797225 -0.559330 -0.578473 -0.109112 0.446385 0.309500 -0.323351 0.623287 0.269608 0.817943
Nxc3 1.550771 0.215734 0.988857 0.327011 -0.240168 0.137867 0.212411 -0.488792 -0.949432 -0.151828 -0.369889 -1.517915 -0.487548 0.089687 -0.748318 -0.216566 -0.479161 0.993383 0.924531 -0.534285 -0.554065 0.281240 -0.992449 -0.767458 0.562527
fxe5 0.338308 -0.504663 -0.233910 -0.377118 -0.147953 -0.725143 -0.567486 0.488659 -0.583336 0.812334 -0.196628 -0.354151 0.859756 0.627604 0.527035 0.103145 0.195268 -0.583574 0.130640 -0.185507 0.085631 0.556617 0.158196 0.450261 0.561639
Bg3 0.548500 0.332859 0.449454 0.039320 -0.106083 -0.135788 0.047016 -0.445309 -0.563406 1.084240 1.000787 -0.586689 -0.928843 0.663777 0.102205 0.087031 0.931497 -0.150779 0.096735 0.269101 0.058633 0.940775 -0.338977 0.047790 0.294816
hxg5 0.216914 -0.457775 0.946200 0.399916 -0.240142 0.146299 0.123047 0.426050 -0.395497 0.463935 0.454852 0.331094 0.679644 0.757225 0.462991 -0.402242 0.046204 -0.646201 0.594826 0.332493 -0.099093 0.358607 0.769014 0.495643 1.184180
Bxc3 1.213278 0.599216 0.659083 0.378192 -0.270241 -0.216880 0.004877 -0.340470 -0.975777 -0.036576 -0.248873 -1.314232 -0.052282 0.511240 -0.476381 0.441614 -0.105497 0.980970 0.843040 -0.196831 -0.211367 0.188754 -1.231966 -0.069797 0.692869
Rac8 1.016012 0.064819 0.287656 0.604650 -0.251929 0.508287 -0.476934 -0.219620 -0.099388 0.218394 0.021373 -0.827973 0.635039 2.564412 0.175700 0.523553 -0.304219 0.185944 0.362911 -0.161046 -0.086029 1.359354 -0.387939 -0.730290 0.059902
Rc3 -0.396760 0.430587 0.074241 0.476560 0.245755 0.335092 0.099071 1.051203 0.217229 -0.317167 0.884966 -0.772868 0.230559 0.916442 0.446914 0.002099 -0.158896 0.615600 0.495072 -0.127536 0.917361 0.231138 0.663108 -0.696564 0.283716
Ne8 0.589260 0.084580 0.185250 -0.063286 0.103590 0.388145 0.343006 -0.139663 -1.301314 -0.718246 0.562732 -0.500881 0.075138 1.552554 -0.238811 -0.400766 0.143882 -1.066109 -0.122899 0.189199 -0.649502 0.609992 0.385285 -0.011780 -0.296590
Qg4 1.190242 1.033111 0.622929 0.392779 0.174671 -0.015600 -0.364345 -0.310912 -0.369526 0.811858 -0.183114 0.521174 0.429718 0.683987 0.330150 0.801545 0.578379 0.051542 0.043304 -0.485127 0.257592 0.975973 0.272268 0.312525 -0.014192
Rd5 -0.422814 1.158829 0.183797 -0.843178 -0.478034 -0.125591 0.049579 1.647786 0.404612 0.140688 0.682256 -0.010863 0.069072 0.841139 0.452113 0.068345 -0.408145 0.274540 0.583833 0.194287 0.550010 0.496545 -0.080203 -0.408662 0.250209
Qxd5 1.141352 0.738718 0.413294 0.109018 -0.106923 -0.472836 -0.823407 -0.397211 -0.532997 0.212474 -0.236533 -0.060930 -0.026309 0.072987 0.251222 0.419932 -0.769967 0.928736 0.004979 -0.578645 0.249730 0.857597 -0.419927 -0.699515 0.119757
Ba4 0.430652 -0.633344 -0.012054 -0.021868 -0.508593 0.120549 0.391438 0.344294 -0.654974 0.353695 0.353443 -1.469496 -0.197851 0.171318 -0.043637 0.135621 -0.483860 -0.188748 0.107472 -0.028803 0.474414 0.568664 1.028304 -0.326664 -0.704242
Qf4 1.087981 0.919264 0.652381 0.672976 -0.557679 -0.152404 -0.593231 0.134140 -0.628109 0.227762 -0.316153 0.704435 0.667987 0.696829 0.119234 0.676544 0.145593 -0.043108 0.117642 0.134069 0.399009 0.657627 0.770141 0.006604 -0.211385
bxc6 1.192004 -0.292256 -0.527198 -0.544856 -0.904797 -0.373071 -0.095441 -0.291940 -1.158025 -0.167301 -0.088613 -1.031869 0.147493 0.189208 0.511796 0.324671 0.130556 0.490122 0.690968 -0.460575 -0.037402 1.001962 -0.148372 -0.601775 -0.298368
Rad8 1.320347 0.486337 0.096134 0.108776 -1.115589 0.081167 -0.284425 0.373061 -0.334316 1.046067 -0.669282 -0.380243 0.219744 2.098784 -0.139171 0.539140 0.291709 -0.253734 0.072796 -0.147053 0.206431 1.207404 -0.870391 -0.219347 -0.324818
Qe6 0.773310 1.609593 0.502193 0.044191 -0.227606 -0.303400 -0.558707 0.004457 -0.500818 0.204333 -0.016480 0.594830 0.415712 0.955704 0.327366 0.798719 0.075253 0.153112 -0.420570 -0.078311 0.218279 0.740959 0.421961 -0.028828 -0.602054
Kf5 -0.745503 0.831941 0.296976 -0.881756 0.151554 0.530954 0.375435 1.069540 0.209100 0.182044 1.756040 -0.333223 -0.729262 -1.228333 0.505581 -1.654028 -0.561424 -0.552272 -0.208913 0.346470 0.361046 -0.764665 1.047687 0.040625 1.361848
Rb6 -0.142971 0.295127 0.122223 -0.575108 0.268881 -0.085892 0.400734 1.521396 -0.325071 -1.107007 1.355029 -0.468354 0.032892 0.541716 -0.036404 0.121164 -0.050747 0.165483 0.765567 -0.362892 0.253637 -0.142145 0.616656 -0.583456 -0.014039
fxe4 0.438182 0.710000 -0.291342 0.533731 0.044591 -0.466473 -0.543546 0.305338 -0.917309 0.037800 0.081190 -0.503048 0.046227 0.953442 -0.547390 -0.501102 0.609201 0.279784 -0.573293 -0.053432 -0.435519 0.131859 -0.528776 0.739146 0.631193
Ra2 0.008648 0.577063 -0.485543 0.013568 0.795289 0.305408 0.902020 1.164802 -0.440461 -0.802531 1.341818 -0.954416 0.287842 0.552428 0.330953 0.233009 0.288203 0.223041 -0.213061 -0.101955 0.558601 -0.658509 0.278237 -0.257440 0.212129
Bg6 0.635299 -0.289303 0.344854 0.622392 -0.146817 0.164969 0.116165 0.298672 -0.926018 1.058946 0.052715 -0.759793 -0.751043 0.375882 -0.826329 -0.403502 0.052906 -0.330019 -0.066376 -0.355868 0.735428 0.593549 0.468478 0.424362 0.008383
Qa4 0.902476 0.756291 0.475208 0.034023 -0.092018 -0.299971 -0.425443 -0.915388 -0.911153 -0.183151 0.032302 -0.809390 0.428999 1.171684 0.263257 0.863986 0.159241 0.879502 0.287022 -0.290511 -0.057392 0.510322 0.117183 -0.700652 -0.950095
Kf4 -0.599656 0.562320 -0.159572 -0.250073 -0.238242 0.605689 0.452327 1.510619 0.109332 0.017798 1.460745 -0.613760 -0.521595 -1.258385 0.322461 -1.727180 -0.741528 -0.276684 -0.385562 0.371845 0.396719 -0.783502 1.437211 0.452230 1.021015
Re6 -0.077261 1.195295 -0.025434 -0.479090 -0.243556 -0.212591 0.073996 1.101474 -0.577013 -0.173081 0.572925 0.729258 -0.347498 0.553884 -0.025060 0.154153 -0.148251 -0.095752 0.238717 0.243219 1.204295 0.653526 0.000699 0.080758 0.477448
bxc5 0.109269 0.390565 -0.196399 -0.167815 -0.435422 -0.378284 -0.709964 -0.105171 -0.946500 -0.451961 -0.187519 -1.598413 0.109359 1.271238 -0.459165 -0.183774 1.168805 0.168940 0.776591 -0.647806 0.046088 0.043352 0.033716 -0.056974 0.120759
Qc5 0.825754 0.816997 0.394495 0.228695 -0.143081 -0.448945 -0.805975 0.354843 -0.551978 0.096985 -0.213193 0.042142 0.880025 0.778401 0.200310 0.879609 -0.115955 0.125530 0.054731 0.198521 0.341049 0.586090 0.649400 -0.698019 -1.083967
Qe4 0.836608 1.538327 0.788648 0.266814 -0.236155 -0.313609 -0.744996 -0.069232 -0.147954 0.378544 -0.085948 0.376030 0.297302 0.368471 0.588214 0.712975 0.018881 0.368540 0.001718 -0.181064 0.415853 0.543177 0.395017 -0.204702 -0.580353
Ra6 -0.216531 0.194919 0.065525 -0.811188 0.593470 0.103944 0.797769 1.295044 -0.547058 -1.059399 1.602368 -0.394351 0.144077 0.765981 0.258730 0.054894 -0.104520 -0.082104 0.228028 -0.262467 0.170322 -0.374409 0.514237 -0.265961 0.234343
gxf5 0.970509 0.881783 -0.315192 0.150152 0.749258 0.509463 -0.165811 0.793723 -0.584573 -0.102904 0.489550 0.163822 -0.221966 0.045423 -0.210846 -0.328419 -0.107467 -1.142599 -0.052528 -0.199660 -0.011797 0.871799 -0.412647 0.833785 0.078082
Bc8 0.109825 -0.255076 -0.264623 0.415039 -0.299643 -0.096911 0.056956 0.463893 -0.977627 -0.197908 0.348258 -0.679776 -0.130164 1.148324 -0.173776 -0.259683 0.762253 -1.018307 -0.109358 -0.004714 0.331723 0.746999 0.707493 0.113682 -0.210360
Qc8 0.949361 0.854067 0.537936 -0.263336 -0.149659 -0.167720 -0.205113 -0.864358 -0.806246 -0.081347 0.593567 -0.031615 0.075016 1.179224 0.270441 0.888638 0.336286 0.002339 -0.326133 -0.135666 -0.178058 0.453769 0.498704 -0.289092 -0.604952
Ra3 -0.029545 0.044349 -0.281795 -0.055298 0.665487 0.376799 0.575799 1.240668 -0.362846 -0.673096 1.578078 -0.861013 0.229336 0.733720 0.098433 0.131555 0.305994 0.092174 0.331880 -0.181880 0.714747 -0.842601 0.363763 -0.217463 0.261521
Kd4 -1.346760 0.055661 -0.037621 0.313462 0.133155 -0.312980 0.321868 1.553929 -0.655206 -0.067207 1.065367 -1.279471 -0.766631 -1.390396 0.274038 -2.532669 -0.278071 -0.446587 0.011283 0.687214 0.488789 -0.447792 0.694834 0.233874 0.727225
Qe5 0.925690 1.302601 0.622401 0.457470 -0.355907 -0.264117 -0.865476 0.286847 -0.499888 0.072484 -0.310442 0.707354 0.741445 0.456994 0.160048 0.492990 0.086712 -0.020855 0.179126 0.308793 0.385335 0.503140 0.650675 -0.359252 -0.384734
Nxc5 0.210629 0.248854 -0.010666 -0.585999 -0.193584 -0.294870 -1.206266 -0.082523 -0.258901 0.150439 -0.415304 -1.984782 0.535058 1.275033 -0.466753 -0.025218 0.596739 -0.408978 0.752361 -0.520984 -0.261526 -0.125603 -0.482878 -0.270801 0.192206
Nf8 0.397026 -0.069545 0.684384 -0.025146 -0.083661 0.304044 0.461867 -0.326082 -0.834739 0.336879 0.252574 -0.219743 -0.194075 1.249997 -0.184911 0.244231 0.654152 -1.262284 0.116210 -0.051404 0.238605 0.826963 0.650700 0.375400 0.216189
Rfd8 1.495284 0.447488 0.501225 0.174608 -1.012513 0.412861 -0.163532 0.169929 0.279308 0.447804 -0.316764 -1.090004 0.659116 2.463405 -0.007573 0.924047 -0.232897 0.381996 0.414374 -0.371542 -0.629973 1.094390 -0.738160 -0.765939 -0.359000
Nxc6 1.268383 -0.553987 -0.352232 -0.568871 -0.626166 -0.483751 0.002305 -0.314005 -0.701114 0.157903 -0.193136 -1.183743 0.356343 -0.050908 1.344598 0.178160 -0.461431 0.297282 0.540495 -0.836873 -0.139105 1.186248 -0.333936 -1.088022 -0.703558
Ke8 -0.603818 0.890242 0.347819 -1.239316 0.810864 0.021549 -0.297958 0.592493 0.166292 -0.056138 -0.031343 -0.603804 0.402717 -0.919336 0.329244 -0.568396 -0.222391 -0.487160 0.922006 -0.403162 -0.753357 1.196382 1.404671 0.790641 -0.046779
Qh4 1.620869 0.638103 0.496860 0.789079 -0.244931 0.019616 -0.060807 0.018080 -0.613718 0.636577 -0.416449 0.795191 0.431891 0.882502 0.099945 0.632196 0.880580 -0.271381 -0.050344 -0.394472 0.109058 0.777338 0.001909 0.349590 0.092144
Rxd5 0.256851 0.775907 0.483752 -0.255445 -0.416622 -0.441931 -0.265513 1.377801 0.320524 -0.253602 0.274540 0.390622 -0.231718 0.442438 0.380018 0.102870 -0.975964 0.554109 0.304763 -0.554982 0.295678 1.045032 -0.629953 -1.044298 0.272456
Bb6 0.021232 0.609359 -0.331971 -0.827058 0.174317 -0.202540 0.265675 0.115805 -0.029509 0.530561 1.112544 -1.312369 -0.538588 0.506572 0.604868 0.507445 0.137572 -0.350878 -0.384883 0.332722 -0.013081 1.158535 -0.201851 -0.184316 -0.410632
Qe8 0.738375 0.827844 0.609643 0.041185 -0.012082 -0.169393 0.111576 -0.759986 -1.145632 -0.030543 0.043464 0.371772 -0.088511 1.080813 0.028993 0.772904 0.503631 -0.281428 -0.440296 -0.225077 0.269670 0.595526 0.585454 0.113647 -0.526589
Kc7 -1.377098 0.190221 0.066912 -0.598770 0.511207 -1.298339 -0.037918 0.746242 -1.046863 0.252007 0.128950 -0.554857 -0.401400 -1.391356 0.320556 -1.211430 0.892886 -0.089761 1.186312 0.626974 0.188861 0.911162 0.869416 0.450488 -0.731421
Kb1 0.464044 -0.459689 1.825247 0.748209 1.519625 -0.696014 -0.011825 0.785829 -0.452517 1.707330 -0.204832 0.120142 0.838023 0.162588 -0.335978 -0.072726 -0.721662 0.141644 0.705004 1.691910 -0.789356 0.635657 -0.803452 -0.672716 -0.712023
Qb7 0.609680 0.893408 0.669261 -0.029803 0.146890 -0.337244 -0.527551 -0.512129 -0.567616 -0.469650 0.660598 -0.024906 0.528759 1.459540 0.505041 1.046727 0.003745 0.143570 -0.118104 -0.084502 -0.167652 0.294265 0.395265 -0.603629 -1.072330
Qh5 1.487372 0.715292 0.391007 0.456205 -0.078714 -0.064089 -0.028126 -0.335426 -0.539125 0.939820 -0.318403 0.785413 0.303540 0.767103 0.558655 0.761057 0.813595 0.172947 0.005042 -0.768991 0.162279 1.100621 0.027339 0.629250 -0.032340
Qd5 0.453833 1.633793 0.597774 -0.209323 -0.235576 -0.552087 -0.880195 -0.400602 -0.421381 0.371701 -0.215681 0.114411 0.526271 0.516133 0.400497 0.816286 -0.107783 0.671822 -0.035306 0.062076 0.316268 0.274177 0.365948 -0.019633 -0.436941
bxc4 0.460950 0.030052 0.642617 0.155282 -0.273065 -0.728474 -0.072440 0.534358 -0.816724 0.211660 0.534525 -0.556753 -0.067820 1.369797 -0.377011 0.023587 -0.600120 0.650356 -0.318231 -0.112395 -0.452568 -0.196758 -0.651763 0.072604 -0.103469
Rfe1 1.210484 0.380656 -0.166472 -0.158769 -0.879929 0.026901 -0.497454 -0.543375 -1.326453 0.204633 -0.371603 -0.091153 -0.271741 2.231540 -0.396985 0.704364 0.279785 -0.241890 0.219538 -0.410200 0.880409 1.331549 -0.743624 0.100298 0.001400
Rg1 0.722190 0.371067 0.232867 0.537136 0.543083 0.431168 1.337560 0.837586 -0.581088 0.483586 0.522289 0.573938 0.411057 -0.346680 0.435244 -0.251747 0.735666 -0.003348 0.406460 0.508908 -0.126323 0.320651 0.175717 0.823158 0.269713
hxg4 0.247050 0.144684 -0.491886 0.133239 0.080291 0.026960 -0.182386 0.620697 -0.034310 0.488092 1.631305 0.257455 0.275135 0.389235 0.708087 0.138725 0.123326 -0.494534 -0.361881 0.688651 -0.326266 0.605629 0.430248 1.277060 0.552343
Ra5 -0.259212 0.040845 -0.185624 -0.600906 0.371788 0.144401 0.440197 1.649955 -0.201302 -0.782879 1.648300 -0.561145 0.139087 0.627004 0.356385 -0.116239 -0.439175 0.327171 0.448867 -0.201016 0.375579 -0.356841 0.438880 -0.433364 0.232408
Rb2 -0.147037 0.749157 -0.263799 0.048914 0.519976 0.173082 0.701040 1.415849 -0.207691 -0.982038 1.107608 -1.010510 0.065254 0.212529 -0.082262 0.233011 0.536873 0.332685 0.264612 -0.171334 0.566573 -0.571398 0.484251 -0.498788 -0.008270
Qf5 0.789146 1.636866 0.770466 0.340800 -0.367624 -0.211962 -0.620868 -0.226677 -0.211881 0.388624 -0.094336 0.633075 0.200440 0.629808 0.227215 0.882100 0.350338 0.154383 -0.042805 -0.137485 0.478678 0.644639 0.379593 0.214583 -0.057818
Rb3 -0.092712 0.520825 0.152774 0.122075 0.498181 0.110513 0.245407 1.342596 -0.161832 -0.763285 1.520360 -0.923432 -0.083525 0.442345 -0.164997 0.334027 0.378057 0.518875 0.622703 -0.200451 0.585276 -0.510634 0.248617 -0.199307 0.042368
Qc4 0.493273 1.456118 0.833014 0.158531 0.099140 -0.485920 -0.800859 -0.131468 -0.332028 -0.071634 -0.049574 -0.100918 0.539134 0.848316 0.354018 0.972436 0.009520 0.259874 -0.035251 0.189198 0.246042 0.299143 0.285241 -0.643212 -0.730463
Re5 -0.063800 0.838017 -0.060376 -0.040393 -0.467955 -0.128760 -0.190063 1.719260 -0.410141 0.157087 0.396832 0.749188 -0.173084 0.559094 0.057307 -0.227258 -0.289518 -0.007533 0.405772 0.264536 1.569696 0.352801 -0.071209 -0.135638 0.469878
Kd5 -1.614036 0.577647 0.051360 -0.683321 0.839303 -0.368798 0.434099 0.937859 -0.375175 0.260875 1.432158 -1.090293 -0.888464 -1.486458 0.837978 -2.039168 -0.220231 -0.606236 0.020318 0.525808 0.498153 -0.484369 0.278804 0.571917 0.701781
Rb4 -0.146420 0.182938 0.066954 -0.213271 0.336852 -0.157663 0.082432 1.910576 -0.046149 -0.603051 1.689961 -0.701371 0.160260 0.660526 -0.094490 0.230177 -0.078351 0.549559 0.483473 -0.259333 0.395429 -0.601968 0.402561 -0.489163 0.014660
Ra4 -0.274372 0.314742 -0.250740 -0.446510 0.535834 0.150723 0.561839 1.441666 -0.272443 -0.761349 1.595154 -0.793483 0.337287 0.648247 0.506074 0.100647 -0.334995 0.442418 0.409355 -0.160392 0.473288 -0.618812 0.211776 -0.235019 0.325104
fxe6 0.572336 0.073947 0.557553 -0.831385 0.692545 -0.442088 -0.270574 -0.058385 -0.323469 0.682919 -0.784613 -0.444580 0.855050 0.313298 0.286776 0.572389 0.091352 -0.960390 0.465891 -0.329458 0.027788 0.712498 -0.363304 -0.389829 0.661132
Qg5 1.279674 0.689249 0.154056 0.918831 -0.236843 0.044950 -0.377804 0.240971 -0.474656 0.240138 -0.339505 0.849214 0.629426 0.754302 0.244561 0.580746 0.715918 -0.222600 -0.247157 -0.286992 0.285706 0.895994 0.607207 0.037983 -0.071255
Re4 -0.195123 1.015416 -0.128076 -0.088002 -0.167703 -0.174103 -0.084272 1.384680 -0.165600 0.364046 0.672100 0.481695 -0.084910 0.537731 0.404759 0.097754 -0.342129 0.254731 0.196593 0.351983 1.577962 0.296398 -0.292215 0.091873 0.531969
Qg3 1.412690 0.464278 0.706518 0.769857 -0.274496 -0.151613 -0.357334 0.091369 -0.510752 0.802965 -0.177139 0.851441 0.478625 0.654435 0.184979 0.787443 0.684647 -0.370152 0.156703 0.156227 0.315514 0.791556 0.253294 -0.025515 -0.154902
Rb5 -0.370123 0.400637 0.120395 -0.507556 0.295533 -0.159241 0.226192 1.763563 0.053748 -0.628079 1.684970 -0.756807 -0.146436 0.529077 0.005519 0.262914 -0.201794 0.689480 0.694473 -0.463336 0.391154 -0.256381 0.366928 -0.349718 0.003974
Qb4 0.597567 0.684702 0.637260 0.452266 -0.350783 -0.373278 -0.806271 -0.118384 -0.747960 -0.461340 -0.154741 -0.378410 0.703772 1.316680 -0.122160 0.799990 -0.080862 0.210887 0.138021 0.132616 0.217433 0.036863 0.516405 -0.648295 -0.909178
Rxd4 0.293156 0.189358 -0.146378 -0.266132 -0.459186 -0.218464 -0.265916 1.097318 0.403200 0.106491 -0.198547 -0.062099 0.914801 0.418145 1.055939 0.468663 -0.906466 0.370324 0.531295 -0.265756 0.891427 0.460374 -0.235678 -0.911818 0.561884
Bf2 0.342253 0.748161 0.132141 0.020334 0.458404 -0.032902 0.116860 0.059872 -0.309982 0.784137 1.253243 -0.719021 -0.726556 0.444532 0.297333 0.109915 0.892609 -0.779513 -0.318639 0.760680 0.038048 0.623335 -0.528374 -0.123369 -0.462609
Rfe8 1.446571 0.297740 0.043011 0.494675 -0.798333 0.166618 -0.262751 -0.096124 -0.717605 0.530050 -0.190309 -0.118104 0.049569 2.264128 -0.350343 1.174109 -0.121963 -0.253543 -0.181229 0.027759 0.811687 1.029240 -0.949873 -0.052452 0.146420
Qd1 0.952529 0.975990 0.482132 0.748409 -0.190043 0.357315 -0.047052 -0.557125 -0.448107 0.175166 0.301029 -0.349282 0.353611 1.067998 0.331521 1.070203 0.376623 0.215764 -0.392674 0.002687 0.436089 -0.035885 0.567984 0.006921 -0.795722
Bxf5 1.334882 0.501841 -0.432081 0.605106 0.498841 0.127501 -0.289214 0.672451 -0.779494 0.192134 0.140842 0.130142 -0.554671 0.049705 -0.385800 -0.107624 -0.011503 -0.719864 -0.328279 -0.653633 0.371221 1.202451 -0.573048 0.741127 -0.177454
gxf6 1.372933 -0.106261 0.199963 -0.145834 -0.132648 0.083572 -0.263578 0.380626 -0.710777 0.273826 0.135846 0.101698 0.394992 0.024063 -0.056878 0.419192 -1.247089 0.003531 0.853632 -0.049452 -0.406768 1.122498 -0.196777 1.107128 0.202010
Nh4 1.198371 0.403649 -0.190612 0.423220 0.007782 0.612982 0.260843 -0.386026 -0.842217 0.859792 0.188064 -0.411276 -0.764450 0.629390 0.040351 -0.253362 0.785864 -0.564827 -0.350517 -0.956853 0.454970 1.013925 0.031902 0.583538 -0.136084
Qf2 1.193830 0.428599 0.527458 0.972130 -0.197731 -0.250359 -0.342388 0.446048 -0.468620 0.732535 -0.029312 0.676981 0.698506 0.704412 0.095207 0.851546 0.810760 -0.556699 -0.180075 0.792146 0.445246 0.454777 0.249997 -0.584718 -0.834635
Rf2 0.298238 0.620232 -0.383259 0.632421 0.739213 0.093286 0.507570 1.248613 -0.598596 0.521405 0.098483 0.424165 0.823609 0.335369 0.183360 -0.160077 0.827113 0.081185 -0.371185 0.603055 1.023254 -0.169094 0.252797 -0.173453 0.361377
Kc6 -1.792226 0.688322 0.127444 -0.945404 0.911836 -0.909335 0.229019 0.835444 -0.853027 0.380085 0.819966 -0.629795 -0.909356 -1.294556 0.453749 -1.855375 0.260002 -0.135246 0.460669 0.645978 0.377141 0.129066 0.261157 0.382422 -0.240314
Rf3 0.079495 0.749127 0.068386 0.361341 0.621896 0.020335 0.164650 1.238198 -0.315346 0.736706 0.391714 0.556791 0.402757 0.302571 0.154873 0.181649 0.633154 0.085972 0.127492 0.100009 1.253003 -0.184600 0.167349 0.284492 0.371799
Qxc4 0.963930 0.673518 0.810293 -0.069464 -0.215004 -0.954659 -0.724213 -0.233112 -0.727329 0.349383 -0.028735 -0.259773 0.340871 0.760661 -0.029917 0.612708 -0.395601 1.165606 -0.215022 -0.334559 -0.354403 0.032000 -0.301047 -0.667324 -0.349161
Kg5 -0.305392 0.794703 0.127692 -0.532034 0.088201 0.626194 0.189275 1.195409 0.176856 0.234236 1.538110 0.058430 -0.524196 -1.430799 0.211003 -1.424721 -0.420634 -0.478867 -0.492817 0.096932 0.524289 -0.935320 1.686738 -0.166586 0.874301
Bh3 0.640578 0.059301 -0.297943 0.386784 -0.179334 -0.005858 0.139744 0.005709 -0.771993 0.140530 0.071834 -0.203621 0.233646 0.984461 0.268350 -0.205500 0.914110 -0.475387 -0.291903 -0.054169 -0.130541 0.794442 0.295674 -0.035361 0.051533
hxg6 0.640571 -0.459844 1.363935 0.680929 1.032566 0.156694 0.187095 -0.027813 -0.368308 0.776888 0.095684 0.222468 0.176703 0.645238 -0.392839 0.513928 -0.189157 -0.512668 0.271972 -0.371994 0.337383 0.637076 0.431253 0.376488 0.872579
Qb8 0.926637 0.440501 0.716511 -0.360326 -0.556873 -0.104114 -0.223595 -0.974180 -0.730995 -0.467561 0.877536 0.071799 0.146295 1.368724 0.318110 1.054513 -0.037922 -0.386186 -0.345537 0.262372 -0.342143 0.298276 0.696449 -0.985388 -0.994502
Kc3 -1.308381 0.004480 0.234868 0.681913 0.401824 -0.557221 0.612261 1.653492 -0.527231 0.339250 0.521298 -1.049619 -0.106112 -1.034845 0.483131 -1.963936 -0.321699 -0.021532 0.213888 1.375488 0.303337 -0.350163 0.227281 0.090069 -0.262757
Rf6 -0.208176 0.859189 -0.067074 -0.201456 0.371489 -0.277474 0.089426 1.158912 -0.769890 0.317704 0.243187 1.083210 0.102602 0.406036 0.038346 -0.392299 0.753347 0.137643 0.040824 -0.175885 1.263645 0.201927 0.553481 0.029104 0.604324
Bc7 -0.370439 0.680362 0.383514 -0.748249 -0.269152 -0.375306 0.273288 -0.040541 -0.071403 0.466259 1.219744 -1.017885 -0.945982 0.723116 0.416435 0.257592 0.486233 -0.492174 -0.001652 0.340897 -0.126729 0.951677 -0.239631 0.129914 -0.097097
Rxe5 0.081190 0.113341 -0.274499 -0.403370 -0.890452 -0.957156 -0.459645 1.251849 -0.404970 0.198416 -0.079884 0.459993 0.400694 0.429751 0.400751 0.476486 -0.351027 0.124889 0.125611 -0.310673 1.332386 0.223111 -0.106202 0.020362 1.066895
exf4 1.360064 -0.209217 -0.183001 0.200407 -0.043817 0.028411 -0.595379 0.595357 -0.767220 0.337597 0.166343 0.251527 0.205879 0.349187 0.123247 -0.452624 0.824434 -1.447269 0.149724 0.152532 0.133238 0.410888 -0.420078 -0.625094 0.247683
Nxc4 0.417457 -0.327370 0.458354 0.018085 -0.366224 -1.210043 -0.265071 0.338032 -0.564476 0.306538 0.243540 -0.930389 -0.023044 1.210473 -0.048767 -0.365438 -0.656162 0.810050 -0.936035 -0.679569 -1.054140 0.075066 -0.690375 -0.387566 -0.316998
Qf7 0.674765 1.502267 0.606460 0.267557 0.095610 -0.298475 -0.276528 -0.160885 -0.899438 0.200033 -0.388125 0.987560 0.083326 0.751670 0.140820 0.490233 0.582154 -0.381027 -0.087820 -0.243070 0.671266 0.847423 0.179514 0.396836 -0.488279
Kc2 -0.794674 0.570212 1.008689 0.684372 0.457132 -0.765672 0.388111 1.529935 -0.019818 0.649391 0.280029 -0.957329 0.311173 -0.810338 0.063609 -0.638504 -0.301687 0.345025 0.679079 1.681082 -0.460889 -0.053105 -0.260087 0.562145 -0.477247
gxf4 0.765072 0.016020 -0.420496 0.341335 -0.265396 0.126132 -0.420124 0.824508 -0.267584 0.146080 0.436026 0.042724 0.065312 -0.027946 0.558703 -0.673951 0.913144 -1.133188 0.310389 0.027326 0.307716 0.421123 -0.010341 -0.506314 0.427293
Rh8 -0.558468 -0.301554 0.516303 0.510946 0.559528 0.057206 1.237917 1.015663 -0.229878 0.334232 1.030888 0.424953 0.054710 -0.159250 0.675417 -0.381632 0.729633 -0.154991 0.957594 0.340201 0.204047 0.822350 0.910319 1.092761 0.653104
Rxd6 0.177285 0.668649 0.566525 -0.624762 -0.728150 -0.745513 0.050301 1.341517 -0.357724 -1.003316 -0.088245 0.865916 0.499971 0.797533 -0.141975 -0.136346 -0.295663 0.053517 0.342054 0.266960 -0.812978 0.661134 -0.274797 -0.974289 0.864858
Kg4 -0.313320 1.063748 0.517268 -0.485173 0.064278 0.862423 0.481839 0.966939 0.545428 0.351873 1.704632 0.039691 -0.591128 -1.290389 0.294762 -1.176655 -0.368206 -0.471447 -0.458664 0.425181 0.450299 -1.076893 1.364893 -0.147439 0.869629
Kh6 0.241286 1.384287 0.625084 -0.643651 -0.315141 0.526583 -0.140657 0.953604 0.170962 -0.098698 0.709766 0.872816 -0.138820 -0.887016 -0.209934 -0.430286 -0.398100 -0.535196 -0.681424 -0.157555 0.394336 -0.803662 2.033988 -0.324256 0.366552
Nc2 0.752749 0.276481 -0.599233 0.383269 0.407326 0.470850 0.589120 0.072819 -0.539422 -0.000947 0.463417 -1.331950 -0.105067 0.418387 1.052391 -0.118570 -0.756121 -0.353539 -0.638356 -0.237380 0.399268 0.485405 -0.737854 -0.016863 -0.930561
Ba3 0.056197 0.616237 0.517600 -0.207133 0.217945 0.097320 0.359560 -0.630392 -0.578539 -0.219961 0.268381 -1.542439 -0.415703 1.111523 0.148732 0.134782 -0.067093 0.012935 0.125399 -0.403942 -0.061780 0.534200 -0.377966 0.025171 -0.030225
Rxd8 0.463461 0.780689 0.407121 -0.944641 -1.586795 -0.691771 0.636188 0.936276 0.260960 0.076794 -1.002291 -1.263726 0.352397 0.166249 0.157623 0.504052 0.209591 -0.807769 -0.142460 0.142681 -1.140862 1.247942 -0.271496 -0.491131 0.140039
Qxd6 1.097852 0.457923 0.614568 -0.181236 -0.440127 -0.867048 -0.742093 -0.275508 -1.187563 -0.463134 -0.512393 0.643282 0.429039 0.729916 -0.226665 0.225259 -0.299856 0.101454 -0.152852 0.135517 -0.621702 0.763501 -0.206547 -0.827935 0.329092
Rxe4 -0.014340 1.308165 -0.014181 0.093161 -0.405606 -0.720102 -0.419770 1.031682 -0.441646 0.000757 -0.084085 0.366443 -0.027810 0.926078 -0.307900 -0.008695 -0.072757 0.632201 -0.523735 -0.050921 0.657141 -0.184066 -0.948835 0.392234 1.139216
Be8 -0.208132 -0.575496 0.374721 0.538863 -0.177371 0.188263 0.391410 0.704026 -0.723014 0.034776 0.158188 -0.668765 -0.041221 0.786526 -0.083884 -0.556373 0.495235 -1.016493 0.336005 -0.260343 0.448667 0.596346 1.361590 0.222469 -0.517599
Qxe4 0.708156 1.520902 0.484251 0.299144 -0.113097 -0.734034 -0.873780 -0.044769 -0.384040 0.356178 -0.393723 0.106584 0.388466 0.793516 -0.223192 0.487779 0.159644 1.035906 -0.265416 -0.230146 -0.432924 0.356911 -0.470539 0.491262 0.467555
Qb5 0.304917 1.151863 0.776545 0.163982 0.071294 -0.501395 -0.952902 -0.373483 -0.356170 -0.291628 0.383693 -0.236851 0.352947 1.097140 0.273070 1.025657 -0.052571 0.343675 0.042354 0.073748 0.236026 0.198933 0.256924 -0.693962 -0.921131
Bd8 -0.179522 0.717133 0.295972 -0.477894 0.580063 -0.058275 0.430230 0.072366 -0.167880 -0.043269 1.519399 -0.735874 -0.686961 0.652503 0.380704 0.407055 0.331924 -0.686910 -0.142614 0.253092 -0.364116 0.766618 -0.114464 0.565456 -0.670106
cxb5 0.690670 -0.130768 -0.300558 -0.126916 0.411037 -0.293141 -0.248057 -0.191957 -1.406401 -0.742455 0.878783 -0.566438 0.335185 0.954968 0.472034 -0.219811 -0.499556 0.174573 0.041183 0.121674 -0.308615 0.139300 -0.542392 -0.573660 -0.346262
Bc1 0.110372 0.327239 0.721665 0.105298 0.378539 -0.054651 0.709175 0.043223 -0.407796 0.659086 0.734044 -0.656463 -0.309800 1.048921 0.278222 0.239930 0.058560 -0.810434 -0.473763 0.281957 0.012586 0.238972 -0.467847 0.510049 -0.380644
Bxf4 1.051715 -0.209140 0.177658 0.266368 -0.008230 -0.178657 -0.431866 0.127802 -0.393170 0.726264 0.270825 0.230774 -0.211063 0.284339 0.449663 -0.087987 0.916784 -1.309535 0.082422 0.010588 0.461974 0.614983 -0.713175 -0.734480 0.564464
Nf1 0.857887 -0.484225 -0.460113 0.774244 -0.538749 0.269171 0.535105 -0.013891 -0.755361 0.853686 1.109058 -0.785515 -0.517821 0.976191 0.079697 0.403490 0.250693 -0.353947 -0.989961 0.363914 0.450144 0.437146 0.368572 0.679476 -0.775971
Qxe5 0.775382 0.260809 0.397394 -0.069553 -0.729672 -1.070068 -1.076985 0.220226 -0.358698 0.522951 -0.687944 0.126126 1.017166 0.426478 0.377503 0.948863 0.226197 0.060747 0.199540 -0.390590 0.189331 0.511629 0.502575 -0.101942 0.409056
Kc5 -1.468883 0.097547 0.163472 -0.108021 0.540348 -0.831718 0.575142 1.225747 -1.054217 0.075347 0.860219 -0.724451 -0.843971 -1.628990 0.743019 -2.456290 -0.240061 -0.342850 -0.076275 0.712183 0.796223 -0.476589 0.509821 -0.032410 -0.091535
Qxf6 1.558561 0.362849 0.329747 0.101961 -0.533732 -0.117437 -0.672235 -0.164532 -1.141779 0.235629 -0.450518 0.472220 0.387210 0.203330 -0.480549 0.495705 -0.854180 0.431952 0.658514 -0.316563 0.110782 0.582368 0.071925 0.855185 0.419668
Rh1 -0.529142 -0.259348 0.605815 0.663617 0.582570 0.014311 1.487520 0.941009 -0.167552 0.371689 1.137623 0.347208 0.081690 -0.096764 0.869077 -0.243661 0.744417 -0.172583 0.755157 0.469524 0.190330 0.428896 0.698123 1.162539 0.765170
Qxc3 1.273527 0.770310 0.829192 0.614417 -0.346151 -0.194044 -0.508708 -0.485783 -0.986583 -0.426552 -0.604894 -0.719229 0.306915 0.332840 -0.688115 0.561920 0.024116 1.086083 0.940386 -0.265545 -0.077717 -0.038867 -0.189529 -0.454111 0.213216
Qe1 1.175142 0.475728 0.481119 0.971501 -0.460768 -0.041420 0.044001 -0.239886 -0.635239 0.574299 0.145014 -0.149697 0.317423 0.625275 0.258861 0.979103 0.564855 -0.209320 -0.290870 0.576032 0.551448 -0.020068 0.436512 -0.261035 -0.871301
Rxc5 -0.469240 0.333118 -0.150650 -0.140739 -0.165945 -0.041596 -0.926310 0.938453 0.492363 -0.623863 0.175636 -1.053050 0.594380 1.030796 -0.018931 0.027305 -0.097102 0.669980 0.774314 -0.784852 0.366598 0.093679 0.450203 -0.944915 0.631607
Bxd6 0.341891 0.476318 0.649603 -0.526594 -0.348184 -0.840373 -0.294895 -0.386287 -0.842393 -0.378372 0.114146 0.128269 -0.315626 0.870121 -0.145892 -0.021446 -0.244161 0.168814 -0.005147 0.154128 -0.973235 1.115854 -0.831309 -0.427662 0.801219
Rxd1 0.678801 0.617080 0.467912 -0.259530 -1.794122 -0.845272 0.321325 0.769495 0.403951 0.339979 -0.874753 -1.537393 0.422869 0.217147 0.595527 0.554070 0.065890 -0.438560 0.021648 0.015077 -1.037197 1.120411 -0.256852 -0.274565 -0.109380
exf6 1.280034 -0.317527 0.060008 -0.041174 -0.116434 0.105518 -0.312482 -0.309237 -1.113612 0.289037 -0.267939 -0.024982 0.556342 0.221337 -0.018989 0.361804 -0.902969 -0.271889 0.883095 0.038397 0.012825 0.711327 -0.354331 1.315593 0.553756
Qg6 0.870251 1.268576 0.387092 0.511930 0.181549 -0.111752 -0.250333 -0.255797 -0.558556 0.511192 -0.318733 0.944776 0.190909 0.665879 0.333697 0.563801 0.736211 0.043877 -0.229623 -0.467255 0.576708 0.804986 0.171667 0.583615 -0.114325
Rf4 -0.193246 0.730384 -0.240474 0.061867 0.431326 -0.273325 0.006350 1.629725 -0.412848 0.694911 0.381244 0.856285 0.432960 0.474613 0.150684 -0.339049 0.447194 0.377118 -0.044395 0.053573 1.138002 -0.224009 0.435131 0.358303 0.511679
axb3 0.362629 -0.358974 0.039736 -0.291443 0.465389 -0.331845 0.156665 0.778296 -0.643427 0.174530 0.354338 -1.034533 0.834179 0.988085 -0.079189 1.031317 -1.177284 -0.564365 -0.105238 0.637414 0.281219 -0.219028 -0.467666 0.419272 -0.428176
Kc4 -1.585637 0.651389 0.419826 -0.241558 0.720096 -0.508592 0.612439 0.965279 -0.527271 0.408501 1.010712 -1.102972 -0.881406 -1.468231 0.895916 -2.100631 -0.122219 -0.430565 0.211022 1.082337 0.683044 -0.610411 -0.091943 0.204476 0.015920
Qc1 0.971903 0.662606 0.805041 1.013434 -0.304548 0.284914 -0.010360 -0.642297 -0.668221 -0.072365 0.051094 -0.340083 0.434747 1.105998 0.283350 0.642651 0.092781 -0.076761 -0.449196 -0.020407 0.408027 -0.230740 0.740734 -0.361065 -0.648168
Rxc4 -0.196874 0.104035 0.513061 -0.000180 0.177358 -0.668220 -0.282921 1.183126 0.188707 -0.371487 0.867721 -0.042155 0.190140 1.015823 0.080425 0.038617 -0.999123 1.110272 -0.188818 -0.316683 -0.416056 0.128684 -0.301121 -0.835635 0.649674
Qb2 0.546344 1.032483 0.532910 0.603472 -0.327232 0.219148 -0.540388 -0.412034 -0.661567 -0.749020 -0.050995 -0.625660 0.679025 1.427494 0.011192 0.751670 0.263627 0.138364 0.048633 -0.175682 0.403152 -0.415605 0.812570 -0.397384 -0.999328
Kd8 -0.899523 0.189765 -0.063243 -0.632333 1.066108 -0.455144 -0.838320 0.100409 -0.697030 -0.118193 0.160933 -0.209019 -0.147634 -1.190360 0.035754 -0.926612 0.074140 -0.050539 1.308346 0.069978 -0.055216 1.295852 1.195788 0.647082 -0.322118
Qxc5 0.750812 0.595231 0.234563 -0.133669 -0.428519 -0.564743 -1.439903 0.021517 -0.332831 0.041921 -0.646877 -0.917998 0.882211 0.792677 -0.178973 0.626237 0.217933 0.305855 0.503979 -0.525628 -0.097492 0.177052 0.230562 -0.649612 -0.336282
Rf5 -0.300953 0.904045 -0.092121 -0.306713 0.452157 -0.219454 0.197719 1.339531 -0.420234 0.743922 0.410738 1.088446 0.214056 0.371281 0.227806 -0.316713 0.390300 0.469333 0.107962 -0.041362 1.188498 -0.029619 0.303370 0.493787 0.568713
Bh5 0.690997 -0.631487 -0.039698 0.302969 -0.622022 0.133923 0.306927 -0.144769 -1.104412 1.129769 -0.071963 -0.578503 -0.527373 0.302919 -0.186956 -0.338585 0.417191 -0.349865 0.101181 -0.213031 0.848623 0.607539 0.602589 0.462807 0.147088
Bxe6 0.497356 0.115646 0.214690 -0.794694 0.128989 -0.549457 -0.186836 0.177461 -0.583846 0.411950 -1.163247 -0.485756 0.470384 0.263697 0.105041 0.108462 0.240836 -1.115934 0.151465 -0.615167 0.398988 0.687968 -0.276405 -0.580574 0.493904
Kh3 0.436089 1.910901 -0.041914 -0.297518 0.007480 0.945012 -0.090298 0.724701 0.682677 0.240359 1.100242 0.262294 0.130794 -1.020405 0.397517 0.016233 0.095856 -0.146886 -0.668767 0.358268 0.702008 -1.076315 1.384881 -0.420595 0.279897
Ne1 0.349206 0.595153 -0.449315 0.584742 -0.112716 0.983689 0.361162 -0.673606 -0.524933 -0.209636 0.515806 -1.572194 -0.230888 1.275766 0.580163 -0.449050 0.524769 -0.138947 -0.086946 -0.024591 0.015765 0.169510 -0.177518 0.309125 -0.440929
Rg3 0.434136 0.390614 0.432108 0.846130 0.589352 0.365906 0.765080 1.261573 -0.248042 0.688151 0.186603 0.984842 0.361607 0.026709 0.269137 -0.231779 0.574840 0.254100 0.674476 -0.046829 0.787079 0.043871 0.272473 0.501018 0.166839
Bxb5 0.586061 -0.579669 -0.437200 0.111358 0.385298 -0.583775 -0.718353 -0.015292 -1.056543 -1.045365 0.806838 -0.596912 0.592153 0.596034 0.532749 0.102141 -0.618009 -0.033771 0.099012 0.137480 -0.506696 0.145856 -0.404024 -0.489020 -0.285526
Na3 1.040638 -0.749394 -0.389142 -0.326425 0.078304 0.092609 0.741545 -0.757830 -1.240230 0.011012 0.800515 -1.388495 -0.070870 0.531147 0.898266 0.025671 -1.287701 0.284465 -0.411824 0.079754 -0.498315 0.373422 -0.667764 -0.120313 -1.220955
Rxc6 -0.085273 -0.026829 -0.155544 -0.437944 -0.271384 -0.234951 -0.023246 0.599088 0.181173 -1.187286 0.458185 -0.220513 0.322993 0.322654 1.003803 0.356847 -0.507942 0.613196 0.826224 -0.712105 0.255499 0.771580 0.310574 -1.265126 0.322205
Rfc8 0.997424 -0.402185 0.323318 0.899160 0.526338 0.689786 -0.327893 -0.360731 -0.146208 -0.466867 0.530998 -1.090003 0.988624 2.646345 -0.051613 0.977560 -0.568295 0.643496 0.407178 -0.233567 -0.568036 0.725195 -0.117461 -0.839202 -0.348534
Qxd3 0.936083 0.837406 0.527512 0.404301 0.513119 0.016288 -1.196989 -0.915698 -0.134924 0.700753 -0.059344 -1.022278 0.241062 0.820006 -0.489779 1.168574 0.125351 -0.004854 0.436583 0.140070 0.438409 -0.052651 -0.961853 0.166511 0.526891
Qa3 0.471997 0.593720 0.607116 0.477556 -0.070879 -0.243392 -0.588724 -0.425609 -0.976519 -0.751076 -0.050113 -0.567766 0.506437 1.373428 -0.180892 0.602867 0.300491 0.293612 0.154084 -0.140774 0.079744 -0.029078 0.620106 -0.728671 -1.013478
Bxe7 1.145903 -0.316831 -0.539544 -0.223754 0.007173 0.455336 -0.485429 -0.284178 -0.815471 -0.047663 -0.576503 -0.486893 -0.470596 0.447921 -1.616366 0.216357 -0.539008 0.448931 0.169743 -0.582800 -0.140347 1.497778 0.104046 -0.353161 0.250528
Nxe6 0.326884 0.335444 0.513893 -0.861900 0.683144 -0.274889 -0.243136 -0.312911 -0.098640 0.422945 -1.168345 -0.465396 0.649861 0.478687 0.611330 0.080613 0.191801 -1.447732 0.230893 -0.593281 0.184536 0.564537 -0.759349 -0.728422 0.773992
Rxc3 0.324922 0.090451 0.744795 0.843067 0.187212 0.164346 -0.041806 0.477560 0.056545 -0.785506 0.164703 -0.696936 0.087295 0.396864 -0.292064 0.211828 -0.500501 1.310028 1.119990 -0.620464 0.200339 0.062516 -0.116306 -0.814361 0.822464
Rxc8 -0.312076 0.152119 0.156491 0.764538 0.615991 -0.007203 -0.686406 -0.941929 0.436444 -1.061439 0.478040 -0.788495 0.229108 1.045804 0.543277 0.371427 -0.758230 0.063367 -0.753952 -0.167437 -0.678782 1.729976 1.017488 -0.934654 0.876018
Rxb7 -0.025547 0.696687 -0.183838 -0.713876 -0.040317 -0.688882 0.005353 0.919207 -0.039214 -1.110255 0.396995 -0.581534 -0.056944 0.207075 -0.054682 0.302159 0.626846 1.000119 0.370877 -1.543027 -0.088076 -0.122862 0.100664 -0.704951 0.336168
Qxe7 1.486916 0.014143 -0.340494 0.229676 -0.279684 0.211598 -0.782706 -0.310950 -1.167974 -0.112244 -0.911431 0.114624 0.046487 0.633519 -1.309241 0.347323 -0.563610 0.401433 -0.197503 -0.504856 0.203964 1.193945 0.370539 -0.641395 -0.099473
Nxf6 0.992541 -0.176461 0.520357 -0.422633 -0.433621 -0.138586 -0.501412 -0.112459 -1.051653 0.279782 0.175007 0.460940 0.053435 0.719423 -0.518880 -0.231535 -0.793955 -0.130337 0.646058 -0.201866 -0.607971 0.431231 -0.113879 1.211974 0.597253
Rxe6 -0.039449 0.984710 0.400922 -0.839508 0.119179 -0.547223 -0.154565 0.539480 -0.274643 -0.028608 -0.544275 0.655535 0.025886 0.228821 0.140949 0.442869 0.055405 -0.620442 0.384303 -0.356371 1.323284 0.384401 -0.677210 -0.624635 1.147212
Bf7 -0.022428 -0.210089 0.299354 0.447441 -0.422259 -0.146471 0.148809 0.839674 -0.815365 0.115389 -0.199175 -0.397697 -0.521994 0.375315 -0.301389 -0.620437 -0.029602 -1.160256 -0.079427 -0.148114 0.859989 0.726216 0.834140 0.007315 -0.528290
Nfd7 1.477738 -1.620689 0.380020 -0.667628 -0.085847 0.200556 -0.184686 -1.032607 -1.082163 1.225678 0.350084 -1.241635 0.764523 1.427015 -0.380991 0.547920 0.107443 -0.598072 0.195493 0.257755 -0.653195 -0.488620 0.241909 -0.515172 -0.259118
Bxg5 0.666280 -0.229861 1.077888 -0.050746 -0.097033 -0.304069 0.078217 -0.227237 -0.455428 0.858147 0.054930 0.695701 0.523706 0.934331 0.730252 -0.104443 0.112126 -0.479061 0.218980 -0.340544 -0.422754 0.364407 -0.219915 0.618553 1.032820
Rxc1 0.043184 -0.185155 0.360175 1.246323 0.624977 0.266032 -0.684484 -1.108994 0.596217 -0.710979 0.593382 -1.339813 0.600376 1.163838 1.065208 0.578370 -1.016752 -0.353069 -0.747261 -0.122447 -0.268290 1.066797 0.722166 -0.881925 0.629846
Rh3 0.010365 -0.250278 0.795881 0.877591 0.819994 0.196107 0.842320 1.132292 -0.060182 0.907747 0.630010 0.511819 0.235493 0.064480 0.486406 -0.315579 0.419429 0.392529 0.929359 -0.125391 0.488453 0.167927 0.251181 0.691831 0.341194
dxc6 1.291033 -0.573910 -0.736763 -0.834988 -1.352756 -0.591061 -0.041257 -0.350999 -1.384630 0.076600 -0.252078 -0.887499 0.087950 0.213089 0.419121 0.051265 -0.067854 0.075000 0.245899 -0.307763 -0.200308 0.585411 -0.222789 -0.363304 -0.641072
Bb4+ 0.423022 0.164432 -0.186911 -0.451216 0.322547 0.480517 0.012763 -1.426916 -0.915433 1.205703 -0.207206 -1.990646 0.146439 -0.262689 -0.072987 -1.129519 -0.809165 1.849317 0.134413 0.092315 -0.758416 0.018290 0.250455 0.607025 0.330995
Qa6 0.496292 0.909716 0.656003 0.118366 0.280773 -0.439574 -0.640595 -0.526939 -0.656679 -0.634797 0.398421 -0.373953 0.510922 1.309352 -0.069404 1.082491 0.011158 0.298765 0.028402 0.225947 -0.291135 0.023364 0.068134 -0.581982 -0.903102
Nxd7 0.386680 -0.390172 -0.019455 -1.391285 -0.162376 -0.508102 -1.412890 -0.532449 -0.208620 0.546535 0.406753 -1.157376 0.144148 0.815908 -1.067603 0.851529 -0.142925 0.221830 0.655720 -0.460952 -0.797577 0.251417 0.367177 0.223180 0.487272
Qxf3 1.292295 0.328894 0.036219 0.064198 -1.344870 -0.332105 -0.521785 -0.727425 -0.334057 0.997304 0.143466 0.229637 0.403216 0.379376 1.111103 0.729532 -0.056718 1.080596 0.199963 -0.108201 0.251169 0.138239 -0.356501 0.384339 0.362821
Nf7 -0.183355 0.351353 0.185672 -0.578170 -0.060299 -0.117252 0.346755 0.128231 -0.763017 0.356634 0.054722 -0.049643 -0.017447 0.802462 0.430059 -0.918463 0.580340 -1.309654 -0.479582 -0.229508 -0.277712 0.391585 0.404985 0.792291 -0.022583
Ke1 -0.105712 0.970503 -0.461437 1.382541 -0.105530 0.471710 -0.122902 1.158091 0.809287 0.179460 0.428823 -1.151736 0.441595 -0.952223 0.298349 -0.886166 0.563707 0.964714 0.027185 0.897357 -0.491909 0.262007 0.846522 0.041061 0.013947
Bxd3 0.326855 0.181511 0.532493 0.660025 0.440071 0.276099 -0.810788 -0.571494 -0.068644 0.557824 -0.040977 -1.613562 -0.014823 0.737328 -0.747921 0.641043 0.212735 -0.086888 0.891551 0.315271 0.668657 -0.195882 -0.896257 0.247600 0.951395
axb6 0.071916 -0.670728 -0.401739 -0.156272 -0.281764 -1.081181 -0.624683 0.171726 -1.105132 -0.821830 1.193793 -0.571290 -0.242000 0.887125 -0.449828 0.344286 0.830193 0.146477 0.246658 0.376197 -0.335540 0.410510 0.141180 -0.650742 -0.264506
Rg7 -0.021666 0.487076 0.011573 -0.037251 0.878883 0.311195 0.679502 0.966706 -0.622954 0.187827 0.248001 1.070669 0.225527 -0.322568 0.184980 -0.710507 0.928207 -0.025642 0.806832 -0.412086 0.544020 0.436357 1.006956 0.776655 0.255418
Nb8 0.113306 -0.421808 -0.144711 -0.446505 -0.121541 0.131917 0.447605 -0.923768 -1.078269 -0.125990 0.490693 -1.302775 -0.378270 1.266444 0.365397 -0.199304 0.278354 0.029757 0.314490 -0.099755 -0.117837 0.707797 0.211612 -0.137432 -0.698926
Rg6 0.210444 0.724822 -0.010919 -0.231228 0.730030 0.240733 0.596228 0.984565 -0.689637 0.170432 0.670256 1.417086 0.046514 -0.343324 0.418254 -0.511393 0.950601 0.188085 0.866883 -0.084160 0.613273 0.337872 0.447609 0.680043 0.260802
hxg3 0.872934 0.077769 -0.284083 0.928704 -0.374477 0.051706 -0.321450 0.071672 -0.170527 0.106163 1.106659 -0.086554 -0.575234 0.113811 -0.249433 0.146316 1.638995 0.296066 0.394545 0.258936 -0.161630 0.890051 0.180761 -0.189185 0.864926
Rxd7 -0.188994 0.601691 -0.133854 -1.702126 -0.345309 -0.501530 -0.819646 1.032443 0.733822 0.082813 0.006228 -0.262800 0.191978 0.559708 -0.747205 0.868976 -0.037721 0.022250 0.499833 -0.436108 -0.438373 0.687246 0.350750 -0.362021 0.127163
Rae1 1.150326 0.335579 -0.474127 0.112139 -0.291352 -0.033284 -0.786028 -0.254871 -1.358011 0.735674 -0.439411 0.583454 -0.067456 1.714709 -0.498838 0.707513 0.496698 -0.880652 0.008623 0.090040 1.355613 0.962871 -0.917531 0.674191 0.252513
Be1 -0.399246 1.023989 0.280807 0.185801 0.496971 0.292210 0.385357 0.055133 0.123490 0.252950 1.426956 -1.072468 -0.905711 0.713425 0.317693 -0.072724 0.863149 -0.200743 -0.204432 0.246825 -0.210361 0.345290 -0.249606 0.584627 -0.460860
Rfc1 0.510356 -0.065155 -0.220590 0.312319 0.247668 0.416793 -0.830884 -1.056780 -0.511990 -0.956419 0.662141 -1.105300 0.273974 2.803091 -0.083974 0.713671 0.274232 1.018315 0.361115 -1.040031 -0.329002 1.010242 0.331550 -0.827738 -0.355769
Qh3 1.158584 0.656393 0.632045 0.861710 0.283526 -0.001980 -0.049177 -0.134631 -0.211722 0.898223 -0.103029 1.183270 0.385345 0.592555 0.379204 0.548249 0.800344 -0.016553 -0.053009 -0.238404 -0.039542 0.945555 -0.006928 0.641642 -0.057145
Kxg7 1.531017 0.333475 0.135034 0.016986 -0.121062 0.619084 -0.358913 0.549194 -1.004461 -0.860310 -0.878983 0.505183 1.143774 0.359646 -0.164314 -0.450240 -0.694076 -1.161492 0.221837 -0.643776 0.007571 -0.519780 0.121504 0.015627 0.602465
Kb6 -1.847318 0.184574 0.010541 -0.480331 0.793970 -1.039838 0.183433 0.618663 -1.042286 0.479017 0.252274 -0.329977 -0.562932 -1.262233 0.784218 -1.826575 0.263637 0.252443 0.254500 0.550591 1.161289 -0.128021 0.789491 -0.229086 -0.685988
gxf3 0.774305 0.035139 -0.351832 0.245254 -1.081328 -0.248663 -0.197791 -0.284890 -0.245922 0.332599 0.319686 -0.046756 0.446022 0.272844 1.146846 0.047807 0.405065 0.732485 0.389100 -0.129980 -0.138851 0.380925 -0.261181 0.419185 0.976767
Rxa5 -0.322403 -0.076240 -0.314836 -0.266016 0.349653 -0.397693 0.363747 1.211243 -0.134303 -0.929896 0.978332 -0.759624 0.097690 0.462610 0.280371 0.134600 -0.071744 0.799831 0.035087 -1.118070 0.562512 -0.652995 0.069435 -0.393673 0.220430
Bd1 -0.224385 -0.486026 -0.069570 1.133476 -0.539155 0.154352 0.499738 0.970834 -0.464470 -0.058713 0.516570 -1.006560 -0.083517 0.501748 0.110633 -0.492005 0.304617 -0.862662 -0.158449 0.240550 0.579798 0.190942 1.093024 0.585663 -0.656760
Kb8 -0.972325 -0.048581 -0.092356 -0.455967 1.261753 -1.108849 -0.378001 -0.193517 -0.829331 1.036353 -0.212189 0.206239 -0.083934 -0.578276 0.445475 -0.469284 1.354055 0.765552 1.098656 0.802405 0.418033 1.550980 0.380328 -0.672362 -1.136481
Rh4 -0.199301 -0.142876 0.587276 0.424038 0.444477 -0.011798 0.788221 1.382092 -0.187206 0.826172 0.634038 0.768721 0.316537 0.287275 0.691121 -0.613944 0.481727 0.463777 1.030823 -0.119893 0.472750 0.025780 0.180009 0.812755 0.505004
Nge2 2.727976 -1.183192 -0.085143 0.021980 0.910945 1.094978 0.130525 -1.276804 -2.073163 0.880148 0.495929 -0.804708 -0.225688 -0.119071 -1.190806 -0.262686 0.380951 -0.891685 0.239823 0.651495 -0.506746 0.151255 -0.133216 -0.832947 -0.194684
Rae8 1.031431 0.486387 -0.586782 0.721870 -0.586322 0.073589 -0.534405 0.082070 -1.153802 0.847329 -0.429860 0.693762 -0.055584 1.736486 -0.313505 0.363135 0.590399 -0.546961 -0.259322 0.262357 1.415537 0.766258 -1.063480 0.527977 0.296433
Rab8 0.745892 -0.064713 -0.042306 0.408122 -0.172559 -0.213250 -0.054783 0.490824 -0.528755 -0.721322 0.367058 -0.917736 0.370935 1.892154 -0.346788 0.988837 0.361406 0.542828 0.521214 -0.436761 -0.392667 0.418358 -0.502029 -0.374120 -0.928916
Ba5 -0.260587 0.735789 0.416386 -0.522068 0.180795 0.140810 0.263820 -0.520993 -0.150402 0.012482 0.959701 -1.552308 -0.884466 0.675465 -0.027409 0.135746 0.075043 0.059256 0.159938 0.191904 -0.433635 0.703638 -0.274484 -0.054723 -0.330131
Kb7 -1.690547 0.307517 -0.012473 -0.707652 1.029034 -1.103687 0.172011 0.023109 -1.037172 0.338582 0.422168 -0.009272 -0.411179 -1.027648 0.684244 -0.816635 0.789598 0.415538 0.697972 1.082789 0.709492 0.731884 0.756761 -0.212046 -0.963032
Bxg7 1.477968 0.090463 0.111665 0.234923 0.230933 0.350202 -0.210415 0.108918 -1.028282 -0.683853 -0.794141 0.147611 1.055000 0.517456 0.152328 -0.321663 -0.314278 -0.866859 0.549366 -0.500203 -0.227870 -0.071757 -0.613435 0.221732 0.431208
Nxf5 1.128536 0.945624 -0.603008 0.303815 0.811347 0.240661 -0.196623 0.511838 -0.342605 0.071167 0.105991 0.222303 -0.768811 -0.285913 -0.134456 -0.238294 0.056461 -0.813090 -0.716998 -0.856214 0.080289 1.190087 -1.061194 0.584302 -0.374842
Nxb5 0.520948 -0.256341 -0.513747 -0.349319 0.521204 -0.479752 -0.604477 -0.429685 -0.891816 -0.974839 0.895044 -0.556430 0.576865 0.466244 1.054596 -0.171639 -0.995478 -0.124401 -0.128211 0.213797 -0.836002 0.192482 -0.960756 -0.398226 -0.213119
Rxf6 0.462475 0.208783 -0.212156 -0.171295 0.129624 -0.533411 -0.374147 0.913867 -1.030264 -0.049963 -0.069390 1.277955 0.469161 -0.040456 -0.313627 0.064012 -0.253383 0.325832 0.408966 -0.327105 0.615893 0.040330 0.181686 1.141088 0.756880
gxh5 0.776697 0.215634 0.707098 0.450372 0.397999 0.449304 -0.035700 0.924162 0.048926 0.326505 0.917996 0.331249 -0.258259 -0.338768 0.042068 -0.394530 -0.042431 -0.961465 0.377905 -0.414529 -0.147451 0.191842 0.274888 0.838271 0.127804
cxb4 0.266883 0.008356 -0.322160 0.346780 0.414815 -0.170644 -0.330043 -0.060665 -1.062347 -0.662359 0.205937 -1.090059 0.384256 0.879538 0.592937 -0.230918 -0.331939 0.131027 0.138264 -0.575867 0.283609 -0.174033 -0.464087 0.060240 -0.794571
Nxd6 0.274698 0.480743 0.270595 -0.153568 -0.290880 -0.870856 -0.269463 0.166059 -0.930377 -1.176058 -0.052045 0.525372 -0.155391 0.938065 -0.246653 -0.698277 -0.308217 -0.290120 -0.760184 -0.110439 -1.238654 0.690829 -0.687135 -0.461038 0.627608
Qh6 1.099324 0.687758 0.399684 0.902535 0.038724 0.216268 0.006971 -0.022930 -0.508983 0.501087 -0.667983 1.050675 0.496902 0.417028 0.294636 0.433009 0.931293 -0.398828 0.286663 -0.430080 0.273906 0.880488 0.439434 0.688170 -0.142976
Rxa4 0.011651 -0.331694 -0.043564 -0.461852 0.649021 -0.521521 0.297157 1.374365 -0.190041 -0.902269 1.301094 -0.492539 0.228770 0.272226 0.183962 0.426735 -0.626309 0.530121 0.031624 -0.943164 0.237608 -0.850571 -0.120769 -0.364552 0.127438
Rxa6 -0.099464 0.145550 -0.238808 -0.502551 0.802183 -0.457833 0.247107 0.757322 -0.402876 -1.255663 1.196363 -0.329123 0.300454 0.308380 0.455662 0.258681 0.107190 0.493964 0.202360 -0.566209 0.082953 -0.551692 -0.258232 -0.739189 0.658447
Rh6 -0.409816 -0.029920 0.471970 0.184328 0.591401 -0.084969 0.854834 0.942110 -0.462086 0.407216 0.823109 1.094303 -0.236544 -0.030200 0.470875 -0.691607 0.986253 0.383355 0.996304 -0.220480 0.386308 0.504891 0.527598 0.690404 0.580206
Qxc6 0.866773 0.365581 0.121496 -0.154586 -0.694874 -0.963534 -0.694326 -0.259002 -0.466197 -0.422721 -0.059920 -0.043399 0.412331 0.253994 0.883342 1.042772 -0.205044 0.628472 0.180513 -0.592426 0.123731 0.843506 0.128926 -0.795720 -0.633622
Rxf5 0.509887 1.030137 -0.613694 -0.057424 1.029046 -0.144425 -0.206172 1.349521 -0.434910 0.279553 0.233141 1.121537 -0.135428 -0.142498 -0.286197 -0.041848 0.153488 0.123060 -0.308070 -0.524394 0.807263 0.383021 -0.694982 0.678546 0.262572
Qf8 0.454065 0.828484 0.724101 0.251122 0.043182 -0.341208 0.258374 -0.258091 -1.024905 -0.309285 -0.332168 0.802955 0.294069 0.732232 -0.082150 0.946871 0.455687 -0.574514 -0.208011 -0.046264 0.423871 0.754974 1.029555 0.546952 -0.594130
bxa4 0.043609 -0.534289 0.411360 -0.133009 0.305282 -0.583016 -0.110562 0.806359 -0.344024 -0.028676 1.004850 -0.811433 -0.128377 0.853483 0.067161 0.188031 -0.769994 -0.042684 -0.226028 -0.491401 0.139886 -0.447324 -0.073397 -0.359083 -0.805387
Nf2 0.216134 0.326363 -0.095267 0.828950 -0.017499 0.207794 -0.149826 0.385846 -0.335364 0.485078 0.601577 -0.564399 0.195710 0.879564 -0.068866 -0.736336 1.096586 -0.990566 -0.598521 0.820388 -0.457039 -0.319525 -0.028592 0.723772 0.269098
Rab1 0.845209 -0.175610 -0.089092 0.142298 0.092235 -0.126304 -0.390063 -0.195707 -0.822580 -0.856624 0.419683 -1.101496 0.170656 1.838552 -0.462449 1.196623 0.733518 0.257407 0.799015 -0.843022 -0.156055 0.346902 -0.508419 -0.086504 -0.724087
Rg4 0.195405 0.651185 0.197690 0.181761 0.770084 0.188770 0.777967 1.358662 -0.295069 0.454639 0.574140 1.227184 0.170536 -0.142441 0.641576 -0.403860 0.466328 0.436986 0.779604 -0.058732 0.797853 0.051634 -0.097642 0.331578 0.173499
Qa7 0.461145 0.619586 0.536622 0.110131 -0.044241 -0.377241 -0.523056 -0.163896 -0.489542 -0.696916 0.435598 -0.239869 0.523132 1.064207 0.068354 1.093952 0.261936 -0.313380 -0.163466 0.054172 0.037636 -0.121634 0.610926 -0.679053 -1.251318
Nxf4 0.975977 -0.237780 0.273730 0.580056 -0.179774 0.058796 -0.394599 0.301829 -0.228648 0.285934 -0.234848 0.221730 -0.139767 0.093003 0.368742 -0.728608 1.012704 -1.521427 0.215540 -0.191382 0.433675 0.401220 -0.665071 -1.370798 0.696630
fxg6 0.508039 -0.283920 1.163909 0.619922 1.236208 -0.125411 -0.207468 0.226459 -0.283227 0.688474 -0.184179 0.766380 0.142150 0.260844 -0.546528 0.394372 -0.304772 -0.821256 -0.106784 -0.529613 0.576118 0.458844 0.345747 0.279073 1.072324
Rh5 -0.289845 0.057272 0.377083 0.189803 0.225172 -0.000770 0.945573 1.257090 -0.126113 0.542052 0.781701 0.996621 -0.061995 0.000907 0.863335 -0.515352 0.368548 0.579404 0.842157 -0.154703 0.618072 0.368205 0.248821 0.590492 0.461598
Qb1 0.612254 1.171696 0.924648 0.774687 -0.283054 0.387110 -0.229577 -0.738264 -0.227783 -0.200485 0.374380 -0.739201 -0.169950 1.008781 0.026225 0.767823 0.045268 0.312349 -0.402785 -0.304029 0.382338 -0.538785 0.606240 -0.159953 -1.130115
Rxb2 0.250029 0.507594 0.214508 -0.073117 0.490049 -0.446176 0.247537 1.299689 0.191198 -1.158085 0.159815 -0.758573 0.355329 -0.058075 -0.420011 0.711772 0.174683 0.343392 0.056554 -0.958497 0.025491 -0.910962 -0.492241 -0.737560 0.703143
