O-O 2.700133 -0.535890 1.146049 -0.477312 0.336922 -0.416028 0.099364 -1.844177 -2.949099 1.146140
Nf6 1.548486 0.593026 1.273458 -0.962741 0.318495 -0.044930 0.310324 -0.429060 -1.244964 0.869648
Nf3 1.469218 0.753567 1.079912 -0.995064 0.419936 -0.285264 0.572553 -0.556018 -1.104068 0.911914
d4 1.366131 0.910107 1.105100 -1.399974 0.442430 -0.417619 0.436070 -0.487553 -0.925248 0.807289
Nc3 1.584144 0.415268 0.872518 -1.073741 0.526031 -0.384771 0.461992 -0.658015 -1.707351 0.637181
d5 1.744641 0.344762 1.078282 -0.989473 0.466023 -0.365370 0.325447 -0.702352 -1.496567 0.791995
e4 1.484734 0.737377 1.029109 -1.141469 0.364528 -0.265431 0.360784 -0.349780 -1.145628 0.609320
c4 1.290459 0.663410 1.056005 -1.033750 0.580953 -0.367234 0.421869 -0.238127 -1.131040 0.554576
c5 1.657704 0.139277 1.072833 -0.798946 0.435244 -0.528443 0.450921 -0.432705 -1.577463 0.706953
e5 1.563478 0.185254 0.770072 -0.516880 0.351005 -0.293523 0.235187 -0.195654 -1.676286 0.945048
Nc6 1.329081 0.002145 0.811246 -0.934417 0.195662 -0.426754 0.330493 -0.581034 -2.043063 0.743372
e6 1.560649 0.497100 1.214048 -1.349801 0.647541 -0.342410 0.304125 -0.763320 -1.202188 0.959942
g6 1.247100 0.591767 0.881168 -0.250936 0.534653 0.174818 0.121150 0.196662 -1.286785 0.593730
Be7 1.418453 -0.388860 1.109387 -0.391457 0.456486 -0.276265 0.295745 -0.451964 -2.079064 1.063644
d6 1.737126 0.393716 1.336379 -1.302290 0.103579 -0.509167 0.326527 -0.860192 -1.329016 0.766090
a6 1.442821 -0.108035 1.169103 -0.546948 0.147707 -0.735880 0.971234 -0.236196 -1.894542 0.439487
b5 1.191061 -0.141878 0.722725 -0.156050 0.421901 -0.321913 0.681577 0.287136 -1.964376 0.229622
a4 1.068338 0.109290 0.576413 -0.056642 0.593755 -0.180723 0.685157 0.690609 -1.881293 -0.010922
a5 1.095282 0.112647 0.501957 0.042313 0.525012 -0.216450 0.683247 0.670710 -1.866803 -0.027367
f4 1.173632 0.415844 0.332548 0.249198 -0.017193 0.091843 0.579376 0.730806 -1.406986 0.996052
b4 1.005875 -0.053808 0.302272 0.075175 0.626149 -0.127505 0.489821 0.562807 -2.106953 0.173351
1-0 0.438092 1.089938 1.771979 -1.823800 0.199637 0.029168 -0.272501 0.113845 -0.078890 0.758986
f5 1.187307 0.411359 0.400819 0.032391 0.326644 0.375853 0.295986 0.628308 -1.355148 0.787256
Be3 1.288089 -0.073287 0.338952 0.205395 -0.003405 -0.234511 0.593082 -0.233133 -2.214853 0.895268
g3 1.298656 0.668604 0.860195 -0.114555 -0.063170 -0.308683 0.855456 -0.040403 -1.185330 0.605073
Bd3 1.536180 -0.022275 0.676844 -0.097783 0.937887 0.126895 0.462570 -0.341588 -1.884756 0.756916
h6 1.652286 -0.002805 0.784054 0.023246 0.666605 0.353450 -0.022461 0.170874 -1.588061 0.562572
h4 1.038873 0.672893 0.570236 0.317376 0.206623 0.311864 0.707105 1.063209 -1.192405 0.338022
h5 0.878198 0.771710 0.497081 0.294638 0.364307 0.399517 0.594110 1.121104 -1.264123 0.288919
1/2-1/2 0.892810 1.162343 0.700652 -1.109482 0.420531 -0.498824 0.699252 0.089506 -0.902506 0.301232
cxd4 1.971961 -0.020708 0.792916 -0.771604 0.640991 -0.642436 -0.112658 -1.315827 -1.670418 0.815182
c6 1.587426 0.187279 1.039201 -0.913547 0.142972 -0.421426 0.525349 -0.507123 -1.328975 0.612837
Bg5 1.757678 -0.140984 0.940728 0.013627 0.290578 0.147401 0.107874 -0.526127 -1.740249 1.112231
h3 1.698896 0.255844 0.708177 0.409673 -0.481802 -0.145179 0.996400 0.159221 -1.405425 0.347986
Bg7 1.500296 0.240319 1.333437 -0.311322 0.488797 0.160564 0.128006 -0.388230 -1.393775 0.872244
b6 1.310452 -0.019580 0.873247 -0.228842 0.131959 -0.566050 0.741487 -0.071779 -1.717806 0.277806
Nxd4 1.540897 0.014678 0.246661 -0.577276 0.208006 -0.532120 -0.187895 -1.040009 -1.720397 0.953518
Ne5 1.406483 -0.099649 0.320927 0.138111 -0.158575 -0.068498 -0.059362 0.100073 -1.758657 0.793940
a3 1.377310 -0.131275 0.499817 -0.243529 1.263466 -0.284040 0.208537 -0.120044 -1.978618 0.168545
Re8 1.580061 0.296348 0.545359 0.252107 -0.229955 -0.016139 -0.284812 0.603715 -1.201414 0.232281
g4 1.029310 0.611755 0.407917 0.195182 0.050837 0.428392 0.905651 0.882158 -1.079866 0.684868
Nd7 1.173715 -0.397275 0.698796 0.161125 0.222562 0.065024 -0.040315 -0.039359 -2.220063 0.581988
cxd5 1.945553 -0.235709 0.613423 -0.433306 0.181599 -0.408763 -0.310028 -0.985761 -1.772817 0.532024
Be2 1.398674 -0.028262 0.643635 0.008260 0.449280 -0.194584 0.933973 -0.450932 -1.869506 0.953688
g5 0.928718 0.594629 0.418333 0.079938 0.330033 0.543219 0.648780 1.025177 -1.062694 0.605608
Qc7 1.228723 0.101121 1.318952 1.253028 0.046978 -0.389646 -0.642021 -0.652163 -2.321371 0.105632
Re1 1.713223 0.456599 0.347802 0.089591 -0.019552 -0.212800 -0.001801 0.294773 -1.140530 0.302663
Bb7 1.588305 -0.361284 0.788837 -0.246935 0.120948 -0.373600 0.242022 -0.473085 -2.245078 0.539514
Ne4 1.527541 0.021820 0.128652 0.047515 0.052641 -0.045069 -0.124044 -0.111511 -1.491901 0.665673
b3 1.061225 0.009896 0.281576 0.124658 0.824506 -0.247257 0.132061 0.216856 -2.041155 0.157738
Bd7 1.093136 -0.367412 0.823695 0.233330 0.276200 0.065595 0.309317 -0.023308 -2.096214 0.745979
Rc8 0.956213 0.149471 0.420171 -0.064295 0.061746 -0.407785 -0.045957 0.732400 -1.839279 -0.382454
e3 2.031977 0.379654 0.725473 -1.033079 0.268762 -0.549842 0.568198 -0.957828 -1.281574 0.379478
Qc2 1.610297 0.571128 0.922481 0.967263 0.216564 -0.294789 -0.369771 -0.969398 -2.146567 -0.287791
exd5 1.693332 -0.292510 0.499896 -0.424719 0.254503 -0.584489 -0.549735 -0.718371 -1.817185 0.667846
Nd5 1.060327 -0.055593 0.081776 -0.101281 0.083551 -0.063208 -0.284116 0.224420 -1.945211 0.510475
Bg2 1.720950 0.252872 0.920928 -0.426715 0.295483 -0.484017 0.826119 -0.922899 -1.377254 0.857328
Qd2 1.342051 0.730181 0.678059 1.637786 0.388587 -0.050010 -0.476070 -0.634783 -2.057516 0.228024
Kg7 0.433919 1.970092 0.752754 -0.443942 -0.193035 0.725595 -0.687499 1.469785 -0.325958 -0.415196
f3 1.316847 0.495562 0.345388 0.211872 -0.236282 -0.284099 0.786457 0.147752 -1.366846 0.465879
Rc1 1.178400 0.371340 0.077545 -0.129303 0.209883 -0.451133 0.141944 0.491251 -1.831377 -0.558003
Be6 1.104401 -0.125823 0.274804 -0.033715 0.161958 -0.004909 -0.208078 0.367363 -1.915240 0.886636
Rd1 1.052610 0.598193 -0.036542 0.024444 0.025100 -0.707107 -0.068295 0.573231 -1.397062 -0.021065
Rd8 0.837463 0.461766 0.244428 -0.065121 -0.293374 -0.710187 -0.452314 1.074628 -1.298863 -0.001330
Bd2 1.247211 -0.013797 0.413375 0.012584 0.586567 -0.132815 0.641027 -0.485918 -2.016912 0.418810
Qe2 1.446874 0.643633 0.922364 1.391829 0.119556 -0.560393 -0.303196 -0.891493 -1.707032 0.335319
f6 0.821382 0.271051 0.424127 0.054339 0.361851 0.217761 -0.261071 0.584927 -1.316764 0.746041
Rb8 1.016295 0.046019 0.602781 -0.456057 0.075962 0.025288 0.403864 0.809940 -1.696975 -0.924898
Qe7 1.196631 0.601395 1.253228 1.443700 0.092827 -0.164148 -0.800488 -0.421003 -1.565371 0.232193
Nbd7 2.479887 -0.684865 1.335714 -0.253544 0.508301 -0.038889 0.578585 -1.891186 -2.587008 0.991165
Bf4 1.327596 -0.079158 0.653423 0.083733 -0.371992 -0.297961 0.367396 -0.232370 -1.741755 1.028155
Nxd5 1.546400 -0.205757 0.043163 -0.459047 0.059236 -0.348997 -0.992598 -0.577313 -1.826116 0.543915
Nc5 0.730647 -0.198384 -0.266869 0.141775 0.025015 -0.114958 -0.064158 0.670035 -2.235964 0.270552
Nd4 0.918440 0.060342 -0.155669 0.057217 -0.177393 -0.138254 0.113680 0.323384 -1.842291 0.461301
Nd2 1.399981 -0.102367 0.279154 0.124525 0.186396 -0.124633 0.679845 -0.535265 -2.116327 0.203098
Kg2 0.862248 2.497479 -0.089134 0.070545 -0.744630 0.037056 0.747539 0.793043 -0.247541 -0.631708
Kf7 -0.105721 1.397239 0.496176 -1.090752 0.038431 0.527470 -0.284237 1.682360 -0.464582 0.344772
Bd6 1.084622 -0.114197 0.674501 -0.165397 -0.262674 -0.265384 0.443872 0.087768 -1.718668 0.819677
c3 1.254100 -0.068017 0.530014 -0.516467 1.002561 -0.342088 0.099167 -0.482859 -1.453739 0.671777
Nxe4 1.922991 -0.011533 -0.133441 -0.293896 -0.145466 -0.047666 -0.599073 -0.853395 -1.339279 0.934168
Ke7 -0.618233 0.714247 0.583424 -1.372106 0.226987 -0.033994 -0.021658 1.667495 -0.729647 1.016315
Kf8 0.054972 1.045790 0.811670 -0.827251 0.278972 0.304435 -1.342207 1.236926 -0.618035 0.371276
Nc4 0.617083 -0.122517 -0.314333 0.185951 -0.174437 -0.102601 0.311654 0.515436 -2.130760 0.116079
Bb4 1.038990 0.151171 0.376932 -0.747292 0.434384 -0.464755 0.342403 -0.175110 -1.759554 0.285977
Kf2 0.497598 1.874021 -0.632897 -0.431644 -0.143155 -0.172534 1.000232 0.995575 -0.381110 0.040598
Bb5 0.839366 0.169474 0.411589 -0.569254 0.135547 -0.418749 0.346344 0.167817 -1.806127 0.168163
dxe5 1.476981 -0.364585 0.290863 0.408112 -0.647435 -0.352737 -0.782668 -0.255237 -1.606414 1.440051
Rb1 1.190210 0.355271 0.381360 -0.536241 0.316400 -0.103990 0.753501 0.407304 -1.634799 -1.152638
Qd7 0.886042 0.639404 1.041333 1.255682 -0.377976 -0.128429 -0.675053 -0.331534 -1.784860 -0.030130
Qb6 0.962079 0.308370 0.833224 0.906575 0.126792 -0.539350 -0.667895 -0.651847 -2.192860 -0.135899
Bc4 1.064041 0.152816 0.252628 -0.491360 0.380505 -0.164110 0.127600 0.216101 -1.626506 0.524529
Bf5 1.365215 0.291551 0.365982 -0.120377 0.402326 0.222429 -0.059218 0.021339 -1.326456 0.771476
Nb6 0.726483 -0.618216 0.300095 0.087567 -0.063988 -0.078000 0.096099 0.129047 -2.535813 0.025138
Bg4 1.547112 0.062687 0.545491 0.294270 -0.011396 -0.069291 0.434488 -0.267554 -1.377733 1.060946
Nxe5 1.340051 -0.300275 0.067725 0.010006 -0.785748 -0.415933 -0.560758 -0.304932 -1.390002 1.243734
Bxf6 1.848803 -0.206454 0.591000 -0.165273 0.294912 0.042790 -1.288561 -0.537413 -1.392438 0.691726
Kh8 1.184964 1.277271 1.103346 0.577876 0.110583 1.169419 -1.742363 0.141404 -0.439729 0.386798
Ne7 0.817189 -0.355745 0.837922 0.100314 0.116744 0.380177 0.124024 0.130440 -1.700484 0.845065
Rc7 0.597483 0.433284 0.416489 -0.083348 -0.046357 -0.222962 -0.239697 1.909547 -1.186090 -0.868480
Kh7 0.488545 2.310727 1.069565 -0.005277 -0.226586 0.896517 -1.003431 0.798724 -0.197275 -0.522699
Qb3 1.138889 0.305240 0.976162 0.681694 0.013123 -0.685992 -0.558070 -0.897570 -2.210241 -0.494005
Rd7 0.523457 0.560606 0.185953 0.057208 -0.342266 -0.667777 -0.400656 1.873587 -0.843439 -0.348794
Kf6 -0.144210 1.488773 0.167941 -1.852176 0.022144 0.532453 0.576423 2.043374 0.073119 0.308465
Kg8 0.289380 2.018065 1.158688 -0.225308 0.368840 0.794835 -1.707475 1.119627 0.025518 0.067989
Qd3 1.019410 1.178500 0.631641 1.305960 -0.025178 -0.458931 -0.586736 -0.548315 -1.630855 -0.209630
dxc4 1.702716 -0.203979 0.553083 -0.937636 0.641348 -0.852185 -0.217515 -1.103884 -1.753395 0.496746
Ne2 1.121504 0.088308 0.039623 0.719210 0.431523 0.096221 0.553596 -0.109998 -1.580520 0.733030
dxc5 1.427303 -0.801883 0.419844 -0.099835 -0.224738 -1.191917 -0.388001 -0.799219 -2.173118 0.456382
Bc5 0.703780 0.259487 0.029617 -0.340116 -0.322211 -0.490620 0.226327 0.319364 -1.622627 0.518305
O-O-O 0.927450 -1.142386 0.950019 1.484743 1.042132 -1.318171 -0.324776 -0.935992 -1.636622 3.158160
Nf5 0.806311 0.197185 0.067036 0.339476 -0.269456 0.590592 0.005991 0.428311 -1.286840 1.055582
Rd2 0.789775 0.892017 -0.452680 0.336796 0.129031 -0.729344 0.118288 1.579779 -0.869603 -0.315235
Bb2 1.442030 -0.033959 0.275992 -0.161278 0.144748 0.236072 0.315114 -0.425089 -2.148242 0.270215
Bf6 0.846446 0.362277 0.365879 0.329234 0.125689 0.345201 -0.352013 0.621015 -1.283658 0.421716
Ke2 -0.244012 1.629554 -0.905618 -0.661826 0.318236 -0.625062 1.461068 0.763305 -0.568857 0.464820
Bc6 0.592459 0.094072 0.354994 -0.008990 -0.074188 -0.221343 0.093707 0.777873 -1.593579 0.178071
Bxc4 1.336147 -0.343966 0.033452 -0.409418 0.564294 -0.732436 -0.467080 -0.399739 -1.868971 0.296054
Nf4 0.759669 0.312526 -0.105325 0.678509 -0.047895 0.654821 0.179637 0.591563 -1.271073 0.794529
exd4 1.860132 -0.168629 0.015593 -0.288015 0.247305 -0.433444 -0.400231 -0.957738 -1.684228 0.488800
Bb3 0.746712 -0.098950 -0.008725 -0.166576 0.594556 0.115847 0.092361 0.447738 -1.864530 0.522291
Qa5 1.127918 0.154485 0.748700 0.852108 0.749225 -0.752481 -0.778156 -0.852639 -2.260627 -0.280847
Kf3 0.123007 1.944261 -0.726951 -1.329966 -0.101132 0.232366 1.482178 1.628218 0.053936 0.188655
Kh2 0.831894 2.740248 0.261557 0.625179 -0.760326 0.147135 0.182079 0.233029 -0.177921 -0.755176
Nb3 0.691702 -0.437156 -0.231485 0.274991 0.366550 -0.378074 0.540248 -0.198521 -2.616768 0.108164
axb5 0.713710 -0.329754 0.411669 -0.046783 -0.322576 -0.061788 0.301257 0.166028 -1.908388 -0.525653
Nd3 0.419241 0.323153 -0.650268 0.417656 -0.122464 0.267232 0.526616 0.771532 -1.802009 -0.017135
Ke3 -0.222201 1.334621 -0.921174 -1.589782 0.514427 -0.010640 1.690243 1.667125 -0.211824 0.537062
Ra8 0.591091 0.490056 0.424426 -0.609593 -0.125801 0.323305 0.672520 1.540207 -1.264180 -1.371894
Ne6 0.401695 0.182843 0.027473 0.317784 -0.443019 0.517761 -0.204100 1.001104 -1.378990 0.598609
Bd4 0.648289 0.634779 -0.127739 0.109090 -0.188855 -0.098334 0.167464 0.789798 -1.285233 0.161488
bxc3 1.725595 -0.327861 0.234924 -0.454182 1.266763 -0.893300 -0.602055 -1.089580 -1.269675 0.331208
Qf3 0.951345 1.162408 0.837563 1.509866 -0.259343 -0.342696 -0.624549 -0.324189 -1.062374 0.463776
Kh1 1.458648 1.618948 0.222699 1.463542 -1.030249 -0.069401 0.462397 -0.654339 -0.529722 0.436629
Bxd5 1.126529 0.010221 -0.114265 0.038423 -0.033914 -0.364445 -1.210310 0.316860 -1.419450 0.159121
Kf1 0.537425 2.008748 -0.716241 0.100661 -0.625420 -0.730952 0.851798 0.264768 -0.343651 0.031054
Nd6 0.256193 0.042635 -0.077783 -0.152734 -0.418042 0.305134 -0.061115 0.967914 -1.649961 0.189243
Ke6 -0.589456 0.947645 0.181952 -2.191176 0.202124 0.201909 1.033964 1.950121 -0.134702 0.872223
Bf8 0.484710 0.237122 0.635587 0.636857 -0.107786 0.557275 -0.238712 0.713080 -1.918450 -0.127676
Ne3 0.643435 0.377796 -0.319996 0.539606 -0.151855 0.489656 0.585891 0.565700 -1.432564 0.376424
Re7 0.693030 0.749700 0.597144 0.382124 -0.200412 -0.176735 -0.404808 1.937418 -0.325386 -0.133535
Rc2 0.872833 0.748871 -0.351652 0.090379 0.076017 -0.477098 0.443340 1.458944 -1.054343 -1.334318
Qe3 0.675022 1.301080 0.556480 1.728143 0.017899 -0.466210 -0.753378 -0.062551 -1.250584 0.057890
Rad1 1.622732 -0.653004 0.212358 1.628706 -0.820793 -0.547972 -1.165328 0.268497 -2.045762 1.038735
Bf3 0.776095 0.478004 0.153263 0.564610 -0.223856 -0.248366 0.527827 0.691103 -1.212706 0.548572
d3 1.615463 0.306238 0.462316 -0.963893 0.676070 -0.406055 0.479629 -0.919196 -1.086155 0.400170
Qf6 0.891934 1.275108 0.876546 1.326608 -0.143406 -0.075844 -1.058950 -0.152388 -0.877031 0.370197
Qd6 0.673586 1.023077 0.999174 1.116190 -0.175873 -0.584942 -1.105744 -0.178389 -1.356987 -0.022424
Be4 0.901212 0.479621 0.091910 -0.078095 0.287087 -0.093499 0.057496 0.554747 -1.043698 0.530530
Kg6 0.063356 2.063454 0.472712 -1.523839 -0.084950 0.849825 0.494057 1.784456 0.407679 -0.081050
Ng5 1.232262 0.119168 0.351840 0.349687 -0.271679 0.760581 -0.396756 0.013128 -0.998995 1.136874
Ng4 1.298815 0.389603 0.029818 0.685115 -0.558519 0.592817 0.288622 0.038600 -1.036476 0.980657
Ra7 0.951284 0.144623 0.610855 -0.594076 0.058271 0.267781 0.380965 1.676658 -0.953362 -1.193596
Bxe4 1.653557 0.264570 -0.462258 0.064545 -0.142741 -0.143591 -0.790104 -0.211685 -0.983589 0.476742
Rf8 0.779064 0.926402 0.939865 0.424585 -0.138675 0.139225 -0.264774 1.166765 0.021563 0.201368
Bc2 0.734638 0.053957 -0.019608 0.248688 0.658606 0.684445 0.501376 0.499682 -1.841669 0.563488
Bd5 0.667941 0.524390 0.078619 -0.318079 -0.056080 -0.147743 -0.075844 0.872894 -1.163806 0.125065
Nb5 0.330353 -0.405183 0.156781 -0.120625 -0.401448 -0.147473 0.245126 0.148986 -2.272817 0.019969
Kd7 -1.412473 0.568204 0.939488 -1.394614 0.180184 -0.370613 0.536025 1.520468 -0.632738 1.159091
Qd8 0.718196 0.557455 1.301146 1.367002 -0.252374 0.489277 -0.696813 -0.081249 -1.573686 -0.337613
axb4 0.845776 -0.161933 -0.208609 -0.005818 0.602080 0.176972 0.119512 0.289805 -1.865229 -0.649810
Ba6 0.958712 -0.305709 0.322779 0.068889 0.127812 -0.354490 0.422287 -0.311792 -2.056876 -0.353981
Kg3 0.375714 2.541261 -0.152098 -1.020493 -0.061411 0.472617 1.175131 1.283212 0.487860 -0.299456
Bc3 0.665352 0.397463 -0.071496 0.004339 0.081179 0.055617 0.274296 0.573523 -1.572347 -0.046716
Ra1 0.649157 0.700221 0.057405 -0.707257 0.318438 0.397177 0.888326 1.212990 -1.184391 -1.589136
Be5 0.761923 0.506967 0.198005 0.167206 -0.351705 -0.028934 0.027505 0.833908 -0.997449 0.496303
Kd6 -1.096044 0.605451 0.454108 -2.083306 0.585108 -0.108798 1.261940 1.909664 -0.370252 1.007846
Bxf3 2.057519 -0.035863 0.095096 0.231727 -0.788721 -0.697774 -0.016032 -0.819103 -1.165600 0.462501
Na5 0.735133 -0.730055 0.106967 0.215402 0.315503 -0.408458 0.184991 0.021293 -2.701442 0.022613
Rd3 0.758214 0.878132 -0.429831 0.299839 0.326462 -0.914028 0.074445 1.784265 -0.581828 -0.216833
dxe4 1.890430 -0.167046 -0.045642 -0.015925 -0.028501 -0.035911 -0.377918 -0.906697 -1.190790 0.940692
Bxe5 1.142628 0.207693 -0.109700 0.365082 -0.833768 -0.403940 -0.821596 0.304932 -1.107891 0.765404
0-1 0.731406 1.961414 -0.180047 -1.069965 0.788728 -0.593831 1.207535 -0.973298 0.292927 0.281171
Kd3 -0.734164 1.204049 -0.820446 -1.515496 0.931862 -0.300311 2.019577 1.393817 -0.395088 0.692584
Re2 0.961067 1.077264 -0.403701 0.690003 0.116024 -0.420063 0.305248 1.498471 -0.273935 -0.286925
Nbd2 2.043122 -0.919198 0.953813 -0.465520 0.056677 0.260897 0.521973 -1.954346 -2.871836 0.956814
Bxc5 0.928566 -0.473325 -0.171140 -0.271182 -0.507148 -1.238096 -0.418317 -0.077663 -1.817564 0.368487
Bf1 0.746065 0.430723 0.026378 0.818544 -0.347839 0.065015 0.732803 0.366514 -1.723532 -0.524359
Nb4 0.502962 -0.328290 -0.516525 -0.033521 0.517941 -0.160234 0.113513 0.103249 -2.241101 -0.071879
Bxd4 1.262759 0.162861 -0.538742 0.210572 -0.196013 -0.561237 -0.631143 -0.261184 -1.341263 0.316800
Rd6 0.558821 0.585407 0.191665 -0.015484 -0.181215 -0.779268 -0.478267 2.185621 -0.526646 -0.297319
Nh5 1.445343 -0.024489 0.430425 1.152901 -0.128597 0.922603 0.347124 -0.012250 -1.430453 0.987691
Ng3 1.382150 0.126005 0.053002 1.111999 0.271026 1.036965 0.693748 -0.156420 -1.168470 1.074062
Rfd1 1.661074 -0.908806 0.151673 1.313746 -0.883499 -1.035014 -1.033104 0.155708 -2.667017 -0.149133
Qxd4 1.470569 0.569288 0.362820 0.012898 0.042557 -1.037360 -1.266408 -1.049590 -1.170660 0.475313
Na4 0.482665 -0.642049 -0.099286 0.560870 -0.029920 -0.532886 0.133156 0.312148 -2.722462 -0.045199
Ng6 0.836917 0.039491 0.627132 0.844504 -0.367265 0.839607 0.097183 0.412006 -1.134156 1.243242
Rb7 0.509319 0.410739 0.639446 -0.520165 0.093377 -0.034082 0.429060 1.866918 -0.850131 -1.395447
Bh4 1.398535 -0.149526 0.778518 0.471053 0.128403 0.158316 0.632076 -0.380019 -1.263264 1.325334
Rc6 0.475754 0.392374 0.110624 -0.283223 -0.027330 -0.419241 0.002466 2.063707 -0.842629 -0.991625
Nc7 0.374922 -0.404079 0.202564 0.064663 -0.513288 0.583673 0.178158 0.567098 -2.032971 0.007499
Rf1 0.869054 1.255139 0.220694 0.649524 0.244604 0.073638 0.261472 0.879424 0.092064 0.174369
Rf7 0.792376 0.686451 1.166138 0.506567 0.182237 0.113721 -0.283080 1.407106 0.086062 0.181429
Rd4 0.729596 0.747189 -0.367815 -0.036099 0.339004 -0.886493 -0.087109 1.995705 -0.405183 -0.184124
Kg1 0.834811 2.801515 -0.137472 0.507030 -0.784609 -0.591728 0.721936 -0.020985 0.362472 -0.118922
Kd2 -0.644225 1.434817 -0.988385 -0.593255 1.331937 -0.379784 1.350483 0.643137 -0.389267 0.713073
Rac1 1.335398 -0.860586 0.168289 1.195207 -0.643730 -0.609231 -0.824549 0.137277 -2.617521 -0.138254
Na6 0.925503 -0.770541 0.261760 -0.138240 0.140345 -0.057391 0.471382 -0.604214 -2.521270 0.275293
Rc5 0.612408 0.514170 -0.111243 -0.240064 0.386751 -0.657428 0.028045 2.095345 -0.801635 -1.039363
exf5 1.025488 0.128175 0.040082 0.653705 0.080121 0.828117 -0.350382 0.305650 -0.965286 1.095776
Rg8 0.719031 0.330944 1.394109 0.404611 0.678674 0.263426 0.279315 0.989632 0.316323 0.974943
Qc6 0.123298 1.144156 0.898827 1.015705 -0.385518 -0.801478 -0.996971 0.059919 -1.531311 -0.361706
Re3 1.016468 1.003640 -0.169696 0.687775 0.378118 -0.216334 0.018736 1.567858 -0.193727 0.027258
Qd4 0.374151 1.556166 0.630358 1.082081 0.003714 -0.782527 -1.072076 -0.183279 -0.988712 -0.275193
Ke5 -0.480723 1.227152 -0.058508 -2.562855 0.584199 0.557497 1.745240 1.761944 0.226559 0.784809
Rc4 0.729190 0.679472 -0.291494 -0.243269 0.397085 -0.648574 0.283231 1.813062 -0.795776 -1.084924
Bh6 1.003075 0.164021 0.469766 0.983722 0.331494 0.935828 -0.271543 0.070101 -1.354851 0.467195
Bxc6 0.830087 -0.445938 0.416130 -0.429478 -0.775646 -1.170557 -0.642493 -0.022433 -1.765792 0.379892
Qc3 0.428437 1.424326 0.474255 1.261872 -0.017523 -0.502658 -0.823056 -0.140091 -1.448750 -0.697253
Ke4 -0.488417 1.330930 -0.340062 -2.224685 0.466931 0.386717 2.016150 1.728227 0.067041 0.754544
Nxc3 1.651805 -0.476882 -0.168137 -0.877616 0.807040 -0.766709 -0.657242 -1.146747 -1.563368 0.122744
fxe5 0.788954 -0.014611 0.036312 0.183825 -0.346514 -0.151624 -0.460701 0.535139 -0.812547 1.151613
Bg3 0.859107 0.099354 0.433252 0.761979 -0.463839 -0.056458 0.930930 0.142304 -1.335164 1.025649
hxg5 0.733760 0.382724 0.349026 0.348357 0.515912 0.838578 0.002942 0.878122 -0.306991 0.948984
Bxc3 1.767600 -0.112995 -0.246445 -0.226926 0.568191 -0.871577 -0.616754 -0.845718 -1.346451 -0.013890
Rac8 1.426713 -0.459904 -0.367830 1.540546 -0.043101 -0.721879 -0.831324 0.247284 -2.253406 -0.209312
Rc3 0.740287 0.789841 -0.295942 -0.012314 0.437593 -0.554552 0.438056 1.635404 -0.804795 -1.007876
Ne8 0.482637 -0.366079 0.636823 0.581376 -0.242199 0.879640 0.130245 0.625605 -2.069757 -0.090073
Qg4 1.067766 1.072925 0.910936 1.437136 -0.144853 0.007878 -0.906199 -0.224695 -0.673329 0.702389
Rd5 0.624064 0.709073 -0.247513 0.011664 -0.102353 -1.025039 -0.153538 2.189498 -0.314227 -0.340550
Qxd5 1.033924 0.734490 0.340258 -0.143025 -0.149612 -0.974490 -1.292881 -0.694139 -0.965009 0.139628
Ba4 0.358631 0.010073 0.328915 -0.369197 0.344463 0.065444 0.394816 0.264097 -1.706355 0.024785
Qf4 0.737804 1.482043 0.799470 1.438274 -0.073981 -0.262263 -1.085278 -0.045889 -0.670342 0.185490
bxc6 1.112749 -0.510908 0.529765 -0.287165 -0.843995 -1.168705 -0.330161 -0.379837 -1.602552 0.263709
Rad8 1.619940 -0.283623 -0.432184 1.888667 -0.341921 -0.607870 -1.041611 0.325374 -1.657338 0.738815
Qe6 0.530504 1.408485 0.940769 1.288283 -0.437983 -0.368126 -1.153221 0.134377 -0.980455 -0.114062
Kf5 -0.078853 1.671963 0.184559 -2.337676 0.183030 0.797484 1.655286 1.697835 0.517030 0.447195
Rb6 0.684520 0.329315 0.486765 -0.658728 0.129129 -0.201911 0.424053 1.959707 -0.742629 -1.443486
fxe4 1.204041 0.264363 -0.298581 0.157079 -0.234064 0.029352 0.000869 -0.040649 -0.748870 0.379032
Ra2 1.135751 0.665005 -0.139241 -0.345921 0.336902 0.170292 1.184716 1.386962 -0.789744 -1.474540
Bg6 0.840986 0.052249 0.429624 0.164868 0.780581 0.838951 0.115042 0.197488 -1.117954 1.005976
Qa4 0.699242 0.387549 0.917361 0.762298 -0.093264 -1.032885 -0.617361 -0.785193 -2.073284 -0.771532
Kf4 0.018924 1.787411 -0.159479 -2.162899 0.461108 0.811887 1.766439 1.473881 0.492004 0.288992
Re6 0.773216 0.740188 0.484219 0.254324 -0.231189 -0.266711 -0.293519 1.875189 -0.006251 -0.070810
bxc5 0.786748 -0.486349 0.199635 0.052054 -0.533271 -0.769565 -0.064624 0.184361 -1.631959 -0.231816
Qc5 0.232668 1.239134 0.711899 1.203221 0.064553 -0.898224 -1.066250 0.015443 -1.385543 -0.349616
Qe4 0.437685 1.726776 0.702530 1.073251 -0.122458 -0.662941 -0.976066 -0.204527 -0.787821 -0.045692
Ra6 0.815487 0.196005 0.447602 -0.706507 0.181663 0.318902 0.777280 2.001943 -0.823985 -1.402458
gxf5 0.711992 0.510268 -0.077211 0.306765 0.077613 1.060403 -0.130116 0.933740 -0.621149 0.910147
Bc8 0.309441 -0.027645 0.368756 0.730515 -0.358915 0.663724 0.294590 1.050885 -1.569877 0.167414
Qc8 0.630513 0.639957 1.285246 0.960869 -0.727429 0.032907 -0.427328 -0.365476 -1.711883 -0.501237
Ra3 1.147601 0.348225 -0.024969 -0.287702 0.577486 0.262660 1.245898 1.566576 -0.728992 -1.427235
Kd4 -0.866463 1.010840 -0.427080 -2.218520 0.910274 0.061171 2.121940 1.596780 -0.228772 0.917649
Qe5 0.430255 1.715220 0.806807 1.207369 -0.065892 -0.591203 -1.192552 0.062919 -0.639381 0.078850
Nxc5 0.644878 -0.667965 -0.407982 -0.050069 -0.347283 -0.933880 -0.471955 -0.010099 -1.847064 0.177978
Nf8 0.588321 -0.153162 0.905220 1.041217 -0.139584 1.065935 -0.155915 0.677917 -1.399053 0.652275
Rfd8 1.552678 -0.521065 -0.608255 1.595414 -0.201178 -1.122373 -1.019171 0.099335 -2.315574 -0.163932
Nxc6 0.706042 -0.652979 0.181031 -0.501877 -0.700433 -1.209776 -0.451469 -0.500086 -1.913334 0.460083
Ke8 -1.038281 0.645761 1.109496 -1.359068 0.073098 -0.047834 -0.612235 1.441125 -0.397142 1.035608
Qh4 1.352383 0.863404 0.589815 1.780911 -0.171993 0.306252 -0.818509 -0.261662 -0.519283 0.844337
Rxd5 0.818166 0.486744 -0.471310 -0.233333 -0.136865 -1.087041 -1.123987 1.438540 -0.374449 -0.295581
Bb6 0.213804 0.163412 -0.037318 0.026445 -0.763273 -0.293700 0.823455 0.791527 -1.796702 0.261560
Qe8 0.529508 0.652256 1.431183 1.223488 -0.460297 0.526548 -0.707834 -0.148804 -1.286274 -0.173741
Kc7 -1.703060 0.288833 1.482817 -1.052300 0.361008 -0.958599 0.984700 1.437120 -0.364892 1.227830
Kb1 -0.447919 0.318514 -0.160807 1.020356 2.464121 -1.216391 -0.186414 -0.141103 -1.105536 1.201625
Qb7 0.250579 0.800126 1.041257 1.220184 -0.368674 -0.400043 -0.669748 -0.093813 -1.910721 -1.139162
Qh5 1.304196 0.724076 0.936594 1.596534 -0.276702 0.193701 -0.856124 -0.299389 -0.488846 1.018112
Qd5 0.377699 1.512917 0.889736 0.721077 -0.214162 -0.962669 -1.071744 -0.427281 -0.856023 -0.181716
bxc4 0.983559 -0.253343 -0.218246 0.044044 0.611440 -0.394086 -0.271900 0.051331 -1.479447 -0.267869
Rfe1 1.848255 -0.663358 0.434741 1.638552 -0.728552 -0.180192 -1.075869 0.159134 -1.681084 0.421772
Rg1 0.919924 0.683261 0.713582 0.687189 0.916355 0.377627 1.132470 0.597471 0.387214 0.691133
hxg4 0.694541 0.713944 0.069197 0.505303 -0.530543 0.746675 1.011831 0.899600 -0.321420 0.706059
Ra5 0.897866 0.243255 0.006454 -0.899324 0.330202 -0.097149 0.853291 2.032607 -0.652858 -1.381826
Rb2 0.768435 0.771306 -0.000375 -0.424457 0.357273 -0.152956 1.006857 1.509778 -0.598644 -1.588757
Qf5 0.658507 1.632313 0.813898 1.340984 -0.359041 -0.256366 -1.108045 -0.060260 -0.530401 0.109974
Rb3 0.889947 0.629411 0.025627 -0.276678 0.533725 -0.261417 0.937602 1.434476 -0.694106 -1.454691
Qc4 0.226561 1.451796 0.575957 1.038360 -0.087944 -0.854744 -1.033960 -0.102018 -1.382513 -0.648923
Re5 0.889788 0.858358 -0.030417 0.328226 0.168254 -0.440044 -0.270917 2.048417 0.271167 0.075972
Kd5 -1.068062 0.822007 0.065058 -2.258438 0.704054 0.133837 2.060116 1.715047 -0.071320 0.944528
Rb4 0.946128 0.484577 -0.006539 -0.509752 0.520536 -0.368034 0.765702 1.829519 -0.686618 -1.562481
Ra4 1.063521 0.433781 -0.088772 -0.815503 0.455801 -0.148858 0.949257 1.808171 -0.689459 -1.469707
fxe6 0.516035 -0.098845 0.177188 0.131738 -0.044919 -0.194360 -1.340780 0.330873 -0.949257 1.008437
Qg5 0.937953 1.277825 0.614570 1.668161 -0.338831 0.242141 -0.923987 0.067118 -0.531719 0.434279
Re4 0.931960 0.981315 -0.186877 0.275969 0.191959 -0.548445 0.022294 1.794122 0.204792 -0.049576
Qg3 0.912850 1.117003 0.689363 1.863604 -0.031707 -0.015113 -0.693072 -0.176893 -0.607743 0.801059
Rb5 0.805070 0.399815 0.090877 -0.778816 0.337495 -0.489931 0.655847 2.026491 -0.679160 -1.495695
Qb4 0.342017 0.910739 0.555747 1.084569 0.098901 -0.714853 -0.973620 -0.239409 -1.723640 -0.952333
Rxd4 1.076712 0.520137 -0.675986 -0.170166 0.018537 -1.164771 -0.978975 1.037570 -0.243398 -0.288320
Bf2 0.193181 0.496276 0.032757 0.900194 -0.323314 0.060484 1.318992 0.501380 -1.457685 0.641297
Rfe8 2.009370 -0.235433 -0.257717 1.948544 -0.328960 -0.129722 -1.038252 0.102461 -1.619142 0.190071
Qd1 0.761621 1.287541 0.466996 1.537182 0.043899 0.079983 -0.138787 -0.583986 -1.371374 -0.685575
Bxf5 0.928554 0.303696 -0.031139 0.642815 -0.009514 1.025663 -0.501953 0.449164 -0.747546 1.048139
gxf6 1.138792 -0.118684 0.413136 -0.106805 0.652254 0.114779 -1.196390 -0.060459 -0.679034 1.015379
Nh4 1.228210 0.056482 0.625693 0.895747 -0.254482 1.010732 0.315079 -0.089170 -1.139492 1.086063
Qf2 0.427730 1.315692 0.383073 2.239832 0.046920 -0.310913 -0.269818 -0.120896 -0.876335 0.364859
Rf2 1.079669 1.132727 0.076252 0.916255 0.580299 -0.218517 0.614442 1.057635 0.239622 0.068899
Kc6 -1.613521 0.433187 0.892211 -1.713845 0.668607 -0.590413 1.605640 1.665321 -0.253035 0.976129
Rf3 0.996788 1.114870 0.279545 0.806792 0.677379 -0.144522 0.349944 1.309094 0.403158 0.114470
Qxc4 0.887992 0.634863 0.518587 0.237919 0.139500 -1.176288 -1.048005 -0.797724 -1.356061 -0.324652
Kg5 -0.001700 2.075907 0.502343 -1.958799 0.196329 0.994213 1.443077 1.444341 0.727917 0.179014
Bh3 0.788291 0.151629 0.377518 0.973504 -0.600279 0.253818 0.283653 0.282955 -1.148838 0.468288
hxg6 0.947929 0.186690 0.582791 0.675873 1.142512 0.994635 -0.820240 0.293548 -0.562823 0.694899
Qb8 0.203532 0.465794 1.326039 1.070197 -0.873186 -0.019123 -0.327576 -0.359918 -2.079060 -0.937741
Kc3 -1.188116 0.977197 -0.573399 -1.269961 1.667739 -0.568107 1.977538 1.274942 -0.391612 0.625484
Rf6 0.804908 0.903320 0.968063 0.424224 0.102006 -0.191185 0.012886 1.747437 0.539131 0.242404
Bc7 -0.016203 0.096489 0.178930 0.124919 -0.778168 -0.116425 0.814623 0.995750 -1.596301 0.381373
Rxe5 1.224245 0.561292 -0.189445 -0.082434 -0.519251 -0.594534 -0.916597 1.296431 0.238185 0.186062
exf4 0.834704 0.258296 -0.156715 0.889044 -0.487064 0.429741 0.050593 0.463299 -0.849113 1.199499
Nxc4 0.578308 -0.568339 -0.553999 -0.297125 0.116682 -0.613919 -0.352228 -0.358676 -1.775282 -0.157209
Qf7 0.428414 1.158557 1.214732 1.559284 -0.193429 0.184200 -1.149545 0.349284 -0.630327 0.390809
Kc2 -0.959914 1.198291 -0.742327 -0.386278 1.817518 -1.074455 1.076193 0.734876 -0.431935 0.607707
gxf4 0.588310 0.599106 -0.279837 0.412693 -0.619185 0.326661 0.577603 0.937341 -0.441740 0.941527
Rh8 0.168973 0.254683 0.930032 0.340284 0.941399 0.536310 1.182713 1.826528 0.398148 0.798952
Rxd6 0.532758 0.204692 -0.061267 -0.085228 -0.857794 -0.887535 -1.089969 1.453169 -0.246479 -0.248233
Kg4 -0.011487 2.237795 0.183075 -1.603185 0.344701 0.974568 1.661243 1.216076 0.741882 0.016041
Kh6 -0.024750 2.539307 1.072943 -1.014170 -0.105942 0.995476 -0.160809 1.035325 0.725204 -0.298293
Nc2 0.513636 0.075171 -0.737871 0.032558 0.322535 0.471635 0.582558 -0.057126 -1.930103 -0.108475
Ba3 0.563290 -0.275988 0.102162 -0.089432 0.017528 0.035748 -0.034657 0.100485 -2.050617 -0.282650
Rxd8 -0.000592 0.189537 -0.996756 -0.207697 -1.337620 -0.831498 -1.083562 0.714733 -1.450461 0.920394
Qxd6 0.627608 0.442259 0.645465 0.340542 -0.825702 -0.647232 -1.528496 -0.335738 -1.062529 0.237886
Rxe4 1.438791 0.781122 -0.675858 0.063547 -0.242015 -0.430814 -0.704598 0.821027 0.170499 -0.109896
Be8 -0.183546 0.006418 0.612691 0.453414 0.458014 0.894323 0.336188 1.263038 -1.266121 0.313892
Qxe4 1.186456 1.020303 0.139611 0.545063 -0.258987 -0.739499 -1.160475 -0.612296 -0.517920 0.232501
Qb5 0.095641 1.097575 0.687177 1.007407 -0.175847 -0.854781 -0.802912 -0.138941 -1.639511 -1.032780
Bd8 -0.277673 0.134678 0.430035 0.365042 -0.338812 0.487694 0.834478 0.989837 -1.626588 -0.092401
cxb5 0.722449 -0.386276 0.414802 -0.197941 -0.052175 -0.320242 0.265665 -0.066468 -1.858973 -0.604994
Bc1 0.242364 0.164896 -0.121647 0.813257 0.406703 0.692604 0.570648 0.512331 -1.540695 0.274294
Bxf4 0.816331 0.256024 -0.239761 0.970175 -0.667537 0.417830 0.115486 0.366138 -0.741632 1.295249
Nf1 0.915964 0.029105 0.196437 1.191169 -0.086051 0.877560 1.175841 -0.207462 -1.568472 0.228853
Qxe5 0.758536 0.948240 0.429849 0.570804 -0.594659 -0.750145 -1.505614 -0.121672 -0.588348 0.539092
Kc5 -1.445839 0.786182 0.430701 -2.001289 1.135495 -0.147737 2.072864 1.504139 -0.179224 0.770737
Qxf6 1.480153 0.474559 0.809372 0.146895 0.454913 -0.077393 -1.640963 -0.636887 -0.376061 0.730317
Rh1 0.264382 0.440842 0.601387 0.427008 1.060079 0.625897 1.530498 1.583959 0.446152 0.608325
Qxc3 1.299705 0.553590 0.466597 0.080989 0.595294 -1.026831 -1.116744 -1.100279 -1.055469 -0.447226
Qe1 0.560423 1.258470 0.356827 1.654977 0.168343 0.003837 0.068167 -0.685151 -1.211102 -0.125182
Rxc5 0.684596 0.176175 -0.523156 -0.473768 -0.244924 -1.169409 -0.581063 1.358834 -0.760661 -1.047295
Bxd6 0.535743 -0.395538 0.307518 -0.131943 -1.015669 -0.530628 -0.859903 0.115405 -1.198901 0.403601
Rxd1 0.175109 0.474550 -1.260781 0.051414 -0.898091 -0.964184 -0.903781 0.205061 -1.648793 0.948301
exf6 1.324490 -0.309747 0.268092 -0.000341 0.612253 0.351657 -1.131792 -0.440657 -0.638129 1.119287
Qg6 0.839926 1.133369 0.980783 1.541324 -0.207877 0.271115 -0.905748 -0.034428 -0.271976 0.526788
Rf4 0.962668 1.015801 0.422314 0.403266 0.525862 -0.263457 0.318101 1.667955 0.720461 0.167559
axb3 0.605266 -0.175092 -0.526106 0.203979 1.148469 0.179661 -0.421620 0.373339 -1.623863 -0.507217
Kc4 -1.380743 0.936035 -0.035595 -1.674411 1.188987 -0.305061 2.267847 1.300933 -0.293665 0.805030
Qc1 0.627674 1.274030 0.474588 1.246248 0.276529 0.378168 -0.319796 -0.684510 -1.579054 -0.735336
Rxc4 0.768548 0.162204 -0.584285 -0.542795 0.345716 -0.872866 -0.455517 1.100060 -0.669661 -0.956287
Qb2 0.409840 1.098154 0.612244 1.199600 0.145900 -0.220524 -0.554769 -0.363378 -1.650950 -1.439985
Kd8 -1.379142 0.277859 1.520543 -1.162211 0.224785 -0.559940 -0.116230 1.058386 -0.295176 1.163444
Qxc5 0.560587 0.566155 0.266164 0.346448 -0.310855 -1.255604 -1.281710 -0.454338 -1.417028 -0.181014
Rf5 0.921887 0.882216 0.693156 0.361879 0.455814 -0.300399 0.197913 1.709143 0.836375 0.262530
Bh5 0.944588 -0.120895 0.684565 0.303071 0.207802 0.559672 0.395896 -0.038956 -0.923396 1.264397
Bxe6 0.426759 -0.152514 0.022622 -0.044894 -0.363216 -0.058916 -1.325461 0.546884 -0.974295 1.013649
Kh3 0.309418 3.036717 0.234798 -0.443877 -0.205408 0.343513 0.959427 0.573181 0.758898 -0.545139
Ne1 0.669183 -0.067516 -0.265163 0.668592 -0.127717 0.426693 1.147463 -0.254326 -1.859881 -0.207087
Rg3 0.943741 0.834716 0.555749 0.994930 1.188432 0.044251 0.418787 1.173663 0.684526 0.476429
Bxb5 0.281518 -0.363826 0.111723 -0.310451 -0.270215 -0.302807 -0.024982 -0.124795 -1.727651 -0.775284
Na3 0.461534 -0.850802 0.185052 -0.548680 0.337252 0.146912 0.644695 -0.981055 -2.535880 -0.122748
Rxc6 0.507524 0.025379 -0.010240 -0.603071 -0.686722 -1.132321 -0.483116 1.306176 -0.676479 -1.135601
Rfc8 1.241948 -0.639741 -0.300506 1.341819 0.496231 -0.635427 -0.411598 0.005704 -2.490154 -1.364995
Qxd3 1.099111 0.534951 -0.487437 0.780833 0.463988 -0.420486 -0.821618 -1.004428 -1.281844 0.202359
Qa3 0.280177 0.635570 0.863852 0.956423 0.094618 -0.493903 -0.662018 -0.336511 -1.910468 -1.235755
Bxe7 1.299120 -1.167105 0.622934 -0.344788 -0.019765 -0.135860 -1.438736 -0.493636 -0.928605 0.298546
Nxe6 0.127154 -0.253196 -0.349083 0.113281 -0.380491 0.182464 -1.314364 0.412266 -1.022468 1.065681
Rxc3 1.214456 0.152171 -0.367080 -0.467248 0.940624 -0.851444 -0.590813 0.369382 -0.460009 -1.132745
Rxc8 -0.331784 0.443989 -0.297615 -0.220522 -1.277611 0.264472 -0.801239 0.205220 -1.913576 -0.939245
Rxb7 0.932328 0.136366 0.346497 -0.789676 -0.726459 -0.837907 -0.245243 0.994802 -0.288892 -1.443751
Qxe7 1.271676 -0.152875 0.813716 0.219676 -0.082286 -0.198053 -1.781536 -0.741452 -0.966690 0.181650
Nxf6 1.127904 -0.439481 0.719053 -0.105149 0.266554 0.490508 -1.004930 -0.115743 -0.578324 0.997305
Rxe6 0.650996 0.453672 0.048146 0.102852 -0.394658 -0.407218 -1.303707 1.411738 0.247290 0.270861
Bf7 -0.274588 0.298093 0.313958 0.218891 0.414565 0.814691 -0.166732 1.151959 -1.121487 0.627455
Nfd7 1.231778 -1.226751 0.670877 0.569608 0.363565 0.141023 0.448487 -1.248794 -2.220996 0.502660
Bxg5 1.036733 0.007804 0.385627 0.591011 0.091132 0.735738 -0.658103 0.128998 -0.361555 1.196248
Rxc1 -0.170343 0.739917 -1.003607 0.074637 -0.411961 0.579054 -0.547904 -0.300765 -2.305998 -1.040252
Rh3 0.697898 0.435398 0.475695 0.722661 1.580618 0.050689 0.788751 1.275611 0.459152 0.645260
dxc6 0.934140 -0.783928 0.560637 -0.342816 -0.981889 -0.762426 -0.254792 -0.661085 -1.648895 0.563180
Bb4+ 0.981890 -0.122306 0.425231 -1.823229 1.010080 -0.950330 0.792445 -1.815098 -1.272534 1.010092
Qa6 0.228762 0.639321 0.723293 0.958522 -0.059108 -0.672153 -0.637635 -0.377565 -1.852790 -1.220057
Nxd7 0.810935 -1.060027 0.974244 -0.596951 -0.637236 -0.951496 -0.766508 -0.491795 -1.131884 0.141695
Qxf3 1.545461 0.771961 0.347265 0.659126 -0.698223 -0.922232 -0.219332 -1.097295 -0.294437 0.569759
Nf7 -0.111416 0.002683 0.627616 0.253737 -0.384944 1.029237 0.196007 0.954763 -0.926142 1.033731
Ke1 -0.262335 1.945114 -1.113343 -0.164555 0.399954 -0.983169 1.515822 0.219370 0.042641 0.316796
Bxd3 1.024920 0.006860 -1.044773 0.387779 0.933898 -0.154740 -0.281179 -0.536761 -1.151192 0.188431
axb6 0.242761 -0.594028 0.748311 0.214946 -1.018003 -0.703757 0.657203 0.417912 -1.527698 -0.757172
Rg7 0.434952 0.602381 1.440149 0.321940 0.697725 0.392039 0.382322 1.606580 0.850664 0.683818
Nb8 0.396335 -0.896344 0.743959 0.140884 -0.258409 -0.154035 0.744868 -0.119488 -2.142837 -0.168583
Rg6 0.643508 0.636086 1.417166 0.491131 0.545372 0.071011 0.558522 1.523834 0.925604 0.618637
hxg3 1.201548 0.483155 0.292049 0.888522 -0.959308 -0.184658 1.063958 0.055074 -0.231785 0.496001
Rxd7 0.270108 -0.271540 0.411769 -0.218220 -0.948807 -1.342780 -1.148610 1.162627 -0.235949 -0.253615
Rae1 1.703592 -0.407267 0.298515 2.065608 -0.495650 0.176655 -1.063972 0.370804 -0.837636 1.005678
Be1 -0.096041 0.398558 -0.139398 0.563620 -0.093964 0.329799 1.535986 0.763579 -1.311364 -0.029980
Rfc1 1.122972 -1.025139 0.526760 1.028210 -0.281634 -0.620494 -0.557310 0.104285 -2.547550 -1.551594
Qh3 0.864547 0.877542 0.775440 1.867117 0.082993 0.264294 -0.523656 -0.118603 -0.119050 0.984593
Kxg7 1.003352 0.515932 0.247431 -0.030038 0.368609 0.929978 -1.643750 0.180641 -0.237784 0.173506
Kb6 -1.794962 0.540635 1.154533 -1.337080 0.939611 -0.871898 1.535515 1.325307 -0.017280 0.557888
gxf3 1.335479 0.352107 -0.017608 0.299347 -0.854690 -0.639728 0.287139 -0.330730 -0.153497 0.588570
Rxa5 0.922230 -0.003720 -0.150735 -0.889142 0.162334 -0.248241 0.468389 1.293756 -0.451350 -1.650292
Bd1 -0.230639 0.514327 -0.260919 0.488111 0.485980 0.881605 1.026235 1.007409 -1.154341 0.108917
Kb8 -1.462441 -0.120268 1.811004 0.448273 0.228384 -1.876640 0.515306 0.678369 -0.430568 1.095936
Rh4 0.789308 0.285400 0.505975 0.533098 1.313660 -0.157760 0.769444 1.669693 0.676514 0.712808
Nge2 1.731218 -0.873223 1.207512 0.037162 0.712559 1.078317 0.985500 -1.776565 -2.036719 1.340885
Rae8 1.847044 -0.036946 -0.224520 2.284459 -0.355706 0.199369 -0.693071 0.322745 -0.549462 0.837967
Rab8 1.047764 -0.632394 -0.002584 1.226354 0.005378 -0.732339 -0.300663 0.266888 -1.908367 -1.342296
Ba5 -0.006852 -0.085869 0.088573 -0.279905 -0.311344 -0.264017 0.715990 0.266554 -1.908454 -0.167261
Kb7 -1.800604 0.304630 1.724860 -0.583133 0.324789 -1.213579 1.269000 1.159234 -0.242292 0.495480
Bxg7 1.074640 -0.083396 0.028657 0.355838 0.429866 0.556269 -1.249034 -0.165707 -0.614647 0.380570
Nxf5 0.511652 0.246347 -0.311965 0.522393 -0.251728 1.141723 -0.354358 0.361576 -0.478967 1.028170
Nxb5 0.043331 -0.556139 -0.035917 -0.647739 -0.503562 -0.271813 0.141440 -0.355860 -1.768324 -0.496738
Rxf6 1.154798 0.416205 0.737110 0.020023 0.385151 0.039767 -0.894038 0.754186 0.864419 0.400605
gxh5 0.396388 0.804194 0.202236 0.171246 0.593085 1.211728 0.231122 0.898378 -0.121003 0.805031
cxb4 0.403802 -0.217290 -0.018657 -0.057631 0.506748 -0.028624 0.020662 -0.103602 -1.708877 -0.794435
Nxd6 0.212906 -0.294639 -0.059371 -0.235146 -1.281214 0.118190 -0.906548 0.397786 -0.942669 0.059374
Qh6 0.685635 0.930062 0.925117 1.736838 0.135968 0.526051 -0.803164 0.058894 -0.043758 0.954791
Rxa4 0.880550 -0.050762 -0.142915 -1.046811 0.592321 0.033272 0.157574 1.237175 -0.523412 -1.733822
Rxa6 0.918900 0.052629 0.080616 -0.834513 -0.181767 -0.376892 0.442784 1.132639 -0.425868 -1.531405
Rh6 0.449519 0.222477 1.146573 0.437680 0.827385 0.050527 0.888947 1.786639 0.784747 0.762949
Qxc6 0.437402 0.587003 0.654249 0.305624 -0.954226 -1.204556 -1.112444 -0.302033 -1.186348 -0.467762
Rxf5 1.009690 0.620033 0.077818 0.442248 0.216791 0.227693 -0.387369 1.271030 0.754446 0.468571
Qf8 0.071774 0.914708 1.474727 1.402222 -0.220346 0.676729 -1.040487 0.340190 -0.750732 -0.095933
bxa4 0.207182 -0.201503 -0.050300 -0.254738 0.745607 0.171745 0.109386 0.613293 -1.550737 -0.949945
Nf2 0.347729 0.528187 -0.543155 0.934770 -0.052421 0.752121 1.224897 0.247164 -0.840532 0.777845
Rab1 1.139599 -0.960094 0.462735 1.099025 -0.006260 -0.350105 -0.489735 0.066441 -2.011411 -1.234353
Rg4 0.840441 0.713072 0.693151 0.580770 1.014237 -0.203624 0.586289 1.538744 0.924786 0.361751
Qa7 -0.061005 0.858033 0.783969 1.078664 -0.308152 -0.195522 -0.475789 -0.017010 -1.669236 -1.296969
Nxf4 0.500480 0.200374 -0.684830 0.793268 -0.643275 0.520821 0.044948 0.425764 -0.501823 1.226433
fxg6 0.763566 0.480315 0.447870 0.499175 0.937801 1.114199 -1.230387 0.437262 0.071080 0.722811
Rh5 0.674336 0.374752 0.674376 0.365011 0.903455 -0.159834 0.821901 1.757716 0.848209 0.523765
Qb1 0.321039 1.274534 0.488783 1.052381 0.345576 0.218775 -0.164864 -0.772239 -1.609118 -1.279110
Rxb2 0.936329 0.404333 -0.594677 -0.774304 0.232370 -0.261505 -0.452211 0.774080 -0.149145 -1.631499
Kb3 -1.541891 1.178894 -0.077758 -0.648551 1.935706 -0.799227 1.674176 0.899255 -0.300336 0.165437
Rxa7 0.688144 0.145419 0.182878 -0.959141 -0.615637 -0.207904 0.262818 1.262768 -0.206403 -1.478870
Bb1 0.621209 -0.053770 -0.291253 0.408915 0.831460 0.918968 0.044686 0.455174 -1.649396 -0.091912
Kb2 -1.291567 1.301647 -0.167532 -0.111428 2.464722 -0.956625 0.758327 0.631117 -0.322129 -0.004819
Rh7 0.169498 0.122106 1.265926 0.174950 0.979587 0.303486 0.858434 1.850944 0.776563 0.708542
Rxe7 0.854383 -0.081533 0.361951 -0.161489 -0.400205 -0.184593 -1.541003 0.827675 0.195483 -0.220546
Bxc3+ 1.982944 -0.369133 1.091407 -1.079820 1.532736 -0.949504 0.095863 -2.467427 -0.989339 1.061262
Bxg2 1.135580 -0.162999 -0.204116 0.222490 -0.865647 -0.760994 -0.240162 -0.767329 -0.594599 0.139943
Nh6 0.735398 -0.314004 0.803588 0.412681 -0.137284 1.049791 0.754090 -0.220594 -0.810322 1.394755
Rxc7 0.126570 -0.081279 0.096729 -0.385777 -1.059030 -0.473678 -0.511648 1.245414 -0.571963 -1.382258
Bxa6 0.593765 -0.505256 0.473243 -0.437543 -0.318532 -0.600390 0.171014 -0.254375 -1.442734 -0.878625
Rxd3 0.648736 0.544018 -1.444954 0.513405 0.529038 -0.915762 -0.777448 0.807259 -0.260570 -0.204731
Rg5 0.695434 0.706687 0.770787 0.442883 0.813434 -0.131376 0.585075 1.601556 1.052442 0.435409
Nd8 -0.185616 -0.341262 0.625582 0.230079 -0.296136 0.594222 0.213252 0.701007 -1.334806 0.280697
Bxb4 0.365673 -0.057004 -0.424975 -0.598360 0.245282 -0.429934 -0.186702 -0.194311 -1.588976 -0.759106
Rxf4 0.884453 0.639369 -0.151590 0.616369 -0.032374 -0.107251 -0.091725 1.238661 0.854560 0.599655
Nxf6+ 1.788782 -0.607721 0.411147 -0.231548 0.161708 0.586611 -1.462379 -0.867994 -0.943819 0.541403
fxg4 0.724207 0.641295 -0.069237 0.354496 -0.398914 0.728713 0.803067 0.687380 0.093182 0.814128
fxg5 0.546766 0.307579 0.101478 0.258280 0.210967 0.912536 -0.040125 1.064605 0.081657 1.061081
Rxf7 0.523725 0.385165 0.616375 -0.350527 -0.012728 0.065549 -1.058737 0.952141 0.911574 0.213014
Rxb4 0.828991 0.132141 -0.282211 -1.016253 0.536574 -0.255221 0.164609 1.131483 -0.560063 -1.826406
Qxd7 0.740173 -0.221118 1.136145 -0.107205 -0.848092 -1.257489 -1.323996 -0.822773 -0.575999 -0.047545
Nc8 -0.444027 -0.527809 0.543076 0.388313 -0.344920 0.648814 0.589062 0.803083 -1.796588 -0.148983
Rxb5 0.737332 -0.022788 0.016519 -0.904348 -0.006661 -0.496398 0.278572 1.079404 -0.460895 -1.808315
bxa5 0.129610 -0.265134 0.246528 -0.304710 -0.055177 -0.288728 0.691844 0.533778 -1.434456 -0.956653
Kb5 -1.976241 0.805591 0.759580 -1.367840 1.257996 -0.481015 2.062623 1.342849 -0.176809 0.525836
Rxe3 1.124403 0.915317 -1.122536 0.613190 -0.192601 -0.501262 -0.463420 0.851049 0.297503 -0.083477
Bxb7 0.671111 -0.252657 -0.253827 -0.560493 -1.217199 -0.888984 -0.822426 0.107452 -1.109181 -0.451397
Qxb7 0.429472 0.722159 0.569690 0.345508 -1.002568 -1.208590 -1.271271 -0.666980 -0.967917 -0.697744
dxe6 0.953733 -0.518106 0.229626 -0.032137 -0.513657 -0.260656 -1.284044 -0.399367 -0.809699 0.691968
Rg2 0.599748 1.149153 0.314460 0.708543 1.180901 0.122210 1.433172 1.143631 0.985979 0.501858
Qxd2 1.545269 0.045589 -0.599399 0.151651 0.637945 -0.955061 -0.681286 -1.457462 -0.836568 -0.228648
Bxe3 0.943895 0.361498 -1.148238 0.695380 -0.402696 -0.195659 -0.022222 -0.194419 -0.796480 0.372477
Kxg2 1.273174 0.713880 -0.207748 0.188258 -1.124712 -0.948372 0.145147 -0.822301 -0.002051 -0.135955
Qxf4 0.567103 1.211559 0.057551 1.142698 -0.446288 -0.285908 -0.887519 0.070238 -0.101836 0.781590
Kb4 -1.795663 0.985985 0.419075 -1.127560 1.737426 -0.608330 2.037684 1.159740 -0.178768 0.353291
Nd1 0.299196 0.114824 -0.396144 1.022196 0.214606 0.646316 1.039429 0.206803 -1.344883 0.056791
Kc8 -1.783775 0.131860 1.862090 -0.694618 -0.158339 -1.451911 0.504593 1.359587 -0.157051 1.170472
Bxg4 0.945175 0.281314 -0.244767 0.894958 -0.586042 0.774204 0.434204 0.171189 -0.129799 1.067531
Qxb4 0.229798 0.825979 0.184965 0.337473 0.206113 -0.584258 -1.180502 -0.557174 -1.400788 -1.083209
Rxd2 0.817240 -0.064520 -1.387725 0.281150 0.070179 -1.352618 -0.356805 0.381534 -0.395998 -0.345790
cxd6 0.759762 -0.634086 0.685840 0.312668 -1.258911 -0.145975 -0.497733 0.023105 -0.833032 0.232369
fxe3 0.934444 0.630887 -0.926190 0.347860 -0.544597 -0.513296 -0.139711 -0.211129 -0.327753 0.142285
Qxf5 0.693025 1.218983 0.322578 0.871880 -0.250809 0.150324 -1.234463 0.063038 -0.104511 0.588418
exd6 0.713158 -0.553663 0.385066 -0.112079 -0.661063 -0.324919 -1.056873 -0.296983 -0.992892 0.393926
Rh2 0.392350 0.602887 0.329403 0.440716 1.375625 -0.017504 1.538585 1.513667 0.762754 0.408054
Rxb6 0.643089 -0.078712 0.235563 -0.642746 -0.437033 -0.604519 0.378779 1.248783 -0.253148 -1.571915
Rxa2 0.763227 0.379619 -0.490445 -1.091777 0.529966 0.022933 -0.095149 1.051462 -0.043608 -1.764418
Qxb5 0.003820 0.663875 0.471221 0.253557 -0.515151 -0.843271 -0.819934 -0.611365 -1.379311 -1.102285
Qxb6 0.161937 0.495161 0.597714 0.381042 -0.794318 -0.732171 -0.559099 -0.434136 -1.506751 -0.869799
Nh7 0.840645 -0.180576 0.792414 1.310450 0.029823 1.827928 0.273326 0.391091 -0.949545 0.745998
Qg7 0.218335 1.063132 1.424905 1.575405 0.174154 0.613135 -1.125044 0.272179 0.085782 0.765778
Kd1 -0.660563 1.715835 -1.144042 -0.081000 1.302869 -0.866770 1.274598 -0.170428 -0.089301 0.451882
Qxb2 0.494594 1.095105 -0.046045 0.384980 0.030459 -0.450855 -1.514720 -0.903666 -0.943072 -0.813966
Qxe6 0.160376 0.831765 0.653496 0.461635 -0.521493 -0.334338 -1.869858 0.162827 -0.374085 0.413635
Rxe8 0.222552 0.699963 -0.329792 0.044981 -1.347250 0.842390 -1.338013 0.409058 -0.481718 0.275139
Rxc2 0.322791 0.513129 -1.328619 -0.093619 0.477410 -0.166783 -0.423011 0.643781 -0.663420 -1.530497
Ng7 0.072916 0.127210 0.319193 0.852329 -0.091975 1.539091 0.130405 0.897708 -0.905254 0.766760
Nxe3 0.650293 0.175434 -1.184096 0.497342 -0.528245 -0.022767 -0.222842 -0.223466 -0.780953 0.450097
Kh5 -0.145038 2.318120 0.900645 -1.457770 0.055605 1.305260 1.099379 0.884017 0.866247 -0.195037
Nh3 1.003453 -0.134779 0.455868 0.473604 0.134104 0.769326 1.028885 -0.547435 -0.636536 1.127718
Bb5+ 0.512695 -0.819320 1.198260 -1.629855 0.390309 -1.375980 0.497572 -1.572088 -1.095491 1.346849
Kh4 0.018040 2.537440 0.564718 -1.161749 0.148770 1.182752 1.453875 0.866877 0.967981 -0.265594
Qxe3 0.672469 0.917620 -0.730655 1.071083 -0.306468 -0.491870 -0.630548 -0.396117 -0.580048 0.331936
Qa8 -0.187710 1.122496 1.103308 0.801416 -0.628987 0.122814 -0.258636 -0.211662 -1.679155 -1.465847
gxh4 0.167865 0.793716 0.204413 0.151692 -0.315058 0.473279 0.982002 0.848371 0.190227 0.572401
Rxa8 0.249075 0.079090 0.461729 -0.815050 -1.116839 0.602152 0.259446 -0.668235 -1.467987 -1.470105
Nxg5 0.910258 -0.147739 0.057504 0.140647 -0.064386 1.057614 -0.342794 0.050606 -0.062225 1.215167
Nxb4 0.019659 -0.349724 -0.855566 -0.650526 0.604308 -0.033961 -0.128314 -0.157124 -1.803459 -0.762653
Rxe1 0.342338 1.075371 -1.406599 0.618430 -0.822380 0.743269 -0.819416 -0.198301 -0.659952 0.359669
Bxd7 0.374302 -0.811961 0.874830 -0.404351 -0.917240 -0.905288 -0.785386 0.141591 -0.530517 0.169804
Nxb6 -0.168558 -0.805766 0.126464 -0.294015 -0.902984 -0.339672 0.208247 0.281559 -1.709681 -0.525686
Rxf3 1.214780 0.728592 -0.109064 0.444001 -0.162106 -0.560209 0.288090 0.437414 1.088877 0.163419
Nxd2 1.469033 -0.551704 -0.933486 -0.105559 0.486853 -0.961603 0.149013 -1.506925 -1.117351 -0.298416
Bxb2 0.742890 0.127531 -1.018551 -0.408851 -0.192716 -0.038153 -1.120152 -0.121983 -0.993026 -0.579052
Bxh6 0.829371 0.109218 0.510010 0.462263 0.379200 1.217321 -1.008020 -0.023749 -0.220276 0.969033
Bxe2 1.387183 -0.379330 -0.785027 0.343199 -0.448676 -0.556348 0.401717 -1.091390 -0.560826 0.013953
Qxg5 0.796172 0.746142 0.325575 0.906032 0.098756 0.313033 -1.038583 -0.228286 0.095536 0.874805
Nb7 -0.470127 -0.443517 -0.199453 0.066854 -0.503619 0.369532 0.411470 1.131412 -1.844324 -0.220946
Ba2 0.516668 -0.369098 -0.103754 -0.210666 0.799623 0.764682 0.043915 0.317782 -1.827234 -0.095510
Ngf6 1.804495 -1.190571 1.155300 0.086175 0.833042 0.533006 0.534106 -1.989027 -1.219674 1.331519
Rd8+ -0.444253 0.673345 -0.486310 -1.063853 -0.081436 -0.904995 -0.410956 1.512432 -0.011745 -0.054582
Nc1 -0.137441 -0.091139 -0.641436 0.817451 0.766924 0.436401 0.937614 0.310527 -1.762762 -0.378967
Rxb3 0.646418 0.222916 -0.583617 -0.775229 0.798321 -0.163884 -0.065363 1.276493 -0.322093 -1.823191
Nxd3 0.647449 -0.042821 -1.514090 0.856033 0.520400 0.107268 -0.444225 -0.206223 -1.002075 0.139611
Qa2 0.000940 1.103210 0.591672 0.878805 -0.157562 -0.312337 -0.349420 -0.454578 -1.564852 -1.788219
Rxa3 0.721536 0.126837 -0.217831 -0.866515 0.826185 0.098103 0.167443 0.977612 -0.349723 -1.774822
Rxd8+ -0.534295 0.221409 -0.864862 0.179845 -1.131587 -1.233076 -1.166330 0.559644 -1.717475 1.101209
Rxe2 1.203176 0.439683 -1.111421 0.520025 -0.561858 -0.504452 -0.236547 0.205584 0.341125 -0.593148
Kc1 -1.071026 1.463795 -0.842237 0.035818 2.136184 -1.196193 0.508906 0.212767 0.003482 0.232124
Rd1+ -0.247202 0.767548 -0.659619 -0.977170 -0.206763 -1.200564 0.170022 1.456319 0.131380 0.184377
Qxb3 0.229976 0.671319 0.057301 0.257160 0.429999 -0.414043 -1.047150 -0.728066 -1.530716 -1.007572
Qxa5 0.122302 0.958917 0.422768 0.603559 -0.246605 -0.732950 -0.778246 -0.469221 -1.270426 -1.163190
Ng8 0.340353 -0.192619 1.336933 0.692261 0.150549 1.701204 0.305509 0.297701 -0.802157 0.623844
Nxg6 0.647838 -0.311593 0.610157 0.109579 0.474264 1.166624 -0.517551 -0.197362 -0.184084 1.144190
Qxe2 1.158203 0.613399 -0.422497 0.865359 -0.492978 -0.616124 -0.404511 -1.292466 -0.505522 -0.297744
Nge7 1.149707 -0.970407 0.941154 -0.065060 0.309236 0.606876 1.032125 -2.179932 -1.753752 1.177758
Nxb3 0.135753 -0.367841 -1.039780 -0.319976 0.736960 0.179362 -0.508425 -0.077747 -1.731427 -0.478356
Re1+ 0.341285 1.036341 -0.540772 -1.032913 0.067597 -0.342285 -0.100081 1.042795 0.585862 0.261006
Rhe1 0.126446 -0.966757 -0.023706 1.427196 0.680030 -1.154237 -0.986702 0.339494 -1.157879 1.504637
Rxa1 0.244959 0.276340 -0.199104 -0.361376 -0.293431 1.302132 -0.011078 -1.106149 -1.675101 -1.900691
Nxg4 1.053031 0.086476 -0.228705 0.676677 -0.832947 0.982287 0.541130 -0.090399 0.030246 1.064943
Qg2 0.275121 1.607885 0.462731 2.091401 0.188557 -0.290518 0.152141 -0.425090 0.314778 0.708184
Qxd8 -0.089074 0.180109 -0.525421 -0.160283 -1.677416 -0.564310 -1.408431 -0.504609 -1.513174 0.713446
Ba7 0.054455 -0.149933 0.145530 -0.128644 -0.891413 -0.169183 1.316360 0.109274 -1.616278 0.031402
Rxf2 0.772109 0.996021 -0.574454 0.265023 -0.284868 -0.548110 0.320523 0.350493 1.259826 -0.070135
Nxa4 -0.305329 -0.743919 -0.427738 -0.381268 0.532956 0.017282 -0.107618 0.420954 -2.029753 -0.794042
Nf6+ 0.344436 0.610278 0.199346 -0.889004 -0.315352 1.364361 -1.108543 0.546446 -0.072606 0.499380
Qxa4 -0.205229 0.867012 0.594298 0.461798 0.122639 -0.687686 -1.086989 -0.508893 -1.366386 -1.217202
Rxd1+ -0.262728 0.379660 -1.336191 0.608334 -0.724631 -1.313733 -1.049109 0.323218 -1.798237 0.925901
fxg3 1.067364 0.849398 0.113356 0.816124 -1.466305 -0.021563 0.698651 -0.065776 0.572728 0.402823
Qd4+ -0.572761 2.440747 0.561619 0.287425 0.240289 -0.920987 -0.754711 -0.556308 0.048433 0.242854
Qxg4 0.795580 1.089484 0.154151 1.167527 -0.521019 0.267506 -0.407527 -0.299940 0.219438 0.718539
Qa5+ -0.555172 0.169323 0.965468 -0.612772 1.334390 -1.507599 0.209313 -2.345030 -1.635148 0.754460
Kxf7 -0.185525 0.454972 0.310091 -1.124330 -0.200636 0.285635 -1.655099 0.515286 0.427586 0.875815
Nh2 1.006919 -0.194301 0.442936 1.539738 -0.558999 1.674720 0.853249 0.047479 -0.843839 0.454449
Re8+ 0.283870 0.922935 -0.262962 -1.070684 -0.335345 -0.141970 -0.134343 1.214520 0.531685 0.157887
Bxd2 1.369299 -0.556598 -1.122814 -0.262000 0.569995 -0.782446 0.116205 -1.204462 -0.651501 -0.230766
Bxb6 -0.243033 -0.422733 0.067578 -0.052290 -1.119566 -0.584891 0.230192 0.460434 -1.425859 -0.499213
Qa4+ -0.490884 0.318609 1.692333 -1.282979 1.312688 -1.810825 -0.007533 -2.090123 -1.463311 0.482041
Rxh5 0.702620 0.170900 0.186944 -0.001887 1.097746 0.460299 0.564785 1.634126 1.198719 0.467068
Rc8+ -0.841696 0.694739 -0.099173 -0.965980 0.453092 -0.431309 -0.141106 1.361902 -0.309197 -0.897221
Bxg6 0.587813 0.223755 0.393913 0.158276 0.658816 1.052312 -1.033710 0.410584 0.198830 0.969492
Qf1 0.073806 1.753747 0.328311 1.842446 -0.060103 -0.207407 0.291765 -0.482030 -0.299680 -0.533723
Qxc7 -0.256020 0.399575 0.711031 0.239628 -1.453133 -0.560529 -1.107925 -0.272148 -0.978841 -0.755956
Qe5+ -0.791903 2.534943 1.346091 -0.212906 0.112768 -0.686658 -0.880015 -0.534520 0.383895 0.316382
Qxa6 -0.097000 0.884140 0.646657 0.440907 -0.524033 -1.026990 -0.855305 -0.627401 -0.935341 -1.250424
Bb8 -0.408874 -0.079294 0.306768 0.071421 -1.161065 -0.047408 1.140216 0.724958 -1.356494 0.254974
Qd5+ -0.827936 2.187985 0.807242 -0.126774 -0.012901 -1.292903 -0.683342 -0.665555 0.054534 0.400419
d7 -0.092930 0.798353 0.281158 -0.945922 -0.923460 -0.572146 -0.497710 0.257239 0.258090 -0.486261
Nb1 0.159836 -0.423284 -0.328767 0.331982 0.612045 0.288792 0.743360 -0.309953 -2.112151 -0.501211
Qxd1 0.292888 0.336633 -1.457876 -0.100884 -1.070611 -0.903109 -1.103239 -1.040836 -1.638508 0.919321
Qe4+ -0.726223 2.762459 0.787954 0.053309 0.282306 -1.072926 -0.392907 -0.895400 0.413060 0.348118
exf3 1.665921 -0.019346 -0.096992 0.153092 -1.257195 -0.447672 0.332815 -0.768560 0.097769 0.357894
Qg5+ -0.069705 2.417702 0.651446 0.100985 0.033006 0.131157 -1.146095 -0.524436 0.706154 1.047445
Nxf3 1.050129 0.076811 -0.528084 0.386572 -0.680304 -0.267833 0.723430 -0.683363 -0.035683 0.770671
Nb2 -0.561263 -0.081596 -0.867781 0.356558 0.202254 0.207608 0.620901 0.784489 -1.809479 -0.562423
Rxb8 -0.063384 -0.183479 1.047154 -0.602442 -1.266721 -0.018500 0.439947 -0.279945 -0.897458 -2.174101
bxa6 0.273466 -0.602684 0.836378 -0.216673 -0.599608 -0.714803 0.686120 -0.198196 -0.916020 -0.891100
Rxh4 0.605009 0.149590 0.131293 -0.037016 0.608524 0.109690 0.904626 1.509788 1.250559 0.408600
Bxb3 0.202267 -0.178832 -1.056648 -0.124077 0.743082 0.122496 -0.699649 0.311184 -1.454163 -0.488896
Rd7+ -0.170412 0.302416 0.145878 -1.565060 0.135861 -0.961716 -0.097162 2.278178 0.624964 0.150394
Qa1 -0.276120 1.764185 0.597980 0.810390 -0.073294 0.345088 -0.171239 -0.482830 -1.265582 -1.772221
Bxf8 0.170695 0.155636 0.244995 0.087930 -0.602175 0.871738 -1.582175 -0.790458 -0.402416 -0.248587
Qxa2 0.112029 1.125336 0.209945 0.321084 0.415488 -0.583853 -1.511486 -0.682953 -0.771305 -0.995057
Rc1+ -0.563996 0.940290 -0.487295 -0.782876 0.148834 -0.839560 0.566763 1.270100 -0.100344 -0.817346
Nxg3 1.077150 0.116873 -0.099386 0.710195 -0.717507 0.229265 1.029343 -0.781026 0.041937 0.850146
cxb3 0.121789 -0.601372 -0.499309 0.136223 1.541497 -0.170072 -0.673910 -0.197185 -1.356346 -0.669794
Red1 0.672763 -0.706785 -0.394898 1.569347 -0.495430 -0.829023 -0.942268 1.042319 -1.404981 -0.433706
Ba8 0.286959 -0.414738 0.129334 0.816580 -0.563402 0.044552 0.596358 0.450827 -1.737627 -0.819890
bxa3 0.161550 -0.194372 -0.328130 -0.206217 1.591969 0.091505 -0.324889 -0.061291 -1.454779 -1.158487
Rc7+ -0.429867 0.184527 0.324762 -1.630750 0.365781 -0.620747 0.082743 2.136031 0.234578 -0.438782
Bxa4 -0.320901 -0.232250 -0.365579 -0.420849 0.411452 0.320084 -0.360402 0.495149 -1.421059 -0.949469
Rxg5 0.775375 0.233834 0.377636 0.006403 0.788994 0.254500 0.203709 1.521838 1.346903 0.543716
Nxa5 -0.315688 -0.672436 -0.518935 -0.539401 -0.179214 -0.230216 0.496733 0.256642 -1.708816 -0.741098
Nxe7 0.611291 -1.092503 0.799693 -0.567454 -0.177886 0.252556 -1.387888 -0.162851 -0.539645 0.578865
Rxe8+ 0.441705 0.624629 -0.380040 0.073211 -1.456985 0.680850 -1.582163 0.059571 -0.749819 0.112042
cxd3 0.635273 -0.193745 -1.001470 0.773911 1.176270 -0.312592 -0.577095 -0.443414 -0.483733 0.431308
Qxc2 0.094112 0.895100 -0.917571 0.549205 0.599783 -0.154445 -1.270003 -0.849429 -1.008349 -0.736469
Nxf3+ 1.831363 -0.156674 -0.504921 0.336767 -1.380909 -0.100606 0.187833 -1.285328 -0.413557 0.227562
a7 -0.531198 1.016992 0.668078 -1.462316 -0.647703 -0.720047 1.725910 0.047096 0.270330 -1.139138
Qxa7 -0.127247 1.091606 0.677257 0.568148 -1.085978 -1.057710 -0.952614 -0.338768 -0.710365 -1.058435
Bh7 0.207953 -0.280877 0.495948 0.326591 1.338758 1.281537 0.691126 -0.280311 -0.921394 1.261499
Ka2 -1.319265 1.652809 0.015850 0.556443 2.333163 -1.006993 0.166783 0.091624 0.040400 -0.425509
Red8 0.628447 -0.406267 -0.533755 1.514967 -0.503280 -0.508313 -0.743974 0.743083 -1.498268 -0.456211
Nxf7 -0.086043 -0.156815 0.023323 -0.411061 -0.496745 0.588796 -1.414454 0.232551 0.028560 0.691228
Rxg4 0.836267 0.341434 0.405055 0.267742 0.365647 0.136852 0.939258 1.292972 1.592975 0.391090
Qg4+ 0.019348 2.481601 0.695778 0.274746 -0.620748 -0.369732 -0.701048 -0.514197 0.834199 0.944454
gxh6 0.455879 0.332628 0.365055 0.410315 1.135750 1.304232 -1.027648 0.343668 0.306812 0.767524
Ra7+ -0.084539 0.037267 0.921105 -1.729685 0.214241 0.297307 0.767692 2.191798 0.424673 -0.786566
Qd8+ -1.250916 2.346328 1.583116 -0.384223 -0.283559 -0.239942 -1.107780 -0.284820 0.213700 -0.128116
Ng2 -0.023591 0.594976 -0.123434 1.180997 -0.249187 1.118552 1.279391 0.437764 -0.475498 0.693471
Qe6+ -0.972912 2.193189 1.406446 -0.366640 0.092971 -0.327034 -1.224564 -0.514253 0.393911 0.633745
Bxc8 -0.700988 0.136416 -0.186160 -0.144356 -1.638478 0.974871 -0.637736 -0.273224 -1.579752 -0.405575
Rxg7 0.277091 -0.014724 0.694187 -0.332964 0.987922 0.257338 -0.506108 0.902595 1.385988 0.595246
Na7 -0.789219 -0.606012 0.341132 -0.036520 -0.247870 0.407826 0.817214 0.298648 -2.271499 -0.676855
Rxe1+ 0.634901 1.051836 -1.382191 0.649195 -1.139787 0.531288 -1.104364 -0.319607 -0.974015 0.328130
Bxd8 -0.252981 -0.212767 -1.001732 -0.553470 -1.448789 -0.514002 -0.804222 -0.179210 -1.310114 0.944662
cxb6 0.003773 -0.690598 0.529654 0.303252 -0.988549 -0.801947 0.325910 -0.080616 -1.301854 -0.892467
Rxh6 0.561253 -0.128871 0.599658 -0.263410 1.408678 0.604008 0.124216 1.423213 1.230097 0.424894
Qh5+ 0.067430 2.015496 0.943702 0.072434 -0.019283 0.247263 -1.140390 -0.730212 0.781014 1.573966
dxc3 0.947507 -0.658410 -0.114418 -0.684163 1.019435 -0.932349 -1.235648 -1.423726 -0.520839 0.756847
Rxf8 0.169076 0.129257 0.764681 0.070870 -0.371508 0.768849 -1.290232 -0.180985 0.596632 0.068165
Rcd1 0.862713 -0.488845 -0.307075 1.858829 -0.681909 -0.449610 -0.932333 0.863714 -1.126425 -0.222091
Rxh7 0.308004 -0.297061 0.475070 -1.032885 1.416494 0.393105 -0.146856 1.550799 1.233634 0.166006
Nd6+ -1.123034 -0.582241 0.459501 -1.437939 -0.356038 0.194699 0.090926 0.486601 -0.915590 1.175974
Nxb7 -0.114291 -0.544623 -0.376815 -0.415921 -1.077902 -0.710381 -0.490865 0.465828 -0.894200 -0.461203
Bxd2+ 1.256312 -0.724700 -0.532992 -0.842406 1.810035 -2.103630 0.439750 -2.827668 -1.129845 0.750131
Qxh6 0.443529 0.591302 0.859276 0.896222 0.778787 0.745080 -1.487284 -0.178522 0.208934 0.816572
Qxh5 0.142221 1.259759 0.564752 1.229567 0.253682 0.366210 -0.974003 -0.160254 0.297191 0.855184
Bxf1 0.985843 0.048144 0.043033 0.205624 -0.848291 -0.036067 -0.035172 -1.637692 -0.027745 -0.715173
Re7+ 0.064162 0.359862 0.326797 -1.545163 0.079506 -0.351439 -0.155018 2.160720 1.064588 0.302742
Qh4+ 0.109221 2.061067 0.578170 0.333584 -0.201939 0.170206 -0.262951 -1.154471 0.806875 1.627992
Rxg6 0.483374 0.340550 0.643012 -0.225212 1.016650 0.556951 -0.102297 1.353867 1.496016 0.430675
Ngf3 1.242122 -1.202072 1.222305 -0.681159 0.384129 -0.265605 0.797800 -2.249750 -1.034558 1.285669
Na2 -0.178128 -0.431456 -0.742551 0.353671 0.907218 0.162179 0.704532 -0.130904 -2.349533 -0.905731
Bxa5 -0.222507 -0.240883 -0.557717 -0.387608 -0.489280 -0.198108 0.188866 0.512858 -1.267202 -0.941758
Qf5+ -0.878615 2.740927 0.859316 -0.175159 0.432792 -0.573178 -1.001200 -0.489556 0.557175 0.759304
Kxd8 -0.692780 -0.831926 -0.322881 -1.423049 -0.936122 -0.996252 -0.328756 -0.083215 -1.083487 2.689690
Ka7 -1.998626 0.509836 2.180263 0.042645 0.476483 -1.623167 1.137863 0.708744 0.159934 -0.055780
Rb7+ -0.303950 0.237351 0.984768 -1.706686 0.650815 -0.396980 0.641637 1.990506 0.370181 -0.903395
Rf1+ 0.459668 1.288397 -0.284067 -1.091245 0.475218 0.454012 0.245327 1.012716 1.356685 0.066478
Qf4+ -0.959616 2.758369 0.649792 0.067275 0.127607 -0.844154 -0.303926 -0.695489 0.574606 0.723971
Rxb1 0.090980 0.258707 0.138216 -0.666917 0.156118 0.561823 0.061343 -1.177696 -0.986330 -2.362416
Kxf6 -0.046232 0.471626 -0.099309 -1.654696 0.211722 0.838824 -0.410985 1.190625 0.839703 0.611734
Rc2+ 0.084462 0.899999 -0.979591 -1.003943 0.866555 -1.256555 1.207052 1.528746 0.547705 -0.645933
Rd2+ 0.172953 0.944173 -1.102888 -1.124077 0.430553 -1.253191 1.023204 1.587863 0.759742 -0.107702
Bg1 -0.364319 0.214914 0.155364 0.868022 -0.437080 0.060178 1.794196 0.290388 -0.524840 0.687852
Qe3+ -0.677688 2.584198 0.335799 0.263373 0.246682 -0.912084 -0.035956 -1.064070 0.513756 0.584828
Ndb5 0.644794 -1.278684 1.154186 -0.976672 -0.307723 -0.107018 -0.166704 -1.552609 -2.252255 0.797755
Qxc8 -0.585592 0.851528 0.335730 0.048642 -1.725748 0.758025 -1.075043 -0.820049 -1.782315 -0.972681
Nxh5 0.282291 -0.030226 -0.068862 0.608139 0.474084 1.549402 0.147759 0.256772 -0.008061 1.308685
Rb8+ -0.868706 0.346826 0.751580 -1.194819 0.861746 -0.401247 0.300599 1.342801 -0.057201 -1.314021
b7 -0.427289 0.799476 0.753795 -1.186561 -0.827573 -1.011324 1.508285 0.037942 0.258918 -1.106101
Rg1+ 0.880199 1.489424 0.174730 -0.607862 1.005442 1.174671 0.843561 0.916556 1.631165 -0.291792
Qe8+ -1.065306 2.327550 1.808377 -0.398864 -0.273698 -0.189551 -1.075125 -0.324769 0.371066 -0.099325
Qc8+ -1.206082 2.399053 1.472797 -0.230822 -0.414067 -0.310910 -0.917143 -0.255154 0.078173 -0.411464
Qf6+ -0.943577 2.202206 1.443578 -0.360914 0.340230 0.110024 -1.249726 -0.410613 0.811531 0.687091
Rf7+ 0.247794 0.447342 1.156442 -1.490972 0.342778 0.111269 0.158901 1.865764 1.572649 0.107716
Bxa3 0.308122 -0.385249 -0.424576 -0.628134 0.614196 0.181887 -0.415692 -0.252100 -1.229020 -1.206971
Bxh4 0.331230 0.055767 -0.017357 0.460922 -0.549886 0.662169 0.470115 0.275618 0.188268 0.879964
Qd1+ -0.822858 3.099006 0.033587 0.299235 0.206590 -0.887783 -0.161148 -0.859693 0.189419 -0.314774
Rg8+ 0.558745 0.999035 1.215987 -0.713036 -0.206957 0.740597 1.001309 1.167082 1.682707 -0.031810
Kxf8 -0.412726 0.425831 0.432108 -0.713419 -0.616775 0.568096 -1.394119 -0.195210 0.088674 -0.044056
Nf5+ -0.287711 0.613552 -0.335488 -1.136172 -0.259246 1.683683 0.053029 1.045448 0.220747 0.776184
Ra2+ 0.266247 1.097172 -0.722111 -0.888905 0.866693 -0.521519 1.956657 1.291596 0.553301 -1.046445
Qc1+ -0.815973 3.108063 0.024437 0.404454 0.175948 -0.722124 -0.108230 -0.905186 0.063047 -0.678627
Rb1+ -0.517185 0.934065 0.158351 -0.792742 0.619751 -1.005728 1.295055 0.931803 0.141599 -1.538730
Qc5+ -1.180873 1.724260 0.657608 0.415173 0.046801 -1.391486 -0.614807 -0.342708 -0.067666 0.518671
Bxh3 1.167301 0.312540 -0.175511 0.793035 -1.188720 0.311758 0.522949 -0.424024 0.446526 0.287631
c7 -0.461517 0.657517 0.531417 -1.193618 -1.040337 -0.613765 0.545994 -0.022189 0.087400 -0.893506
Rf8+ 0.342349 0.886989 0.574713 -1.222241 -0.498815 0.206336 0.590046 1.236893 1.445148 0.105475
Qxh4 0.228354 1.325401 0.608975 1.271238 -0.158281 0.074104 -0.462957 -0.300494 0.490855 0.794424
Qe1+ -0.770101 2.984091 0.103267 0.345001 0.178935 -0.648719 -0.024265 -0.991475 0.372197 -0.272642
Rxf8+ 0.246580 0.685873 0.593443 0.401629 -0.813781 0.620130 -1.314852 -0.074564 0.464408 0.214983
Rhd1 -0.248246 -1.102085 -0.748558 0.899002 0.398604 -1.982157 -0.524936 1.030729 -1.163787 0.614136
Rfb8 1.033281 -0.817118 0.353154 1.036750 0.373636 -0.190841 0.369683 -0.308713 -1.615247 -2.350903
Nxa6 -0.271477 -0.750943 0.040693 -0.751708 -0.359493 -0.188781 0.665394 -0.027415 -1.365194 -0.650833
Ne7+ -0.315941 0.220333 0.121910 -0.971526 -0.632573 0.995057 -1.045709 0.514242 -0.342184 0.106654
Qxd8+ -0.393559 -0.447800 0.023055 -1.299472 -1.238065 -0.917824 -1.174977 -0.944904 -1.318172 2.219990
Kxf2 0.384426 1.327610 -1.512970 -0.114908 -0.895930 -0.632685 0.447251 -0.411021 0.727717 0.278055
Rcd8 0.631921 -0.477457 -0.401018 1.687816 -0.722854 -0.479109 -0.715704 0.738575 -1.050807 -0.290562
Qxa3 0.003444 0.997578 0.258545 0.421324 0.406116 -0.246362 -1.169566 -0.653580 -0.926742 -1.445581
Rxc8+ -0.992731 0.201639 -0.090749 -0.237332 -0.897701 0.124873 -0.911867 -0.185788 -2.066785 -1.302108
Bh2 0.297792 -0.236940 0.541540 0.977127 -0.860101 0.309102 1.697395 0.155005 -0.827112 1.026014
Bxg3 0.817840 0.436757 -0.193758 0.728746 -1.027984 0.045331 0.912265 -0.258273 0.372349 0.705456
Nf3+ 0.711899 1.177570 -1.252055 -0.319979 -1.210471 0.423354 1.009477 -0.291880 0.346142 0.348960
Qxf7 -0.478636 0.709562 1.087309 0.294468 -0.254474 0.006271 -1.881506 -0.132573 0.721240 0.432265
Rb2+ -0.071103 0.897948 -0.477823 -1.007807 1.026238 -1.041351 1.881420 1.271224 0.523992 -1.144500
Re2+ 0.415217 1.156482 -1.263195 -0.885907 0.680095 -0.820317 0.812898 1.479440 1.186015 0.095921
Rxf1 0.829667 0.702297 -0.212207 0.730255 -0.606035 0.317236 0.146279 -1.085564 0.853568 -0.280946
Bxh5 0.202395 0.196095 -0.134424 0.429800 0.301378 1.263251 0.023650 0.504326 0.129985 0.972410
Rg7+ 0.412792 0.343505 1.331933 -1.302101 0.530669 0.491743 0.265769 1.700656 1.714544 0.048245
Ka1 -1.174458 1.018449 -0.481213 0.947737 2.685088 -0.932696 -0.574659 -0.374684 -0.269440 -0.122633
Nxc8 -0.762636 -0.153133 -0.114467 -0.467366 -1.878016 0.797532 -0.836578 -0.294277 -1.673849 -0.797737
Qxg6 0.123312 0.792600 0.774581 0.759023 0.506526 0.790253 -1.736022 0.087299 0.634137 0.925466
Ra8+ -0.507056 0.218136 0.902385 -1.187806 0.322440 0.063108 0.119450 1.457707 0.059392 -1.175974
Ne5+ -0.635739 0.134138 -0.328887 -1.650731 -0.496293 0.845193 0.616883 1.071846 -0.015036 1.063279
Rde1 0.622211 -0.544677 -0.017791 2.117623 0.276514 -0.262037 -1.092031 1.030116 -0.226957 0.848399
Qc3+ -1.139037 2.389702 0.506024 0.002692 0.773318 -0.607831 -0.665130 -0.427945 -0.089672 0.137697
Bxc7 -0.340744 -0.565942 -0.001558 -0.582010 -1.705915 -0.394533 -0.409646 0.336046 -0.872827 -0.206145
Qg6+ -0.601352 2.326197 0.982297 -0.153323 0.596924 0.579839 -1.342243 -0.385653 0.712172 1.125796
Ka3 -1.917235 1.304786 0.430722 -0.199443 2.522539 -1.041340 1.195376 0.458241 0.081908 -0.458016
Qh6+ -0.225975 2.225303 0.952319 -0.011950 0.543684 0.924535 -1.453211 -0.240430 0.935147 1.421725
Qc4+ -1.229992 2.144351 0.477888 0.067124 0.359683 -1.309121 -0.727835 -0.598855 -0.075091 0.283449
Ka6 -2.141659 0.676955 1.855195 -0.539792 0.815963 -1.287887 1.527837 0.870810 0.172837 -0.017419
Ne4+ -0.139346 0.429803 -1.383405 -1.290964 0.089717 0.632484 1.196096 0.730770 0.177552 0.970860
Ra3+ 0.506990 0.851703 -0.493654 -1.276373 1.282010 0.148089 2.188737 1.783550 0.820364 -1.090920
Qe7+ -1.169839 2.180901 1.897656 -0.834989 0.148905 -0.434005 -0.682342 -0.981553 0.496646 0.738742
Kxe7 -0.448267 -0.757492 0.575285 -1.487378 0.108648 -0.371460 -1.191242 0.387262 0.169881 0.891182
Nxb2 -0.164289 -0.024153 -1.566927 -0.253607 0.176268 -0.000278 -0.777846 0.153322 -0.973321 -0.642518
Rxh2 0.299774 -0.029729 -0.342005 -0.506761 0.251768 -0.688975 1.537749 1.152933 1.489460 0.023368
Qb8+ -1.643491 2.123201 1.738601 -0.045161 -0.359293 -0.599453 -0.758833 -0.121870 -0.159368 -0.541100
Qa1+ -1.193043 2.278679 0.190646 0.436313 1.099928 -0.926811 -0.280714 -0.787551 -0.197217 -0.974832
Bxa8 0.133914 -0.204065 0.019183 -1.089449 -1.602596 0.466576 -0.349496 -1.446896 -1.309393 -0.960819
Ra6+ 0.193235 0.195161 0.558617 -1.988561 0.455052 0.591881 1.623064 2.347534 0.627415 -0.664498
Nd5+ -1.153550 -0.440474 -0.349961 -1.657629 0.154210 0.439457 0.809422 1.198251 -0.462293 1.038128
Nxc7 -0.530057 -0.685200 0.066695 -0.574042 -1.763687 0.196107 -0.534195 0.404960 -0.698130 -0.294556
Qc7+ -1.580691 2.522011 1.666741 -0.327889 -0.407543 -0.615752 -0.631737 -0.304033 0.164654 0.160013
Bxd7+ 0.561106 -1.712167 1.862221 -0.917602 -0.412920 -1.741487 -0.072732 -1.699357 -0.333673 1.330513
Ne6+ -1.124228 0.262532 0.064642 -1.427316 -0.416480 1.246699 -0.294727 1.225324 -0.202176 0.979717
Rxg3 0.683607 0.455093 0.092384 0.274253 0.249271 -0.275072 1.188991 1.009681 1.738933 0.233048
Nf4+ -0.050629 1.277950 -1.302787 -0.645578 -0.611231 1.277709 1.238423 0.746192 0.271258 0.814503
Kxf1 0.650510 0.870981 -0.344454 -0.233446 -0.787793 -0.277893 0.313401 -1.518401 0.297552 -0.737010
Rxh3 0.727843 0.142378 -0.010364 0.261230 0.296134 -0.158223 1.510909 1.132394 1.524718 0.198730
Qd6+ -1.665732 2.417507 1.584595 -0.388139 -0.226575 -0.902436 -0.627997 -0.394222 0.343933 0.448738
Qb1+ -0.976870 2.747576 0.258203 0.545450 0.439190 -0.769069 -0.124655 -0.624261 0.074746 -1.020583
Ka4 -2.210780 0.940079 0.848654 -0.417613 1.730243 -0.834001 1.879791 0.583235 -0.062401 -0.161361
Rxg2 0.442544 0.197532 -0.033651 0.016865 0.520784 -0.879051 0.999001 0.463716 1.757016 0.048902
Bxc1 -0.497172 0.486448 -1.328839 -0.003714 -0.344514 1.384308 -0.334013 -1.116718 -1.713361 -0.792722
Ra1+ -0.162501 0.970723 -0.505672 -0.364231 0.548819 -0.464201 1.023504 0.542969 0.248171 -1.600572
Ka5 -2.241804 0.707697 1.372910 -0.737993 1.517837 -0.953238 1.807335 0.844276 0.078650 -0.163773
Qh8+ -1.175965 1.771005 2.027926 -0.202216 0.132853 0.692591 -1.373733 -0.055370 0.869433 0.748297
Qd3+ -1.230912 2.874241 0.522398 -0.019512 0.892364 -0.780456 -0.378166 -0.658124 0.433431 0.160862
Rd6+ -0.140471 0.225511 -0.012296 -1.700813 0.308722 -0.616353 0.703760 2.413915 0.806223 0.193750
Qxe8 0.040566 0.935941 0.259158 0.144552 -1.827324 1.164024 -1.620853 -0.825933 -0.644746 -0.066247
e7 -0.343136 0.319373 0.546189 -1.106624 -0.385279 0.112363 -0.537542 -0.037128 1.000440 0.031025
Bg8 -0.599229 0.026722 0.408019 -0.079733 0.684551 1.316859 0.248333 0.944951 -0.401947 0.529114
Ng1 0.290652 0.356315 0.142229 1.123125 -0.161912 0.886494 1.660815 -0.412970 -0.279673 0.296464
Bxa7 -0.337867 -0.236691 -0.357810 -0.459136 -1.282343 -0.517780 0.159793 0.333506 -0.892520 -0.579808
Nxe7+ 0.791367 -1.181618 0.101518 0.157623 -0.203374 0.649575 -1.910145 -0.296965 -1.195430 -0.046588
Ndf6 1.706600 -0.887002 0.154019 1.443484 -0.358867 1.554891 0.402759 -1.080152 -1.068611 0.373644
Nxg7 -0.027580 -0.060717 -0.044514 0.309469 0.204661 1.133564 -1.344662 0.365710 0.114108 0.737294
Kxf3 0.479614 0.876943 -1.013471 -0.912868 -0.836639 -0.452890 1.358678 0.298134 1.010744 0.167546
Qb6+ -1.404434 1.457433 0.379647 0.294380 0.138033 -1.167850 -0.421285 -0.688337 -0.462570 0.638720
Qg3+ -0.403758 2.504681 0.689487 0.541625 -0.360836 -0.365066 0.064455 -0.680220 0.965718 1.014675
Bxc2 0.061215 0.104052 -1.711559 -0.113321 0.835101 0.365561 -0.827057 -0.131391 -0.881752 -0.355856
Rh7+ -0.013610 -0.127267 1.865067 -1.237799 1.110756 0.367065 0.223283 1.872037 1.454303 0.094828
Bd4+ 0.164709 0.583927 -0.779396 -0.259414 -0.628382 0.267031 0.199078 0.190433 0.126086 0.374279
Qb7+ -1.558718 2.115935 1.316783 -0.327543 -0.376498 -1.124978 -0.394579 -0.532290 -0.183091 -0.200608
Kxd2 0.084256 -0.517161 -1.557353 -0.762370 1.732492 -1.518546 0.418089 -0.783006 -0.306310 0.641208
Rh8+ -0.270034 0.517149 1.522997 -0.590273 -0.016068 0.965034 0.119742 0.955453 1.452586 -0.024203
Qc2+ -1.156114 3.218047 0.215593 0.047815 0.682742 -0.588262 -0.148908 -0.923346 0.146805 -0.289439
Qc6+ -1.492171 2.095911 0.993583 -0.304270 -0.387594 -1.584062 -0.335087 -0.594260 0.059876 0.293871
Rf2+ 0.520586 1.419981 -0.905734 -0.889806 0.901531 -0.367939 1.143724 1.104363 1.583611 -0.072903
Ka8 -1.866204 -0.029967 2.178478 0.631521 -0.086216 -2.034030 0.625366 0.254813 -0.024826 0.124640
Nbc6 0.518630 -1.397661 0.967949 0.644536 1.162933 -0.048129 0.293664 -2.040476 -0.965583 0.980554
Qa8+ -1.633567 1.677747 1.595839 0.117780 -0.468915 -1.036263 -0.562672 -0.310364 -0.277656 -0.747179
Rfb1 0.606258 -1.249594 1.163628 1.067576 0.025345 -0.079209 0.199292 -0.097477 -1.420121 -2.131051
Qh7 -0.484112 0.844760 1.502794 1.457878 0.352040 0.586282 -0.494512 0.132244 0.536589 0.773925
Nxe2 0.897634 -0.284000 -1.378603 0.413038 -0.262020 -0.308474 0.568767 -0.997140 -0.190468 0.189774
Rf6+ 0.376200 0.462280 0.534824 -1.474435 0.283255 0.177586 0.817487 2.042573 1.512861 0.087229
Ba1 0.189888 -0.264164 -0.201286 0.527372 0.206119 0.589809 0.226231 0.334625 -1.504758 -0.936474
Rg3+ 0.694040 1.256561 0.169356 -0.391984 1.125632 0.473575 0.857912 1.140076 1.653262 -0.083093
Kxf5 -0.237949 0.310855 -0.205829 -1.957019 0.022736 1.330275 1.140065 1.191189 1.122597 0.554764
Qd7+ -1.623744 2.670774 1.951966 -0.690747 -0.251519 -0.254558 -0.600928 -0.540728 0.468604 0.214551
Rc6+ -0.494394 0.209901 0.397953 -1.662558 0.652657 -0.626252 1.088649 2.339565 0.533566 -0.503826
Nd3+ -0.750857 0.496158 -2.040033 -0.775178 0.735721 0.163471 1.300765 0.193383 -0.606921 0.807027
Qh2 -0.217411 1.247771 0.592718 1.989986 0.461987 0.229324 0.188632 -0.238603 0.575577 0.966370
Rec8 0.654011 -0.685027 -0.239973 1.396672 0.056647 -0.111136 -0.068690 0.486132 -1.681029 -1.827335
Nxh4 0.116469 -0.024466 -0.144424 0.453034 -0.582908 1.102591 0.777112 0.105969 0.171987 1.160907
Rg6+ 0.730062 0.796078 1.013281 -0.919471 0.277551 0.494068 0.871640 1.656380 1.776903 -0.118571
Rxf1+ 0.923858 1.027898 -0.281436 0.772493 -1.002261 0.399965 -0.425252 -1.010952 0.650042 -0.102450
Rb6+ -0.416504 0.346650 1.020796 -1.810133 1.159384 -0.416506 1.367836 2.221171 0.588838 -1.031586
Rdc1 0.211036 -0.933434 0.051275 1.124795 -0.336126 -0.594885 -0.434042 0.855545 -1.843101 -1.793767
Qxe6+ -0.429740 0.747610 0.795982 -0.107064 -0.306520 -0.308109 -2.117773 -0.158999 0.204843 0.659502
Bxf7 -0.330116 -0.013905 0.238485 -0.533044 -0.181821 0.454512 -1.275690 0.735656 0.514826 0.643801
Rb3+ -0.089491 0.759981 -0.180709 -1.172599 1.172243 -0.537199 2.220879 1.636440 0.626127 -1.082616
Kxh7 0.422239 0.552671 0.302762 -0.678501 1.062507 1.262187 -1.584007 -0.133544 1.153382 0.448124
Rhe8 -0.065693 -0.829068 -0.251204 1.306061 0.066816 -1.117622 -0.422359 0.428855 -0.550081 1.224585
Re6+ 0.017692 0.255609 0.143430 -1.585507 0.262928 -0.241874 0.670094 2.219113 1.201606 0.206569
Qe2+ -0.836838 2.426815 0.524778 -0.360097 0.671798 -1.060681 0.396890 -1.822159 0.374588 0.721881
Qxg7 -0.372688 -0.058526 1.188424 0.582969 0.860843 0.018088 -1.674441 -0.732390 0.638725 1.092973
Kxf4 -0.054192 0.275073 -0.802170 -1.516605 -0.098280 1.020692 1.547875 1.314344 1.094249 0.614308
Nxf2 0.244839 0.668102 -1.362497 0.375586 -1.012129 -0.053037 0.510462 -0.484511 0.480940 0.358172
Rc3+ -0.243085 0.526986 -0.553911 -1.312943 1.084797 -0.637532 1.514043 1.944455 0.631095 -0.478229
Bxd1 -0.375500 -0.039307 -1.693827 -0.270044 -0.744207 -0.238754 -1.001439 -0.303680 -0.930482 0.786333
Nd4+ -1.031914 0.120337 -1.436034 -1.359961 0.388975 0.297808 1.614451 0.854706 -0.520701 0.977762
a2 -0.797685 0.935885 0.165942 -1.691335 1.429111 0.700531 0.129755 -0.028459 0.183427 -1.627173
Kxg6 -0.064395 1.041769 0.330120 -1.252923 0.448220 1.568522 -0.295151 0.751114 1.250015 0.292111
Rd3+ -0.010044 0.614791 -0.836781 -1.200991 0.840015 -0.724220 1.295385 2.019459 0.824200 0.035362
Nce2 0.813130 -1.086314 -0.230053 1.689280 0.947126 0.668809 0.377213 -0.746365 -1.545702 0.844425
Qh7+ -0.810546 1.876419 1.437876 -0.165979 0.635091 0.770083 -1.290721 0.016868 0.869428 1.332822
Qxf2 -0.024744 1.614859 -0.631153 1.128382 -0.460531 -0.664035 -0.385485 -0.944940 0.870465 0.339615
Rbc8 0.525441 -0.527504 -0.264766 1.395753 -0.418471 -0.601490 -0.260921 0.452418 -1.208709 -1.439781
Qf7+ -1.243906 2.122498 1.937191 -0.818959 -0.053303 0.082414 -0.989098 -0.489664 0.779049 0.854434
Kxd7 -0.624060 -1.237126 0.955947 -1.571033 -0.458202 -1.424594 -0.127494 0.516922 0.445924 0.905278
gxh3 0.860753 0.675837 0.074145 0.795370 -1.385203 0.356411 1.233825 -0.085462 1.089103 0.435378
Rg2+ 0.705148 1.268901 -0.379643 -0.597918 1.038487 0.105596 1.588976 0.784188 1.764796 -0.242052
Qb2+ -1.366706 2.828294 0.314962 0.163510 0.685949 -0.495536 -0.075579 -0.781916 -0.113548 -0.560196
Rf3+ 0.455550 1.036716 -0.620455 -0.957131 1.012117 -0.028998 1.267403 1.564847 1.578217 -0.112279
c2 -0.556246 1.042746 -0.412094 -1.209308 0.968334 0.176172 -0.202966 -0.363836 0.128175 -1.083131
Qxc1 -0.481735 1.276053 -1.055592 0.443196 -0.296118 1.125314 -0.929010 -1.199750 -1.966121 -1.233802
Qd2+ -1.075703 3.191432 0.286447 -0.063134 0.591075 -0.671877 0.026952 -1.151154 0.524508 0.185663
Rde8 0.411131 -0.502711 -0.118767 2.405205 -0.201960 -0.437988 -0.491101 0.682914 -0.157942 0.743308
Qf3+ -0.824536 2.724374 0.560524 -0.090832 -0.309730 -1.079229 0.298457 -0.935261 1.054956 0.732264
Qxg3 0.410466 1.167942 0.084191 1.351143 -0.885990 -0.274102 0.174882 -0.643555 0.916980 0.685155
b2 -0.490552 0.805379 -0.015186 -1.756742 1.408034 0.423328 0.007499 -0.268317 0.148605 -1.425555
Kxe5 -0.194444 -0.488507 -0.734640 -2.226473 -0.104407 0.427301 1.109493 1.491337 0.996485 0.904554
Kxe6 -0.870327 -0.184704 -0.213030 -1.862856 -0.280750 0.115558 -0.227523 1.305620 0.666651 1.119691
Kxg5 0.140639 0.720772 -0.289355 -1.910476 0.124483 1.550105 0.844535 1.080766 1.214308 0.188118
Ng5+ 0.153211 0.809840 -0.004213 -1.043669 -0.525235 1.851419 -0.623889 0.601829 0.438358 0.734661
Rxc1+ -0.803221 0.828670 -1.307674 0.275582 -0.112335 0.437613 -0.544235 -0.614174 -2.323077 -1.687386
Qb3+ -1.461215 1.607949 0.458754 -0.166868 0.332897 -0.877127 -0.739645 -0.663042 -0.358261 0.226721
Qg8 -0.888171 0.861595 2.122012 1.137867 0.045176 0.609921 -0.573629 0.210805 0.538000 0.214695
Bxa2 -0.000436 -0.122891 -1.094785 -0.621981 0.374782 0.156706 -0.902657 0.242621 -0.557407 -0.919279
h7 -0.654746 0.524757 0.923290 -1.365282 1.767822 1.271611 0.700106 0.071780 1.124391 -0.029794
Qf8+ -1.543000 2.117369 2.441011 -0.627597 -0.133376 0.040576 -0.684554 -0.353358 0.603035 0.314175
Rhd8 -0.541890 -1.075734 -0.600056 0.769535 0.222631 -1.871125 -0.351544 1.045022 -0.984115 0.612136
Rxf7+ 0.194091 0.420016 0.727265 -0.849735 -0.053162 -0.011586 -0.982114 1.189059 1.416869 -0.103079
Re3+ 0.321257 0.754703 -0.953263 -1.168459 0.769273 -0.474805 1.228028 1.848138 1.157887 0.177859
Qxa8 -0.562238 0.154944 0.795872 -0.414577 -1.206972 0.530534 -0.587072 -1.675001 -1.311115 -1.133488
Rg5+ 0.831689 0.860149 0.563251 -0.883412 0.384650 0.327605 0.986905 1.638889 1.745086 -0.401090
Kxg4 0.394979 0.926623 -0.301864 -1.534624 -0.463728 1.231715 1.714142 0.761565 1.329356 -0.056208
Nxd8 -0.917764 -0.270114 -1.230081 -0.763748 -1.555316 -0.257893 -0.972204 -0.053661 -1.121317 1.030123
Rf4+ 0.781684 0.776785 -0.152402 -1.210415 0.768416 -0.041922 1.159546 1.947313 1.576036 -0.243175
Ne2+ 0.220170 1.073394 -1.721967 -0.421772 -0.505235 0.279777 0.450636 -0.442910 0.060243 -0.329522
Kxe4 -0.022379 0.138052 -1.074586 -2.073783 0.249403 0.423748 1.227140 0.776205 0.944635 0.423237
Qxf7+ -0.565577 0.813707 1.058013 -0.567118 -0.512340 -0.099249 -1.817556 -0.009314 0.552256 0.434009
Rhf1 -0.099980 -0.754548 0.041683 1.925460 0.663462 -0.678383 -0.495743 0.314484 -0.132401 1.591598
d2 -0.206167 0.833315 -0.820830 -0.898190 0.294880 -0.646467 0.083514 -0.409734 0.660216 -0.634910
Rf5+ 0.586102 0.877861 0.054145 -1.424369 0.306178 0.156098 1.079145 2.159333 1.465777 -0.112472
Bxf7+ 0.275465 0.216371 -0.016717 -0.515759 -0.808311 0.494713 -2.088390 -0.224534 0.127153 0.293497
Rg4+ 0.894315 1.009791 0.313601 -0.623648 0.794789 0.391091 0.911333 1.497093 1.700002 -0.417136
Ne3+ -0.576533 1.287932 -1.815493 -0.812185 -0.291909 0.778502 1.672314 -0.015049 0.042144 0.238088
Rbd1 0.829977 -0.542609 -0.214084 1.516516 -0.644124 -0.191332 -0.851766 0.684843 -1.015259 -0.460707
Nxg2 0.541680 0.088847 -0.690502 0.454668 -0.731171 -0.326792 0.703567 -0.713624 0.252509 0.030880
Qh1+ -0.722470 3.130039 -0.092636 0.996375 0.172358 -0.358767 0.892087 -1.255780 0.986597 0.273137
Rbc1 0.469064 -0.517828 -0.132754 1.135187 -0.317701 0.019342 -0.837332 0.398883 -1.481559 -1.425126
Rhg1 0.268770 -0.976936 0.396530 1.934904 1.256668 -0.154234 -0.169606 0.103193 0.285659 1.393510
Rdc8 0.082657 -0.844217 -0.497877 1.151455 -0.110110 -0.764087 -0.054475 0.667069 -1.673427 -1.569349
Bc5+ -0.543167 0.180410 -0.525971 -0.571114 -0.734598 -0.354335 0.305419 0.427235 -0.321488 0.900660
Bxe8 -0.288863 0.172437 -0.208024 -0.284524 -1.383658 1.242951 -1.274389 -0.145232 -0.348617 0.020134
Rh6+ -0.009260 0.100953 1.250563 -1.005492 0.773129 0.509817 1.228837 1.900700 1.504209 -0.000936
Rec1 0.336295 -0.812430 0.161505 1.162848 -0.121125 0.011532 -0.464500 0.616703 -1.714632 -1.887246
Rh2+ 0.475896 1.034217 -0.623568 -0.202875 1.479777 -0.371680 2.049208 0.757784 1.650983 -0.240001
Bd5+ -0.504973 0.363345 -0.179849 -1.022287 -0.222621 0.103767 -0.415499 0.634749 -0.044142 0.462942
Nce4 1.130738 -1.397944 -0.078500 0.651218 -0.433693 0.112274 -0.382285 -1.140771 -0.978704 0.013447
Qf1+ -0.906453 3.202774 0.051126 0.354118 0.827537 -0.669865 0.660711 -1.178673 0.750678 -0.043631
Nxe8 -0.245389 0.162683 -0.427513 -0.227174 -1.894490 1.412502 -1.294094 -0.219348 -0.585531 0.029349
Re5+ 0.306545 0.220860 -0.380377 -1.495834 0.582166 -0.297987 1.206543 2.369252 1.172293 0.189568
Bc4+ -0.513271 0.116442 -0.387744 -0.770900 0.126670 0.257744 -0.372800 0.416372 -0.273525 0.726881
Raf8 1.163542 -0.480756 0.327231 2.406973 0.155653 0.329460 0.081108 0.547322 0.704505 0.608417
Re4+ 0.282037 0.495376 -0.813790 -1.493486 0.445856 -0.394699 1.500267 2.160840 1.178767 0.205915
Rbd8 0.714764 -0.482980 -0.384875 1.715755 -0.640295 -0.708519 -0.639327 0.711812 -0.523764 -0.398986
Kxh5 -0.118642 0.850156 0.046885 -1.511799 0.134646 1.787536 1.038833 0.806856 1.077100 -0.131376
Nde2 0.817964 -1.192197 -0.197624 1.364849 0.233177 0.244760 0.448752 -0.900345 -1.768276 0.910354
Kxh6 -0.099079 0.736082 0.468855 -1.043698 0.709761 1.788603 -0.359435 0.620861 1.175597 0.063700
Qh3+ -0.315617 2.731829 0.626485 0.463646 -0.655789 -0.096031 0.353824 -0.903731 1.243706 1.234385
Rh1+ 0.251545 1.453485 -0.295818 -0.009553 1.240560 0.674896 1.071942 0.227188 1.730727 -0.389408
Qxe1 -0.034053 1.337438 -1.276264 0.800425 -0.722635 0.752863 -1.079162 -1.277949 -0.676642 0.001427
Nxa7 -0.969372 -0.619079 -0.199944 -0.726336 -1.467137 -0.089960 0.247879 0.309037 -1.185640 -0.801458
Rxg7+ 0.568282 0.445708 0.806302 -0.335180 0.501951 0.711685 -1.196693 0.638880 1.685630 -0.058568
exd3 0.772626 0.007917 -1.557080 0.062009 0.201106 -0.216869 -0.633794 -0.862129 -0.421123 -0.304110
Nxd1 -0.501082 0.202907 -2.180980 -0.296906 -1.025653 -0.418206 -0.682402 -0.789875 -0.963071 0.743212
Qg8+ -1.575095 1.865354 2.236594 -0.700250 -0.306997 0.406774 -0.786345 -0.181080 0.730007 0.605779
Kxg3 0.419084 1.272554 -0.361963 -0.617645 -0.869647 0.564042 1.591937 0.307951 1.544336 -0.006007
Qg1 -0.781996 1.589732 0.462169 1.986660 0.478830 -0.010698 0.781319 -0.679146 0.317716 -0.111256
Qxh3 0.504209 1.096188 0.261123 1.436575 -0.974342 -0.118844 0.216943 -0.865630 0.826368 0.476962
Rh3+ 0.309644 0.733162 -0.072743 -0.421652 1.661535 0.220047 1.779031 1.206582 1.655852 -0.196116
Nxc2 -0.185984 0.100021 -2.262007 -0.140846 0.711714 0.318483 -0.410197 -0.379029 -0.780163 -0.494268
Kxh4 0.045757 0.891746 -0.083553 -1.476005 -0.038049 1.371161 1.602873 0.550703 1.392696 -0.304828
Qxd1+ 0.049907 0.219472 -1.539661 -0.584167 -0.079536 -1.802214 -0.439536 -1.726017 -0.786183 1.340620
Qg1+ -0.997095 3.165710 -0.329053 0.505784 0.760805 -0.304989 0.662442 -1.265969 0.892782 0.032165
Kxe3 -0.135663 0.307568 -1.971841 -0.954179 0.065272 -0.146067 1.110723 0.440562 0.840057 0.590585
Raf1 1.253826 -0.823362 0.749109 2.300721 0.081165 0.674694 -0.607978 0.639948 0.603377 0.520765
Bxf2 -0.033871 0.735201 -1.116225 0.536896 -0.868740 -0.449382 0.690286 -0.172804 0.673797 0.417830
Nfd2 0.275775 -1.291455 0.368622 0.502076 -0.219563 0.075594 0.340929 -1.468212 -1.713814 -0.437948
Nbd5 0.825516 -1.462016 -0.180761 0.785239 0.389887 0.077340 -0.310072 -0.898980 -1.631447 0.185522
Kxe2 0.077045 0.124163 -1.547685 -0.434215 0.070351 -1.134189 1.054783 -0.617565 0.542297 0.292681
Ng4+ 0.456385 1.415761 -1.069119 -0.628645 -1.375076 1.355736 0.989529 -0.097312 0.678311 0.577351
Nxa3 -0.472065 -0.506166 -0.896651 -0.758514 0.896384 0.700808 0.192985 -0.050332 -1.175024 -1.336376
Bh8 0.095693 -0.462640 0.183242 1.121739 0.977826 1.531329 0.273983 0.233196 -0.549128 0.415550
Rd4+ -0.158845 0.135189 -0.620537 -1.678851 1.024824 -0.832198 1.420830 2.357543 0.892879 0.214931
Kxd6 -1.062809 -0.772767 0.178492 -1.835850 -0.646677 -0.400875 0.132353 1.151675 0.644057 0.744882
Nxf8 -0.135954 -0.218171 0.363523 0.001283 -0.636088 1.224606 -1.628220 -0.660663 0.215261 -0.064431
Bxc6+ 0.171062 -1.088592 0.848692 -1.115132 -0.680729 -2.011354 -0.068140 -1.410448 -1.019601 0.998032
Qa7+ -2.112432 1.826647 1.124015 0.135806 -0.173160 -0.865522 -0.199169 -0.369369 -0.445154 -0.453298
Qb4+ -1.842896 1.460028 0.518551 -0.539877 1.532916 -1.663386 -0.512094 -1.230042 -0.735886 0.384530
Qf2+ -1.129344 2.960554 0.044716 0.145681 0.489967 -0.688002 0.497882 -1.309333 0.805904 0.681420
Nc4+ -1.589635 -0.676848 -1.301275 -1.297599 1.066254 -0.147674 1.630626 0.746206 -0.820506 0.675529
Qxe5+ -0.370994 1.094485 0.807452 -0.081674 -0.412739 -0.742077 -1.106994 -0.557076 0.706837 0.750481
Ra4+ 0.055292 0.677229 0.075448 -1.698421 1.219927 0.342355 2.365560 1.967552 0.894401 -1.070697
Nc5+ -1.916740 -0.909853 -0.526333 -1.222526 0.432464 -0.423945 1.418056 1.183357 -0.811505 1.150364
Ra5+ 0.201590 0.538624 0.297491 -1.968031 0.618986 0.634444 2.254879 2.212095 0.914121 -0.960044
Qxg6+ 0.016251 1.248099 0.998425 -0.232323 0.516025 1.073435 -2.070482 0.199386 1.059981 1.178697
e2 -0.097429 0.904005 -0.457787 -0.975155 -0.153041 -0.446023 0.870113 -0.626554 1.379548 -0.490466
Bxa1 0.447546 0.237831 -0.758684 -0.760291 -0.583466 1.358715 -0.573951 -1.688866 -1.130176 -1.449496
f5+ -0.055263 0.380048 -0.503471 -1.783163 0.009626 1.932829 0.901915 1.512044 0.398202 0.467396
Kxd5 -0.604965 -0.788180 -0.630074 -2.244724 0.429771 -0.007360 0.738372 1.134673 0.849774 0.557871
Qxd5+ -0.253034 1.100531 0.226525 0.019397 -0.380202 -0.683557 -1.603247 -0.186339 0.258176 0.159533
Qxe4+ 0.223623 1.381850 -0.513946 -0.264592 0.591706 -1.019941 -0.491618 -1.423206 0.622164 0.383206
Qxd2+ 0.194493 -0.748746 -1.371013 -0.186835 1.919958 -1.380552 -0.196350 -1.733486 -0.890349 0.608891
Rd5+ -0.095032 0.097398 -0.397429 -1.700242 0.772836 -0.796782 1.435108 2.406631 0.952149 0.338944
Nf7+ -0.721116 0.390460 0.548299 -1.349148 -0.901353 1.733169 -1.177607 0.504146 0.353255 1.010075
dxe3 0.833091 0.085712 -1.515313 0.136985 -0.744074 -0.746970 -0.501916 -0.978443 0.083878 0.193099
Kxd1 -0.587781 -0.158554 -1.848598 -1.037134 0.043619 -1.566495 0.046329 -0.867933 -0.654677 1.555164
Qxa1 -0.270893 0.580436 -0.083295 -0.239763 -0.058063 1.320959 -0.338222 -2.037804 -1.286670 -1.653395
Nh6+ 0.565464 0.465669 0.232598 -0.256329 -0.380678 2.464695 -1.613140 0.308038 0.304260 0.533613
Qb5+ -2.093336 1.384936 0.944690 -0.354485 0.510378 -2.093094 0.113028 -1.123908 -0.585207 0.280579
Rc5+ -0.665883 -0.034231 0.175480 -1.607570 1.236514 -0.612410 1.496582 2.182887 0.684822 -0.418959
h2 -0.347551 0.577957 0.892701 -1.017355 -0.177128 0.131412 2.527059 -0.439894 1.741145 -0.110698
Qh2+ -0.676014 2.777470 0.130274 0.844766 -0.002554 -0.234456 0.933180 -1.052435 1.096961 0.777447
Rc4+ -0.419086 0.214250 -0.112103 -1.486044 1.396426 -0.909575 1.690322 2.048186 0.769472 -0.340197
Qxh7 -0.707835 0.183402 1.415016 0.357317 1.035444 -0.088838 -1.563942 -0.580401 0.916772 0.758565
Qxg2 -0.112178 0.609188 -0.148910 1.302189 0.081822 -1.365112 -0.065446 -1.178235 1.140698 0.708192
f7 -0.571037 0.370085 0.693304 -1.638901 0.880670 0.638126 -0.129680 0.037418 1.543985 0.033773
Nxa2 -0.387810 -0.375540 -1.711439 -0.890709 0.791940 0.126162 -0.419027 0.006489 -0.880781 -1.183684
Qxf6+ -0.220333 0.998177 1.050416 -0.559444 0.212283 0.632682 -1.919277 0.291840 1.043750 0.423825
Bxh7+ 1.050387 -0.036597 -0.304582 0.108076 0.563755 0.938046 -2.272301 -0.911570 0.247193 0.366170
Rhg8 -0.173078 -1.129651 0.824348 2.119497 0.692783 -0.580585 0.281631 0.345665 0.432808 1.351189
g5+ 0.375490 0.978524 -0.482711 -1.584618 0.397892 2.214576 0.507370 1.335027 0.695335 -0.192870
Bxe1 -0.154551 0.755339 -1.687295 0.260674 -1.147122 0.655828 -0.540674 -0.789456 -0.364049 0.110048
Nxh6 -0.467553 -0.184994 0.214015 -0.096042 0.245989 2.193260 -0.258914 0.386203 0.507996 0.881747
f4+ 0.267421 0.830152 -0.896268 -1.306399 -0.550470 1.220508 1.840082 1.280258 0.763904 0.452484
Bxe6+ -0.432975 -0.349942 -0.120570 -0.102725 -0.543591 -0.096198 -1.888356 0.470400 -0.062267 0.871284
Rb5+ -0.505298 0.051725 0.748507 -1.641522 1.540717 -0.444601 1.857889 1.952777 0.857571 -0.927829
Rxh8 -1.407642 -0.823966 0.833751 0.520988 0.844779 1.330235 0.127022 -0.345113 0.845387 0.865368
Nxc1 -0.917523 0.652003 -2.027246 0.019993 -0.071486 1.134198 -0.281946 -0.883651 -1.743197 -1.133838
g7 -0.508934 0.376957 0.900183 -1.367437 1.907751 1.183260 0.395116 -0.279851 1.461241 -0.031625
Qh8 -1.224617 1.102553 1.794768 1.383098 0.387400 0.863032 -0.100365 0.113438 0.435194 0.264421
Qg7+ -1.622018 1.856342 1.883750 -0.573504 0.316938 0.305027 -0.821976 -0.224447 1.172984 1.220247
Nhf6 1.211824 -1.246451 0.683354 1.604093 0.000927 1.408794 0.822450 -0.813515 -0.942892 0.054996
Nc6+ -1.969568 -1.116851 0.138764 -1.804402 -0.273153 -0.180902 1.052923 1.054560 -0.958760 0.622129
Qxb8 -0.610431 -0.207724 1.566436 -0.165783 -1.752906 0.148200 -0.224567 -1.283534 -0.656584 -1.968670
Qxf2+ 0.068975 1.627196 -1.167912 0.556935 -0.464938 -0.590813 -0.058352 -1.030806 0.760411 0.188090
Qxd4+ -0.054818 1.245977 -0.689641 0.279407 -0.004304 -0.639876 -0.893004 -0.632449 0.402842 0.174556
Qxe3+ 0.195767 1.570973 -1.370793 0.849332 -0.249207 -0.816506 -0.429810 -0.952704 0.498353 0.412262
Rcc8 -0.137850 -0.711146 0.121397 1.093887 -0.300784 -0.131316 0.142902 0.923065 -0.883433 -1.215887
Rce8 0.875284 -0.342784 -0.398831 2.104370 -0.463413 0.119700 -0.497634 0.562084 -0.013166 -0.182411
Rb4+ -0.398373 0.287732 0.295546 -1.594200 1.471309 -0.470025 2.164979 1.792064 0.952066 -0.975388
Rxh1 -0.811773 -0.588610 0.447119 1.254301 0.836150 0.682913 1.146080 -0.921386 1.098439 0.740483
Rxg6+ 0.735708 0.520892 0.849844 -0.600542 0.764289 0.771510 -0.700557 1.020627 1.872903 0.056049
Nce7 0.991242 -1.464101 0.890292 0.784794 0.223737 0.792297 0.227607 -1.294934 -0.615269 0.525392
Kxd4 -0.478471 -0.542375 -1.386301 -1.753727 0.693591 -0.169037 1.027962 0.679612 0.926773 0.444907
Bxf2+ 0.285924 0.657847 -1.360990 0.395639 -1.357164 -0.596944 -0.201888 -0.800184 0.235083 0.219520
Ng6+ -0.220656 0.600730 0.375878 -1.108085 -0.175626 2.360153 -1.101216 0.600319 0.592350 0.723564
Be6+ -0.793339 0.091173 0.355307 -0.362655 0.074654 0.868884 -0.433372 0.691586 0.243305 0.640251
Qa2+ -1.874565 2.582176 0.191021 0.291436 0.867897 -0.862600 0.344067 -0.961212 -0.382272 -0.852461
Rdd1 0.392119 -0.456705 -0.414519 1.270731 0.172274 -0.271623 -0.243154 0.472311 -0.477159 -0.711501
Qxf8 -0.155866 0.405511 1.045311 0.315313 -0.649496 1.317650 -1.639823 -0.905274 0.449078 -0.187579
Nfd5 0.632373 -1.478450 -0.253903 0.472008 0.002872 0.181409 -0.800691 -0.461544 -1.516853 0.172590
g4+ 0.644816 1.036848 -0.033121 -1.292326 -1.268489 1.202239 1.904461 0.823222 1.174774 -0.246349
Kxc5 -1.114443 -1.041595 -0.296821 -1.586485 0.415795 -0.830224 1.402925 1.017829 0.769422 0.467201
Ned7 0.724503 -1.267049 0.098625 1.738740 -0.791258 0.056414 0.745681 -0.499527 -1.668149 -0.287076
Nxh7 -0.061813 -0.712124 0.262744 -0.395805 1.050431 1.663632 -1.142136 -0.038832 0.866589 0.863240
Nxa8 -1.092086 -0.454010 0.246994 -0.553143 -1.816813 0.588004 -0.126078 -1.252588 -1.209121 -0.647856
Rh5+ 0.021791 0.489252 1.021035 -1.085135 0.998256 0.180111 1.659068 1.590129 1.760721 -0.066552
Kxh2 0.329610 0.807734 -0.171318 0.149842 -1.559237 -0.190342 1.195055 -0.810571 1.712340 0.724798
f6+ 0.059433 0.292739 0.176721 -1.148139 0.736497 1.677266 -0.543606 1.152348 0.863273 0.444210
Ndf3 0.865838 -1.376870 0.571751 1.006651 -0.460233 1.318338 0.299944 -1.317393 -0.960241 0.784395
Rhc1 -0.470531 -1.609365 -0.828798 0.042497 0.871405 -1.264284 0.342152 0.462646 -1.119218 -0.650671
Qh1 -1.322339 1.756474 0.772654 1.851140 0.727850 0.271673 0.654009 -0.479000 0.430594 -0.002072
Kxc4 -0.986403 -0.790246 -0.912853 -1.451230 1.091160 -0.446364 1.430441 0.772313 0.774717 0.197080
Ree8 0.408765 -0.473198 0.082804 1.220870 -0.693128 0.316130 -0.232159 0.800893 -0.079551 -0.579048
Rhc8 -0.899293 -1.599463 -0.433179 0.237059 0.562336 -1.460510 0.166869 0.748382 -1.102278 -0.641903
Kxh3 0.417718 1.103730 -0.142788 -0.318282 -1.185521 0.594935 1.828290 -0.162152 1.712502 -0.221426
Nd7+ -1.505358 -0.703552 0.796900 -1.675860 -0.731052 0.426741 0.154006 1.143614 -0.079607 0.364459
Rce1 0.998345 -0.387572 0.032142 2.076893 -0.229485 0.700997 -0.956882 0.811410 -0.017586 -0.192221
Rh4+ 0.121477 0.942475 0.333207 -0.497717 1.449508 0.254259 1.584592 1.386586 1.809575 -0.244186
Bxd4+ 0.776233 0.243605 -1.363626 0.214263 -0.449193 -0.283631 -0.502058 -0.303589 0.068983 -0.017714
Rxf2+ 0.552433 1.396617 -1.121243 0.035813 -0.230624 -0.460626 0.613496 0.124795 1.650899 -0.534751
Nbd4 0.100608 -1.377668 -0.538680 0.839421 -0.459620 -0.013822 -0.265815 -0.765044 -1.796543 0.407564
Kxd3 -0.507202 -0.156121 -2.093117 -0.737326 1.363420 -0.142405 0.713863 0.306816 0.592219 0.307063
Nbc3 0.523299 -1.056667 -0.474859 -0.045361 0.375352 0.765319 0.534625 -1.972095 -1.907209 0.923014
Qg2+ -1.268865 3.026890 0.135769 0.280234 0.509780 -0.434935 1.116538 -1.170578 0.965552 0.673190
Bxb8 -0.600116 -0.825154 0.722331 -0.797034 -1.797663 -0.124819 0.325829 -0.990865 -0.389412 -1.254054
Bxd5+ 0.108238 -0.028003 -0.331596 -0.643225 -0.677947 -0.175256 -1.326713 0.166857 0.306355 0.043294
Na8 -1.396129 -0.911844 0.401295 0.526878 -0.460911 0.633485 1.206183 0.362858 -1.538229 -0.827902
Be5+ -0.866557 0.642415 -0.049542 -0.704187 -0.636531 0.071608 0.364417 0.606034 0.492409 0.531528
Rhf8 -0.235678 -0.952261 0.343033 1.541005 0.219978 -0.553489 -0.359467 0.546858 0.407631 1.196684
Raa8 0.196251 -0.796159 0.264427 1.178192 -0.324334 0.110184 0.212794 0.842224 -0.480385 -1.367468
Nce5 0.548032 -1.289652 -0.088259 1.141453 -0.608167 0.197784 0.079768 -0.804900 -0.994831 0.345141
Rbe8 1.067421 -0.287193 -0.512193 1.925190 -0.672525 0.429073 -0.352903 0.465961 0.122804 -0.231029
Nfd4 0.193093 -1.385707 -0.625979 0.617111 -0.398762 -0.131170 -0.332005 -1.101278 -1.394602 0.284381
Nc3+ -1.302468 -0.182648 -1.994908 -0.976001 1.596649 -0.301910 1.043791 -0.049620 -0.520477 0.332338
Qxg7+ -0.566504 0.437073 0.958710 -0.199663 0.181859 0.915142 -1.696996 0.219757 0.948789 0.905071
Nde5 0.437273 -1.165518 -0.571623 1.371761 -0.436424 0.409994 0.144688 -0.702313 -0.918080 0.696357
Rdd8 0.102465 -0.711490 0.174300 1.055998 -0.797407 -0.163273 -0.084625 1.041727 -0.253312 -0.566987
Rxg2+ 0.643570 0.872107 -0.262183 0.306113 -0.150176 -0.659738 0.654385 -0.187271 2.075012 -0.266488
Bg5+ -1.175631 -0.494554 -0.453191 -0.846633 0.281898 0.208462 -0.408457 0.386258 -0.020776 1.934439
Rdf1 0.571891 -0.712510 0.581237 2.225023 0.571632 0.135311 -0.544028 0.538853 0.690768 1.162342
Ncd7 0.342385 -1.258229 0.205659 1.235127 -0.771483 0.262570 0.392177 -0.591494 -1.486297 -0.426157
Be4+ -0.735681 0.869045 -0.580721 -0.704287 0.703206 0.293192 0.229237 0.233702 0.543355 0.303931
Nxe2+ 1.017432 -0.561467 -1.533958 0.893425 -1.225200 0.080821 0.278393 -1.305280 -0.377593 -0.429545
Kxb4 -1.434937 -0.921339 -0.478309 -1.309764 1.577445 0.344029 1.558004 0.460002 0.330785 -0.184159
Kxc6 -1.116570 -1.098195 0.498655 -1.747312 -0.342113 -1.147513 0.933401 0.680983 0.704336 0.475594
Bxh7 -0.292830 -0.408831 0.101576 -0.312905 1.120422 1.034841 -0.687737 0.274149 0.754855 0.790515
Nxe1 0.021808 0.656817 -2.129541 0.295298 -1.111234 1.045943 -0.565896 -0.929923 -0.325164 -0.349785
Bxe3+ 0.302592 0.047277 -1.970531 0.959673 -0.463037 -0.270595 0.026944 -0.536894 -0.067647 0.650795
Qa3+ -2.383945 1.722940 0.621604 -0.052688 1.508614 -1.156457 -0.267173 -0.674018 -0.419325 -0.130860
f2 -0.155997 0.882761 0.051433 -0.814885 -0.210320 -0.516917 1.851272 -0.755673 1.682516 -0.302442
Rxg8 -0.796873 -0.853947 2.012061 0.526054 0.724542 1.080659 0.279157 -0.543013 1.871727 0.372568
Kxc3 -0.511726 -0.426428 -1.057253 -1.420497 2.098008 -0.589454 0.826825 -0.090888 0.813277 -0.054145
Nf2+ 0.189034 1.665182 -1.933581 -0.081706 -0.914198 0.523095 1.294534 -0.847734 0.839576 0.328522
Qxg5+ 0.129540 1.317823 0.454566 0.412536 0.181102 0.668031 -1.340783 -0.038353 1.293850 1.142159
Kxe8 -1.156689 0.281188 -0.135894 -1.242482 -1.056458 1.213891 -0.947978 0.346321 0.206350 0.299862
exf7+ -0.116362 -0.455543 -0.142620 -0.349133 -0.284472 0.195045 -2.078486 -0.713550 -0.066370 0.380380
Nh3+ 1.218265 1.520538 -1.005215 0.680236 -2.039354 1.112949 1.354488 -0.628411 0.823912 0.238008
Rxd7+ -0.963657 -0.951949 0.675448 -1.215076 -0.650248 -1.461347 -0.844218 1.290557 0.534798 0.398959
Rbe1 0.991594 -0.706031 0.128840 2.032660 -0.561776 0.895150 -0.708438 0.623326 -0.030770 -0.312595
Be3+ -0.739771 0.644095 -0.683473 0.253227 -0.398978 -0.176772 1.124660 0.037905 0.523130 0.448924
Bh6+ -0.667010 0.256489 -0.538848 -0.267692 1.108160 0.701405 -1.225810 0.012852 0.244930 1.001213
Ree1 0.321925 -0.301219 -0.573163 1.418115 0.047663 0.387870 -0.294550 0.455195 -0.120935 -0.546726
Bh1 0.018687 -0.306865 0.093212 0.651246 -0.500468 0.544898 1.745894 0.251127 0.104019 0.298726
Bf5+ -1.186356 0.488248 -0.641220 -0.513169 1.074731 0.664757 0.082015 0.449671 0.335840 1.373522
Rxe7+ -0.117538 -0.408683 0.844716 -1.090011 -0.144812 -0.263569 -1.411524 1.061198 1.199892 0.216941
e5+ -0.311312 -0.593191 -0.608561 -1.731384 -0.080836 0.857678 0.543390 1.542578 0.452340 0.745185
Nge4 0.598995 -1.389207 0.130869 0.595909 -0.509602 0.529375 -0.560742 -0.553534 -0.700780 0.794584
Bxb1 -0.391481 0.042854 -0.539707 -1.123394 0.440055 1.025586 -0.193924 -2.065705 -0.773544 -1.768926
Kxb5 -1.752346 -1.129197 0.329582 -1.109305 0.669553 0.120694 1.937045 0.497016 0.583758 0.080276
g2 -0.398386 0.575867 0.719330 -0.853343 -0.503213 -0.441115 2.220779 -0.559046 1.978005 -0.116017
Kxc7 -1.622280 -1.314785 0.891783 -1.168365 -1.180110 -0.742668 0.313313 0.852771 0.672386 0.609427
Nde4 0.866389 -1.236630 -0.350993 0.530456 -0.589549 0.945198 -0.616970 -0.811630 -0.686698 0.420729
Qxh2 -0.866754 1.010101 -0.283595 1.420147 0.154700 -1.174568 0.283840 -0.997072 1.252440 0.663129
Rcc1 0.304224 -0.620914 -0.459863 1.081949 0.254912 0.017220 0.092686 0.230448 -0.577610 -1.460676
Rdg1 0.543780 -0.741736 0.608458 2.280168 1.906895 1.041794 -0.181388 0.290375 0.671692 1.110242
Rxe6+ -0.329870 -0.446620 0.027135 -1.402665 -0.062611 -0.441009 -0.847254 1.697266 1.300252 0.662815
Nd2+ -0.705247 0.391044 -2.333899 -0.579542 0.917710 -0.191655 1.634114 -0.341634 0.163861 0.172995
Ng3+ 0.297197 1.406320 -1.175933 0.123244 -1.251565 1.139826 1.708499 -0.610126 0.895375 0.421749
Rdd7 0.417781 -0.444264 0.680527 0.169309 -0.300650 -0.173156 -0.481883 1.344925 1.085619 -1.391739
fxg7 0.609767 -0.801716 -0.300665 0.367026 0.790222 0.198651 -1.691902 -0.952556 0.739429 0.449091
