O-O 1.015674 -0.448795 -0.152188 -0.243522 0.078787 -0.084412 -0.423881 -0.240989 -0.764096 0.608437 -0.300420 -1.028720 -0.072069 -0.260590 -0.064235 -0.326044 -0.426673 0.056940 0.040308 -0.359022 -0.287898 0.334239 -0.157964 0.098460 0.013279 0.134965 -0.509878 -0.029559 -0.261685 0.292922 -0.086446 0.160042 -0.641215 -0.537419 0.207061 -0.696122 -0.028937 0.411666 -0.096994 0.067925 -0.264668 -0.861759 0.222888 -0.311745 -0.004138 0.594998 1.339470 -0.564600 0.032667 0.283273 -0.150499 -0.605317 -0.087581 -0.290863 0.616772 -0.417506 0.418514 0.404693 -0.013180 -2.023272 -0.368805 1.738872 0.353773 0.142917 0.069852 -0.178125 0.409830 -0.282243 -0.386268 -0.953987 -0.274318 -0.769883 0.159873 0.030912 -0.012896 0.669454 -0.734418 0.246545 0.367806 -0.121569 -0.457638 -0.527021 0.057004 0.925710 0.373023 0.595243 -0.628936 0.518033 -0.016504 -0.006072 -0.059412 0.272362 -0.404245 -0.152957 0.457703 -0.262580 -0.728570 0.344448 -0.102344 -0.000045
Nf6 0.481178 -0.015957 0.491469 -0.013980 0.012787 -0.177823 0.032202 -0.153393 -0.533936 0.254520 0.149591 -0.317976 0.021644 -0.569808 0.249233 -0.728084 -0.210214 -0.073659 0.008323 -0.050321 -0.219696 0.254907 0.543975 0.116185 0.462294 -0.147923 0.069022 -0.270288 -0.612068 0.221706 0.015879 0.414700 -0.168674 -0.009422 -0.120275 -0.191244 -0.020418 -0.109107 -0.136085 -0.194836 0.064570 -0.074907 0.530086 0.057548 0.279476 0.131988 0.405951 -0.403708 0.061812 0.231880 -0.282761 0.205702 0.019945 -0.436058 -0.060828 -0.038424 0.129949 -0.426792 -0.010703 -1.775127 0.006741 0.677371 0.013938 0.016633 -0.203516 0.058386 0.272066 -0.262596 -0.160253 -0.162479 -0.189282 -0.261127 0.211485 0.089620 0.218395 0.057062 -0.635632 0.357351 0.077583 -0.130763 0.041871 -0.242722 0.566878 0.639529 0.381888 -0.071089 -0.312264 0.218295 0.108566 -0.586726 -0.028563 0.088383 -0.600575 -0.488788 0.473095 -0.004036 -0.272960 0.464481 -0.212304 0.171458
Nf3 0.592662 0.024408 0.603124 -0.213633 0.037438 0.054618 0.384380 -0.168670 -0.386638 0.448047 -0.003788 -0.370984 -0.207132 -0.653218 0.156513 -0.434404 -0.072421 -0.129422 0.111972 -0.137234 -0.186536 0.150743 0.394935 0.046233 0.334336 -0.209257 -0.079914 -0.152417 -0.615701 0.446010 0.032773 0.008985 -0.328977 0.102969 -0.144281 0.001380 0.075737 -0.245418 0.100381 0.017381 -0.024386 -0.097172 0.533057 0.247438 0.089398 -0.046063 0.091046 -0.127305 0.139257 0.030428 -0.127751 -0.272724 0.245162 -0.430041 0.117123 0.078914 0.104146 -0.190895 -0.147799 -1.630339 -0.098181 0.691172 0.193234 -0.066996 0.177053 0.091327 0.160599 -0.441929 -0.276295 -0.312208 -0.222911 -0.358163 0.243512 -0.361973 0.311600 0.122516 -0.760436 0.548262 0.129235 -0.085879 -0.140245 -0.291103 0.437064 1.016277 0.103775 0.242725 -0.298568 0.424209 0.041879 -0.162670 0.050050 -0.201801 -0.559822 -0.398517 0.422088 -0.037653 -0.275523 0.328005 -0.141931 0.409432
d4 0.642429 0.046484 0.593926 -0.184922 0.041878 -0.138213 0.118323 -0.108758 -0.351247 0.342047 -0.070813 -0.422658 -0.082056 -0.690511 0.102510 -0.492044 -0.370147 0.006427 -0.088638 0.006040 0.082658 0.105334 0.266164 -0.033097 0.459050 -0.318247 -0.115612 0.002974 -0.517385 0.312619 0.060675 -0.018587 -0.066855 0.134688 -0.241695 -0.122972 0.041486 -0.151110 -0.184085 -0.024476 0.115640 -0.080950 0.510947 0.232891 0.046101 0.013477 0.022484 -0.161548 0.197050 0.011709 -0.209156 -0.058650 -0.096578 -0.501755 0.206536 -0.143787 -0.051311 -0.248358 -0.020992 -1.796681 -0.056211 0.569893 0.085329 -0.166699 0.060906 0.197198 0.156038 -0.392643 -0.019548 -0.111595 -0.374632 -0.284638 -0.026396 -0.159581 0.309300 0.385768 -0.804070 0.464265 0.019299 -0.111942 0.077604 -0.279531 0.439872 0.830209 0.069266 0.094807 -0.428516 0.100295 -0.030688 -0.328093 0.039586 -0.330701 -0.499093 -0.371706 0.359810 -0.070921 -0.162267 0.538339 -0.127517 0.232467
Nc3 0.642339 -0.141343 0.413645 -0.052345 0.094593 -0.028820 0.102740 -0.335913 -0.648130 0.222484 -0.265060 -0.569798 -0.096832 -0.265951 0.685000 -0.670730 0.060311 0.124166 0.212024 -0.056292 -0.070102 0.145264 0.380672 -0.377490 0.342995 -0.102124 -0.054591 -0.331412 -0.480998 0.330400 -0.049366 0.399192 -0.515140 -0.175887 -0.088348 -0.164376 0.201376 -0.131500 -0.060757 -0.165444 -0.293352 -0.123560 0.325392 0.098498 0.182794 0.111350 0.360193 -0.418965 -0.130629 0.243414 -0.102596 -0.121330 0.129487 -0.151620 0.301931 -0.343590 0.143283 -0.361828 0.001097 -1.694531 -0.156185 0.823067 0.034552 0.057647 -0.165181 0.131036 0.188650 -0.193423 0.081486 0.125762 -0.108419 -0.491956 0.208308 -0.010610 0.100179 0.443847 -0.609109 0.877989 0.135096 -0.391808 -0.192315 -0.149880 0.448302 0.704429 0.198964 -0.085907 -0.397398 0.144299 0.046226 -0.280012 -0.188691 -0.103697 -0.644749 -0.768143 0.515404 0.011299 -0.613540 0.413946 -0.341806 0.129573
d5 0.779438 -0.156432 0.675877 0.158935 0.032644 0.133546 -0.197772 -0.412431 -0.484594 0.095225 -0.027942 -0.232264 -0.048012 -0.406549 -0.123605 -0.473707 -0.385944 0.016176 0.037630 0.062013 -0.204953 0.189386 -0.013365 0.070355 0.113852 -0.212844 -0.146044 -0.402021 -0.662162 0.082572 0.017713 -0.051345 -0.194167 0.072462 -0.028067 -0.361254 0.221275 -0.045540 -0.035691 -0.321962 -0.142079 -0.564636 0.254498 0.174893 0.176606 0.180875 0.553180 -0.055321 0.116490 0.007368 -0.230923 -0.327472 -0.181608 -0.185135 0.499190 -0.013107 0.367800 -0.212713 0.148293 -1.848236 0.115901 0.864647 -0.028141 -0.079037 -0.076313 0.260365 0.251392 -0.417654 -0.031321 -0.353135 -0.150540 -0.304787 0.023259 -0.103563 0.292207 0.244635 -0.840933 0.514083 0.075610 -0.311022 0.098087 -0.097838 0.534010 0.647811 0.483773 0.041886 -0.519081 0.148006 0.194561 -0.337731 0.001057 0.119710 -0.352055 -0.408481 0.475686 -0.166440 -0.387019 0.057466 -0.147777 0.099786
e4 0.371373 0.047057 0.434588 0.011336 0.042529 0.062005 0.168246 -0.142357 -0.572495 0.422692 -0.045403 -0.371322 -0.202348 -0.422924 0.164383 -0.577099 -0.122333 0.207913 -0.009612 -0.143796 -0.132848 0.267181 0.426551 -0.029916 0.163922 -0.146046 -0.044956 -0.029537 -0.641515 0.220766 -0.014403 0.258109 -0.459290 0.094217 0.148739 -0.332182 0.264084 -0.128013 -0.038033 -0.045559 0.065797 -0.059018 0.260856 0.243209 0.185104 -0.007334 0.244276 -0.171331 0.335502 0.069508 -0.005516 -0.144485 -0.043408 -0.223408 0.267161 -0.022826 0.165425 -0.274241 -0.030714 -1.691312 0.147252 0.587868 0.056462 -0.051463 -0.246689 0.224564 -0.012007 -0.200276 0.128695 0.034153 -0.256036 -0.181938 -0.091648 0.062455 0.047292 0.064354 -0.528279 0.371456 0.042018 -0.162740 0.054256 -0.280195 0.507996 0.532157 0.142430 -0.100660 -0.392205 0.087619 -0.019245 -0.146635 -0.202932 -0.039928 -0.317881 -0.543378 0.431880 -0.089360 -0.171955 0.447941 -0.249431 0.371579
c4 0.569652 0.060904 0.564601 -0.088721 0.196774 0.012290 0.406742 -0.154151 -0.378201 0.254789 0.003550 0.001889 -0.231059 -0.613368 0.094223 -0.352293 -0.369457 -0.125097 0.055320 -0.065876 0.033620 0.157973 0.268310 0.279627 0.236106 0.001217 0.103922 -0.333256 -0.209878 0.357693 0.047913 0.178355 -0.083147 0.055062 -0.213905 -0.217106 0.152073 -0.288822 -0.250179 0.006390 -0.184648 -0.379418 0.551203 0.366123 0.332485 0.019850 0.304680 -0.196838 -0.007465 -0.146942 0.015425 -0.017619 0.006394 -0.147889 0.309916 0.073190 0.231107 -0.255757 0.050146 -1.676409 0.146404 0.549410 -0.060963 0.110139 0.159641 0.335752 0.021458 -0.522234 -0.020989 -0.133596 -0.315677 -0.229984 0.103309 -0.111096 0.304471 0.331222 -0.856323 0.597650 0.247613 -0.342184 -0.134587 -0.215387 0.426204 0.388275 0.276319 -0.064466 -0.088601 0.191048 0.332022 -0.317463 0.267346 -0.103410 -0.531929 -0.443621 0.393737 -0.283630 -0.314726 0.106761 -0.140392 0.222729
c5 0.588683 -0.130952 0.370707 0.145303 0.015084 0.128480 0.093623 0.039415 -0.566793 0.389589 0.049565 -0.703635 0.046269 -0.296745 0.234921 -0.275575 -0.166628 0.087544 0.086473 -0.182998 -0.071624 0.295093 0.480334 0.210882 0.072987 -0.018843 0.117253 -0.180082 -0.154805 0.476173 -0.193633 0.108389 -0.037229 -0.336911 -0.047701 -0.188571 -0.171096 -0.120702 -0.058573 0.291642 -0.228414 -0.448338 0.564985 0.318502 -0.144831 0.034502 0.453335 -0.000899 0.295858 -0.289196 -0.410028 -0.291431 -0.115549 -0.243906 0.081934 -0.344608 0.155654 -0.212574 0.195134 -1.777118 -0.136646 0.780293 0.238427 0.071244 0.069674 -0.062136 0.280936 -0.554166 -0.107646 -0.267419 -0.478347 -0.546342 -0.012955 -0.127857 0.017561 0.308144 -0.368735 0.572437 -0.205279 -0.112415 -0.326805 -0.195404 0.201058 0.421375 0.348241 0.144968 -0.112721 0.212527 0.339258 -0.083888 0.152730 -0.272728 -0.275089 -0.176059 0.191331 0.008464 -0.436974 0.173277 -0.404756 0.225192
e5 0.683260 -0.046083 0.277717 -0.324781 -0.228885 -0.182091 0.110601 0.008655 -0.367404 0.712003 0.164689 -0.570817 0.146236 -0.183927 0.116372 -0.463537 0.057531 -0.095527 0.294911 0.165706 0.041138 0.435267 0.170146 0.164082 0.334904 -0.277318 -0.493939 0.136218 -0.662700 0.100618 -0.007695 -0.012548 -0.612379 -0.072293 -0.297743 -0.162422 0.077519 -0.162608 0.193105 -0.103773 -0.311302 -0.250594 0.048533 0.053301 0.001510 -0.024747 0.523661 -0.338571 0.049337 0.249297 -0.305529 0.187207 -0.152659 -0.155723 0.095368 -0.066084 0.343504 0.264900 -0.169702 -1.283806 -0.225031 0.969312 0.128907 0.225905 0.073342 0.006902 0.455736 -0.263075 -0.175508 -0.168896 -0.218736 -0.408368 -0.009858 -0.086027 0.124128 0.376972 -0.339880 0.251572 -0.091693 0.001462 -0.083082 -0.684952 0.017037 0.597534 0.303755 0.126005 -0.062755 -0.181339 -0.068705 0.110122 -0.169879 -0.243616 -0.142238 -0.517053 0.128544 -0.203153 -0.198409 0.207623 -0.265820 0.450175
Nc6 0.562544 -0.033321 0.455461 -0.260281 -0.041545 -0.239463 0.063786 -0.252286 -0.501403 0.633510 -0.154155 -0.751293 0.101873 -0.378010 0.613298 -0.491174 -0.483713 0.144369 0.003706 -0.027264 -0.019645 0.123792 -0.083075 -0.081972 -0.097475 0.052751 -0.372467 -0.142819 -0.396097 -0.101784 -0.253124 -0.178172 -0.551964 -0.124858 -0.407354 -0.655001 0.493428 0.156977 -0.233204 0.226422 -0.121066 -0.053395 -0.085055 0.076125 -0.126441 -0.169506 0.287836 -0.433274 -0.026677 0.337888 -0.232130 -0.192689 0.093613 -0.563252 0.204662 -0.238032 -0.049365 0.183925 -0.186926 -1.428994 -0.122965 0.819296 0.179971 0.111659 0.274629 -0.233945 0.386077 -0.116882 -0.182670 -0.198226 -0.354610 -0.649566 0.075137 -0.530550 0.142767 0.449078 -0.710807 0.417038 0.162567 -0.444068 -0.013244 -0.260644 -0.109727 0.755885 0.180846 0.388484 -0.131550 -0.121608 -0.294748 -0.152676 0.051615 -0.284817 -0.074141 -0.521992 0.234149 0.020649 -0.419841 0.095247 -0.321807 0.265754
e6 0.664147 0.219260 0.466178 -0.005486 0.286931 0.035742 0.042686 -0.508806 -0.465475 0.336182 -0.358276 -0.181300 -0.152977 -0.712923 0.028702 -0.511383 -0.340406 0.098017 0.327700 -0.535214 0.020164 0.408081 0.033780 -0.254797 0.409398 -0.083573 -0.091861 -0.183809 -0.498963 0.547848 0.022025 0.114702 0.010466 0.161952 -0.362938 -0.300893 0.211919 0.187762 -0.065202 -0.362285 -0.230949 -0.335064 0.265203 0.215813 0.157913 0.194122 0.273398 -0.364395 0.165902 0.065761 -0.350697 -0.011649 -0.181655 -0.368500 0.183411 -0.231762 -0.029859 -0.327827 -0.077674 -1.714930 0.030858 0.776333 -0.085362 0.192742 -0.036795 0.225677 0.311610 -0.706110 -0.102684 -0.047054 -0.356086 -0.590356 0.390120 -0.036436 0.324421 0.349632 -0.718763 0.563357 0.178443 0.021911 0.088586 -0.184001 0.696432 0.825171 0.703836 0.112638 -0.155751 0.618609 0.318842 -0.230126 -0.007434 0.258103 -0.695193 -0.772991 0.330850 -0.269190 -0.533024 0.476066 -0.108391 0.292288
g6 0.763818 0.064835 0.640307 0.089652 -0.012996 0.221996 0.212600 0.138148 -0.412121 0.384198 0.264882 -0.198870 0.096268 -0.164572 0.039088 0.022541 -0.269474 -0.114496 -0.254117 -0.105002 -0.167953 0.465585 0.180457 -0.293867 0.095964 0.336449 -0.113525 -0.223544 -0.595692 0.249994 0.144657 0.031924 -0.228649 0.441700 -0.176636 -0.147695 0.207546 0.102085 -0.099157 -0.192984 -0.220022 -0.132531 0.372472 -0.087670 0.247066 -0.292136 0.777733 0.057834 0.019200 -0.108905 0.044760 0.012793 -0.164747 -0.274943 -0.008420 0.071774 -0.019664 0.003790 -0.127176 -1.502443 -0.479014 0.553333 0.038467 0.079372 -0.197869 0.240426 -0.161758 -0.015569 0.125636 -0.234723 -0.209136 0.230339 -0.114466 0.041211 0.303894 0.360090 -0.425826 0.208238 -0.133112 0.040954 -0.194568 -0.286892 0.241557 0.265595 -0.157105 -0.037809 0.103264 0.216349 -0.175476 -0.224323 0.302706 -0.084914 -0.396917 -0.648946 -0.022463 0.090665 -0.047524 0.260401 -0.445706 0.331393
Be7 0.363861 -0.141601 0.001124 -0.544632 0.046305 0.115431 0.021630 -0.060534 -0.577601 0.773154 0.318478 -0.462558 -0.117437 -0.140602 0.293705 -0.513157 -0.379221 0.110131 0.038319 -0.149661 -0.641751 0.591216 -0.316214 0.151064 -0.085736 -0.302206 -0.330544 -0.335474 0.247651 0.671915 -0.458245 -0.036908 -0.169500 -0.178381 -0.152346 -0.258477 0.192535 0.158819 0.066246 -0.513616 -0.239174 -0.656147 0.068874 0.022616 -0.093770 0.276068 1.066263 -0.551009 -0.253688 0.252125 -0.014123 -0.127832 -0.142125 -0.047286 0.193333 -0.006844 -0.225813 0.448491 -0.123249 -1.583872 -0.127347 0.793791 0.114403 -0.108178 -0.141852 -0.385264 0.140162 -0.068039 -0.294775 -0.395589 -0.188990 -0.574907 0.048348 0.110007 -0.188907 0.447918 -0.297545 -0.041347 0.598729 -0.088362 -0.284812 -0.051296 0.251640 1.082410 -0.377166 -0.109764 0.077901 0.240642 -0.227219 -0.705773 0.346879 0.018806 -0.718493 -0.242535 -0.104920 0.155271 -0.791780 0.204370 0.175151 0.179661
d6 0.675892 -0.623871 0.486532 -0.594328 -0.081367 -0.088236 -0.111942 0.050747 -0.676963 0.652337 -0.128529 -0.891511 -0.242225 -0.509002 0.028898 -0.320925 -0.006877 0.216188 0.183412 0.331745 -0.138425 0.247176 0.895788 0.352292 0.425373 0.030511 -0.617269 0.003613 -0.179692 -0.174040 0.370245 -0.039833 -0.569214 -0.499520 -0.024123 -0.252833 -0.006363 -0.295633 -0.454927 -0.198913 -0.057530 0.048154 0.202833 0.048974 0.149002 0.161820 0.275938 -0.265760 -0.003990 -0.009546 -0.169367 0.060033 0.054150 -0.421363 0.182871 -0.088367 0.516384 0.395638 -0.253971 -1.999169 -0.107632 0.770113 0.035107 -0.403801 0.022275 -0.000227 0.332908 -0.531296 -0.232833 -0.211781 -0.081012 -0.043643 0.126747 -0.185323 0.047048 0.718996 -0.567369 0.415322 -0.098125 -0.401120 -0.297508 -0.730564 0.370033 0.967602 0.451769 0.189066 -0.534495 0.368331 -0.015473 -0.222556 0.129198 -0.373067 -0.322604 -0.561341 0.808920 0.498044 -0.053300 0.746915 -0.113741 0.323844
a6 0.533973 -0.382321 0.099483 -0.268829 -0.028399 -0.229093 -0.173107 -0.025376 -0.577778 0.655303 0.440081 -0.461898 -0.140078 -0.161042 0.691724 -0.572965 -0.445861 0.185195 0.310416 0.030322 -0.240727 0.391568 0.186551 -0.048020 -0.011777 0.174908 -0.496102 0.259394 -0.037236 0.017681 0.074604 0.109693 -0.123135 -0.386431 -0.572247 -0.427652 0.081758 0.423786 -0.477115 0.023626 -0.271113 -0.324410 0.287986 0.250013 0.374868 0.576315 0.465541 -0.289322 -0.133384 0.341506 -0.341769 -0.191722 0.497564 -0.348988 -0.146970 -0.057735 0.020418 0.086670 -0.331183 -1.820924 -0.272648 0.673776 0.241711 0.258261 0.026680 -0.038927 0.036985 -0.567081 -0.143894 -0.004577 -0.379204 -0.123513 0.411466 -0.024954 -0.193669 0.503993 -0.248575 0.386659 0.102914 -0.090197 -0.128283 -0.322255 0.438076 0.564366 0.081356 0.432388 -0.434001 -0.258919 0.269804 -0.057289 0.098789 0.295993 0.032806 -0.377536 -0.095976 0.334041 0.144070 -0.153710 -0.402629 0.495219
b5 0.528521 -0.381433 -0.029025 0.024954 0.204043 0.195818 -0.042471 0.213420 -0.005176 0.286150 0.231290 -0.169664 0.238079 0.649858 0.331896 -0.315583 -0.335998 0.078379 -0.094267 0.473658 -0.013883 0.487519 0.091504 -0.111431 -0.170793 -0.235968 -0.233174 0.122580 -0.117308 0.189895 0.220783 0.301677 -0.374608 -0.228775 -0.147208 -0.504217 0.160953 0.197173 -0.326298 -0.129961 -0.188710 -0.324754 0.045284 0.425689 0.498661 0.410957 0.671380 0.188201 -0.112738 0.334998 -0.135967 0.056584 0.359524 0.080463 -0.034236 -0.237914 0.570070 0.354574 -0.176183 -1.465947 -0.277476 0.657810 -0.033714 0.347679 0.196187 0.129037 -0.182341 -0.631313 -0.149360 -0.258331 -0.068441 -0.103638 0.517848 0.068925 -0.025421 0.364285 -0.335572 0.280616 0.041130 -0.407428 -0.148080 -0.190418 0.037556 0.031374 0.048489 0.034419 0.173196 -0.167683 0.069831 -0.018179 0.143956 0.197904 0.076790 -0.024768 -0.017855 0.067581 -0.213517 -0.620020 -0.182261 0.563124
a4 0.418673 -0.203308 0.037011 -0.095407 0.080354 0.107437 0.009997 0.178489 -0.516039 0.278076 0.364219 -0.552416 0.203653 0.619989 0.366613 -0.014991 -0.359703 -0.240047 -0.007754 0.044688 -0.080939 0.529780 -0.035647 0.040110 -0.272926 -0.010476 -0.173526 -0.162860 -0.175520 0.098321 0.166881 0.131495 -0.036167 0.185804 -0.013072 -0.290928 -0.032389 0.400617 -0.550752 0.046988 -0.048829 -0.648222 0.118442 0.323728 0.146148 -0.104247 0.671968 0.018017 0.196388 0.299935 -0.011029 0.102749 0.139913 0.216579 -0.062109 -0.133889 0.300554 0.405773 -0.091434 -1.312527 -0.231437 0.238583 0.163378 0.158925 0.052469 0.218507 -0.118996 -0.111480 -0.195642 0.068497 0.024489 0.015077 0.481697 0.072732 -0.192314 0.242033 -0.358959 0.471180 0.126657 -0.297472 -0.111224 -0.411082 0.181477 -0.158121 0.282557 0.029091 0.070459 -0.142409 0.030971 0.426524 0.285160 0.056383 0.092734 -0.054557 -0.251168 0.338729 -0.129577 -0.341061 -0.154875 0.200761
a5 0.406300 0.084342 0.006235 -0.072280 0.099984 0.204491 0.054331 0.034826 -0.550653 0.061537 0.513686 -0.637201 0.188000 0.510023 0.175650 0.067009 -0.214017 -0.267451 0.196486 0.244238 -0.294482 0.705686 -0.049194 0.060326 -0.316743 0.009545 -0.000227 -0.130508 -0.011985 0.116621 0.069519 0.044742 -0.272844 0.069124 0.114224 -0.184018 -0.230883 0.356475 -0.488712 0.295352 0.042291 -0.657062 0.120184 0.356074 -0.171184 -0.273494 0.279856 -0.402065 0.136230 0.373991 0.127411 -0.114610 -0.041227 -0.061058 0.082607 -0.241981 0.263564 0.246113 0.166699 -1.069108 -0.075404 0.322706 0.083473 0.319417 -0.021292 0.254147 -0.217599 -0.307958 -0.202019 -0.018309 -0.080996 -0.319920 0.213719 -0.178577 -0.246208 0.067165 -0.210531 0.069731 0.110013 -0.174015 0.084932 -0.259236 0.093411 -0.182372 -0.021674 -0.074547 0.034026 0.159705 0.154463 0.309638 0.168269 0.164738 0.133303 0.140079 -0.263722 0.222221 -0.234323 -0.395677 -0.249953 -0.041487
f4 0.662008 0.194983 0.086454 -0.281828 0.091152 -0.078862 -0.449117 0.162722 -0.444996 0.393321 0.418970 -0.482500 0.214083 0.207054 -0.229360 -0.447494 0.468500 -0.456620 0.187652 -0.051484 0.329636 0.275152 0.058530 0.046218 0.140053 -0.055661 0.230677 0.070246 -0.475708 0.240405 0.308412 0.152570 -0.551340 0.078174 -0.027633 0.074228 0.092473 0.380078 0.284789 0.064092 -0.286728 -0.331590 -0.208653 -0.016723 -0.136476 -0.284021 0.777502 -0.208544 -0.371042 0.212515 -0.530704 0.139276 -0.143951 -0.216346 -0.188414 0.114490 0.172305 0.243889 -0.602935 -0.748839 -0.248905 0.472359 0.262885 0.284170 0.057314 0.042396 0.047979 -0.372512 -0.360456 -0.130376 -0.065080 -0.115549 -0.152345 -0.011875 -0.086144 0.203228 -0.244312 -0.222450 -0.159604 -0.021577 0.203470 -0.347207 -0.411278 0.240047 -0.224501 0.119992 0.146175 0.078424 0.369306 0.185327 -0.194059 -0.144139 0.608632 -0.453510 0.059933 -0.052522 0.238224 -0.096546 -0.482098 0.279618
b4 0.570399 -0.191239 0.297274 0.276683 0.216748 0.119105 0.085473 0.074764 -0.345486 -0.176872 0.503278 -0.759606 0.267283 0.539191 0.210785 0.189020 -0.303531 -0.255753 0.449883 0.396923 -0.098127 0.699355 -0.017631 0.213374 -0.385379 0.010530 -0.042951 -0.254730 0.105504 0.323569 0.029845 0.252274 -0.361873 -0.135563 0.099797 0.021317 -0.120786 0.369134 -0.217348 0.094500 -0.056744 -0.813219 -0.026890 0.324069 -0.106306 -0.009207 0.289874 0.029096 -0.132338 0.473011 -0.065345 -0.135522 -0.298167 0.089520 -0.145962 -0.420963 0.489271 0.320815 0.179530 -0.994568 -0.056673 0.624946 -0.027596 0.356251 -0.071494 0.364660 -0.015639 -0.408763 -0.130424 -0.399377 0.171016 -0.404001 0.246795 -0.009818 0.238958 0.419109 -0.427736 -0.305345 -0.170765 -0.160984 -0.120973 -0.129023 0.016380 -0.115053 -0.086607 0.216108 0.273592 0.301543 -0.187891 0.265107 0.032007 -0.199538 0.293536 0.392500 -0.361010 -0.022397 -0.386475 -0.476173 -0.523713 0.264630
1-0 0.186914 0.020760 0.677854 -0.312866 0.520467 -0.356625 0.257030 0.051922 -0.582418 -0.302872 -0.165703 0.138682 -0.384369 -0.726798 0.054122 -0.460697 -0.323654 -0.131262 0.170602 -0.341728 -0.080761 0.166233 0.592598 -0.095709 0.386223 -0.418704 0.145258 -0.101929 -0.620787 0.263235 0.195906 0.243447 0.164730 0.260659 -0.241264 -0.165727 0.513678 -0.376794 -0.059345 -0.356821 0.504029 0.415349 0.650309 0.312070 0.041360 0.096476 -0.363017 -0.042977 -0.128128 -0.055708 -0.019641 0.101051 -0.114788 -0.473265 0.106438 0.139231 -0.029059 -0.197615 0.120477 -1.201234 0.038375 0.234793 0.051934 -0.170220 0.112808 0.246683 -0.146280 -0.607996 0.126293 -0.077271 -0.080973 -0.259044 -0.447089 0.134922 0.425261 0.017182 -0.527811 0.321316 -0.247731 -0.270732 0.077347 -0.216438 0.607708 0.343537 0.088270 -0.136458 -0.086602 -0.112792 0.121495 -0.134334 -0.193165 -0.625458 -0.348191 -0.726258 0.143078 -0.235359 0.257635 0.877173 -0.009117 0.610397
f5 0.373639 0.538027 0.153479 0.014783 -0.008421 0.087436 -0.001651 0.452026 -0.581127 0.324799 0.457544 -0.252194 0.058197 0.353913 -0.336892 -0.503285 0.234303 -0.257397 -0.118719 -0.191430 -0.090626 0.282959 -0.244693 0.595838 0.361328 0.147983 0.065234 -0.112656 -0.301489 0.051892 0.512332 0.297715 -0.696287 0.088009 0.099064 -0.024687 0.451651 0.498795 0.252877 0.031375 -0.465487 -0.291334 -0.195765 0.013793 0.219125 0.244495 0.903511 -0.084350 -0.361746 0.568067 -0.101569 -0.085022 -0.152068 -0.211462 0.336748 -0.174891 0.145395 0.275058 -0.188834 -0.858489 -0.267318 0.540755 -0.077293 -0.008234 0.064243 -0.053341 -0.335396 0.004700 0.350250 0.096573 -0.052087 0.063195 -0.075840 0.030021 -0.026237 0.106344 -0.130756 -0.525666 -0.449759 -0.176223 0.039285 -0.133927 -0.276368 -0.067731 0.086677 -0.233563 -0.083076 0.297862 -0.052111 0.414771 0.010220 0.135029 0.154192 -0.292234 -0.116586 -0.058835 -0.001814 0.151639 -0.265871 0.128447
Be3 0.486436 -0.222589 -0.329715 -0.407099 0.153513 -0.176624 -0.200663 -0.173128 -0.149330 0.870956 0.326790 -0.828146 0.321177 0.495195 0.128889 -0.062876 0.030449 -0.085402 -0.155405 0.097235 -0.151096 0.177552 -0.218511 -0.249837 0.100357 0.261555 -0.195443 -0.017201 -0.107583 0.203856 0.164796 -0.378129 -0.269164 -0.222093 -0.477810 -0.442301 0.367701 0.503742 0.225022 -0.556577 -0.377730 -0.591509 -0.216601 -0.047039 0.050188 0.130148 1.014216 -0.639945 -0.023729 0.052780 -0.304224 -0.453055 -0.071945 -0.404633 -0.263033 -0.332502 -0.190463 0.289197 0.043192 -1.260911 -0.533541 0.836509 0.294886 -0.262384 0.155470 0.275314 0.038332 -0.130469 -0.187856 -0.495548 -0.118714 -0.297867 -0.333571 0.160185 -0.208949 0.697466 -0.123228 0.184899 -0.401471 -0.281924 0.231704 -0.245149 -0.342619 0.671187 -0.244277 0.039691 -0.363133 -0.069261 0.045214 -0.349813 -0.128976 -0.012456 0.099502 -0.017072 -0.322046 0.285304 -0.449145 0.063167 -0.383896 -0.104381
g3 0.476029 0.183219 0.673792 -0.181696 0.127584 0.455563 0.155632 0.278515 -0.584671 0.325078 0.311113 -0.064963 0.423927 -0.422271 0.169452 -0.346192 0.315048 -0.205245 -0.247381 -0.165191 0.097348 0.467897 0.148200 -0.014103 -0.049481 0.032510 0.122058 -0.320777 -0.312814 -0.002403 0.237127 0.256661 -0.129194 -0.172441 -0.094842 -0.048391 -0.018573 0.107394 -0.220957 0.291176 -0.201180 -0.604198 0.165759 0.071463 0.216801 -0.052970 0.232017 -0.156604 -0.155575 0.195244 0.001774 -0.071027 0.227190 -0.229617 -0.183007 -0.020785 0.316661 0.328875 -0.025125 -1.139773 0.015229 0.008040 0.237562 -0.126074 0.076243 -0.187767 0.090681 -0.265315 -0.348313 0.211478 -0.333833 -0.550432 0.208206 -0.307662 0.066158 0.193136 -0.500498 -0.164538 0.245620 -0.075987 0.038962 -0.255655 0.528953 0.512187 0.189389 0.051915 -0.315008 0.370357 0.840935 -0.177676 0.138221 -0.301552 -0.379957 -0.294971 0.609283 -0.208578 -0.369090 0.238730 -0.398109 0.391941
Bd3 0.435370 0.163759 -0.149989 -0.092594 0.354732 0.116914 -0.442792 0.144671 -0.571429 0.328533 0.199489 -0.522216 -0.537653 0.251359 -0.025512 -0.659001 -0.307853 -0.093380 0.310438 -0.211110 -0.326222 0.405173 -0.205542 -0.091646 0.288143 -0.203407 -0.422680 0.289839 -0.137283 0.079735 -0.013286 0.132369 -0.168487 0.274637 -0.236684 -0.004406 -0.253929 0.306365 0.084819 0.539122 -0.557575 -0.546034 0.102717 -0.051298 -0.134997 0.232519 1.040258 -0.243212 -0.243118 0.309043 -0.077052 -0.698255 0.345072 -0.352348 0.652868 0.361647 0.502056 -0.206048 0.529644 -1.146960 -0.809296 0.760670 0.288699 0.862188 0.301819 -0.071281 -0.267313 -0.202650 -0.172147 -0.034420 0.033073 -0.144713 0.220572 0.032829 0.255093 -0.101360 -0.642971 0.258518 -0.393072 0.114548 -0.509771 0.234123 0.362722 0.480373 0.148509 0.433988 0.216663 0.349064 0.131014 -0.467908 -0.112749 0.432747 -0.246234 -0.107230 0.045385 -0.225211 -0.581697 0.420795 -0.370124 0.248890
h6 0.721543 0.077547 0.149721 -0.039131 0.042789 0.141693 -0.192357 -0.256267 -0.856792 0.471884 0.062828 -0.295275 -0.300710 0.715876 -0.293061 0.120156 -0.172557 -0.315118 -0.238571 -0.215861 -0.733713 0.384679 -0.379124 -0.080158 0.008581 -0.675372 0.182917 -0.112304 -0.271446 0.119646 -0.074878 0.104703 -0.046221 -0.144685 0.272813 0.470706 -0.238759 0.161946 0.105717 0.076143 -0.144615 -0.279047 -0.093927 -0.109786 -0.007891 0.044380 0.847555 -0.188707 0.627238 0.370570 0.320762 -0.281864 -0.040125 0.145466 -0.101647 0.049628 -0.332955 -0.146980 -0.141122 -1.156588 -0.347111 1.029759 0.438095 0.153421 0.055344 0.073802 0.045725 -0.316573 -0.198141 -0.140764 -0.276262 0.080950 0.210752 -0.165669 0.032733 0.128467 -0.350591 0.248257 0.090984 0.007289 -0.069716 -0.076439 0.217389 0.315666 0.003788 -0.099258 0.173749 0.449814 0.098256 -0.388484 0.193154 -0.210263 0.174239 -0.079624 -0.172548 0.148956 -0.417259 -0.019749 -0.291897 0.171859
h4 0.816204 0.052526 0.239623 -0.028467 0.146037 0.187010 0.029901 0.419468 -0.652833 0.425707 0.477917 0.024928 0.222379 0.474204 -0.035283 0.191769 0.194109 -0.281341 -0.372562 -0.140823 -0.197346 0.150220 -0.076997 -0.334958 0.200746 -0.134828 0.489587 -0.203770 -0.182485 0.189124 0.029762 -0.061903 -0.119848 0.373699 -0.209178 0.541824 0.039904 0.471611 0.115972 0.045646 -0.303367 -0.186666 -0.302997 0.245722 -0.256610 -0.270390 0.531074 -0.442398 -0.053691 0.519046 0.108474 0.017790 0.234643 -0.047968 -0.164459 0.248232 0.017714 0.092383 -0.025757 -0.606716 -0.348609 0.134579 0.253312 -0.123499 0.059340 -0.165992 -0.269772 -0.303051 -0.112652 0.422759 0.023975 0.015348 0.520011 0.086298 0.027247 0.141925 -0.005481 -0.290432 -0.102790 -0.323359 -0.122258 -0.027168 0.243725 -0.063845 -0.112864 -0.025607 0.122022 0.093319 0.342421 -0.001706 0.096993 -0.137080 0.215938 -0.352757 -0.306531 0.143902 -0.289713 -0.065297 -0.437826 0.435979
h5 0.528808 0.161309 0.124470 0.061172 0.155554 0.072438 -0.021727 0.309874 -0.628274 0.438697 0.532369 -0.121547 0.279957 0.571306 -0.097368 0.175767 0.030737 -0.185521 -0.382679 0.055543 -0.194350 0.290568 0.126599 -0.219347 -0.122702 0.068816 0.419816 -0.182408 0.033159 0.028661 0.374981 0.071745 -0.090491 0.546478 0.080430 0.603851 0.389591 0.464176 0.279271 0.045550 -0.116318 -0.148258 -0.379323 0.160562 -0.195193 -0.518816 0.705046 -0.594609 -0.169506 0.149229 -0.024795 0.077315 -0.103821 -0.184580 -0.384811 0.081674 -0.139890 0.068831 -0.331144 -0.572718 -0.391747 0.045350 0.077764 -0.007417 0.045232 -0.163714 -0.394020 -0.055751 0.112240 0.216712 -0.290600 0.169883 0.602754 0.349064 0.259888 0.259223 -0.326972 -0.078812 -0.161456 -0.208940 0.037079 -0.022070 0.203575 -0.170876 -0.266708 -0.046084 0.351338 0.114798 0.089730 0.104778 -0.001095 -0.070688 -0.034362 -0.293202 -0.241146 0.163423 -0.256991 0.154188 -0.495090 0.463988
1/2-1/2 0.454960 0.203694 0.424803 -0.204048 -0.265892 0.130185 0.170565 0.035022 -0.284619 0.258978 0.085937 -0.280484 0.267922 -0.572658 0.377423 -0.458116 -0.234985 -0.096534 -0.030432 0.064847 0.069869 0.173351 0.632679 0.009426 0.161593 -0.163952 0.131185 -0.237823 -0.461940 0.200740 0.088609 0.303372 -0.128944 0.362094 -0.165902 -0.129576 0.140191 -0.141698 -0.059689 -0.062903 -0.049612 -0.184006 0.338766 0.186203 -0.056499 -0.033281 -0.104008 -0.094901 0.201868 0.294881 -0.145321 0.001185 -0.198188 -0.148752 0.258203 -0.040761 -0.054475 -0.402412 0.158101 -1.542972 0.431085 -0.019520 -0.028374 0.066389 0.076629 0.234749 -0.246474 -0.323236 -0.297637 -0.014269 -0.288842 -0.282823 0.196043 -0.167230 -0.127417 0.232624 -0.461926 0.577412 0.175744 -0.030130 0.052751 -0.102574 0.539247 0.574085 -0.034070 -0.161766 -0.120068 0.189801 -0.024390 -0.375397 0.177770 -0.148984 -0.304919 -0.225759 0.321539 0.164743 -0.110858 0.164515 -0.125751 0.051872
cxd4 1.168108 0.126443 0.340350 -0.620505 -0.142242 -0.330731 0.411836 -0.318561 -0.351417 0.941733 0.045252 -1.000332 -0.088494 -0.606211 0.093881 -0.418376 -1.070403 0.599902 -0.443659 -0.060803 0.356950 0.402856 -0.262675 -0.331738 0.571905 0.025896 -0.432250 0.486630 -0.125098 0.358760 0.005040 -0.532511 0.046919 -0.275440 -0.074649 0.038494 -0.022657 -0.181264 -0.505695 0.593211 -0.374920 0.022378 -0.057251 0.055273 -0.448963 0.505907 0.381060 -0.301493 0.014499 0.546113 -0.366423 -0.434942 0.336051 -0.649410 -0.217450 -0.766984 -0.065875 0.013613 0.205700 -1.401707 -0.665444 1.049177 0.368292 0.054249 0.583560 -0.608050 0.549204 0.017942 -0.014073 -0.458894 -0.403189 -0.458816 0.304308 -0.191188 -0.476886 0.358838 -0.835420 0.563905 -0.135334 -0.103063 -0.103635 -0.443184 -0.118313 0.692585 0.027831 0.305463 -0.696972 0.058416 -0.282775 -0.324691 -0.132681 -0.134822 -0.804631 -0.232268 -0.035499 -0.403900 -0.280915 0.351944 -0.076967 0.149758
c6 0.541166 -0.036355 0.091468 0.205113 -0.048575 0.297602 -0.432035 0.034883 -0.640896 -0.453383 0.045251 -0.342673 -0.150571 -0.266284 0.165882 -0.481966 -0.106153 -0.211368 -0.083996 0.105335 -0.373023 -0.024901 -0.037878 -0.166158 -0.021685 -0.404669 -0.006354 -0.299254 -0.867912 0.201911 -0.204198 0.314276 -0.028226 -0.042941 -0.034288 -0.324732 -0.100855 0.068546 0.248362 -0.278710 0.170773 -0.468132 0.038801 0.073149 0.242478 -0.057757 0.421406 -0.144495 0.234477 -0.114100 0.025995 -0.189783 -0.051499 0.024545 0.291365 -0.094052 0.161849 -0.054670 0.190818 -1.733436 0.183801 0.971415 -0.146908 0.030120 -0.495433 0.258726 0.098290 -0.421427 0.293159 -0.188712 -0.365716 -0.430212 -0.065068 -0.081479 0.416891 0.015263 -0.671495 0.702908 0.440473 -0.159781 0.345241 -0.231645 0.457288 0.602748 0.250056 0.227260 -0.177920 0.110238 0.566248 -0.069612 -0.125538 0.393389 -0.417302 -0.242468 0.301751 0.049346 -0.328604 0.001469 -0.187118 0.522740
Bg5 0.489964 -0.086756 -0.111184 -0.215890 0.029557 -0.011453 0.074115 0.049708 -0.689316 0.602613 0.216824 -0.287979 -0.284041 0.070837 0.290836 -0.370887 -0.262615 0.010383 -0.075134 -0.230249 -0.847806 0.240688 -0.296778 0.189541 0.166940 0.105435 -0.580266 -0.596983 -0.184240 0.031577 0.467881 -0.031766 -0.593380 -0.649989 -0.095871 0.047941 0.032148 -0.021006 -0.271677 -0.263052 -0.398617 -0.395532 -0.068584 -0.283197 0.345317 0.289919 1.223221 -0.351325 -0.073397 0.455206 -0.051329 0.228731 0.287147 0.018569 -0.186487 -0.095525 -0.270886 -0.056388 -0.043026 -1.606617 -0.499428 0.927604 0.264794 -0.006139 0.014484 -0.234618 0.011597 -0.179418 0.076912 -0.485942 -0.111149 -0.590998 0.039716 -0.081190 0.151217 0.219864 -0.570288 -0.007410 0.077271 -0.127385 -0.236439 0.088617 -0.021084 0.729211 -0.093448 -0.029878 -0.174775 0.109678 0.277289 -0.810833 -0.108264 -0.221190 -0.212205 -0.126514 0.143978 0.082699 -0.142422 0.412668 0.174597 0.071942
h3 0.607020 0.045551 -0.284511 -0.045120 -0.703961 -0.110268 -0.145372 -0.008884 -0.316445 0.567910 0.855068 -0.334285 -0.081281 0.015291 0.504416 0.073355 0.090171 -0.130310 -0.341720 0.426869 -0.458505 0.108987 0.109693 -0.083954 0.347263 -0.311196 -0.092251 0.213328 0.264000 -0.198535 -0.126456 -0.064185 0.106818 0.180520 -0.243988 0.182630 -0.047649 0.625044 -0.328303 -0.177490 0.184685 -0.707929 -0.043611 -0.203198 0.253756 0.120857 0.659859 -0.672486 -0.071330 -0.026997 -0.383325 0.021762 0.115823 -0.245616 -0.230797 0.054904 -0.066092 0.260952 -0.033615 -1.329101 -0.203865 0.844048 0.129985 -0.362185 -0.241697 0.078258 -0.037717 -0.209944 -0.326084 -0.291028 -0.569094 -0.040956 0.361842 -0.103676 0.752190 0.052493 -0.223934 -0.199016 0.508404 -0.102204 -0.036667 -0.361043 0.040968 0.007331 -0.063916 0.110267 -0.353138 0.045630 -0.022831 0.328711 -0.298760 0.329666 -0.231920 -0.124606 -0.049041 0.426814 -0.398716 -0.092901 -0.323001 0.407544
Bg7 0.527807 -0.266712 0.406139 0.265329 -0.198696 -0.079563 0.059423 -0.142320 -0.815562 0.751258 0.141167 -0.476408 0.166197 -0.478894 0.170582 -0.089386 -0.098523 0.045094 -0.037722 -0.158491 0.117398 -0.105347 0.233806 -0.151758 -0.056379 0.282105 -0.234496 -0.036107 -0.311912 0.243977 0.430974 0.026093 -0.141771 -0.209609 0.120424 -0.072671 0.533895 0.033079 -0.116621 -0.417438 -0.301648 0.027887 -0.010122 -0.253504 0.329087 0.019391 0.829145 -0.215812 0.185316 0.020438 -0.106538 0.001428 -0.074116 0.157296 -0.380848 -0.238496 0.172030 0.216764 -0.179361 -1.832420 -0.546787 0.956473 0.063022 -0.237013 -0.176228 0.177283 0.091384 -0.457019 -0.045735 -0.404778 -0.328907 -0.311378 0.165968 -0.123792 0.214350 0.198687 -0.595640 0.333184 -0.284502 -0.209101 -0.081784 -0.311545 0.067422 0.415879 0.662850 -0.220393 -0.190698 -0.121730 0.020322 -0.329427 -0.125607 -0.021596 -0.438860 -0.516694 0.470440 0.043802 0.212506 0.271420 -0.616379 0.378438
b6 0.228443 0.156704 0.192104 0.011415 0.200756 0.535356 0.025137 0.030025 -0.367667 0.530076 0.207422 -0.836053 -0.086861 0.215972 -0.155721 -0.195706 0.142570 0.128572 -0.025328 0.061003 -0.136593 0.596670 0.551838 0.013068 0.011042 -0.148489 0.337377 -0.270813 -0.280444 0.188082 0.334483 0.138923 -0.361504 -0.341757 -0.373087 -0.176243 -0.121139 0.072674 -0.208865 0.631849 -0.059353 -0.480552 0.255348 0.245393 0.210674 0.095969 0.169344 -0.012989 -0.103145 0.143983 -0.281122 -0.419123 -0.050993 -0.125818 0.624755 -0.259786 0.069608 0.044476 -0.292459 -1.291803 -0.114066 0.847475 0.322692 0.315528 0.360343 -0.019486 -0.261172 -0.424914 -0.377406 -0.333033 -0.221328 -0.434226 0.123939 -0.336040 0.019411 0.124877 -0.155955 0.420106 -0.339676 -0.387209 -0.362739 0.063669 0.237554 0.166578 0.148095 -0.083391 -0.601346 0.047362 0.797276 0.040702 -0.180463 0.081288 -0.175498 -0.043501 0.307654 0.241528 -0.863483 -0.472318 -0.042594 0.129369
Nxd4 0.940000 -0.074369 0.608427 -0.713584 -0.293740 -0.574800 0.086332 -0.411416 -0.141832 0.648079 -0.115681 -1.136556 0.286981 -0.199312 0.794706 -0.741701 -1.129722 0.319190 -0.510851 0.032426 0.713053 0.403617 0.111796 -0.251372 0.396953 0.269890 -0.519492 0.387064 -0.098702 0.246875 -0.115543 -0.715995 0.146067 -0.112516 -0.286057 0.006483 -0.305768 0.115443 -0.516963 0.026575 -0.324214 0.090999 0.124549 0.093332 -0.485277 0.577359 0.492039 -0.249594 -0.265843 0.856063 -0.928184 -0.533518 0.065345 -0.839784 -0.256537 -1.039833 -0.328661 0.085927 -0.105451 -1.256213 -0.414213 0.638515 0.249557 0.201545 0.602888 -0.303476 0.898745 0.337408 -0.262381 -0.329294 -0.571329 -0.329096 -0.106365 0.068332 -0.285761 0.232380 -0.569106 0.672940 -0.396281 -0.027517 0.488900 -0.147333 -0.271343 0.675433 -0.291128 0.370409 -0.877514 -0.121268 -0.365968 -0.151735 -0.351002 -0.492095 -0.459697 -0.332647 0.062607 -0.057335 -0.067490 0.517616 -0.439727 0.120085
Ne5 0.252270 0.249367 0.141946 -0.237222 -0.181746 -0.310207 -0.192952 -0.452208 -0.219500 0.178641 -0.158692 -0.374131 0.217450 0.196727 0.123977 -0.577071 -0.136889 -0.041288 0.065537 -0.443569 -0.202785 0.339520 0.029375 -0.177339 0.028970 0.063234 0.181729 0.167465 -0.449554 0.120341 -0.188766 0.071280 -0.367993 -0.049797 0.302529 0.019356 0.104412 0.198261 0.465085 0.046375 -0.163334 -0.272794 0.278752 -0.171044 -0.373268 0.016300 0.766466 -0.414369 -0.330074 -0.053227 0.002813 -0.129894 0.375730 -0.560374 -0.034509 0.064152 -0.296500 -0.086944 -0.021616 -0.718157 0.013895 0.893605 0.536988 0.675089 0.078511 -0.097073 0.087281 -0.189612 -0.484857 -1.031777 -0.297452 -0.345422 0.387941 -0.270276 0.113284 -0.308683 -0.620750 0.276650 0.657929 -0.005434 0.058489 -0.495120 -0.131402 -0.107333 0.104364 0.099873 0.392355 -0.166354 -0.164224 0.422871 0.143647 0.117169 0.201541 -0.219282 0.148257 -0.220361 -0.150343 -0.361167 -0.311338 0.130332
a3 0.573701 0.039531 0.456410 0.103564 0.570707 0.319344 0.044821 -0.101469 -0.505714 0.387832 -0.182240 -0.949520 0.266181 0.658191 0.079246 -0.051558 -0.386323 -0.136227 -0.154145 -0.046393 -0.059852 0.892664 -0.093310 0.280937 -0.218979 -0.090090 -0.233386 -0.636628 -0.076781 0.285214 -0.142290 0.305319 -0.065395 0.052611 0.293822 0.214376 -0.390247 0.017550 -0.119923 0.432651 -0.111451 -0.623910 0.155806 -0.019286 0.117203 -0.303676 0.205285 -0.165168 0.072433 0.448240 0.112933 -0.386914 -0.247554 0.324775 0.442796 -0.499283 0.333890 0.233933 0.178005 -1.219766 -0.316552 0.647561 -0.119935 0.277861 -0.031870 -0.013581 0.142257 0.078126 -0.335142 0.159398 0.084355 -0.249866 0.102845 -0.189921 0.458179 0.426771 -0.714931 0.639629 -0.022396 -0.111311 -0.232777 -0.424690 -0.177834 0.318210 0.251965 0.080108 0.239411 0.179577 0.177773 0.153209 0.276957 -0.093275 -0.312356 -0.086638 0.134940 -0.092044 -0.944586 -0.289682 -0.126301 -0.055433
Re8 0.130281 0.218767 -0.167632 -0.018894 -0.325803 -0.061751 -0.012963 -0.130311 -0.955602 -0.118626 0.167454 -0.210864 -0.326170 0.583940 0.028571 0.064072 -0.461708 -0.416876 -0.160899 0.311245 0.170690 0.664813 0.214212 -0.007520 0.295651 0.183656 -0.268454 -0.079429 -0.064101 0.353150 -0.148891 0.014755 0.014712 -0.372011 0.327449 0.343454 -0.135669 -0.000275 -0.357173 -0.391416 0.026887 -0.725919 -0.073167 -0.192401 -0.052235 0.037811 0.382255 -0.123400 -0.150331 0.137628 -0.195955 -0.183336 -0.198399 -0.179755 -0.238742 0.279980 0.306897 -0.036795 -0.242708 -1.047211 -0.134405 0.691189 0.219715 -0.295540 -0.223852 0.330738 -0.191256 0.025288 -0.674878 -0.438696 -0.168041 0.023419 -0.049279 -0.377010 0.627827 -0.214748 -0.525113 0.419421 0.292962 -0.103506 0.013699 0.088421 -0.046424 0.020803 0.131412 -0.119887 -0.306260 -0.206327 0.360737 -0.184650 0.050187 -0.121569 0.147881 0.173129 -0.064394 0.374940 0.111527 0.115224 -0.211996 0.459946
g4 0.515026 0.048987 -0.017123 0.174814 -0.381534 0.316131 -0.343232 0.100804 -0.668820 0.299161 0.689261 -0.270405 -0.017096 0.346332 0.289190 -0.410374 0.053672 -0.256172 -0.315350 0.147300 -0.397281 0.195076 -0.024633 0.252163 0.133818 0.062064 0.612024 -0.067269 -0.105740 -0.062210 0.403863 0.147204 0.015355 0.392818 0.132928 0.396760 0.213818 0.377614 0.370497 -0.085152 -0.355957 -0.169880 -0.360161 0.393193 0.114255 -0.331119 0.670574 -0.438912 -0.424137 0.272052 -0.036129 -0.048183 -0.146090 -0.400361 -0.309014 0.009688 -0.049335 0.321973 -0.326414 -0.536239 -0.219941 -0.012818 -0.109892 0.046630 0.115872 -0.055108 -0.357182 0.009547 0.024389 -0.105048 -0.071969 0.126882 0.370673 0.518265 0.330785 -0.086330 -0.263086 -0.258971 -0.035933 0.112867 -0.120968 0.034489 0.013970 -0.168200 -0.158052 0.032421 0.030014 0.358549 0.151647 0.028544 -0.053976 -0.096835 -0.155586 -0.473015 -0.186951 0.292098 -0.192291 -0.028707 -0.376884 0.658695
Nd7 0.127560 0.052949 -0.189947 -0.008008 -0.294085 -0.394657 0.047735 -0.240053 -0.615281 0.613831 0.330325 -0.540721 0.282167 0.337268 -0.316682 -0.232476 0.046847 -0.024836 0.135827 -0.211035 -0.612494 0.383705 0.148024 -0.087794 0.247436 -0.342606 -0.184212 0.167299 -0.151608 0.519036 -0.248506 -0.278598 -0.093990 -0.007801 0.277411 -0.288859 0.131463 0.223567 0.483077 0.044157 0.042424 -0.136010 0.026689 -0.096748 -0.571128 -0.148178 1.157204 -0.534500 -0.274399 0.178304 -0.064530 -0.215521 -0.062663 0.038411 -0.012851 0.170378 -0.042612 -0.150368 0.092104 -0.928070 -0.428887 0.975373 0.524855 0.534145 -0.037755 -0.241457 0.105751 0.027268 -0.176871 -0.283634 0.146738 -0.625215 0.449055 -0.121013 -0.169524 0.011336 -0.148604 -0.109878 0.143210 -0.236920 -0.128066 -0.022659 0.108657 -0.043577 0.090216 0.036421 -0.037268 0.084270 0.257799 0.332336 -0.002746 0.406518 -0.096754 -0.074032 -0.121901 -0.108242 -0.629010 -0.082813 -0.366808 0.259096
cxd5 0.549393 -0.196781 0.682749 0.243544 -0.197362 0.505990 -0.559497 -0.799757 -0.871392 0.219141 0.075533 -0.793554 -0.056770 -0.596581 0.162396 -0.060389 -0.227396 0.271515 -0.078838 -0.309536 -0.240474 0.324019 -0.282392 -0.126569 -0.282904 -0.293938 -0.198445 -0.828127 -0.362021 0.202997 0.343853 -0.253288 -0.073711 -0.039953 0.157671 -0.046010 0.171805 -0.018110 0.004305 -0.304298 -0.078899 -0.696105 -0.033368 -0.555177 0.099423 0.168242 0.781527 -0.335001 -0.547317 0.303708 -0.316726 -0.862400 -0.408982 -0.251242 0.778396 0.206933 0.166335 -0.183585 0.674375 -1.126999 0.181920 0.901368 -0.009858 0.670805 -0.628761 0.331503 0.305884 0.131235 -0.116720 -0.706632 0.222247 -0.188403 -0.280820 0.316209 0.134511 0.063852 -0.787362 0.689875 0.308463 -0.994477 0.173819 0.122049 0.572221 0.330742 1.005066 0.165009 -0.904490 -0.142961 0.847126 -0.545579 -0.308170 0.224854 -0.313202 -0.147579 0.685864 -0.002603 -0.505344 -0.385392 -0.205060 0.085949
Be2 0.656866 -0.305190 -0.127006 0.025344 -0.145111 0.047046 -0.056229 -0.297461 -0.535282 0.637005 0.090404 -0.418211 0.436033 -0.033407 0.447327 -0.593512 -0.134297 -0.325546 -0.121214 -0.393873 -0.551274 0.265032 0.688921 0.124934 -0.399694 0.056554 0.048106 0.193748 0.107283 -0.048490 0.123848 0.314247 -0.269199 -0.034737 -0.430942 0.141383 0.238942 0.071438 0.487811 0.516257 -0.671636 -0.268447 -0.175906 0.350607 0.540959 0.079459 0.656178 -0.624412 -0.219651 0.254721 -0.290088 -0.757758 0.289446 -0.665733 0.236600 0.304562 0.224791 0.431204 0.008535 -0.795425 -0.372073 1.269795 0.629546 0.555286 0.073235 0.279520 -0.061430 -0.210978 0.205032 -0.132551 -0.436451 -0.527944 0.200786 0.156290 0.116084 0.293710 -0.259434 0.371021 0.096893 -0.232895 -0.211523 -0.215160 0.448653 0.530284 -0.115180 0.269086 -0.008798 0.200962 0.040744 0.027364 -0.123590 0.627943 -0.175265 -0.060759 0.192749 -0.124026 -0.229200 0.028643 -0.296945 0.093784
g5 0.817390 -0.090146 -0.007977 0.102143 -0.063995 0.405257 -0.161767 0.020198 -0.618178 0.432337 0.474488 -0.343468 0.040851 0.401674 -0.011522 -0.184610 0.330978 -0.323092 -0.103958 0.155278 -0.431826 0.268163 -0.093997 0.091355 0.365810 -0.284778 0.486559 -0.101522 -0.689907 0.354219 -0.074359 -0.157715 -0.126095 -0.101808 -0.165065 0.497907 0.006332 0.049028 0.447636 0.152454 -0.513954 -0.237698 -0.211220 0.186798 -0.113120 -0.449788 0.762496 -0.117927 -0.101751 0.630730 0.214773 -0.051750 0.283552 0.050090 -0.383363 0.188462 -0.063108 0.386659 -0.339060 -0.473272 -0.390850 -0.148562 0.485966 0.085353 0.031659 0.057172 -0.183964 -0.435945 -0.260149 0.094083 0.141771 0.056243 0.134926 0.255236 -0.023360 -0.232521 -0.122939 -0.343666 0.201358 0.160762 -0.066136 -0.274284 0.095312 -0.244234 -0.284054 0.038536 0.214930 0.295173 0.305874 -0.217899 0.136685 -0.456990 0.535883 -0.354682 -0.270059 0.004463 -0.019466 -0.080771 -0.137193 0.116807
Qc7 0.596662 0.077058 0.278832 -0.105086 0.084476 -0.581327 -0.327717 -0.382298 -0.334977 0.146962 -0.032164 -0.411516 0.107673 0.317249 -0.156413 -0.058831 0.144772 0.044445 0.302885 -0.110232 -0.473810 0.717663 0.432561 -0.176389 -0.426326 0.509992 -0.121565 0.015440 -0.032225 -0.014938 -0.036442 -0.029470 -0.023082 -0.029695 -0.061558 -0.052838 0.036145 0.073538 -0.570098 0.332266 -0.092221 -0.708811 0.428658 -0.842333 -0.415463 0.592139 1.116918 -0.518406 -0.060441 0.237635 -0.384838 -0.060234 -0.177501 0.395732 -0.156560 0.143573 0.239017 0.159930 0.074607 -0.902837 -0.271660 1.219119 0.573870 0.081306 0.344156 -0.322535 0.081932 -0.024307 -0.312430 -0.463268 -0.389840 -0.244977 0.554930 0.012081 -0.035039 -0.097825 -0.339633 0.092017 0.035934 -0.156077 -0.134352 -0.046484 -0.292146 0.027951 -0.185649 0.275234 -0.408995 0.153175 -0.044703 0.168301 0.359320 -0.186041 -0.227455 -0.074366 -0.350306 -0.541908 -0.943273 0.114469 0.060242 -0.021239
Re1 0.033203 0.524000 0.120266 0.044168 -0.396509 -0.215822 -0.013017 0.269113 -0.604308 0.174929 0.139912 -0.249602 -0.187785 0.155501 -0.050253 0.010191 -0.304875 -0.095163 -0.192913 0.204026 0.334835 0.727728 0.200916 -0.162019 0.118422 -0.049238 -0.538340 -0.057014 -0.088278 0.218245 -0.281412 -0.284647 0.028756 -0.063100 0.135829 -0.044909 -0.287430 -0.126316 -0.634317 -0.152255 0.118297 -0.447396 -0.009614 -0.183448 0.155338 0.104043 0.670169 -0.017660 0.360336 0.015039 -0.003824 -0.079259 0.677421 -0.147810 0.332780 0.370629 0.051631 0.209919 -0.200096 -1.376123 -0.081350 0.624655 0.190440 -0.463179 -0.014426 -0.001602 -0.046696 -0.196798 -0.731573 -0.298599 -0.389809 0.098901 0.613858 -0.607736 0.580004 -0.178312 -0.191214 0.125496 0.229554 -0.306402 0.156501 0.234830 0.013326 0.033602 0.404433 -0.131090 -0.328628 0.052154 -0.232560 -0.320213 0.146690 0.200727 0.047752 0.093600 -0.223130 0.439088 0.062435 0.320827 -0.201980 0.372264
Bb7 0.556457 0.053195 0.437604 -0.232608 0.166560 -0.055153 -0.079270 -0.119156 -0.377932 0.185088 0.226381 -0.274581 0.177579 0.001097 -0.222732 -0.597156 -0.344317 0.265687 -0.122603 0.437501 -0.407910 0.919750 0.202464 0.107501 0.125000 0.087695 -0.252826 -0.090106 -0.186109 0.552372 -0.298582 0.367798 -0.411154 -0.357629 -0.284523 -0.306225 -0.145632 -0.003861 -0.326946 0.554751 -0.800715 -0.480282 0.371641 0.206590 -0.037302 0.842886 0.822648 0.209339 -0.293672 0.642801 -0.136318 -0.558841 0.169341 0.198604 0.019199 -0.107149 0.647071 0.077072 -0.075761 -1.330541 -0.063507 1.116296 0.946823 0.223023 0.042476 0.187573 0.193738 -0.308062 -0.192532 -0.746971 -0.156611 -0.518617 -0.221550 -0.444111 0.330165 0.320283 -0.507583 -0.148992 0.034298 0.036886 -0.525971 0.039395 0.337807 0.624143 0.145494 -0.193508 -0.028421 0.168549 0.035135 0.230262 0.412456 -0.038722 -0.181449 -0.283867 0.495237 -0.356993 -0.584029 -0.450579 -0.140093 -0.003036
Ne4 0.071207 0.622350 0.364288 0.230258 0.034651 0.025894 0.098116 0.136398 -0.662549 0.238216 0.441636 -0.527564 0.299325 0.612037 0.341348 -0.133651 0.228560 0.761968 0.022321 0.039779 -0.411610 0.162166 -0.182304 0.026372 0.602221 -0.382881 0.108184 -0.287537 -0.111174 0.817705 -0.565775 0.374150 -0.098580 -0.334981 0.494846 0.073189 -0.055969 -0.042718 0.282402 -0.354756 -0.167399 -0.384759 0.206759 -0.284161 -0.163707 0.406934 0.666915 -0.209312 -0.104246 0.486860 0.261704 -0.150383 0.061255 -0.517125 0.130049 0.258521 0.425300 -0.405697 0.443412 -0.440333 0.196317 0.695683 0.057081 -0.135090 0.149016 -0.489171 -0.038226 0.409860 -0.087492 -0.634832 -0.105471 -0.504127 0.037083 -0.240864 0.046526 -0.144731 -0.092220 0.313505 0.035384 -0.091112 -0.408889 -0.202626 0.152259 0.190492 0.308996 -0.203490 -0.203812 0.123590 0.040254 -0.124467 0.024534 0.088613 0.136230 -0.084676 0.047454 -0.047870 -0.847722 0.019427 0.401356 0.044231
b3 0.446131 -0.000584 0.046849 -0.119394 -0.228055 -0.242422 0.188354 -0.244120 -0.576506 0.487402 0.214071 -0.268557 0.254552 -0.032564 0.275032 0.127291 -0.644936 -0.345438 0.225026 0.030450 -0.203327 0.482587 -0.101404 0.156716 -0.036087 0.307426 -0.035575 -0.210270 0.382521 0.278186 -0.186756 0.325965 0.005590 -0.031575 0.094473 0.012657 -0.333553 0.306563 -0.192232 -0.107845 0.058361 -0.561166 0.100726 -0.187328 -0.071479 -0.161121 0.896178 -0.343852 -0.363775 0.283235 0.164913 0.032190 -0.165825 0.199384 -0.297692 -0.254083 0.381389 0.459367 -0.139500 -1.329001 0.001300 0.505433 -0.206651 0.285783 -0.296058 0.343929 0.287445 -0.394748 -0.197865 -0.093745 0.100859 -0.229830 0.213704 -0.397069 -0.486601 0.044867 -0.504004 0.550362 0.149640 0.216149 0.091525 -0.311312 0.239191 -0.153677 0.329319 -0.214705 0.257602 0.288725 -0.264470 0.371874 0.271841 0.237893 0.310038 -0.129770 -0.290937 -0.128275 -0.292123 -0.241441 -0.417056 0.360010
Bd7 0.482788 -0.389043 -0.147283 -0.435728 0.153531 -0.114027 -0.464324 0.001069 -0.386894 -0.041875 -0.341876 -0.732727 0.469917 0.309195 0.485774 -0.406887 -0.113329 -0.163281 0.277652 -0.152651 0.384513 0.067488 0.049489 0.367809 -0.347526 0.037578 -0.191549 0.008744 -0.217858 -0.235064 -0.021936 0.181950 -0.229406 0.180191 0.018733 -0.099056 -0.345142 -0.044016 0.207221 0.517180 0.113703 -0.324942 -0.291415 0.190861 0.213282 0.173571 0.838793 -0.544708 -0.183522 0.393276 -0.191906 -0.165002 0.419657 -0.404624 -0.116968 -0.140573 -0.090613 0.710801 0.081365 -1.264105 -0.809187 0.712337 0.672579 -0.054426 -0.073040 -0.310434 -0.013949 0.108286 -0.405726 -0.296570 0.535497 -0.337583 0.876521 0.149686 -0.151888 0.066607 -0.186332 0.089830 0.050161 -0.351921 -0.300633 0.085721 0.143544 -0.089045 0.348896 0.628912 -0.162462 -0.150079 -0.434229 -0.387818 0.064092 0.471146 0.318916 -0.131255 -0.366166 0.440928 -0.317385 0.171415 -0.891630 0.107453
Rc8 0.389001 0.416156 0.188154 -0.085787 0.280636 -0.177444 -0.166846 0.005962 -0.352896 -0.050679 0.002463 -0.217593 -0.131984 0.266169 0.004132 0.285580 -0.418825 0.529785 0.113436 -0.031792 -0.242705 0.880950 0.100420 0.064166 0.467126 -0.102912 -0.178271 0.113328 0.078440 0.125257 0.127723 -0.089957 0.353969 -0.100682 -0.124050 -0.182697 0.124553 0.250609 -0.123608 0.337039 -0.177755 -0.409123 -0.007123 -0.108439 -0.075531 0.029557 0.199544 -0.380888 -0.444306 0.647098 -0.363127 -0.311994 0.152123 0.051353 -0.395079 0.067457 0.042775 0.407805 -0.030038 -0.742419 -0.053119 0.343035 0.260649 0.416151 0.057200 0.305586 -0.135562 0.105351 -0.187586 -0.386297 -0.148540 0.252090 -0.050376 -0.018299 0.048313 0.470737 -0.523548 0.028958 0.135426 0.295008 -0.105324 -0.251614 0.403296 0.039809 -0.266467 -0.119170 0.286450 -0.417141 -0.334981 -0.010684 0.200215 -0.239209 0.326404 -0.296530 -0.163215 0.401346 -0.605355 -0.541265 -0.279325 0.291208
e3 0.546146 -0.002068 -0.206640 0.334098 0.260671 0.347074 -0.081266 0.112723 -0.679518 0.369337 -0.235840 -0.379209 -0.192528 -0.148637 0.261209 -0.021195 0.052365 -0.098614 -0.279358 -0.332289 -0.386210 0.306881 0.276801 -0.060757 0.107021 -0.223532 -0.103119 -0.312781 -0.545887 0.434571 0.226532 0.792751 -0.170630 -0.381708 0.451478 0.166124 -0.019786 0.304241 0.165036 0.083813 0.203606 -0.548009 0.748924 0.078952 0.379816 0.013821 0.069001 -0.168865 -0.166578 0.129416 -0.230657 -0.530122 -0.020224 -0.624414 0.371740 -0.310949 0.230496 -0.436621 0.223021 -1.485374 -0.361741 0.852150 0.163245 0.340914 -0.297338 0.417030 0.202385 -0.361939 0.176866 -0.188785 -0.739008 -0.410246 0.038519 -0.187885 -0.127733 0.337639 -0.904399 1.161301 0.790380 0.004608 -0.324184 0.155372 0.286595 0.700344 0.151688 0.497296 -0.685229 0.241345 0.545777 -0.372341 -0.228973 -0.253041 -0.291724 -0.345333 0.542260 -0.433438 -0.372904 -0.471497 -0.186520 0.294102
Qc2 0.356575 0.416763 0.203241 0.363267 -0.004706 0.535247 -0.124647 -0.282086 -0.896075 -0.014157 -0.130206 -0.159105 0.054256 0.155895 0.131051 0.019580 0.153512 -0.065339 0.178884 -0.189749 -0.250238 0.245763 0.080516 0.074386 -0.268028 0.258934 0.017084 -0.189004 -0.562298 0.273695 0.265419 0.331837 0.404752 -0.293142 0.141352 -0.198635 -0.139733 0.300982 0.286714 0.270926 -0.150726 -0.803110 0.491958 -0.544127 -0.101679 0.156646 0.941547 -0.425808 -0.207222 0.378547 -0.094059 -0.458365 0.116285 0.424098 -0.016491 -0.252521 0.911668 -0.034632 0.347998 -1.064733 0.084801 1.179108 0.258734 0.236200 0.268714 0.140237 -0.055477 0.090944 -0.088227 -0.565307 -0.615239 0.267159 0.290844 0.192567 0.070280 -0.160483 -0.270868 0.717456 0.641717 -0.165222 -0.400716 -0.033319 0.054420 0.094081 0.180816 0.141630 -0.745305 0.199832 0.297602 0.199530 0.314613 -0.204948 -0.595149 0.072652 0.137384 -0.650101 -0.932924 -0.090421 -0.097825 0.082172
exd5 0.511646 -0.438056 0.826040 0.239001 -0.222624 0.075399 -0.830285 -0.648223 -0.527740 0.156056 -0.064514 -0.419842 -0.000945 -0.446336 0.102106 0.126452 -0.667908 0.358034 -0.090157 -0.093962 -0.126895 0.707659 -0.395683 -0.064369 -0.471875 0.153491 -0.285206 -0.584492 -0.295313 0.069105 0.174859 -0.531007 -0.079699 0.124935 -0.058589 -0.354857 0.195839 -0.119126 -0.040252 -0.330977 -0.437705 -0.857968 0.017537 -0.571560 0.114492 0.394351 1.055582 -0.293303 -0.578067 0.183258 -0.339670 -0.774953 -0.393019 -0.186493 0.843967 0.443997 -0.002913 -0.070715 0.382185 -1.194602 0.141233 0.436236 0.074769 0.358829 -0.449050 0.118980 0.410163 0.017860 -0.586182 -0.790178 0.395178 -0.377280 -0.473597 0.094526 -0.003075 0.102430 -0.979817 0.553959 0.195636 -0.984886 0.170664 0.202505 0.540740 0.193590 0.720851 0.153429 -0.479069 -0.133502 0.514739 -0.950620 0.203835 0.078626 0.170504 -0.149384 0.573285 0.006341 -0.139785 -0.166655 -0.247673 0.093449
Nd5 0.501156 0.170006 0.216209 0.160196 0.025589 -0.247770 0.148662 -0.002320 -0.424113 0.174069 0.033987 -0.311032 -0.195459 -0.053847 0.682022 -0.429951 -0.002368 0.320407 -0.279792 -0.022294 0.003623 0.816133 -0.143200 -0.361290 0.171985 -0.102205 -0.558015 -0.602006 0.229153 0.243498 -0.069464 0.310717 -0.371060 -0.447400 0.186158 -0.490725 0.729445 0.121268 -0.229124 -0.253884 -0.029175 -0.220219 -0.197184 -0.321244 -0.414645 0.318583 1.007086 -0.602260 -0.402460 0.773485 -0.252610 0.142914 0.201407 0.021027 0.278825 -0.079501 -0.188887 -0.438122 -0.115726 -0.551098 0.026029 0.547025 -0.270624 0.187343 -0.110836 -0.206012 0.042563 -0.081525 -0.244559 -0.512451 0.434337 -0.540697 -0.115645 -0.127005 -0.141308 0.101673 -0.470379 -0.141947 0.142451 -0.312799 0.135174 -0.084733 -0.364734 -0.050090 -0.060354 -0.168552 0.151935 -0.171812 0.163971 -0.245037 0.221775 0.177798 0.364334 -0.365591 0.229771 0.010824 -0.322504 -0.011489 -0.110673 -0.300267
Bg2 0.689425 0.096779 0.827050 -0.312206 -0.175430 0.399911 0.352342 -0.512986 -0.783965 0.498702 0.018711 -0.017276 0.259276 -0.279790 0.008145 -0.747151 0.386341 0.209021 -0.227423 -0.015222 0.233763 0.381453 0.192818 0.135976 -0.336669 -0.141746 0.087203 -0.333416 -0.310718 0.318024 -0.306101 0.351779 -0.244202 -0.317696 -0.130701 0.042160 -0.055084 0.175880 -0.055004 0.160895 -0.063266 -0.244324 0.289148 0.273698 0.110342 0.101366 0.237274 -0.191833 -0.312119 0.287186 -0.416801 -0.259168 -0.171087 -0.477511 0.147114 -0.461461 0.422634 0.286060 -0.042951 -1.464596 -0.003078 0.654016 0.242778 -0.267794 -0.452580 0.540858 0.215662 -0.606992 0.440643 -0.359522 -0.356048 -0.669842 0.010158 -0.436995 0.137915 0.423100 -0.614360 0.314257 0.425295 -0.247025 0.207539 -0.124780 0.245536 0.776283 0.715143 0.300177 -0.785244 0.601701 0.264618 0.048421 0.211660 0.159591 -0.498647 -0.408145 0.731393 -0.664262 -0.450550 -0.267101 -0.407331 0.317319
Qd2 0.959058 -0.198456 0.120315 0.000081 -0.193951 -0.060576 -0.189380 -0.524079 -0.455336 0.321942 -0.114432 0.025273 0.200771 0.322754 0.175859 0.332562 0.081956 -0.275155 0.176136 0.217167 -0.016330 0.318160 0.143487 -0.248747 0.087816 0.590262 -0.144102 0.014626 -0.047634 -0.110411 0.579778 -0.077928 -0.377226 -0.333208 0.049744 -0.021719 -0.006075 0.086943 -0.062873 0.170101 -0.205271 -0.419230 -0.078266 -0.958889 -0.430966 0.155233 0.746322 -1.132581 -0.153542 1.218767 -0.399310 -0.396250 -0.168159 -0.258529 -0.565036 -0.489275 0.704397 0.123620 0.246621 -0.843854 -0.418980 1.078386 0.277007 0.519795 0.307221 -0.117786 -0.308718 -0.094025 -0.268612 -0.359546 0.190262 0.030810 0.319134 -0.402486 -0.060839 -0.182540 0.039213 0.021679 -0.446785 -0.435018 0.166671 -0.300825 -0.630508 0.007596 0.138493 0.569559 -0.267072 -0.128592 0.307296 -0.346345 -0.123179 0.519620 0.042965 -0.003010 -0.228184 -0.068477 -0.354432 0.200275 -0.426255 0.309110
Kg7 0.493196 0.671351 0.288370 -0.479550 -0.595387 0.155405 0.113957 0.286087 0.017716 -0.103343 0.748102 -0.026616 0.666690 0.371179 -0.205591 0.416654 -0.688367 -0.119606 -0.386665 -0.871844 -0.034869 0.227743 0.943294 0.016557 0.409012 -0.023619 0.259225 -0.090104 -0.409093 -0.406557 0.298016 0.771210 0.028199 0.092681 -0.354676 -0.435428 0.548445 -0.524514 -0.003521 -0.143087 0.597348 0.164753 0.023529 -0.135472 -0.036606 -0.723428 0.302154 -0.068716 -0.382552 0.788883 -0.073868 -0.064649 -0.386766 -0.693905 -0.795675 0.343232 0.002951 -0.244786 0.601008 -0.349736 0.463464 -0.391592 0.412704 0.090965 0.034326 0.226072 -0.704049 -0.289911 -0.347546 0.475759 0.024649 0.552269 0.277688 -0.007615 0.733623 -0.157970 -0.013215 -0.234953 0.083122 0.144399 0.018513 0.349676 -0.348237 0.009526 0.160912 -0.177434 0.774742 0.271686 0.246914 -0.151539 0.274166 -0.735771 0.069549 0.093213 -0.315465 0.018152 -0.081780 0.520620 0.608899 0.094273
f3 0.465343 0.218058 -0.023271 -0.052605 -0.118713 0.234520 -0.441920 -0.153171 -0.192965 0.317965 0.205827 -0.934342 0.111821 0.370325 0.314431 -0.441394 0.053320 0.237534 -0.137006 0.162494 -0.352438 0.095380 0.528494 -0.036916 0.236958 0.164614 0.382972 0.225544 -0.207377 -0.158386 0.226929 0.389924 -0.204030 -0.002668 0.284801 0.308929 -0.046433 0.377467 0.145074 0.217805 -0.069127 -0.425959 -0.313794 0.194333 -0.157109 0.017668 0.571182 -0.288651 -0.383255 0.001463 0.037663 -0.409852 -0.084130 -0.249065 -0.419774 -0.056891 0.107656 -0.019137 -0.216465 -1.022035 0.304893 0.549755 0.172164 0.136064 -0.138184 0.151424 -0.164738 0.132921 -0.030385 -0.159897 -0.032800 0.033710 0.224267 0.226722 -0.230711 -0.094666 0.066147 0.017308 0.019374 -0.268831 -0.074785 0.226835 0.045406 0.134886 -0.143152 -0.568051 -0.165266 0.070840 0.737477 0.162386 -0.326960 0.430835 0.045750 -0.502319 -0.069448 0.299450 -0.104724 0.023858 -0.671901 0.341354
Rc1 -0.010575 0.638889 0.227412 0.012755 -0.032204 0.093823 -0.207323 0.068286 -0.300578 -0.009797 -0.012660 -0.481492 -0.027478 0.564035 0.160276 0.387784 -0.059286 0.577416 -0.169784 -0.128749 -0.399021 0.863049 0.091563 -0.063787 0.275553 -0.329233 -0.363664 -0.055650 0.067141 -0.046056 0.094475 -0.259565 0.361567 -0.222943 0.243625 -0.157311 -0.090307 0.081471 0.124518 0.410614 -0.042517 -0.280473 0.053404 -0.366062 0.034802 -0.239065 0.279161 -0.368516 -0.490501 0.788083 -0.200299 -0.465454 0.338110 -0.322395 0.097167 -0.073908 0.022166 0.314925 0.376780 -0.968817 -0.065499 0.160601 0.112639 0.503360 -0.179988 0.410932 -0.032467 -0.028852 0.186085 -0.383808 -0.504291 0.221373 0.106651 -0.209121 -0.092828 0.340400 -0.371659 0.497467 -0.012488 0.214025 0.147851 -0.074620 0.396866 0.076111 0.008655 0.110295 0.397609 -0.297919 0.056530 -0.076267 0.020107 0.136011 0.198573 -0.327792 -0.059548 0.401259 -0.676287 -0.663807 -0.226596 0.280516
Be6 0.811903 -0.108170 -0.315989 -0.363819 -0.454218 -0.187421 -0.448436 0.280895 -0.373265 0.213304 -0.255073 -0.767664 0.125915 0.324195 0.250471 -0.364361 -0.051901 -0.591317 -0.752019 -0.231370 0.318318 0.385440 0.044640 0.196679 -0.097348 -0.659796 -0.423607 -0.302043 0.030156 -0.503879 0.085006 0.381855 0.209763 -0.201825 0.032316 -0.218088 -0.226911 0.379937 0.033555 -0.060631 0.062992 -0.366700 -0.151079 0.015094 -0.101894 0.034382 0.888421 -0.679058 0.015319 0.287835 -0.060677 -0.030404 -0.092688 -0.093331 0.258576 -0.015031 -0.105667 0.856179 -0.025544 -0.820746 -0.138150 1.050796 -0.212671 0.141986 0.236193 0.237850 0.017063 0.316163 -0.179934 -0.063212 0.356366 -0.410322 0.177951 -0.035147 0.057239 0.411280 -0.496780 -0.097779 0.115013 0.008920 0.140183 -0.271222 -0.179241 -0.113262 0.253193 0.068754 -0.076645 0.245600 0.066866 -0.481002 0.118988 0.340553 0.867318 -0.168131 0.050622 -0.000865 -0.007141 0.083848 -0.279368 -0.019255
Rd1 0.138396 0.799518 -0.021237 -0.212372 -0.314018 -0.018659 -0.108173 -0.058708 -0.091043 0.214411 -0.240267 -0.252013 0.156933 0.068734 0.014917 -0.057400 -0.088020 0.146816 0.061426 0.152152 -0.280877 0.842052 0.454675 -0.389843 -0.085953 -0.116766 0.041863 -0.159701 0.353875 0.126914 0.089288 -0.103281 0.123009 -0.315671 0.096773 -0.138491 -0.189496 0.217492 -0.180848 -0.109793 -0.320253 -0.416741 0.301861 0.149141 -0.020446 -0.374940 0.395715 -0.379078 -0.257468 0.216098 0.166297 -0.059887 0.114528 -0.042769 0.155214 0.063610 -0.108238 0.375656 0.341307 -0.733275 0.360324 0.523689 0.177577 -0.157157 -0.140459 -0.015094 0.078013 -0.129848 -0.045248 -0.133612 -0.525655 0.172940 0.245216 -0.232181 0.480296 0.489393 -0.391558 0.319337 -0.061857 -0.305262 0.207855 -0.161160 -0.178165 -0.202687 -0.090539 -0.337368 -0.055339 -0.217298 0.166086 -0.121053 0.355591 0.075185 0.322211 0.247188 -0.024480 -0.032224 -0.235795 -0.140151 0.205170 0.153457
Rd8 0.260941 0.582798 0.123596 -0.559701 -0.190277 -0.194778 -0.207111 0.085908 -0.381727 0.336572 0.053176 -0.189222 0.065712 0.304200 0.061727 -0.035399 -0.293742 0.181503 -0.147889 -0.053450 -0.335698 0.805298 0.485953 -0.510844 0.237310 -0.294899 0.290905 0.145450 0.394463 0.034209 -0.103014 0.283684 0.304603 -0.194783 0.093015 -0.244250 -0.115271 0.351648 -0.156739 -0.154472 -0.139221 -0.263108 0.325917 0.284012 -0.162946 -0.280031 0.195426 -0.307992 -0.174216 0.172921 0.437961 -0.195994 -0.238262 -0.126449 -0.207641 0.328292 0.041830 0.359540 -0.008497 -0.280436 0.464701 0.465330 0.190022 -0.137134 -0.176473 -0.326175 -0.034388 0.242939 -0.133894 0.134510 -0.126194 0.175339 -0.000500 -0.274120 0.269549 0.489582 -0.518057 0.416900 -0.062483 -0.190522 0.037890 -0.210897 -0.144735 -0.280607 -0.089632 -0.210012 -0.148499 -0.391335 0.426513 0.023239 0.649472 -0.100629 0.561540 0.130929 -0.254509 0.058059 -0.194324 0.038228 -0.038285 0.668841
Bd2 0.244703 0.293363 -0.209474 -0.230873 0.241156 0.199409 0.775813 -0.297481 -0.622193 0.126879 0.281498 -0.722711 -0.256962 0.118600 0.447993 0.098404 0.141825 0.081274 0.106066 -0.032167 0.013962 0.566282 -0.572772 -0.262886 -0.247541 0.210531 0.174154 -0.492048 -0.233953 0.493467 0.372571 -0.059961 0.061735 0.010380 0.016260 -0.326766 0.066535 -0.242198 0.256453 0.508012 -0.214324 -0.659119 -0.684713 0.076014 -0.016537 0.032325 0.566428 -0.578887 -0.289049 0.237796 0.310508 -0.439657 0.091060 -0.164930 -0.011650 -0.247636 0.465126 -0.432939 0.264213 -1.083336 0.039330 0.904532 0.041554 0.220372 -0.187290 -0.233160 -0.389998 -0.433878 -0.105407 -0.442398 0.251821 -0.795346 0.206048 -0.020267 -0.153426 0.259974 -0.630812 0.055907 0.118046 -0.285038 -0.099394 0.295382 -0.231582 0.744079 0.105489 0.347402 0.130655 0.464084 0.026034 0.298736 -0.203003 0.236402 -0.266554 0.555173 -0.058054 -0.435508 -0.777404 -0.130487 0.107360 -0.137901
Qe2 0.255902 0.144678 0.077295 0.059122 0.022451 -0.421590 -0.288890 -0.390623 -0.407345 0.561997 0.250656 0.374127 0.331807 0.113560 0.193286 0.302809 -0.255105 0.455851 -0.220445 -0.066801 0.137497 0.425658 -0.017790 -0.093149 -0.394674 0.392341 -0.336147 0.160853 -0.283430 0.154974 -0.332374 0.097679 -0.076567 0.375609 -0.018735 -0.288864 0.143638 0.261315 -0.062618 0.032033 -0.192650 -0.637775 0.092260 -0.467630 0.161643 0.209195 1.199585 -0.918612 0.090637 0.071633 0.022338 -0.118918 0.056412 0.053190 -0.088215 0.210249 0.108953 -0.092736 -0.134572 -0.908026 0.403070 1.293242 0.441274 0.032186 0.174474 -0.332099 -0.210741 -0.118860 -0.036224 -0.701346 -0.104051 0.188037 0.478044 -0.004066 -0.231456 -0.119710 -0.028930 -0.429186 -0.087511 0.071783 -0.196619 -0.512411 -0.106116 0.451909 -0.193592 0.120194 -0.200981 0.434084 0.005329 -0.099693 0.657057 0.239932 -0.267033 0.468821 -0.383683 -0.502832 -0.728560 0.488211 0.215004 0.350041
f6 0.485814 0.687834 0.045824 -0.222399 -0.397387 -0.235456 0.116909 0.336261 -0.513244 0.555197 0.500266 -0.053469 0.232017 0.117229 -0.180843 0.050209 0.154645 -0.501229 -0.041886 -0.117069 -0.062545 0.218389 -0.247199 0.457674 0.356341 -0.494632 -0.280835 -0.260079 -0.150550 0.130912 -0.016507 -0.153713 -0.405100 -0.091820 -0.097129 0.259831 0.288232 -0.184028 0.595175 0.046117 -0.168841 0.043025 -0.268316 -0.185918 0.207115 -0.167786 0.741898 -0.233230 -0.210218 0.730048 -0.031768 0.032368 -0.341489 -0.033942 0.456076 0.378126 -0.535591 0.418400 -0.337070 -0.624978 -0.120917 0.593379 0.392619 0.240505 0.117415 -0.177732 -0.178710 0.038618 -0.036569 0.294117 0.247233 -0.207973 0.142873 0.113680 0.075478 0.099802 -0.280074 -0.094012 -0.348226 -0.354839 -0.101088 -0.259678 -0.283400 -0.046469 -0.074640 0.417460 0.174070 -0.259885 -0.033521 0.210775 0.029462 -0.311626 0.260029 0.096345 -0.313921 -0.426594 0.021044 -0.167377 -0.131761 0.131752
Rb8 0.420057 -0.085358 0.076921 0.034508 0.322333 -0.309811 -0.037491 -0.017700 -0.621135 -0.236486 0.400846 -0.407287 -0.416217 0.699081 0.380604 0.258909 -0.068609 -0.222100 0.252799 -0.349391 0.031159 0.233400 0.419175 -0.227713 -0.073699 -0.264595 -0.069316 0.519690 -0.094983 -0.080607 0.291867 0.414627 0.184014 -0.188188 -0.176592 -0.655614 0.132349 -0.091526 -0.420547 0.039075 0.348434 -0.029384 0.061414 0.207237 0.078879 -0.119877 0.688147 -0.615819 -0.521693 0.657536 0.097683 -0.170167 0.206855 0.293654 -0.173030 -0.027814 -0.123246 0.056326 -0.401251 -0.753580 -0.280591 0.247317 0.053712 -0.217103 -0.137773 0.366627 0.026738 -0.248702 -0.031484 0.318797 0.012462 -0.577333 -0.081516 -0.117714 -0.360940 0.619390 -0.444162 0.101616 0.487259 0.044816 -0.090189 0.118102 -0.058608 -0.462582 -0.122968 -0.088454 -0.064593 0.130424 -0.175286 0.704758 0.573061 0.123465 0.510863 0.088432 0.274303 0.319661 -0.246870 0.127202 -0.244170 0.303300
Qe7 0.192585 0.205084 0.261347 -0.036951 0.368638 0.106505 -0.216105 -0.426697 -0.498418 -0.003794 0.294354 -0.136107 0.630725 0.516371 -0.000570 0.392478 0.011793 -0.215853 0.085921 -0.036919 0.059444 0.411755 0.532498 -0.014034 -0.389909 0.251097 -0.006030 -0.337566 -0.219569 -0.109916 -0.043113 0.307567 -0.082573 -0.059035 0.208161 0.093689 -0.414585 -0.174790 0.192438 0.412271 -0.061579 -0.511445 0.002544 -0.687953 0.295542 0.025724 0.534452 -0.545501 -0.139426 0.527891 -0.051387 0.105590 -0.208229 -0.086435 -0.360315 0.042873 0.481502 0.364240 0.450345 -0.550573 0.150441 1.305956 0.538451 0.113964 -0.090477 -0.149946 0.204800 -0.047364 -0.162039 -0.655229 -0.125416 0.133125 0.145754 -0.019568 -0.242283 -0.507912 0.195446 0.144276 -0.047400 -0.410556 0.086108 -0.744316 -0.056608 0.217134 0.108821 0.214984 -0.139389 0.461398 0.546706 -0.115366 0.066917 -0.045298 -0.031875 0.295952 -0.348631 -0.727708 -0.733976 0.438183 0.288335 0.377918
Nbd7 0.880829 -0.446819 -0.258465 0.034131 -0.294289 0.345723 -0.295129 -0.959432 -0.645944 -0.124424 0.030375 -0.483359 -0.118381 -0.013784 -0.080200 -0.338047 -0.186595 -0.442722 0.138209 -0.019448 -1.128125 0.598142 0.126486 0.197034 0.224219 -0.143977 -0.198582 0.180476 -0.630918 0.841988 -0.074568 -0.220774 -0.035232 -0.565905 0.414487 -0.029136 -0.664211 0.070869 0.119746 -0.254677 -0.436779 -1.440670 0.621749 -0.254512 0.074437 0.664390 1.574918 -0.038564 -0.072309 -0.079324 0.066229 -0.025581 -0.052115 -0.011834 -0.102822 -0.254963 0.730955 0.028173 0.231875 -2.051152 -0.278164 1.370962 0.652777 0.566698 -0.327036 0.309177 0.431150 -0.503229 -0.313924 -0.840035 -0.480281 -0.597234 0.199153 0.490103 -0.212076 0.402067 -0.422018 0.820751 0.785265 0.084241 -0.563147 -0.377315 0.519727 0.688417 0.116625 0.475623 -0.225929 0.647186 0.615281 -0.016679 -0.243519 0.745551 -1.153432 -0.319323 0.374221 -0.517126 -0.606917 -0.523388 0.056024 -0.187692
Bf4 0.067760 0.394781 -0.242376 -0.485119 -0.130215 -0.520352 -0.169885 0.143673 -0.713216 0.371967 0.271472 -0.760487 -0.484097 0.089212 0.217429 -0.567604 0.340811 0.034589 0.159383 -0.012538 -0.207545 0.475727 -0.015088 -0.322330 0.013535 -0.224402 -0.290146 -0.213147 -0.192768 0.270768 0.203357 -0.359888 0.263986 -0.350746 -0.334143 0.184094 -0.007068 -0.080684 0.006484 -0.501824 -0.397119 -0.526235 0.131944 -0.547355 0.453158 0.197910 1.041729 -0.321947 -0.059895 -0.314647 -0.183863 -0.044359 0.077512 -0.081369 -0.231827 0.281382 0.077648 0.191987 -0.554006 -0.763308 -0.305653 0.772353 0.199331 0.389284 -0.287496 -0.521005 -0.233462 -0.487953 -0.515763 -0.555149 -0.465415 -0.283229 0.023811 0.146981 0.125472 0.239053 -0.690010 0.265288 0.659186 -0.009822 -0.105123 -0.144546 -0.171515 0.708127 0.305653 0.553160 -0.271798 -0.106688 0.403874 0.125103 -0.068231 -0.232555 0.034337 -0.001039 -0.078444 -0.052626 -0.411086 0.035992 -0.161688 -0.055126
Nxd5 0.755340 -0.265784 0.564751 0.315886 -0.235719 0.189088 -0.466896 -0.538636 -0.339150 0.074021 -0.381301 -0.213337 -0.085972 -0.601032 0.603001 -0.005813 -0.551959 0.557049 -0.633216 -0.351315 0.068906 0.967733 -0.523704 -0.551777 -0.278195 -0.226541 -0.394521 -1.047283 0.018782 0.321461 0.401073 -0.031639 -0.155647 -0.181915 0.156958 -0.549299 0.708861 -0.375568 -0.353476 -0.437367 -0.010108 -0.641423 -0.118704 -0.691301 -0.215597 0.210286 0.954094 -0.617122 -0.524246 0.583817 -0.205062 -0.521686 -0.137321 -0.260600 0.967754 0.142206 -0.184716 -0.371903 0.169093 -0.657617 0.219406 0.633965 0.022338 0.369889 -0.368886 0.063519 0.173977 0.286572 -0.368404 -0.890922 0.670106 -0.431952 -0.652773 -0.031359 -0.086628 0.493852 -0.755106 0.136205 0.334247 -1.087283 0.157318 0.146711 -0.144456 -0.100545 0.686328 -0.152865 -0.319648 -0.382106 0.577582 -0.735497 0.248321 0.083780 0.263845 -0.348708 0.809917 -0.011023 -0.186474 -0.254811 0.023510 -0.364428
Nc5 -0.125367 0.177404 0.224408 0.210908 -0.186796 -0.265974 -0.259495 -0.012605 -0.385475 0.040790 -0.131979 -0.655992 0.256891 0.861622 0.047854 -0.228670 -0.084486 -0.606294 0.306326 0.005910 -0.118052 0.342121 0.102098 0.086719 0.092563 0.044489 -0.212255 0.369192 -0.032911 0.610857 -0.388503 -0.372506 -0.430035 0.085843 -0.082373 -0.175504 -0.188514 0.356473 -0.071018 -0.120771 -0.129765 -0.329325 0.409379 0.337392 -0.503212 -0.003557 0.914995 -0.420821 -0.433358 0.363590 -0.016690 -0.265575 -0.200235 -0.344863 -0.085453 -0.170643 0.339018 0.359105 0.434213 -0.665919 0.282585 0.449075 0.308659 0.098235 0.007677 0.013364 -0.172817 0.436188 -0.296147 -0.397041 0.062932 -0.366355 0.230977 -0.188573 -0.065815 0.101551 -0.070598 0.154292 -0.483387 0.185127 0.228236 -0.063599 0.526721 -0.243905 0.053012 -0.307855 -0.277170 -0.275462 -0.400882 0.546829 0.162502 -0.064812 0.327261 -0.034330 -0.178102 0.141951 -0.261409 -0.243653 -0.087842 -0.080558
Nd4 0.303276 0.261659 0.422044 -0.085372 -0.160384 -0.319538 -0.190263 -0.151040 0.027204 -0.153356 -0.386787 -0.893185 0.300453 0.512734 0.320388 -0.420154 -0.172010 -0.287533 0.037616 0.006884 0.493077 0.089454 -0.027355 -0.150733 -0.004448 -0.034418 -0.237142 0.457320 0.107166 -0.096610 -0.410816 -0.142085 -0.283975 0.126126 0.008966 0.118706 0.204064 0.367291 -0.004614 -0.250898 -0.072345 -0.189945 -0.120071 -0.062704 -0.191312 0.250420 0.560050 -0.067656 -0.624263 0.786108 -0.480739 -0.480121 -0.022250 -0.509020 0.020657 -0.320059 -0.050721 0.234880 -0.240747 -0.519908 -0.012070 0.653350 -0.151315 -0.059071 0.545672 0.107237 0.248175 0.343988 -0.284573 -0.511481 -0.271823 -0.185491 0.269242 -0.372429 0.145393 0.203431 -0.097133 0.354763 -0.311305 0.083435 0.302480 0.033950 0.120381 0.110510 -0.174670 -0.113368 -0.173459 0.056232 -0.220160 0.358272 -0.049351 -0.306129 0.518144 -0.206016 -0.144758 0.242138 -0.109413 -0.162814 -0.478600 0.190921
Nd2 0.029381 0.485998 0.036909 -0.082331 0.043573 -0.052225 0.177887 -0.085131 -0.601049 0.159310 0.149055 -0.730732 0.175858 -0.090747 -0.324002 -0.105633 0.025454 0.070462 -0.056302 -0.142960 -0.555278 -0.123113 0.026241 0.387846 -0.165072 -0.071457 -0.145706 0.270418 -0.366958 0.026917 -0.393001 0.148353 -0.289176 0.032461 0.051585 0.078593 -0.124044 0.303038 0.152062 0.420550 0.114862 -0.811753 0.025827 -0.271245 0.176753 0.021643 1.197901 -0.414553 0.033661 0.019103 -0.355140 -0.021650 0.108140 -0.153159 0.229969 0.542707 0.249177 0.024309 0.182046 -1.148175 0.296930 0.581532 0.073414 -0.225291 0.045724 -0.040519 0.033515 -0.017269 -0.131234 -0.257874 0.031899 -0.600119 0.274420 -0.081297 -0.410455 -0.177862 -0.532944 0.422616 -0.136950 -0.064930 -0.429192 0.201824 0.539319 0.273544 0.308315 -0.153346 -0.382009 0.393984 0.060340 0.200175 -0.187182 0.421792 0.363654 0.172624 -0.067202 -0.252791 -0.529127 -0.379807 -0.328428 0.063171
Kg2 0.113267 1.301132 -0.205068 0.157946 -0.127681 0.639689 -0.454448 0.226992 0.007653 -0.220337 0.705835 -0.048559 0.631157 -0.519905 0.969781 0.467772 0.707295 0.003609 -0.230101 0.083414 0.330782 -0.123691 0.247462 -0.362700 -0.039956 -0.134283 0.581375 0.428369 -0.024964 -0.072984 0.598153 0.345063 0.522923 0.298881 0.332902 -0.050969 0.140447 -0.089050 0.026843 -0.122197 -0.520730 -0.090658 -0.047876 -0.329752 0.288919 -0.427780 0.277237 -0.586669 0.344098 0.617707 0.021366 0.096147 0.015172 -0.756150 -0.449232 0.578917 -0.547679 -0.215511 0.727897 -0.812076 0.455302 -0.716361 0.252311 -0.105352 0.376197 0.280304 0.118223 -0.174385 -0.467467 0.342030 -0.244710 0.728908 0.666158 -0.180852 0.150801 0.195341 0.194116 -0.478739 0.432073 0.120405 0.138148 0.276317 -0.300418 -0.179001 -0.179731 -0.675137 -0.094728 0.364993 0.615601 0.144338 -0.107582 -0.561706 0.002178 -0.355545 -0.183283 0.095402 0.078366 0.309145 -0.216666 0.757648
Kf7 0.181627 0.711376 0.174057 -0.614024 -0.195365 0.193146 0.379603 0.606499 -0.212313 0.011732 0.515902 0.105077 -0.277016 -0.596657 -0.217029 0.003910 -0.278671 -0.382420 0.564067 0.215808 0.069085 0.981516 0.630884 0.608007 0.481890 -0.515853 0.087723 -0.377018 -0.318774 -0.069494 0.200101 0.227932 0.279899 0.508414 0.028185 -0.701562 0.440654 0.072102 0.370801 -0.635761 0.083678 0.231873 -0.335463 0.460562 0.042369 -0.753304 0.045998 0.204205 -0.608074 1.073168 0.431799 -0.195119 -0.437104 -0.397557 -0.261698 0.374786 0.269665 -0.214498 -0.163353 -0.689187 0.274189 -0.505034 -0.112364 -0.064358 -0.358232 0.008444 -0.361569 0.375332 -0.633937 0.459949 -0.548916 0.136570 0.247310 0.321015 0.093093 0.115593 0.385937 0.113471 -0.166662 -0.304228 0.113566 0.759821 -0.312318 -0.315064 -0.363697 0.084806 0.954966 0.179700 0.088029 0.238286 0.014262 -0.501062 0.348059 0.014528 -0.297660 0.234815 0.432083 0.180713 -0.011287 -0.331752
Bd6 -0.196906 0.436090 -0.132072 -0.090194 0.191612 -0.217575 -0.152489 0.015354 -0.573726 0.109209 0.254018 -0.676393 -0.309017 -0.090350 0.410125 -0.312034 0.071596 -0.123507 0.168818 -0.228279 -0.070904 0.808970 -0.256859 -0.142432 0.190030 -0.390646 0.082134 0.015503 0.137756 0.246383 -0.372131 0.020909 0.422884 0.141410 -0.144168 -0.170408 0.215273 -0.036924 0.373480 -0.272536 -0.067382 -0.959523 -0.214250 -0.549519 0.207451 0.401562 0.742779 -0.063000 -0.229932 -0.410987 -0.045523 -0.512147 -0.198189 -0.105803 0.091883 0.263798 -0.137800 0.196116 -0.204514 -0.987083 0.059863 0.427788 0.169933 0.306229 -0.683350 -0.519836 -0.335139 -0.049990 -0.786891 -0.086551 -0.500136 -0.182426 0.051656 0.419424 0.189212 0.054001 -0.642927 -0.060831 1.050918 0.177748 -0.087206 -0.112976 0.360711 0.671389 0.083885 0.526400 0.108657 0.103612 0.509809 0.248787 -0.128178 -0.037584 0.032488 0.265810 -0.335637 -0.238750 -0.904343 -0.130623 -0.160571 0.075546
c3 0.554436 0.154861 0.550973 0.000351 -0.148036 -0.574771 0.091032 0.039436 -0.102896 0.791772 -0.004099 -0.468767 0.161934 -0.282672 0.005978 -0.171639 -0.636477 0.032462 0.332584 0.039227 -0.356604 0.568722 -0.648644 -0.005126 0.427899 -0.080221 -0.738858 0.297130 0.046018 0.228170 0.092329 -0.209133 -0.104649 -0.038115 0.190239 -0.330437 0.280343 0.006838 -0.608512 0.263207 -0.016241 -0.490553 0.146391 -0.042677 0.030585 0.181705 0.308235 0.005996 0.054102 -0.145146 -0.096549 -0.059583 0.018755 -0.351092 0.223867 -0.087117 0.164095 0.131529 -0.192891 -1.486540 -0.449319 0.828151 -0.091313 -0.711956 0.425474 -0.075495 0.255176 -0.249741 -0.537599 0.213073 0.041002 -0.264403 0.560514 -0.044139 0.138485 0.608843 -0.733775 -0.647434 -0.189518 -0.218171 -0.481357 -0.593188 0.107641 0.436108 0.111437 0.288915 0.003175 0.510440 -0.577351 -0.489057 0.596746 0.068157 0.104560 0.119498 -0.303716 -0.027451 -0.226059 0.435038 -0.048511 -0.099577
Nxe4 -0.260680 0.617852 0.551603 -0.278582 0.093048 -0.277233 -0.063205 -0.237814 -0.538116 0.461866 0.149813 -0.542242 0.311246 0.768451 -0.025505 -0.721508 0.212323 0.638115 0.126928 0.283797 -0.663827 0.187350 -0.095938 -0.223939 0.526684 -0.836778 0.066765 0.082178 -0.654727 0.567399 -0.549449 0.600649 -0.434629 -0.307831 0.922013 -0.376821 -0.645546 -0.287080 0.303992 -0.329355 0.124398 -0.745354 0.109121 -0.247899 0.030870 0.927461 1.047005 -0.169102 0.480713 0.016230 0.345697 -0.176702 0.003581 -0.765867 0.206327 0.095035 0.960542 -0.589087 -0.012956 -0.792300 0.266817 1.179948 -0.108376 -0.483986 -0.435858 -0.357159 -0.397517 0.361921 0.103486 -0.413741 0.090967 -0.118037 -0.126843 0.356425 -0.399261 0.015695 -0.148486 -0.177112 -0.245289 0.430486 0.001072 -0.007086 0.378272 0.003860 0.633782 -0.456146 -0.884607 0.306170 -0.713429 0.036203 -0.676824 0.413376 0.348364 -0.025969 0.254091 -0.297175 -0.867742 0.738751 0.608113 0.650085
Ke7 0.252383 0.439144 0.275898 -0.855558 0.336979 -0.329351 -0.005456 0.590036 0.625103 0.334375 0.379180 -0.341473 0.034731 -0.854555 0.118758 -0.509058 0.202043 -0.413221 0.153343 0.183380 -0.313052 0.900066 0.678540 0.058620 0.288669 -1.151579 0.965384 0.307313 0.195247 -0.401344 0.082463 0.176500 0.558922 1.180898 0.040246 -0.692142 -0.034274 0.264430 0.841438 -0.040711 -0.486081 0.334841 0.541570 0.761810 0.294429 -0.259612 -0.332481 0.331943 -0.130494 0.573301 0.410804 -0.219088 -0.242231 -0.088402 -0.294374 0.435860 0.057223 0.472374 0.337095 -0.275952 -0.336389 -0.080854 0.216284 0.103294 -0.750071 -0.022251 -0.200923 0.315011 -0.129116 0.054723 0.313503 -0.837526 0.539472 -0.200776 -0.256203 0.323213 0.094331 0.642990 -0.510402 -0.487654 0.222918 0.070750 0.324885 -0.466092 0.028222 -0.261741 0.927535 0.534652 0.097794 0.336090 0.255006 -0.350515 0.227744 -0.115484 -0.439881 0.415274 0.258344 0.160949 -0.257274 -0.174939
Kf8 0.359615 0.498320 0.075523 -0.693195 0.050763 0.094660 -0.037414 0.779744 -0.155339 -0.745663 0.237648 0.072357 0.105594 -0.297147 0.219713 0.265437 -0.198879 -0.014201 0.689846 -0.334228 -0.055241 0.841949 0.435862 -0.209300 0.248711 -0.731031 0.141249 -0.096640 0.254271 -0.572465 0.165876 0.493837 0.342469 0.380511 0.137676 -0.588083 0.021602 0.243080 0.161953 -0.663357 -0.388947 0.644101 0.405886 -0.037884 -0.180844 -0.386799 -0.141696 -0.054216 0.124825 0.739034 0.239270 0.275415 -0.518454 -0.256069 0.065484 0.612570 0.001654 0.001893 0.046918 -0.212259 -0.105384 0.052313 0.812028 0.269371 -0.306664 -0.347174 -0.434340 -0.054876 -0.662994 -0.627065 -0.233095 -0.061593 0.064923 0.037940 -0.270169 0.128318 -0.393944 0.446234 -0.709149 -0.611029 0.166149 1.309268 -0.490740 -0.021388 0.011291 -0.150044 0.622618 0.606428 -0.807168 -0.039762 0.657185 0.060567 0.102080 -0.552368 -0.201685 -0.216922 0.541689 0.543008 -0.285615 -0.075174
Nc4 -0.294488 0.219880 -0.404731 -0.219077 -0.103883 -0.614005 0.095004 -0.150081 -0.523845 0.099544 0.180370 -0.272718 0.058255 0.417312 0.086635 -0.256940 0.093405 0.206835 -0.199048 0.271069 -0.157459 0.548973 -0.083463 -0.002969 -0.384788 0.031831 -0.361586 0.154964 -0.047364 0.061708 -0.008015 0.041954 -0.140087 0.017496 -0.161280 -0.456410 0.503117 0.118190 -0.201912 0.022055 -0.200312 -0.291038 0.057317 0.028079 0.104551 -0.227764 1.328901 -0.487902 -0.101670 0.024869 0.237813 0.296372 0.392709 -0.156348 -0.100888 0.529152 0.190288 0.119270 -0.184019 -0.457309 0.237442 0.027041 -0.134060 -0.070717 0.288192 -0.243577 -0.128891 -0.009116 -0.314355 -0.459158 -0.051593 -0.732070 0.241762 -0.267288 -0.369147 -0.112764 -0.407282 0.657620 0.272626 -0.217420 -0.374504 -0.382877 -0.096586 -0.507936 -0.128772 0.005814 0.075859 0.132065 -0.235656 0.510104 0.364332 -0.006161 0.556762 0.094480 -0.194412 -0.203830 -0.414940 -0.546381 -0.220612 -0.333955
Bb4 0.010383 0.566603 0.205888 -0.340448 0.371122 0.323593 0.573656 -0.180679 -0.260814 0.136691 -0.314971 -0.776732 -0.098540 0.250513 0.424310 0.098670 -0.004644 -0.009753 0.231038 0.014029 -0.402315 0.615132 -0.111943 0.176189 0.239947 0.138087 0.031923 -0.305224 0.008306 0.330856 0.261927 0.227702 0.260455 -0.088954 -0.338374 -0.006642 -0.001335 -0.096368 0.455177 0.442443 -0.407701 -0.596746 -0.297511 0.332357 0.160513 0.155740 0.003988 -0.397116 -0.267968 0.227123 -0.030070 -0.346673 -0.186936 -0.036267 0.462124 0.038499 0.113107 -0.264709 0.216724 -1.058582 0.235908 0.478361 -0.193402 0.070664 -0.139673 0.070958 -0.034791 -0.009054 -0.011661 -0.076880 -0.193320 -0.461888 0.106362 0.049285 0.221788 0.235021 -0.911006 0.791239 0.222388 -0.454102 -0.343847 0.337650 0.309229 0.909545 0.005596 0.075368 -0.048932 0.249036 0.123112 -0.142252 -0.377951 -0.451761 -0.436846 -0.199436 0.045438 -0.391776 -1.043987 -0.312042 0.001818 0.217307
Kf2 0.324324 0.807066 -0.568269 0.320674 -0.630335 0.492689 -0.294760 0.617676 0.255412 -0.448328 0.020440 -0.375810 0.248816 -0.445201 -0.090156 -0.149894 0.381939 -0.190513 -0.085350 0.212474 0.382293 0.728944 0.599272 -0.196082 0.429164 -0.446736 0.504688 0.357195 -0.117320 0.153357 0.089099 0.296498 -0.225128 0.125344 -0.115617 0.645903 0.430769 0.008624 -0.268959 0.468652 -0.155122 0.193602 -0.613904 -0.044599 0.212546 -0.122521 0.180165 0.142449 0.201898 0.548818 0.251705 -0.442293 -0.274411 -0.984550 -0.182251 0.389001 -0.077454 0.062616 0.029010 -0.497792 0.465893 -0.757221 0.251917 0.119669 0.159138 0.278648 -0.245191 0.152768 -0.302370 0.660751 0.149366 0.162640 0.482132 -0.324925 -0.360266 0.512083 -0.559928 0.380530 0.184865 0.046132 0.022468 0.559402 -0.030407 -0.089187 -0.823814 -0.665818 0.155335 0.059957 0.526418 0.355675 0.505545 0.224833 0.013049 -0.363466 -0.716869 0.083454 0.336465 0.155395 -0.652451 0.298088
Bb5 0.139732 -0.206194 0.129790 -0.403145 0.059853 -0.245680 -0.461067 0.094705 -0.321056 0.191577 -0.304003 -0.488478 0.479211 -0.236323 0.267545 0.051845 -0.254141 -0.012285 0.096819 0.239196 0.076420 0.287827 0.305992 -0.202031 -0.026796 -0.075489 -0.698048 0.609596 -0.165856 0.017696 -0.297888 0.062065 -0.273503 0.150684 -0.226807 -0.560736 0.412627 -0.159990 -0.154581 0.442126 0.016864 0.007278 -0.237342 0.316155 0.077077 0.096452 0.364436 -0.488375 0.196244 0.198694 0.175873 -0.248277 0.360330 -0.469523 0.265342 0.302318 -0.032200 0.512156 0.085611 -1.129116 -0.046833 0.492788 0.706734 0.068066 -0.096686 -0.138550 0.065142 -0.204178 -0.131940 0.196731 0.053027 -0.287954 0.514066 -0.190038 0.148064 0.155749 -0.380947 0.111508 -0.097931 -0.467308 -0.285208 -0.144177 0.688638 0.148345 -0.044253 0.280533 0.301161 -0.330254 -0.443428 -0.500590 0.179388 0.328207 0.104522 -0.158865 -0.283391 0.556703 -0.327529 0.030608 -0.424176 0.343191
dxe5 0.396743 0.078131 -0.161667 -0.577656 -1.178366 -0.329305 0.133419 0.132933 -0.007000 0.397822 0.305558 -0.371935 0.251357 -0.203680 -0.017256 -0.286726 0.657437 -0.275614 0.232643 0.103943 -0.302636 0.389772 -0.247626 0.011925 -0.015277 -0.585138 -0.863740 -0.005877 -0.841030 0.054389 -0.121209 0.215185 -0.798526 -0.009095 0.117075 -0.143937 -0.247394 -0.487923 0.376193 -0.674339 0.163997 -0.392736 0.198784 -0.616463 -0.178950 -0.362364 0.995906 -0.713899 0.224587 -0.479308 0.158970 0.413790 0.010224 -0.116814 0.066879 0.047670 0.497316 0.533159 -0.024805 -0.440618 0.021389 1.700544 0.396663 0.337905 0.269152 -0.060657 0.462983 0.196909 -0.311716 -1.112642 0.142631 -0.726265 -0.110975 -0.129165 0.397717 0.709395 0.228138 -0.158594 -0.115848 -0.009370 -0.327272 -0.759577 -0.630673 0.055446 0.565747 0.299338 0.475657 -0.529639 0.240636 0.077420 -0.363295 -0.094941 -0.172550 -0.193416 -0.276937 0.081771 -0.383988 -0.051708 -0.159618 0.905917
Rb1 0.077590 0.385628 0.257951 0.320485 0.169297 0.107688 -0.010592 -0.261312 -0.337556 -0.098387 0.384320 -1.305259 -0.308037 0.718012 0.042846 0.594837 0.364224 -0.081301 0.733084 -0.298046 0.161397 0.073089 0.421246 -0.147888 -0.417269 -0.403927 -0.077619 0.416236 -0.263569 0.072752 0.285321 -0.323545 0.109434 -0.177204 -0.207720 -0.375311 0.124647 -0.122628 -0.245299 0.632402 -0.049792 -0.268393 -0.068727 0.176024 0.189726 -0.310370 0.706664 -0.511313 -0.194975 0.702904 -0.148469 -0.259854 0.286285 0.174788 0.374585 -0.192098 -0.360960 -0.096880 0.071154 -0.851901 -0.274607 0.086208 -0.317190 -0.288065 0.020023 0.343059 0.028045 -0.131673 0.097916 0.163300 -0.437275 -0.008118 0.324276 -0.253750 0.001557 0.834947 -0.549530 0.357075 0.044022 -0.166670 -0.254791 -0.006559 -0.329707 -0.466507 0.137389 0.007059 -0.146801 0.087396 -0.027182 0.619044 0.230605 0.068482 0.010212 0.037448 0.215242 0.340956 -0.071333 -0.123620 -0.056239 0.233734
Qd7 0.075076 0.092960 0.131473 -0.130391 0.140625 0.094193 -0.127733 -0.280202 -0.379687 -0.199912 -0.263138 -0.214866 0.231684 0.175540 0.302115 0.383311 0.096098 0.459557 -0.114681 -0.314986 0.504836 0.008088 -0.337944 0.188569 -0.221791 0.288454 -0.258315 -0.432579 -0.104951 -0.463626 -0.071267 0.037647 0.376558 0.331791 -0.098999 0.017206 0.029156 0.434368 -0.340926 -0.088865 0.584119 -0.279357 -0.090700 -0.928303 0.141397 -0.038213 1.157752 -0.388059 -0.541383 0.226721 0.136683 -0.299167 0.378419 0.237398 -0.004328 -0.369643 0.023902 0.353024 -0.169503 -1.151047 0.263052 0.846767 0.216185 -0.231217 0.110310 -0.204353 -0.775555 0.155531 -0.050654 -0.677980 0.029213 0.526480 0.695465 0.151659 -0.106553 -0.074613 0.247008 0.046965 -0.051998 -0.649028 0.094524 0.238837 -0.516276 -0.107460 0.105937 0.368344 -0.626931 -0.048665 -0.017484 -0.113809 0.176468 -0.449177 -0.116823 0.139384 -0.569548 0.037688 -0.513722 0.183251 -0.354300 0.076326
Qb6 0.576071 -0.031265 0.463151 -0.022177 0.035412 -0.331373 -0.445444 -0.182937 0.023943 0.356135 0.392849 0.057985 0.148741 0.146177 0.138508 0.205799 -0.324169 -0.069582 0.076007 -0.013152 -0.145603 0.791140 0.160396 -0.169571 -0.438687 0.423874 -0.268174 0.092375 0.062660 0.238410 0.085696 -0.178491 0.095397 -0.309638 0.169234 -0.177368 -0.019010 0.183586 -0.037976 0.028758 -0.153739 -0.676208 0.469968 -0.763520 -0.485816 0.491239 0.670095 -0.930499 -0.260697 0.461027 -0.621279 -0.117995 0.109410 -0.334763 -0.175227 -0.272652 0.317917 0.093410 0.536612 -0.598572 -0.502475 0.763545 0.204072 0.104378 0.395474 0.167408 0.109736 -0.112009 -0.210666 -0.200256 -0.143901 -0.155718 0.579069 0.220860 -0.380709 0.174772 -0.207980 0.167336 -0.329564 -0.442995 0.017494 -0.185931 -0.151163 -0.048263 -0.040169 0.655575 -0.328423 0.171906 -0.274118 0.000719 0.343567 -0.281782 -0.107290 0.168959 -0.232145 -0.680482 -0.851232 -0.167377 -0.180867 0.471815
Bc4 0.700412 -0.117263 0.008855 0.017839 0.091654 -0.211367 -0.255201 0.305459 -0.061900 0.256538 -0.093186 -0.746509 -0.070125 0.104978 0.326231 -0.062353 -0.292952 -0.507230 -0.475746 -0.277036 0.059456 0.681969 0.129731 -0.481269 0.057986 -0.372793 -0.497847 -0.002728 -0.203551 -0.089609 -0.227273 0.309192 -0.027782 -0.040277 -0.378116 -0.384574 0.256548 0.006788 -0.272109 -0.204929 0.076486 -0.295577 -0.002299 0.133827 0.076143 0.266174 0.640905 -0.535385 0.323448 0.189255 -0.059336 -0.189506 0.375242 -0.215638 0.216855 0.287358 0.003084 0.315205 0.417754 -0.861587 -0.011641 0.752362 0.196238 0.221068 0.120836 0.077322 0.127150 -0.177741 -0.209027 0.382048 0.325821 -0.354188 0.374925 0.122038 0.109718 0.164625 -0.366698 -0.064680 -0.235233 -0.023001 0.379360 -0.069646 0.504292 0.203937 0.461557 -0.373052 0.115612 0.135717 0.042869 -0.438268 0.071625 0.413715 0.368200 -0.301517 -0.137664 0.040518 -0.191628 0.290703 0.195944 -0.205798
Bf5 0.136347 0.578541 0.007938 -0.195633 -0.119342 0.275462 -0.260532 0.120257 -0.749834 0.108178 -0.375054 -0.454742 -0.477356 0.084758 -0.133896 -0.893478 -0.020750 -0.550752 -0.022993 -0.360966 0.058548 0.144163 -0.209544 -0.006522 0.480856 -0.531235 0.065814 0.150278 -0.269726 0.101906 -0.253933 0.214224 0.126750 0.225539 0.313461 0.265505 -0.423801 0.349144 0.445972 -0.097471 0.347876 -0.351057 0.062194 -0.201842 -0.160881 0.184160 0.824239 -0.584673 -0.113383 -0.050258 0.225950 -0.407551 0.052968 -0.609837 0.563719 0.074537 0.430864 0.164804 0.607759 -0.877004 -0.428007 0.674634 -0.166558 0.234139 -0.227749 0.259034 -0.511978 0.086899 0.216700 0.194002 -0.018269 0.184783 0.043217 0.302140 0.342477 -0.142831 -0.619468 0.141395 0.260163 -0.053652 0.117612 0.153013 0.255723 -0.156283 0.642105 0.251888 -0.546546 0.364531 0.059869 -0.425983 -0.042647 0.461305 0.022169 0.155929 -0.025099 -0.055009 -0.459528 0.238018 -0.494552 0.342644
Nb6 0.353405 0.138665 -0.571586 0.023979 -0.192855 -0.216194 -0.144085 -0.346141 -0.466932 -0.512246 0.031530 0.033337 0.035245 0.469401 0.182642 -0.272467 -0.582164 0.071197 -0.295802 -0.024592 -0.564889 0.727192 -0.029884 -0.551319 0.255798 0.110577 -0.497724 -0.012917 -0.347079 0.459744 -0.302610 -0.096094 0.010793 -0.029987 -0.131643 -0.543695 0.376347 0.410124 0.004991 -0.156433 -0.153464 -0.366835 0.148376 -0.050905 0.022749 -0.043214 1.223167 -0.669967 -0.281634 -0.193260 -0.320119 0.017783 0.347667 0.312858 0.130578 0.218548 0.184229 0.354854 0.186039 -0.994566 -0.209417 0.404165 0.281085 0.131836 -0.080221 0.237045 -0.097516 -0.242828 -0.126152 -0.323356 0.711335 -0.727198 -0.116913 -0.032975 -0.683062 -0.043514 -0.290489 0.308795 0.251800 -0.391733 -0.259607 -0.416748 -0.024529 -0.316023 0.176376 -0.001808 0.021812 0.083122 0.030175 0.279174 0.184374 0.621623 0.162834 -0.275423 0.157929 -0.021473 -0.750675 -0.731456 -0.548059 -0.219199
Bg4 0.649499 -0.232276 -0.324688 0.248718 -0.654698 0.263162 0.072511 -0.176665 -0.255779 0.105533 -0.077928 -0.419933 0.314270 -0.059583 0.330877 -0.476865 -0.255103 -0.186960 -0.343718 -0.227132 0.010106 0.256874 0.264118 0.024526 0.027595 -0.212436 -0.156746 -0.001685 0.279108 -0.016657 -0.181891 0.211724 0.176995 0.243846 -0.078381 -0.175349 -0.073753 0.244395 0.522018 -0.165703 0.066359 -0.257129 -0.198488 0.117577 0.266419 -0.208494 0.662314 -0.556010 -0.142629 -0.176304 -0.678331 -0.550765 -0.033093 -0.546119 0.413490 0.376278 0.224167 0.864256 -0.073171 -0.883506 -0.342978 1.135647 0.177888 -0.222042 0.055271 0.566913 0.048104 0.093771 0.009114 -0.459170 -0.319900 -0.066243 0.247176 0.074192 0.704567 -0.235348 -0.357944 0.172131 0.513045 -0.154156 0.200885 -0.307142 0.186958 0.415194 0.167280 0.393100 -0.867537 0.230954 0.072678 -0.031902 -0.152215 0.616473 0.074231 -0.045282 -0.035206 0.075512 -0.311649 0.369588 -0.591583 0.351770
Nxe5 -0.128889 0.207275 0.430081 -0.793738 -1.094056 -0.861954 0.181944 -0.210387 -0.238684 0.469499 -0.098398 -0.379742 0.341108 -0.495584 -0.014406 -0.570201 0.455870 -0.222520 0.328905 -0.217893 -0.130436 0.403157 0.011149 -0.188320 -0.190133 -0.445536 -0.506721 0.357171 -0.895291 0.385209 -0.064496 0.043628 -0.848699 0.254622 0.268055 0.128972 0.023974 -0.646429 0.435045 -0.170917 0.008658 -0.089378 0.347869 -0.550012 -0.361482 -0.090723 0.783208 -0.718126 0.178498 -0.558152 0.199141 0.038731 0.693726 -0.536554 0.105912 0.296781 0.162750 0.461296 -0.403989 -0.031061 0.317035 1.218705 0.706092 0.768801 0.622111 0.080153 0.318595 0.080005 -0.717029 -1.419747 -0.307790 -0.472236 0.090993 -0.218933 0.183289 0.609305 -0.434319 -0.124570 0.752354 -0.044500 -0.133280 -0.722530 -0.422745 -0.089553 0.547349 0.131668 0.617982 -0.158495 -0.194534 0.282735 -0.404257 -0.476797 -0.093408 0.184837 0.273103 -0.054906 -0.164387 -0.432966 -0.235383 0.767371
Bxf6 0.267991 0.293538 0.437227 -0.124571 0.137422 -0.014187 -0.118374 0.194151 -0.020010 0.253769 0.323607 0.316280 0.059912 0.350015 0.407345 -0.310203 -0.683008 0.182597 0.067060 -0.388793 -0.820036 0.422257 -0.286374 1.119267 0.160283 -0.749476 -1.035394 -0.308076 0.398454 0.060355 0.200487 0.831626 -0.860288 -0.698536 0.949587 -0.245180 -0.007053 -0.001815 0.305496 -0.158661 -0.285816 -0.070959 0.365222 -0.775675 -0.248561 0.879922 1.470525 0.137499 -0.488336 0.698422 -0.805161 -0.346693 -0.286510 0.309375 0.168354 0.019775 -0.492321 -0.048534 0.272754 -1.070678 0.034208 0.856657 0.397973 0.228598 -0.104395 -0.414877 0.228180 -0.236774 0.808916 -0.363156 0.023846 -0.445972 0.701144 0.177219 0.137555 -0.169156 -0.832734 0.332825 0.268992 0.007544 -0.142101 0.234293 -0.078500 0.130412 0.265733 0.045404 -0.567916 -0.139787 -0.201343 -0.398306 0.319979 -0.672758 0.085563 0.362628 0.081276 -0.144243 0.454946 0.831906 -0.279656 0.110422
Kh8 0.456665 0.082841 -0.269843 0.257501 -0.149605 0.222185 -0.517374 0.433385 -0.749299 -0.070728 -0.360274 0.478561 -0.255798 0.999248 -0.274452 0.317226 0.207475 0.054305 -0.340846 -1.009239 0.487012 -0.062912 0.111859 0.024687 0.208595 -0.095511 -0.425573 -0.017372 -0.493100 -0.541924 0.909815 0.943761 -0.161898 0.081661 -0.284511 -0.001104 0.894647 0.325834 -0.416692 -0.359011 0.832478 1.029806 0.198205 -0.335647 -0.258958 -0.133462 1.128105 0.192338 0.573673 0.246699 -0.096942 0.056127 -0.372375 -0.338314 0.161668 -0.497337 0.140827 0.096080 0.502887 -0.692286 0.879475 0.783791 0.606810 0.084629 0.663528 0.098638 0.334494 -0.598705 -0.281768 -1.086519 -0.059050 0.453581 -0.766327 0.209375 0.246682 -0.874899 -0.240701 -0.246497 -0.366141 -0.371479 0.239311 -0.191094 -0.459647 0.115531 0.183538 -0.198180 0.283263 0.292732 -0.290052 -0.076584 -0.041701 0.095160 0.143074 0.432421 -0.185783 -0.798945 -0.431986 1.384542 0.280327 -0.038624
Ne7 0.469891 -0.350770 0.149821 -0.206380 0.080288 0.159729 0.065504 0.032766 -0.546620 0.110613 -0.108787 -0.652152 -0.100373 0.307504 0.382052 -0.180057 -0.068013 0.397148 -0.392038 -0.358012 -0.010612 0.665805 -0.460597 0.032253 -0.447124 -0.198166 -0.033827 -0.789478 0.052002 -0.892236 0.105668 0.276217 -0.067247 0.291016 0.173518 -0.059482 0.181526 0.713251 -0.020591 0.635627 -0.039418 -0.242855 -0.629945 0.180659 -0.365109 0.024115 0.668104 0.151971 0.149667 0.245790 0.243953 -0.184400 0.211908 -0.256365 0.321263 0.171726 -0.313066 -0.178922 -0.030352 -1.141763 -0.412495 0.696228 -0.156566 -0.065330 0.295626 -0.366237 -0.101753 0.302222 -0.048649 -0.236063 -0.061952 -0.351121 0.165182 -0.345872 0.081641 0.216617 -0.230028 -0.352912 -0.108074 -0.742783 -0.459178 -0.051417 -0.258141 0.339368 -0.629685 0.596243 0.277560 0.138879 -0.039447 -0.084024 0.059598 -0.320413 0.559930 -0.376872 0.278646 -0.109391 -0.349456 0.164652 -0.513028 0.191289
Rc7 0.029372 0.368315 0.462657 -0.334871 0.219782 0.125320 -0.047925 0.310846 -0.559472 -0.308424 0.739065 -0.025362 0.125182 0.608250 -0.216736 0.306470 -0.152390 0.065158 0.302273 -0.226357 -0.086728 0.590964 0.143866 -0.379072 0.108085 -0.158554 -0.222194 0.185164 -0.077848 -0.179339 0.040975 0.346354 0.389206 0.051295 0.045022 -0.285924 0.541126 0.160892 -0.303490 0.307408 0.038331 0.456065 0.166695 -0.034898 -0.071350 -0.380227 -0.326703 -0.464672 -0.410666 0.474440 -0.216046 -0.070164 0.182866 -0.054449 -0.044348 0.541844 -0.225110 0.124133 0.267666 -0.355775 0.080386 0.047212 0.532449 0.221159 -0.179900 0.201651 -0.249404 0.062688 -0.155598 -0.466385 -0.218220 0.259703 -0.113966 0.024403 -0.120115 -0.001696 -0.550259 -0.001197 -0.098941 0.245931 0.094998 -0.256087 0.725879 -0.368550 -0.322558 -0.396326 0.214083 -0.157981 -0.234862 -0.019622 0.242110 -0.022735 0.592030 -0.304393 -0.512446 0.228167 -0.245882 -0.731129 -0.286065 0.491087
Kh7 0.530232 0.334368 0.087932 -0.408350 -0.835058 0.048158 -0.176193 0.322589 -0.320131 0.337189 -0.078617 0.664865 0.215844 0.707632 -0.271594 0.740883 -0.335890 -0.050519 -0.553733 -0.983035 0.447986 -0.324187 0.762954 -0.326299 0.264053 -0.074743 0.402670 -0.172798 -0.661864 -0.355967 0.595391 0.406106 0.448151 -0.019390 -0.364630 0.155745 1.171931 0.026858 -0.033586 -0.053478 0.776790 -0.116740 0.106314 -0.406438 0.030791 -0.302447 0.637634 -0.027247 0.202732 0.654174 -0.057406 -0.181912 -0.517444 -0.319431 -0.785173 -0.375656 0.087287 -0.460685 -0.097309 -0.566545 0.946160 0.035648 0.633357 0.070636 0.351059 0.455077 -0.407205 -0.481005 0.057944 0.483795 -0.343063 0.614415 -0.297482 0.097360 0.691312 -0.399393 0.111051 0.220849 0.015639 -0.602834 0.146161 -0.482232 0.268655 -0.325040 -0.464976 -0.241395 0.886535 -0.169109 -0.217568 0.096892 -0.044899 -0.695490 -0.138386 0.102083 0.045838 0.066769 -0.488388 1.292420 0.634766 0.134230
Qb3 0.414549 0.271094 0.114265 0.280744 0.073556 0.301018 -0.235910 -0.147315 -0.348636 -0.112500 -0.251962 -0.085779 -0.147529 0.013901 0.321426 0.140613 -0.172248 0.322940 0.039272 -0.542086 -0.093493 0.523728 0.033401 -0.262203 -0.570012 0.154862 -0.163908 -0.322490 -0.522169 -0.140689 -0.008481 0.138870 0.304240 -0.359410 0.205689 -0.500304 0.184815 0.190002 0.319378 0.010285 0.229633 -0.324468 0.377139 -0.616908 0.025606 0.188909 0.698154 -0.768119 -0.041860 -0.030035 -0.372820 -0.307637 0.426990 0.274602 -0.057951 -0.194747 0.315010 0.253138 0.538582 -0.957284 0.159270 1.300580 0.166043 0.144752 0.157181 0.261160 -0.109804 -0.097598 0.023242 -0.431964 0.070288 0.149779 0.519371 0.338331 -0.450223 -0.008119 -0.266454 0.704952 0.713617 -0.609332 0.090156 -0.227222 0.060210 0.125992 0.086559 0.314515 -0.621445 0.064748 0.271531 0.260082 0.446205 -0.095832 -0.221535 0.080921 -0.027977 -0.593189 -0.949995 -0.388049 -0.097402 0.004803
Rd7 0.145168 0.670342 0.131739 -0.590898 0.168802 0.160433 0.047072 0.419729 -0.494714 -0.042352 0.326514 -0.017800 0.372606 0.684154 0.067504 0.075582 -0.328102 -0.153354 0.479294 0.094140 -0.031387 0.586043 0.291449 -0.635323 -0.166450 0.101423 0.012494 -0.175356 0.378012 -0.084696 0.095409 0.602979 0.043439 -0.223824 -0.126126 0.224332 0.509880 0.115748 -0.063724 -0.246961 -0.162157 0.320892 -0.004880 0.490013 -0.079366 -0.209882 -0.163491 -0.098540 -0.178447 -0.016305 0.034620 -0.026929 0.073314 0.204551 -0.197714 0.359128 -0.605697 0.082598 0.052812 -0.349516 0.499106 0.136512 0.253512 -0.302362 0.113444 -0.220394 -0.242812 0.238878 -0.076706 -0.083126 -0.237050 0.582354 -0.047081 0.123383 0.222180 0.250804 -0.847693 0.134179 -0.087792 -0.079830 0.133925 -0.184629 0.065311 -0.264689 -0.536643 -0.463115 -0.293644 -0.212368 0.191563 -0.060419 0.254700 -0.524444 0.722280 -0.043324 -0.292670 -0.190395 0.029724 -0.413493 0.146765 0.647955
Kf6 0.231781 0.069176 0.297521 -0.229413 -0.221387 0.142444 -0.173100 0.738670 -0.077297 0.161092 0.373820 -0.608553 -0.115059 -0.697511 -0.184998 -0.595387 0.074184 -0.736208 0.144406 -0.153520 0.388552 0.741520 0.843369 -0.152453 0.353189 -0.290475 0.740347 0.119383 -0.554213 0.092492 -0.096616 0.150109 0.754716 1.028182 -0.324146 -0.103008 0.747292 0.035519 -0.043566 -0.121381 -0.079649 0.709830 -0.216564 0.835529 0.125645 -0.833769 -0.666489 -0.093817 0.153115 0.446691 0.543334 -0.226587 0.332474 -0.623964 0.330502 0.271903 0.791041 -0.110699 0.177150 -0.516845 0.380557 -0.941081 -0.191069 -0.392752 -0.288747 0.141881 -0.350378 -0.054775 -0.557538 0.533129 -0.455026 0.047364 0.054958 -0.005995 0.503835 0.346041 -0.023922 -0.227232 -0.021521 -0.144127 0.448146 0.396606 -0.046696 -0.360494 0.184018 -0.343298 0.657383 0.413107 -0.039846 0.229271 -0.334039 -0.070147 0.538729 -0.968703 -0.367537 0.385584 0.317383 -0.303971 -0.000264 -0.021774
Kg8 0.495207 0.814330 0.477830 -0.315387 -0.098045 0.324980 0.164106 0.131565 -0.451743 -0.039893 0.076056 0.513661 0.545277 0.199013 -0.040845 0.109131 -0.057164 -0.073528 0.622660 -0.585750 0.216938 -0.210918 0.913527 -0.273827 0.632313 0.024332 0.234085 -0.174982 0.008401 -0.324462 0.339116 0.361864 0.240079 0.197759 -0.208792 -0.405563 1.070547 -0.591233 0.071233 -0.678282 0.493005 0.808656 -0.015490 -0.235764 -0.385930 -0.295208 -0.013821 0.278081 0.409460 0.749731 0.439165 0.123560 -1.050917 -0.287646 -0.373262 0.227755 0.065732 -0.032052 0.440558 -0.404169 0.247756 -0.075930 0.635296 0.103296 0.326137 0.592366 -0.574634 -0.407455 -0.945596 -0.765232 -0.341408 0.739425 -0.517938 0.482072 0.252642 -0.863381 -0.387141 0.343712 -0.397836 -0.323032 -0.011140 0.509704 -0.638969 -0.285010 0.277120 0.083388 0.600678 0.258432 -0.274682 -0.283745 0.108208 -0.533025 -0.283312 -0.032654 -0.292762 -0.752691 -0.084715 0.673097 0.223874 0.218332
