O-O 1.910155 -0.786424 0.215541 -0.347728 -0.039642 0.193616 -0.490790 -1.155636 -1.286595 0.962579 -0.189467 -1.654263 -0.182417 0.216925 -0.017999 -0.299861 -0.463900 0.465231 -0.099543 -0.421428 -0.500685 0.495174 -0.280296 0.125286 -0.190653 0.265228 -0.743823 -0.204294 -0.259337 0.275829 0.010274 0.127143 -0.796583 -0.044249 0.223587 -0.490483 -0.022387 0.025182 -0.322510 -0.188380 -0.051444 -1.601984 0.321991 -0.440188 0.074534 0.231453 2.268982 -1.298170 0.199299 0.116749
Nf6 1.252999 -0.057877 0.391655 -0.289603 -0.216461 0.162765 -0.152784 -0.784698 -1.300878 0.648071 -0.006224 -0.698207 -0.170991 -0.223311 -0.107101 -0.606889 -0.334337 0.260945 -0.161925 0.152825 -0.657664 0.321968 0.567718 -0.201084 0.697659 -0.237901 -0.335535 -0.152193 0.011306 0.198511 0.142817 0.385834 0.116963 0.256780 0.400049 0.118419 -0.141676 -0.000951 -0.074280 -0.448610 0.256464 -0.644757 0.556406 0.159543 0.246224 0.030690 0.915343 -0.346012 0.128108 0.273841
Nf3 1.034274 0.000223 0.335822 -0.616277 -0.154597 0.162515 0.159325 -0.650070 -1.323127 0.983795 -0.261079 -0.820924 -0.346648 -0.601854 0.058720 -0.535748 -0.196417 0.399256 0.076902 -0.103935 -0.347879 0.252367 0.450571 -0.086234 0.666025 -0.339061 -0.373428 -0.107411 -0.412017 0.180364 0.081795 0.088439 0.083927 0.212152 0.304540 0.263948 -0.127237 0.203881 -0.009626 -0.336573 0.128262 -0.601942 0.453793 0.233519 -0.021980 -0.062468 0.795545 -0.496656 0.221748 0.152624
d4 1.297787 0.085085 0.468814 -0.537445 -0.136020 0.182369 -0.057722 -0.541110 -1.262789 0.885900 -0.359908 -0.833241 -0.201484 -0.690693 0.095127 -0.425198 -0.484300 0.267024 -0.111819 0.060544 -0.297786 0.271431 0.459341 -0.019964 0.727176 -0.401523 -0.499010 0.114470 -0.251817 0.094688 0.256251 0.242109 0.198132 0.301989 0.239208 0.047212 -0.123846 0.248517 -0.052658 -0.300413 0.305017 -0.470876 0.676126 0.496261 0.050155 0.135034 0.470154 -0.460609 0.469163 0.096526
Nc3 1.227657 -0.028604 0.560227 -0.229230 -0.062390 0.330953 -0.052209 -1.012148 -1.517558 0.406900 -0.329682 -0.938681 -0.102715 -0.230740 0.195908 -0.700017 -0.222796 0.345674 0.161274 -0.076883 -0.593077 0.383601 0.342014 -0.345760 0.473316 -0.055749 -0.272212 -0.227235 -0.102334 0.319608 0.313599 0.604740 -0.157577 -0.219355 0.308364 -0.178739 0.014067 -0.072504 -0.009364 -0.205801 -0.137933 -0.641402 0.467582 0.324714 0.233505 -0.116237 0.857751 -0.751478 0.062178 0.256535
d5 1.496485 -0.120695 0.463170 -0.009744 -0.121341 0.309544 -0.184989 -0.545489 -1.497713 0.495128 -0.208736 -0.747251 -0.443730 -0.292792 -0.065820 -0.351642 -0.430316 0.479876 -0.068424 -0.029066 -0.364861 0.555351 0.337491 -0.060023 0.192470 -0.200171 -0.417592 -0.206477 -0.270152 0.332556 0.285101 0.362525 0.003746 -0.032064 0.360400 -0.211039 -0.281228 0.152729 -0.101179 -0.503714 0.115776 -0.819264 0.422777 0.329107 0.189797 0.035617 0.969934 -0.572720 0.144566 0.027521
e4 1.130241 0.266935 0.455828 -0.266457 0.008662 0.215494 -0.135190 -0.523421 -1.346170 0.598996 -0.212435 -0.654612 -0.310854 -0.236971 -0.003002 -0.616938 -0.257817 0.449780 -0.150485 -0.082528 -0.439038 0.301415 0.606276 0.045678 0.540314 -0.251580 -0.235641 0.038547 -0.285670 0.097201 0.176332 0.523167 -0.082941 0.036440 0.454472 -0.083326 -0.039029 0.079538 0.001108 -0.277085 0.352690 -0.373201 0.303354 0.299380 0.078858 -0.045707 0.769478 -0.488722 0.179644 0.066413
c4 0.988645 0.179973 0.546217 -0.456536 -0.094836 0.083665 0.237342 -0.429872 -1.299332 0.646152 -0.147173 -0.504172 -0.528540 -0.376863 -0.260863 -0.467627 -0.384467 0.356982 -0.127465 -0.091948 -0.197303 0.505417 0.597420 -0.096505 0.266591 -0.272508 -0.298303 -0.166137 -0.068528 0.337321 0.397584 0.313148 0.109885 0.162287 0.238598 -0.028596 -0.112549 -0.085693 -0.139168 -0.206648 0.024620 -0.658388 0.604126 0.477461 0.117476 -0.107609 0.541906 -0.641966 0.237991 0.016671
c5 1.225427 -0.182576 0.434611 -0.323134 -0.279779 0.081955 0.026231 -0.451132 -1.252982 0.813765 -0.145627 -0.947904 -0.314422 0.097187 -0.023530 -0.107378 -0.046774 0.371345 -0.021104 -0.259347 -0.259782 0.379373 0.599779 0.232922 0.461345 -0.307637 -0.262523 -0.101051 -0.012570 0.296061 -0.109417 0.193420 -0.234946 -0.034699 0.327146 -0.233408 -0.241564 0.404679 0.078210 -0.050319 -0.224738 -0.939383 0.569878 0.409323 -0.079982 0.166055 0.741099 -0.762824 0.111239 -0.055121
e5 1.366846 0.111527 0.355126 -0.648064 -0.113667 -0.155590 -0.182676 -0.506847 -1.093242 0.804018 -0.176080 -0.750039 0.018444 0.140940 0.101894 -0.351436 -0.022687 -0.103805 -0.025068 0.031852 -0.438507 0.598436 0.202735 0.081770 0.134527 -0.212275 -0.474289 0.285228 -0.297524 -0.008424 0.124465 0.047254 -0.449455 0.017833 -0.175805 0.009962 -0.200074 0.184791 0.067249 -0.323089 -0.526638 -0.431798 0.033462 0.177878 -0.192921 0.058070 1.005019 -0.373047 -0.138332 0.201112
Nc6 1.245125 -0.251195 0.181934 -0.539211 -0.316791 -0.135353 -0.100893 -0.797507 -1.202876 0.899084 -0.344555 -1.150295 -0.180532 -0.462079 0.697771 -0.298499 -0.516750 0.217257 -0.029500 0.074186 -0.127239 0.435444 -0.124553 -0.157863 -0.033285 -0.183487 -0.556549 0.087188 -0.080307 -0.050573 0.229655 0.174397 -0.332048 -0.159270 -0.403481 -0.279144 0.312213 0.402872 -0.169963 0.091330 -0.142600 -0.474761 0.054822 0.316921 -0.295987 0.128027 0.984349 -0.719642 -0.130302 0.490454
e6 1.568076 0.057928 0.793633 -0.456258 0.178547 0.390826 -0.237192 -0.968273 -1.242143 0.794879 -0.317514 -0.875353 -0.336118 -0.557872 -0.237331 -0.424326 -0.365115 0.336151 -0.032900 -0.026921 -0.328116 0.412961 0.356484 -0.448545 0.622073 -0.148039 -0.395548 -0.375183 -0.226934 0.340778 0.019060 0.030727 0.216768 0.273462 0.251961 -0.188066 -0.042097 -0.024727 -0.046173 -0.434774 -0.131402 -0.751567 0.467363 0.458874 0.308153 -0.041763 0.838005 -0.615000 0.453529 -0.242046
g6 1.009946 0.162066 0.423289 0.129567 -0.156424 0.209240 0.037940 -0.115893 -1.116173 0.615054 0.015550 -0.281623 -0.009061 0.001908 -0.104441 0.079095 -0.296883 0.058767 -0.096989 0.124485 -0.319299 0.608331 0.151445 -0.132356 0.139005 -0.050248 -0.277414 -0.105035 -0.393579 -0.079560 0.317452 0.060737 0.322170 0.726235 0.167384 -0.245620 0.169030 0.411116 0.048040 -0.118645 -0.045023 -0.339650 0.320170 0.235431 0.164854 -0.451093 0.969460 -0.213593 -0.131051 0.122354
Be7 0.797967 -0.074335 0.137715 -0.673103 0.043186 0.336094 -0.051571 -0.772632 -0.824490 1.054956 0.497897 -0.893636 -0.033109 0.036740 0.357749 -0.104183 -0.622809 0.501817 0.460946 0.133697 -1.086845 1.033116 -0.497207 0.141401 -0.453749 -0.044063 -0.179429 -0.326142 0.110116 0.294528 -0.032968 0.067137 0.041819 0.565067 0.220343 -0.477813 0.465486 0.213115 -0.145343 -0.054632 -0.233164 -1.115410 0.281780 -0.112941 0.116166 -0.263817 1.398810 -0.470332 0.118333 0.062750
d6 1.517254 0.103205 0.216860 -0.920313 -0.317571 -0.075628 -0.126215 -0.775358 -1.550160 0.801396 -0.240080 -1.093229 -0.213115 -0.550165 -0.096992 -0.782019 -0.397189 0.532010 0.200103 -0.045264 -0.290555 0.216065 0.591405 0.151613 0.562750 0.189124 -0.740575 -0.137237 -0.458281 -0.106213 0.443229 0.337496 -0.145091 -0.305746 0.061190 -0.078438 -0.263256 -0.036885 -0.513869 -0.217158 -0.195047 -0.583761 0.597937 0.172053 0.464428 0.253330 1.076053 -0.148505 -0.063587 0.266768
a6 1.233236 -0.176215 0.037424 -0.614792 -0.147342 0.143037 -0.107258 -0.427264 -1.168364 0.656513 0.523708 -1.004300 -0.205092 0.135916 0.418061 -0.609961 -0.311533 0.357647 0.171814 0.387923 -0.581375 0.523301 0.316145 -0.243605 0.050969 0.082621 -0.726790 0.219729 -0.191211 0.016296 0.231707 -0.163298 -0.078808 0.052702 -0.342505 0.085505 0.147752 0.376285 -0.729637 0.037882 -0.054682 -0.791631 0.611653 0.226709 0.572884 0.307526 0.656068 -0.711810 -0.329145 0.001615
b5 0.710751 -0.126754 0.476321 -0.209191 0.126837 -0.094858 0.058493 -0.251808 -1.016082 0.418256 0.694333 -0.396014 -0.097748 0.844166 -0.007760 -0.432784 -0.223490 0.334185 -0.205485 0.283602 0.047871 0.639385 0.207446 -0.458219 -0.516018 -0.126342 -0.381976 0.249053 -0.116869 0.325317 0.306384 0.146085 -0.497917 0.005536 -0.195069 -0.138860 -0.099394 0.297020 -0.186585 0.095602 -0.341503 -0.567921 0.269404 0.431398 0.596515 0.271528 0.775426 -0.493900 -0.289133 0.361571
a4 0.554866 0.067652 0.411102 -0.222004 0.103401 -0.028580 0.243721 0.146180 -1.008878 0.374805 0.687215 -0.646269 -0.054113 0.795733 -0.017078 -0.162053 -0.291319 0.066914 -0.023545 0.013556 0.119948 0.447534 0.251938 -0.228473 -0.404747 -0.011140 -0.108284 0.060983 -0.269489 0.314389 0.142594 0.071021 0.001437 0.139922 -0.307250 -0.247613 -0.030410 0.380754 -0.291111 0.262003 -0.347612 -0.447439 0.232563 0.423788 0.202537 -0.159148 0.687623 -0.585654 -0.283214 0.294843
a5 0.422523 -0.079693 0.161524 -0.019414 0.052099 0.097424 0.168737 0.273168 -0.786768 0.351280 0.545818 -0.762239 -0.038478 0.846927 -0.069735 -0.003784 -0.145212 -0.010710 -0.001439 0.180907 0.116920 0.416951 0.285295 -0.010849 -0.201642 -0.060715 0.113997 -0.079834 -0.120971 0.207953 0.062254 0.096111 -0.234050 0.012940 -0.161763 -0.242391 -0.201129 0.512905 -0.173662 0.408685 -0.090091 -0.617374 0.155689 0.451066 -0.116902 -0.198891 0.469131 -0.825297 -0.179998 0.378197
f4 1.005970 0.339862 -0.136040 -0.102993 -0.019962 -0.172895 -0.496190 0.188327 -0.703347 0.465993 0.434575 -0.529437 0.064001 0.565221 0.084701 -0.129530 0.153706 -0.721482 0.118222 -0.150218 -0.035820 0.499837 0.030796 -0.074914 -0.010424 -0.075291 0.254057 0.049600 -0.381296 0.071970 0.294775 -0.099579 -0.699778 0.153345 -0.325053 0.487344 0.253905 0.406713 0.085317 -0.254008 -0.311895 -0.546508 -0.162892 0.131798 -0.159167 -0.022519 0.741672 0.015352 -0.663910 0.151826
b4 0.412096 -0.381134 0.356870 0.200546 0.308326 -0.122993 -0.104091 0.184997 -0.899611 0.476825 0.730215 -0.734724 0.019973 0.981465 0.113442 0.159072 -0.298879 -0.259946 0.160021 0.034640 0.203108 0.510485 0.074177 0.166627 -0.296449 -0.094295 -0.106973 -0.033095 -0.230148 0.054421 0.176381 0.240961 -0.546375 -0.153516 -0.043974 -0.387224 -0.379015 0.700765 0.164280 0.045363 -0.392496 -0.571784 0.095469 0.365308 0.089124 0.015665 0.476184 -0.645891 -0.270740 0.717209
1-0 0.686715 0.196182 0.679907 -0.743001 0.315240 -0.144017 0.032015 -0.351654 -1.247670 0.216967 -0.384191 -0.019037 -0.266107 -0.666446 -0.138078 -0.514195 -0.529318 0.040779 0.047802 -0.296590 -0.292721 0.305911 0.953263 0.176733 1.001931 -0.471625 -0.195225 -0.118738 -0.618413 -0.281132 0.363959 0.524124 0.477983 0.356113 0.189256 0.010700 0.405351 0.051305 0.049981 -0.501166 0.602293 0.141532 0.668102 0.452537 -0.074444 0.620268 -0.001639 0.014593 0.301578 0.077569
f5 0.807505 0.515892 0.016570 0.053391 0.066021 -0.082123 -0.391566 0.371530 -0.403738 0.343085 0.474433 -0.398534 -0.230167 0.847720 -0.112876 -0.292002 -0.130562 -0.305677 -0.051773 -0.019022 -0.046538 0.325525 -0.319391 0.559935 0.037464 0.185869 0.264082 -0.272107 -0.114181 0.048789 0.506958 0.213583 -0.180427 0.176619 0.185020 0.131242 0.182735 0.275515 0.220247 0.115572 -0.228907 -0.500371 -0.169432 0.398515 0.193351 0.118036 1.049102 -0.064334 -0.287500 0.504288
Be3 0.911471 -0.176752 -0.086369 -0.193740 0.169736 0.187417 -0.103911 -0.352970 -0.736175 0.904770 0.241790 -1.011352 0.483658 0.307244 0.698258 0.384267 0.075809 -0.379269 0.162633 0.121705 -0.501490 0.609397 -0.140292 0.075251 -0.371540 0.586579 -0.194980 0.069819 -0.019097 0.185012 0.334075 0.120684 -0.461310 0.216691 -0.380492 -0.500181 0.642476 0.559180 -0.175697 -0.296760 -0.303882 -0.808959 0.154694 -0.027307 0.537021 0.119016 1.346581 -0.594686 -0.023078 0.068138
g3 1.005004 0.188840 -0.135899 -0.389432 -0.041161 0.237671 -0.013591 -0.377921 -0.853564 0.490106 0.324969 -0.574877 -0.271748 -0.288366 -0.058087 -0.397713 0.325084 0.227322 -0.322788 0.075494 -0.099410 0.629505 0.269434 -0.438435 0.393747 -0.438276 0.279408 -0.207704 -0.065227 -0.312384 0.303671 0.045741 0.222033 -0.163949 0.115248 0.108151 -0.195907 0.289483 -0.128503 0.061621 -0.222972 -1.105012 0.056791 0.270833 -0.106710 0.015620 0.548666 -0.433126 -0.033458 0.300857
Bd3 0.673949 -0.458488 0.211063 0.302615 0.302155 0.250363 -0.328868 -0.491210 -0.767992 0.354350 0.353010 -1.201579 -0.453089 0.643612 -0.306227 -0.716183 -0.038510 0.039085 0.114366 -0.103705 -0.263160 1.099831 -0.016628 0.377682 0.476714 0.058023 -0.638991 -0.036994 -0.251620 0.075168 0.025678 -0.129096 0.147335 0.366414 0.217334 0.298092 0.160532 -0.416420 -0.092098 0.793933 -0.260506 -0.732353 0.133118 0.001402 -0.151518 -0.040048 1.412227 -0.855064 0.332540 0.117411
h6 0.804401 0.016366 0.293769 -0.072879 -0.295474 0.437094 0.093830 0.137945 -1.010629 0.725759 0.089150 -0.576464 -0.052814 0.809913 -0.195976 0.226220 -0.082622 -0.085823 0.022870 -0.201632 -0.662641 0.721939 -0.339701 -0.085314 0.169543 -0.760708 -0.112452 -0.142221 -0.496233 0.498935 -0.150946 0.065822 0.204058 -0.101391 0.260666 0.181634 0.116478 0.189005 0.051721 0.327590 0.037749 -0.551040 0.530781 -0.245966 0.130002 -0.399660 1.179818 -0.330880 0.118126 0.206245
h4 0.558032 0.239561 0.025299 -0.072785 -0.064823 0.316585 0.044025 0.430512 -0.570785 0.252390 0.747526 -0.149394 0.050809 0.640756 0.086876 -0.110706 0.295546 -0.277711 0.145587 0.031416 -0.091832 0.448274 -0.019530 -0.349641 0.079230 -0.296470 0.567628 -0.303285 -0.678966 -0.010044 0.188723 -0.116646 0.258546 0.289859 -0.080760 0.211716 0.036478 0.473503 0.074410 0.368388 -0.247579 -0.502947 0.121621 0.319015 -0.140244 -0.319951 0.660417 -0.062316 -0.328078 0.605348
h5 0.395012 0.380598 0.265643 0.075858 -0.114552 0.164058 -0.000142 0.412587 -0.615450 0.377089 0.920746 -0.157311 0.297502 0.647804 0.147279 0.005994 0.110901 -0.516248 -0.132578 0.191279 -0.109934 0.231603 -0.134719 -0.173602 0.143661 -0.099103 0.413967 -0.112804 -0.403150 -0.198978 0.427817 -0.045357 0.276338 0.577400 0.129823 0.296665 0.302012 0.506998 0.327509 0.107454 -0.221961 -0.252604 0.080916 0.249202 0.090161 -0.465375 0.646146 -0.377408 -0.462160 0.292617
1/2-1/2 0.829704 0.294988 0.309514 -0.182324 -0.289226 0.248309 0.009055 -0.243613 -1.035444 0.637801 0.142777 -0.759843 -0.062924 -0.543732 0.011304 -0.485314 -0.355293 0.523295 -0.019159 0.415998 -0.284783 0.052429 0.836503 -0.384096 0.497668 -0.188390 -0.061560 -0.027666 0.215090 0.265156 0.175810 0.278178 0.203141 0.450771 0.184583 -0.067514 0.031271 0.087907 -0.005265 -0.147795 -0.005379 -0.302228 0.486177 0.600423 -0.268194 -0.098183 0.221884 -0.306055 0.237757 0.399624
cxd4 1.614879 -0.219657 0.112183 -0.844553 -0.262977 0.020652 0.015423 -1.149973 -0.829390 1.239210 -0.753105 -1.111248 -0.109880 -0.007935 0.344096 0.033129 -0.794877 0.523213 -0.127881 0.150735 -0.157119 0.601255 -0.514372 -0.294688 0.553392 -0.122204 -0.979140 0.599201 0.030525 0.086222 0.272163 -0.394726 -0.117007 0.233682 0.099534 0.288197 -0.030835 0.268433 0.081739 0.234478 0.084306 -0.884872 -0.123546 0.005257 -0.109822 0.801047 0.722091 -1.036638 0.284783 0.888270
c6 1.304847 0.037146 0.534930 0.022786 -0.168798 0.420763 -0.280464 -0.115453 -1.527254 0.118106 0.134416 -0.779496 -0.264714 -0.238373 0.039354 -0.262083 0.082302 0.363615 -0.422008 0.064864 -0.544490 0.307646 0.292723 -0.014284 0.132917 -0.553229 -0.248852 -0.291315 -0.418342 0.095516 -0.047567 0.441767 -0.043565 -0.195707 0.498844 -0.191410 -0.207623 0.197298 -0.033304 -0.275308 0.259442 -0.730006 0.289422 0.203706 0.289854 -0.046790 0.817807 -0.596910 0.077099 -0.612251
Bg5 1.021248 -0.352071 -0.148043 -0.491617 0.116935 0.302025 0.175813 -0.488921 -1.126057 0.900761 0.483290 -0.388457 -0.065164 0.067651 -0.008513 0.144780 -0.299103 0.005907 0.078513 0.137053 -0.866607 0.927823 -0.569841 0.221917 -0.045565 0.027819 -0.452357 -0.413735 -0.016711 0.486224 0.651150 0.310203 0.012436 -0.248758 0.102078 0.129918 0.424074 -0.269816 -0.391382 -0.148630 0.023603 -1.108755 0.379212 -0.376699 0.367314 -0.013393 1.533690 -0.300101 0.107981 0.412772
h3 0.719092 0.224211 -0.001713 -0.348797 -0.558550 -0.084956 -0.023805 0.154040 -0.894925 0.756477 0.871271 -0.597313 0.008539 0.272107 0.420765 -0.118390 0.271460 -0.204089 -0.512232 0.355907 -0.435430 0.180381 0.143381 0.144065 0.049098 -0.262942 -0.072178 -0.105081 -0.349423 -0.096151 -0.258074 0.028842 0.080169 0.330810 -0.196580 -0.134091 -0.405920 0.582932 -0.870821 -0.321152 0.153826 -0.911321 -0.044471 -0.277890 0.652619 -0.387295 1.101516 -0.441426 -0.217297 -0.060669
Bg7 1.307925 -0.036653 0.420397 -0.239948 -0.132440 0.074493 -0.084550 -0.687145 -1.790432 0.926283 -0.171979 -0.511406 -0.082730 -0.011459 0.020246 0.115764 0.177713 -0.165042 -0.039417 0.129351 -0.136629 0.312844 0.211851 -0.082477 -0.050210 -0.185937 -0.484766 -0.022759 -0.074263 0.173467 0.511438 0.203907 0.092536 -0.040922 0.267738 0.171515 0.156576 0.019555 -0.065854 -0.728164 0.106106 -0.458205 0.286999 -0.110803 0.552786 0.024824 1.097188 -0.306158 -0.211086 0.133293
b6 0.744450 0.076953 -0.040533 -0.164569 0.399223 0.280824 0.210951 -0.340264 -0.798106 0.507933 0.240109 -1.031012 -0.456363 0.340608 0.016969 -0.379692 0.320963 0.431160 -0.093649 -0.320790 -0.173830 0.531158 0.664745 -0.028461 0.465878 0.012864 0.003255 -0.270881 0.024175 0.362123 -0.057674 0.482644 -0.347727 -0.238908 0.056535 -0.101275 -0.364058 0.564991 -0.117944 0.591411 -0.166706 -1.139757 0.172704 0.274548 0.097040 0.198859 0.577843 -0.783227 -0.221803 0.234742
Nxd4 1.787444 -0.135900 0.066463 -0.461306 -0.365398 -0.235777 -0.401984 -0.952332 -0.567406 0.967461 -0.830351 -1.176108 0.175314 -0.046201 1.263310 0.029440 -1.137620 -0.235877 -0.006301 0.175771 -0.212520 0.438678 -0.413117 -0.230046 0.690951 0.431086 -0.925656 0.705625 0.152828 -0.083587 0.219764 -0.573530 -0.109077 0.305780 -0.347062 0.052293 -0.013043 0.764858 -0.222720 -0.246004 -0.076733 -0.606299 -0.043262 0.139421 0.108080 1.038880 0.520647 -0.748799 0.170030 0.894038
Ne5 0.263170 -0.217094 0.136318 -0.127225 -0.378165 -0.543162 -0.186143 -0.271791 -0.740090 0.356418 -0.297704 -0.553785 0.167117 0.600223 0.194682 -0.257795 -0.158336 0.184441 -0.225072 -0.147486 -0.145698 0.544982 -0.063745 -0.481945 0.011378 -0.584635 -0.177830 0.218517 -0.048551 0.370172 -0.221834 -0.040642 -0.630838 0.271137 -0.153181 0.347778 0.292575 0.294579 -0.325074 -0.457357 -0.103293 -0.573472 -0.089788 -0.251938 -0.746576 -0.209069 1.301046 -0.621604 -0.460338 0.014216
a3 0.760996 -0.127736 0.575804 0.179517 0.299088 0.050369 -0.018554 -0.481117 -1.006582 0.801672 -0.003935 -0.947745 -0.276956 0.598020 0.279687 -0.113121 -0.496769 0.138769 -0.238561 -0.599506 0.090453 0.764529 -0.185367 0.053025 -0.069584 -0.140407 -0.144633 -0.459074 0.135689 0.241933 0.154788 0.273126 0.085070 -0.305866 0.338028 -0.225142 -0.590874 0.292105 0.239409 0.499867 -0.749942 -0.449319 0.404073 0.207312 -0.131418 -0.524051 0.600150 -1.052801 -0.174298 0.400112
Re8 0.411211 0.359428 0.059667 0.125571 -0.399931 -0.136050 0.218198 0.289512 -1.218068 0.371163 0.290648 -0.289895 -0.294062 0.582424 0.358747 0.356208 -0.345318 -0.432265 -0.070778 0.032168 0.192297 0.835090 0.388754 -0.091637 0.546406 0.091319 -0.375548 0.027785 -0.231606 0.443102 -0.217164 0.199979 0.083762 -0.236283 0.320329 0.184673 -0.025799 0.168538 -0.928404 -0.386270 0.166107 -0.768709 0.189474 -0.297086 0.178387 -0.143705 0.715572 -0.185031 0.013838 -0.081712
g4 0.400016 0.363628 -0.001467 0.063583 -0.397253 0.031361 -0.257719 0.224461 -0.534891 0.446941 0.990594 -0.242623 0.149375 0.822275 0.313574 -0.283858 0.187702 -0.178326 -0.263692 0.067588 -0.288525 0.274342 -0.170931 0.057248 0.336491 0.082968 0.427248 -0.201091 -0.702640 0.057726 0.386028 -0.115445 0.252844 0.529591 0.198564 0.321874 0.252086 0.387590 0.324533 -0.019313 -0.196670 -0.358508 -0.268612 0.465662 0.521400 -0.225478 0.761096 -0.049643 -0.610819 0.222176
Nd7 0.254579 -0.242301 0.119931 -0.053022 0.065262 -0.196586 -0.113620 -0.376668 -0.614735 0.354376 0.422418 -0.738687 0.064858 0.739053 -0.118345 -0.162043 0.162503 -0.133520 0.292866 -0.230278 -0.525656 0.613229 0.181421 -0.162756 0.024299 -0.361547 -0.212248 0.004886 -0.005549 0.306145 -0.391674 -0.167279 -0.354073 0.192942 0.198817 -0.193687 -0.061396 0.360650 0.447498 0.110132 0.178705 -0.654129 0.028280 -0.288226 -0.431760 -0.272359 1.657554 -0.892971 -0.604693 0.062872
cxd5 1.265452 -0.304646 0.245350 0.999383 0.237382 0.438146 -0.410298 -0.470086 -1.366902 -0.228841 -0.103050 -1.093827 -0.427272 -0.240033 0.419227 0.161959 -0.017086 0.840080 -0.127168 -0.656848 -0.506499 0.982087 0.307884 -0.078308 0.112982 -0.048896 -0.528235 -0.634162 0.114050 0.917218 0.640785 0.470523 -0.181902 -0.146790 0.437656 -0.368327 -0.456766 -0.157586 -0.356705 -0.472119 0.071210 -0.967236 -0.148568 -0.648959 -0.042747 0.317048 1.124029 -0.630082 -0.535844 0.017693
Be2 0.875842 -0.700729 0.117458 -0.043519 -0.401803 0.107077 0.042614 -0.648297 -0.660844 0.536936 0.279677 -1.291137 0.509798 0.542908 0.547631 -0.837318 0.316937 0.010930 -0.170626 -0.221316 -0.420254 0.611547 0.543485 0.007598 -0.033203 -0.062591 -0.392730 -0.266704 -0.419304 -0.210455 0.148584 0.088693 -0.449398 0.271651 -0.250319 0.631425 -0.116528 -0.132258 0.223106 0.488837 -0.237032 -0.764397 -0.178179 0.010366 0.222405 -0.151322 1.068303 -0.957553 -0.239772 0.106756
g5 0.520356 0.194272 -0.156173 -0.139189 0.037002 0.169452 -0.032329 0.337314 -0.472382 0.435985 0.615170 -0.189601 -0.001333 0.777974 -0.044139 -0.061403 0.263718 -0.391965 0.048609 0.109606 -0.341824 0.538415 -0.155507 -0.292917 0.120217 -0.369918 0.570894 -0.016431 -1.123659 0.475826 -0.003527 -0.235780 0.048678 0.185346 -0.235459 0.626263 0.289491 0.143230 0.343054 0.097692 -0.257879 -0.355843 -0.008159 0.360136 -0.104307 -0.575367 0.675920 0.109259 -0.594020 0.483179
Qc7 0.772939 -0.167778 0.166619 -0.287030 -0.319260 -0.216604 -0.071991 -0.391292 -0.381425 0.424724 0.117133 -0.251539 -0.179301 0.898720 0.012920 0.079912 -0.067175 -0.074092 0.230883 -0.107898 -0.346901 0.701493 0.121127 -0.385706 -0.472928 0.402214 -0.176727 0.193178 -0.063616 -0.295612 -0.273447 -0.068081 0.382705 -0.145550 -0.200026 -0.294510 -0.107348 0.284448 0.002928 -0.055000 -0.324915 -1.328758 0.662810 -1.244810 -0.432776 0.160766 1.352068 -1.292589 0.018277 0.483025
Re1 0.550396 0.481276 -0.056168 -0.168783 -0.293782 -0.096886 0.153114 0.437667 -1.032818 0.314426 -0.011151 -0.474757 -0.349594 0.072211 0.503717 -0.046925 -0.436186 -0.228583 -0.026896 0.216718 0.545603 0.845039 0.124303 -0.162183 0.305667 -0.176247 -0.306229 0.205921 0.042837 0.523495 -0.651441 0.003806 0.608299 0.099253 0.380849 0.038023 -0.351595 -0.026126 -0.869140 -0.161781 0.129198 -0.687403 0.181263 -0.130384 0.215013 -0.113429 1.192811 -0.326671 0.209313 0.053553
Bb7 0.885325 -0.315525 0.110899 -0.385386 -0.042508 0.214700 -0.149512 -0.673252 -0.541170 0.456786 0.225883 -0.707362 -0.722927 0.687136 0.102251 -0.485124 -0.390999 0.512170 -0.073657 0.221418 -0.661531 1.087851 0.208802 -0.093194 -0.151542 -0.475195 -0.736859 -0.253635 -0.278645 0.283116 -0.246720 0.264927 -0.487118 -0.281749 -0.009109 -0.110999 -0.509859 0.380442 -0.194897 -0.159282 -0.227358 -0.934016 0.237055 0.135316 -0.192977 0.063930 1.052454 -0.955054 0.110699 0.711524
Ne4 0.140043 0.174243 0.242048 0.214033 0.024839 -0.079133 0.273472 0.142545 -0.409104 0.195184 -0.024196 -0.590971 -0.187351 0.712552 0.218236 -0.405127 0.205836 0.808322 -0.174171 -0.367626 -0.795240 0.325882 -0.428834 -0.038529 0.771515 -0.131918 0.317841 -0.410976 0.411548 0.730963 -0.446906 0.489980 0.011270 -0.291158 0.433222 -0.032399 -0.013688 0.222557 0.182440 -0.288350 -0.245775 -0.605186 -0.030411 -0.195627 -0.540449 0.099909 1.396114 -0.535689 0.197758 0.497428
b3 0.634242 0.306777 0.495782 -0.190220 -0.007115 -0.244905 0.216444 0.120699 -0.947056 0.889386 0.092620 -0.651910 -0.014799 0.761186 -0.331928 0.144197 -0.664358 -0.045130 0.132444 0.358010 -0.186753 0.622383 0.202354 -0.198382 -0.463059 0.168016 -0.312434 -0.200084 -0.100037 0.213185 0.002317 -0.077341 -0.381898 0.053325 -0.156153 -0.367314 -0.258849 0.354198 0.066914 -0.072942 -0.005809 -0.214059 0.234169 0.004509 0.287568 -0.558509 0.955687 -0.709280 -0.496662 0.240191
Bd7 0.621680 -0.796826 -0.234322 -0.019794 -0.062981 0.040546 -0.544234 -0.353413 -0.794256 0.085968 0.201826 -1.012522 0.333214 0.591940 0.517831 -0.618655 0.145395 -0.465050 0.637802 -0.009775 0.233668 0.635156 -0.048558 0.156261 -0.214483 -0.059383 -0.613464 0.420392 -0.043083 -0.124075 -0.359812 0.147972 0.060552 0.466290 -0.287963 0.229675 -0.001757 0.121094 -0.100801 0.514467 0.107194 -0.663048 -0.220909 -0.054399 0.319761 0.409644 1.448266 -0.536973 -0.554044 0.629049
Rc8 0.207570 0.433068 0.253321 0.082485 0.393225 -0.119448 -0.404224 0.075137 -0.636343 0.306934 0.428443 -0.644171 0.129476 0.647025 0.160750 0.191773 -0.570937 0.386495 -0.113852 -0.000065 -0.496428 0.847926 0.108259 -0.338571 0.328865 -0.332325 -0.430098 0.183438 -0.131583 0.127827 0.010934 -0.075203 0.020969 -0.004404 -0.622338 -0.216244 0.380396 0.633038 -0.648804 0.279617 -0.397111 -0.172412 0.030650 -0.300218 0.286368 -0.359167 0.156503 -0.782692 -0.403030 0.582897
e3 1.245553 -0.214941 -0.061257 0.114732 -0.314057 0.508010 0.018852 -0.408003 -1.215098 0.669264 -0.272761 -1.214203 -0.421108 -0.165700 -0.276095 -0.026581 0.092340 0.645915 -0.878426 -0.408751 -0.592810 0.453438 0.549238 -0.006395 0.680181 -0.253300 -0.474682 -0.386144 -0.285985 0.462971 0.557565 0.660244 -0.435916 -0.093122 0.591721 -0.092654 0.037383 0.028473 0.018268 -0.067719 0.122897 -1.094904 0.694676 0.176516 0.210794 -0.299713 0.406914 -1.188027 0.040918 -0.093938
Qc2 0.617493 0.526960 0.565639 0.254715 -0.154388 0.406187 0.108614 -0.555884 -0.826467 0.215922 -0.132829 -0.582183 -0.328350 0.953749 -0.007666 0.208304 0.382184 0.422510 -0.407588 -0.499854 -0.417784 0.005655 0.261062 -0.174211 -0.227080 0.298302 -0.314445 -0.121872 -0.353179 0.437814 -0.011814 0.296671 0.314193 -0.325618 0.512139 -0.255388 -0.121376 0.264821 0.071443 -0.041205 -0.234386 -1.355855 0.239618 -1.063236 -0.289588 -0.212373 1.128662 -1.426287 0.099212 0.354048
exd5 1.182323 -0.516007 -0.057313 0.840215 0.113510 0.072199 -0.430497 -0.222742 -1.273731 -0.302783 -0.173490 -0.862850 -0.369700 -0.523061 0.448189 0.349925 -0.597105 0.649019 0.199902 -0.076945 -0.161257 1.485618 0.154537 -0.149062 -0.222409 0.192612 -0.669363 -0.341517 0.150877 0.803778 0.757430 0.195509 -0.058461 0.141465 0.125196 -0.503474 -0.325459 -0.290184 -0.562980 -0.536634 -0.134928 -0.855886 0.136733 -0.471370 -0.152015 0.317106 1.191823 -0.571735 -0.632230 0.069719
Nd5 0.724335 0.032810 0.154359 0.187740 0.405542 -0.021338 -0.124909 -0.148573 -0.524899 -0.153795 0.063384 -0.243356 -0.178490 0.265020 0.467257 -0.189329 -0.654131 0.053381 -0.277089 0.171126 -0.140339 0.756821 -0.505487 -0.644115 -0.319139 0.016264 -0.145658 -0.548052 0.565547 0.413176 0.362080 0.532387 -0.403735 -0.132918 -0.115879 -0.248194 0.576413 -0.149764 -0.239494 -0.293614 0.045239 -0.458916 -0.007898 -0.000253 -0.396125 0.100741 1.112626 -0.634955 -0.438067 0.481517
Bg2 1.595773 0.003935 0.287882 -0.258103 -0.329680 0.214285 -0.238756 -0.794728 -1.059996 0.665586 -0.544929 -0.821826 -0.666269 -0.011626 0.332522 -0.565848 0.222714 0.620443 -0.352488 0.220686 -0.327237 0.316890 0.440388 0.024112 -0.101924 -0.430172 -0.120390 -0.558173 -0.135980 -0.010561 -0.148923 0.611173 -0.279087 -0.144719 0.140064 0.118716 -0.747780 0.294988 -0.035799 -0.313773 0.161644 -0.860281 0.147112 0.383817 0.266068 0.116006 0.934544 -0.714769 0.076261 0.277478
Qd2 1.005636 -0.120612 0.141091 0.601770 -0.082316 -0.258104 -0.280928 -0.284099 -1.028692 0.508227 0.042925 -0.142732 0.396129 0.784729 0.259464 0.196498 0.222701 -0.632196 0.087571 0.307268 0.022823 0.099066 0.161112 -0.307309 -0.027145 0.679960 -0.405111 -0.264039 -0.104810 0.011122 0.451744 -0.041550 -0.216971 -0.098326 -0.362053 0.367634 -0.246424 0.180384 -0.019170 0.411469 -0.260033 -0.957580 -0.065960 -1.422392 -0.299921 0.120932 1.164547 -0.844321 -0.332592 1.214258
Kg7 0.177953 0.445769 0.296941 0.007238 -0.556907 -0.257975 -0.103568 0.376496 -0.165290 0.597808 1.379428 0.069040 0.567142 -0.091479 0.198135 0.535019 -0.403143 -0.218648 -0.655275 -0.474996 0.430846 0.138393 1.125817 -0.320188 0.923227 -0.139363 0.639816 -0.177844 -0.339538 -0.392869 0.051744 0.320197 0.876916 0.141424 0.066623 -0.301660 0.718692 -0.725242 0.162982 0.306926 0.332624 0.499273 -0.084772 -0.222812 -0.731582 -0.623984 0.377609 0.534088 0.021133 1.142044
f3 0.610399 0.574123 0.013807 0.366179 -0.168477 0.257885 -0.131874 0.083102 -0.557293 0.314774 0.622156 -0.567916 0.315699 0.609213 0.402931 -0.327224 0.281423 0.142609 0.143973 -0.073465 -0.555903 0.125740 0.620990 0.086588 0.222341 0.044285 0.012868 -0.215046 -0.212529 0.185428 0.016532 0.176879 -0.526884 -0.111024 0.149050 0.111418 0.086876 0.374827 -0.044447 0.038817 0.258534 -0.979718 -0.452367 0.134589 0.356816 -0.220689 0.732176 -0.189060 -0.470901 0.106845
Rc1 0.275478 0.514558 0.085086 0.388322 0.473798 -0.125127 -0.303476 0.270132 -0.784870 0.018470 0.091938 -0.966564 0.036611 0.396417 0.288016 0.097382 -0.179613 0.490084 -0.508039 -0.012743 -0.625437 0.627818 0.136278 -0.135138 0.503137 -0.382229 -0.263797 -0.124539 0.106278 0.255880 -0.097763 0.018997 0.124107 0.089998 -0.249313 -0.258274 0.105905 0.433963 -0.501132 0.466273 -0.511684 -0.060882 -0.098455 -0.318698 0.204632 -0.585575 0.278930 -1.057455 -0.462771 0.632153
Be6 1.082736 -0.018440 0.095141 0.029145 -0.233250 -0.195968 -0.609343 0.295662 -0.456831 0.216289 0.191706 -0.827937 0.443081 0.570918 0.243877 -0.328322 -0.160919 -0.730086 -0.307737 -0.120578 -0.098370 0.960550 -0.133263 -0.260068 -0.520544 -0.087543 -0.464856 -0.591331 0.072479 -0.074600 0.014562 0.386406 -0.278718 -0.116014 -0.528340 -0.174356 -0.034492 -0.190460 -0.221544 0.494062 0.017130 -0.541804 -0.063765 0.188794 0.205907 0.192618 1.270013 -0.169447 0.208629 0.114811
Rd1 0.297759 0.733671 0.122652 -0.194168 -0.285083 -0.257510 -0.019467 0.133915 -0.372693 0.298432 0.142180 -0.317494 0.517824 0.153205 0.596511 0.102696 -0.264413 -0.074318 -0.142129 -0.026646 -0.065216 0.793659 0.434756 -0.437022 0.025732 -0.252984 0.047087 -0.219604 0.696926 0.289778 -0.097329 0.440753 0.020110 -0.221408 -0.056095 -0.281286 -0.285954 0.200682 -0.303218 -0.022302 -0.363371 -0.339766 0.304018 0.100466 -0.075895 -0.364482 0.568710 -0.698574 0.150848 0.234744
Rd8 0.122340 0.761188 0.234878 -0.316083 -0.516090 -0.399886 0.010325 0.375464 -0.120739 0.300675 0.349333 -0.103572 0.514191 0.348405 0.654993 0.081223 -0.280497 0.177985 0.034261 -0.240748 -0.200442 0.945193 0.537398 -0.602170 0.442654 -0.368720 0.067919 -0.089550 0.502916 -0.120892 -0.061556 0.495278 0.003370 -0.397669 -0.201612 -0.303756 0.036164 0.386604 -0.163511 0.158791 -0.053976 -0.083206 0.280392 0.140003 -0.201035 -0.093517 0.583310 -0.396799 -0.073692 0.096179
Bd2 0.272659 -0.101657 0.204104 -0.100223 0.447404 0.350128 0.490373 -0.506568 -0.942553 0.618054 0.565694 -1.029840 -0.449491 0.128482 0.329710 0.166608 0.157910 0.485479 0.068023 0.268279 0.077152 0.551039 -0.551323 0.194209 -0.243348 0.225803 0.342722 -0.229961 0.102976 0.392773 0.216329 0.310339 -0.207850 -0.089218 0.476324 -0.073531 0.328318 -0.131747 0.430636 0.114169 0.178524 -0.771219 -0.784994 -0.156917 -0.192152 0.103228 1.129620 -1.395173 0.191681 0.409331
Qe2 0.558515 0.150521 0.351884 -0.132059 -0.160227 -0.142194 -0.133789 -0.216280 -0.089109 0.843174 0.198532 0.048312 0.095479 0.488639 0.284015 0.174210 0.086571 0.677460 -0.106965 0.156695 0.017400 0.340382 -0.086244 -0.394705 -0.497123 0.371179 -0.266431 0.016316 -0.156001 -0.224631 -0.387344 0.251883 0.297204 0.436643 0.141342 0.071410 0.016181 0.127625 0.037759 0.076925 0.024073 -1.175509 0.486704 -1.231656 -0.210788 -0.155005 1.721440 -1.144351 0.174925 0.216487
f6 0.539142 0.344949 -0.156166 -0.378421 -0.005630 -0.371148 -0.173085 0.435184 -0.409657 0.445526 0.629164 -0.244152 -0.021552 0.280297 0.118484 0.081507 -0.081088 -0.492054 0.139695 -0.071158 -0.142807 0.638544 -0.239771 0.359998 -0.135825 -0.423458 -0.387690 -0.107307 -0.024675 -0.017144 0.102310 -0.137127 -0.206038 -0.091702 0.235347 0.373323 0.164498 0.019915 0.578474 0.295838 -0.495411 -0.028688 -0.058172 0.004933 -0.625961 -0.056545 1.044460 -0.148362 -0.517887 0.486544
Rb8 0.712222 0.262894 0.522592 -0.316598 -0.029434 -0.276970 0.039127 -0.109762 -0.364248 -0.376637 0.730997 -0.799568 -0.148518 0.630252 0.003200 0.191386 -0.020978 -0.196056 0.332814 -0.265727 0.075655 0.166657 0.257414 -0.221596 0.021978 -0.098211 0.313744 0.272304 -0.102399 -0.193991 0.376265 0.191079 -0.004047 -0.330289 -0.648728 -0.404195 0.346304 -0.193976 -0.598507 0.305276 0.629325 0.042676 0.362492 0.403274 0.394084 -0.360287 0.685553 -0.969699 -0.606660 0.331684
Qe7 0.518801 0.202591 0.127001 -0.055306 0.055757 -0.181715 0.104106 -0.298934 -0.564194 0.471090 -0.086377 -0.124956 0.366165 0.862089 0.040423 0.238125 0.551545 0.048864 -0.213484 -0.373243 0.047978 0.434077 0.498734 -0.123057 -0.105369 0.192636 0.037604 -0.238134 -0.223539 -0.426908 -0.272210 0.520655 0.169936 -0.205799 0.316604 0.132389 -0.584602 0.213166 0.432287 0.045057 -0.307281 -1.112964 0.045813 -1.372362 -0.357499 0.158826 1.107751 -0.665843 -0.224885 0.714011
Nbd7 1.351725 -0.808315 0.490190 -0.085893 -0.323066 0.489722 0.225441 -1.325830 -1.539059 0.277054 0.289760 -0.957869 -0.232606 0.533033 -0.732573 -0.228220 -0.195137 0.512819 -0.199308 -0.096794 -1.362515 0.663992 0.454544 -0.065895 -0.306599 -0.045841 -0.555269 -0.099744 -0.602049 1.090041 -0.319988 -0.510823 -0.683622 0.160178 0.666526 -0.333332 -0.500243 0.058279 0.055419 -0.448057 -0.356964 -2.035690 0.215182 -0.375997 0.216659 -0.444086 1.866321 -1.151701 0.078728 -0.502919
Bf4 0.528351 0.249586 0.249626 -0.471859 -0.149477 -0.151600 0.038470 -0.207475 -0.778049 0.680149 0.345313 -1.078233 -0.376123 0.110829 0.359393 -0.116492 -0.047849 0.048250 -0.103342 0.019848 -0.579236 1.023857 -0.201380 0.146735 -0.031189 -0.223304 0.075954 0.204909 0.039352 0.339212 0.017276 -0.161846 -0.048245 -0.254934 -0.187951 0.247970 0.669092 -0.222679 -0.399764 -0.866463 -0.456028 -0.886687 0.187937 -0.811214 0.049183 0.165402 1.202951 -0.525060 -0.207050 -0.658792
Nxd5 1.206772 -0.384144 0.184638 0.909300 0.284690 0.176410 -0.413655 -0.349487 -0.719641 -0.596871 -0.295755 -0.339443 -0.084497 -0.564840 0.772349 0.219963 -0.885726 0.618521 -0.321765 -0.355649 -0.080807 1.292875 -0.136785 -0.690477 -0.422130 -0.081691 -0.489332 -0.937967 0.594676 1.113422 1.160290 0.779419 -0.426673 -0.076868 -0.051376 -0.471990 0.216646 -0.624054 -0.567610 -0.439664 0.246728 -0.786172 -0.138341 -0.467820 -0.528832 0.261461 1.143547 -0.630304 -0.426535 0.364886
Nc5 -0.058092 -0.008217 0.139985 0.228783 0.118944 -0.375502 -0.440325 0.190917 -0.266413 0.062534 0.090558 -0.731228 0.015488 1.320690 0.275234 -0.287621 -0.246200 -0.568900 0.538658 0.042078 -0.283497 0.187028 0.136113 -0.155673 0.307985 0.237860 -0.114412 0.227468 0.056063 0.426370 -0.522731 -0.021400 -0.449766 -0.060454 -0.285029 -0.633791 -0.287699 0.991440 -0.047065 -0.346542 -0.096639 -0.281734 0.246553 0.382111 -0.413470 -0.039427 1.046594 -0.622779 -0.030757 0.519933
Nd4 0.658580 0.138124 0.178662 0.186839 -0.140346 -0.351969 -0.358391 0.182503 -0.347079 0.251440 -0.327461 -0.907955 0.148241 0.579073 0.832509 -0.324357 -0.410591 -0.570020 0.358584 -0.196162 0.152040 -0.035849 -0.358270 -0.308306 0.144697 0.112056 -0.459527 0.314649 0.158788 -0.033782 -0.212179 -0.216597 -0.456132 -0.023543 -0.372625 -0.152454 0.295394 0.849395 -0.286165 -0.199937 -0.376147 -0.352483 0.004087 0.140746 0.198412 0.412993 0.718303 -0.176452 -0.410022 0.763027
Nd2 0.507985 0.036616 -0.272734 0.042283 -0.071118 -0.084455 0.497437 0.113042 -0.651714 0.311426 0.260111 -1.206803 -0.294368 0.475736 -0.555567 -0.240313 0.175234 0.528552 0.038931 0.051412 -0.532091 0.385026 0.241797 0.210883 -0.223372 0.088322 -0.172078 0.265258 0.215641 0.155205 -0.629976 -0.092871 -0.309417 -0.315993 0.100131 -0.200132 -0.013046 0.253902 0.250478 0.066221 0.277187 -0.778043 -0.158155 -0.067113 0.068817 -0.135167 1.562990 -0.834915 -0.068464 0.400127
Kg2 0.120021 1.507661 -0.576767 -0.049739 -0.592936 0.175659 -0.246882 0.401595 -0.046833 -0.115480 0.900088 -0.368127 0.739695 -0.499745 0.609489 0.568224 1.273881 -0.016350 -0.614928 -0.007440 0.076005 -0.417607 0.863832 -0.759377 0.402255 -0.485200 0.487354 0.179455 0.115135 0.594333 0.427406 -0.321260 0.749291 0.646968 0.416944 -0.022049 0.229655 0.008197 -0.418803 0.061664 -0.364933 -0.311452 -0.085322 -0.005437 0.034023 -0.352940 0.344593 0.233489 0.293478 1.082128
Kf7 -0.045648 0.872553 0.416350 -0.175267 -0.152660 0.230252 0.119066 0.624741 -0.210197 0.091263 1.193337 0.219651 -0.096423 -0.554242 0.252578 -0.035318 -0.784080 -0.742453 0.270467 -0.072155 0.361487 0.422508 0.843015 0.413151 0.779006 -0.188083 0.164403 -0.531158 0.183292 -0.108679 -0.056241 -0.183404 0.527807 0.587778 0.370350 -0.347665 0.991252 -0.130304 0.647156 -0.299703 -0.300153 0.432675 -0.939328 0.623830 -0.284356 -0.568822 0.020704 -0.215065 -0.441375 0.820814
Bd6 0.139180 0.367245 0.340629 -0.076791 0.304862 0.174043 -0.264880 -0.116969 -0.534545 0.553562 0.761524 -1.279278 -0.582920 -0.037044 0.281886 -0.149770 -0.197779 0.341189 -0.024985 -0.078793 -0.403480 1.270090 -0.198729 0.044190 -0.002721 -0.461157 0.468166 0.317799 0.071663 -0.066893 -0.491739 -0.240014 0.112185 0.284296 0.306721 -0.209687 0.607811 0.082708 -0.163793 -0.467713 -0.324743 -1.017092 -0.196756 -0.609513 -0.226697 -0.060014 1.021657 -0.692221 -0.010957 -0.943535
c3 0.779398 -0.150055 0.190503 -0.692653 0.003489 -0.112627 -0.071531 -0.390598 -0.755319 1.198178 0.010972 -0.824116 0.195467 0.022427 -0.077427 -0.124134 -1.016596 -0.067554 0.353895 0.082740 0.108271 0.751407 -0.624151 -0.037771 -0.105896 -0.095056 -0.636556 0.165586 -0.091933 -0.005467 0.110741 -0.220909 0.182351 0.220025 0.079972 -0.114455 -0.217497 -0.112596 -0.109999 0.375077 0.221101 -0.800402 0.435287 0.383799 0.209567 -0.157872 0.878423 -0.555108 0.400348 0.154720
Nxe4 0.333535 0.591293 0.686638 0.289421 0.191483 -0.456013 -0.228991 -0.062767 -0.448088 0.237876 -0.233799 -0.482923 0.281081 1.105621 -0.015205 -1.003695 0.138493 0.958841 -0.071367 0.080358 -1.501929 0.318721 -0.579173 0.207330 1.106253 0.127042 0.511511 0.448014 0.139477 0.288301 -0.645894 0.815265 -0.384743 -0.394683 1.037162 -0.587685 -0.527589 -0.391062 0.539211 -0.521371 0.805042 -0.741063 -0.279780 -0.366908 0.129652 0.501472 1.825014 -0.234929 0.924993 0.115536
Ke7 -0.519454 0.010647 0.418295 -0.611355 0.015373 -0.111109 -0.045862 0.685325 0.139562 0.320702 0.467998 -0.456935 0.551874 -0.524385 -0.173367 -0.815617 0.038161 -0.389091 0.710117 -0.004341 0.025220 0.909201 1.061906 0.142409 0.370207 -1.271757 0.417430 -0.594774 0.592882 -0.378933 -0.246493 0.100358 0.182454 0.910656 -0.143498 -0.640328 0.242472 -0.139440 1.299072 -0.187320 -0.653735 0.346635 -0.396286 0.918004 0.435720 -0.131692 0.050775 -0.255501 -0.647604 0.995547
Kf8 -0.091071 0.271761 0.287800 -0.288654 -0.671386 0.072842 -0.119084 0.341915 -0.196767 -0.698386 0.208539 -0.317668 0.885995 -0.322357 -0.376211 0.382336 -0.777672 -0.206621 0.948119 0.052169 0.182756 0.786835 0.821584 0.258141 0.585609 -0.411942 -0.438636 -0.838802 0.734512 -0.464261 -0.261816 0.159566 0.948470 0.651931 0.098357 -0.033224 0.876919 -0.461750 0.463799 -0.645299 -0.169950 0.686642 -0.417714 -0.009108 -0.480430 -0.062836 0.587344 -0.342812 0.004367 1.094524
Nc4 -0.358928 0.127485 -0.040227 -0.426090 -0.214725 -0.621212 0.533934 0.272853 -0.185030 0.011410 0.118289 -0.479726 -0.300449 0.746192 -0.229952 -0.402316 -0.220849 0.267725 -0.365897 0.371767 0.295346 0.491703 0.017680 -0.431962 -0.606175 0.099640 0.144298 0.352395 0.230518 0.366635 -0.013421 0.134428 -0.421852 -0.166613 -0.563574 -0.277125 0.673257 0.191656 -0.063776 -0.333387 -0.198340 -0.119193 0.068721 0.216643 -0.120762 -0.194868 1.517131 -0.984783 -0.442744 0.213570
Bb4 0.119501 0.443131 0.065038 -0.330032 0.331957 0.457991 0.341795 -0.522920 -0.880622 0.598371 0.084730 -1.169291 -0.334872 -0.057975 0.223207 -0.224070 -0.053439 0.537926 0.131727 -0.085527 -0.418387 0.858209 -0.008821 0.268983 0.354268 0.156295 -0.105106 -0.201833 0.050439 0.296234 0.468800 0.398859 0.154545 -0.405409 0.484002 -0.467404 0.106488 0.052491 0.144208 0.009503 -0.613902 -0.677005 -0.331136 0.215467 -0.044517 -0.264914 0.410296 -1.137448 0.364742 0.313563
Kf2 0.204115 1.067637 -0.395829 0.484480 -0.875265 0.442493 -0.210055 0.726753 0.419122 -0.084741 0.570873 -0.601754 0.348583 -0.388371 0.106355 -0.077335 0.074486 -0.120079 0.186888 0.350235 0.512552 0.343397 1.188052 -0.726375 0.548403 -0.704198 0.164345 0.082462 0.375493 0.184533 0.131792 -0.667749 -0.311833 0.295983 0.233550 0.720468 0.733194 0.269062 0.038353 0.820900 -0.067012 -0.082910 -0.290743 0.882464 0.239542 -0.263066 0.126115 -0.019627 0.212285 0.714235
Bb5 0.371654 -0.398417 0.065608 -0.295252 -0.252415 -0.040083 -0.329514 -0.323579 -0.783415 0.031555 0.281507 -0.973571 0.297110 -0.124367 0.459182 -0.538100 -0.148716 -0.098682 0.279929 0.334999 0.098671 0.775123 0.354988 -0.354559 0.193200 -0.394264 -0.825540 0.586394 -0.307562 -0.267771 -0.324968 0.240273 -0.043865 0.371781 -0.295462 -0.208131 0.029627 0.132267 -0.188107 0.673641 -0.135424 -0.052985 0.128812 0.195354 -0.077249 -0.096291 0.870986 -0.656809 -0.200928 0.315357
dxe5 0.686574 -0.076462 0.330765 -0.590534 -0.443203 -1.046534 0.153134 0.022411 -0.853490 0.499667 0.045080 0.209343 0.572004 -0.011185 0.314333 0.147069 0.840234 -0.175306 -0.142724 -0.571001 -0.661179 0.822309 -0.187561 0.222799 -0.345243 -0.501174 -0.808496 0.293957 -0.241972 0.247633 -0.481129 0.386067 -1.142995 0.280328 -0.379877 -0.361212 -0.243353 0.125756 0.290442 -0.373864 -0.399929 -0.459464 -0.528428 -0.675366 -0.697088 0.098744 1.882255 -0.204827 -0.045391 -0.253763
Rb1 0.682903 0.735953 0.336753 -0.267201 0.091585 -0.362741 -0.008750 -0.183568 -0.706234 -0.400477 0.287811 -1.189501 -0.255182 0.293673 0.122481 0.219570 0.529919 -0.366198 0.391865 -0.482420 0.211670 -0.294005 0.054596 0.185812 0.041903 -0.182235 0.381406 0.349725 0.187410 0.107622 0.309297 -0.186583 0.206104 -0.236624 -0.186400 -0.415460 0.073461 -0.119437 -0.558894 0.513123 0.043025 -0.052506 0.281148 0.459693 0.430332 -0.480372 0.625025 -1.289459 -0.408887 0.507845
Qd7 0.295273 0.471852 0.114544 0.261834 0.210289 0.158517 -0.329717 0.173231 -0.509162 0.041113 -0.117696 0.118203 -0.144144 0.215764 0.702554 0.361488 -0.028371 0.268921 0.180834 -0.020441 0.582456 -0.069020 -0.169516 -0.007538 -0.482282 0.466405 -0.309820 -0.078905 -0.099590 0.067108 -0.218406 0.489353 0.569399 0.169035 -0.003297 -0.195989 0.684569 0.514931 -0.341089 0.294163 0.207409 -1.017943 0.069886 -1.217156 0.150029 0.379811 1.603054 -0.657764 -0.499811 0.607059
Qb6 0.568333 -0.145013 0.185596 -0.069954 -0.209192 -0.477902 -0.354209 -0.350641 -0.303166 0.340814 0.140402 -0.400254 0.098451 0.802152 0.293377 0.151066 -0.163244 -0.000649 -0.029209 0.135804 -0.113271 0.454479 0.185793 -0.402266 -0.368023 0.597517 -0.455403 0.224693 -0.080644 -0.207302 0.192755 -0.379632 0.098776 0.199000 -0.021456 -0.567228 -0.302061 0.256211 0.105731 0.066129 -0.415910 -1.033752 0.447651 -1.008412 -0.231724 0.355590 0.899673 -1.288651 -0.041656 0.775142
Bc4 0.964931 -0.272550 0.197094 0.079244 0.195703 0.165931 -0.412310 -0.078005 -0.392271 0.116103 0.369115 -0.923340 0.133845 0.241257 0.225872 -0.334090 -0.243568 -0.432752 -0.199653 0.016968 -0.081482 1.109314 0.202555 -0.714996 -0.012835 -0.037517 -0.277799 -0.326403 -0.118269 0.082806 -0.217405 0.267644 0.162618 -0.029082 -0.385913 -0.332439 0.103940 -0.461035 -0.121273 0.265167 0.075051 -0.304973 0.275333 0.361269 -0.048469 0.062392 0.899151 -0.403294 0.546095 0.069754
Bf5 0.522244 0.330749 0.492022 0.649115 -0.123824 0.163714 -0.538670 0.155206 -0.627885 0.061368 -0.211123 -0.966725 -0.377626 0.705077 0.077166 -0.632042 0.188932 -0.281126 -0.115969 -0.210404 -0.224958 0.728408 0.020979 0.245283 0.566821 -0.136364 -0.113066 -0.066856 -0.194277 0.310747 -0.102174 0.306143 0.175199 0.429734 0.467354 -0.058541 -0.247757 -0.181631 -0.079270 0.453750 0.488471 -0.546902 -0.072752 -0.069616 0.147017 0.150174 1.333119 -0.347349 0.462365 -0.312680
Nb6 0.126054 -0.292785 0.099972 0.005457 0.135668 -0.166948 -0.025700 -0.439230 -0.680665 -0.512144 0.222779 -0.536981 -0.003022 1.081632 -0.288846 0.050112 -0.277656 0.296194 -0.284505 0.553344 -0.382634 0.962902 0.683456 -0.684776 -0.697670 0.179217 -0.270106 -0.284652 -0.193575 0.693228 -0.107723 0.025306 -0.489942 -0.108014 -0.457182 -0.394276 0.381712 0.179615 -0.132807 -0.137084 0.142094 -0.367642 -0.020814 0.125966 0.126734 -0.179895 1.403402 -0.977616 -0.655649 -0.246503
Bg4 0.875020 -0.149210 -0.015937 0.103451 -0.279828 0.295557 -0.244214 -0.110258 -0.536073 0.482261 -0.077050 -1.079853 0.676772 0.399265 0.676886 -0.473342 0.048947 -0.283261 -0.487295 -0.339163 0.185090 0.465225 0.409046 0.022650 -0.075577 -0.030795 -0.451274 -0.184699 -0.537009 -0.147255 -0.345791 0.207016 0.126064 0.277625 -0.071623 0.440264 -0.550836 0.213993 -0.233005 -0.089606 0.249742 -0.776002 -0.266964 -0.096153 0.632015 0.022169 1.483785 -0.488572 -0.055852 -0.512840
Nxe5 0.053740 0.006361 0.267656 -0.764966 -0.686639 -1.593731 0.050666 -0.200366 -0.736310 0.435296 -0.458976 -0.278400 0.349919 -0.219528 0.479967 -0.068999 0.581055 0.316372 -0.137278 -0.516714 -0.350541 0.709753 -0.308359 -0.325821 -0.039811 -0.876097 -0.555232 0.856320 -0.386925 0.669019 -0.470549 -0.022847 -1.372030 0.741036 -0.492445 0.234807 0.092764 -0.006887 0.021580 -0.617204 -0.167431 -0.336128 -0.476788 -0.720179 -1.108080 0.099886 1.522689 -0.522822 -0.107869 -0.210344
Bxf6 0.918530 -0.253527 0.293089 -0.792807 0.246080 0.291686 -0.509871 0.028968 0.327708 0.391451 0.606908 -0.111849 0.192436 0.726105 0.057899 0.312950 -1.032220 0.216026 0.120090 0.228835 -0.510330 0.620824 -0.383923 0.913228 0.310443 -0.750713 -0.982880 -0.064350 0.508327 0.423428 0.507441 0.484324 -0.199135 -0.504354 0.875469 -0.108257 -0.031917 -0.809115 -0.156058 0.049570 -0.053821 -0.594604 1.084968 -0.684214 -0.222747 0.761049 1.859771 -0.343649 -0.556147 0.645374
Kh8 0.973276 0.268337 0.469820 0.207568 -0.012864 -0.107196 -0.373474 -0.191667 -0.234778 -0.090925 -0.191501 0.222723 0.268772 0.779171 -0.697015 1.176249 -0.299195 -0.166948 -0.991721 -1.073505 0.861114 -0.058405 0.367024 0.549776 0.020857 0.408765 -0.378923 -0.555032 -0.413636 -0.392821 0.148538 1.361861 0.228703 0.218373 -0.070526 0.818747 0.837374 0.134149 -0.088024 -0.472444 0.630153 0.391987 0.318303 -0.783212 -0.671147 0.402392 1.571200 0.290108 1.089868 0.495298
Ne7 0.553815 -0.338954 -0.332806 0.000384 -0.105226 0.296066 -0.087213 0.040523 -0.929416 0.171461 0.022929 -0.400270 -0.229282 -0.101310 0.329916 -0.537159 -0.249130 0.075747 -0.009882 -0.309595 0.155545 0.806295 -0.559639 0.183175 -0.520146 -0.225949 -0.100440 -0.669042 0.074881 -0.658426 0.650021 0.431809 0.074739 0.137688 0.014287 -0.012881 0.644399 0.725999 -0.055824 0.854357 -0.089287 -0.653971 -0.479762 0.122219 -0.277348 0.284298 1.316108 -0.312454 -0.190551 0.460639
Rc7 -0.135578 0.466175 -0.058805 -0.178740 0.237674 0.004382 -0.241476 0.640624 -0.549095 -0.329023 0.511670 -0.339750 0.199131 0.881369 -0.162840 0.184482 -0.053735 0.280059 0.149382 -0.242307 -0.122274 0.779859 0.366323 -0.623577 0.522430 -0.460121 -0.171445 0.230358 -0.127187 -0.442289 -0.286344 0.486988 0.394500 0.289425 -0.452956 -0.019910 0.552459 0.609201 -0.560621 0.089276 0.109879 0.645207 -0.048879 -0.050377 -0.185539 -0.336241 -0.222599 -0.770113 -0.444716 0.685964
Kh7 0.570220 0.891251 0.958617 0.065487 -0.403669 -0.202151 0.076634 0.337021 -0.591460 0.301018 0.834081 0.488654 0.509796 -0.245586 -0.051784 0.611897 -0.599774 -0.408063 -1.054253 -0.535637 0.534674 -0.456572 0.826063 -0.275204 0.488482 0.115357 0.635789 -0.070813 -0.760576 -0.707053 0.150951 0.891581 0.449308 0.171921 -0.013677 0.137324 0.996788 -0.077537 -0.030949 0.429864 0.364510 0.399174 0.360968 -0.927679 -0.433428 -0.434244 0.486619 0.433395 0.729013 0.635896
Qb3 0.493776 0.298502 0.431278 0.118952 -0.062807 0.281870 -0.247167 -0.417769 -0.661196 -0.074049 -0.151571 -0.693337 -0.081546 0.642002 0.208900 0.365901 0.178941 0.804628 -0.341135 -0.373959 -0.023496 0.367352 0.497427 -0.731759 -0.927858 0.158337 -0.333352 -0.294474 -0.260514 0.168882 0.010801 0.299560 0.055232 -0.319952 0.322809 -0.499445 0.060320 0.151394 -0.033582 0.030290 0.053442 -1.045317 0.328732 -1.113659 -0.075917 0.289334 0.986262 -1.417974 -0.070621 0.095904
Rd7 -0.104313 1.080943 -0.254140 -0.576696 -0.237165 -0.087153 -0.048598 0.601623 -0.214567 0.062984 0.605895 0.053969 0.493346 0.681495 0.529668 0.209107 -0.093508 0.094758 0.308361 -0.382189 -0.008728 0.866831 0.145491 -0.830085 0.233083 -0.007883 -0.012081 0.044689 0.307369 -0.406265 0.203754 0.740690 0.234258 -0.268017 0.008400 0.133859 0.572325 0.569603 -0.268556 -0.279083 0.061959 0.327644 0.322783 0.298604 -0.433774 -0.069187 -0.170644 -0.299754 -0.070273 0.129075
Kf6 0.154802 0.670619 -0.034244 -0.135283 -0.536435 0.121588 -0.441291 0.598706 -0.525791 -0.011300 0.448433 -0.468953 -0.310040 -0.601019 0.394312 -0.994879 -0.269028 -0.736226 0.140252 -0.358652 0.394435 0.340002 0.887226 -0.374518 0.780412 -0.285330 1.114282 -0.355883 -0.463715 0.110171 -0.122656 0.173914 0.408653 1.014860 -0.131966 0.009537 0.567898 -0.085276 0.345680 -0.468601 -0.045079 0.845773 -0.958635 1.330870 -0.178528 -0.810654 -0.745876 -0.163404 0.110646 0.752515
Kg8 0.233698 0.604652 0.643152 0.119064 -0.246234 -0.379980 0.096634 -0.013540 -0.688668 0.336045 0.043505 0.254891 0.645718 0.233285 -0.324983 0.908695 -0.022304 -0.192067 -0.083800 -0.748441 0.437816 0.088412 1.236681 0.000351 0.669139 0.059489 -0.180698 -0.221786 0.092018 -0.469899 -0.082717 0.332666 0.923505 0.446880 0.297590 0.231014 1.127408 -0.614989 0.474841 -0.994494 0.288472 0.885974 -0.192589 -0.565272 -1.228360 -0.083772 0.261266 0.451261 0.569731 1.250532
Qd3 0.321826 0.700957 0.324029 0.336092 -0.026656 0.009528 -0.230384 -0.004769 -0.220003 0.291285 -0.029492 0.179208 -0.055716 0.407913 0.282642 0.290851 0.141981 0.506936 -0.138848 0.190073 0.336475 0.105110 -0.122002 -0.284964 -0.205856 0.461082 -0.305873 0.301055 0.018911 -0.094413 0.036746 0.389696 0.574650 0.086941 0.132803 -0.199194 0.444853 0.077808 0.051716 0.370141 -0.015133 -1.188470 0.104227 -1.073042 -0.020126 0.152823 1.135706 -0.828729 -0.145427 0.728118
dxc4 1.017761 0.163801 0.719908 -0.629488 -0.621409 0.051101 0.423663 -0.679829 -0.851247 0.278350 -0.753562 -0.408091 -0.694733 0.251979 -0.693316 -0.500591 -0.650946 0.614811 -0.537071 -0.109903 -0.525149 0.719341 0.340407 0.017502 -0.174378 -0.522191 -0.649466 0.107343 0.105446 0.965842 -0.179720 0.139886 -0.527989 -0.159230 0.045904 -0.185763 0.279509 -0.468568 -0.009026 0.086947 -0.293790 -1.464538 0.006915 0.189232 -0.109087 -0.249787 0.698335 -1.706794 0.490011 -0.259284
Ne2 0.869893 -0.120280 0.164870 0.561778 0.417386 0.591098 -0.032486 -0.394694 -0.529300 0.464484 0.028899 -0.709007 0.226387 0.351447 0.225295 -0.048320 0.158135 -0.547924 0.419736 -0.104879 0.068147 0.448865 -0.306049 -0.182555 0.416016 0.071945 0.148727 0.372664 0.107883 -0.003867 -0.024282 0.005462 -0.287152 -0.030943 -0.109479 0.384152 0.123936 0.858617 0.371677 0.381367 -0.923320 -0.863131 -0.276298 -0.258277 -0.163792 0.017904 0.796858 -0.279316 -0.454237 0.386862
dxc5 0.600281 -0.624902 -0.032843 0.139154 -0.511825 -0.223360 -0.423624 -0.023193 -0.571387 0.198383 -0.141476 -0.783245 -0.019650 0.297045 0.367672 0.381001 0.254162 0.420931 0.376333 -1.128716 -0.758108 0.390342 0.467892 0.841390 0.233960 0.151525 -0.543545 -0.189174 0.514282 0.840432 -0.654742 0.446381 -0.645969 -0.250013 0.211162 -1.037256 0.003136 0.525687 0.258049 0.332799 -0.635987 -1.213272 0.468701 -0.271220 -0.585961 -0.026033 1.197625 -1.430156 -0.175246 -0.386288
Bc5 -0.010640 0.467369 -0.303397 -0.503507 -0.079045 -0.475136 -0.166231 -0.200739 -0.171812 0.870830 0.215606 -1.135214 0.236237 -0.007842 0.882476 0.151472 -0.259489 -0.240906 -0.123295 0.134861 -0.193007 0.974106 -0.212246 0.011990 -0.005918 0.476966 -0.120608 0.360427 0.335148 -0.234494 0.242038 0.381827 -0.098775 0.567393 -0.161986 -0.628836 0.580672 0.499183 -0.329392 -0.405715 -0.119445 -0.564840 0.139329 0.250549 0.428809 0.049370 0.517487 -0.609995 0.479269 -0.003394
O-O-O 1.216821 -1.342217 0.212301 0.097490 0.470294 -0.619904 -0.549862 -0.269887 0.072407 1.174732 -0.681679 0.572576 0.822209 0.666678 0.822184 -0.450874 0.057921 0.020693 1.042554 0.308665 -1.135965 1.578915 -0.852862 0.114672 0.059080 0.780318 0.243338 -0.964511 -0.278866 -0.156518 0.244031 -0.931290 -0.310717 -0.090243 -0.430311 0.454756 0.046756 -0.012905 1.277719 0.124031 -0.341251 -1.893635 0.200997 -0.475075 0.160609 0.684733 2.179965 -1.377597 -0.584342 -1.252978
Nf5 0.274148 0.058798 -0.198433 0.296743 -0.526752 -0.252240 0.355205 0.695994 -0.585161 0.243903 -0.200465 -0.228551 0.176249 0.316743 0.265229 -0.690515 -0.454159 -0.338542 0.063995 -0.297330 -0.307990 0.272273 -0.902918 0.108413 0.131620 0.303252 0.141234 -0.026986 0.533080 -0.556940 0.339811 0.005834 0.220973 0.173792 0.081281 -0.036946 0.946509 0.845643 -0.145390 -0.281747 -0.042508 -0.634112 -0.016331 0.124257 0.104166 0.356994 1.305670 0.274792 0.239380 0.477591
Rd2 0.202167 1.000735 0.430194 -0.099928 -0.401957 -0.188840 0.217541 0.660223 0.127410 -0.063697 0.223689 -0.446525 0.587930 0.517236 0.669267 -0.084948 0.173225 -0.207320 0.172486 0.285147 0.413998 0.486755 -0.144237 -0.927887 0.318054 -0.128124 0.057688 -0.526558 0.335077 -0.282626 0.065470 0.804603 0.061048 0.175326 -0.249036 -0.022197 -0.508725 0.151907 -0.445401 -0.034652 -0.468543 -0.063060 0.421989 0.424279 -0.311856 -0.611950 0.057259 -0.218769 -0.297836 0.485773
Bb2 0.570513 0.581103 0.435135 -0.238965 -0.100270 0.285004 0.162197 -0.427497 -1.014697 0.748984 0.010354 -1.505784 -0.400445 0.448533 0.229375 0.113085 -0.116451 -0.067729 -0.477131 -0.546196 -0.062584 0.202516 -0.212629 0.178191 -0.648476 -0.470127 -0.242425 0.161306 0.391832 0.351744 -0.108500 0.399084 -0.497468 -0.215892 0.491808 -0.155713 -0.092227 0.562113 0.040533 -0.459566 -0.319609 -0.429107 -0.291122 -0.450339 0.359719 -0.081652 1.120163 -0.683190 -0.046347 0.189228
Bf6 0.113273 0.743338 0.008956 -0.329382 0.426861 0.002476 0.267469 -0.044200 -0.176675 0.371338 0.536767 -0.318170 0.039583 0.381769 0.407590 0.858992 -0.162156 -0.308718 0.326399 -0.156122 -0.053180 0.850963 -0.450379 0.295396 -0.241162 -0.264836 0.241337 0.107298 -0.061952 0.479449 0.320462 0.362750 0.125307 -0.164157 0.103574 0.277419 0.403753 0.097289 0.090081 -0.503987 -0.047489 -0.269180 -0.024646 -0.342742 -0.080226 -0.062211 0.916922 -0.219067 -0.133154 0.495971
Ke2 -0.420300 0.958912 -0.071278 0.657310 0.040067 0.293900 -0.152839 0.447577 0.424265 0.867386 1.148300 -0.580711 0.276705 -0.567434 0.008665 -0.056390 0.445647 0.819285 0.315664 0.246109 0.160778 0.465669 0.740837 -0.134386 -0.008126 -0.789171 -0.052218 0.295920 0.630839 -0.048950 0.404546 -0.220452 -0.359960 -0.207486 -0.386378 0.569027 1.497607 0.114961 0.926279 0.243871 0.155263 0.115578 -0.607145 1.512139 0.177730 -0.598145 -0.071257 -0.352334 0.591627 0.352918
Bc6 0.232179 0.093428 0.269395 -0.223429 -0.258192 -0.252273 -0.310497 -0.088729 -0.030622 -0.634614 0.620698 -0.440670 0.050030 0.709777 0.616744 -0.476854 -0.158825 -0.410874 0.407788 0.238078 -0.176247 1.032516 0.214276 -0.205902 -0.347215 -0.635838 -0.362192 0.224534 -0.023284 -0.007185 -0.344704 0.597451 -0.228463 0.237236 -0.314702 0.232354 -0.382385 0.010269 -0.188701 0.166889 0.207131 -0.288454 0.087197 0.229408 -0.075906 0.196969 0.583365 -0.398600 -0.046375 0.534903
Bxc4 0.927839 -0.016864 0.477405 -0.358958 -0.209946 -0.351878 0.254373 -0.329765 -0.344175 -0.186349 -0.319182 -0.277780 -0.182329 0.620106 -0.953956 -0.539191 -0.631411 -0.018429 -0.662451 0.149666 -0.295947 1.281663 0.305494 -0.369322 -0.083998 0.032700 -0.495093 0.211765 0.291706 0.697110 -0.114905 0.127061 -0.465228 -0.257816 -0.499603 -0.281184 0.473320 -1.082735 -0.027583 0.165845 -0.489146 -1.094066 -0.109413 0.114564 0.053336 -0.331280 0.808454 -1.711742 0.216064 -0.177296
Nf4 0.651816 -0.119044 0.448836 0.938499 0.583452 0.557500 0.102653 0.261902 -0.396860 -0.275814 -0.129952 -0.055332 -0.018319 0.102937 0.137868 -0.081505 0.088562 -1.030408 -0.034615 -0.021744 0.448450 0.251198 -0.114396 -0.999245 0.085616 -0.482254 0.530984 -0.592038 0.096469 0.134276 -0.159426 -0.143003 -0.336962 0.191978 -0.222115 0.195087 0.403004 0.693981 -0.240153 -0.161627 -0.097272 -0.732667 -0.012997 -0.026919 -0.810201 -0.191700 1.120843 0.042675 -0.393916 0.022098
exd4 1.470690 -0.127276 0.158540 -0.090952 -0.524198 0.294349 -0.035703 -0.697641 -0.692018 0.397370 -0.581500 -1.032081 -0.045225 0.597217 0.507454 0.557483 -0.939608 -0.011184 -0.551110 0.365091 0.027596 0.716555 -0.383216 -0.133725 0.494782 0.182884 -0.759636 0.673254 -0.171470 0.242861 0.030083 -0.350933 -0.066936 -0.145885 0.108900 -0.089634 -0.252645 0.511444 -0.143109 0.106850 0.342963 -1.052272 -0.757414 -0.052857 -0.038352 1.010665 0.561992 -0.900110 0.297323 0.464493
Bb3 0.452103 -0.384251 0.127728 -0.124640 -0.526177 0.272089 -0.082941 0.128983 -0.435129 0.065974 0.222422 -1.132845 0.423287 0.723791 0.143598 -0.448508 -0.987420 -0.773451 -0.490470 0.467522 -0.065279 1.513325 0.011777 -0.517497 -0.736371 -0.285630 -0.778900 -0.067491 -0.359230 -0.084103 -0.238369 0.383140 0.377209 0.561949 -0.487241 -0.133376 -0.267022 -0.173374 -0.444437 0.102717 0.153840 -0.169622 0.244071 0.229157 0.189141 -0.139366 0.860750 -0.334773 0.753942 -0.081697
Qa5 0.840702 -0.005193 0.388762 0.122019 -0.044844 -0.203788 -0.097174 -0.534908 -0.601358 -0.076899 -0.092893 -0.351887 0.458253 0.703882 0.168743 0.294513 0.203694 0.125482 0.598296 -0.075026 -0.476960 0.324533 -0.102723 -0.444436 -0.275552 0.630340 -0.609576 -0.120585 -0.099605 0.077527 0.507262 -0.171492 0.220372 -0.589990 -0.164285 -0.230211 -0.434651 -0.108150 0.388873 0.212803 -0.565651 -0.788106 0.267140 -1.027148 -0.362400 -0.100851 1.015898 -1.690341 -0.270394 0.657649
Kf3 -0.036305 1.118026 0.055448 -0.074635 -0.770245 0.358199 -0.266611 0.253161 0.062179 0.102488 1.125298 -0.664641 -0.267341 -0.256633 0.124528 0.067504 0.319603 0.025293 0.048516 0.912860 0.226047 0.096103 0.145678 -0.378999 0.833881 -0.640034 0.709315 0.105285 0.166694 0.506031 0.359167 0.244962 -0.075511 0.607944 0.365789 0.381359 1.571330 -0.182582 0.243849 0.044175 -0.428233 0.507381 -0.077859 1.560977 0.093782 -0.416027 -0.299674 0.715976 0.152857 0.674562
Kh2 0.556435 1.723303 -0.699887 -0.316006 -0.213785 -0.049936 -0.360376 0.335501 -0.238730 -0.657361 0.122957 -0.029561 0.622042 -0.583209 -0.021139 0.198918 0.843407 -0.592381 -0.641717 0.226973 -0.047705 -0.677571 0.721043 -0.329715 0.033317 -0.226401 0.528822 0.410607 0.224562 -0.139330 0.026747 0.258882 0.771563 0.816845 0.390481 0.158478 -0.376145 0.376361 -0.712156 -0.005570 -0.500979 -0.704447 0.647890 -0.559406 -0.272643 -0.206757 0.376228 0.144903 0.768848 1.234031
Nb3 0.394944 -0.487181 -0.590415 -0.082141 0.110614 -0.248443 0.063470 0.194826 -0.352556 0.798658 0.145197 -1.410675 -0.228653 0.733176 0.313038 0.291450 -0.304429 -0.276730 0.340757 0.244683 -0.489098 0.559776 -0.163337 0.136161 -0.409646 0.596331 -0.259441 0.362407 -0.072383 0.109279 -0.494587 -0.465408 -0.257476 -0.115880 -0.288996 -0.742492 -0.056773 1.074531 0.214101 0.045068 -0.399560 -0.392403 0.282431 0.190266 -0.507457 -0.199301 0.870754 -1.110140 0.132218 0.644494
axb5 0.237397 -0.238330 0.491971 -0.109680 -0.159310 -0.612548 0.106320 0.046010 -0.774701 -0.387471 1.243269 0.267939 -0.333494 0.451322 0.494024 -0.346847 0.051883 0.513587 0.101648 0.151140 0.184122 0.581433 -0.206257 -0.783856 -1.099649 -0.303947 -0.649427 0.775276 -0.032501 0.181520 0.278335 -0.161338 -0.902254 0.000672 0.093169 -0.414034 -0.049729 0.343578 -0.374156 -0.150737 -0.290424 -0.001179 -0.069718 -0.067781 1.092389 0.868948 0.980739 -0.460029 0.265153 1.038323
Nd3 -0.808662 0.253085 0.118758 0.416861 0.529432 -0.209006 -0.388284 0.164899 -0.424360 0.199085 0.355841 -0.553117 -0.427241 0.578039 0.160920 -0.028599 0.267963 -0.440832 0.133278 0.102229 0.332504 -0.232260 -0.087244 -0.282232 0.192238 -0.506913 0.704847 0.028684 0.144962 0.723610 -0.397098 0.101146 -0.892413 0.048129 -0.038372 -0.107242 0.244514 0.886644 -0.157034 -0.056998 -0.428228 -0.212398 0.036733 -0.167196 -0.838955 -0.702971 0.769120 -0.725356 -0.305346 0.412186
Ke3 -0.009101 0.915363 0.489822 0.323585 -0.107398 0.183292 -0.318456 0.427136 -0.013996 0.031430 1.044686 -1.071192 -0.020912 0.034279 -0.171205 -0.854510 0.234896 -0.083633 0.559044 0.354817 0.070859 0.258219 0.427114 -0.284785 0.597884 -1.161551 0.022861 0.100743 -0.172928 0.057606 -0.325575 -0.067815 -0.761872 0.345522 -0.169982 0.719605 0.770477 0.110551 0.542225 0.495171 -0.063129 0.626872 -0.489692 2.073565 -0.174623 -0.444425 -0.464523 0.955283 0.085476 0.480174
Ra8 0.012119 0.221409 0.235576 -0.100819 0.211222 -0.501886 0.199197 0.207266 -0.487657 -0.538857 1.303312 -0.149394 -0.131457 0.483599 0.574554 0.556724 -0.091481 0.101549 0.134846 -0.207965 0.435096 0.366665 0.644488 -0.188818 -0.223205 -0.367617 0.797291 0.372280 -0.396198 -0.374794 -0.185030 -0.069073 -0.182919 -0.278433 0.266597 -0.360687 0.419526 0.393049 -0.563025 0.305021 -0.121539 0.554269 0.309182 0.741681 0.508139 -0.538752 0.105927 -0.528857 0.130195 0.862227
Ne6 0.568200 0.388963 0.184728 0.406952 0.392627 0.195715 0.024311 0.359403 -0.257207 0.048700 0.163754 -0.137069 0.117520 0.683727 0.459941 0.209038 0.145495 -1.025031 -0.035045 -0.578405 -0.053100 -0.027503 -0.026788 -0.677595 0.104886 -0.004855 0.033403 -0.357909 -0.024867 0.343427 -0.637112 0.020965 -0.140433 -0.220448 -0.210754 -0.422667 0.625473 1.091927 0.087168 -0.602536 -0.170996 -0.433126 -0.020829 0.303952 -0.021302 0.273207 0.656667 0.529108 -0.139243 0.542707
Bd4 -0.173186 0.726961 -0.009910 -0.333557 0.339953 -0.561267 -0.018087 -0.166702 -0.316971 0.167888 0.471879 -0.710313 0.274333 0.514963 0.589798 0.674894 0.150479 -0.582879 -0.125663 0.349615 0.035285 0.570742 -0.073235 0.339650 0.103126 0.255015 0.006808 0.598321 0.149544 0.224832 0.516233 0.546381 -0.232651 0.113405 -0.149893 0.100692 0.497722 0.117593 -0.020291 -0.959621 -0.335205 -0.119249 0.022362 0.020924 0.130070 0.015883 0.231333 -0.556781 -0.224894 0.263455
bxc3 0.705135 0.062105 -0.095212 0.012892 0.216328 0.475173 -0.038089 -0.354251 -0.758709 -0.092769 -0.512069 -0.184450 0.229535 -0.146514 -0.446911 -0.182688 -0.251917 0.443217 0.775733 -1.020398 0.079306 0.996256 -0.812976 0.178030 0.038469 -0.317907 -0.825651 0.366778 -0.283141 0.811106 0.615285 0.513437 0.345036 -1.122915 0.428509 0.087213 -0.191418 -0.635244 0.561428 0.507463 -0.552576 -1.342099 -0.019804 0.263015 0.210469 -0.691045 0.911936 -1.331578 0.120028 0.043913
Qf3 0.594559 0.575338 0.224946 0.303196 -0.368767 -0.207559 -0.303588 0.436223 -0.187472 0.306843 0.280365 0.922041 0.076229 0.246756 0.349264 0.469715 -0.360558 0.270485 0.001510 0.326384 -0.138123 0.398801 -0.223192 -0.034059 -0.439302 0.153029 0.116757 -0.196882 -0.069135 -0.286538 0.099411 0.317872 0.541778 0.137922 0.154313 0.221181 0.214189 0.315523 0.125237 -0.345920 0.109797 -1.313992 0.551308 -1.017497 -0.186081 -0.012713 1.141914 -0.474560 0.015551 0.310901
Kh1 0.900053 0.538234 -0.731720 -0.213203 0.164840 -0.516566 -0.419203 -0.377533 0.417014 0.091654 0.190712 -0.347209 0.041594 -0.117911 -0.325667 0.395460 0.818714 -0.849316 -0.440397 0.334651 0.117309 -0.341016 0.151435 0.244395 0.203561 0.530937 0.078474 0.275709 0.293727 -0.383228 0.199485 0.386360 -0.660837 0.707674 -0.496241 0.542106 -0.295690 0.459555 -1.343363 -1.208093 -0.424545 -1.756923 0.746145 -1.058797 -0.154493 0.181565 0.827408 0.012551 0.757604 0.932974
Bxd5 0.792682 -0.038493 0.126864 0.810236 0.296305 -0.349794 -0.422103 0.441834 -0.058179 -1.096038 0.163597 -0.113731 -0.119902 0.121088 0.559958 0.479613 -0.699932 0.268316 -0.188174 -0.216409 0.058612 1.665825 -0.053554 -0.504160 -0.546986 -0.254337 -0.464691 -0.755223 0.226409 0.623341 0.904361 0.613612 -0.398335 0.101274 -0.334064 -0.319227 -0.380226 -0.542578 -0.522826 -0.331019 0.212851 -0.468277 -0.078749 -0.374592 -0.289561 0.562369 0.706231 -0.312537 -0.380528 0.706264
Kf1 -0.407068 0.754069 -0.125744 0.394137 -0.740885 0.624196 0.006594 0.322104 0.826004 0.164306 0.553374 -0.788917 0.464946 -0.684367 0.431912 0.475051 0.466977 0.293104 0.410102 0.439985 0.528246 -0.007813 0.835696 -0.566014 0.848044 -0.507287 0.158582 -0.070400 0.584257 0.251140 0.378826 -0.174227 -0.441301 -0.037917 -0.241703 0.653078 1.150764 0.138988 -0.338766 -0.139971 -0.016705 -0.931181 -0.264990 0.165838 0.051253 0.056247 -0.189568 -0.679120 0.985083 0.660385
Nd6 -0.497692 0.267815 -0.050157 0.034031 -0.494224 -0.789129 0.246351 0.481735 -0.541529 -0.245486 -0.287036 -0.760622 -0.197560 0.969634 -0.109563 -0.772195 -0.047184 0.320489 -0.189330 -0.184303 -0.013616 0.429619 0.116513 -0.172574 0.189857 -0.032622 0.191908 0.083649 0.089604 -0.106410 -0.365776 0.383161 -0.116938 -0.483003 -0.325613 -0.169640 0.786236 0.475917 -0.132043 0.070449 -0.342304 0.193435 -0.076619 0.155432 -0.018297 0.158114 0.993928 0.189907 -0.224250 0.633524
Ke6 -0.494126 0.502308 -0.171983 -0.476114 -0.191870 -0.292920 0.059034 0.754539 -0.653206 0.296395 0.698350 -0.915653 -0.440458 -0.826621 0.034845 -0.797294 -0.204232 -0.029603 -0.034064 0.015321 0.108206 0.617181 0.488378 0.416041 0.183699 -0.777456 1.091299 -0.238587 0.267529 0.198105 0.622923 0.467519 -0.155849 1.088990 0.133354 0.002805 0.756023 -0.082030 0.780408 -0.775134 -0.195302 0.763295 -0.545073 1.481083 0.041500 -0.428663 -0.716925 -0.054516 -0.606820 0.484825
Bf8 -0.372227 0.541257 0.537831 0.240012 0.064873 -0.179193 0.551648 -0.049894 -0.923142 0.403006 0.567113 -0.064682 -0.116388 0.613033 -0.015105 0.469931 -0.348871 -0.281739 -0.012251 -0.025186 -0.274236 0.582832 0.195706 0.162089 -0.389235 0.048805 -0.043943 0.127777 0.174422 -0.388916 0.028049 0.227820 0.285418 0.088374 0.013571 -0.649272 0.577769 1.005654 -0.291938 -0.364034 0.054860 -0.256558 0.177855 -0.424087 0.247119 -0.502106 1.027067 -0.223811 0.036158 0.389446
Ne3 0.105322 -0.025037 -0.377062 0.393851 -0.507358 -0.457652 0.413910 0.607620 -0.296215 0.034407 0.376149 0.125934 -0.167947 0.361020 -0.145808 -0.610368 -0.377706 -0.327609 -0.882563 0.062769 0.212734 0.108771 -0.274251 -0.551708 -0.637452 -0.114224 -0.039429 -0.245775 0.712673 -0.112233 0.495789 0.345591 -0.343522 0.325525 -0.146778 0.190509 0.443172 0.404774 -0.025831 -0.031576 0.422481 -0.467576 0.251966 0.473569 0.226163 -0.362701 1.140906 -0.353638 -0.527958 0.774007
Re7 -0.114413 0.771907 -0.175020 -0.111188 -0.270804 -0.149528 -0.147228 0.837913 -0.872839 -0.289918 0.465151 0.142740 0.117701 1.026979 0.046823 0.229949 0.160111 -0.393909 0.341226 -0.108629 0.676650 0.707988 0.472597 -0.448802 0.810327 0.061476 -0.178033 -0.047442 -0.245978 0.008085 -0.547269 0.479767 0.635609 0.246936 0.327332 0.557785 0.360023 0.200558 -0.678913 -0.317277 0.462753 -0.128038 0.051350 0.078732 -0.235268 0.114518 -0.132153 0.036539 -0.125735 0.051378
Rc2 -0.247146 0.966758 0.403805 0.147559 0.246840 0.093312 0.201075 0.690248 -0.220066 -0.333787 0.483695 -1.143593 0.291330 0.688419 0.041534 0.274566 0.464716 0.594085 -0.246015 0.344171 -0.096059 0.094359 -0.139345 -0.590511 0.467804 -0.429885 0.086241 -0.200395 0.150147 -0.165480 0.046816 0.441296 0.055087 0.350342 -0.160056 -0.219795 -0.014862 0.297685 -0.943565 -0.116505 -0.719370 0.329903 0.110715 -0.217300 0.062290 -0.845197 -0.392124 -0.791448 -0.373179 0.778632
Qe3 0.330226 0.567402 0.109256 0.231932 0.000961 -0.372318 -0.226360 0.362184 0.050817 0.347572 -0.044317 0.342283 0.547389 0.779369 0.155801 0.181201 0.307238 -0.264496 0.187302 0.212978 -0.014629 0.168923 0.595451 -0.281394 -0.098698 0.327670 -0.137194 -0.163157 -0.163803 -0.390271 -0.216784 0.155517 0.096669 -0.025169 -0.399207 0.318375 -0.442116 0.280591 0.291298 0.057045 -0.140898 -0.961494 0.284555 -1.136283 -0.453589 -0.013735 0.684334 -0.632297 0.022467 0.953752
Rad1 0.515033 0.181737 0.084461 -0.486712 -0.806608 0.003323 0.200194 0.140954 0.080973 0.544348 -0.079150 0.120230 0.193512 1.293214 0.281681 0.202697 -0.144802 -0.466920 0.004027 -0.286103 -0.164602 1.183916 -0.407915 -0.722451 -0.367024 0.168240 -0.628837 -0.507978 0.511305 -0.044343 0.102781 0.667245 -0.623935 -0.547369 -0.157175 -0.524240 -0.271415 0.624918 -0.391344 -0.599362 -0.170593 -1.386263 -0.066141 -1.047476 -0.506976 0.629224 1.670178 -0.226291 -0.255908 0.125474
Bf3 0.254068 0.296317 0.148600 0.232718 -0.523862 -0.081468 -0.317402 0.279964 0.144768 -0.494653 0.491371 -0.694337 0.464643 0.848038 0.931584 -0.514742 0.100207 -0.473351 -0.156734 0.133232 -0.141055 0.690511 0.558179 0.143179 -0.050380 -0.411114 0.075991 -0.371752 -0.174859 -0.070677 -0.158897 0.568326 -0.090411 0.228794 -0.355575 0.732225 -0.685724 0.270166 0.009941 -0.009751 0.219544 -0.519746 -0.172766 0.094688 0.298106 0.148446 0.566533 -0.613008 -0.361588 0.190286
d3 0.909699 0.098121 0.516851 -0.259997 -0.430639 0.171836 -0.346535 -0.059899 -1.443431 1.205759 -0.102535 -1.170595 -0.309729 -0.721870 0.114129 -0.160488 -0.503472 -0.140450 -0.001030 0.320179 0.134537 -0.073597 -0.049813 -0.019449 0.194392 -0.233398 -0.491006 0.001922 -0.276916 0.070067 0.223492 0.008703 -0.472130 0.409761 0.343283 -0.044429 -0.576053 0.552662 -0.504844 0.137331 0.551670 -0.162259 0.407963 -0.172163 0.505044 -0.189976 0.881644 -0.990244 0.740099 -0.554297
Qf6 0.553549 0.635352 0.125139 0.148153 -0.421558 -0.324042 -0.271217 0.326995 -0.349378 0.237251 -0.484906 0.311312 0.261690 0.336425 0.249379 0.188215 0.196912 -0.501379 -0.086084 -0.419144 0.610750 0.087421 0.490591 -0.084156 0.151046 -0.003253 -0.029336 0.010072 -0.385212 -0.315729 0.079132 0.058049 0.497293 -0.276691 -0.247837 0.695780 -0.343792 0.368995 0.265250 -0.045952 -0.066468 -0.928626 -0.208381 -1.124819 -0.515770 0.458688 0.713022 -0.613296 0.105438 0.684365
Qd6 0.448902 0.355174 0.217435 0.319965 -0.109925 -0.458191 -0.660809 0.222006 -0.515899 0.236945 -0.018176 0.039125 -0.084977 0.283052 0.429388 0.201515 0.058787 -0.122256 -0.261660 -0.205838 0.305356 0.495540 0.404984 -0.402310 -0.093120 0.043651 -0.530122 0.122996 -0.179111 -0.262453 -0.407543 0.164325 0.552913 0.170353 -0.133096 -0.148421 -0.135123 0.129242 0.042101 0.209835 0.182159 -0.936364 0.114081 -1.280335 -0.809663 0.314745 0.488385 -0.707454 -0.025979 0.517600
Be4 0.343565 0.437223 0.288235 0.202440 -0.041122 -0.025219 -0.274860 0.450608 0.312465 -0.195731 -0.215618 -0.651239 -0.243181 0.537514 0.602774 -0.410364 -0.161512 -0.089673 -0.282023 -0.160411 0.032063 0.977451 -0.125216 0.247754 0.067796 -0.793108 -0.020679 -0.226271 -0.186843 0.010561 -0.093192 0.474844 -0.018186 0.485368 -0.073919 0.400488 -0.229242 0.003644 -0.070923 0.597046 0.345830 -0.205141 -0.052903 0.321424 -0.481502 0.137583 0.733734 -0.484372 0.437510 0.327414
Kg6 0.476717 0.607429 -0.166144 -0.332795 -0.405425 0.126238 -0.429251 0.595542 -0.164603 0.719827 1.182118 -0.349695 -0.204732 -0.341193 0.575516 -0.407454 -0.535900 -0.450798 -0.279259 -0.730387 -0.078453 -0.319732 0.621075 -0.078773 0.758103 0.128450 1.468861 0.035609 -0.550540 0.269093 0.074158 0.554711 0.705712 0.655699 -0.069489 0.153607 1.018974 -0.738796 0.234062 -0.595083 0.209249 0.818637 -0.088834 0.526708 -0.176465 -0.716621 -0.749067 0.396891 0.183810 1.212150
Ng5 0.254371 -0.187481 0.414297 0.184385 0.160583 0.387487 0.048565 0.372696 -0.181135 0.364045 -0.468649 -0.184233 0.121953 0.709396 0.185874 -0.224357 0.622111 -0.059881 0.152160 -0.602889 -0.137168 0.058699 -0.364019 -0.438683 0.251912 -0.894687 0.065232 -0.563783 -0.432742 0.517016 -0.862776 0.101681 0.395464 -0.282049 0.074813 -0.005420 0.092604 0.239869 0.105991 -0.747772 0.505610 -0.594101 -0.072857 -0.233320 0.141995 0.305416 1.786472 0.308089 0.416360 0.556397
Ng4 0.061053 -0.650562 -0.188014 -0.010345 -0.777696 -0.877290 -0.046490 -0.055430 -0.586996 0.790607 0.453098 0.230683 0.297422 0.465195 0.417869 0.004728 0.345414 -0.285552 -0.865451 0.268861 -0.045025 -0.272944 -0.504590 0.035771 0.308822 -0.412564 -0.338606 0.134805 0.236752 0.029518 0.075201 0.135332 -0.017993 0.053502 -0.217015 0.649389 0.408343 0.225801 -0.048830 -1.074949 0.161013 -0.384548 0.044780 -0.160949 0.062204 -0.213378 1.519790 -0.452113 -0.298354 0.482575
Ra7 0.393940 0.101871 -0.007718 -0.328196 0.028722 -0.167538 -0.049122 0.198700 -0.756340 -0.712761 0.925421 -0.231472 0.030171 0.890013 -0.001197 0.505909 0.163119 0.246525 0.479974 -0.475651 0.182109 0.493071 0.425060 -0.314692 -0.185775 -0.416910 0.365593 0.118030 -0.127069 -0.333396 -0.725380 0.107865 0.126161 0.058870 0.261829 -0.149860 0.865163 0.024825 -0.765418 -0.216530 0.183842 0.625468 0.268735 0.729811 0.093798 -0.682680 0.103751 -0.432229 0.064854 0.708921
Bxe4 0.166416 0.835540 0.549958 0.391677 0.181039 -0.440138 -0.347397 0.248756 0.183336 -0.217178 -0.394596 0.060899 0.098521 1.364758 0.083735 -0.675170 0.008904 0.683248 -0.091115 0.121358 -1.017556 0.684292 -0.519374 0.477085 0.842871 -0.259556 0.229362 0.632332 -0.095075 -0.009991 -0.523964 0.820623 -0.564211 -0.243525 0.711669 -0.303544 -0.552770 -0.203252 0.265007 -0.141309 0.731651 -0.702857 -0.548665 -0.120557 -0.136652 0.352742 1.160569 -0.483169 0.928666 0.495777
Rf8 0.036187 0.650111 -0.105821 -0.219807 0.756529 -0.741050 -0.071122 0.492984 -0.470319 0.611224 0.231047 0.483699 0.316341 0.512070 -0.236861 0.106895 0.677727 0.179329 -0.388165 -0.723665 0.551642 0.368419 0.309847 -0.187786 0.421063 -0.276956 0.132494 0.186283 -0.364408 -0.453192 0.006816 0.535240 0.256984 0.274153 -0.004336 0.414422 0.292963 0.077098 -0.395366 -0.098852 0.438780 -0.231783 0.426004 0.098276 0.175504 0.054124 0.447206 0.597703 0.023197 0.276602
Bc2 -0.137446 -0.268927 0.329587 0.204269 -0.551656 0.178315 0.285905 0.263525 -0.374068 0.128137 0.377660 -1.057735 -0.032467 1.036028 0.008248 -0.670712 -0.241341 -1.207036 -0.095203 0.145267 0.050055 0.788386 -0.039536 0.297989 -0.521806 -0.144546 -0.570410 0.121010 -0.400728 -0.070875 -0.329077 0.162405 0.160976 0.862378 -0.047599 0.029060 -0.447894 0.179277 -0.011196 0.503112 0.468116 -0.311625 0.028186 0.377984 0.009449 -0.325979 1.408533 -0.401575 0.619152 0.110155
Bd5 0.280321 0.361821 0.087327 0.032289 -0.146074 -0.238778 -0.423077 0.653048 0.338311 -0.479315 0.184358 -0.825429 -0.202976 0.623515 0.174108 -0.091581 -0.287680 -0.165269 -0.326742 -0.166087 0.122965 0.969326 0.187230 -0.129801 -0.203357 -0.766389 -0.069503 -0.237568 -0.346128 0.248513 -0.534674 0.639975 0.163195 0.196759 -0.483496 0.036288 -0.012234 -0.156246 -0.298093 0.173200 0.222104 -0.236883 0.218317 0.349898 -0.027195 0.109631 0.437245 -0.253676 0.470309 0.443433
Nb5 0.115217 0.045474 0.132972 -0.048153 0.314979 -0.360661 0.121620 -0.530328 -0.425286 -0.197700 0.054647 -1.093814 -0.004334 0.696910 1.003465 -0.708343 -0.257520 0.372570 0.210873 -0.260108 0.000141 0.352168 0.000550 -0.461366 0.057915 0.622870 -0.122508 0.239033 0.291590 -0.242623 -0.115670 0.175015 -0.228036 -0.770347 -0.372668 -0.052353 0.790447 0.660878 -0.103941 -0.182904 -0.471475 0.223319 -0.205934 -0.138616 0.674675 0.733742 0.907504 -0.554437 -0.582307 0.694638
Kd7 -0.827005 0.359984 0.587696 -0.449988 0.952958 -0.518372 -0.024262 1.014939 -0.631543 -0.000940 0.475579 -0.440609 -0.345316 -1.101358 0.205215 -0.924632 0.124072 -0.198773 0.490322 0.599576 0.453247 0.597829 0.239594 0.448731 -0.054959 -0.835175 0.553538 -1.059664 0.371027 0.004246 0.051573 -0.369714 0.484069 0.858698 -0.097112 -0.443669 0.819172 -0.072932 0.774387 0.101222 -0.670715 -0.196890 -0.582457 0.902907 1.003853 0.709454 -0.449230 -0.213057 -0.614231 0.357378
Qd8 0.212126 0.026929 -0.051964 -0.105160 0.049581 -0.265808 0.241307 -0.326483 -0.683802 -0.048808 0.396474 0.272395 0.183009 0.629754 0.088107 0.393895 0.244564 -0.403612 0.219626 -0.034177 -0.233770 0.198200 0.419906 0.003868 -0.148929 0.370099 -0.302270 -0.040095 -0.225223 -0.232896 -0.196324 0.143074 0.501233 -0.131500 -0.379151 0.207366 0.391344 0.063593 -0.498776 0.434540 0.235058 -0.736411 0.299052 -1.478069 -0.061404 0.100967 1.161219 -0.359708 -0.010108 1.173153
axb4 0.193296 -0.428584 0.532380 0.591154 0.411796 -0.207305 -0.653960 -0.117074 -0.739969 -0.059522 0.725073 -0.739625 0.393516 1.052776 0.397183 0.524686 -0.090572 -0.123358 0.041321 0.062969 0.839567 0.287762 0.055929 0.453578 -0.577834 -0.403807 0.387115 -0.069913 0.232571 -0.296577 -0.211807 0.431663 -1.060722 -0.588070 0.614209 -0.606957 -0.809371 0.380999 0.080445 0.429927 -0.232477 -0.243013 -0.486543 0.226702 0.073661 0.103353 0.387136 -0.603598 0.245478 0.962393
Ba6 0.101925 -0.462089 0.045592 0.092668 0.279943 0.097017 -0.041428 -0.492043 -0.554083 -0.055012 0.242959 -0.699234 -0.641765 0.389965 -0.267012 -0.308921 0.440101 0.420218 -0.194317 0.366792 0.276355 0.520794 0.211914 -0.478264 0.352301 -0.425731 -0.576262 0.351621 0.030803 0.107873 -0.194654 -0.079997 -0.155700 -0.584428 -0.007005 -0.190003 -0.029615 0.310128 -0.016629 0.712138 -0.618768 -0.257248 0.198633 0.012292 -0.337809 -0.140865 1.150395 -1.303254 -0.634914 0.395377
Kg3 0.386128 1.563300 0.040064 -0.243481 -0.738694 0.412280 -0.512630 0.294729 0.192858 -0.060896 0.512839 -0.648974 0.322267 -0.149034 0.490013 -0.337033 0.495638 -0.271994 -0.269372 0.529381 0.111230 -0.719239 0.698196 -0.715873 0.304276 -0.614967 0.642608 -0.277793 -0.461673 0.341186 0.277519 -0.169225 0.103029 1.476967 0.647467 0.521473 0.538602 -0.499509 -0.374631 0.332953 0.048757 0.392311 0.304473 0.975875 -0.132374 -0.599227 -0.240203 1.003482 0.308439 1.048539
Bc3 -0.342118 0.888006 0.135356 -0.417357 0.193239 -0.034918 0.483156 -0.108870 -0.390078 0.089748 0.659378 -0.779659 -0.269840 0.468610 0.685299 0.525812 0.192620 -0.378384 -0.035968 0.031457 0.239064 0.497926 -0.419048 0.395766 -0.195472 -0.063858 0.248463 0.114425 0.206650 0.511824 0.131748 0.566868 -0.091260 -0.246529 0.644862 0.103788 0.302057 0.230892 0.530077 -0.350259 -0.166938 -0.062883 -0.353944 0.158550 -0.169721 -0.118540 0.526116 -1.063401 0.124796 0.300371
Ra1 0.111484 0.476956 -0.053486 -0.001367 0.372568 -0.596430 0.096098 0.439735 -0.635189 -0.853889 0.925805 -0.383833 -0.060884 0.459475 0.537825 0.520540 0.174348 -0.117791 -0.355211 -0.084317 0.261941 0.170074 0.481400 -0.014091 -0.569359 -0.564349 0.782567 0.143347 -0.115505 -0.017859 -0.238599 -0.395371 -0.190413 -0.123213 0.689883 -0.200060 0.130133 0.096179 -0.412720 0.586732 -0.320902 0.645531 0.424740 0.997283 0.522205 -0.767717 0.033645 -0.860556 0.368955 0.952917
Be5 0.169707 0.791057 0.351831 0.048430 0.510068 -0.290916 -0.102825 0.007514 -0.156792 -0.045104 0.755787 -0.711037 0.067460 0.378563 0.546360 0.519589 0.018221 -0.358607 -0.267844 -0.175544 -0.424824 0.862624 -0.217292 0.253246 0.304025 -0.356472 0.406155 0.356317 0.495753 0.215916 0.232616 0.379125 0.140001 -0.137723 -0.097761 0.508319 0.614561 -0.105331 -0.172381 -1.145030 -0.298646 -0.391813 0.001906 -0.454603 -0.103201 0.192540 0.282192 -0.230204 -0.113902 -0.246095
Kd6 -0.530819 -0.013701 0.092577 -0.020972 0.587608 -0.279698 -0.202725 0.925257 -1.060262 -0.399615 0.423989 -0.964411 -0.375853 -0.569397 0.110760 -1.058153 0.001674 -0.721609 0.296981 0.226186 0.199779 0.447941 0.426903 0.218388 0.024342 -1.322653 0.298066 -0.501894 -0.100912 0.630874 -0.148740 0.194635 0.066767 1.307912 -0.112695 0.113189 0.163305 0.145788 0.781469 -0.197880 0.351199 0.256507 -0.385434 1.898135 0.359487 0.080919 -1.198899 -0.004980 -0.439416 0.440212
Bxf3 0.766315 0.259807 0.138561 -0.321962 -0.275108 0.298964 0.106319 0.388450 0.327249 0.388225 0.246344 -1.135954 0.625370 0.058285 0.846961 -0.413801 -0.259371 0.379950 -0.119617 -1.027487 -0.198199 0.195234 0.788231 0.130254 -0.490884 -0.177186 -0.841375 -0.305451 -0.724227 0.057160 0.157230 -0.375773 -0.583024 -0.465383 -0.329706 0.459308 -1.193080 -0.038200 -0.581879 -1.235234 0.370378 -0.641355 -0.608980 -0.812279 0.247056 -0.031634 1.334080 -1.372624 0.224954 -0.336831
Na5 0.436152 -0.365685 -0.362365 -0.377601 -0.090389 -0.029351 0.358761 0.406886 -0.485453 0.103697 -0.205341 -1.122819 -0.372610 0.689023 -0.339348 -0.003124 -0.353554 -0.049253 0.277369 0.337592 -0.040585 0.973031 -0.483216 -0.070997 -1.083847 0.104857 -0.567894 0.362591 -0.383575 -0.013116 -0.136444 0.162315 -0.080425 -0.470067 -0.891370 -0.612949 0.173673 0.425642 0.025625 0.320189 0.147591 -0.498853 -0.020065 0.237889 0.033738 -0.141798 1.306951 -1.325992 -0.278731 0.383191
Rd3 0.172158 1.053782 0.051188 -0.116192 -0.168779 0.212266 0.075189 1.118345 0.096089 0.272078 0.655334 0.130984 0.625252 0.353919 0.361524 -0.020957 -0.041826 0.282081 0.382539 0.004519 0.229534 0.705961 0.071179 -0.668078 -0.003653 -0.184994 0.286783 0.127863 0.743733 0.055663 0.451884 0.636678 0.413340 0.136335 -0.111980 -0.148473 -0.585719 0.564251 -0.173327 -0.169270 -0.588783 0.316244 0.367150 0.529755 -0.130310 -0.283898 0.255621 -0.381979 0.108743 0.272640
dxe4 0.488805 0.250700 0.292562 0.190973 -0.087030 0.133988 -0.330990 0.095486 -0.429031 0.563425 -0.005415 -0.240679 0.234246 0.870419 -0.120677 -0.561858 0.062473 0.465663 -0.145164 0.208103 -1.443551 0.482158 -0.454120 0.220374 0.617970 -0.046740 0.010574 0.585215 -0.119952 -0.085820 -0.806625 0.459790 -0.485544 0.035281 0.928355 -0.356710 -0.471415 0.109725 0.372452 -0.020472 1.104184 -0.701843 -0.511860 -0.428186 -0.097035 0.227740 1.660669 -0.538819 1.180673 -0.367994
Bxe5 0.057812 0.761119 0.430448 -0.356233 -0.191533 -1.377191 -0.099266 0.160545 -0.333411 -0.037837 0.134855 -0.057141 0.406593 0.010400 0.544479 0.572754 0.721017 0.077114 -0.286161 -0.443628 -0.168074 0.824490 -0.263562 0.042731 0.021401 -0.724970 -0.268933 0.899026 -0.073721 0.539549 -0.225897 0.048440 -0.983836 0.290037 -0.338574 0.169073 0.132766 -0.168569 0.097511 -0.769495 -0.490524 -0.224487 -0.588690 -0.837993 -0.875633 0.260766 1.043595 -0.348072 -0.380158 -0.407373
0-1 0.849003 0.774414 0.257359 0.341534 0.072656 0.073894 0.027242 -0.275572 -0.283740 0.520554 -0.355191 -0.803000 0.059909 -1.351632 0.023618 -0.579858 -0.129533 0.488793 -0.221972 0.641911 0.026472 -0.659799 0.223845 0.092122 0.428642 -0.132218 -0.024373 0.504053 -0.098822 0.312515 0.235718 0.141701 0.327903 0.256350 -0.021167 0.638518 -0.646376 -0.358260 0.037256 -0.496585 -0.104411 -0.545722 0.691249 0.821210 0.256478 -0.726940 -0.128934 -0.119500 0.852859 0.079282
Kd3 -0.249904 0.609407 0.240115 0.491845 0.337928 -0.169530 0.415051 0.393549 -0.601233 0.313067 1.198508 -1.284110 0.007259 -0.247469 -0.297315 -0.252970 -0.145970 0.424890 0.416811 0.771222 0.257454 0.448626 -0.031562 0.392916 0.045538 -0.591049 0.024145 0.542633 0.150196 0.074349 -0.048075 0.259021 -0.106552 0.090410 -0.368130 0.618530 1.308089 -0.123026 0.884314 -0.414353 0.194821 0.182546 -0.373030 2.169300 0.489917 -0.450982 -0.828214 0.919862 -0.467183 0.323710
Re2 -0.228803 0.887173 0.036488 -0.028378 -0.217215 -0.373786 0.491943 0.868383 -0.350158 0.214179 0.380174 -0.320947 -0.031544 0.472975 0.415656 0.314871 0.239203 -0.249523 0.021451 0.641000 1.165978 0.287926 -0.464975 -0.552330 0.641148 0.252667 0.174478 -0.240618 0.035608 0.185825 -0.410056 0.368118 0.400393 0.360794 0.456902 0.414277 -0.297969 -0.216033 -0.725092 -0.569484 -0.276870 -0.469440 0.410302 0.189808 0.060318 -0.685419 -0.038625 -0.114912 -0.368381 0.380373
Nbd2 0.887605 -0.889918 0.196509 -0.869795 -0.951269 0.221213 0.584143 -0.269121 -1.050732 1.289584 0.025976 -1.570957 -0.938902 -0.059066 -0.739396 -0.072964 -0.401668 0.287681 -0.775958 0.140507 -0.507021 0.331063 -0.341512 0.354492 -0.749858 -0.464781 -1.209742 -0.113683 -0.631129 -0.215046 -0.973522 -0.177673 -0.533079 0.078781 0.291554 -1.140868 -0.329473 0.810362 -0.169030 0.276504 0.554434 -1.233621 0.087236 -0.260295 -0.127235 0.059084 2.363878 -1.116044 1.126532 -0.279511
Bxc5 -0.003102 -0.090606 0.069152 0.081651 -0.195088 -0.597959 -0.372624 0.373972 0.007509 0.355557 -0.082965 -0.950027 0.232920 0.280178 0.664827 0.733618 0.189966 0.138496 0.459673 -0.705694 -0.662454 0.591681 0.400094 0.932105 0.315478 0.242487 -0.314985 0.002210 0.389867 0.541920 -0.459739 0.330577 -0.779861 0.279743 -0.028394 -1.552916 0.421195 0.494783 -0.074674 -0.135558 -0.579497 -0.981018 0.542853 0.043824 -0.366333 -0.022687 0.782960 -1.016572 0.179197 -0.489543
Bf1 0.278287 0.106731 -0.381917 0.449977 0.133055 0.030151 0.240135 0.073313 -0.395202 -0.664480 0.278290 -0.485683 -0.076920 0.490076 0.335925 -0.228707 0.582474 -0.371048 -0.284097 0.316437 0.078626 0.387472 0.874051 -0.408185 -0.362990 -0.362630 -0.275397 0.175763 0.073090 -0.117136 -0.470939 -0.140358 -0.045766 -0.334363 -0.431982 0.197889 -0.148214 0.547344 -0.590273 0.423280 -0.187985 -0.433101 0.101257 -0.012982 -0.195622 -0.354401 0.767597 -0.654706 -0.222484 0.722853
Nb4 -0.040697 -0.417224 0.285860 0.779064 0.737154 0.131628 -0.516812 -0.172217 -0.347136 0.213377 -0.348821 -1.004986 -0.370158 0.472902 1.121241 -0.075383 -0.490486 0.084225 -0.010558 0.303790 0.371235 0.459525 -0.464807 -0.584821 -0.570761 -0.465157 0.037997 -0.311123 0.487258 0.136401 0.275009 0.371996 -0.800105 -0.332637 0.166929 -0.370212 0.132414 0.543924 -0.416995 0.150741 -0.270305 0.190436 0.538679 0.003640 -0.614038 -0.261951 0.845536 -0.924603 -0.128255 0.532419
Bxd4 0.901343 0.619588 0.091741 -0.227201 0.016820 -0.383845 -0.374700 -0.500084 0.315887 0.364828 -0.210426 -0.799252 0.571040 0.828578 1.122202 0.982448 -0.567556 -0.278570 -0.042607 0.431786 0.106581 0.436987 -0.604181 -0.073167 0.599950 0.495734 -0.486092 0.959817 0.061795 0.334767 0.278357 -0.330231 -0.365228 0.187340 -0.134013 -0.063934 -0.240839 0.636732 0.110424 -0.542286 0.205416 -0.601375 -0.532689 -0.076650 0.093843 1.028469 0.407809 -0.654315 -0.119454 0.601189
Rd6 0.090730 0.740309 0.440313 -0.429206 -0.363423 0.459840 -0.130681 0.998907 -0.196127 0.236434 0.479510 0.257987 0.648952 0.985238 0.539421 -0.082797 0.002858 -0.199587 0.096229 -0.146004 0.541326 0.797041 0.826088 -0.714530 0.432990 -0.522313 -0.183768 -0.107589 0.027135 -0.611773 0.111145 0.795677 0.191377 -0.382028 0.071562 -0.269505 0.397857 0.110542 -0.460722 0.184951 -0.417699 0.345541 0.327865 0.457753 -0.479714 -0.031636 -0.236877 -0.200443 -0.329363 -0.149221
Nh5 1.055815 -0.472753 -0.015754 0.719607 0.112329 0.185793 0.355337 -0.104923 -0.783009 -0.316395 0.693745 -0.108140 -0.005375 0.460762 -0.681207 0.152926 0.286433 -0.870352 -0.127460 -0.102776 -0.535533 0.695541 -0.364532 -0.096502 0.108087 -0.034169 0.497236 0.047252 0.258625 -0.336771 0.128011 -0.119421 -0.245795 -0.219028 -0.027692 0.579857 0.133967 0.610485 0.027293 -0.697017 -0.390250 -1.278728 -0.065046 -0.613842 -0.171036 0.009993 1.396279 -0.064901 -0.239811 0.058872
Ng3 0.872742 -0.261201 0.362360 1.054701 -0.377364 0.185146 0.137198 0.220601 -0.587057 -0.016107 0.658140 -0.000676 -0.162660 0.705220 -0.616564 -0.533263 0.075425 -0.622056 -0.236248 0.245659 -0.572200 0.296313 -0.671188 0.193076 0.462821 0.388301 0.332627 0.312547 0.196431 -0.151988 -0.020217 -0.132561 0.093242 0.527212 0.351078 0.347351 0.025928 0.523145 0.201253 0.090003 -0.406538 -0.967127 0.060331 -0.217958 0.314380 -0.017901 1.639431 0.220740 0.051213 -0.086183
Rfd1 0.505809 0.366807 0.181513 -0.461928 -0.933535 0.331564 -0.127034 -0.283171 0.389491 0.154272 0.083238 -0.434121 0.207704 1.532891 0.196728 0.422639 -0.167968 0.162982 0.016995 -0.797045 -0.668601 0.895970 0.106478 -0.912588 -0.292672 -0.144374 -0.487856 -0.477924 0.728063 -0.269624 0.026254 0.660201 -1.147754 -0.957509 -0.306827 -0.852692 -0.154113 1.220047 -0.703444 0.132080 -0.433925 -1.270914 0.001497 -1.336539 -0.382289 0.409730 1.015030 -1.130218 -0.160893 0.399925
Qxd4 1.235573 0.222557 0.308171 -0.361256 -0.364555 -0.482249 -0.466954 -0.646153 -0.094623 0.452415 -0.629277 -0.414283 0.836020 0.290548 0.770181 0.258027 -0.689714 0.285866 0.036574 0.152343 -0.149489 0.484751 -0.133782 -0.400642 0.800992 0.118753 -0.732422 0.683007 0.097045 -0.082601 -0.134693 -0.288401 -0.002410 0.019493 0.041891 0.030022 -0.407652 -0.115252 0.353888 -0.178875 0.371822 -0.964463 -0.446354 -0.716366 -0.457585 1.010062 0.402098 -0.883554 0.080540 0.974752
Na4 -0.191146 -0.127212 0.177735 0.058421 0.225392 -0.283024 -0.093270 -0.498277 -0.500440 -0.334759 0.296681 -0.884421 0.328802 1.297066 0.211177 0.118826 0.341824 -0.407504 0.388097 0.215156 -0.324681 0.369735 0.406450 0.021609 -0.027115 0.556876 -0.498658 0.003557 0.136883 0.492142 0.055839 0.268386 -0.617119 -0.330005 -0.726552 -0.567087 0.169010 0.598829 0.112463 0.026191 -0.251867 -0.453415 -0.310444 0.082255 -0.316754 -0.158490 1.016114 -1.353355 -1.110564 -0.094087
Ng6 0.250735 0.126786 -0.180188 -0.107579 -0.045476 0.203399 0.739811 0.289355 -0.578807 0.527408 -0.105574 0.031391 -0.265519 0.009659 0.089399 -0.183490 0.246295 -0.620873 -0.132515 -0.538856 0.089124 0.674410 -0.405580 -0.133947 -0.427764 -0.432961 0.157067 -0.226061 -0.327533 -0.482494 0.300218 -0.344478 -0.267259 0.345619 -0.230259 0.456278 0.572505 0.760120 -0.202596 0.034385 -0.021732 -0.900464 -0.431277 -0.312943 -0.931670 -0.005497 1.352860 0.178376 -0.093738 -0.033109
Rb7 0.130159 0.588119 0.340353 -0.561405 0.187954 -0.216359 0.045184 0.263769 -0.603737 -0.602647 1.146376 -0.479484 0.034790 0.608672 -0.104330 0.433865 0.275932 -0.105054 0.900168 -0.430895 0.462367 0.096301 0.146366 -0.419466 0.098253 -0.028859 0.497689 0.590628 -0.104600 -0.473072 -0.062914 0.421145 0.405365 0.200557 -0.260735 -0.181887 0.825210 -0.076097 -0.562018 -0.119795 0.663655 0.691735 0.293345 0.497104 0.104309 -0.429265 -0.197366 -0.634637 -0.286383 0.363849
Bh4 0.395799 -0.487182 -0.441503 -0.289613 0.237861 0.446644 0.465112 -0.640952 -0.830050 0.602235 0.948412 -0.284819 -0.222886 0.239562 -0.070973 0.000793 0.209570 -0.036230 0.140002 -0.162228 -0.786530 1.081816 -0.744252 0.589266 0.259081 0.046040 -0.304592 -0.113498 -0.472039 0.452895 0.256899 0.469777 0.419710 -0.413777 0.114506 0.516140 0.242832 -0.062006 -0.156229 -0.192543 -0.605541 -1.633617 0.241578 -0.057773 -0.236450 -0.273041 1.064954 -0.043347 0.329818 0.019177
Rc6 0.018829 0.665384 0.399040 -0.225302 0.348694 0.561882 -0.031207 0.964669 -0.458188 0.061020 0.805535 -0.240311 0.406907 0.806870 -0.027451 0.155808 -0.215989 0.399894 0.137603 0.232011 -0.077674 0.406314 0.485703 -0.360484 0.410846 -0.122748 0.079151 0.225837 0.202082 -0.387008 0.097230 0.392898 0.300736 -0.061449 -0.322166 -0.599328 0.850421 0.137246 -0.846738 -0.003200 -0.523390 0.720956 -0.116577 0.040263 -0.167501 -0.296944 -0.339812 -0.343287 -0.620929 0.269976
Nc7 0.399621 -0.320673 0.202364 0.394461 0.668122 0.342111 0.226715 -0.029632 -0.430063 -0.579994 0.809260 -0.383326 -0.630664 0.595273 0.631251 -0.486735 -0.167893 -0.583238 -0.131664 -0.148020 0.317451 0.271783 0.111856 -0.896709 -0.325083 0.100277 -0.130381 -0.341576 0.054818 0.245776 -0.493416 0.311008 -0.440396 -0.694175 0.198711 -0.231940 0.367543 0.479047 0.043642 -0.512289 -0.072262 0.078832 0.147362 -0.068829 0.695496 0.437829 1.044911 -0.286400 -0.751703 0.633546
Rf1 0.185714 0.858487 -0.212104 0.065514 0.932331 -1.037720 0.061207 0.625832 -0.151247 0.626613 0.178122 0.248750 0.174056 0.031739 0.054851 -0.009312 0.708420 -0.334276 -0.577460 -0.240499 0.628675 0.245475 -0.148236 0.241660 0.261079 -0.158346 0.218201 0.087727 0.022989 -0.379629 -0.090230 0.371898 0.304709 0.499032 0.143975 0.423114 -0.274584 -0.409428 -0.309740 -0.325132 -0.102446 -0.402717 0.514902 0.126667 0.107494 -0.728678 0.458853 0.242402 -0.221851 0.486207
Rf7 0.287968 0.538286 -0.063265 -0.202068 0.917447 -0.121513 -0.013507 0.553434 -0.783079 0.408464 0.134230 0.309473 0.379707 0.823179 -0.276310 0.328252 0.837534 -0.004393 -0.000599 -0.810053 0.785643 0.262394 0.354234 -0.155139 0.381600 0.213188 0.216952 -0.378020 -0.097153 -0.286525 -0.066766 0.631089 0.134341 0.275051 0.243258 0.678441 0.869170 -0.068991 -0.436095 -0.181627 0.333453 -0.260831 0.058036 -0.050212 0.273981 0.528095 -0.040043 0.260305 0.071912 0.328057
Rd4 0.098330 0.998853 0.259632 -0.359184 -0.333810 -0.109380 -0.160817 0.832384 0.034850 0.238036 0.382176 0.329968 0.675208 1.005586 0.408497 -0.665006 -0.476100 -0.010654 -0.029411 0.195809 0.180905 0.727987 0.358306 -0.785436 0.388942 -0.341020 0.482236 0.205052 0.614537 0.279194 -0.100948 0.677111 0.072572 0.312134 0.011223 -0.036127 -0.491570 -0.304500 -0.359977 0.156045 -0.260595 0.013647 -0.018477 0.627464 -0.497228 -0.401852 -0.371491 -0.478047 -0.151877 0.283764
Kg1 0.291276 1.048831 -0.154389 0.384500 -0.731838 -0.225634 -0.218805 0.367343 0.627415 -0.000799 0.134353 -0.128628 0.188676 -0.675570 0.225332 0.089932 1.252010 0.493089 -0.577176 0.711507 0.379386 -0.598636 0.756262 -0.593816 0.656979 -0.649570 0.283204 0.207934 0.612374 0.034428 -0.172221 0.066898 0.073670 0.731020 0.012315 0.477900 0.401228 -0.364887 -0.703436 -0.264482 -0.119336 -1.277624 0.363625 -0.161189 -0.202887 -0.044623 0.010616 0.168459 0.777667 1.231500
Kd2 -0.378516 0.144967 0.274935 1.712068 0.541748 -0.058835 -0.695485 0.492053 -0.125650 0.357945 0.676577 -0.595118 0.304013 -0.301724 0.022176 -0.485486 -0.247053 0.272499 1.044240 0.253823 0.752366 0.752094 0.567547 0.149220 -0.042144 -0.674473 -0.143619 0.762683 -0.029166 -0.104268 -0.023340 -0.387115 -0.196382 -0.210428 -0.299496 1.147009 0.909305 -0.185887 1.061137 0.581788 0.349353 0.103713 -0.127699 1.485378 0.541628 -0.709349 -0.319412 0.131527 0.103329 0.004367
Rac1 -0.078233 0.048584 -0.065657 0.052918 -0.216172 0.398520 -0.243186 0.186421 -0.001059 0.277884 -0.159257 -0.781985 -0.209357 1.408228 -0.255827 0.493240 -0.105234 0.508418 -0.312863 -0.318792 -0.664898 1.024833 -0.222640 -0.350561 -0.147230 -0.635712 -0.886308 -0.309411 0.413864 -0.127576 -0.070392 0.473819 -0.987147 -0.408392 -0.269836 -0.720458 0.197872 1.101620 -0.550121 -0.078778 -0.215938 -1.046513 -0.498972 -1.538515 -0.199030 0.221011 0.847116 -1.170862 -0.939927 0.554783
Na6 0.719961 -0.720645 0.562241 0.605341 0.570169 0.463229 -0.146919 -0.553051 -0.877571 0.266745 0.197588 -1.274586 -0.475083 0.780847 0.932259 -0.237785 0.226958 0.019150 0.165534 -0.247580 0.045655 -0.128523 0.149572 0.147191 0.010677 0.248085 -0.150605 -0.497441 0.154155 0.140970 -0.572848 0.633406 -0.934306 -0.992061 0.394883 -0.582739 0.022478 0.448701 0.439848 -0.148226 -0.321508 -0.163901 -0.185049 -0.163051 0.135434 0.283234 1.186522 -0.922404 -0.638689 0.417077
Rc5 0.488046 0.735518 0.534088 0.372693 -0.200712 0.184368 -0.274184 1.297473 -0.468798 -0.240557 0.537005 -0.163118 0.139055 0.527097 0.565568 -0.235073 -0.249079 0.356428 0.202314 -0.278857 0.042488 0.615692 0.182403 -0.657411 0.120600 -0.419869 -0.084311 0.243435 0.155632 0.096894 0.106707 0.445090 0.022414 0.653280 -0.596615 -0.202244 0.352934 0.051971 -0.835635 0.828387 -0.515252 0.749161 -0.213301 0.086676 -0.108575 -0.370029 -0.616327 -0.416467 -0.662633 0.633154
exf5 0.703126 0.434810 -0.100823 0.518302 -0.046269 -0.561716 -0.404159 0.478699 -0.272497 0.051343 0.086307 -0.168550 -0.325180 0.398722 -0.339279 -0.074118 -0.312198 -0.385870 0.380444 -0.578249 0.259684 0.279245 -0.874298 0.946366 0.049536 0.934128 0.119543 -0.503439 0.179364 -0.220588 0.887636 0.270569 -0.525112 0.424288 0.066620 0.204971 0.448737 0.415149 -0.015445 0.072855 -0.277360 -0.624338 -0.256450 -0.113136 0.477780 0.442741 1.417639 0.393858 -0.412905 0.462660
Rg8 0.354315 0.226419 0.190536 -0.596307 0.556097 -0.277477 0.134583 0.220337 -0.369848 0.324847 0.220303 0.797084 0.341185 0.073946 0.021292 -0.103533 -0.025638 -0.325031 0.575852 -0.476779 0.237018 0.494874 -0.011283 0.855509 0.306499 -0.703078 0.669625 -0.449945 0.069143 -0.462263 0.358645 0.244569 -0.154429 0.578055 0.026452 1.747777 0.218699 0.491240 -0.014203 0.220058 -0.281130 -0.369309 0.314699 0.182205 0.442036 0.140135 0.139201 -0.396023 0.007988 0.102817
Qc6 0.024653 1.002238 0.300266 -0.251119 -0.074612 -0.371328 -0.314498 0.304180 0.050364 0.005396 0.381034 0.562198 -0.003590 0.265874 0.568465 0.247662 -0.323612 0.395310 0.394960 0.220960 0.031910 0.297153 0.466201 -0.420930 -0.639864 0.318204 -0.146397 0.150746 0.022030 0.001265 -0.419575 0.330032 0.637260 -0.164840 0.029259 -0.402992 0.452565 0.170130 0.276502 0.073897 -0.113557 -0.725892 0.684969 -1.046058 -0.107619 0.294503 0.758745 -0.646244 -0.225424 0.612304
Re3 0.155046 0.695540 -0.024598 0.208230 0.013632 0.107557 0.092114 1.320592 -0.479226 0.330573 0.491856 0.308373 0.072847 0.407601 0.262237 -0.199077 -0.049450 -0.329335 0.250538 0.130693 1.147484 0.412595 0.260308 -0.412181 0.352926 0.009948 0.080392 0.352324 0.238843 0.265293 -0.232631 0.215742 0.692289 0.348575 0.305831 0.507613 -0.874945 0.274078 -0.402935 -0.238578 -0.198214 0.115759 0.015424 0.232475 -0.132615 -0.110272 0.443931 -0.196505 0.110251 0.300191
Qd4 0.127036 0.688935 0.261052 0.214812 -0.333945 -0.734664 -0.649945 0.276147 -0.445115 0.161923 -0.101746 0.322843 0.424664 0.386304 0.179580 0.090295 0.131873 -0.171363 -0.062145 0.166457 0.254979 -0.112480 0.814879 -0.187375 -0.016123 0.364583 -0.458297 0.113970 -0.057879 -0.103873 -0.169377 0.290620 0.209919 -0.008531 -0.059144 0.059884 -0.293155 -0.158834 0.242060 0.119761 -0.306173 -0.807557 0.306257 -1.123285 -0.704537 0.093008 0.053944 -0.685824 -0.024574 0.764766
Ke5 0.082777 0.269059 -0.070837 -0.006133 0.465605 0.682983 -0.264832 0.716277 -0.468433 -0.046866 0.554830 -1.186340 -0.199772 -0.287625 -0.175328 -1.616840 -0.422785 -0.530167 -0.218260 0.192097 0.267475 -0.191563 0.767604 0.138786 0.508591 -0.924790 0.681266 -0.423338 -0.179533 0.171659 0.285028 0.273464 0.339881 0.718176 0.128293 0.254044 0.415804 -0.054383 0.299301 -0.360116 0.206060 0.789830 -0.028554 2.609073 0.243760 -0.364732 -0.709514 0.701039 0.100124 0.482387
Rc4 0.224915 1.005864 0.154575 -0.144519 0.619652 0.334441 -0.275531 0.800457 -0.332539 0.256999 0.384342 -0.288813 0.464424 0.756241 0.335509 -0.084084 -0.404763 0.308366 0.011346 0.375335 -0.113880 0.350135 -0.186387 -0.603408 0.503903 -0.217859 0.595912 0.625063 0.421287 0.162702 0.097601 0.260730 0.278052 0.636787 -0.258722 -0.474422 0.169063 0.143651 -0.764810 0.312285 -0.235381 0.276139 -0.384042 0.184431 -0.058918 -0.515289 -0.757886 -0.826953 -0.431029 0.777651
Bh6 0.417317 -0.195288 -0.036952 0.296594 0.583436 -0.177875 0.031855 0.148720 -0.893044 0.592669 0.021142 0.071318 0.300524 0.644438 -0.455048 0.594004 0.379133 -0.886894 -0.070218 0.171718 -0.008733 0.232049 -0.288852 0.240458 -0.499925 -0.133366 0.240566 -0.203212 0.316706 -0.201520 0.674775 0.077183 -0.360902 -0.284725 -0.035362 0.081916 0.184171 0.113214 0.038639 -0.824497 0.214923 -0.471923 0.013469 -0.641954 0.680042 -0.100941 1.143475 -0.477004 -0.113137 0.709486
Bxc6 0.975722 -0.239309 0.513343 -0.658508 -0.696744 -0.666700 -0.561461 0.538813 -1.092613 -0.310903 -0.168016 -0.283573 0.399975 -0.394025 0.828280 -0.034897 -0.332689 -0.476263 0.015903 0.723011 -0.166878 0.573783 -0.776330 0.361966 0.160286 -0.975979 -0.782859 0.664103 -0.296308 -0.966513 -0.409367 0.598701 -0.214193 -0.791125 -0.618406 -0.845665 0.061975 0.238829 -0.053234 0.563364 0.004604 -0.464230 -0.534825 -0.181836 -0.494209 0.595451 0.576212 -0.841247 -0.395609 0.005085
Qc3 0.001761 0.696446 0.089306 0.342458 -0.349354 -0.494868 -0.276577 0.479201 -0.265643 0.028619 0.197993 -0.014387 0.330665 0.603396 0.268975 0.238603 0.147773 -0.135551 -0.178897 -0.181432 0.287010 -0.203893 0.603762 -0.158444 -0.398178 0.187359 -0.195315 -0.051295 -0.117795 -0.272999 -0.205756 0.226774 0.339671 -0.423972 0.095419 0.057551 -0.364675 0.125069 0.374624 0.359958 -0.072478 -0.735616 0.079038 -1.127325 -0.670107 -0.014610 0.286029 -1.041754 0.083747 1.014439
Ke4 0.066102 0.528864 -0.014793 -0.313016 0.137045 0.342279 0.213461 0.568764 -0.501945 0.563648 1.173780 -1.141894 -0.384201 -1.070524 0.113481 -0.476973 0.012670 -0.146217 -0.187781 0.029744 0.447097 -0.053402 0.259101 0.308114 -0.149485 -0.871401 0.267528 -0.034573 -0.066688 0.474101 0.733321 0.213401 0.038550 0.745809 -0.205192 0.385210 1.324880 0.121569 0.295975 -0.610524 -0.547765 0.986700 0.059939 2.431490 -0.094906 -0.576849 -0.559623 0.930202 -0.197187 0.195975
