O-O -0.860706 -1.123676 -0.013927 -0.663423 0.428592 2.877370 -1.372217 -1.593037 -0.887773 1.215569 -0.600853 -1.521114 0.112257 -0.367250 0.326779 -2.424167
Nf6 -0.807245 -0.580338 -0.713661 -0.218069 0.372189 0.863236 -1.115341 -1.177777 -0.726535 -0.143312 -0.014990 -0.902399 0.061794 -0.060942 0.463992 -1.653503
Nf3 -0.906038 -0.705423 -0.586445 -0.477172 0.444014 0.776241 -1.172921 -1.106496 -0.494759 -0.275556 0.024213 -0.906117 -0.121442 -0.132745 0.678356 -1.590992
<end> -1.426239 -0.672687 -1.288544 -0.788160 0.257871 -0.550860 -0.994539 -0.886991 -0.280953 -0.659249 0.266809 -1.368146 -0.064400 -0.239996 0.602491 -1.670923
<start> -1.270523 -0.619210 -1.165845 -0.723910 0.257718 -0.414357 -0.973680 -0.952866 -0.295803 -0.596862 0.239967 -1.219650 -0.102470 -0.266558 0.557873 -1.619316
d4 -1.037507 -0.687915 -0.672973 -0.586439 0.280027 0.413198 -1.059056 -1.306087 -0.430574 -0.240670 0.065041 -1.078192 -0.095275 -0.200525 0.593271 -1.586687
e4 -0.964479 -0.740850 -0.706006 -0.424099 0.365453 0.300392 -1.014930 -1.172544 -0.534257 -0.176295 -0.056067 -0.965595 -0.027307 -0.211158 0.475535 -1.694960
Nc3 -0.891529 -0.641126 -0.379998 -0.379936 0.176419 0.842561 -0.939141 -1.239319 -0.614234 0.223280 -0.139343 -0.854653 0.253853 -0.457181 0.406754 -1.887302
d5 -0.872364 -0.708550 -0.389392 -0.280122 0.270533 0.999256 -0.962389 -1.442599 -0.641027 0.030184 -0.061224 -0.997435 -0.016008 -0.230149 0.498758 -1.551783
e5 -0.540270 -0.721659 -0.160145 -0.231018 0.229191 1.126112 -0.998889 -1.207607 -0.557419 0.005241 -0.027400 -0.631829 -0.012796 -0.231865 0.428045 -1.686393
c5 -0.814860 -0.818773 -0.266133 -0.049867 0.309877 0.773169 -1.018278 -1.276619 -0.506686 -0.112921 -0.253716 -0.582152 -0.139836 -0.280126 0.660343 -1.470972
Nc6 -0.773067 -0.811131 0.047272 -0.500719 0.435605 1.166274 -0.972210 -1.166709 -0.491557 0.283000 -0.153720 -0.835185 0.087776 -0.603158 0.593438 -1.771391
c4 -0.843835 -0.671129 -0.345037 -0.023153 0.184524 0.566174 -0.835123 -1.275474 -0.602106 -0.147233 -0.101761 -0.566882 -0.057184 -0.249917 0.466784 -1.408951
e6 -0.882153 -0.775583 -0.644707 -0.530776 0.125898 0.811976 -0.939758 -1.362829 -0.470799 -0.134738 -0.000770 -1.038206 -0.018219 -0.286638 0.549269 -1.669257
g6 -0.601838 -0.475130 -0.448832 -0.207984 0.108132 0.711318 -0.460475 -1.085573 -0.831341 -0.256493 0.138060 -0.294877 -0.151321 0.016531 0.560873 -1.368073
d6 -0.756013 -0.832769 -0.717736 -0.330238 0.303831 0.704003 -0.944831 -1.369396 -0.513658 -0.004284 -0.154755 -1.359940 -0.007615 -0.516328 0.397191 -1.689085
f4 0.040703 -0.165105 0.145847 0.231179 0.582900 0.903756 -0.463488 -1.073523 -0.641372 -0.068016 -0.096545 0.323109 -0.352811 -0.191224 0.453344 -0.898664
f5 0.062352 -0.057681 0.030462 0.325584 0.404381 0.931019 -0.220343 -1.081029 -0.756477 -0.036745 -0.040005 0.397811 -0.337094 -0.106048 0.240083 -0.856470
b5 -0.148200 -0.224465 0.561314 0.475754 0.195165 0.869574 -0.423052 -1.342042 -0.866358 0.144737 -0.299027 0.306150 -0.095666 -0.618398 0.337656 -0.831684
Be7 -0.414524 -0.624664 0.341520 0.063999 0.413489 1.661305 -1.031856 -1.059603 -0.867688 0.028635 0.082890 -0.364760 0.303390 -0.510581 0.384229 -1.600801
a6 -0.414923 -0.692774 0.515407 0.123550 0.636703 0.885122 -0.822521 -1.419230 -0.904347 0.164272 -0.309214 -0.529368 0.075762 -0.836075 0.454464 -1.121052
Be3 -0.122259 -0.287609 0.504629 0.207232 0.464841 1.564214 -0.889671 -1.012102 -0.709169 0.536698 -0.268940 -0.248261 -0.235060 -0.412644 0.462822 -1.175600
b4 -0.132517 -0.209273 0.619798 0.346677 -0.011064 0.839321 -0.277306 -1.236329 -0.733425 0.107772 -0.247807 0.610844 -0.249238 -0.521405 0.528649 -0.817429
a4 -0.173047 -0.314603 0.564961 0.406271 0.053910 0.385342 -0.264546 -1.316749 -0.875486 0.023131 -0.364733 0.702255 -0.135750 -0.529314 0.393624 -0.813321
a5 -0.075933 -0.328505 0.623569 0.430256 0.074437 0.421704 -0.267911 -1.209085 -0.825377 -0.013863 -0.400531 0.796743 -0.241697 -0.553304 0.509502 -0.702845
Bd3 -0.497318 -0.340254 0.154032 -0.090179 0.039790 1.474295 -0.874715 -1.281654 -0.764681 0.195038 -0.076133 -0.070826 -0.038403 -0.055970 0.281604 -1.377509
g3 -0.319723 -0.494084 -0.011994 0.068661 0.716404 0.281670 -0.674809 -0.860281 -0.781003 -0.186895 -0.131899 -0.374753 -0.486682 -0.157526 0.596416 -0.968121
cxd4 -0.581990 -0.687361 0.188752 -0.580973 0.042262 1.481292 -0.945194 -1.410110 -0.358071 0.378349 0.150341 -1.253247 -0.301804 -0.072585 0.481403 -1.550045
h3 0.053664 -0.608654 0.265045 0.350084 0.768523 0.677020 -0.732674 -1.053576 -0.900899 0.175613 -0.575745 -0.059538 -0.599129 -0.039244 0.403712 -0.819614
h6 -0.065001 -0.564292 -0.071945 0.126456 0.030210 1.249165 -0.237887 -1.086282 -0.840998 -0.163062 -0.088913 0.376399 -0.282535 0.094464 0.416009 -1.200059
Bg7 -0.779903 -0.557809 -0.552311 -0.216731 0.133196 1.105346 -0.907762 -1.089152 -0.851915 -0.118675 -0.091257 -0.532128 -0.005723 -0.037386 0.436193 -1.474421
h4 0.071603 -0.105207 0.085723 0.187847 0.548205 0.239663 -0.243689 -0.978249 -0.902598 -0.453971 -0.086271 0.847988 -0.468805 -0.041966 0.347203 -0.504473
h5 0.094628 0.013960 0.005071 0.183721 0.416671 0.250401 -0.159823 -0.983899 -0.935812 -0.436226 -0.010939 0.921637 -0.416997 0.013052 0.247381 -0.523211
g4 0.106362 0.021408 -0.040207 0.376162 0.709364 0.450476 -0.473616 -1.034409 -0.728982 -0.336441 -0.126857 0.781573 -0.402081 -0.045435 0.194886 -0.631787
c6 -0.690538 -0.671937 -0.255493 -0.059051 0.532038 0.858191 -0.894840 -1.211667 -0.587455 0.023097 -0.274375 -0.835185 -0.078880 -0.573436 0.600101 -1.232291
Bg5 -0.277847 -0.406892 -0.290995 0.069022 0.361276 1.836198 -0.806915 -1.140005 -0.912335 0.124679 -0.075336 -0.583494 -0.028071 0.003201 0.382844 -1.223424
Nxd4 -0.342697 -0.409555 0.333875 -0.777113 0.172691 1.458959 -0.506732 -1.229274 -0.103865 0.679970 0.226443 -1.255870 -0.456548 -0.336659 0.589212 -1.516751
a3 -0.478872 -0.259204 0.515779 0.022399 -0.384719 1.013984 -0.395752 -1.389918 -0.758968 0.285872 0.006518 0.345671 0.051150 -0.223889 0.535511 -1.401881
g5 0.105244 -0.072937 -0.077997 0.240454 0.454033 0.510992 -0.353024 -0.893805 -0.602011 -0.538100 -0.021859 0.948955 -0.454248 -0.062791 0.235203 -0.681356
Qc7 -0.041294 -0.821303 0.743696 0.382210 -0.270563 1.986607 -0.360996 0.173116 -1.851228 0.406990 -0.325037 -0.351810 -0.756658 -0.082896 0.056077 -0.952046
Be2 -0.289137 -0.190607 0.416558 0.070243 0.382907 1.293208 -1.325500 -1.126696 -0.892788 0.169276 -0.036350 -0.159888 0.253966 -0.211315 0.448179 -1.334920
Ne5 0.431779 -0.419140 0.275666 0.289304 0.225044 1.809891 -0.424026 -0.655072 -0.257567 0.254105 -0.241686 0.098627 -0.707823 -0.153593 -0.028933 -0.901204
b6 -0.318610 -0.639245 0.426627 0.472506 0.531709 0.818315 -0.739432 -0.959126 -0.716432 0.045812 -0.480984 -0.072850 -0.296588 -0.675864 0.583797 -0.852298
c3 -0.633636 -0.316919 0.050050 -0.180290 -0.220654 1.127767 -0.651508 -1.394267 -0.522389 0.178467 0.153378 -0.475176 -0.058764 -0.170421 0.507353 -1.372203
Re1 0.137538 -0.389709 -0.217520 0.579612 0.093481 0.679747 -0.068499 -1.123744 -0.524122 0.303667 -0.513564 -0.085736 -0.985842 0.272625 0.809259 -0.670773
Bd7 -0.182694 -0.303067 0.534826 0.183751 0.290958 1.858891 -0.815894 -0.923331 -1.060263 0.105407 -0.231890 0.213411 -0.012885 -0.454880 0.186011 -0.760513
b3 -0.287176 -0.158020 0.273891 0.362404 -0.450931 0.882682 -0.279203 -1.029643 -0.755072 0.235896 -0.157419 0.433350 -0.156239 -0.150668 0.467085 -1.132183
Re8 0.346482 -0.580459 -0.406951 0.696427 0.114755 0.913888 0.258467 -0.984064 -0.611365 -0.051147 -0.532366 -0.016030 -0.878169 -0.012543 0.875602 -0.510526
exd5 -0.345754 -0.473234 0.098797 -0.065850 0.045467 1.372897 -0.307902 -1.243368 -0.686272 0.541939 0.124967 -1.302661 0.014801 -0.477990 0.270687 -1.525828
Qd2 -0.073540 -0.120663 0.678847 0.068165 -0.182109 1.752052 -0.309906 -0.080546 -1.929208 0.670728 -0.039750 -0.289050 -0.902666 0.644332 0.214006 -0.707168
Nd7 0.107227 -0.568313 0.474019 0.382193 -0.035089 1.767213 -0.725737 -0.380165 -0.874354 0.069152 -0.453588 0.567229 -0.169098 -0.542393 -0.024575 -1.041263
Nd5 0.221559 -0.096186 0.279897 0.256006 0.313790 1.501089 0.246682 -0.951443 -0.532693 0.617251 -0.112730 -0.282498 -0.302065 -0.564561 0.063831 -0.969696
Ne4 0.322529 -0.134798 0.114498 0.554314 0.238782 1.476432 -0.399390 -0.625985 -0.342498 0.450431 -0.328216 0.036161 -0.687883 -0.023215 -0.189560 -0.976808
f3 0.217443 -0.072639 0.303146 0.430174 0.698345 0.544208 -0.721654 -0.711114 -0.685853 0.167459 -0.309273 0.133379 -0.511353 -0.176874 0.399483 -0.805660
Qe2 -0.101081 -0.322596 0.788021 0.292249 -0.012736 1.652956 -0.693717 0.124529 -1.738489 0.457028 -0.030925 -0.557818 -1.095298 0.519996 0.032497 -0.694204
Rc8 0.722966 -0.349563 0.837596 -0.102231 -0.204608 0.392677 0.325570 -0.729558 -0.935238 0.203762 -0.014863 0.182804 -0.085385 -0.765126 0.404760 -0.913733
e3 -0.632897 -0.651188 -0.444740 -0.305599 0.429321 0.370591 -0.861662 -1.368581 -0.482954 0.349876 -0.399320 -0.990628 -0.253202 -0.231873 0.416270 -1.517139
Be6 0.217345 -0.068541 0.174579 0.411349 0.016859 1.592443 -0.086772 -1.007795 -0.528561 0.344572 -0.106702 0.069084 -0.321316 -0.490848 0.381445 -1.010823
cxd5 -0.148563 -0.440757 0.099141 0.171916 0.122892 1.451015 -0.333956 -1.172374 -0.749638 0.469842 -0.002620 -1.147290 -0.103371 -0.356949 0.334822 -1.245075
Bg2 -0.702024 -0.563115 -0.258485 -0.103347 0.631343 0.819902 -1.238427 -0.985674 -0.723642 -0.019001 -0.222572 -0.616743 -0.205515 -0.120842 0.631962 -1.302374
Bb7 -0.022451 -0.640018 0.373011 0.136406 0.421533 1.578006 -0.497354 -0.946340 -0.765592 0.494123 -0.350214 -0.271807 -0.132496 -0.479588 0.301098 -1.401716
f6 0.278826 -0.139838 0.031261 0.313429 -0.057450 1.057817 -0.028713 -0.616519 -0.629356 -0.326599 0.182009 0.516052 -0.344020 -0.231437 0.156607 -0.873814
Qc2 -0.253887 -0.655269 0.690314 0.176993 -0.119958 1.474266 -0.454713 0.189128 -1.835999 0.794018 -0.549054 -0.108576 -0.933187 0.426279 0.138082 -1.148340
Kg7 1.026955 -0.412112 -1.072322 -0.198083 0.037650 -0.606003 0.831960 0.469041 -0.905849 -1.076788 0.207411 1.007474 -0.967338 0.215330 -0.346883 -0.923175
Bc4 -0.453803 -0.538962 -0.158093 0.017454 0.004089 0.881126 -0.543353 -1.083334 -0.427099 0.214599 -0.192314 -0.318213 0.021891 -0.390493 0.448107 -1.566560
Rc1 0.602771 -0.201201 0.965211 -0.202561 -0.042564 0.022529 0.150062 -0.762038 -0.875938 0.603755 -0.145156 0.193396 -0.244661 -0.467299 0.370847 -1.065711
Nd4 0.241249 0.049158 0.688697 -0.039440 0.288110 1.336162 0.106106 -0.859190 -0.236875 0.685053 -0.136710 0.192724 -0.561056 -0.422286 0.382449 -0.723704
Bf4 -0.088537 -0.383051 0.077621 0.331765 0.543324 1.455728 -0.777486 -0.907960 -0.519595 0.153599 -0.210706 -0.504555 -0.435837 -0.368438 0.438355 -0.969757
Nd2 -0.274308 -0.293823 0.526217 0.232413 0.260281 1.172124 -0.933150 -0.578535 -0.841531 0.600388 -0.632113 0.419103 -0.347774 -0.197863 -0.126680 -1.143013
Qe7 0.117803 -0.436476 0.388293 0.313467 -0.233285 1.824014 -0.234843 0.375600 -1.801841 -0.081379 0.097838 -0.273424 -0.979457 0.331163 0.047764 -0.504508
dxe5 0.575340 -0.705331 0.047765 0.278259 -0.171693 2.243411 -0.845696 -0.352276 -0.189329 0.077297 -0.185964 -0.399356 -0.717081 -0.105431 -0.054542 -1.039826
Rd1 0.686976 -0.147588 0.445031 0.620302 -0.216674 0.004749 -0.039027 -0.366665 -0.422793 0.295250 -0.196191 0.169831 -0.774332 -0.199365 0.726130 -1.022820
Bd2 -0.424944 -0.171467 0.619646 0.008136 0.249279 1.435445 -0.867951 -0.950615 -0.862682 0.433522 -0.263450 0.263640 -0.130740 -0.276789 0.021092 -1.075065
Bd6 -0.069360 -0.509166 0.323321 0.353814 0.576502 1.240265 -0.683877 -0.826322 -0.445438 0.019460 -0.246997 -0.137264 -0.473209 -0.621004 0.378114 -1.010677
Rd8 0.835755 -0.389901 0.163546 0.786148 -0.233234 0.205249 0.295666 -0.271518 -0.468925 -0.136655 -0.153423 0.170264 -0.521075 -0.522486 0.694299 -0.919686
Rb8 0.455291 -0.733265 0.508112 -0.138423 -0.300537 0.174916 0.007352 -0.820427 -1.058336 0.213859 -0.818025 0.636766 0.161426 -0.948608 -0.277444 -0.684227
Kg2 0.872465 -0.039898 -0.222479 -0.180416 0.982644 -1.371650 -0.278276 0.455826 -0.810834 -0.315758 -0.290661 0.654141 -1.662867 0.521201 -0.177019 -0.648305
Nbd7 -0.856640 -0.986038 -0.314151 -0.157883 0.306199 2.561237 -1.735923 -1.255566 -0.978480 0.948336 -0.825381 -0.888348 0.306965 -0.045479 0.117282 -2.221433
Nxd5 0.276741 -0.083942 0.165359 0.137645 0.089561 1.613104 0.461009 -1.052648 -0.611890 1.006686 0.100892 -1.191540 -0.235601 -0.577320 -0.028149 -1.270437
Kf7 0.989903 0.149277 -0.672735 0.008121 0.335711 -0.522435 0.735418 0.089294 -0.369085 -1.199133 0.776913 0.925120 -0.332705 -0.643732 0.133545 -0.996038
Bg4 -0.112251 -0.198556 -0.155141 0.232585 0.557353 1.592988 -1.075042 -1.009698 -0.568038 0.175469 -0.242121 -0.379128 -0.386488 0.132387 0.653370 -0.888468
Nxe4 0.214524 -0.065338 -0.421992 0.715344 -0.156251 1.556421 -0.799872 -0.656232 -0.218482 0.797577 -0.580193 -0.691806 -0.742938 0.111441 -0.669036 -1.270935
Kf2 0.965656 0.787959 0.084368 0.099808 0.919353 -1.414002 -0.302357 -0.024184 -0.301965 -0.230940 0.346363 0.772725 -0.798458 -0.073045 0.262184 -1.026394
Nc5 0.268313 -0.184689 0.709421 0.530136 -0.110408 1.261220 -0.027341 -0.337733 -0.234767 0.530224 -0.625943 1.123733 -0.481024 -0.724193 0.276064 -0.854521
Nxe5 0.479767 -0.735398 0.141966 0.086860 -0.090150 2.036504 -0.765206 -0.248996 0.315925 0.161555 -0.314707 -0.403971 -1.155285 -0.292974 -0.272736 -1.013500
Qd7 -0.002590 -0.523228 0.615541 0.173675 0.116915 1.727746 0.141108 0.293766 -1.965175 0.226154 -0.151062 -0.431914 -0.997099 -0.004037 0.118065 -0.196169
Ke7 0.616291 0.326306 -0.003149 0.307456 0.103075 -0.311102 -0.056619 0.152387 0.129674 -1.559068 1.118369 0.873639 0.051165 -1.612557 -0.381877 -1.074396
d3 -0.711367 -0.557372 -0.401367 -0.648836 0.066320 0.517869 -0.969429 -1.273119 -0.059592 0.193351 -0.155030 -0.835855 -0.393073 -0.118465 0.670350 -1.527191
Qb6 -0.260124 -0.585220 0.995657 0.144358 -0.433611 1.545438 -0.125738 0.094661 -1.577756 0.680668 -0.114857 -0.538094 -0.747771 -0.158791 0.072324 -1.001338
Bf5 -0.186322 -0.112416 -0.266841 0.236229 0.113278 1.255172 -0.432618 -0.998640 -0.440690 0.159629 -0.106570 -0.079381 -0.495435 0.072384 0.340955 -1.016476
Nc4 0.240374 0.062514 0.653361 0.720228 0.211987 1.007778 -0.088291 -0.476791 -0.505172 0.794530 -0.672759 0.831726 -0.282631 -0.654224 -0.195011 -0.811135
Kf8 1.104821 -0.165739 -0.707061 -0.125687 -0.458838 0.102359 0.675880 0.046373 -0.698895 -1.011963 0.793788 0.293500 0.108101 -0.509713 0.050516 -1.196549
Rb1 0.259473 -0.548139 0.742209 -0.445074 -0.215871 -0.195206 -0.409210 -0.868663 -0.883147 0.549590 -0.987966 0.743284 -0.151200 -0.634508 -0.150012 -0.722633
Ne2 0.086420 0.559763 0.742087 -0.095412 0.365483 1.364252 -0.745854 -0.787451 -0.926930 0.365751 0.183973 0.455366 -0.257876 0.120846 0.676104 -0.572728
Bb5 -0.234145 -0.537881 0.360654 -0.131241 0.103876 0.614549 -0.600078 -0.803517 -0.665440 0.196240 -0.189963 -0.172391 0.032063 -0.637887 0.458311 -1.338789
Kh1 0.567704 -0.334297 -0.359947 -0.664837 1.141236 0.511352 -0.712525 -0.030198 -1.473291 0.578050 -0.861909 -1.030390 -1.572118 0.869800 0.436417 0.097959
Bxf6 0.711812 -0.284096 -0.620639 0.407938 -0.644275 1.950180 -0.092948 -0.768138 -0.783075 0.267269 0.065372 -0.925311 -0.215299 0.029472 -0.471300 -1.187795
Kh8 0.518351 -0.428375 -1.602041 -0.879368 -0.276274 1.336698 0.811155 -0.110468 -1.707463 -0.200435 -0.106193 -0.212105 -0.764140 1.026658 0.129938 -0.383420
Ne7 0.019927 0.014588 0.456913 0.083158 0.753885 1.732180 -0.150584 -0.804979 -1.024821 -0.225655 0.349754 0.084173 0.050902 -0.570086 0.274899 -0.453813
Ke2 0.398341 1.288941 0.641612 0.049346 0.440296 -1.390260 -1.107852 -0.008096 0.222552 -0.275098 0.692209 0.968185 -0.536723 -0.644410 -0.228904 -1.202066
O-O-O 0.272864 1.133932 0.813515 0.965667 -0.921632 4.027613 -2.056252 -0.611425 -0.361155 0.263359 0.735055 -1.213321 -0.166558 -0.700156 0.375733 -0.097201
Bc5 -0.146450 -0.429211 0.247555 0.202892 0.340558 0.641866 -0.485611 -0.858337 -0.274677 0.323146 -0.299421 -0.332078 -0.390766 -0.632166 0.453113 -1.197091
Nb6 0.104256 -0.204446 0.714258 0.761903 0.081196 1.380238 -0.161700 -0.484707 -1.004844 0.649844 -0.574615 0.526721 0.275741 -1.015184 -0.142429 -1.089727
Qd3 -0.069134 -0.145261 0.727998 0.187166 -0.296637 1.113460 -0.051282 0.227661 -1.765917 0.570722 -0.105735 -0.397300 -1.285453 0.356472 -0.039230 -0.509744
Bb4 -0.342051 -0.489508 0.312634 0.005638 0.061868 0.589533 -0.507287 -0.921114 -0.563957 0.390056 -0.215818 -0.234926 0.038741 -0.621988 0.449412 -1.597324
Kf6 0.719917 0.075558 -0.844803 -0.100899 0.892477 -1.500599 0.559114 -0.444244 0.409927 -1.554279 0.785069 1.275146 -0.239473 -0.757528 -0.077402 -1.226411
Kf1 1.085723 0.403344 0.433082 -0.202383 0.775521 -1.221462 -0.896271 0.077914 -0.412211 0.159086 -0.038086 -0.108005 -0.927381 0.008073 0.608186 -0.844320
Ke3 0.209381 1.068862 0.093664 -0.012196 0.712541 -1.808031 -0.646227 -0.834839 0.739558 -0.768160 0.712314 1.434283 -0.225278 -0.728119 -0.091733 -1.172016
Nf5 0.322426 0.426392 -0.105760 0.371208 0.833326 1.518326 0.198769 -0.657599 -0.685003 0.087747 0.092899 0.321704 -0.481187 -0.013328 0.084469 -0.152878
Bb2 -0.464206 -0.542776 0.130079 -0.120826 0.411252 1.185735 -0.274133 -0.926781 -0.669981 0.694492 -0.455911 0.122582 -0.190875 -0.195942 0.397173 -1.536496
Rd2 0.934006 -0.062763 0.505866 0.691520 -0.396726 -0.667301 0.203328 -0.708996 -0.371814 0.150381 -0.206210 0.396051 -0.759551 0.098688 0.773830 -0.574046
Kh2 0.380483 -0.222563 -0.506618 -0.680703 1.162873 -0.974728 0.237938 0.413057 -1.753870 0.058199 -0.370823 -0.081222 -1.634499 0.834121 0.141097 -0.330940
exd4 -0.105354 -0.516385 0.501833 -0.364191 0.030306 1.435889 -0.475108 -1.075386 -0.227067 0.686386 0.051378 -1.007976 -0.460595 -0.135905 0.396770 -1.332990
Kf3 0.607000 0.800708 -0.371538 0.019920 1.286820 -2.198512 -0.190459 -0.609744 0.325555 -0.639437 0.460638 1.116889 -0.560029 -0.223199 -0.056338 -1.262584
Nf4 0.359244 0.515252 0.146562 0.055365 0.714975 1.416997 -0.027048 -0.495459 -0.474292 0.148689 0.053969 0.742534 -0.678247 0.161871 0.641347 -0.145920
Qb3 -0.294155 -0.657290 0.990126 0.147906 -0.221399 1.313848 -0.030302 0.233393 -1.657937 0.864079 -0.339136 -0.551350 -0.790399 -0.193710 0.053033 -1.048985
Qf3 0.329844 0.075302 0.282836 0.423837 0.059081 1.140492 -0.283823 0.466257 -1.618621 0.076400 0.232185 -0.615628 -1.271192 0.504395 0.157434 -0.360620
Qa5 -0.106453 -0.333690 0.899502 0.089944 -1.099806 1.505141 -0.430973 0.056384 -1.634344 0.765349 -0.096505 -0.556356 -0.371521 -0.258677 0.099143 -1.160146
Bf6 0.507223 -0.044655 0.007193 0.335375 -0.064243 1.084356 -0.049700 -0.428857 -0.754443 -0.136721 -0.074798 0.525566 -0.391856 -0.176874 0.295713 -0.588077
Rd7 0.989382 -0.604157 0.220020 0.793250 -0.308299 -0.353775 0.743634 -0.480720 -0.458059 -0.481068 -0.138133 0.344284 -0.617362 -0.475060 0.670816 -0.391917
Kh7 0.364574 -0.383693 -1.227933 -0.920312 0.303770 -0.287104 1.102119 0.409211 -1.781502 -0.659654 0.200172 0.294970 -1.050568 0.720056 0.008007 -0.546730
Kg8 0.704814 -0.610948 -1.637251 -0.630247 -0.688560 0.181604 0.805743 0.505709 -0.979567 -1.400034 0.423497 0.448841 -0.877459 0.337278 -0.283653 -0.744234
Rc7 1.050869 -0.747068 0.615836 0.085696 -0.306104 -0.484432 0.761093 -0.558702 -0.839681 -0.408086 -0.129008 0.631201 -0.247820 -0.617879 0.218851 -0.516705
Bb3 -0.129634 -0.222656 0.044281 0.345937 -0.105583 1.127185 -0.051424 -1.100838 -0.378436 0.332167 -0.087955 0.410159 -0.040040 -0.237670 0.580601 -1.475247
Ng5 0.337165 -0.269879 -0.369818 -0.096402 0.368298 2.020843 -0.503615 -0.211051 -0.260042 -0.229059 -0.188587 0.420005 -0.747169 0.207041 -0.085437 -0.461717
Ke6 0.164987 0.326186 -0.443631 0.237525 0.869752 -1.302724 0.171801 -0.635156 0.822529 -1.584509 0.887132 1.122399 -0.069475 -1.568518 -0.348424 -1.098198
Ng4 0.445454 0.145048 -0.344452 0.370404 0.606624 1.565296 -0.822503 -0.375587 -0.589983 0.281492 -0.462360 0.184562 -0.718411 0.469680 -0.318406 -0.389282
dxe4 0.094796 -0.289841 -0.236640 0.388307 -0.016850 1.543195 -0.988241 -0.735941 -0.314498 0.517194 -0.339271 -0.644362 -0.618241 0.390089 -0.192550 -1.087993
Rad1 1.225842 -0.663060 0.462079 1.496268 0.307152 2.454857 0.243021 -0.067810 -0.499849 0.547686 -0.148656 -0.532428 -0.825562 0.064630 0.935181 -0.881145
Bc6 0.409799 -0.135570 0.386505 0.590686 0.092365 0.613875 -0.164553 -0.571377 -0.634870 0.016581 -0.340877 0.417578 -0.417098 -0.727114 0.339867 -0.548211
Ne3 0.224869 0.704694 0.207128 0.570683 0.740183 0.738302 0.057556 -0.611283 -0.778152 0.550563 -0.285052 0.855094 -0.478231 0.034705 0.069089 -0.298311
Nb3 -0.154626 -0.140106 1.253850 0.038044 -0.036040 1.224864 -0.411101 -0.497996 -0.510655 0.851039 -0.500914 0.919167 -0.197761 -0.662859 0.511721 -1.106955
bxc3 0.164459 0.132036 0.302956 -0.290362 -1.390418 1.264594 -0.398066 -1.183714 -0.668914 0.702255 0.150062 -0.572322 0.013853 -0.073240 -0.308224 -1.162099
Qe3 0.308782 0.153839 0.590964 0.293174 -0.412200 0.861665 -0.113803 0.626135 -1.656513 0.169664 0.209406 -0.158590 -1.440476 0.569059 0.206170 -0.264278
Bxf3 0.786731 -0.441012 0.533476 -0.306937 0.317956 1.428622 -1.211091 -0.459598 0.028843 0.598914 -0.333159 -0.984198 -1.172410 0.105719 0.248926 -0.783176
Nd3 0.127766 0.232880 0.715163 0.127304 0.487913 0.576735 -0.027563 -0.166572 -0.205242 0.561525 -0.590549 1.554292 -0.787549 -0.254678 0.291398 -0.476501
Bf3 0.545370 0.239139 0.309926 0.633981 0.478525 0.509952 -0.574512 -0.541239 -0.692370 0.150795 -0.290258 0.366259 -0.548798 -0.179184 0.397097 -0.497610
Bd4 0.339636 0.166551 0.097733 0.264979 -0.059353 0.323582 0.002599 -0.649845 -0.444489 0.335871 -0.394605 0.362403 -0.799340 -0.407403 0.112841 -0.544729
Bxd5 0.771220 0.073564 0.274900 0.460930 -0.266844 1.088920 0.752317 -0.717263 -0.600571 0.560653 0.168419 -0.717731 -0.563037 -0.562855 -0.010071 -0.716590
Nbd2 -1.042231 -1.326336 -0.068842 -0.570676 0.741400 2.492514 -1.437119 -1.013387 -0.604204 0.781942 -0.809129 -0.793102 -0.021200 -0.242442 0.440567 -1.967079
axb5 0.219792 -0.256114 0.882596 0.286430 0.348002 0.611366 0.135626 -0.905940 -1.034084 0.490408 -0.545714 0.179654 -0.056956 -1.011992 -0.410933 -0.292669
Qf6 0.333350 -0.016428 0.064457 0.220861 -0.192980 1.225615 0.025603 0.592482 -1.509488 -0.224303 0.383187 -0.364940 -1.321835 0.517551 0.206260 -0.283223
dxc5 0.166625 -0.940337 0.860499 0.288511 -0.262476 1.588500 -0.740830 -0.381894 -0.290605 0.436477 -0.502961 -0.259260 -0.425613 -0.687596 -0.015784 -1.087994
Ne6 0.414582 0.085009 -0.013294 0.212520 0.567744 1.243298 0.494130 -0.211963 -0.283904 -0.086833 -0.234295 1.074647 -0.690605 -0.463403 0.586216 -0.167591
Kd7 -0.472822 0.532352 0.253505 0.364899 0.282565 -0.205237 -0.122586 -0.314876 0.092531 -1.585020 0.921718 0.428591 -0.273864 -2.243503 -0.145092 0.084387
Re2 0.460348 -0.013141 0.075183 0.756756 -0.117218 -0.618040 0.185882 -0.862943 -0.466036 -0.021589 -0.383906 0.438802 -1.285749 0.592215 0.700744 -0.012037
Rf8 0.317431 -0.213452 -0.637221 0.194696 -0.094109 0.422221 0.010397 -0.483302 -0.693396 -0.930863 -0.202509 0.258563 -1.160764 0.018424 -0.105830 0.552339
Rc2 0.937800 -0.276012 0.913625 -0.042005 -0.118571 -1.077040 0.278720 -0.728295 -0.721883 0.347284 -0.402487 0.660370 -0.447440 -0.105457 0.268168 -0.681993
Bxe4 0.728745 0.092442 -0.213634 0.784426 -0.340493 1.027388 -0.277214 -0.473913 -0.271641 0.633189 -0.434776 -0.302805 -1.103839 0.238151 -0.537713 -0.691402
Qd6 -0.052334 -0.568474 0.446844 0.185098 -0.308253 1.181929 0.305863 0.465837 -1.539388 0.021303 -0.018136 -0.512987 -1.475635 -0.028958 0.184597 -0.409392
Kd3 -0.852838 1.423765 0.211253 0.220536 0.339544 -1.696626 -0.565718 -1.270377 0.640543 -0.537060 0.538168 1.393290 -0.190523 -1.159362 -0.145022 -0.670704
Re7 0.597820 -0.580274 -0.436977 0.846920 -0.178647 -0.167123 0.748993 -0.607867 -0.529834 -0.795488 -0.281896 0.402901 -1.031696 0.010522 0.668274 0.124806
Bxe5 0.828646 -0.527538 0.035751 0.379494 -0.295876 1.359582 -0.260445 -0.108011 0.089475 0.060144 -0.378433 -0.166949 -1.271312 -0.234988 -0.150391 -0.526789
Kg1 0.799506 0.191181 -0.284655 -0.252348 0.864796 -1.449723 -1.053538 0.439202 -0.838288 0.048052 -0.492085 -0.379620 -1.825130 0.735366 0.068366 -0.256461
Kg3 0.383804 0.262865 -0.699267 -0.414279 1.206117 -2.137341 -0.217827 -0.226010 -0.037690 -0.811856 0.226950 0.980569 -1.235952 0.433302 -0.359222 -0.943522
Ra8 0.507107 -0.563260 0.472265 -0.392953 0.057280 -0.796552 0.418189 -0.769159 -1.048411 -0.108720 -0.865949 1.370976 0.089703 -0.986376 -0.306126 -0.224526
Ng3 0.182686 0.640797 -0.159953 0.470074 0.684073 1.592250 -0.650876 -0.805955 -1.069972 0.249750 -0.118758 0.462822 -0.391387 0.632397 0.197927 -0.161997
Rf1 0.212461 0.266519 -0.380012 0.063680 -0.149957 -0.021256 -0.359058 -0.584296 -0.636218 -0.341522 -0.327681 0.402064 -1.427765 0.575178 -0.014567 0.470866
Nd6 0.267712 0.017765 0.041056 0.729972 0.580983 0.852034 0.626828 -0.187446 -0.425920 0.175492 -0.431269 1.006071 -0.338105 -0.864914 -0.239433 -0.536145
Bf8 0.342970 -0.223678 0.139562 0.165727 -0.006543 0.944289 0.307617 -0.007938 -1.370184 0.058027 -0.432062 1.033177 0.031786 -0.483900 0.473054 -0.572684
Kg6 0.488382 -0.308397 -1.356849 -0.372000 0.852133 -1.507535 0.642921 -0.108137 -0.133999 -1.651398 0.517488 1.091409 -0.750295 -0.146354 -0.595178 -0.950443
Kd2 -0.628772 1.906336 0.391199 0.128848 -0.514819 -1.020844 -0.840916 -0.700841 0.235478 -0.299235 0.849566 1.070595 -0.464065 -0.637933 0.031849 -0.534205
Kd6 -0.756281 0.532462 -0.176623 0.349637 0.632788 -1.048913 0.046983 -0.977814 0.864069 -1.564432 0.698544 1.180299 -0.132775 -2.125160 -0.023474 -0.403309
Bxc4 0.207632 -0.121347 0.491901 0.499483 -0.740741 1.028842 -0.185334 -0.726494 -0.410814 0.857952 -0.303215 -0.066547 -0.101515 -0.445501 -0.605426 -1.344296
Bxd4 0.601606 0.063350 0.862436 -0.215799 -0.326437 1.015687 0.073502 -0.693920 -0.076395 0.831389 0.085398 -0.543368 -1.068363 -0.205958 0.396124 -0.696107
Nb5 0.144590 0.036470 0.960662 0.143335 0.388890 1.220334 0.154475 -0.628544 -0.739928 0.797668 -0.286710 0.095142 0.163406 -1.214879 -0.230636 -0.648634
Qd8 0.162405 -0.604015 0.267566 -0.012316 0.088946 1.555894 0.032087 0.543830 -2.262215 -0.130902 -0.190037 -0.069475 -0.473321 0.022488 -0.156652 -0.200906
Be4 0.298534 0.125272 0.069361 0.189713 0.102076 0.471146 -0.064068 -0.755603 -0.299440 -0.003889 -0.055141 0.281485 -0.838698 -0.256699 0.238017 -0.540227
fxe5 0.519509 -0.329891 0.171606 0.316969 -0.259757 1.396302 -0.323817 -0.399721 0.147095 -0.197019 -0.090771 0.158326 -0.904974 -0.288890 -0.288544 -0.459836
Nh5 0.534233 0.480225 -0.284141 0.184790 0.662698 1.984646 -0.439279 -0.611421 -1.264517 0.289702 -0.239474 0.372585 -0.306572 0.557776 0.318422 -0.059269
dxc4 -0.263022 -0.654376 0.424079 0.068797 -0.361768 1.222958 -0.631397 -0.881873 -0.378773 0.625468 -0.308146 -0.581382 -0.218148 -0.272856 -0.327058 -1.432955
Bd5 0.354253 -0.158720 -0.015877 0.264973 -0.022921 0.309964 0.241852 -0.664749 -0.179644 -0.029171 -0.256904 0.290520 -0.790905 -0.608865 0.270880 -0.608306
axb4 -0.072032 -0.166365 0.938583 -0.173647 -0.367832 0.540491 0.218328 -0.903573 -0.673183 0.520071 -0.423317 1.022232 -0.225140 -0.438102 -0.032268 -0.595541
Rd3 0.855713 0.057506 0.662594 0.772176 -0.348371 -0.771011 0.277657 -0.797801 -0.283965 -0.010937 0.086566 0.409162 -0.862081 0.102208 0.391793 -0.596283
Ra1 0.317742 -0.280509 0.531864 -0.537771 0.092920 -1.016219 0.143861 -0.954956 -0.981900 0.239164 -0.946887 1.464125 -0.062562 -0.634421 -0.285893 -0.335003
Bc2 -0.282821 -0.019935 0.001247 0.453280 0.003601 1.074717 -0.382393 -0.805747 -0.651354 0.096130 -0.441373 1.336249 -0.277279 0.073631 0.431885 -0.891462
Bh6 0.336280 0.319162 -0.130160 -0.128794 -0.007879 1.708715 -0.163756 -0.482606 -1.184678 0.323091 -0.239912 0.469780 -0.359028 0.264000 0.154654 -0.218352
Na5 0.082789 -0.346692 1.267496 0.308843 -0.122273 1.519030 -0.393293 -0.462006 -0.585377 0.725613 -0.561826 0.657029 -0.002178 -0.954275 0.223270 -0.891685
Be5 0.472658 0.061106 -0.160604 0.435136 0.162073 0.429137 -0.001295 -0.585751 -0.425406 -0.098725 -0.217106 0.251590 -0.799309 -0.374805 0.171151 -0.393128
Nb4 -0.101935 0.061484 1.120303 -0.208018 0.013538 1.147990 0.210877 -0.710476 -0.320145 0.986205 -0.216479 0.592186 -0.100524 -0.790039 0.307866 -0.971080
Ng6 0.332880 0.011879 0.105664 0.021972 0.810513 1.949374 -0.323926 -0.429278 -0.696310 -0.406042 0.138639 0.566161 -0.572334 0.107169 0.448949 0.016218
Bc3 0.099424 -0.051291 0.314868 0.307617 -0.022588 0.400819 -0.082378 -0.561827 -0.513232 0.317377 -0.485522 0.867902 -0.531212 -0.350378 0.314823 -0.783259
Qxd4 0.237424 -0.261999 0.478778 -0.346217 -0.756269 1.114368 -0.102202 -0.166225 -0.487387 0.543861 0.356373 -1.426141 -1.238562 -0.040343 0.046655 -0.985592
Qxd5 0.042468 -0.383515 0.085635 -0.064592 -0.482212 0.771569 0.261775 -0.340926 -0.701026 0.461379 0.236124 -1.686736 -1.048558 -0.321607 -0.000814 -0.956514
bxc6 0.525842 -0.825206 0.958499 -0.064618 0.172858 1.110887 -0.657295 -0.590955 -0.374393 0.347233 -0.462412 -1.124774 -0.506285 -1.219258 0.365329 -0.425082
exf5 0.371418 0.591682 -0.077990 0.168468 0.443462 1.711631 0.365726 -0.845116 -0.805375 0.032516 0.389582 0.217012 -0.513626 0.237126 -0.239687 0.011236
Rg8 0.383359 0.560631 -0.367664 -0.231186 0.222210 0.684375 -0.609019 -0.888083 -0.976762 -1.419489 0.735044 0.113234 -0.096337 -0.111871 0.255047 0.760649
Re3 0.421362 -0.007521 0.066830 0.669455 -0.170333 -0.379715 0.323259 -0.956290 -0.292359 -0.248175 -0.047563 0.509813 -1.377746 0.683898 0.564958 -0.088301
Rf7 0.413680 -0.206302 -0.500397 0.231952 -0.026131 0.377201 0.273778 -0.734632 -0.899058 -1.041397 -0.120582 0.330550 -0.955204 0.077205 0.173369 0.888922
Ba6 0.134170 -0.237211 0.809714 0.008365 -0.039220 1.133155 -0.378698 -0.532905 -0.826824 0.781373 -0.618498 0.330981 -0.010833 -0.663200 0.124117 -0.840126
Qg4 0.391597 -0.046343 -0.006208 0.086806 -0.046823 1.354958 -0.080382 0.494116 -1.397486 -0.133705 0.302391 -0.559432 -1.436562 0.690556 0.223928 -0.080784
Rfd1 1.580363 -1.261053 1.225604 1.082853 0.256037 1.803044 0.453668 0.239178 -0.976406 1.012435 -0.541407 -0.619272 -0.408925 -0.301297 0.814258 -1.281979
Ra7 0.703797 -1.021086 0.202876 -0.332897 -0.069703 -0.509496 0.525786 -1.076888 -0.864710 -0.451758 -0.754128 1.161444 0.256166 -0.697386 -0.389853 -0.266124
Rad8 1.063766 -0.149304 0.525143 1.434127 -0.075030 1.885268 0.106079 -0.135080 -0.325050 0.890105 -0.156057 -0.162262 -1.056480 0.912507 1.054760 -0.986405
fxe4 0.390872 0.327095 -0.067712 0.710810 0.103788 0.731341 -0.397772 -0.619438 -0.317404 0.571656 -0.486926 0.029956 -0.757987 0.030719 -0.596383 -0.405001
Qh4 0.534489 0.231307 -0.246594 0.146732 -0.049749 1.560516 -0.285919 0.232077 -1.657154 0.079144 0.095449 -0.620976 -1.224267 0.989028 0.153184 0.191198
Bxc6 0.622003 -0.827438 0.741863 -0.234568 -0.074242 1.050027 -0.271263 -0.551674 -0.190293 0.347610 -0.325439 -1.023165 -0.483601 -1.254841 0.485674 -0.640324
Ke4 -0.332086 0.847034 -0.664557 -0.323185 1.277156 -2.045708 -0.116473 -1.344642 1.214470 -1.060482 0.699819 1.253666 -0.265343 -1.154859 -0.244675 -1.177437
Ke5 -0.262543 0.634988 -0.971711 -0.176450 1.202696 -1.889995 0.101141 -1.361974 1.162484 -1.301601 0.607805 1.209209 -0.169958 -1.330874 -0.272592 -1.096446
Bxc5 0.380286 -0.674579 0.899891 0.350844 -0.273443 1.061400 -0.380796 -0.107893 0.134815 0.573139 -0.600730 0.038256 -0.710849 -1.002405 0.007368 -0.946375
Bh4 -0.080619 0.067318 -0.309295 0.409925 0.667780 1.500530 -0.910611 -0.979832 -0.986454 0.050706 -0.363275 -0.067482 -0.212571 0.083374 0.560409 -0.342351
Rac8 1.251986 -0.083092 1.574761 0.358116 -0.535499 1.616363 0.453631 -0.338610 -0.930525 1.169107 0.274619 -0.063768 -0.342807 0.408449 0.468266 -1.148747
Bf1 0.323817 0.093777 0.700975 0.093852 0.568773 0.260526 -0.355007 -0.122022 -1.291138 0.597265 -0.743899 0.965697 -0.294391 -0.173801 0.532389 -0.360358
Na4 0.423697 0.007057 1.030600 0.678566 -0.419865 1.313390 -0.391335 -0.290196 -0.801120 0.836646 -0.742955 0.850212 0.132990 -0.998661 0.115605 -0.790389
Rac1 1.226697 -0.745815 1.590387 0.345017 0.440929 1.864573 0.409079 -0.026634 -0.924213 0.952082 -0.070835 -0.502721 -0.268491 -0.428910 0.399232 -0.974790
gxf5 0.434636 0.789482 -0.405223 0.122984 0.436150 0.913167 0.589728 -0.845892 -0.596680 -0.231408 0.474827 0.715020 -0.365838 0.124740 -0.236182 -0.049850
Rd6 1.035824 -0.569171 0.167341 0.830439 -0.260238 -0.569359 0.861058 -0.632872 -0.144656 -0.717420 0.084277 0.422187 -0.727492 -0.478817 0.662179 -0.389876
Bg3 0.053657 -0.049411 0.240095 0.689833 0.877115 1.128799 -0.753870 -0.707673 -0.530466 0.099471 -0.439338 0.096560 -0.694576 -0.221654 0.489534 -0.301527
Qh5 0.449195 -0.044024 -0.150073 -0.078778 0.078091 1.828429 -0.291145 0.195148 -1.460161 -0.151633 0.275128 -0.767248 -1.264647 0.808744 0.172026 0.144850
Rfe1 0.776657 -1.129747 0.122821 1.167707 0.342502 2.267336 0.546077 -0.249927 -0.821752 0.644410 -0.831149 -0.646648 -1.174957 0.308832 0.796159 -0.399867
Qc6 0.012221 -0.360701 0.567994 0.625099 -0.439912 0.622692 0.366976 0.924782 -1.656140 0.151576 -0.106148 -0.432579 -1.261737 -0.362903 -0.098163 -0.393541
Rf2 0.317275 0.388425 -0.055879 0.226011 -0.178239 -0.267589 -0.344326 -0.972354 -0.750382 -0.296631 -0.216675 0.409379 -1.221718 0.740027 0.283878 0.606768
Kf4 -0.057957 0.580660 -1.164543 -0.393540 1.515461 -2.169259 -0.122994 -1.169491 0.814815 -1.210263 0.616295 1.179834 -0.313727 -0.411324 -0.214857 -1.297020
Qg3 0.201403 0.194530 0.008873 0.337335 -0.209476 1.311061 -0.277966 0.399970 -1.479543 -0.056048 0.173853 -0.351708 -1.565945 0.876064 0.216137 0.068766
Qf2 0.105906 0.503082 0.413070 0.406939 -0.236961 0.852163 -0.325852 0.575881 -1.826917 0.194772 0.088745 -0.119889 -1.371926 0.734935 0.357328 0.131822
Nc7 0.085134 0.093033 0.295839 0.416909 0.507812 1.151451 0.648986 -0.511627 -0.862319 0.438955 -0.569098 0.923262 0.038050 -1.097752 0.149326 -0.181501
Qg5 0.518354 0.176004 -0.128313 0.140851 0.000505 1.166365 0.068966 0.578989 -1.632370 -0.045976 0.264516 -0.436782 -1.358567 0.821635 0.004174 0.024355
hxg5 0.554040 0.231385 -0.278208 0.033488 0.125335 0.810176 -0.390161 -0.410784 -0.156363 -1.017980 0.497721 1.038412 -0.417247 0.237371 -0.338569 -0.279497
Bxc3 0.500842 0.176789 0.351666 -0.037716 -1.149861 0.838172 -0.245651 -0.932548 -0.551749 1.124808 -0.226399 -0.664175 -0.239559 -0.245776 -0.356973 -1.132481
Kf5 -0.004254 0.283839 -1.303248 -0.398806 1.515335 -1.945960 0.165612 -1.080418 0.886872 -1.493440 0.658020 1.152758 -0.290495 -0.740012 -0.323313 -1.211511
Nxc6 0.432341 -0.788252 1.054533 -0.664835 0.050998 1.400387 -0.181084 -0.659980 0.066530 0.599235 -0.205645 -1.057691 -0.504665 -1.412188 0.494286 -0.758824
Qd4 -0.100949 -0.002717 0.288506 0.310246 -0.740059 0.431064 0.199097 0.631123 -1.437586 0.214150 0.157201 -0.590832 -1.569925 0.191259 -0.154590 -0.457286
Qf4 0.328150 0.061660 0.137230 0.314768 -0.309115 0.780766 0.039815 0.741495 -1.531247 -0.173027 0.412013 -0.490923 -1.440471 0.599566 0.205888 -0.308221
Ne8 0.337986 -0.212577 -0.039421 0.526242 0.389880 1.355686 0.432497 -0.291168 -1.700607 0.081967 -0.483427 1.013818 0.568657 -0.582053 0.128773 -0.530425
Rg1 0.267297 1.139376 -0.173034 -0.293685 0.271192 0.141158 -1.005574 -1.063989 -0.981930 -0.742776 0.529832 0.299188 -0.293293 0.540689 0.318463 0.640208
Rb7 0.742966 -0.897131 0.347616 -0.245028 -0.348348 -0.974687 0.522759 -0.901433 -0.963815 -0.491523 -0.650834 0.997215 0.076579 -0.847338 -0.239698 -0.200637
Qc3 -0.129071 -0.133900 0.655821 0.259204 -0.637687 0.444063 0.245208 0.885549 -1.631421 0.413395 -0.118068 0.033475 -1.390968 0.198460 0.127373 -0.546358
Kd4 -1.084282 1.082515 -0.467287 0.048898 0.710383 -1.845211 -0.194755 -1.627375 1.214802 -0.905570 0.431226 1.419100 -0.236510 -1.627059 -0.242782 -0.802989
Qe6 0.237718 -0.177494 0.175751 0.451150 -0.168267 0.780316 0.390404 0.811088 -1.624830 -0.222581 0.228243 -0.465450 -1.479571 0.149171 0.016772 -0.117505
Rfd8 1.460493 -0.566314 1.121267 0.822668 -0.618601 1.443936 0.366321 -0.005664 -0.850878 1.502591 -0.293928 -0.073223 -0.465215 0.741178 0.710504 -1.763496
Bg6 -0.313884 0.083250 -0.392475 0.299891 0.100121 1.458504 -0.289367 -0.936502 -0.506627 -0.247449 -0.010389 0.612003 -0.381214 0.162828 0.410134 -0.508553
Rc3 0.784206 -0.160460 1.129054 -0.100874 -0.167106 -1.113331 0.418688 -0.827665 -0.510675 0.034382 0.025282 0.766965 -0.620168 -0.116763 0.111460 -0.597220
Nxc3 0.256814 0.223977 0.246098 -0.279479 -0.856864 1.003361 -0.083638 -1.174970 -0.460461 1.333417 -0.141933 -0.802787 0.186237 -0.481671 -0.395866 -1.464269
Rd4 0.926894 -0.075450 0.538691 1.096038 -0.529351 -0.928621 0.566428 -0.912000 0.088293 -0.238479 0.235481 0.407282 -0.963623 -0.037224 0.114264 -0.705321
hxg4 0.684251 0.524069 -0.051883 0.483073 1.061225 0.162515 -0.867719 -0.436375 -0.459844 -0.517166 -0.032648 0.714075 -0.497544 0.137844 -0.466375 0.025961
Bb6 0.278889 -0.156047 0.576339 0.477226 0.775348 0.415580 -0.185776 -0.555339 -0.443060 0.320199 -0.451356 0.238636 -0.282698 -0.916757 0.664156 -0.656765
Qe4 0.045475 -0.106992 0.444850 0.113472 -0.353057 0.439753 0.144010 0.803524 -1.274157 -0.064218 0.455077 -0.723560 -1.789634 0.311377 0.010428 -0.383239
Rc6 0.967297 -0.562807 0.605726 0.359341 -0.159051 -0.921628 1.047383 -0.760212 -0.639404 -0.426372 0.037956 0.591761 -0.260064 -0.745730 0.006609 -0.491405
Rf3 0.253581 0.190568 -0.128503 0.253426 -0.163940 -0.203213 -0.148349 -1.092756 -0.614153 -0.504288 -0.007168 0.338454 -1.351983 0.884072 -0.173146 0.530560
Ra2 0.514349 -0.479788 0.672489 -0.552054 0.222103 -1.237095 -0.180376 -1.322999 -0.798914 0.327245 -1.078856 1.220235 -0.075677 -0.183828 -0.167858 -0.286996
Kc7 -1.012186 0.380689 0.221279 1.264302 -0.066167 -0.354925 -0.724304 -0.100820 0.230986 -1.735835 0.294413 0.519623 -0.389112 -2.555986 0.191383 0.547830
Qa4 -0.036286 -0.639600 1.208191 0.031219 -0.688577 1.076365 -0.178041 0.602806 -1.654036 0.625151 -0.307172 -0.610953 -0.699179 -0.574667 0.174809 -0.730024
Kd5 -1.142120 0.738901 -0.639318 0.025129 0.897505 -1.677910 -0.028883 -1.514692 1.331655 -1.195784 0.332984 1.272722 -0.367758 -1.994443 -0.160408 -0.625117
Rc4 0.861212 -0.242808 1.157481 0.084499 -0.304803 -1.110074 0.768621 -1.137804 -0.428839 -0.026056 0.272131 0.502658 -0.591807 -0.285291 -0.090659 -0.721678
Rfe8 0.782398 -0.466450 0.140763 0.924120 -0.345848 1.791891 0.476951 -0.481316 -0.845719 1.325236 -0.787892 -0.213419 -1.259603 1.258761 1.034507 -0.710757
Na6 -0.196133 -0.257653 0.927047 0.125293 0.150116 1.719721 -0.216887 -0.586774 -0.658031 0.725514 -0.440484 0.486459 0.326048 -1.081377 0.134850 -0.944971
Re6 0.485824 -0.402544 -0.485454 1.015401 0.116585 -0.315358 0.900164 -0.864583 -0.346018 -0.754507 -0.163835 0.195301 -1.192351 0.010016 0.486574 0.232673
Nh4 0.351809 0.190426 -0.033036 -0.202964 1.092678 1.929684 -0.292514 -0.543849 -0.934397 0.001265 -0.040939 0.348012 -0.605785 0.420050 0.420089 0.134370
Qc5 -0.096014 -0.139410 0.658333 0.555141 -0.737469 0.518752 0.390129 0.718411 -1.488542 0.247376 0.137522 -0.514045 -1.344600 -0.153048 0.044582 -0.483667
Bc8 0.152318 -0.240508 0.038133 0.511455 0.632160 0.944483 -0.060074 -0.194686 -1.093978 -0.311788 -0.628554 1.214873 -0.287218 -0.383734 0.382334 0.093532
Rc5 0.927372 -0.403280 1.019830 0.312419 -0.246950 -1.032644 1.076500 -1.136602 -0.448941 -0.279821 0.380737 0.429029 -0.403306 -0.560055 -0.074902 -0.687429
Bxf5 0.287211 0.696825 -0.537093 0.201559 0.356448 1.632316 0.502617 -0.878899 -0.675266 -0.024458 0.352040 0.031316 -0.687547 0.283477 -0.217251 0.183696
Qd5 -0.215437 -0.441541 0.399907 0.184177 -0.521012 0.553651 0.218380 0.680581 -1.132150 0.010056 0.200453 -0.872865 -1.737957 -0.044894 -0.104736 -0.533731
bxc4 0.105601 0.005712 0.374182 0.570819 -0.576275 0.572634 0.025093 -0.671540 -0.514645 0.600486 -0.405884 0.566813 -0.296685 -0.120315 -0.561334 -0.892247
Qe8 -0.051265 -0.607150 -0.142387 -0.075814 -0.005723 1.416460 0.226171 0.588634 -2.100658 -0.387202 -0.241708 0.076299 -0.590356 0.004520 0.223075 0.067782
Qc8 -0.010978 -0.746463 0.281710 0.009037 0.247259 1.218963 0.163863 0.774350 -2.115502 0.046443 -0.401287 -0.043553 -0.634688 -0.299368 0.007419 -0.369108
Qe5 0.157823 0.069739 0.075466 0.388413 -0.609960 0.479156 0.290800 0.762721 -1.407355 -0.172581 0.472575 -0.694211 -1.564230 0.224937 -0.092159 -0.291256
Rd5 0.906130 -0.513075 0.615945 1.005064 -0.257933 -0.902649 0.755346 -0.748870 0.210259 -0.583975 0.264215 0.304908 -1.071893 -0.345435 0.288345 -0.608668
Ke8 0.448577 -0.318926 -0.357643 -0.218298 -0.401699 -0.003235 -0.034087 0.334569 -0.193140 -2.007299 1.135610 0.179895 0.215955 -1.618872 -0.238923 -0.687961
Rxd5 1.276406 -0.189698 0.282237 0.712133 -0.635644 -0.563046 1.135831 -0.763655 0.046531 -0.018415 0.309291 -0.576151 -0.967186 -0.495914 0.160916 -0.576760
Kc6 -1.433813 0.607848 -0.172090 0.905139 0.238881 -1.147067 -0.241502 -0.945029 0.677500 -1.581671 0.289677 0.949888 -0.311914 -2.575764 0.064738 0.190140
bxc5 0.390082 -0.673744 0.791036 0.401978 0.071406 0.644467 -0.276122 -0.137772 -0.262751 0.183533 -0.759799 0.454697 -0.681595 -0.818458 -0.095192 -0.330191
Rb2 0.564879 -0.425362 0.696961 -0.491658 -0.169152 -1.558178 -0.008428 -1.071393 -0.825611 0.153346 -0.854365 1.063295 -0.222431 -0.237586 -0.134045 -0.241753
exf4 0.447783 0.529663 0.056927 0.052917 0.843959 1.290077 -0.173524 -0.681367 -0.474977 0.247634 -0.024376 0.064374 -0.790551 0.208551 0.099182 0.176518
Kc2 -1.233956 1.714243 0.238499 0.849773 -1.415995 -1.083559 -0.968109 -0.605376 0.259612 -0.427597 0.511861 1.377145 -0.415798 -0.775443 0.263689 -0.459153
Kb1 -1.135522 1.646662 0.343756 0.510454 -2.609336 0.782976 -0.701940 -0.871905 -0.555329 0.065439 0.964022 0.137936 0.142947 -0.332408 0.847175 -0.475738
Ra3 0.475796 -0.458977 0.860259 -0.504699 0.171778 -1.085604 0.116680 -1.371948 -0.732093 0.223834 -0.782627 1.352997 -0.101985 -0.226859 -0.596822 -0.388922
Bf2 -0.095769 0.598258 0.479225 0.670513 0.971001 0.471971 -0.517976 -0.514496 -0.941415 0.350402 -0.429286 0.762204 -0.455521 -0.338696 0.630817 -0.170374
Qd1 -0.142935 -0.059849 0.689791 -0.305426 0.058227 0.661195 -0.531151 0.631389 -1.896584 0.645597 -0.351925 0.190922 -1.081266 0.812554 0.271404 -0.440239
fxe6 0.594850 -0.300222 -0.063032 -0.240045 -0.796369 1.623112 0.416535 -0.246677 0.182606 -0.308823 0.280317 -0.172254 -0.799749 -0.584148 0.293242 -0.232693
Kc3 -1.573593 1.457306 0.046590 0.630779 -0.497918 -1.598048 -0.617007 -1.310792 0.856540 -0.593179 0.302915 1.620775 -0.322247 -1.317346 0.349241 -0.397969
Ba4 -0.197366 -0.354224 0.280023 -0.110300 -0.085116 0.492165 -0.424994 -0.643647 -0.659873 0.119361 -0.307330 0.459661 0.237676 -0.631088 0.678625 -1.153534
Rb6 0.726902 -0.956286 0.635853 -0.130063 -0.298578 -1.062297 0.641057 -0.978584 -0.647519 -0.484729 -0.516246 1.026158 -0.085822 -0.856704 -0.418793 -0.342769
hxg6 0.408410 0.387738 -0.445321 -0.454135 -1.103056 1.465141 0.079412 -0.501289 -0.690209 -0.511054 0.669686 0.703039 -0.209531 0.641417 -0.024386 -0.361793
Qf5 0.317964 -0.043166 -0.008770 0.317507 -0.217203 0.591207 0.159213 0.875109 -1.417304 -0.275507 0.405038 -0.585435 -1.621528 0.494156 0.229691 -0.275614
Rxd4 1.198527 -0.112995 0.602007 0.347486 -0.796907 -0.523943 0.619493 -0.767934 0.346329 0.141737 0.328014 -0.416625 -1.199269 -0.097557 0.257905 -0.654500
Nf8 0.433805 -0.324599 -0.186106 0.249998 0.177638 1.780857 -0.174519 0.084118 -1.259788 -0.754703 -0.171363 1.345040 0.017671 -0.055653 0.832450 -0.174646
Rb3 0.471466 -0.420659 0.951575 -0.294049 -0.233541 -1.266463 0.048387 -1.044590 -0.809494 0.070706 -0.541453 1.020632 -0.268525 -0.329812 -0.600949 -0.429358
Qc4 -0.171845 -0.213010 0.713649 0.346030 -0.790629 0.366591 0.419811 0.788576 -1.512226 0.376972 -0.024995 -0.365117 -1.435604 -0.161851 0.138660 -0.504203
Bh3 0.499866 0.125990 0.096562 0.175404 0.622813 1.269172 -0.428193 -0.299316 -1.023976 0.143386 -0.457860 0.310974 -0.567932 -0.020147 0.378867 0.170211
Qe1 -0.271970 0.224625 0.450295 -0.116614 0.019429 0.702431 -0.579916 0.337240 -1.955075 0.666110 -0.360103 -0.011164 -1.030072 0.816705 0.305685 -0.191118
Qb7 -0.070645 -0.517820 0.993792 -0.016860 -0.253535 0.594510 0.520535 0.810679 -2.165352 0.410469 -0.175942 -0.083008 -0.794856 -0.372403 -0.125158 -0.531144
Rf6 0.348116 -0.323171 -0.513552 0.350166 0.078190 -0.008694 0.357721 -0.988699 -0.449549 -1.201037 0.009343 0.281133 -1.302042 0.292384 0.105082 0.873214
Bxf4 0.476238 0.575426 0.094307 -0.009813 0.919761 1.345570 -0.265038 -0.618574 -0.168240 0.172940 0.028835 -0.068064 -1.208573 0.191887 0.288436 0.373435
Qb4 -0.217144 -0.194928 0.892461 0.383100 -0.961444 0.615250 0.325806 0.736424 -1.727969 0.565314 -0.076366 -0.214010 -0.950600 -0.264858 0.070340 -0.767214
gxf6 0.660740 0.201322 -0.596142 0.270435 -0.801899 1.468470 -0.022212 -0.750692 -0.402378 -0.221134 0.580205 -0.624198 0.001454 -0.046896 -0.460334 -0.861802
Re4 0.356822 -0.111082 0.039675 0.806103 -0.090112 -0.701016 0.662876 -1.258130 0.074800 -0.459938 0.117375 0.147389 -1.559193 0.446722 0.276531 0.012883
Kg5 -0.194824 0.030728 -1.606930 -0.627045 1.442417 -1.914706 0.163089 -0.788826 0.395866 -1.672575 0.535019 1.076092 -0.655822 -0.175552 -0.682282 -0.973623
Qf7 0.037633 0.018403 -0.165677 0.359090 -0.181812 1.195026 0.376943 0.695585 -1.881084 -0.572622 0.277027 -0.072896 -1.278202 0.329649 0.262447 0.364759
Rh8 0.655491 0.664173 -0.184707 0.257145 0.241492 -0.005893 -1.119139 -0.683327 -0.556084 -1.831338 0.680722 1.264546 0.151751 -0.038881 0.025300 0.558853
Nc2 -0.387473 0.387191 0.944250 -0.063707 0.704187 0.726921 0.324167 -0.785752 -0.433488 1.023971 -0.373775 1.056236 -0.359818 -0.358950 0.267734 -0.619899
Nxc5 0.522746 -0.529484 0.818201 0.360556 -0.348316 1.190963 -0.133293 0.233702 0.364092 0.596235 -0.730733 0.690787 -0.788098 -0.994190 -0.170817 -0.879157
Ra6 0.601475 -0.961942 0.459164 -0.198876 0.169961 -0.916876 0.711433 -1.241362 -0.689113 -0.381772 -0.624443 1.188370 0.160533 -0.820077 -0.567142 -0.373275
gxf4 0.578118 0.574686 0.217675 -0.009224 1.224618 0.391539 -0.044086 -0.642457 -0.090106 -0.110942 0.073768 0.460786 -0.977692 -0.078148 0.183831 0.331576
Rxe5 0.720238 -0.636657 -0.419375 0.723362 -0.546651 -0.036424 0.688726 -0.870622 0.383508 -0.479301 -0.211398 -0.312035 -1.683582 0.161313 0.029118 0.100085
Re5 0.420763 -0.193643 -0.279783 1.129622 -0.123623 -0.521140 0.976535 -1.276835 -0.104911 -0.681043 0.147565 0.133159 -1.345159 0.292858 0.301827 0.119799
Kg4 -0.277384 0.254089 -1.310079 -0.710237 1.639076 -2.237996 -0.202388 -0.776173 0.377399 -1.348661 0.512527 1.076468 -0.805602 0.124322 -0.576811 -1.090884
Qxd6 0.497525 -0.295661 -0.144385 0.551861 -0.436469 1.273961 0.430068 0.511406 -0.983221 0.398831 -0.089656 -1.186117 -0.960324 -0.500745 -0.325302 -0.526491
Qxe5 0.455552 -0.368051 -0.021680 0.192783 -0.867416 0.988976 -0.107115 0.552224 -0.481627 -0.176809 0.152661 -0.920582 -1.704279 -0.025692 -0.253578 -0.342074
Rb4 0.587521 -0.604651 0.867927 -0.002083 -0.470851 -1.336423 0.357944 -1.296077 -0.533612 -0.035261 -0.515505 1.042535 -0.227327 -0.463695 -0.829890 -0.572671
Qxe4 0.374879 0.061977 -0.056798 0.394303 -0.686893 0.646176 -0.180546 0.323211 -0.836807 0.394558 0.015474 -1.103906 -1.617967 0.307898 -0.578266 -0.466444
Ba3 0.092202 -0.369245 0.663794 -0.059755 0.053999 1.073125 0.064148 -0.329474 -0.610642 0.647068 -0.582917 0.605067 -0.121786 -0.770698 0.328145 -0.892924
Qg6 0.146936 0.002571 -0.263727 0.303287 -0.003666 1.230956 -0.096328 0.529237 -1.465855 -0.386723 0.175740 -0.439066 -1.424165 0.649966 0.065059 0.248025
Rxe4 0.625802 -0.124883 -0.425999 0.884679 -0.448258 -0.354896 0.581129 -1.058705 0.077583 0.131200 -0.358197 -0.407238 -1.646302 0.505821 -0.352217 0.025781
Bc1 -0.281220 0.320016 0.292632 0.219184 0.309658 0.717848 -0.154253 -0.463732 -0.944108 0.400474 -0.485229 1.338444 -0.395517 0.220145 0.288355 -0.354050
Nxc4 0.228532 -0.049994 0.550145 0.660602 -0.268273 0.924860 -0.012180 -0.267139 -0.114836 1.043969 -0.626600 0.293502 -0.386128 -0.580215 -1.130911 -0.966041
exf6 0.523168 -0.255773 -0.509290 0.003908 -0.737540 1.973169 -0.291648 -0.637523 -0.274635 -0.195645 0.312782 -0.575252 -0.215733 0.142197 -0.478871 -0.714269
Rh1 0.551221 0.960741 -0.044596 0.173991 0.228905 -0.325068 -1.319580 -0.738068 -0.525054 -1.475085 0.580149 1.413664 0.063637 0.285907 0.089897 0.477217
Rxd8 1.342335 0.214493 -0.553279 0.920540 -0.186563 0.740045 0.096909 0.848537 0.396975 0.395741 -0.371029 0.145812 -0.387774 -1.320621 1.397999 -1.375195
Kc5 -1.852183 0.910644 -0.512107 0.419944 0.411271 -1.573543 -0.078622 -1.614848 1.012382 -1.174553 0.241559 1.169563 -0.317651 -2.312747 0.048371 -0.195609
Ra4 0.497827 -0.706998 0.912663 -0.342523 0.070944 -1.314606 0.503291 -1.566998 -0.383125 0.012548 -0.536561 1.057257 -0.199544 -0.538857 -0.830366 -0.509838
Nf1 0.065184 0.352991 0.371407 0.517401 1.107908 0.788819 -0.974633 -0.334507 -1.373966 0.536207 -0.759781 0.989991 -0.222288 0.593924 0.765002 -0.231373
Bc7 0.082975 -0.283740 0.309045 0.794301 1.002548 0.398557 -0.367899 -0.308762 -0.395719 -0.100135 -0.699249 0.781938 -0.430931 -0.966250 0.421706 -0.456191
Kc4 -1.935563 1.162689 -0.345121 0.281038 0.283731 -1.800327 -0.256409 -1.621473 1.064838 -0.795129 0.194754 1.389780 -0.383261 -1.897495 0.169421 -0.401402
Bh5 -0.219756 0.049169 -0.341526 0.089098 0.481071 1.617519 -0.825615 -0.961968 -0.590626 -0.359355 -0.072534 0.298963 -0.296009 0.184631 0.816681 -0.167885
Qxd3 -0.038443 -0.041962 0.733835 -0.287653 -0.693419 1.205810 -0.410630 0.343386 -0.452955 0.966780 -0.080548 -0.489226 -1.512476 0.494032 0.144932 -0.868701
Ra5 0.544233 -0.820937 0.756053 -0.124417 0.042030 -1.243157 0.684085 -1.553211 -0.426478 -0.249034 -0.429056 1.051717 0.079230 -0.690990 -0.748605 -0.530848
cxb5 -0.029486 -0.084469 0.839650 0.355326 0.062866 0.505444 0.019254 -0.908167 -0.915904 0.587863 -0.477225 0.052522 0.075902 -1.053935 -0.365526 -0.400723
Bxd6 0.742326 -0.243428 -0.036348 1.029653 0.099076 1.179313 0.299646 -0.030004 -0.231890 0.363317 -0.273940 -0.815551 -0.349174 -1.112797 -0.513561 -0.643039
Rxd6 1.503540 -0.209663 -0.209410 1.030545 -0.542340 -0.290371 0.900666 -0.105462 -0.085950 -0.240911 -0.027846 -0.297299 -0.645433 -0.807122 0.018093 -0.370175
Qxf6 0.452111 -0.137004 -0.785271 0.217232 -0.820230 1.479755 -0.063871 0.026421 -0.971835 -0.289000 0.449470 -1.177497 -0.788458 0.285838 -0.429465 -0.541132
Ke1 0.271732 1.387779 0.409243 -0.242532 0.068637 -1.762263 -1.664390 -0.062712 -0.009680 0.054575 0.463680 0.199165 -0.476299 0.011928 0.196998 -0.928625
Qb5 -0.274097 -0.387026 1.090931 0.252232 -0.591151 0.378362 0.310227 0.898652 -1.648746 0.474229 -0.113934 -0.307625 -1.092765 -0.400879 0.184704 -0.620357
Rb5 0.559044 -0.937586 0.911623 -0.031356 -0.263168 -1.381419 0.535808 -1.148901 -0.309859 -0.361386 -0.448817 0.958642 -0.329459 -0.763588 -0.704411 -0.510804
axb3 0.018082 0.093584 0.422297 -0.181683 -1.441373 0.606800 0.213433 -0.814126 -0.473012 0.512018 -0.292336 1.092884 -0.034675 -0.103902 0.137870 -0.799929
Qc1 -0.384735 0.018667 0.527523 -0.285849 -0.075420 0.590294 -0.223264 0.599823 -1.961052 0.755545 -0.318414 0.309302 -0.944638 0.690060 0.048597 -0.766614
Rae1 0.333534 -0.660290 -0.417944 1.435237 0.188891 2.326461 0.324549 -0.596189 -0.469350 -0.031810 -0.436420 -0.404582 -1.424164 0.875772 0.579766 0.288679
Be8 -0.046879 0.023529 0.016254 0.142577 0.139846 0.781213 -0.111971 -0.419264 -1.047942 -0.884144 -0.033358 1.537228 0.219320 -0.394258 0.449200 0.063834
Kh6 -0.070119 -0.382887 -1.673612 -0.989783 0.691523 -1.467336 0.882904 0.201021 -0.771073 -1.612689 0.676226 0.379387 -0.973149 0.317061 -0.425735 -0.686533
Na3 -0.507454 -0.020789 1.101169 -0.044592 0.366554 1.335353 -0.225688 -0.899978 -0.589341 1.185856 -0.297185 0.104890 0.389755 -0.807466 -0.183755 -1.139968
Rg3 0.386026 0.724661 -0.045834 -0.169058 -0.199572 -0.111379 -0.497284 -1.198101 -0.867617 -1.051658 0.678332 0.330866 -0.756791 0.894507 0.152143 0.885942
Ne1 -0.115111 0.184045 1.224066 -0.295314 1.105841 0.623440 -0.518360 -0.281292 -0.886631 0.840244 -0.538830 1.143864 -0.293572 0.086083 0.897896 -0.521362
Qxf3 0.482827 -0.157539 0.307932 -0.358050 0.023435 0.953438 -1.144083 0.166502 -0.516575 0.267351 0.069470 -1.410042 -1.568559 0.462272 0.026585 -0.365551
Nge2 -0.841039 0.062227 -0.227745 -0.278388 0.320870 2.402503 -1.403896 -1.330776 -1.071605 0.749155 -0.030027 -0.893639 1.004336 0.030152 0.454830 -1.298673
Kd8 -0.434182 -0.099731 -0.097731 0.253593 -0.127837 0.393979 -0.317486 0.064761 -0.159612 -1.831556 0.940770 -0.518353 0.174156 -2.270972 -0.345468 0.108924
Rxd1 1.112622 0.728238 -0.375567 0.844104 -0.294075 0.449574 -0.258046 0.719897 0.447064 1.028602 -0.428286 0.137313 -0.502282 -0.722985 1.340094 -1.568086
Bxe7 0.570544 -0.424836 -0.371753 0.000313 -0.254942 2.026564 0.501634 -0.652005 -0.368759 0.399690 -0.099949 -1.068534 -0.013192 -0.728785 0.489623 -0.533545
Rf4 0.257621 0.011328 -0.219723 0.449337 -0.205391 -0.470932 0.080941 -1.357811 -0.151258 -0.906726 0.117710 0.208963 -1.576405 0.722324 -0.398630 0.728980
Qxc4 0.044536 -0.290512 0.547669 0.172700 -0.942235 0.624902 0.152663 0.439197 -0.996276 0.788172 -0.139484 -0.826305 -1.125136 -0.208369 -0.660237 -0.909694
Bd8 0.157406 -0.005351 0.360410 0.270785 0.731341 0.261189 -0.147863 -0.211856 -1.198818 -0.312816 -0.422986 1.220981 0.216351 -0.872588 0.137834 -0.090463
Bxe6 0.638506 -0.261337 -0.435960 0.019159 -0.371583 1.706335 0.639459 -0.176152 0.308915 -0.378194 0.108660 0.012881 -0.896947 -0.629460 0.621702 -0.119657
Qxe7 0.305706 -0.442712 -0.586445 -0.078900 -0.442238 1.883935 0.808054 -0.050710 -1.170583 0.441771 -0.128804 -1.285552 -0.687848 -0.292858 0.340165 -0.380001
Bxd3 0.127795 0.127786 0.721674 -0.230832 -0.560459 1.063827 -0.509632 -0.231653 0.375929 0.831957 -0.112961 0.363195 -0.936773 0.292048 0.405402 -1.009086
Rxc4 1.100720 -0.163169 0.876163 -0.034659 -0.686246 -0.905320 0.876716 -0.887257 -0.198853 0.442343 0.097681 0.085958 -0.469608 -0.370229 -0.841231 -0.830440
Kxg7 0.770413 0.167090 -1.127397 -0.620725 -0.488900 1.203716 0.811376 -0.279232 -0.744938 0.039901 0.167541 0.355895 -0.466911 0.420161 -0.254808 -0.696584
Qb8 -0.244090 -0.771255 0.464586 0.118230 0.207271 0.947562 0.435481 0.838571 -2.185441 0.350683 -0.442071 -0.104227 -0.418318 -0.539025 -0.099041 -0.692629
Kh3 -0.113320 0.140906 -0.896298 -0.882087 1.386340 -2.269167 -0.138593 0.006246 -0.850600 -0.728313 0.306389 -0.001863 -1.377692 0.777049 -0.311955 -0.609630
Rh3 0.434677 0.747108 0.145114 0.019933 -0.401365 0.164093 -1.055507 -1.303563 -0.583737 -1.188840 0.735762 0.642437 -0.244533 0.623855 -0.097167 0.563055
Rxc3 1.062335 0.204541 0.914691 -0.728811 -1.071824 -0.792460 0.565827 -0.978490 -0.551879 0.588386 0.366311 -0.130093 -0.195759 -0.130282 -0.492532 -0.825674
Rf5 0.288111 -0.241392 -0.348751 0.494813 -0.073255 -0.347347 0.287477 -1.252320 -0.092729 -1.221365 0.193716 0.139480 -1.576347 0.483735 -0.278839 0.789389
Bxg5 0.708348 0.159305 -0.333006 -0.324320 0.032564 1.782390 -0.652668 -0.195729 -0.154680 -0.611812 0.368308 0.250990 -0.627300 0.215451 -0.526775 -0.054995
Qxc5 0.235952 -0.667648 0.713563 0.116256 -0.851836 0.727088 0.027856 0.741984 -0.637392 0.382100 -0.181370 -0.744817 -1.402078 -0.482021 -0.229394 -0.718595
gxf3 0.991713 0.005024 0.445321 -0.208556 0.513201 0.554138 -1.159704 -0.224046 0.198770 0.227051 -0.150208 -0.764218 -1.045250 -0.046391 0.094006 -0.143401
Qb2 -0.260943 -0.335615 0.898288 -0.247513 -0.385251 0.227433 0.270443 0.928825 -2.045517 0.616538 -0.285395 0.212672 -0.946802 0.129448 -0.045179 -0.658169
Nxf6 0.524446 0.008925 -0.993701 0.696845 -0.335702 1.843315 -0.166872 -0.486693 -0.509295 -0.445621 0.288221 -0.356396 0.022372 -0.010226 -0.880089 -0.613299
Qxc3 0.140601 0.131898 0.384740 -0.323345 -1.491628 0.518511 0.057109 0.122077 -1.144643 0.840271 0.025085 -0.866446 -0.914067 0.010291 -0.502674 -0.761390
Nxe6 0.603067 -0.132241 -0.108559 -0.363849 -0.239494 1.837375 0.862913 0.020422 0.454769 -0.074956 0.083389 0.242908 -1.052357 -0.666526 0.469883 0.076969
Rxc5 1.197439 -0.768516 1.064420 -0.152242 -0.473537 -0.821992 0.912596 -0.550528 0.132634 0.068601 -0.008285 0.150466 -0.692565 -0.744865 -0.311349 -0.688174
Bxg7 0.745615 0.350725 -0.570661 -0.413514 -0.755354 1.776615 0.425799 -0.471369 -0.651098 0.555420 -0.032708 -0.034244 -0.172258 0.183430 -0.058151 -0.388097
Qh3 0.381706 0.470534 -0.087304 -0.045647 -0.138801 1.360958 -0.444690 0.290963 -1.476515 -0.229873 0.398557 -0.522414 -1.198634 0.886378 0.027396 0.453077
Rxe6 0.652145 -0.468958 -0.751532 0.387695 -0.501786 0.193499 1.247156 -0.629251 0.229985 -0.639194 -0.184902 -0.149920 -1.569992 -0.278948 0.616072 0.527956
Rae8 0.300656 -0.051443 -0.197660 1.326439 0.170246 1.802617 0.024840 -0.619858 -0.412646 0.415035 -0.433484 -0.231795 -1.704367 1.520878 0.708686 0.311083
Rfc8 1.212065 -0.300496 2.063369 -0.631081 -1.152471 1.124374 0.502514 -0.299715 -1.693630 1.521603 0.055396 0.289049 0.234360 0.514055 -0.178401 -1.305087
Rg7 0.435818 0.253011 -0.535544 -0.064196 0.117098 -0.042885 -0.457801 -0.817373 -0.939051 -1.959999 0.519813 0.517281 -0.240977 -0.056357 0.174146 1.259752
Nge7 -1.031292 -0.485862 0.625676 -0.913860 0.832018 2.736426 -1.213682 -1.279672 -0.458390 0.612017 0.359157 -1.388574 0.385014 -0.322561 0.587521 -1.123595
hxg3 0.700192 0.337190 0.299735 0.356480 1.275558 0.279915 -1.072036 -0.304137 -0.763349 -0.047414 -0.309825 -0.496473 -0.714757 -0.116057 0.036558 0.554964
Rg6 0.431559 0.290602 -0.384535 0.161124 0.275405 -0.068403 -0.165923 -1.112683 -0.865862 -1.549074 0.528647 -0.003714 -0.589610 0.176070 0.127769 1.278133
Bxb5 0.396176 0.026681 0.931769 -0.160014 -0.199547 0.615473 0.186201 -0.602030 -0.892692 0.789597 -0.373456 -0.116010 0.274852 -1.346037 -0.866335 -0.378977
Kb8 -1.088697 0.178519 0.979378 1.021489 -0.050423 0.424097 -1.108387 -0.090401 -0.528195 -1.024434 0.202500 -1.077253 -0.380661 -2.274243 0.952232 1.148236
Bf7 -0.246059 0.305175 -0.363060 0.508524 0.197890 0.762853 0.416609 -0.455438 -0.601405 -0.595026 0.112811 1.307035 -0.257708 -0.379963 0.762634 -0.232609
Rxc8 1.409479 0.321421 0.581456 -0.763951 0.589893 0.327150 0.950282 0.749491 -0.938537 0.730885 0.212142 -0.142056 0.163835 -1.495380 0.067108 -1.005561
axb6 0.418603 -0.635831 0.815570 0.731443 0.426727 0.225190 -0.408969 -0.377474 -0.715471 0.359978 -1.156616 -0.010062 -0.132720 -1.398823 -0.229071 0.139412
fxg6 0.411012 0.478706 -0.891109 -0.499211 -1.066546 1.434806 0.316645 -0.353645 -0.660187 -0.505066 0.509294 0.553087 -0.491320 0.628311 -0.169952 -0.022424
Nxf4 0.391384 0.866911 0.070795 -0.210597 0.825821 1.295942 0.194631 -0.483723 0.049740 0.305546 0.179027 0.234882 -0.989848 0.143701 0.323177 0.507598
Nxd7 1.045702 -1.185728 0.045994 0.499630 -0.515540 1.480202 -0.652697 0.633412 -0.062843 -0.115729 -0.553500 -0.415070 0.045992 -1.193249 0.033989 -1.161451
Bd1 -0.047392 0.477948 0.285622 0.093552 0.194133 -0.038785 -0.596803 -0.428721 -0.771522 -0.173065 -0.382984 1.814040 -0.028407 -0.012838 0.446000 -0.219241
Rxc6 1.332249 -0.816935 0.963818 -0.565576 -0.108118 -0.762961 0.990519 -0.539115 -0.247063 -0.067545 0.030133 -0.442861 -0.387008 -1.231997 0.107874 -0.332282
cxb4 -0.375085 -0.112027 0.983460 -0.236824 -0.250650 0.540382 0.229336 -0.799408 -0.490970 0.550025 -0.362714 0.697670 -0.328828 -0.703953 -0.161320 -0.330496
Qh6 0.351471 0.411440 -0.268878 -0.127404 -0.239674 1.278016 -0.194273 0.398761 -1.590712 -0.478479 0.477488 -0.372976 -1.080636 0.872712 0.130786 0.528318
Nxf5 0.177147 0.921938 -0.445101 0.158198 0.791656 1.493999 0.812238 -0.744253 -0.469257 0.200960 0.300611 0.079927 -0.688035 0.078649 -0.305687 0.482509
Kb6 -1.886046 0.529274 0.180861 0.633411 0.153538 -1.310787 -0.079877 -0.797906 0.255882 -1.519749 0.401859 0.619662 -0.389252 -2.593634 0.443929 0.449076
Nf7 0.102009 0.009818 -0.275094 0.622651 0.662880 1.338974 -0.193330 0.212047 -0.248299 -0.900348 -0.041301 1.398847 -0.334734 -0.430436 0.003150 0.049493
Qa3 -0.151924 -0.403809 1.151751 -0.039681 -0.762634 0.559401 0.211786 0.835152 -1.846573 0.538987 -0.185093 -0.062812 -0.746740 -0.343571 -0.098566 -0.582235
Rxd7 1.567813 -0.738391 -0.287670 0.855757 -0.665912 -0.116502 0.286376 0.560319 0.058640 -0.473403 -0.264501 -0.243947 -0.334567 -1.119302 0.822698 -0.785732
Qa6 -0.153856 -0.377646 1.263993 0.030384 -0.673595 0.524219 0.156529 0.879784 -1.816374 0.673105 -0.271118 -0.104025 -0.729707 -0.423580 -0.171039 -0.547400
Rxb7 1.364320 -1.113824 0.015813 -0.573708 -0.648334 -0.851558 0.092057 -0.348358 -0.167562 -0.166867 -1.058036 0.055644 -0.423520 -1.101874 -0.607560 -0.063281
Rxd3 0.984402 0.213844 0.648398 0.291051 -0.816385 -0.569932 0.056687 -0.021048 0.569690 0.418399 0.109745 0.308855 -1.275794 0.273005 0.571509 -0.763970
Nd1 -0.071092 0.820965 0.351985 0.447680 0.083079 0.557184 -0.801852 -0.464089 -1.021689 0.733527 -0.740323 1.375301 -0.104529 0.451896 -0.092747 -0.089838
Rxc1 0.750058 0.760255 0.855488 -1.389238 0.359399 0.282250 0.811363 0.502284 -0.713083 1.460055 0.269856 0.321591 -0.186276 -0.609002 0.333050 -1.374102
Rab1 0.876788 -1.005066 1.598289 0.056250 -0.474881 1.289691 -0.457969 0.136257 -1.232576 0.800642 -1.049227 0.117001 -0.134099 -0.609603 -0.400711 -0.175353
dxc6 0.459408 -0.552601 0.521727 -0.072630 0.095322 1.195279 -0.569071 -0.425109 -0.322085 0.646100 -0.445284 -1.362893 -0.014997 -1.086809 0.380033 -0.520675
Kd1 -0.718587 1.725313 0.396346 -0.326274 -0.943922 -1.078431 -1.505146 -0.479745 0.221882 0.161316 0.732811 0.193358 -0.499641 0.000624 0.222232 -0.664760
Nf2 0.176272 0.968251 0.065685 0.773950 0.635267 0.503142 -1.025233 -0.033890 -0.442798 0.149610 -0.371047 1.437801 -0.513993 0.358823 -0.002822 -0.170017
Rxf4 0.379426 0.315920 -0.255003 -0.051494 -0.070683 0.072052 0.232163 -1.347904 0.114350 -0.450762 0.082632 -0.216313 -1.732675 0.610999 -0.371265 1.156931
Rxf5 0.252738 0.205755 -0.631167 0.153759 -0.109709 0.308906 0.708501 -1.430983 -0.184785 -0.619643 0.169804 -0.267076 -1.470493 0.513037 -0.622894 1.078716
Rxf6 0.600421 -0.286916 -1.104866 0.224879 -0.797079 0.573828 0.349531 -0.962121 -0.222313 -1.004336 0.076834 -0.464943 -1.085663 0.312516 -0.771065 0.710409
Nfd7 -0.430312 -0.879050 0.521712 -0.170005 -0.156695 2.215046 -1.181145 -0.183404 -0.772310 0.748768 -0.683114 0.171991 0.529165 -0.227878 0.136894 -1.590512
Nxe3 0.446610 0.968436 0.209294 0.487056 0.470962 0.911877 0.083074 -0.475657 -0.238657 1.401794 -0.333916 -0.439691 -0.647551 0.141537 -0.587240 -0.193213
Rxb2 1.198128 -0.473663 -0.026173 -0.804565 -1.164908 -1.222823 -0.057862 -0.734217 -0.178454 0.564439 -1.118610 0.352866 -0.348627 -0.197716 -0.616347 -0.378719
Nh6 -0.025721 0.003792 -0.239187 0.158835 0.756213 1.985061 -0.827092 -0.422212 -0.520758 -0.502485 0.102040 0.354622 -0.012250 0.048296 -0.279537 -0.165128
Kb3 -2.029943 1.609683 0.183282 0.490127 -0.872658 -1.793765 -0.266273 -1.168724 0.205451 -0.563742 0.581170 1.248400 -0.297699 -1.226397 0.446369 -0.225828
Be1 -0.189730 0.551470 0.494430 0.250972 0.894213 -0.266287 -0.677092 -0.482490 -0.943741 0.094543 -0.487320 1.287809 -0.105270 -0.195587 0.333979 -0.050371
Rh4 0.413202 0.560935 0.121738 0.411258 -0.253500 -0.135797 -0.846502 -1.395071 -0.215866 -1.403988 0.758285 0.539449 -0.450532 0.508893 -0.381357 0.713754
exd6 0.500890 -0.365518 -0.173695 0.578521 -0.251113 1.235126 0.383663 -0.187788 -0.410509 0.581489 -0.244083 -1.039548 -0.089018 -0.764124 -0.457209 -0.790480
Rxe3 0.582873 0.512073 -0.282656 0.542312 -0.114763 -0.576886 0.520485 -0.890138 -0.047935 0.615390 -0.370306 -0.336901 -1.577570 0.684936 0.209376 0.202968
Rab8 0.988498 -0.533448 1.307352 0.244124 -1.209455 0.982405 -0.041598 -0.003575 -1.280810 0.977932 -0.724479 0.486305 0.120975 -0.050628 -0.519450 -0.594175
Kb2 -1.591185 1.808765 0.445083 0.479057 -1.730146 -1.273135 -0.203975 -0.771330 -0.407095 -0.454318 0.941929 1.191653 -0.118776 -0.785121 0.669300 -0.248873
Rg2 0.300243 1.103862 -0.238384 -0.120052 -0.004073 -0.810965 -1.021813 -1.134784 -0.846140 -1.071909 0.424443 0.653253 -0.477042 0.794874 0.331824 0.943261
Rxd2 1.372746 0.316229 0.197544 0.697111 -0.850142 -0.556345 -0.472834 0.058950 0.284815 0.777255 -0.326124 0.065835 -0.388634 0.102370 0.964879 -1.294375
Rh6 0.532681 0.297631 -0.148803 0.268145 0.207493 0.011524 -0.845737 -1.097559 -0.454980 -1.861335 0.555414 0.568021 -0.228017 0.055814 0.165358 1.121006
Qxc6 0.379447 -0.658160 0.709770 -0.235715 -0.461387 0.508195 0.290040 0.633180 -0.976038 0.345899 -0.224060 -1.264304 -1.250031 -0.931618 0.145906 -0.192362
Kb7 -1.452770 0.445679 0.681667 0.849954 0.186041 -0.933783 -0.311278 -0.236448 -0.427136 -1.467187 0.367152 0.094352 -0.365748 -2.668569 0.693301 0.921051
Bxg4 0.892198 0.891781 -0.455407 0.367054 0.522853 0.947565 -1.101160 -0.358701 -0.363241 0.036575 -0.148674 0.038565 -0.557806 0.445088 -0.658711 0.279950
fxe3 0.631957 0.581979 0.198458 0.347063 0.421290 0.198467 -0.178853 -0.565254 -0.218428 1.053966 -0.266437 -0.845832 -0.901903 0.084529 -0.426106 -0.283711
Nxf6+ 0.844273 -0.423098 -1.259725 0.533817 -0.269223 1.988850 0.299287 -0.387391 -0.826693 0.399175 -0.016522 -0.896024 0.192242 0.384625 -0.898533 -1.431785
Rxe7 0.713699 -0.520843 -1.155870 0.382823 -0.389077 0.387733 1.435406 -0.579353 -0.283517 -0.121558 -0.517778 -0.510510 -0.838244 -0.386837 0.862253 0.218297
fxg4 0.593465 0.840327 -0.352618 0.431055 0.811275 0.216272 -0.797681 -0.507763 -0.309296 -0.447105 0.024036 0.620055 -0.531668 0.210879 -0.618744 0.293832
gxh5 0.257760 0.968020 -0.640090 -0.321472 0.233215 0.431697 -0.115174 -0.763552 -0.423566 -0.829690 0.732595 0.986994 0.007678 0.279349 -0.295798 -0.027079
Qxd7 0.740204 -0.880608 -0.124061 0.243072 -0.578629 1.219605 -0.285856 0.972000 -0.825862 0.009616 -0.306268 -1.074030 -0.568353 -0.819391 0.160104 -0.878561
Rg4 0.307259 0.590254 0.110632 0.047125 0.015575 -0.442495 -0.289445 -1.559582 -0.477222 -1.307835 0.829129 0.007982 -0.765450 0.528149 -0.071362 1.147719
Bxe3 0.491811 0.930204 0.187771 0.578183 0.560609 0.473592 -0.192748 -0.638086 -0.197306 1.201404 -0.265150 -0.553832 -0.840182 0.278778 -0.166538 -0.234721
Rfc1 1.304951 -1.428261 2.152097 -0.372386 0.471114 1.212155 0.463149 0.275245 -1.765371 0.994072 -0.557825 -0.385090 0.150017 -0.730888 -0.293487 -0.675575
fxg5 0.414940 0.313464 -0.417349 -0.076418 0.161245 0.852520 -0.411524 -0.363333 0.092922 -1.109279 0.492312 0.921011 -0.609589 0.158737 -0.504580 0.057986
Nb8 -0.148858 -0.850916 1.096629 0.257422 0.696472 1.294596 -0.327581 -0.205420 -1.038253 0.054122 -0.541057 0.570575 0.479110 -1.226406 0.589915 -0.548102
Qxf4 0.392403 0.588433 -0.095838 -0.055315 -0.057183 0.852871 0.104552 0.368390 -0.726998 0.056398 0.408075 -0.791261 -1.628440 0.506234 0.183333 0.379549
Rh7 0.550378 0.186895 -0.375666 0.079869 -0.019133 -0.072930 -0.936752 -1.046694 -0.460325 -2.073854 0.427019 0.780103 0.297066 -0.405738 0.059840 1.104105
Rxf7 0.395017 -0.575423 -1.276565 -0.483754 -1.019232 0.369822 0.250735 -0.555826 0.208768 -0.988212 -0.483695 -0.193629 -1.321175 -0.295681 -0.571378 0.960031
Bb1 -0.426559 -0.173701 -0.055217 -0.045813 0.185213 1.066798 0.348711 -0.809977 -0.510838 0.453485 -0.330280 1.451360 -0.127069 0.464546 0.548951 -1.206757
Ba5 0.075558 -0.154833 0.554577 0.462381 0.359349 0.275898 -0.298814 -0.446876 -0.501495 0.419336 -0.526641 0.464243 0.293426 -1.079963 0.537618 -0.917087
Nxd6 0.772814 0.123883 -0.369655 0.916750 0.384620 0.918493 0.871518 0.201866 -0.357688 0.528725 -0.483541 -0.106945 -0.412624 -0.948627 -1.021238 -0.191403
Rxf3 0.553372 0.063404 -0.068521 -0.392705 -0.189552 -0.174586 -0.840111 -0.906828 0.219929 -0.260811 -0.254728 -0.461072 -1.870253 0.777142 -0.442049 0.765712
Rh5 0.433161 0.339384 0.108384 0.387062 0.104806 -0.152339 -0.736790 -1.252957 -0.153838 -1.630475 0.730455 0.490391 -0.496244 0.319577 -0.267828 0.880273
Rh2 0.442707 1.095288 0.006409 0.053558 -0.283828 -0.724881 -1.476562 -1.322652 -0.445698 -1.099165 0.373347 1.071077 0.137983 0.506128 0.390721 0.695568
Kb5 -2.311810 0.923007 -0.039819 0.360960 0.264346 -1.708424 0.065188 -1.323649 0.465114 -1.094341 0.289732 1.086358 -0.433194 -2.412587 0.130903 0.105096
Qxe3 0.380762 0.823503 0.176822 0.295722 -0.187289 0.566786 -0.051598 0.138280 -0.935358 1.050753 -0.057896 -0.855652 -1.320643 0.623784 -0.335453 -0.076824
Nxb5 0.124532 0.267008 0.941399 -0.108103 0.160749 0.711338 0.548430 -0.721924 -0.515876 1.152621 -0.356384 -0.170050 0.255404 -1.493748 -1.126243 -0.458253
Rg5 0.388032 0.542218 -0.133559 0.118482 0.083480 -0.442844 -0.128023 -1.592678 -0.560842 -1.535835 0.880511 0.110042 -0.659004 0.455343 -0.105760 1.144802
Kb4 -2.398760 1.268339 -0.065617 0.353818 -0.034573 -1.864683 -0.003363 -1.449387 0.465064 -0.788973 0.376184 1.358208 -0.333306 -1.867745 0.233998 -0.180771
cxd6 0.654679 -0.125608 -0.049555 0.955171 0.493667 1.090680 0.008771 -0.109173 -0.622965 0.356928 -0.411573 -0.977297 -0.209697 -0.840940 -0.543556 -0.002389
Bxe2 0.558525 0.637902 0.139741 -0.257289 -0.111426 0.885138 -0.612139 -0.853427 -0.216282 1.479224 -0.529092 -0.825359 -0.184143 0.113007 1.208679 -0.417387
Qxd2 0.593256 -0.078332 0.263667 -0.014734 -0.950385 0.750339 -0.973016 0.493551 -0.474378 1.169906 -0.351082 -0.828326 -0.522166 0.419311 0.231557 -1.438698
Rxc2 1.090323 0.324118 0.675533 -1.088086 -0.629498 -1.049413 0.818342 -0.588436 -0.422534 0.890314 0.057934 -0.036110 -0.247734 -0.154251 0.331691 -0.550059
Bb5+ -0.634645 -0.317201 0.222533 -0.399303 0.080280 1.339780 -1.475484 -0.801572 0.486668 0.022451 0.505057 -1.481040 0.470972 -1.353702 -0.159826 -1.633256
Kxg2 0.822353 0.114660 -0.136278 -0.402592 1.333704 -0.008036 -0.421185 -0.007423 -0.439790 0.699181 -0.559672 -0.683380 -1.254755 0.173352 0.020635 -0.169797
Nh3 -0.078912 0.463735 -0.016089 -0.084956 0.713296 1.558324 -1.395065 -0.469979 -0.379283 -0.085690 -0.015033 0.645558 -0.231242 0.626014 0.107384 -0.232036
Nd8 -0.072707 -0.466849 0.251856 0.105432 0.570638 1.240459 -0.014364 0.024375 -0.512593 -0.677493 -0.466197 1.276585 -0.255850 -0.821156 0.449511 0.334834
Rxa7 1.108197 -0.906520 -0.083663 -0.761766 -0.047116 -1.215204 0.418652 -0.863019 -0.338531 -0.055690 -1.149484 0.278722 0.000471 -1.181498 -0.421769 0.220778
Qxb2 0.086474 -0.125770 0.048306 -0.560773 -1.124307 0.617919 0.254080 0.763919 -0.919795 0.911757 -0.220278 -0.790565 -1.263904 0.021203 -0.639376 -0.773544
Qxf5 0.372125 0.427896 -0.500249 0.156055 -0.127571 0.864371 0.609124 0.263264 -1.018616 -0.149938 0.505113 -0.848554 -1.369573 0.410375 -0.118186 0.273122
bxa4 -0.222711 -0.183783 0.538968 0.153051 -0.484618 -0.080163 0.367990 -0.800535 -0.449396 0.382128 -0.537454 1.161840 0.011235 -0.655298 -0.652552 -0.710755
Rxa2 0.895961 -0.324051 -0.109745 -1.042157 -0.760315 -1.424674 0.419688 -1.173121 -0.189489 0.449227 -0.990095 0.680711 -0.155010 -0.339924 -0.358385 -0.188203
Rxe8 0.006140 0.097653 -1.890293 0.932308 0.132285 0.758669 1.166182 0.183988 -0.064956 0.229082 -0.823453 -0.067861 -1.287074 -0.468934 1.081555 -0.064439
Rxc7 1.456419 -0.464766 0.464541 -0.807910 0.051963 -0.676453 1.357811 -0.242157 -0.592718 0.109598 -0.072384 -0.269671 0.017665 -1.294157 0.357475 -0.187294
Nxd3 0.275120 0.317359 0.882293 -0.449847 -0.268281 1.063356 -0.142154 0.144565 0.559005 0.989766 -0.304195 0.876314 -1.268894 0.250092 0.234672 -0.474576
Qg7 0.158318 0.161538 -0.414563 0.175855 -0.318579 1.155619 -0.105450 0.797376 -1.560280 -1.125517 0.552539 0.019424 -1.079558 0.399800 -0.033022 0.632723
Rxa4 0.456939 -0.833294 0.546284 -0.598284 -0.478753 -1.095165 0.578862 -1.382640 -0.222057 0.252552 -0.888177 0.951398 -0.022658 -0.584713 -1.268328 -0.356963
Qf8 0.087290 -0.157882 -0.381577 0.016146 -0.425754 0.957904 0.414930 0.867371 -2.093987 -0.878696 0.259056 0.132325 -0.571773 0.078964 0.115419 0.413867
Rxa5 0.598167 -0.899507 0.672496 -0.561257 -0.065764 -1.205259 0.547699 -1.274524 -0.151887 0.138658 -0.964880 0.889750 -0.166930 -0.855129 -1.099758 -0.107296
Rxa6 0.828036 -0.864859 0.490727 -0.716610 0.039805 -1.049261 0.595840 -1.141958 -0.379530 0.172367 -0.949059 0.425915 0.007977 -1.129159 -0.875527 0.121796
Bxg2 0.882137 0.310785 0.158887 -0.274423 0.687091 0.840127 -0.304107 -0.183952 -0.266607 0.895049 -0.405809 -0.834896 -0.630665 -0.185884 0.207176 -0.016897
Bxb4 -0.013011 -0.155087 1.044853 -0.737660 -0.318276 0.468703 0.176449 -0.514281 -0.055224 0.872493 -0.294150 0.224266 -0.286783 -0.942750 -0.341513 -0.719762
Kc8 -0.896950 -0.372685 0.195334 0.816406 -0.243671 -0.233000 -0.720186 0.115239 -0.007735 -1.917481 0.210228 -0.518109 -0.354207 -2.738532 0.320678 0.887561
Qxb7 0.398925 -0.623842 0.413866 -0.184943 -0.366692 0.596564 0.125747 1.153441 -0.830592 0.555637 -0.393667 -1.134699 -1.363410 -0.733496 -0.519735 -0.427129
Qxe2 0.189328 0.387070 0.100521 -0.334679 -0.105075 0.872695 -0.132442 -0.037105 -0.939064 1.452879 -0.450345 -1.237428 -1.076206 0.442807 0.953428 -0.285905
Bb4+ -0.914556 -0.237521 0.170339 -0.529307 -0.104042 1.159052 -1.585920 -0.908473 0.779785 0.397451 0.412673 -1.150540 0.298762 -0.806668 -0.142026 -2.159280
Qa7 -0.115588 -0.371124 0.879261 -0.019724 -0.505464 0.317307 0.443354 1.124354 -1.951576 0.435715 -0.390477 0.252518 -0.720389 -0.428328 -0.299698 -0.285574
Qb1 -0.754040 -0.270118 0.650196 -0.492578 -0.060221 0.277408 -0.042472 0.906823 -1.809659 0.807618 -0.422531 0.424388 -0.998608 0.483035 -0.058339 -0.933490
Rxb4 0.668007 -0.668321 0.886086 -0.769738 -0.696119 -1.166214 0.556331 -1.206041 -0.151485 0.262102 -0.562463 0.652369 -0.203328 -0.649803 -1.043091 -0.354671
Nxd2 0.619319 -0.019537 0.431500 0.196117 -0.691667 0.719026 -1.368711 0.064797 0.223904 1.343500 -0.804536 -0.130931 -0.186410 0.070780 0.051122 -1.509746
Qxe6 0.373376 -0.260790 -0.353175 -0.077214 -0.546892 1.164993 0.703668 0.700565 -0.534255 -0.473668 0.205139 -0.620613 -1.626175 -0.403924 0.271193 0.247518
Nxg5 0.462436 0.071120 -0.516768 -0.252276 0.177978 1.745341 -0.647848 -0.048112 0.344260 -0.588354 0.119525 0.566411 -0.705262 0.250717 -0.337298 -0.019713
Kc1 -1.159488 1.775831 0.045720 0.392629 -2.312849 -1.157293 -1.095076 -0.655942 0.006373 -0.059710 0.569314 0.589373 -0.268435 -0.084386 0.419388 -0.462588
Rxe1 -0.255529 0.635135 -1.226568 0.695276 0.293523 0.272440 0.488916 0.033288 0.188970 0.989304 -0.945463 -0.044419 -1.735540 0.256307 1.273543 -0.203285
Rxe2 0.550062 0.365397 -0.491116 0.288250 -0.196726 -0.521056 0.360846 -0.734275 -0.024640 0.999349 -0.823391 -0.385198 -1.215387 0.546841 1.439873 0.066914
Nc8 -0.030370 -0.147105 0.475587 0.824820 0.808502 0.806461 0.354860 -0.098740 -1.138260 -0.048538 -0.615574 1.114223 0.510861 -1.299576 0.159729 0.120699
Bxa6 0.435471 -0.321468 0.843624 -0.461065 -0.090045 0.462265 -0.068954 -0.384403 -0.549566 0.751958 -0.790960 -0.159705 0.100294 -1.472634 -0.518683 -0.200953
Rxb5 0.872082 -0.701779 0.841212 -0.465627 -0.413786 -1.284935 0.567776 -1.147999 -0.395932 0.114626 -0.560466 0.294753 -0.082994 -0.987266 -1.269703 -0.162756
Qxg5 0.708750 0.357183 -0.400385 -0.291759 -0.399682 1.373773 -0.440656 0.485718 -0.697777 -0.463688 0.552043 -0.562388 -1.115425 0.534766 -0.340724 0.172392
Kh4 -0.731145 0.087835 -1.392064 -1.052915 1.777409 -2.113770 -0.170215 -0.568301 -0.250127 -1.252077 0.667600 0.401671 -0.802793 0.576074 -0.552493 -1.012505
Nc1 -0.335675 0.610568 0.949950 -0.006879 -0.103565 0.369113 -0.372144 -0.292770 -0.706385 0.785901 -0.599053 1.936263 0.104163 -0.088895 0.736569 -0.462400
Nh7 0.288917 -0.055097 -0.615331 0.219816 0.583064 1.964291 -0.430810 -0.178663 -1.361325 -0.507373 -0.315686 1.300622 0.025155 0.642227 0.137201 -0.005524
Bxh6 0.461236 0.502554 -1.047108 -0.555591 -0.320911 1.897376 -0.220509 -0.336078 -0.529738 -0.308593 0.276969 0.104482 -0.143672 0.280540 -0.547781 0.092584
Kh5 -0.692750 -0.237376 -1.733224 -1.117455 1.681017 -1.771133 0.363381 -0.501179 -0.233293 -1.708888 0.845607 0.423956 -0.603681 0.284192 -0.681665 -0.943343
dxe6 0.473594 -0.454198 -0.307079 -0.053504 -0.513998 1.778593 0.327277 -0.139610 0.157215 0.197818 -0.261521 -0.519704 -0.652611 -0.444231 0.233258 -0.089933
Rxf2 0.427078 0.299686 -0.716936 -0.279062 -0.450424 -0.711674 -0.686965 -0.678586 0.175652 0.200130 -0.997155 -0.304719 -1.687949 0.493780 -0.338224 1.032023
Bxb7 1.110397 -0.526200 0.202237 0.071198 -0.146812 0.530901 0.137185 0.200988 0.256270 0.733627 -1.041261 -0.332123 -0.750185 -1.228848 -0.280854 -0.309553
bxa5 -0.074155 -0.455322 0.887402 0.011595 0.397358 -0.242777 0.119112 -0.472923 -0.334839 0.184871 -0.772515 0.952688 -0.302999 -1.130292 -0.435004 -0.164770
Bxc3+ -0.779102 0.080247 0.119834 -0.599637 -0.975893 1.473270 -1.643251 -1.142689 0.009459 0.657686 0.435934 -1.621386 0.286506 -0.446777 -0.564858 -1.750650
Qxb4 -0.176608 -0.124546 0.951778 -0.461284 -1.007853 0.469680 0.489587 0.621630 -1.112925 0.836919 -0.070191 -0.427680 -1.081590 -0.508244 -0.453443 -0.589452
Qg2 0.078447 0.996733 -0.013343 0.269687 -0.140926 0.469798 -0.885817 0.640644 -1.556945 -0.239450 0.399120 -0.123330 -1.330224 1.056293 0.042628 0.473865
Qxb6 0.246864 -0.524083 0.560707 0.327224 -0.432754 0.328289 0.081810 0.677369 -1.307160 0.723015 -0.749851 -0.793153 -0.678894 -0.932246 -0.512726 -0.379517
Bxb2 0.833664 0.121189 -0.225490 -0.348839 -0.946347 0.494235 0.345100 -0.235506 0.193601 1.256371 -0.945479 0.092741 -0.728268 -0.462258 -0.444536 -0.635312
fxg3 0.665273 0.442000 -0.147780 0.146473 1.316885 0.180541 -0.821341 -0.197849 -0.660980 0.123937 -0.547798 -0.550841 -1.143448 0.070562 -0.099637 0.879327
Bxd7 1.142970 -0.819678 -0.196894 0.564930 -0.575908 0.929414 -0.551283 0.508703 -0.077367 -0.239489 -0.510106 -0.365106 0.081706 -1.164102 0.202840 -0.790395
Ng7 0.105398 0.286634 -0.535202 0.379332 0.684475 1.287056 0.499651 -0.186439 -0.997183 -0.545660 -0.048710 1.329461 -0.191654 0.154265 0.298001 0.299165
Qxb5 -0.040020 -0.195656 0.983258 -0.197483 -0.544199 0.327764 0.550262 0.641476 -1.420893 0.833504 -0.149064 -0.866441 -0.846792 -0.915837 -0.809950 -0.438011
Nxg4 0.635561 0.728503 -0.586457 0.490725 0.699855 1.163417 -1.048999 -0.251420 -0.112039 0.028496 -0.237615 0.170692 -0.538513 0.422065 -0.919118 0.176302
gxh4 0.376291 0.661504 -0.119640 -0.171441 1.273350 -0.064897 -0.612717 -0.532917 -0.107808 -0.818221 0.328451 0.585501 -0.520785 -0.106365 -0.279736 0.515618
Nh2 0.284368 0.101773 -0.027062 0.291389 1.344599 1.452917 -0.934347 -0.285809 -1.252761 0.183211 -0.705682 0.955222 -0.436510 0.878904 0.305403 0.142706
Nxb3 0.000533 0.022520 0.606138 -0.542974 -0.811509 0.845964 0.162173 -0.393147 0.341343 1.075259 -0.669440 1.143497 -0.243810 -0.557800 0.036068 -0.860932
Nxf3 0.361010 0.143374 0.506867 -0.427409 0.588042 0.941414 -1.431860 -0.247704 0.618085 0.285224 -0.131413 -0.165242 -1.277535 0.428190 0.058421 -0.098233
Rxb6 1.050646 -0.925623 0.326285 -0.030186 -0.316151 -1.363819 0.320747 -0.704644 -0.414105 -0.037205 -1.184520 0.455402 -0.012718 -1.270353 -0.941398 0.072232
Kxf7 0.574898 -0.207386 -1.384485 -0.339908 -0.469924 0.804684 0.363372 0.292810 0.731527 -0.969502 0.463950 -0.101587 -0.834215 -0.639761 -0.646699 -0.753052
Nxb4 -0.203830 0.097132 1.201724 -0.870259 -0.095550 0.738454 0.657013 -0.669308 0.217730 1.100858 -0.199120 0.563992 -0.227995 -1.147680 -0.406100 -0.628946
Qxg4 0.605983 0.599498 -0.423136 0.049031 0.045205 0.987650 -0.713368 0.492565 -0.777535 -0.212258 0.350272 -0.757912 -1.200667 0.626411 -0.541761 0.314650
Rxb3 0.727914 -0.465021 0.439239 -0.899126 -1.013976 -1.418743 0.249489 -0.856688 -0.077338 0.304198 -0.772743 1.063377 -0.265716 -0.317212 -0.756451 -0.441374
Re1+ 0.226320 -0.012430 -0.931548 0.455567 -0.202812 -1.030436 0.206487 -0.661747 0.624044 -0.385442 0.073653 -0.546100 -0.941917 -0.017347 0.778400 -0.417020
Ngf6 -0.906473 -0.717972 -0.269439 0.332961 0.280856 2.590230 -1.708592 -0.709927 -0.522612 0.337623 -0.319479 -0.701968 0.521107 0.351278 -0.491808 -1.491256
Qf1 -0.197727 0.604775 0.458802 -0.157822 0.135516 -0.189012 -0.712717 0.970159 -1.889006 0.317047 -0.178996 0.030977 -1.326167 0.774452 0.359543 0.338115
Rxa3 0.370600 -0.428061 0.518751 -1.152443 -0.486855 -1.100006 0.557570 -1.279765 -0.220220 0.414519 -0.657214 0.994461 0.049016 -0.363612 -1.082770 -0.328769
Rd8+ 0.800547 -0.027693 -0.557379 0.413068 -0.908999 -1.374974 0.424998 -0.152415 0.477534 -0.587056 0.197053 -0.132553 -0.194894 -0.887594 0.839285 -0.703483
cxd3 0.119476 0.365040 0.810181 -0.523060 -1.133860 1.067426 -0.375528 -0.175173 0.554539 0.613993 0.259209 0.232901 -1.076328 0.447300 0.337347 -0.388834
Rd1+ 0.602071 0.056345 -0.123503 0.410346 -0.513880 -1.625977 -0.027331 -0.235358 0.608390 -0.287125 0.064423 -0.355779 -0.520456 -0.693096 0.864123 -0.596274
Qd4+ -0.978994 0.513242 -0.553175 0.038268 -0.672400 -0.519116 0.163299 0.814697 -0.852191 -0.190453 0.465017 -0.696377 -1.845861 -0.002802 -0.156090 -0.402653
Nxb6 0.607355 -0.211520 0.390185 0.760655 0.318193 0.426827 0.060224 -0.092508 -0.409911 0.929229 -1.284554 0.274752 0.259355 -1.689478 -0.715763 -0.319957
Rxa8 0.249736 -0.266778 -0.123202 -0.881053 0.306339 0.338990 0.152193 0.314992 -0.901658 0.859032 -1.239723 0.426056 0.201695 -1.470890 -0.870471 -0.351113
Ng8 -0.120026 -0.011747 -0.702025 0.230874 0.442302 1.796600 -0.102999 -0.267820 -1.326901 -0.926237 0.229465 0.786931 0.656311 0.006550 0.197141 0.066715
Rxd8+ 1.281348 0.235308 0.016125 1.022778 -0.457633 0.795582 -0.004506 1.312333 0.246527 0.335413 -0.068124 -0.104541 -0.468360 -1.389837 1.483487 -1.338055
Nxg6 -0.002160 0.353991 -0.667240 -0.783756 0.078972 1.980323 0.106548 -0.345638 -0.040668 -0.636377 0.540988 0.470738 -0.381754 0.059966 0.195250 0.198823
Nxf3+ 0.909063 -0.614079 0.685981 -0.999445 0.912069 1.397301 -1.172991 0.002202 0.496777 0.910762 -0.519507 -0.817710 -1.492388 0.616512 0.159152 -0.421800
Qxb3 -0.336054 -0.341113 0.541216 -0.611351 -1.154585 0.422857 0.365389 0.582374 -0.918312 0.952948 -0.395406 -0.082030 -0.933306 -0.182329 -0.182884 -0.932695
Nb1 -0.426530 0.304730 0.883182 0.248193 -0.177141 0.664819 -0.472633 -0.459948 -0.885731 1.064347 -0.528672 1.248281 0.525219 0.043959 0.269649 -1.099516
Nf6+ 0.607530 0.108522 -1.621448 -0.231459 0.076076 0.883306 0.737358 0.092341 -0.093458 -0.380909 0.197616 0.277579 0.012106 -0.059138 -0.721249 -0.682841
dxc3 0.083297 0.005506 0.121625 -0.704073 -1.271070 1.165705 -0.470338 -0.753619 0.114614 0.697395 0.298585 -1.230077 -0.018563 -0.134663 0.046431 -0.947493
Nb7 0.072512 -0.123700 0.665515 0.915780 0.547459 0.623560 0.400535 0.148677 -0.269984 0.055372 -0.649178 1.751036 -0.097400 -1.159364 0.179338 -0.272598
Bxd2 0.723618 0.057967 0.329350 0.092512 -0.767885 0.402934 -1.251518 -0.080962 0.313354 1.099386 -0.579049 -0.247487 -0.104591 0.120988 0.309920 -1.345634
Rhe1 0.036527 0.368602 0.587829 1.868725 -1.199880 1.836355 0.046345 -0.492447 0.377608 0.165977 0.633524 -0.383217 -0.311032 -0.257296 0.495967 -0.465113
Ba2 -0.460863 -0.257414 -0.080427 0.277487 -0.008951 0.931432 0.452416 -0.813174 -0.327752 0.503791 -0.313294 1.231092 0.191118 0.014164 0.426664 -1.432057
Re8+ 0.269798 -0.139505 -1.257646 0.452073 -0.203719 -1.011924 0.418980 -0.524333 0.552871 -0.621884 -0.069859 -0.438421 -0.753654 -0.315757 0.865968 -0.279551
Qxd8 0.972934 -0.168637 -0.902594 0.264018 -0.266128 1.258342 0.143194 1.475622 -0.230647 0.719220 -0.602180 -0.476060 -0.455006 -0.934368 1.127400 -1.312668
Qa2 -0.451519 -0.390172 0.927745 -0.200545 -0.384543 -0.001696 0.271231 1.137854 -1.905399 0.660077 -0.541608 0.326056 -0.883007 -0.169590 -0.285476 -0.486801
Bxg6 0.244553 0.290157 -0.963311 -0.558749 -0.414819 1.476878 0.084457 -0.354303 -0.081443 -0.710217 0.435186 0.381291 -0.604653 0.324721 0.115455 0.226107
Rxd1+ 1.099321 0.908190 -0.061860 1.142570 -0.716024 0.431312 -0.285238 1.059216 0.135095 1.038928 -0.192515 -0.055849 -0.497434 -0.780815 1.343928 -1.426978
Rxa1 -0.156100 -0.039657 0.105310 -1.389599 -0.064034 0.316230 -0.080018 0.247325 -0.778855 1.298661 -1.257825 0.859102 0.015436 -0.783957 -0.788423 -0.581666
exf3 0.720143 -0.157702 0.078870 -0.039672 0.447271 0.663198 -1.033384 -0.229334 0.336946 0.549555 -0.562089 -0.921509 -1.029079 0.271271 0.031246 -0.111836
Nxg3 0.384417 1.043216 -0.296232 0.296930 1.211974 0.895873 -0.928250 -0.442656 -0.376440 0.540630 -0.333211 -0.339372 -0.517713 0.247128 -0.198799 0.465199
Qa8 -0.306028 -0.542388 0.414798 -0.188548 0.102406 0.087381 0.610997 1.203193 -2.159394 0.264627 -0.392379 0.294971 -0.578878 -0.340953 -0.146779 -0.629335
Qe5+ -0.852615 0.381824 -0.816272 -0.134532 -0.368492 -0.622994 0.071541 1.100585 -0.839570 -1.048966 1.068572 -1.120505 -1.644092 -0.399242 -0.184921 -0.465971
Qxc2 0.169518 0.481893 0.517177 -1.015488 -0.958810 0.272129 0.654242 0.580331 -1.003379 1.211019 0.174054 -0.766456 -1.005110 0.040201 0.057922 -0.468490
Bxf8 0.446851 -0.117541 -1.033279 -0.810912 -0.878904 1.457949 0.217994 0.745496 -0.188708 0.470661 -0.975252 0.015905 -0.949537 -0.507526 -0.025220 0.292101
cxb3 -0.210090 0.207232 0.536490 -0.244941 -1.712967 0.636360 0.124043 -0.448056 -0.289689 0.703080 -0.253978 0.851406 0.038949 -0.249449 0.028509 -0.616949
Qd5+ -1.037682 0.190151 -0.511838 0.067203 -0.314074 -0.427888 0.347245 0.960028 -0.695731 -0.526505 0.580402 -1.017963 -1.893423 -0.484961 -0.121794 -0.373251
Qe4+ -0.988672 0.726338 -0.337402 -0.253881 -0.278418 -0.937477 -0.422152 1.032077 -0.714536 -0.596524 1.088197 -1.130656 -1.866360 -0.024148 -0.158571 -0.593456
Bxb6 0.723949 -0.135735 0.478102 0.569090 0.107126 0.124521 -0.034387 -0.140857 -0.347242 0.757005 -1.060002 -0.109376 -0.001260 -1.603315 -0.254651 -0.079162
Qxa5 -0.188954 -0.353193 0.757151 -0.193382 -0.752481 0.178860 0.373075 0.972308 -1.251767 0.651063 -0.412052 -0.361270 -1.078119 -0.630412 -0.496566 -0.336289
Qxa2 -0.012042 0.114411 0.119171 -0.425143 -1.395213 0.262675 0.508948 0.910893 -1.027152 0.510316 0.102716 -0.513076 -1.232395 -0.100908 -0.322959 -0.534615
Rxh5 0.717572 0.750464 -0.199830 -0.177630 -0.315522 -0.184363 -0.639110 -1.416529 0.123100 -1.570516 0.959471 0.577537 0.049362 0.264895 -0.577746 0.877021
Nxe7 0.378166 -0.044615 -0.435576 -0.070670 0.260796 1.844386 1.030605 -0.551840 -0.294353 -0.027556 0.450867 -0.988272 0.216615 -0.904442 0.324589 0.021427
Qa5+ -1.908814 0.475898 0.729291 -0.298256 -0.869947 1.153279 -1.188021 -0.076525 -0.310648 0.528236 0.815587 -1.510966 -0.085847 -1.273524 -0.948001 -1.434825
Qxc7 0.592738 -0.202409 0.264839 -0.586248 -0.070462 0.457127 1.071618 0.947585 -1.246107 0.598749 -0.121975 -1.225136 -0.696909 -1.152441 0.142952 -0.027976
Qg5+ 0.136611 0.833228 -1.064666 -0.438305 -0.078617 0.076876 -0.109662 0.952847 -0.685413 -0.810825 1.265458 -0.925577 -1.388926 0.321366 -0.284518 -0.491860
Nb2 0.010294 0.520448 0.813983 0.778140 0.056835 0.089252 0.003991 0.035566 -0.229115 0.722912 -0.664076 1.999919 0.056179 -0.479052 0.051896 -0.652310
Rxe8+ 0.021606 -0.162610 -1.584224 0.956171 0.035205 0.944411 1.190153 0.343003 -0.285717 0.508368 -0.823193 -0.455116 -1.209365 -0.292082 1.169537 -0.388945
Qh5+ 0.080279 0.440385 -1.214287 -0.726708 0.210204 0.996921 -0.526078 0.831642 -0.261561 -1.186205 1.372190 -1.063531 -1.167735 0.160303 -0.484490 -0.668946
Qxa4 -0.230231 -0.218448 0.626479 -0.133781 -1.106967 0.162026 0.385224 0.913421 -1.356801 0.667963 -0.310987 -0.272678 -0.934589 -0.423417 -0.520450 -0.478304
Bxh3 0.762964 0.660068 -0.470246 -0.351138 0.949290 0.798743 -1.038995 -0.068884 -0.255584 0.278126 -0.485280 -0.279282 -0.816281 0.328268 -0.151245 0.613899
Nxa4 0.068681 0.159509 0.567050 0.258258 -0.687319 0.455515 0.260923 -0.338956 -0.069242 0.974098 -0.871590 1.273237 0.369710 -1.157545 -0.895177 -0.637825
Red1 1.486689 -0.711268 0.978113 1.395773 0.003341 0.704443 0.734231 0.613529 -0.602791 0.536243 -0.365942 0.343183 -0.387301 0.028830 1.198364 -0.790859
Bxb3 0.191744 0.140403 0.269719 -0.323493 -1.172123 0.427238 0.416895 -0.440122 0.119502 0.878621 -0.568969 1.020926 -0.163767 -0.451573 0.262122 -0.762529
Ngf3 -1.263802 -1.171464 0.041761 -0.520144 0.661459 1.896526 -1.575806 -0.777901 0.002310 0.074518 -0.153866 -0.811063 0.072015 0.241653 0.247245 -1.494190
Nxf7 0.269609 -0.324763 -1.026788 -0.244503 -0.453655 1.595983 0.128508 0.394377 0.932470 -0.540498 -0.132997 0.039402 -0.857896 -0.619204 -0.810070 0.013710
Rxf8 0.035430 -0.142866 -1.443070 -0.582957 -0.742006 1.181990 0.152640 0.298909 0.055624 -0.556025 -0.636839 0.117076 -1.385815 -0.291679 -0.306127 1.005698
Ba7 -0.281825 -0.456308 0.503409 0.406811 1.347634 0.328894 -0.394004 -0.492253 -0.186096 0.423885 -0.849350 0.476355 -0.037646 -0.897391 0.537285 -0.575071
Rxe1+ -0.157196 0.297653 -0.961540 0.682383 0.221574 0.553639 0.682999 0.292949 0.103464 1.258144 -0.970088 -0.295291 -1.815581 0.347131 1.318161 -0.459424
Qh4+ 0.225521 1.002467 -0.897815 -0.452998 0.534896 0.305136 -1.139293 0.842657 -0.444261 -0.490553 1.064155 -1.238237 -1.270190 0.417196 -0.509957 -0.659307
Rxh4 0.889777 0.724795 0.127408 -0.123821 0.014790 -0.475067 -0.963152 -1.332933 0.284130 -1.484192 0.753469 0.408818 -0.170524 0.154440 -0.638441 1.155181
Kxf2 0.688826 0.862210 -0.506985 -0.055033 0.599722 -0.723425 -0.902562 0.177609 0.609838 0.583655 -0.450070 -0.236528 -1.382562 0.070845 -0.474395 -0.387369
Rxg5 0.682796 0.482858 -0.296326 -0.389675 -0.366454 -0.167405 -0.278639 -1.409098 0.140569 -1.599626 0.935675 0.052146 -0.460687 0.402470 -0.451982 1.255356
Rc8+ 0.432759 0.054791 0.092173 -0.537929 -0.808213 -1.618884 0.671169 -0.364624 -0.159408 -0.472229 0.289797 0.066189 0.075408 -1.240312 0.323312 -0.306401
Qxd1 0.723959 0.358943 -0.529210 0.187153 -0.298125 0.855691 -0.325721 1.226769 -0.073596 1.503245 -0.665017 -0.611414 -0.667093 -0.319141 1.049750 -1.487541
Rc1+ 0.303055 0.322157 0.454382 -0.486335 -0.470684 -1.966008 0.280025 -0.379404 -0.076930 -0.046946 0.151055 -0.072718 -0.298131 -0.872996 0.532256 -0.217846
Ng2 -0.112666 0.966536 0.231823 0.303309 1.492795 0.419371 -0.349226 -0.180194 -0.644867 0.065386 -0.086130 1.309860 -0.652699 0.615501 0.528878 0.399759
Bb8 -0.165722 -0.347933 0.184403 0.604951 1.646631 0.107323 0.003953 -0.341151 -0.239211 0.119269 -0.791681 0.610980 -0.286381 -0.914608 0.534777 -0.292967
Qe6+ -0.997372 0.065041 -1.201153 -0.178338 -0.254712 -0.060231 0.530188 0.984046 -0.692208 -1.049248 0.853861 -1.067724 -1.568551 -0.537133 -0.211220 -0.305810
Qe3+ -1.093418 0.944006 -0.571554 -0.102982 -0.189423 -0.787335 -0.429089 0.851547 -0.507483 -0.122692 0.685169 -1.047035 -1.921359 0.205196 -0.110594 -0.493486
Qxa7 0.322817 -0.206866 0.407925 -0.027403 -0.375647 -0.096247 0.216944 1.193556 -1.210282 0.397598 -0.351790 -1.035377 -1.311895 -0.803626 -0.213284 0.088670
Bxf1 0.200442 0.403823 -0.485610 -0.722459 -0.200907 0.709985 -0.518375 0.296825 -0.492366 1.309839 -1.307257 -0.464848 -0.946130 -0.211659 -0.481108 0.445402
Qxa6 0.024698 -0.348101 0.820632 -0.369539 -0.387673 -0.048355 0.394119 1.047111 -1.303572 0.624584 -0.336466 -0.818956 -1.140711 -0.795235 -0.510104 -0.177210
Bxa4 0.147462 0.049513 0.246816 -0.053282 -0.774391 0.197112 0.248981 -0.385935 -0.251260 0.569168 -0.744507 1.061812 0.073442 -0.833636 -0.589888 -0.333825
Qg4+ 0.006943 0.747880 -0.954261 -0.354394 0.468788 -0.136951 -0.149265 1.052257 -0.593647 -0.716588 1.041007 -1.107485 -1.697750 0.173599 -0.272161 -0.301583
Rxg4 0.706089 0.930231 -0.211214 0.008874 -0.003144 -0.590317 -0.669499 -1.481469 -0.066357 -1.167648 0.659633 -0.204929 -0.479850 0.466103 -0.594795 1.384167
Qc5+ -1.084071 0.384566 -0.198631 0.440758 -0.588819 -0.285394 0.188437 0.945418 -0.604880 -0.217529 0.495625 -0.888901 -1.655985 -0.642073 0.022989 -0.385784
Rxf1 -0.174862 0.733120 -0.975267 -0.392944 -0.174716 0.374252 -0.786275 -0.092147 -0.119415 0.690558 -1.116588 -0.236218 -1.664832 0.449198 -0.640009 1.032272
Qf4+ -0.698054 0.948571 -0.711658 -0.098204 -0.067579 -0.760000 -0.442392 1.212202 -0.579729 -0.741519 1.143352 -0.980034 -1.716804 0.026205 -0.149679 -0.538033
Rxh7 1.035700 0.311993 -0.927824 -0.524651 -1.167652 -0.425209 -0.805133 -0.991380 0.499034 -1.872063 0.489163 0.691825 0.608095 -0.519800 -0.119044 0.624505
Rxb8 0.451689 -0.996757 -0.031173 -0.871679 -0.365254 -0.378646 -0.567143 0.960113 -0.794935 0.338573 -1.568063 0.442304 0.264044 -1.699198 -0.579292 -0.534736
Bxg3 0.450352 0.698127 -0.420742 0.350584 1.175919 0.404646 -0.995822 -0.350082 -0.310268 0.155649 -0.454678 -0.467407 -0.917046 0.150671 0.087473 0.676233
Qxh6 0.202578 0.586491 -0.776060 -0.440981 -0.851917 1.364943 -0.114636 0.286626 -1.022849 -0.470900 0.675598 -0.563334 -0.673873 0.500831 -0.230442 0.314834
bxa6 -0.040102 -0.493280 0.998385 -0.240841 0.564228 -0.076892 -0.289449 -0.397462 -0.589844 0.453803 -0.834960 -0.342854 0.049031 -1.490209 -0.300561 0.232296
Rd7+ 0.842436 -0.469609 -0.730585 0.559217 -0.436402 -1.447895 0.543772 -0.703510 0.901044 -1.393167 0.291417 -0.059020 -0.066580 -1.160928 0.610127 -0.309089
d7 0.414893 -0.187246 -1.217532 0.253847 -0.155025 -1.156802 0.157705 0.620481 0.122769 -0.482868 -0.465792 -0.265510 -0.497098 -1.213299 0.456729 -0.447886
bxa3 -0.496242 0.218907 0.564224 -0.655253 -1.326836 0.213191 0.500878 -0.698478 -0.423362 0.643943 -0.020887 0.823541 0.201491 -0.283158 -0.506532 -0.663640
Nd6+ -0.261604 0.247694 -0.336258 0.499046 0.617860 1.012073 0.177334 -0.237630 0.877816 -0.381054 0.313682 -0.127808 0.328759 -2.059803 -0.908477 -0.406690
Qa4+ -1.942536 -0.053498 0.807612 -0.315548 -0.793166 0.901426 -1.030395 0.151064 -0.242383 0.128701 0.730277 -1.555394 -0.272274 -1.614592 -0.650736 -1.301754
cxb6 0.301785 -0.527788 0.853080 0.589336 0.255622 0.235481 -0.352067 -0.049271 -0.480944 0.484174 -1.045587 -0.310644 -0.082882 -1.522992 -0.128886 0.195376
gxh6 0.239486 0.648249 -1.210189 -0.656287 -0.593540 1.169943 0.057868 -0.351300 -0.359598 -0.718554 0.728753 0.443130 0.005878 0.672782 -0.344758 -0.039936
Qxh5 0.280985 0.746494 -0.616812 -0.237868 -0.248175 0.998714 -0.035031 0.527877 -1.124659 -0.507402 0.694548 -0.514879 -1.023187 0.536573 -0.099496 0.492683
Rxg7 0.601271 0.781783 -1.025226 -0.746212 -0.852846 0.027549 -0.050574 -1.140791 -0.317012 -1.430787 0.716268 -0.352788 0.228002 -0.526733 0.271183 1.368179
Nf3+ 0.576104 0.406582 -0.283289 -0.914476 1.400050 -0.222036 -0.767271 0.166132 0.755486 0.443240 -0.392233 0.029230 -1.268409 0.320806 -0.090808 -0.161206
Red8 1.555340 -0.531218 0.644226 1.399612 -0.346363 0.687133 0.779831 0.528419 -0.687935 0.739081 -0.363822 0.479764 -0.305732 0.599899 1.033259 -1.148768
Rxg6 0.440015 0.622435 -0.864027 -0.795786 -0.505298 -0.175671 0.152785 -1.408698 -0.221052 -1.692538 0.830649 0.053795 -0.193064 -0.020092 0.125252 1.486825
Rxf8+ 0.280311 -0.326386 -1.474705 -0.506075 -0.539739 1.009298 0.201980 0.698570 -0.442237 -0.270016 -0.848525 -0.155320 -1.542852 -0.042203 -0.384138 0.734103
Rc7+ 0.670710 -0.461780 -0.040889 -0.348528 -0.226573 -1.643910 0.640765 -0.867078 0.344753 -1.217899 0.371582 0.027831 0.261904 -1.520969 0.195153 -0.138174
Ka2 -2.214925 1.240004 0.206489 0.262474 -2.323374 -1.545103 -0.384902 -0.049201 -0.888612 -0.495257 0.653528 0.644387 -0.358030 -0.483734 0.640231 -0.173645
Kxf8 0.577726 -0.258776 -1.251118 -0.765343 -0.800918 0.630267 0.433447 0.743556 -0.060337 -0.221895 -0.369665 -0.001964 -0.867017 -0.628118 -0.273677 -0.279070
Nxa5 -0.006133 -0.126579 1.093000 -0.071447 0.104632 0.334492 0.126948 -0.287077 0.435053 0.852736 -0.869032 1.092040 -0.122720 -1.410478 -0.508982 -0.271702
Rxh6 0.801802 0.548379 -0.677961 -0.210033 -0.700901 -0.086790 -0.660179 -1.141857 0.144581 -1.722590 0.685124 0.548361 0.242978 -0.043901 -0.438113 0.932755
Bxd8 1.325545 0.328243 -0.723631 0.486587 -0.270212 0.738045 -0.337677 0.901920 0.563255 0.608049 -0.655244 -0.219539 -0.140571 -1.343671 1.065468 -0.873204
Bh2 -0.417740 0.041628 0.075423 0.602310 1.775455 0.970207 -1.008683 -0.649752 -0.480312 0.077897 -0.566020 0.411218 -0.122244 -0.060076 0.782017 -0.071398
Rd2+ 0.621050 0.419531 -0.293163 0.342609 -0.402700 -2.335130 -0.295328 -1.102046 1.056240 -0.292482 0.021163 0.111586 -0.423149 -0.110925 0.785267 -0.551700
Qa1 -0.705212 -0.178125 0.336848 -0.449540 0.030745 -0.422150 0.271061 1.298363 -1.960984 0.561635 -0.470380 0.483015 -0.885369 0.195134 -0.196777 -0.686299
Rxb1 -0.082774 -0.375810 -0.129131 -1.088259 -0.969578 -0.410684 -0.641574 0.605438 -0.697201 1.008044 -1.385074 0.878269 0.162462 -0.500797 -0.893314 -1.093622
Nxh5 0.302907 1.344765 -0.814092 -0.119782 0.457604 1.466968 -0.062804 -0.680961 -0.325083 -0.329366 0.647749 0.716748 0.303006 0.328344 -0.205166 0.371315
Kxf6 0.538596 0.232287 -1.140867 0.088762 0.367028 -0.579181 0.444035 -0.175074 0.683814 -1.336889 0.859688 0.716535 -0.067035 -0.595064 -0.728980 -0.926372
a7 -0.526343 0.015654 -0.331724 -1.010955 0.991624 -2.138794 -0.407191 -0.285832 -0.484277 -0.232611 -0.770403 -0.124348 -0.131597 -2.023201 -0.391473 0.042637
Ng1 -0.254802 0.715817 0.418982 0.023982 1.205519 0.482845 -1.488833 -0.105089 -0.807420 0.126040 -0.263037 0.837473 -0.282259 0.787713 0.897990 0.199827
Bxc8 1.215827 0.609200 0.132237 -0.517122 0.469835 0.744639 0.601461 0.786630 -0.762672 0.639858 -0.008453 -0.120547 0.296478 -1.311250 0.125715 -0.396681
Rde1 0.108052 0.138959 -0.204146 1.829099 -0.992334 1.627412 0.506580 -0.432419 -0.274529 -0.123585 0.076540 -0.019487 -0.950066 0.911241 0.966680 0.493889
Bh7 -0.942561 0.182219 -0.624358 0.132812 0.454662 1.498546 -0.339079 -0.947640 -0.360182 -0.500626 0.278960 0.940664 0.508183 0.252769 0.579313 -0.627403
Rf1+ 0.279344 0.285529 -1.385962 -0.338125 -0.370053 -1.264568 -0.328666 -0.688223 0.598568 -0.934004 0.025094 0.146306 -0.946261 0.564701 -0.180825 0.283314
Qxh4 0.337628 0.859206 -0.280991 -0.230939 0.135688 0.750498 -0.395572 0.685988 -0.939545 -0.264872 0.525622 -0.628624 -1.264503 0.548274 -0.177207 0.699076
Qf5+ -0.785727 0.671396 -1.006472 -0.148571 -0.280794 -0.522371 0.036959 1.204550 -0.576609 -1.168824 1.327519 -0.910561 -1.556029 -0.194743 -0.142638 -0.547564
Nxe2 0.432814 1.216932 0.253219 -0.365356 0.193577 0.637505 -0.547984 -0.668930 0.007787 1.465324 -0.162071 -0.558537 -0.150089 0.344200 1.214302 -0.149201
Bd4+ 0.111018 0.288756 -0.926302 -0.120175 0.313441 -0.081641 0.013077 -0.386063 0.072354 0.560392 -0.802663 -0.031444 -0.875544 -0.107974 -0.036722 -0.111030
Rc2+ 0.509159 0.578162 0.344346 -0.533586 -0.500479 -2.453797 -0.092831 -1.316733 0.446556 -0.117339 0.268822 0.215829 -0.024955 -0.431246 0.444864 -0.360260
Rcd1 1.486379 -0.452884 0.714274 1.415532 0.060370 0.964820 0.845194 0.437699 -0.618139 0.524476 -0.042890 0.166816 -0.656927 0.553332 1.305455 -0.684391
Bxa3 -0.130223 0.063468 0.728824 -0.840088 -0.619071 0.300610 0.385981 -0.482673 -0.051376 1.067766 -0.407492 0.501293 0.074643 -0.666712 -0.540221 -0.702659
Bxd7+ -0.056214 -0.869080 0.685457 0.199976 -0.237251 1.985288 -1.608992 -0.068165 0.548116 -0.253606 0.518793 -1.998384 0.560965 -1.459311 -0.155261 -1.149616
Qb6+ -1.294939 0.229054 0.038903 0.326184 -0.319898 0.128768 0.102648 0.668581 -0.672296 0.277784 0.045785 -0.840996 -1.365046 -0.670227 -0.229099 -0.324984
Re7+ 0.330265 -0.620940 -1.447979 0.450019 -0.186541 -1.225876 0.755945 -1.132462 0.887026 -1.550159 0.057574 -0.125823 -0.547909 -0.682513 0.533067 0.245044
Bxh4 0.538565 0.839666 -0.255635 -0.220931 0.878092 0.726883 -0.576679 -0.349888 -0.218842 -0.302879 0.138798 0.388974 -0.391444 -0.078874 -0.147010 0.597977
Rxg2 0.673200 1.299620 -0.181261 -0.695102 -0.204868 -1.141429 -0.911126 -1.288855 -0.037644 -0.504342 0.346289 -0.628786 -0.225831 -0.075019 0.427151 1.389310
Rxg3 0.560069 1.191516 -0.139231 -0.323160 0.237264 -1.006950 -0.761108 -1.446892 -0.284650 -0.829613 0.402262 -0.358880 -0.524749 0.278031 -0.075950 1.622607
Rxf1+ 0.031238 0.410441 -1.011708 -0.490561 -0.252786 0.557973 -0.360127 0.343392 -0.412138 0.721154 -1.121121 -0.223619 -1.957875 0.645456 -0.593732 0.738410
Qf6+ -0.667590 0.321995 -1.508476 -0.437019 -0.380349 -0.200072 0.333350 1.203075 -0.736163 -1.513010 1.342080 -0.728687 -1.097854 -0.124300 -0.266016 -0.537531
