O-O 0.338563 0.172798 0.895987 0.193277 -0.662645 1.357040 0.198005 -0.226205 0.213735 -0.274923 1.195610 0.011661 -0.451030 -0.851399 1.188477 0.104653 -1.194640 -2.426976 0.928614 -0.214071 0.167815 -0.860900 0.676484 1.507176 0.212545 -0.685130 0.381745 -0.112220 -1.314086 2.422717 0.082654 -0.183675
Nf6 0.967758 -0.050639 0.383608 -0.125720 -0.109126 0.492283 -0.075506 -0.381717 0.197987 -0.279666 0.198656 0.244571 -0.249315 -0.855611 0.536410 -0.445283 -0.264980 -0.957393 0.542145 -0.812948 -0.002990 -0.294949 0.488266 1.193359 0.449513 -0.484258 0.225002 -0.017926 -1.110938 1.044335 -0.146764 0.033921
Nf3 0.706718 -0.060532 0.783402 -0.095354 -0.250391 0.542420 -0.079413 -0.203274 -0.025890 -0.063775 0.257280 -0.024235 -0.118010 -0.476436 0.647019 -0.308817 -0.166987 -0.662738 0.630107 -0.958300 -0.079054 -0.086928 0.519499 1.190742 0.702221 -0.317365 0.499530 -0.056419 -1.203927 1.106876 0.090588 -0.212856
<end> 1.060628 -0.055352 0.503318 -0.336872 -0.263284 -0.032641 -0.256562 -0.459825 -0.181640 -0.047217 -0.469687 0.059058 -0.102779 -0.874683 0.801507 -0.734054 0.604633 0.260562 0.918306 -1.082692 -0.122152 -0.222535 0.215243 1.249491 0.737335 -0.029442 0.601428 -0.415923 -1.552787 0.926838 -0.392328 -0.293909
<start> 0.989637 -0.041450 0.506422 -0.292611 -0.230273 0.001504 -0.224480 -0.390442 -0.104638 -0.047530 -0.382979 0.061960 -0.098190 -0.789386 0.753940 -0.635160 0.579600 0.097173 0.805524 -1.037931 -0.077463 -0.160344 0.240720 1.213064 0.672458 -0.052615 0.556384 -0.363761 -1.416161 0.936835 -0.354266 -0.262807
d4 0.780007 -0.009353 0.700096 -0.133710 -0.350317 0.496232 -0.180610 -0.183860 0.112412 -0.029414 0.071062 0.029741 -0.180058 -0.675153 0.755350 -0.249216 0.158987 -0.524892 0.787365 -0.795457 0.034789 -0.042728 0.340976 1.276844 0.646847 -0.171379 0.396961 -0.207227 -1.230774 1.197372 0.038533 -0.379875
e4 0.776883 0.085562 0.428867 -0.200546 -0.046409 0.176156 -0.021854 -0.389035 0.010277 -0.278381 0.062101 0.150310 -0.191958 -0.703724 0.682792 -0.449838 0.142212 -0.648168 0.773037 -0.683626 -0.033875 -0.206307 0.543671 1.323663 0.496517 -0.322784 0.438170 -0.167694 -1.185901 1.049752 -0.144889 -0.195048
Nc3 0.711813 0.130327 0.264846 0.127475 -0.034723 0.734979 0.065071 -0.276073 0.306063 -0.128175 0.330953 0.156309 0.078655 -0.939408 0.841136 -0.471912 0.006787 -0.875171 0.569021 -0.441020 -0.035598 -0.532824 0.305102 1.203544 0.248877 -0.324807 0.462840 -0.070067 -0.913186 1.500283 -0.087551 -0.066495
d5 0.807700 -0.021278 0.575961 0.096492 -0.191125 0.604884 0.117005 -0.253020 0.321498 -0.171328 0.369527 0.142026 -0.203988 -0.804099 0.701635 -0.072027 -0.074957 -1.097468 0.700009 -0.430295 0.166340 -0.296754 0.526715 1.171898 0.515649 -0.294413 0.256329 0.002497 -1.097208 1.154520 -0.060417 -0.076027
e5 0.414335 -0.149141 0.346144 0.035391 -0.372445 0.778616 -0.143290 -0.028222 -0.039547 -0.200322 0.589723 -0.008497 -0.334091 -0.773570 0.709824 -0.204290 -0.179124 -0.940845 0.474239 -0.666235 -0.034969 -0.168571 0.708116 1.195321 0.318078 -0.326385 0.377623 0.005868 -0.516649 1.219738 0.154718 -0.002024
c5 0.470383 -0.212080 0.315432 -0.001186 0.034655 0.569137 -0.006675 -0.386667 0.152600 -0.376122 0.403884 -0.120707 -0.306526 -0.551621 0.502963 -0.102190 -0.105022 -0.813478 0.579883 -0.629630 0.061966 0.117217 0.574888 1.470660 0.476303 -0.277373 0.424431 -0.039113 -0.940301 1.146281 0.280400 -0.084481
Nc6 0.459699 0.041481 0.732186 0.286993 -0.199193 0.984906 -0.087268 0.187075 -0.110273 0.070699 0.696159 -0.164811 -0.215400 -0.261743 0.962062 -0.258428 -0.078079 -0.919979 0.646529 -0.446173 0.028142 -0.478392 0.404415 1.157762 0.427500 -0.161648 0.487240 0.122143 -0.869843 1.532054 0.383310 -0.483199
c4 0.641204 -0.071407 0.605336 -0.109216 -0.015929 0.405721 -0.041457 -0.219150 0.278264 -0.246396 0.332353 -0.072753 -0.225138 -0.708979 0.304049 -0.293119 0.126986 -0.722130 0.353087 -0.406891 0.320533 -0.127958 0.596651 1.258762 0.414586 -0.240826 0.391079 0.087529 -0.888692 0.943891 0.003436 -0.168602
e6 0.714660 -0.111674 0.640361 0.021172 -0.373155 0.603239 -0.037418 -0.386826 0.218171 -0.041837 0.329933 -0.000461 -0.084539 -0.876808 0.938386 -0.140632 0.042106 -0.726239 0.583675 -0.663744 0.070522 -0.101781 0.540633 1.213168 0.645082 -0.206675 0.474780 -0.184558 -1.123276 1.368425 -0.254304 0.124966
g6 0.868223 -0.270317 0.662941 -0.300697 -0.178715 0.511620 0.104064 -0.319111 0.268875 0.010811 0.437615 -0.019104 -0.240363 -0.376093 0.553341 -0.184244 -0.017833 -0.467378 0.461777 -0.467731 0.417979 -0.118547 0.585626 0.930752 0.464483 -0.387382 0.309780 -0.031948 -0.350965 0.731770 -0.056693 -0.135014
d6 0.810442 -0.087627 0.478066 0.178792 -0.121522 0.407350 -0.153755 -0.383984 -0.058529 -0.176068 0.389076 -0.280078 -0.273880 -0.994492 0.869496 -0.216956 0.095798 -0.963018 0.748412 -0.754515 0.069080 -0.320873 0.371615 1.489431 0.354900 -0.120257 0.128737 0.045738 -1.215465 1.388373 -0.486681 -0.068368
f4 0.388214 -0.270354 0.005676 -0.167166 0.324852 0.590066 0.078265 0.011633 0.326486 -0.075945 0.518429 -0.048882 -0.273622 -0.173355 0.344211 0.239514 -0.125773 -0.973643 0.179764 -0.538866 0.104022 0.076300 0.726407 0.375284 0.079584 -0.006863 0.104303 0.323777 0.177755 0.664782 0.448370 -0.116026
f5 0.397540 -0.325483 0.129387 -0.271091 0.306206 0.470139 0.099682 0.144096 0.601576 -0.152092 0.586169 0.017644 -0.211190 -0.166709 0.077762 0.138741 -0.006954 -1.098794 -0.084772 -0.242401 0.296509 -0.090465 0.623902 0.453101 0.082650 -0.266716 -0.189133 0.026011 0.215190 0.461279 0.009009 -0.106560
b5 0.169902 -0.158277 0.033628 -0.016508 0.253655 0.729844 0.249013 0.328784 0.477970 -0.223639 0.771331 -0.103587 -0.389324 -0.196966 -0.108757 0.026964 0.223694 -1.101798 0.228273 -0.142300 0.473780 -0.016764 0.640653 0.832956 -0.000977 -0.034928 0.217470 0.857527 0.101856 0.766044 -0.021780 0.053163
Be7 0.099663 -0.200876 0.970828 0.457541 -0.077202 0.822732 0.272518 -0.291665 0.310218 0.023395 1.035999 0.475029 -0.049882 -0.417617 0.462947 -0.269452 -0.183262 -1.395681 -0.144555 -0.399170 0.110756 -0.686173 1.103185 1.122363 0.400722 -0.565103 0.582970 0.286077 -0.442135 0.983607 -0.130600 -0.091884
a6 0.263195 -0.098926 0.265025 0.414599 0.342346 0.813800 0.069440 0.093761 0.467248 -0.099535 0.779848 0.176725 -0.427025 -0.304669 0.565864 0.049273 0.068003 -1.095661 0.504079 -0.356095 0.256910 -0.194162 0.560400 1.194959 0.109876 0.118765 0.188330 0.904597 -0.723904 1.138040 0.027379 -0.323259
Be3 -0.041660 -0.186483 0.232439 0.093361 -0.060429 1.039843 0.100059 -0.216319 -0.009646 0.229019 0.926941 0.399801 0.174215 -0.156038 0.472198 0.193581 -0.228768 -1.455460 0.115789 -0.160556 0.450337 -0.756053 1.052811 0.626373 0.141200 -0.198261 0.250782 0.226886 -0.239949 0.954447 0.349376 -0.632101
b4 0.032842 -0.200182 -0.183405 -0.043337 0.269538 0.749503 0.317945 0.359243 0.544343 -0.287010 0.744829 -0.044168 -0.343867 0.138701 -0.085803 0.123942 0.223130 -0.874683 0.251505 -0.057851 0.414906 0.252960 0.438508 0.974596 0.219014 -0.258631 0.197493 0.260771 0.337376 0.702613 0.325747 0.076742
a4 0.152961 -0.194640 0.172250 -0.275923 0.463209 0.723832 0.164356 -0.047294 0.502315 -0.358002 0.677778 -0.104587 -0.408093 -0.005775 -0.076221 0.103510 0.495332 -0.589744 0.163114 0.039689 0.440621 0.231628 0.618578 0.757150 0.012154 -0.132547 0.302880 0.662415 0.249794 0.711248 0.082478 0.064769
a5 0.063473 -0.195485 0.010088 -0.261908 0.588905 0.599343 0.151775 0.067417 0.573628 -0.454369 0.624861 0.092332 -0.436404 0.112458 -0.151647 0.125214 0.292352 -0.627596 0.112624 0.039672 0.558543 0.443733 0.471089 0.711772 0.029176 -0.124139 0.509607 0.455850 0.284192 0.722703 0.308711 0.012342
Bd3 0.568236 0.088507 0.567653 0.035268 -0.223354 0.923740 0.004585 -0.482759 0.787505 -0.522551 0.482597 0.293120 0.010394 -0.230250 0.199893 -0.034999 -0.420183 -1.244059 0.706647 -0.389916 0.095073 0.200222 0.261851 0.603525 0.134289 -0.931482 0.297327 0.075965 -0.305093 1.189903 0.324698 -0.120811
g3 0.285433 -0.527885 0.208405 -0.262430 0.463341 0.262099 -0.065073 -0.040402 0.247654 -0.220351 0.186489 0.392243 -0.085905 -0.368376 0.532110 0.158595 -0.138094 -0.585279 0.326525 -0.606829 0.264933 0.084584 0.306624 0.734126 0.300268 -0.106450 0.519474 0.200574 -0.646785 0.612451 0.176958 -0.266001
cxd4 0.290363 0.094782 0.949174 0.167426 -0.925980 0.998102 -0.184936 0.506491 0.142159 0.305334 0.728756 -0.065176 -0.265512 -0.481049 0.992771 0.307967 -0.273954 -1.046822 0.756134 -0.417220 0.259359 -0.164263 0.212530 0.968733 0.770813 -0.414367 0.175906 0.100645 -0.915916 1.415541 0.496673 -0.557894
h3 0.011618 -0.646657 0.136195 -0.524006 0.448603 0.502136 -0.097771 0.222998 0.088371 -0.370868 0.666985 0.329511 -0.097976 -0.282911 0.193615 0.341948 -0.302056 -0.989438 0.047449 -0.451348 0.378181 0.132581 0.626868 0.916773 -0.060448 -0.241986 0.036899 0.563516 -0.524419 0.672560 0.138326 -0.220710
h6 0.606486 0.015153 0.443337 -0.161796 0.130665 0.357592 0.417666 -0.067991 0.408283 -0.161684 0.799991 -0.074593 -0.081244 -0.095211 0.344164 0.046537 -0.412985 -0.847456 0.149583 -0.313025 0.513314 0.325732 0.720526 0.743474 0.276897 -0.770187 0.396486 0.034836 0.085968 0.688787 0.345329 0.310528
Bg7 0.893859 0.209521 0.398832 -0.201613 -0.174666 0.815981 -0.035343 -0.250601 0.181628 0.097418 0.486864 -0.087377 -0.146346 -0.574419 0.538425 -0.249337 -0.291262 -0.755137 0.292298 -0.649614 0.298802 -0.488187 0.945351 1.125140 0.407532 -0.247006 0.247606 0.022028 -0.778135 0.977615 -0.069700 0.015025
h4 0.341038 -0.438880 0.137166 -0.513269 0.650326 0.473233 0.252528 0.089585 0.384984 -0.125499 0.233953 0.083775 -0.172908 0.108165 0.272977 0.213175 0.160032 -0.507041 -0.069478 -0.528917 0.325733 0.467344 0.584210 0.473750 -0.056272 -0.080917 0.356154 0.215777 0.384056 0.077833 0.111246 0.031331
h5 0.522478 -0.254135 0.141244 -0.607538 0.524862 0.475971 0.073637 0.113046 0.432730 -0.084688 0.249296 0.123979 -0.248349 0.124438 0.167411 0.136242 0.244245 -0.435137 -0.194195 -0.419953 0.447019 0.266688 0.766646 0.325846 -0.065570 -0.076864 0.148101 0.181037 0.481449 0.060148 0.147992 -0.032495
g4 0.509302 -0.466013 0.136624 -0.519605 0.428190 0.378119 0.056460 -0.003662 0.403060 -0.177578 0.219308 0.184902 -0.085067 0.201016 0.092572 0.041213 0.160790 -0.907617 -0.104856 -0.515375 0.288273 0.272471 0.855271 0.313478 -0.133261 -0.126511 0.022412 0.371000 0.237773 0.180747 0.189098 -0.133393
c6 0.604379 -0.196354 0.394301 0.297864 0.224187 0.325437 0.132365 -0.391179 0.181117 -0.389071 0.362249 0.067205 -0.272838 -0.423496 0.519895 0.070461 -0.079251 -1.109196 0.684563 -0.530961 0.162071 -0.205990 0.534990 1.131611 0.397367 -0.038855 0.348575 0.115490 -1.015674 1.117421 0.147264 -0.053332
Bg5 0.692991 -0.159566 0.625924 0.014475 -0.292919 0.712834 0.217322 0.025922 0.217094 0.081838 0.801800 0.314161 -0.023990 -0.573801 0.265544 -0.040764 -0.648367 -1.556133 0.170133 -0.380514 0.424316 -0.624887 0.996362 0.815150 0.362058 -0.340434 0.056482 0.063701 -0.493914 0.771918 -0.211539 -0.106926
Nxd4 0.159583 -0.286374 0.389339 0.295112 -0.811256 1.331311 -0.025556 0.552208 -0.188768 0.684736 0.884593 -0.238159 -0.125441 -0.315356 1.514849 0.480565 0.011454 -0.902872 0.793200 -0.381013 0.121883 -0.391214 -0.219924 0.608623 0.662437 -0.246383 -0.029384 -0.126056 -0.640552 1.533024 0.558113 -0.645921
a3 0.281812 0.080123 0.362522 -0.006056 0.018657 0.939694 0.400628 0.251039 0.755347 -0.296979 0.692800 0.023010 -0.170295 -0.368293 0.240383 -0.064028 0.196292 -0.837056 0.203702 0.083252 0.286468 0.045961 0.250601 1.084226 0.631409 -0.766938 0.426377 0.182427 0.189164 1.020127 0.386751 0.383103
g5 0.468778 -0.395147 0.043027 -0.469648 0.246173 0.304602 0.225283 0.142174 0.494817 -0.157702 0.228713 0.101639 0.029611 0.161030 0.165323 -0.013634 0.037301 -0.674454 -0.116304 -0.642603 0.298480 0.538088 0.870421 0.196399 -0.093343 -0.105629 0.330341 0.275016 0.387317 0.290050 0.275526 0.260044
Qc7 -0.233853 -0.259441 0.434366 0.180520 0.011090 0.988096 -0.015681 -0.168010 0.151127 -0.478381 1.410689 0.049559 -0.562035 -0.245884 0.345737 0.869410 -1.469993 -0.539815 -0.023384 -0.240707 1.082794 -0.912505 0.205491 0.614579 -0.385980 -0.835348 0.428092 0.348230 -0.000996 0.654662 0.119998 0.268853
Be2 0.535943 0.010651 0.240233 0.328506 0.036157 1.234899 -0.292044 -0.055126 0.201586 -0.461159 0.270632 0.301518 0.042039 -0.576254 0.428661 -0.209761 -0.522820 -1.277471 0.656483 -0.750586 -0.171230 -0.147155 0.322082 0.947533 -0.132694 -0.361703 0.546160 0.666591 0.159436 1.010863 0.573751 -0.237463
Ne5 -0.030501 0.193165 0.011741 -0.128658 -0.295756 0.522999 -0.190092 0.277151 -0.197415 -0.063739 1.257233 -0.633220 -0.463899 -0.281177 -0.004105 0.134921 -0.692114 -1.127441 -0.007016 -0.712712 0.187498 0.175337 0.353611 -0.354864 -0.144781 -0.646435 0.226755 0.543494 -0.097962 1.015235 0.384155 0.010058
b6 -0.152188 -0.356239 0.019408 0.197648 0.562420 0.386070 0.194656 -0.130344 0.431851 -0.545009 0.673797 0.094577 -0.232312 -0.112996 0.059213 0.187309 -0.206837 -1.045676 0.455406 -0.418735 0.207923 0.189752 0.452381 0.981574 0.111771 -0.095968 0.623599 0.375903 -0.485584 0.865191 0.210528 -0.204187
c3 0.455817 -0.024482 0.640076 0.031113 -0.543523 0.790316 0.142903 0.117318 0.571341 0.089422 0.457471 0.041516 -0.129477 -0.642600 0.418340 -0.008689 -0.012301 -0.964314 0.370738 -0.157762 0.469540 -0.091617 0.313923 1.023132 0.604998 -0.377757 0.363042 -0.008555 -0.340106 1.091481 0.330444 -0.141638
Re1 0.509273 -0.598228 0.355250 -0.581744 0.339605 0.266599 0.007829 -0.036655 0.233453 -0.160553 0.792672 -0.308408 0.427960 -0.233847 -0.189656 0.684729 -0.322149 -0.631896 -0.117802 -0.099590 0.641450 0.479211 -0.128184 0.351047 0.615335 -0.500304 -0.407025 0.375171 -0.598829 0.851860 0.336856 0.191861
Bd7 0.368018 -0.201717 0.255291 0.463117 -0.084467 1.570695 0.170378 -0.075269 0.662545 -0.425102 0.892250 0.170625 0.169098 -0.034836 -0.053210 0.254288 -0.674439 -1.083047 0.622354 -0.811111 -0.055250 0.081337 0.131606 0.292527 -0.693424 -0.381546 0.013045 0.503003 0.035154 1.096815 0.415673 -0.111919
b3 0.359382 -0.027086 -0.015411 -0.360306 -0.123614 0.772121 -0.097789 -0.011708 0.450890 -0.198713 0.709412 -0.303489 -0.321997 -0.286452 -0.006921 -0.063906 0.088638 -0.628576 0.107147 0.112940 0.609442 -0.281028 0.735064 0.754700 0.390135 -0.371645 0.144766 0.384904 0.399909 0.820954 0.215215 0.194073
Re8 0.814101 -0.321603 -0.069271 -0.251358 0.532665 -0.122606 0.259049 -0.317711 0.295615 0.014807 1.097248 -0.380913 0.118615 -0.008291 -0.232966 0.661104 -0.569698 -0.510590 0.104359 -0.254227 0.850080 0.526967 0.394706 0.220566 0.461092 -0.145297 -0.429787 0.311845 -0.451575 0.856063 0.299784 0.157935
exd5 0.761588 -0.209058 0.323715 0.512487 -0.357335 0.634241 0.329660 0.012452 0.417790 0.106796 0.874114 0.499958 -0.260325 -0.945761 0.840944 0.158567 -0.031415 -1.191041 0.698986 0.059632 0.432176 -0.782908 0.045316 0.433761 0.229483 -0.443824 -0.135551 0.226137 -0.710676 1.273796 -0.071570 -0.172674
Qd2 0.089718 0.203850 0.051586 -0.352124 0.050131 1.090687 0.069379 0.270495 0.754589 -0.212866 0.716237 0.240736 -0.125839 -0.087368 0.485146 1.008845 -1.601321 -0.760368 0.446993 -0.251461 0.842123 -0.793909 -0.223770 0.451133 0.065409 -0.930344 0.009763 0.401996 0.196690 0.371587 0.167291 0.215119
Nd7 -0.277032 -0.003511 -0.050012 0.149700 -0.063906 0.792230 -0.163599 -0.228811 0.593838 -0.699045 1.125705 0.071598 -0.240466 0.005897 -0.279406 0.009128 -0.786130 -0.900354 -0.127576 -0.612114 0.102161 -0.028346 0.849100 0.383599 -0.473789 -0.578127 0.311260 0.262364 0.170358 1.226952 0.258481 0.412687
Nd5 0.378764 0.194477 -0.117012 0.261714 0.341766 0.272065 0.417308 0.654624 0.375681 0.275995 0.991666 0.012464 -0.008672 -0.486341 0.467249 0.014410 -0.183705 -1.543409 0.007634 0.286583 0.698865 -0.575406 0.072165 -0.247474 0.076953 -0.338690 0.304766 0.139765 -0.170984 0.824569 -0.139921 -0.102054
Ne4 -0.274344 0.170578 -0.213173 -0.044376 0.411003 -0.057535 0.267748 -0.288109 0.119466 -0.354241 0.880107 -0.068436 -0.023324 -0.023921 -0.049996 0.082563 -0.377516 -1.665938 -0.166929 -0.237266 0.143131 -0.072413 0.103572 0.158066 0.329505 -1.472359 0.127783 -0.215180 -0.343260 0.509548 -0.082785 0.278194
f3 0.077333 -0.109734 -0.213707 -0.194767 0.687941 0.002629 0.192944 -0.015048 0.130110 -0.284519 0.260924 0.243454 -0.087611 -0.045188 0.150013 0.303348 -0.204535 -1.161115 0.201557 -0.513120 0.046018 -0.190800 0.534240 0.638749 0.124964 -0.211926 0.034279 0.665386 0.029675 0.503185 0.424175 -0.022091
Qe2 -0.453687 0.168948 0.367473 -0.269903 -0.153347 0.758479 -0.086972 -0.014372 0.107853 -0.157988 0.900751 0.211101 -0.130231 -0.152790 0.199542 0.968271 -1.377607 -0.795756 0.149061 -0.512649 0.834461 -0.963844 0.343593 0.562385 0.068223 -1.065840 0.229776 0.573971 -0.167765 0.062932 0.041326 -0.056841
Rc8 -0.112076 0.054872 -0.154469 -0.004701 0.105862 0.225741 0.221870 0.310289 0.290396 0.029598 1.262320 0.677596 -0.468187 0.283977 0.244309 0.078535 0.329533 -0.181345 0.546186 0.084171 0.337855 0.237443 0.166076 0.099883 0.305852 -0.404304 0.235821 0.814304 0.555277 1.058922 -0.508470 0.104515
e3 0.670547 0.240670 0.314936 -0.306208 0.148975 -0.048874 -0.107406 -0.276211 0.163862 -0.380229 0.038272 0.177613 -0.271912 -0.431224 0.631130 -0.158783 -0.074716 -1.140359 1.064129 -0.355480 0.313397 0.010236 0.287796 1.289420 0.343344 -0.399099 0.290834 0.078442 -1.115194 1.277686 0.136689 -0.520381
Be6 0.625968 -0.489791 -0.095733 0.374831 0.069038 0.778645 0.187544 0.358011 -0.050530 -0.217364 0.865437 -0.117463 0.374825 -0.516773 0.335702 0.158731 -0.263742 -1.408040 0.445947 -0.102828 0.545077 -0.209723 0.127219 0.227019 -0.236379 -0.300661 0.313222 -0.071987 0.568374 0.812401 0.425323 -0.144300
cxd5 0.681715 -0.033011 -0.152810 0.557414 0.028559 0.366861 0.447646 -0.145064 0.631838 -0.159008 0.834469 0.635900 -0.142098 -0.718102 0.638699 0.294052 -0.371241 -1.421646 0.852937 -0.081568 0.342404 -0.478206 0.055550 0.529158 0.341153 -0.617840 -0.152710 0.093064 -0.697169 1.062280 -0.060077 -0.028733
Bg2 0.574772 -0.185622 0.297459 -0.136288 0.231816 0.720684 -0.111738 0.131948 0.030069 -0.332825 0.155858 -0.043173 -0.075318 -0.513948 0.553804 -0.205858 -0.430851 -0.997259 0.600470 -0.824566 -0.003042 -0.116431 0.226245 1.277665 0.347450 -0.218826 0.494436 0.259050 -0.891935 0.869702 0.171930 -0.141533
Bb7 0.201684 -0.289280 0.142086 0.175076 0.109632 0.611826 0.400434 0.427367 0.110016 -0.381364 1.060920 0.058766 -0.543305 -0.307694 0.372094 -0.087610 -0.589173 -1.433320 0.495949 -0.336378 0.241504 -0.088181 0.104804 0.930657 -0.119064 -0.583090 0.335935 0.369682 -0.201182 1.228017 0.298329 -0.008453
f6 0.234008 -0.388908 0.349546 0.017169 -0.103787 0.303318 0.019093 0.445542 0.453768 -0.094141 0.888958 -0.216466 -0.220289 -0.017529 -0.131050 -0.008249 -0.138817 -0.522205 -0.270082 -0.542173 0.343306 0.024956 0.525426 0.421473 -0.001828 -0.383673 -0.157335 -0.040968 0.659533 0.528413 0.157210 0.025967
Qc2 -0.384086 0.319484 0.370032 -0.584014 0.374994 0.585682 0.275768 -0.365643 0.331181 -0.577382 0.903109 0.040390 -0.276059 -0.062178 0.240377 0.880253 -1.489105 -0.591620 0.224412 -0.073468 0.807017 -0.926222 0.264592 0.745300 -0.144675 -1.133508 0.472975 0.343629 -0.141780 0.694255 0.301799 0.258517
Kg7 0.944677 -0.438520 -0.030645 -0.860058 0.311799 -0.994504 -0.381290 0.461983 0.109140 -0.086375 0.133228 0.032984 0.344576 0.695503 0.886250 -0.287747 -0.258937 0.898080 -0.453710 -0.843562 0.905488 0.553341 0.274357 -0.017211 -0.725411 -0.490020 -0.288525 -0.249624 0.937623 0.104215 -0.452011 0.657123
Bc4 0.694911 -0.270238 0.125690 0.162132 -0.050310 0.527181 0.136479 -0.202361 -0.045608 -0.380956 0.380287 0.071072 0.285657 -0.759577 0.708725 -0.284601 -0.063387 -0.896847 0.653106 -0.194715 0.287897 -0.073907 0.249262 0.718895 0.023740 -0.365400 0.773485 -0.040798 -0.182522 1.196486 0.374858 0.080818
Rc1 -0.328872 -0.020833 0.072495 -0.501590 0.272069 0.179417 0.087622 0.429408 0.226809 -0.286910 0.894913 0.682646 -0.318300 0.242554 0.180898 0.086632 0.376596 -0.348283 0.599247 0.255965 0.175722 0.224277 -0.234914 0.191017 0.380728 -0.692395 0.294293 0.834632 0.421643 1.100406 -0.388700 0.015717
Nd4 -0.134905 -0.241449 -0.342210 0.023784 0.065130 1.225902 0.033399 0.580140 -0.062290 0.344779 1.036069 -0.630192 0.044649 0.245624 0.659619 0.390664 0.040515 -0.934823 0.309984 -0.091060 0.097488 -0.141630 -0.193358 -0.098132 0.100214 -0.224911 -0.091810 0.039533 0.312115 0.895699 0.370366 -0.450801
Bf4 0.233209 -0.182296 0.531344 0.164895 0.056178 0.536097 -0.168790 -0.325849 -0.029446 -0.038564 0.956210 0.016925 -0.015176 -0.433374 0.096906 0.457377 -0.236047 -1.157558 -0.216525 -0.501026 0.169255 -0.613331 0.968769 0.093603 0.475474 -0.166491 0.046447 0.396338 -0.747799 0.968121 0.207623 0.024795
Nd2 -0.349953 0.209426 0.647304 -0.356073 0.236619 0.513120 -0.016623 -0.307011 0.319550 -0.812957 0.561854 -0.182349 0.293859 0.251274 -0.279962 0.073183 -0.431742 -1.306978 0.196443 -0.144135 0.006841 -0.345556 0.569545 0.616092 -0.267276 -0.876763 0.338703 0.484633 -0.123202 0.926369 0.103800 0.009868
Qe7 -0.101691 0.022924 0.040618 0.172104 0.048330 0.621151 0.037922 0.023062 0.223396 -0.387692 1.021824 0.095775 -0.032068 -0.087971 0.234211 0.799375 -1.613442 -0.522127 0.268271 -0.798631 0.836409 -0.525691 0.098574 0.496691 -0.117593 -1.077440 0.384364 0.015990 0.253713 -0.085627 -0.181901 0.318384
dxe5 -0.154019 -0.197390 0.197602 0.407798 -0.928953 0.504476 -0.302705 -0.060033 -0.781905 -0.285826 1.287721 -0.259546 -0.048469 -0.483517 0.126042 0.435862 -1.023747 -1.164093 0.014215 -0.925881 0.257514 -0.115995 0.888203 0.213042 -0.275623 -0.667557 0.059379 -0.070921 0.081370 1.032815 0.657367 0.206316
Rd1 -0.302511 -0.518932 -0.337521 -0.312853 0.478384 -0.141738 -0.072850 0.206419 -0.410679 0.164016 0.746450 0.042977 0.100212 -0.313583 0.082203 0.153720 0.185356 -0.247944 -0.367567 -0.037281 0.680194 -0.074964 -0.103092 0.724280 0.511585 -0.462065 0.150564 0.364847 0.539135 0.613676 0.300893 -0.181389
Bd2 0.045811 0.496796 1.006748 0.068292 0.189059 0.901444 0.047090 -0.081159 0.733547 -0.360595 0.643221 0.446304 0.586154 0.439657 0.039534 0.317624 -0.055032 -1.340331 -0.189437 0.132841 0.181053 -0.730169 0.942043 0.207638 0.293678 -0.768024 0.203820 0.266419 -0.472105 0.873915 0.307298 0.161111
Bd6 -0.086550 -0.414067 0.687395 0.161130 0.189407 0.332063 0.028951 -0.479474 0.187908 -0.413501 1.096939 0.473539 0.179701 -0.029722 -0.047213 0.448455 0.078569 -1.025984 -0.209625 -0.435606 0.005555 -0.298951 1.035989 -0.231968 0.484786 -0.501847 0.335952 0.370623 -0.779894 1.074029 0.200485 0.269056
Rd8 0.113176 -0.364692 -0.483463 0.209331 0.642210 -0.524496 0.006879 0.061361 -0.392892 0.103720 1.008717 -0.077196 -0.123216 -0.196955 0.016493 -0.103971 -0.010062 -0.138611 -0.140610 -0.161094 0.839618 0.150621 0.029415 0.569499 0.278285 -0.301215 0.341891 0.224192 0.669508 0.545343 0.223858 -0.269076
Rb8 0.161999 0.718436 -0.010973 0.127613 0.839392 0.581178 -0.205456 -0.192224 0.157185 -0.435323 0.743977 0.220222 -0.317574 0.011477 0.275848 0.249407 0.319167 -0.132183 -0.000251 0.395019 0.490545 0.041909 0.324127 0.496613 -0.970320 0.125953 0.065095 0.205024 0.452465 1.186110 -0.177728 0.029356
Kg2 -0.563500 -0.453174 0.134182 -1.604826 0.767059 -0.937070 -0.082054 0.163963 -0.007723 0.400901 -0.460099 0.373278 0.734857 0.709396 0.740075 0.552864 -0.102540 0.493755 -0.693326 -1.109151 0.403367 0.364266 0.171405 0.184052 -0.612397 -0.209819 -0.277319 0.723396 0.008198 0.099951 -0.024660 -0.169416
Nbd7 0.308871 -0.007005 0.427296 -0.256018 -0.604490 1.123404 0.117558 -1.009989 0.420988 -0.690052 0.811488 0.047011 -0.934859 -0.959445 0.605096 -0.164323 -1.379492 -2.169402 0.316127 -0.482299 -0.017589 -0.597018 0.959881 1.525957 0.042057 -0.762189 0.271668 0.408536 -1.282317 2.206227 0.024619 0.873660
Nxd5 0.753118 0.159547 -0.183621 0.548572 0.032058 0.145042 0.686488 0.457686 0.380193 0.488194 1.058711 0.475806 -0.132870 -0.837471 0.920770 0.177572 -0.184722 -1.669081 0.398521 0.480611 0.944147 -0.999960 -0.351742 -0.309414 0.104623 -0.545130 -0.112235 0.132988 -0.427892 1.102762 -0.196282 -0.145099
Kf7 0.874628 -0.454982 0.451003 0.294416 0.817524 -0.914526 -0.231870 0.121546 0.686650 0.289792 0.381588 0.289725 0.439428 0.705847 0.579722 -0.221669 0.684745 0.614960 -1.050275 -0.781524 0.010184 -0.011149 0.419914 -0.314834 0.233948 -0.015721 -0.625940 -0.197677 1.025700 0.455193 -0.141198 0.446104
Bg4 0.694582 -0.347196 0.202659 0.027540 -0.072180 0.776252 0.054531 -0.104099 -0.137674 -0.313958 0.392092 -0.005486 0.367396 -0.496470 0.234229 0.391804 -0.868119 -1.468439 0.730646 -0.823305 -0.017521 -0.030713 0.492405 0.450312 0.142924 -0.140250 0.281874 0.332240 -0.150709 0.817614 0.649880 -0.119516
Nxe4 -0.116260 0.278737 -0.703561 -0.018972 -0.003882 -0.368355 0.266551 -0.937330 -0.160663 -0.623154 0.490164 0.318103 0.112807 -0.764529 -0.010833 0.130905 -0.446857 -2.112707 -0.100308 -0.226577 0.314077 -0.493125 0.189478 0.442297 -0.015841 -1.830753 -0.151189 -0.519384 -0.847393 0.718744 -0.179253 0.710215
Kf2 0.034018 -0.573210 0.246532 -0.614104 1.052697 -0.691323 -0.121182 0.050217 0.433781 0.383367 -0.643169 0.287640 0.571064 0.444071 0.355312 0.009536 0.533699 0.133338 -0.458131 -1.075237 -0.389848 0.379177 -0.890722 0.112722 -0.243878 -0.170508 -0.573390 0.987787 0.938714 0.610298 0.648099 -0.668000
Nc5 -0.739440 -0.293387 -0.990225 -0.059726 0.491498 0.834022 0.249012 -0.330368 0.309188 -0.265831 1.133491 -0.470613 -0.278472 0.425684 -0.083208 -0.046067 -0.201018 -0.831086 -0.231669 -0.041490 0.160685 0.291348 -0.031169 0.356408 -0.222439 -0.634436 0.353589 -0.313797 0.510158 1.091554 0.370235 0.144968
Nxe5 -0.428406 0.113579 0.355849 0.171715 -1.089538 0.341747 -0.546091 0.108854 -1.073600 -0.144679 1.299895 -0.787138 -0.334101 -0.253257 -0.005131 0.350940 -0.728213 -0.914827 -0.098532 -1.100549 0.292488 0.180768 0.418077 -0.467766 -0.325524 -0.860490 0.298270 0.206785 -0.502789 1.296932 0.845852 0.061087
Qd7 -0.050433 0.119325 0.457225 0.141898 0.274271 0.731477 0.246411 0.161751 0.462251 -0.017194 1.344659 0.125375 -0.028659 0.384919 0.204242 1.216747 -1.340053 -0.325460 0.240382 -0.351577 0.942505 -1.012473 0.222081 -0.034503 -0.112166 -0.491598 -0.085099 0.416282 -0.248874 0.139110 -0.299665 0.017359
Ke7 0.029746 -0.807847 -0.196680 1.260204 0.051977 -0.268293 -0.954459 0.630660 0.403640 -0.501659 0.330082 0.515906 0.584469 0.225660 0.083794 -1.130245 1.327598 0.208561 -0.766111 -1.348492 -0.368740 0.188748 0.210509 -0.043788 -0.423794 -0.393874 0.202784 -0.390293 1.155194 0.296837 -0.305467 0.224611
d3 0.368053 0.386728 0.749899 -0.440108 -0.303834 0.177184 -0.174931 0.048537 0.229099 0.159930 0.089847 0.032897 -0.285526 -0.321446 0.571149 -0.006040 0.020663 -0.813328 0.401214 -0.429253 0.367457 0.066394 0.424473 1.303620 0.908739 -0.261028 0.382870 -0.357945 -1.103797 1.430383 0.531595 -0.608180
Qb6 -0.457400 -0.166024 0.003182 0.121922 -0.339681 1.024733 0.095546 0.105900 0.376296 -0.236683 1.223710 0.153712 -0.289045 -0.040237 0.568994 0.662220 -0.964524 -0.341454 0.442722 -0.086851 1.020305 -0.864067 -0.175145 0.641234 -0.232480 -0.966719 0.281453 0.367114 -0.074944 0.760175 0.089383 0.028169
Bf5 0.578929 -0.128641 0.076950 -0.082246 0.106638 0.271616 0.215400 -0.501051 0.495898 -0.464296 0.418657 0.195510 0.192202 -0.382798 -0.045039 0.223134 -0.435071 -1.177299 0.472821 -0.455996 0.176681 0.236392 0.067887 0.184339 0.200252 -0.882647 0.088945 -0.431323 -0.293719 0.862060 0.564856 -0.088323
Nc4 -0.269278 0.111468 0.118942 -0.341700 0.449253 0.542447 -0.227845 0.022848 -0.258095 -0.209525 0.991113 -0.748111 -0.215943 0.231109 -0.347442 -0.253850 0.055217 -1.187771 -0.484278 0.497667 0.547140 -0.561615 0.396864 -0.270744 -0.341405 -0.343855 0.450990 0.826968 0.304758 0.747476 -0.155681 -0.040106
Kf8 1.143530 0.160420 0.496153 0.689533 0.370222 -0.363726 -0.138475 -0.152532 -0.039799 0.589794 0.960798 0.072176 -0.023743 -0.074322 0.363432 -0.709525 0.242112 0.847534 -0.779936 -0.908823 0.162875 0.095159 -0.769261 -0.287999 -0.083756 -0.868751 -0.516676 -0.063251 0.788554 0.641179 -0.544243 0.234658
Rb1 -0.470538 0.561184 0.479738 -0.508062 0.822556 0.817496 -0.488390 0.010695 0.172322 -0.532349 0.380602 0.400790 -0.011149 0.038687 0.060145 0.528275 0.485917 -0.083360 -0.334817 0.468608 0.219179 0.133424 0.060577 0.614275 -0.638519 0.012192 0.088342 0.051952 0.179898 1.384792 0.086633 -0.143324
Ne2 -0.046767 -0.120928 -0.269087 -0.160436 0.229841 1.473898 0.082065 -0.158748 0.856851 0.149220 0.286609 0.487579 0.222512 0.001816 0.474599 0.573816 -0.553880 -1.101128 0.297422 -0.515790 -0.207105 -0.186487 0.242208 0.024364 0.473662 -0.190839 0.457475 0.162827 0.761147 0.575255 0.464272 -0.193049
Bb5 0.209700 -0.156008 0.300188 0.097003 -0.083887 0.669298 -0.112134 -0.005208 0.174488 -0.369518 0.662655 0.103554 -0.016716 -0.172093 0.265243 -0.214595 -0.034030 -0.346689 0.781868 -0.498553 -0.048781 0.030097 0.069310 0.661909 -0.120041 -0.230967 0.389541 0.610499 -0.049162 1.436533 0.264094 -0.232946
Kh1 -0.551489 -0.539498 0.041109 -1.717552 0.537426 0.756582 -0.412953 0.785268 -1.215856 -0.069983 0.436170 0.554217 -0.138604 -0.614140 0.252927 1.632299 -1.238709 -0.618886 0.088741 -0.887322 -0.052978 -0.499907 -0.172993 0.191161 -0.003744 0.160895 -0.271594 -0.607097 -0.995500 0.180315 -0.861293 -0.516729
Bxf6 0.801852 0.329177 0.107241 0.361691 -0.543392 -0.116156 -0.392959 0.732842 0.032893 -0.293217 1.232761 0.289473 -0.426098 -0.877562 -0.162701 0.165134 -0.642275 -1.368197 -0.222419 -0.317693 0.618350 -0.866568 0.538251 0.633911 0.240320 -0.928816 -1.092752 -0.341983 0.126258 0.869876 -0.308715 0.496152
Kh8 1.486823 1.139185 0.136222 -1.061293 0.172157 -0.122146 0.866575 -0.133113 -0.760035 0.337314 0.932194 -0.429716 -0.579739 -0.090575 0.165415 0.634278 -1.459699 -0.169102 1.062555 -0.676639 0.559351 -0.292341 0.410479 0.079134 -0.076585 -0.593060 -0.432396 -1.437292 0.485560 -0.109582 -0.912712 -0.085418
Ne7 0.600281 -0.195289 1.055242 0.643412 0.395969 0.803905 -0.011432 0.537674 0.711092 0.029423 0.864452 0.262340 -0.016979 0.346510 0.132534 0.055160 -0.415788 -1.370930 0.184331 -0.225854 0.452442 -0.372230 0.315559 -0.111908 0.061937 -0.147296 0.451504 0.056702 0.298449 0.177839 -0.139775 -0.926954
Ke2 -0.713573 0.545861 0.002906 -0.201686 0.330487 -0.719284 -0.122967 -0.271074 0.065716 0.426605 -0.862462 0.464872 0.901026 0.823825 -0.197638 -0.668323 1.554311 -0.388640 -0.291014 -1.101299 -0.485240 -0.310399 0.224566 0.279033 -0.023757 -0.657414 0.087642 0.932950 0.967504 0.216484 0.636998 -0.907252
O-O-O -0.034234 -0.367697 0.147054 2.200406 -1.535570 1.707805 -0.441799 -1.106638 0.279996 0.446896 0.605927 0.617120 -0.098269 -0.612385 -0.229320 0.919178 -1.391576 -3.010903 -0.547733 -0.558451 1.208007 -1.098870 0.065913 0.023579 0.776428 -0.456913 0.476726 0.072206 0.399225 0.412661 0.746691 0.054797
Bc5 -0.076989 -0.513033 0.336081 -0.029852 0.011197 0.483517 0.007038 -0.252482 -0.406824 0.204717 0.899978 0.205702 0.322939 -0.169815 0.342181 0.031253 0.513674 -0.746570 0.055116 -0.076473 0.435339 -0.588492 0.708713 0.490088 0.190460 -0.246501 0.215344 0.057612 -0.471915 0.964223 0.166531 -0.746618
Nb6 -0.055245 -0.205672 -0.075539 0.233547 0.237701 0.624070 0.367517 -0.350887 0.447073 -0.460577 1.096031 0.093264 -0.227646 -0.086066 -0.225502 -0.403278 -0.333613 -1.169460 -0.029112 0.280056 0.545553 -0.550789 0.482461 0.021691 -0.755743 -0.344328 0.590513 1.032167 0.317645 1.213456 -0.163683 0.372085
Qd3 -0.237228 0.251477 0.195780 -0.396693 0.048618 0.501879 -0.112875 -0.023189 0.504440 -0.236811 0.773885 0.235646 0.150014 0.187491 0.254558 1.162638 -0.956511 -0.307663 0.327344 -0.108191 1.089113 -1.071663 0.052870 -0.066867 0.054211 -1.026505 0.020857 0.514423 -0.105549 0.168042 -0.118783 0.143017
Bb4 0.064932 -0.060477 0.702922 0.077814 0.231420 0.262351 0.202953 -0.288889 0.188754 -0.322860 0.811615 0.513586 0.443390 -0.166416 0.236856 -0.169343 0.470789 -0.753369 0.167158 0.097441 0.065644 -0.638714 0.662935 0.735071 0.537016 -0.700689 0.397615 0.185486 -0.424271 1.254725 -0.025393 -0.034885
Kf6 0.973596 -0.736027 0.206101 -0.120963 1.027108 -0.846424 -0.126172 0.100243 0.515488 0.239891 -0.059873 0.095402 0.183874 0.290013 0.740552 -0.853404 1.489745 0.791856 -0.803003 -1.239240 -0.455192 1.153052 0.059802 -0.474233 -0.399464 -0.069924 -0.115247 -0.277814 0.679626 0.566654 0.356760 -0.215006
Kf1 -0.494884 0.180822 0.147982 -0.518378 1.256401 -0.509725 -0.458040 -0.068362 -0.699188 0.572461 -0.261379 0.890207 0.415153 0.484867 0.441517 0.404074 0.401682 0.083303 -0.845786 -0.809124 -0.346629 -0.069272 -1.015599 0.008949 0.743164 -0.607273 -0.186927 0.875457 -0.325155 0.603844 0.429219 -0.392543
Ke3 0.091441 0.051109 -0.723312 -0.301964 0.729117 -0.213853 -0.368104 0.273119 0.300961 -0.099313 -0.979395 0.037599 0.674124 0.348906 0.397938 -0.847452 2.139107 -0.209554 0.075438 -1.212848 -1.029844 0.843322 0.147485 0.187304 -0.111055 -0.168819 0.209078 0.347740 1.150112 0.346891 0.765569 -0.380940
Nf5 0.416271 -0.363606 0.419620 -0.044626 0.549660 0.583087 0.123106 -0.284789 0.283299 0.463605 0.766281 -0.358910 -0.273296 0.568323 0.128089 0.244571 -0.371921 -1.371684 -0.368099 -0.145406 0.545875 -0.235494 0.022656 -0.372094 0.169778 -0.513004 -0.199408 -0.408071 0.098413 -0.172979 -0.280121 -0.822687
Bb2 0.100463 0.103169 0.527516 -0.609367 0.157768 0.662548 0.480401 0.344777 0.080659 -0.181349 1.132989 -0.130140 0.005132 -0.097575 0.144978 -0.051721 -0.061549 -0.921749 0.149126 -0.041898 -0.102038 -0.693914 0.980588 0.639731 0.383383 -0.561508 0.113605 0.137699 -0.468325 1.266368 0.195162 0.093675
Rd2 -0.054343 -0.467438 -0.700774 -0.596450 0.830731 -0.024368 -0.501708 0.384189 -0.428069 -0.036741 0.571828 0.175729 0.356969 -0.582079 0.123037 0.223514 0.549357 0.080076 -0.286977 0.245346 0.656808 0.480246 -0.351803 0.331540 0.587700 -0.499875 0.214494 0.386432 0.773614 0.253074 0.184072 -0.114907
Kh2 -0.286571 -0.693932 0.195048 -1.977406 1.244557 -0.313510 0.224667 0.480820 -0.211761 -0.084247 -0.229132 0.545570 0.017011 -0.372038 0.656886 1.203002 -0.696646 0.596170 0.126622 -0.978047 0.168456 -0.189726 -0.401387 0.419629 -0.699190 0.088694 -0.090052 -0.486126 0.000640 -0.096684 -0.551323 -0.602056
exd4 0.109861 -0.021718 0.432160 0.305983 -0.611275 0.675670 0.165088 0.285320 0.008788 0.148562 0.839704 0.122380 -0.168658 -0.256458 0.969897 0.714218 -0.275083 -1.068985 0.769733 -0.098292 0.226760 -0.252647 0.139525 0.507413 0.463606 -0.463199 -0.093624 0.035062 -0.414160 1.332065 0.858780 -0.340894
Kf3 0.541781 -0.321647 0.032315 -0.982079 1.387660 -0.783197 -0.356450 0.032707 0.321790 0.356802 -0.776344 0.248508 0.363654 0.307873 0.697768 -0.494413 1.930483 0.140239 -0.993402 -0.860801 -0.614841 0.256540 0.145917 -0.218329 0.045399 -0.203194 -0.658034 0.718458 0.324390 0.351070 0.419666 -0.316477
Nf4 0.314740 -0.181095 -0.429731 -0.425548 0.654723 0.818743 0.133671 0.232525 0.430531 0.224365 0.297104 -0.097712 -0.338884 0.071305 0.325045 0.438415 -0.842241 -1.117672 -0.313202 -0.383778 0.218119 0.254451 -0.285497 -0.858348 0.407100 -0.036531 0.778785 -0.180751 0.376145 0.267727 0.477143 0.173827
Qb3 -0.477505 0.289877 0.309559 0.052619 0.190848 0.405626 0.462471 0.031719 0.220462 -0.387846 1.113327 0.218424 0.024145 -0.003162 0.369968 0.729991 -1.009330 -0.476208 0.488690 0.162953 0.937598 -1.122121 -0.015571 0.423492 -0.120100 -0.994429 0.621616 0.617699 -0.291525 0.724357 0.001650 0.263824
Qf3 0.043084 -0.261244 0.246639 -0.190754 0.178546 0.243420 0.050242 0.057967 -0.088575 0.123573 0.649317 0.400362 -0.238647 -0.255246 0.112819 1.043833 -1.102439 -0.409958 -0.304726 -0.673917 1.040326 -1.125147 -0.144074 0.117794 0.182150 -0.855034 -0.116555 0.337942 -0.023276 -0.359250 0.028840 0.018710
Qa5 -0.213891 0.367447 0.013365 0.335956 -0.163954 1.068876 -0.227374 -0.300025 0.549384 -0.306073 0.928338 0.364474 -0.249515 -0.584589 0.477115 0.660848 -0.958239 -0.330457 0.135938 0.149171 0.927459 -1.181027 -0.343567 0.602115 0.035183 -0.875778 0.407878 0.318984 0.284811 1.074740 0.059004 0.470926
Bf6 0.308571 0.092733 0.281960 -0.087327 0.258534 0.261535 0.350458 0.083349 -0.120135 0.138728 1.086908 0.238437 0.142770 0.108186 -0.421224 0.403111 -0.071365 -0.499322 -0.530445 -0.359848 0.293866 -0.469854 0.990910 -0.058882 0.325064 -0.302749 -0.169572 -0.025375 0.488911 0.443192 0.151211 0.290232
Rd7 0.167528 -0.014594 -0.451569 0.111471 0.988838 -0.680963 0.125253 -0.027685 -0.348133 0.478856 1.224760 -0.116139 0.155616 -0.179486 0.004482 0.131502 0.423865 0.444266 -0.149150 -0.031753 0.976316 0.489688 0.303774 0.205923 0.239191 -0.086551 0.266775 0.311825 0.625567 0.157618 -0.047286 -0.614211
Kh7 1.066917 0.152151 0.534494 -1.307417 0.819140 -0.659665 0.313139 0.152308 -0.408401 -0.071421 0.312817 -0.027989 -0.282347 0.353866 0.876781 0.747829 -0.465234 0.922973 0.387781 -0.635304 0.533450 -0.580365 0.769058 0.166943 -0.146238 -0.208633 -0.229375 -1.130715 0.829866 -0.416858 -0.759795 0.150892
Kg8 1.281855 0.932352 0.126055 -0.455416 -0.049927 -0.795396 0.071059 -0.301017 -0.168053 0.823229 0.614504 -0.527392 0.267643 0.461288 0.743541 -0.262711 -0.576112 1.235283 -0.333480 -1.216475 1.046418 0.341272 0.383356 -0.425928 -0.183143 -0.715206 0.056648 -0.691438 0.308494 0.009364 -0.873939 0.704734
Rc7 -0.025751 0.312336 -0.178902 -0.147553 0.725579 -0.358546 0.112138 0.117286 -0.040356 -0.057444 1.235943 0.389194 -0.258226 0.257540 0.019105 -0.006036 0.506102 0.647021 0.472600 -0.051642 0.477882 1.001515 0.071726 -0.013278 -0.240268 -0.431564 0.393495 0.578948 0.782182 0.593567 -0.467194 -0.305820
Bb3 0.822937 -0.822032 0.285481 -0.160114 -0.197658 0.754236 0.454390 -0.064715 -0.166214 -0.322041 0.764268 -0.024525 0.137198 -0.580086 0.296747 -0.332240 0.041715 -0.902262 0.601235 0.051234 0.486611 0.119713 0.142299 0.152325 -0.168823 -0.587860 0.728414 0.135641 0.569028 0.974790 0.662562 -0.104632
Ng5 0.074345 0.247796 0.062211 -0.006678 0.070946 0.371056 0.543424 0.160021 -0.271133 0.060924 0.706051 -0.302441 0.409161 0.184314 0.159836 0.084030 -1.099115 -1.344684 -0.251839 -0.961897 0.097424 0.477896 0.114906 -0.153865 0.076998 -0.970227 0.752976 -0.527668 -0.244686 0.205451 -0.022968 0.632603
Ke6 0.262937 -0.463778 0.054664 0.217633 0.643181 -0.858622 -0.361948 0.458518 0.595430 0.134358 0.158312 0.306494 0.355786 0.286965 -0.132604 -1.315172 2.461317 -0.025415 -0.856968 -0.988655 -0.331216 0.347198 1.140084 -0.172563 -0.223845 0.061336 -0.006400 -0.457875 0.368120 0.201601 -0.335087 -0.857086
Ng4 0.377556 0.132618 -0.161576 -0.728102 -0.120250 0.704443 -0.617962 0.432014 -0.598803 0.058581 0.572552 -0.200772 -0.152246 0.113955 -0.248079 -0.130489 -0.923237 -1.360350 -0.496931 -0.742983 0.523262 -0.303467 0.510920 -0.085588 -0.287925 -0.690767 -0.298724 0.309437 -0.426803 0.184616 0.135307 -0.234158
dxe4 0.036913 0.141365 0.129283 -0.102894 -0.280416 -0.248939 0.105456 -0.497525 -0.172817 -0.696912 0.396528 0.575271 0.031374 -0.427472 -0.036191 0.330772 -0.734317 -1.821927 0.293934 -0.315967 0.300803 -0.218241 0.519998 0.629597 0.208336 -1.399844 -0.005700 -0.478851 -0.546120 0.593331 0.443290 0.161416
Rad1 -0.036775 -1.138980 -0.563965 0.546590 0.306011 0.177403 -0.056424 0.399433 -0.647346 0.113216 2.164304 -0.351255 -0.337227 -0.717668 0.294694 0.551048 -1.575976 -1.543829 -0.411151 0.034831 0.908172 -0.608776 0.554736 0.259588 0.535205 -0.539748 -0.131763 0.052586 0.463939 0.363791 0.479230 -0.274567
Bc6 0.245909 -0.659550 -0.116551 0.225041 0.547413 0.483522 0.177936 0.263970 -0.186634 -0.526126 0.755204 0.052517 -0.029651 -0.249060 -0.359059 0.208332 0.018345 -0.544739 0.167544 -0.465256 0.314538 0.152291 -0.341239 0.236427 -0.601799 -0.214860 0.179728 0.357435 0.594077 0.704805 0.500953 -0.108329
Ne3 0.569820 -0.175158 -0.098291 -0.829781 0.642477 0.740150 -0.198486 0.874539 -0.043604 0.118256 0.329593 -0.236091 -0.119648 0.310560 -0.316354 -0.380121 -0.148875 -1.206451 -0.118653 0.160205 0.800326 -0.432843 -0.025618 -0.277854 -0.378903 -0.186540 0.150220 0.372424 0.558375 -0.116212 0.069124 -0.993343
Nb3 -0.773728 -0.523326 0.082159 -0.142243 -0.040848 1.240676 0.119955 -0.090365 0.246370 -0.472391 1.015894 -0.042342 -0.225956 0.912795 0.027170 0.126004 0.042120 -0.824900 0.199405 0.268256 0.084937 -0.201127 0.301271 0.590685 0.100864 -0.662106 0.326284 0.235369 0.555600 1.222981 0.627450 -0.080720
bxc3 0.183632 0.757011 0.872799 0.206072 -0.769097 0.380856 0.359338 -0.290370 0.662475 0.123950 0.365471 0.378573 0.340060 -1.215426 -0.084216 0.536980 -0.179684 -1.029932 0.061211 0.293640 0.702552 -0.407301 -0.149845 0.458112 -0.055219 -0.660402 0.103150 0.049833 0.632676 1.334561 0.116859 0.102593
Qe3 -0.353539 -0.229734 -0.378260 -0.450411 -0.005684 0.474972 -0.074534 0.236860 0.059262 -0.156543 0.490903 0.260813 -0.022873 -0.092312 0.177136 1.026786 -1.153464 -0.025217 0.317329 -0.697849 1.012253 -0.609552 -0.419767 0.258380 0.016899 -0.928404 0.329629 0.118961 0.700703 -0.364962 0.099769 0.047409
Bxf3 -0.613333 0.245684 0.841402 0.172009 -0.291167 -0.127406 0.558362 0.302800 -0.927688 0.134160 0.678863 -0.409094 0.397628 -0.620461 0.169960 1.269983 -0.848753 -1.450487 0.479762 -1.063974 -0.373069 -0.094046 -0.002377 0.511967 0.088916 -0.268946 -0.023821 0.837653 0.110478 1.092473 0.631015 -0.081300
Nd3 -0.713329 0.404975 -0.881154 -1.031071 0.763611 0.610917 -0.002082 0.267975 0.468936 -0.159741 0.715843 -0.019094 -0.208947 0.821413 -0.511286 -0.120653 -0.046541 -0.460354 -0.554039 -0.138468 -0.121053 0.202109 0.318033 -0.557406 0.147226 -0.531010 0.429610 -0.026340 0.017120 0.820717 0.532539 0.111045
Bf3 0.357675 -0.536792 -0.279858 -0.127176 0.693315 0.436141 0.171104 0.199975 -0.286383 -0.426470 0.350569 0.232817 0.133828 -0.339411 -0.354705 0.328343 -0.197222 -0.893221 0.219387 -0.747590 0.003531 0.039149 -0.301114 0.149420 -0.405506 -0.285509 0.016263 0.710496 0.616770 0.418719 0.597262 -0.173766
Bd4 -0.025109 0.012465 -0.439346 -0.659869 0.129349 0.336705 -0.030242 -0.052542 -0.227437 0.172141 0.787035 0.190207 0.188304 -0.105118 -0.275163 0.471531 0.633011 -0.319763 -0.194341 -0.196172 0.458425 -0.533525 0.816345 -0.335154 -0.102978 -0.092659 -0.257196 0.069035 0.122535 0.723659 0.071233 -0.177645
Bxd5 0.676853 -0.401791 -0.317902 0.545570 0.015688 -0.072122 0.591369 0.626405 0.003616 0.079792 1.018679 0.677552 -0.051018 -0.671571 0.374456 0.516941 0.068529 -1.064930 0.415294 0.368839 1.082868 -0.513168 -0.572841 -0.536419 -0.222629 -0.570641 -0.255552 0.027026 0.321592 0.565724 0.018128 -0.043653
Nbd2 0.056831 -0.139375 2.005352 -0.014600 -0.464787 0.603480 0.269725 -0.310831 -0.144582 -0.734629 0.960526 -0.422291 -0.642750 0.337823 0.361725 -0.034563 -1.287833 -1.984729 0.566173 -0.288228 0.072858 -0.322540 0.747854 1.545191 0.342482 -0.826668 0.638818 -0.074618 -1.405128 1.845986 0.470568 -0.155342
axb5 -0.190168 0.026103 -0.055948 0.350800 0.469289 0.699346 0.283341 0.599417 0.244997 -0.093128 0.982202 -0.091264 -0.221467 0.345046 0.004092 0.374194 0.447367 -0.762696 0.015339 0.163855 0.498059 -0.416719 0.307845 0.682061 -0.906243 0.123996 -0.688693 0.899144 0.093546 0.624849 -0.328747 -0.086738
Qf6 0.229680 -0.079231 0.142397 -0.002809 0.155096 0.238218 0.197364 0.024619 0.047817 0.018707 0.711411 0.050942 -0.046493 -0.067265 0.124902 1.169758 -1.312228 0.049665 0.132246 -1.053869 0.713628 -0.543334 -0.419730 -0.088657 0.063732 -0.879614 -0.016337 -0.086710 0.329896 -0.208419 0.340441 0.140653
dxc5 -0.874900 0.062775 -0.198713 0.729525 -0.009872 0.324042 0.134212 -0.742831 0.071605 -0.727329 1.183872 0.126621 -0.511143 -0.112311 0.165029 0.474274 -0.546175 -1.081822 0.286677 -0.336905 0.052693 0.057965 0.227721 0.831374 -0.235820 -1.025241 0.257026 -0.234480 -0.191370 1.264851 0.571018 0.122030
Ne6 -0.022355 -0.341699 -0.989400 -0.105726 0.822252 0.558966 0.711882 0.130667 0.050000 0.423301 0.931598 -0.441583 0.225303 0.615168 0.475633 0.278261 -0.255140 -0.744419 -0.149245 -0.422478 0.150359 0.059875 0.605474 -0.277967 0.186718 0.166358 0.466350 -0.689967 0.570313 0.182676 0.124045 0.185803
Kd7 0.049223 -0.711580 0.560208 1.555780 0.121388 0.235392 -0.636358 0.835594 1.137802 -0.396729 0.178327 0.509762 0.995084 0.810834 -0.729585 -0.204123 1.926063 0.015037 -0.622349 -0.950207 0.162181 -0.091419 0.128430 -0.608774 0.093290 0.417030 0.225654 -0.262141 -0.352338 0.095477 -0.503173 0.044562
Re2 0.163446 -0.425719 -0.130962 -1.149540 0.753934 0.024415 -0.489083 0.182135 -0.127725 -0.126114 0.522333 -0.152716 0.697667 -0.199982 -0.518633 0.751723 0.491666 0.196631 -0.467229 0.042603 0.620139 0.563618 0.026295 -0.098748 0.789600 -0.553766 -0.434090 0.474485 -0.151526 -0.065147 0.060972 0.073919
Rf8 0.462221 0.350560 -0.477894 -0.244015 0.084959 -0.190947 -0.067659 0.127621 -0.147787 0.053730 0.325327 -0.092245 0.638354 0.274705 -0.325709 0.507423 -0.212821 -0.277792 0.409868 -0.928970 0.920320 0.728512 0.722918 -0.071805 -0.207635 -0.023107 0.182706 -0.297704 -0.054435 -0.535933 -0.631498 0.014770
Rc2 -0.561532 0.011558 -0.220782 -1.034316 0.866538 0.000464 -0.393793 0.253242 -0.153118 -0.361083 0.665124 0.759514 0.081353 0.102765 0.162881 0.223152 0.930884 0.290088 0.010853 0.473324 0.089243 0.560004 -0.024669 0.051282 0.323712 -0.718981 0.190088 0.659847 0.518191 0.592232 -0.588782 0.075714
Bxe4 -0.081463 0.038866 -0.543858 -0.215023 0.016765 -0.672843 0.309132 -0.308910 -0.345841 -0.727384 0.475797 0.466248 0.151944 -0.610215 -0.438195 0.587021 -0.390984 -1.563070 0.078896 -0.219164 0.513209 -0.057653 -0.206916 0.011532 -0.265095 -1.517714 -0.327003 -0.391469 -0.007463 0.370119 0.235002 0.460122
Qd6 -0.135982 -0.191669 0.041407 -0.047350 -0.038229 0.216239 0.061739 0.156565 0.479969 -0.454291 1.055028 0.033900 -0.018692 0.023451 0.135215 1.158767 -1.148766 0.266323 0.636985 -0.675124 1.015764 -0.428326 -0.254332 -0.292776 -0.148267 -0.794516 0.324260 0.157928 -0.196413 0.390912 0.106071 0.210415
Kd3 0.510102 0.534697 -0.227654 -0.276012 0.476074 0.206060 -0.083103 -0.165428 0.676405 -0.163965 -0.861368 -0.239344 0.831822 0.830537 -0.592192 -0.563160 3.028162 -0.322568 0.338259 -0.586945 -0.524511 0.012321 0.755587 -0.332213 0.149110 0.016288 -0.124783 0.839895 0.240330 0.207073 0.402933 -0.251538
Re7 0.734353 -0.063375 -0.503524 -0.224308 0.963118 -0.603117 0.208249 -0.272577 0.139180 0.031176 0.913296 -0.387818 0.478248 -0.106939 -0.500557 0.499667 -0.070304 0.527043 0.172585 -0.576243 0.800876 1.171286 0.109904 -0.162796 0.114676 -0.207289 -0.094745 0.151957 -0.036241 0.053385 0.066724 -0.079955
Bxe5 -0.322165 -0.069461 -0.032594 -0.022965 -0.707738 -0.042334 -0.331865 -0.187189 -1.056232 -0.136492 1.310896 -0.334377 -0.040418 -0.122808 -0.230699 0.850185 -0.287598 -0.445316 -0.171265 -0.755562 0.442957 -0.080424 0.891484 -0.652887 -0.191187 -0.513935 -0.202757 0.114596 -0.033193 0.848254 0.554365 0.270876
Kg1 -0.497184 -0.426756 -0.236112 -1.680673 0.743676 -0.345264 -1.083220 0.462859 -0.788475 0.134557 -0.878726 0.568424 0.556426 0.179375 0.642843 0.612548 -0.284568 0.169430 -0.563830 -1.140618 0.463438 0.193841 -1.071495 -0.001919 -0.044871 -0.445452 -0.000090 0.737762 -0.961742 -0.109827 -0.408961 -0.173850
Kg3 0.324107 -0.480787 0.032442 -1.582834 0.852488 -0.579536 -0.419447 0.622809 0.158642 0.383676 -1.163210 -0.163869 0.633299 0.140198 1.380669 -0.097615 0.977142 0.592314 -0.634530 -1.271262 -0.085788 0.825544 -0.040456 -0.051771 -0.585155 0.079259 -0.004984 0.553663 0.146013 0.030671 0.261894 -0.027285
Ra8 0.039824 0.371043 0.040241 -0.190224 1.049819 0.259267 0.520884 0.181613 -0.125463 -0.192055 0.448156 0.529240 0.159173 0.972028 0.070841 0.118162 0.944662 0.379746 -0.225149 0.318538 0.485041 0.639538 0.329676 0.802499 -1.152535 0.275805 -0.125847 0.359400 0.590124 0.700180 -0.232999 0.383669
Ng3 0.512839 -0.613779 -0.174190 -0.539418 0.326763 0.948673 -0.141048 -0.653436 0.772466 -0.178023 0.067192 0.258342 -0.270354 0.262574 0.161635 0.473664 -0.964290 -1.749274 -0.121232 -0.246868 0.411964 -0.099281 0.433118 0.128525 0.198567 -0.478276 -0.209966 -0.208615 0.346665 -0.155456 0.005481 -0.094341
Rf1 -0.005090 -0.082492 -0.490765 -1.222572 -0.177632 0.402787 -0.450477 0.425675 -0.236410 -0.031109 -0.093698 0.020622 0.713636 -0.008061 -0.461897 0.682949 0.058744 -0.302270 0.073473 -0.715422 0.726700 0.537234 0.425027 0.093932 0.006968 -0.177139 -0.117793 -0.186039 0.028885 -0.509288 -0.529217 -0.056886
Nd6 0.061163 -0.200634 -0.253727 -0.073836 0.913920 0.175561 0.171094 -0.211835 -0.040445 -0.434734 1.181241 -0.958364 -0.155004 0.741786 -0.480331 -0.583817 0.156974 -0.753448 -0.013119 -0.153315 0.103572 0.046515 -0.146328 -0.526095 -0.476991 -0.762669 0.201358 0.124743 0.142723 0.403670 -0.574398 -0.140366
Bf8 0.250606 -0.026716 0.170636 -0.311129 0.667220 0.416874 0.417118 -0.127538 -0.074757 -0.056903 1.299896 0.509193 -0.208880 0.857934 -0.416282 -0.081076 -0.232900 -0.162543 -0.324894 0.200756 0.580428 -0.736529 1.058986 0.286255 0.156119 -0.204680 0.188925 -0.040924 0.721092 0.428030 -0.463739 0.169871
Kg6 0.903146 -0.394104 0.155158 -0.888782 0.691839 -1.196948 -0.196959 0.150055 0.525074 0.445865 -0.293233 0.167026 0.237312 0.639069 1.177779 -0.668687 1.077630 0.830846 -0.823733 -1.066796 0.475952 0.758024 0.964670 -0.091767 -0.624865 -0.084086 -0.193260 -0.568816 0.184642 -0.166969 -0.407937 -0.146336
Kd2 0.315209 0.730631 -0.536091 0.016434 -0.235953 0.386601 0.155378 -0.600881 1.141530 0.297753 -1.253196 0.113451 1.131907 0.647949 -0.724047 -0.242966 1.800249 -0.177981 0.578308 -0.904745 -0.095221 0.039736 -0.396914 -0.190550 0.127153 -0.316932 -0.058086 0.695317 0.910908 0.318218 0.945220 -0.394077
Kd6 0.376605 -0.737441 -0.238980 0.467534 0.292949 0.118317 -0.150393 0.773634 1.337259 -0.610717 -0.077876 0.190954 0.441105 0.509699 -0.939821 -0.940641 2.397689 0.189741 0.093948 -1.264404 -0.439881 1.240306 0.077843 -0.542999 -0.313131 0.385888 0.463930 -0.401675 -0.206270 0.693803 0.244301 -0.406371
Bxc4 0.136657 0.337300 0.334767 -0.067083 -0.514059 0.137521 -0.225792 0.074290 -0.285109 -0.648857 0.661860 -0.211450 -0.449785 -0.989383 -0.236619 -0.148369 -0.056909 -1.148149 0.173740 0.386914 0.679101 -0.438174 0.078303 -0.085464 -0.599353 -0.665102 0.476749 0.881348 0.535571 1.264882 0.141798 0.388764
Bxd4 -0.407621 -0.150115 -0.210581 -0.036090 -0.628769 0.723869 0.130467 0.519226 -0.445914 0.645264 1.050435 0.180564 0.087252 -0.111443 0.685734 1.224840 0.231025 -0.544563 0.268633 0.009360 0.496133 -0.461455 0.088938 -0.242273 0.406338 -0.218026 -0.432336 0.046987 0.327798 1.011413 0.842748 -0.422429
Nb5 -0.240031 0.456278 -0.229381 0.715475 0.603207 1.171054 0.343491 0.221562 -0.000250 0.266237 1.321628 -0.391142 0.230309 0.285085 0.338832 -0.042019 0.339668 -0.966125 0.181123 0.027750 -0.150841 -0.789375 -0.099706 -0.075946 -0.302868 -0.227339 -0.035976 0.830224 0.021423 0.949840 -0.558449 -0.075294
Qd8 0.200893 0.124798 0.374726 0.174210 0.365082 0.780622 0.201678 0.251588 0.267586 -0.318465 1.059219 0.424378 -0.267498 0.318795 0.155527 0.701535 -1.551762 -0.069096 0.060126 -0.532944 0.782822 -0.760443 0.124695 0.332076 -0.667811 -0.473448 0.034710 0.172080 0.070403 -0.010127 -0.617579 0.433199
Be4 0.297989 -0.138870 0.296219 -0.198506 0.349405 -0.135104 0.304027 0.481102 -0.164469 -0.344562 0.365620 0.166547 0.038403 -0.146848 -0.380926 0.352944 0.186084 -0.776262 0.344879 -0.432594 0.346541 0.404106 -0.402108 -0.209701 0.006809 -0.576669 0.448451 -0.181411 0.356797 0.411050 0.559942 -0.322515
fxe5 -0.301476 -0.282879 0.058321 0.171251 -0.913448 0.489461 -0.508491 0.175330 -0.554195 -0.180482 1.077449 -0.559351 0.281353 -0.030468 -0.197228 0.456988 -0.095365 -0.588535 0.033736 -0.775021 0.223141 0.210295 0.850206 -0.242113 -0.449490 -0.422630 -0.257299 -0.079293 0.364408 0.594902 0.363742 -0.086342
Nh5 0.573073 -0.282697 -0.324491 -0.551609 0.525551 1.157467 -0.083844 -0.324542 0.338475 -0.210169 0.527879 0.338503 -0.621995 -0.197542 -0.061129 0.677747 -1.367822 -1.554425 -0.216284 -0.527560 0.059294 -0.249874 0.388655 -0.238454 0.100462 -0.240907 -0.125523 -0.396913 0.399573 0.168400 -0.080767 0.169871
dxc4 -0.076253 0.513788 1.063887 -0.066211 -0.543335 0.060104 -0.218191 0.291721 -0.043608 -0.578519 0.740606 -0.227071 -0.577052 -0.763976 -0.204218 0.020018 -0.312695 -1.158135 0.157128 0.074108 0.442488 -0.318122 0.351609 0.540939 -0.016289 -0.733571 0.481349 0.597367 -0.394011 1.346594 0.250672 0.126757
Bd5 0.309236 -0.441542 -0.054947 -0.044384 0.391094 -0.073737 0.294890 0.364919 -0.471494 -0.415840 0.632870 -0.109530 0.275881 -0.136375 -0.140229 0.230839 0.444576 -0.499351 0.428478 -0.330429 0.454818 0.420196 -0.305644 -0.134506 -0.237413 -0.446541 0.414588 -0.213053 0.322588 0.586644 0.326790 -0.121310
axb4 -0.262145 0.416816 -0.417282 -0.069062 0.427348 0.699115 0.595245 0.957278 0.644363 -0.538690 0.515126 0.254609 0.151429 0.338643 -0.116448 0.258515 0.265582 -0.522485 0.146694 0.324737 0.247840 0.320152 -0.071437 0.863507 -0.400591 -0.507824 -0.029841 -0.158898 0.736455 0.780105 0.627062 0.417294
Rd3 -0.458569 -0.669477 -0.001480 -0.631890 0.579606 -0.344321 -0.115788 -0.049823 0.027885 0.319480 0.592814 0.016063 0.306577 -0.668951 0.001214 0.394912 0.930162 -0.018460 -0.544360 0.244761 0.739943 0.408635 0.037852 0.378402 0.496631 -0.491831 0.102758 0.560085 0.897422 0.000381 -0.241810 -0.483042
Ra1 -0.204475 0.180446 0.337187 -0.721321 0.953343 0.500483 0.406258 0.500961 0.020840 -0.315183 0.016788 0.594331 0.369844 0.769507 -0.040201 0.144318 0.986883 0.197938 -0.462966 0.494600 0.404571 0.728999 -0.082254 0.943780 -1.065103 0.124659 -0.141728 0.344891 0.513444 0.762583 -0.095151 0.337381
Bc2 0.676375 -0.489697 0.345522 -0.581937 0.248328 0.965257 0.432043 -0.253131 0.076711 -0.720756 0.451142 -0.197834 0.097881 -0.015814 -0.586532 -0.105178 -0.305864 -0.730171 0.270245 -0.308888 0.291116 0.409668 0.204087 0.200227 -0.601191 -0.687469 0.566252 -0.121608 0.733844 0.615848 1.111893 -0.144616
Bh6 0.368382 0.425404 -0.115096 -0.513854 0.036560 0.896350 0.135264 0.280921 0.148224 0.166177 0.728788 0.270109 0.221733 0.112424 -0.251553 0.353378 -0.837065 -1.126971 0.040430 -0.226750 0.405738 -0.618566 0.830311 -0.033757 0.073958 -0.230550 -0.086542 -0.410280 0.622500 0.228931 -0.388449 -0.052703
Na5 -0.394825 -0.019383 0.655708 0.322814 0.244398 1.168006 -0.305091 0.102565 -0.183263 -0.572351 1.285700 -0.306898 -0.272841 0.426757 -0.183709 -0.019421 -0.137661 -1.064002 0.169760 0.483983 0.377421 -0.485907 0.254871 0.114719 -0.251220 -0.466150 0.759195 0.443081 0.630609 1.044821 0.342276 -0.488389
Be5 0.166626 -0.205377 -0.351981 -0.395480 0.385285 0.080493 0.104446 -0.355540 -0.279853 0.006161 0.836303 0.297964 0.016074 -0.232953 -0.224949 0.596932 0.545467 -0.413593 -0.290371 -0.445406 0.254624 -0.403183 0.942191 -0.557927 0.190217 -0.122295 -0.131426 -0.041360 0.025061 0.398977 -0.079910 0.176537
Nb4 -0.230986 0.635932 -0.465842 0.196873 0.538384 1.010928 0.396274 0.956863 0.493248 0.150325 1.016211 0.168240 0.042493 0.445411 0.202959 -0.310925 0.158136 -0.920754 -0.021516 0.464435 0.168530 -0.296108 -0.502305 0.068854 0.297792 -0.725116 0.476799 0.013869 0.070699 1.170622 0.576723 -0.115899
Ng6 0.250142 -0.269706 0.850878 -0.090979 0.183320 0.700528 0.112610 0.233078 0.395124 0.334552 0.720877 -0.256676 -0.200686 0.215883 0.037487 0.595781 -1.165687 -1.197703 -0.359869 -0.713158 0.344558 0.196287 0.625547 -0.582038 0.141204 0.233077 0.691017 0.074833 0.407201 0.094160 0.213724 -0.333032
Bc3 -0.021687 0.190580 0.412928 -0.453357 0.669875 0.231000 0.259911 0.011285 -0.029441 -0.101712 0.774159 0.098927 0.563655 0.314123 -0.492826 0.367696 0.470643 -0.325100 -0.618677 0.121881 0.339593 -0.518628 0.886775 0.030420 0.175490 -0.332423 0.002989 0.043776 0.246310 0.737215 0.595293 0.006102
Qxd4 -0.220605 -0.091475 0.016905 0.307498 -1.036267 0.407961 -0.159796 0.538389 -0.153585 0.248541 0.744970 0.132741 0.038259 -0.577664 0.902632 1.068760 -0.447173 -0.179163 0.633569 -0.564506 0.761376 -0.472596 -0.734557 0.059741 0.178941 -0.802980 -0.135272 0.029398 -0.167343 1.012866 0.541371 -0.057825
Qxd5 0.286275 0.160472 0.171622 0.443616 -0.348632 -0.358294 0.305797 0.119643 -0.048088 0.266585 0.769165 0.457886 0.194161 -0.609577 0.831979 0.889037 0.005607 -0.435024 0.586840 -0.055560 1.122481 -1.070059 -0.270396 -0.033090 0.302510 -0.771594 -0.151760 -0.037474 -0.743803 0.664849 -0.084577 -0.092636
bxc6 -0.137747 -0.221508 0.400319 1.310674 0.247276 0.200532 -0.494143 0.035898 -0.418832 -0.775498 0.855826 0.377360 -0.027850 0.203479 0.508153 1.214516 -0.270696 -0.903937 0.722718 -0.211509 0.276524 -0.206258 -0.014150 0.299423 -0.033231 0.151239 0.077925 0.352430 -0.269931 1.308839 0.750341 -0.062469
exf5 0.535909 -0.289166 0.248960 -0.008001 -0.018651 0.910847 -0.077015 0.026341 0.517502 0.336276 0.735079 -0.144185 -0.143703 0.154377 0.081498 0.629421 -0.310407 -1.354962 -0.044547 -0.198978 0.465723 -0.398846 0.410037 -0.314987 -0.223313 -0.334437 -0.864263 -0.710748 0.655155 -0.267313 -0.352215 -0.927231
Rg8 0.621169 0.203700 0.501235 0.521471 0.271688 0.686178 -0.050075 0.162430 0.078509 0.230128 0.093878 0.653456 -0.512490 -0.253598 -0.678560 0.625365 0.085080 -0.477812 -0.304098 -1.479034 -0.160826 0.475752 0.258026 0.284112 0.335011 0.245714 -0.036616 -0.679504 0.581604 -0.798420 -0.465496 -0.306348
Re3 -0.030377 -0.750718 0.029268 -1.061351 0.457642 -0.039637 -0.054470 -0.039439 0.478548 0.052618 0.425835 -0.528412 0.394992 -0.583426 -0.381710 0.881804 0.240317 0.106914 -0.331412 -0.341778 0.552524 1.194578 -0.284077 0.086855 0.472822 -0.492417 -0.239924 0.307893 0.310713 0.021733 0.095029 -0.078776
Rf7 0.559891 0.677630 -0.455244 -0.091853 0.602496 -0.134317 0.213813 0.051706 0.330729 0.278180 0.468474 0.018120 0.441450 0.220752 -0.428127 0.846645 -0.274939 -0.174735 0.368642 -0.835215 0.782093 0.878024 0.789977 -0.037235 0.039090 0.259537 0.021151 -0.318711 0.066718 -0.629441 -0.596041 -0.155112
Ba6 -0.235784 0.356488 -0.183951 -0.031504 0.239826 0.826383 -0.426879 0.190033 0.390854 -0.676917 0.797366 -0.007304 -0.170148 0.260386 -0.060759 -0.047946 -0.514867 -0.901127 0.556062 0.101649 0.082080 -0.116796 -0.014287 0.226935 -0.198135 -0.344731 0.437012 0.531381 0.334537 1.379057 0.014494 0.017996
Qg4 -0.035101 -0.116934 0.313717 -0.252217 -0.169964 0.160627 0.143683 0.043646 -0.096867 0.351149 0.717342 0.080653 0.181466 0.046794 0.250446 1.205923 -1.361417 -0.337096 0.124502 -0.851661 0.933599 -0.611340 0.048482 -0.062372 0.354774 -0.688601 0.090767 -0.103293 0.148684 -0.459851 -0.263190 -0.101736
Rfd1 -0.762352 -0.827958 -0.508763 0.514899 0.804842 -0.007865 0.023359 0.711848 -0.790938 -0.229120 2.416061 0.214633 -0.790969 -0.786373 0.716398 0.505539 -1.572414 -1.082075 -0.071235 0.528661 0.613951 -0.658572 0.176022 0.688881 0.141135 -0.545183 0.221935 0.498458 0.648868 0.940631 0.038450 -0.181495
Ra7 0.271270 0.813716 0.070282 -0.052606 1.040693 0.186855 0.430980 -0.016121 -0.065180 0.048022 0.772523 0.234762 0.142948 0.413381 0.245662 -0.119477 0.646380 0.352302 -0.230264 0.228479 0.462646 1.229104 0.418180 0.607327 -1.219560 0.024905 0.032122 0.247403 0.348514 0.618174 -0.500243 0.142256
Rad8 -0.190401 -0.693556 -0.361430 -0.353256 0.231789 -0.138537 0.369919 0.084119 -0.530942 0.266560 1.472368 -0.366054 0.104005 -0.887364 -0.183008 0.631807 -1.581322 -1.465273 -0.131024 0.236458 0.809967 -0.287014 0.225972 0.164112 0.711591 -0.985194 0.136722 0.181002 0.876488 0.263681 1.112281 -0.672477
fxe4 -0.023446 0.473170 -0.946882 -0.200473 0.386505 -0.449435 0.213868 -0.255940 0.118565 -0.693582 0.057551 0.502752 0.469548 -0.272410 -0.341375 0.390789 -0.103274 -1.702504 0.315332 -0.113828 0.238148 -0.237787 0.417185 0.011020 -0.372152 -0.890287 -0.291957 -0.219387 -0.034968 0.201947 0.089328 0.285888
Qh4 0.261168 0.024746 -0.082349 -0.449529 -0.024262 0.558107 0.144659 0.016512 -0.430629 0.035382 0.635745 0.446902 0.000289 -0.492443 -0.241830 1.246308 -1.527366 -0.708688 0.172993 -0.912745 0.561504 -0.656983 -0.157564 -0.083065 0.173655 -0.888546 -0.261008 -0.298640 0.145781 -0.591845 -0.393504 0.093513
Bxc6 0.146546 -0.270100 0.533491 1.115285 -0.081300 0.185291 -0.512947 0.522097 -0.849268 -0.636460 1.079399 0.166344 -0.173080 0.158716 0.400236 0.853432 -0.093475 -0.583654 0.838823 -0.216046 0.401812 -0.100287 -0.260206 0.170843 0.003175 0.073759 0.134753 0.227978 0.046886 1.435614 0.762406 -0.194315
Ke4 0.308334 -0.005220 0.194760 -0.652563 0.879065 -0.533916 -0.149958 0.255285 0.397290 0.503533 -0.690934 -0.711015 0.183017 0.558777 0.544479 -0.905718 3.053379 -0.364184 -0.221162 -1.015377 -0.746526 0.592917 1.002425 -0.039927 0.273028 0.488589 0.239337 -0.133918 0.326000 0.260445 -0.205065 -0.876461
Ke5 0.778345 -0.347602 -0.360416 -0.414628 1.069158 -0.645357 -0.229155 0.637903 0.817733 -0.152742 -0.922578 -0.419951 0.210288 -0.177841 0.406267 -1.190552 2.573010 -0.426067 -0.026060 -1.122468 -0.752825 1.209582 0.206097 -0.028908 -0.268088 0.562896 0.497751 -0.507273 0.401555 0.468482 -0.251727 -0.542669
Bxc5 -1.195340 -0.313962 -0.493325 0.450947 -0.019464 0.217850 0.095377 -0.929321 -0.387052 -0.425881 1.288753 0.263763 -0.368458 0.287056 0.112649 0.500412 0.198264 -0.718635 0.002245 -0.008753 0.132866 -0.236744 0.394050 0.371191 -0.173858 -0.838320 0.120444 -0.560898 -0.111654 1.187216 0.494840 -0.180510
Bh4 0.478891 -0.391030 0.492696 -0.259860 0.305396 0.720002 0.397621 -0.601999 0.015217 -0.157450 0.602438 0.566751 0.088292 -0.313844 -0.478803 0.451771 -0.494633 -1.482097 -0.136306 -0.524554 0.096225 -0.523238 1.028402 0.312814 0.362385 -0.217573 0.071031 0.035570 -0.384357 0.254100 -0.158204 0.004632
Rac8 -0.550427 -0.125974 -0.344389 -0.294852 -0.496936 0.484134 0.312405 0.268693 0.206177 0.054935 1.917092 0.625342 -0.548881 -0.280465 0.101231 0.442788 -0.863288 -0.876840 0.762593 0.468991 0.108415 -0.218579 -0.012423 -0.366879 0.625548 -1.426802 -0.151783 1.093748 1.237971 0.922470 0.052649 -0.093861
Bf1 -0.137840 -0.410256 -0.302511 -0.759220 0.965964 0.927078 0.178952 0.451674 -0.134738 -0.588090 0.337047 0.280390 -0.043096 0.402852 -0.215055 0.147952 -0.577789 -0.362383 0.423154 -0.306374 -0.107034 0.100138 -0.481993 0.362695 -0.463354 -0.026964 0.477946 0.893076 0.759329 0.648916 0.165308 0.087831
Na4 -0.596865 0.105080 -0.658079 0.140054 0.405114 1.148030 -0.016686 -0.502662 0.231321 -0.420588 1.132721 0.058562 -0.033690 -0.183838 -0.383652 0.032919 -0.312871 -0.854213 -0.062032 0.197644 0.135193 -0.493507 0.353305 -0.004598 -0.554945 -0.125196 0.611716 0.555207 0.877093 1.345293 0.114811 0.134832
Rac1 -0.753448 -0.250099 0.005307 0.413407 0.080062 0.092209 0.114082 0.861948 0.014434 -0.456677 2.263059 0.876346 -0.562499 0.196192 0.177053 0.334498 -1.117255 -1.167464 0.686932 0.344079 0.036764 -0.288448 0.120095 -0.540445 0.428238 -1.113070 0.226436 0.861351 0.261168 1.027076 -0.176475 -0.171088
gxf5 0.670562 -0.401694 0.096682 -0.211841 0.299535 0.527220 -0.046543 -0.242785 0.716958 0.249563 0.380501 -0.127342 -0.056006 0.364639 0.027712 0.395418 0.257598 -0.965100 -0.214616 -0.217267 0.253305 -0.107314 0.422992 -0.244211 -0.177416 -0.227432 -0.971014 -0.922677 0.987187 -0.259486 -0.368546 -0.696621
Rd6 0.325854 -0.382032 -0.614855 0.243456 0.949090 -0.939218 -0.173930 0.144567 -0.189852 -0.076794 0.860206 -0.313132 0.002101 -0.257650 0.310992 0.306691 0.472787 0.319279 0.153755 -0.135854 0.817068 1.033009 0.260458 0.211406 0.308000 0.075896 0.417919 0.293036 1.022598 0.166132 0.252369 -0.110171
Bg3 -0.112509 -0.642344 0.341545 -0.234442 0.401234 0.428158 0.244085 -0.522929 -0.052063 -0.201891 0.722497 0.373314 0.178055 0.053173 -0.310544 0.734538 -0.168032 -1.269589 -0.327254 -0.375194 0.171315 -0.324372 1.043766 -0.362540 0.443444 -0.139278 0.325288 0.469447 -0.571485 0.358545 0.239552 0.155500
Qh5 0.207583 0.389091 0.554835 -0.133986 -0.128430 0.368957 0.158475 0.308830 -0.586218 0.204191 0.897579 0.091197 -0.130956 -0.371885 -0.176123 1.246891 -1.530068 -0.707863 0.194522 -1.127253 0.508722 -0.612390 0.060364 -0.157341 0.342355 -0.790490 -0.032615 -0.268538 -0.010597 -0.552061 -0.258325 -0.191128
Rfe1 0.183838 -1.035898 0.255464 0.093055 0.597743 0.088976 -0.037184 0.383139 0.067067 -0.559163 2.093251 -0.125422 0.176569 -0.331828 -0.245184 1.285254 -1.927456 -1.046503 -0.284780 0.262824 0.778487 0.043682 -0.030746 -0.499533 0.368984 -0.693369 -0.534198 0.043105 -0.696036 0.933980 0.394068 0.324639
Qc6 -0.451257 -0.148449 -0.149700 0.152963 0.435117 0.055519 0.208640 0.070069 0.021121 -0.067774 1.054406 -0.068006 -0.107013 -0.037643 0.022602 0.918175 -0.597027 0.450881 -0.286609 -0.319221 1.344010 -1.370788 -0.139782 0.318576 -0.350422 -0.631923 0.084401 0.282777 -0.010839 -0.064598 -0.166627 0.167829
Rf2 0.220604 -0.190516 -0.342111 -1.142723 0.142629 0.758893 -0.682327 0.628295 -0.180447 -0.090754 -0.153085 -0.065672 0.642956 -0.233141 -0.353497 0.880372 0.277804 -0.281928 0.091418 -0.472997 0.563345 0.652468 0.071009 0.193734 0.341600 -0.141581 -0.261211 0.192033 0.299589 -0.657241 -0.493477 -0.051027
Kf4 1.001064 -0.651439 0.574715 -0.925743 1.094389 -0.630445 -0.212300 -0.063332 0.352346 0.124416 -1.021058 -0.805818 -0.202768 0.291761 0.854529 -0.957230 2.225329 0.033553 -0.359859 -1.386573 -0.906037 1.169417 -0.003543 0.116100 -0.219121 0.039674 -0.183703 0.153048 0.205287 0.282874 0.050071 -0.465206
Qg3 0.173034 -0.283234 -0.074910 -0.588602 -0.306788 0.631703 -0.127215 0.176936 -0.121717 0.062883 0.526332 0.050119 -0.037302 -0.225746 -0.098207 1.210418 -1.345176 -0.268190 0.103989 -0.908501 0.999054 -0.588506 -0.050781 -0.209474 0.194693 -0.710348 -0.045716 0.168397 0.150665 -0.502969 0.021822 0.169597
Qf2 -0.105997 -0.479737 -0.387494 -0.742620 0.021593 0.993677 0.053333 -0.014042 -0.027219 0.020987 0.350689 0.255949 -0.173911 -0.248639 -0.294440 1.181169 -1.145796 -0.000736 0.184388 -0.807571 0.863254 -0.888455 -0.348440 0.114429 -0.054015 -0.509060 -0.054062 0.390636 0.553706 -0.541988 -0.010276 -0.081358
Nc7 0.402079 -0.000645 -0.941874 0.382055 1.201294 0.980750 0.764035 0.566949 0.458700 -0.083910 1.002631 -0.212427 0.498146 0.463673 0.092113 0.048932 -0.030538 -0.815144 -0.117175 0.014840 0.099486 -0.382712 0.141630 -0.092908 -0.460249 0.260339 -0.033863 0.241520 0.220509 0.691703 -0.102624 0.759368
Qg5 0.279575 -0.128684 -0.103800 -0.507389 -0.057378 0.174014 -0.105666 0.410494 0.040914 0.063202 0.423675 0.264356 0.023367 -0.175239 0.135179 0.969333 -1.572126 -0.360784 0.254850 -0.807429 1.017329 -0.562347 -0.313219 -0.235207 -0.129941 -0.612134 -0.054444 0.009162 0.390769 -0.528728 -0.377527 -0.092986
hxg5 0.510088 -0.300937 0.017628 0.043187 -0.296504 0.016967 0.649161 0.053828 0.078387 0.166920 0.060203 0.180507 -0.011088 0.423840 0.244100 0.049126 -0.037950 -0.614930 -0.301886 -1.132679 0.115241 0.822307 0.593286 -0.143569 -0.203289 -0.526247 0.138447 0.143870 0.840267 -0.320895 0.401188 0.862705
Bxc3 -0.223967 0.699567 0.335053 -0.034285 -0.297913 0.037816 0.539066 -0.564485 0.251368 0.120937 0.582321 0.587907 0.699898 -1.350177 -0.180353 0.734622 0.113004 -0.962274 -0.028494 0.338068 0.392868 -0.754442 -0.065287 0.033390 -0.101599 -0.637794 -0.047412 0.224378 0.348857 1.482680 -0.093659 0.280523
Kf5 0.850881 -0.187252 0.517836 -0.750451 1.281109 -1.203678 0.016782 0.115454 0.633305 0.254068 -0.724369 -0.200222 -0.062017 -0.026346 0.686337 -0.797646 2.253536 0.095402 -1.020135 -1.311742 -0.822722 0.933865 0.930887 -0.272921 0.087405 0.363476 0.169253 -0.300338 -0.122337 0.444992 0.021900 0.079457
Nxc6 -0.054422 0.140141 0.581567 1.241869 -0.233166 0.586425 -0.537747 0.677018 -0.880481 -0.028170 1.285757 -0.310933 -0.286399 0.536857 0.996783 0.763541 0.063477 -0.712091 0.793102 -0.044537 0.367837 -0.426959 -0.130559 0.013634 0.287973 0.127072 0.223449 0.352745 -0.173905 1.582518 0.804153 -0.395050
Qd4 -0.198774 0.029379 -0.518777 -0.308323 -0.205860 0.145237 -0.258861 0.136154 0.319437 -0.298867 0.518121 -0.149903 0.180191 -0.246200 0.089478 0.916649 -0.618921 0.537920 0.485913 -0.756069 1.070326 -0.817433 -0.597958 0.119870 -0.347668 -1.017982 -0.134358 0.220441 0.044623 0.095922 0.007753 0.111779
Qf4 0.139976 -0.285658 0.245760 -0.243404 0.048543 0.070217 -0.267540 0.097823 -0.016520 -0.134500 0.569702 -0.051928 -0.162959 -0.146082 0.048309 1.035105 -1.121573 0.299384 0.086793 -0.975212 0.889455 -0.661657 -0.600427 -0.125259 0.188970 -0.995889 -0.045769 0.353879 0.334963 -0.296885 0.038396 0.163705
Ne8 0.745579 -0.057582 -0.453396 0.109712 1.128879 1.061103 0.346573 0.114151 0.207343 -0.592290 1.438821 -0.080590 -0.232880 0.321664 -0.222191 -0.446483 -0.588000 -0.580244 0.255400 -0.321336 -0.191299 -0.471879 0.552185 0.384154 -0.637180 -0.348007 -0.114868 0.302606 0.773597 0.405320 -0.853137 0.428966
Rg1 0.582865 0.354423 0.232965 -0.328554 0.350668 0.844844 -0.029175 -0.092565 -0.201377 0.128743 -0.563174 0.648276 -0.397419 -0.197359 -0.576969 0.803269 0.383325 -0.803866 -0.058979 -1.185931 -0.415353 0.134854 0.213073 0.381151 0.614361 -0.099095 -0.309922 -0.085933 0.737244 -0.945824 -0.251695 -0.087995
Rb7 0.257226 0.948470 0.043859 -0.104607 1.175459 0.079803 -0.015628 -0.167736 -0.061850 0.007068 0.727432 0.398549 0.128410 0.225964 0.202119 0.178860 0.970462 0.843635 -0.159309 0.271559 0.618606 0.800176 0.486035 0.302071 -0.952063 0.262969 0.136054 0.322634 0.506375 0.657544 -0.452483 -0.103974
Qc3 -0.399253 0.070933 -0.146332 -0.386499 0.403025 0.298079 0.030664 0.301975 0.192615 -0.413848 0.589130 -0.193465 0.107639 0.181098 -0.020484 0.948428 -0.864568 0.611880 0.127456 -0.335374 1.030797 -0.914228 -0.684149 0.361502 -0.231466 -0.982129 0.191796 0.103030 0.384933 0.131267 0.478253 0.187472
Kd4 0.583056 -0.114475 -0.334979 -0.438108 0.619311 -0.082621 -0.052264 -0.059980 0.926470 -0.622209 -0.943323 -1.030000 0.159568 0.438760 -0.558488 -1.029855 3.130002 -0.412825 0.673400 -1.073406 -0.756571 1.166025 0.089893 -0.154807 -0.295902 0.240892 0.313860 0.140913 0.048005 0.609035 -0.056362 -0.322741
Qe6 -0.114132 -0.069056 0.051448 -0.142498 0.224315 -0.269242 0.088921 0.239078 -0.110042 0.041642 0.963382 0.074628 -0.010242 0.088564 -0.040878 0.953511 -0.820494 0.177706 0.171353 -0.676840 1.301158 -1.120627 0.303008 0.013677 -0.050232 -0.649836 0.105136 0.022837 0.238375 -0.590447 -0.381392 -0.295743
Rfd8 -0.476400 0.026671 -0.223925 -0.532203 0.198178 -0.106296 0.487797 0.235732 -0.708795 0.207566 1.797949 0.101195 -0.568989 -0.780603 0.413477 0.337462 -1.386548 -0.961207 0.096666 0.911159 0.771193 -0.589909 -0.033887 0.663646 0.424653 -1.374706 0.135719 0.584701 1.399677 0.932401 0.843392 -0.400709
Bg6 1.033690 -0.390845 0.548928 -0.193939 -0.062186 0.651871 0.289260 -0.351568 0.350466 -0.603178 0.442672 -0.037884 0.077962 0.011793 -0.602693 0.099084 -0.484154 -1.028126 0.541970 -0.514054 0.292232 0.508846 0.139416 -0.290779 -0.011892 -0.690011 0.373891 -0.277645 0.132879 0.374780 0.588018 -0.117352
Rc3 -0.741171 -0.287429 0.244201 -0.863067 0.565806 -0.059933 -0.067671 0.328645 0.351411 -0.160991 0.498240 0.393684 -0.013136 0.018997 0.120178 0.293024 0.961946 0.357479 0.156323 0.232549 0.234094 1.115374 -0.377770 0.113996 0.064293 -0.627618 0.422106 0.703548 0.892014 0.447143 -0.398568 -0.375459
Nxc3 -0.011561 0.583816 0.058665 0.141456 -0.100401 0.407112 0.701405 -0.355688 0.589542 0.212919 0.439478 0.505535 0.595975 -1.550875 0.444058 0.129248 0.034570 -1.314102 0.201728 0.437949 0.191010 -0.552238 -0.789526 0.050630 -0.195894 -0.641528 0.446471 -0.009452 0.119022 1.786099 -0.394595 0.202275
Rd4 -0.106372 -0.607562 -0.843064 -0.462816 0.436954 -0.747150 -0.186794 0.420817 0.051353 -0.087864 0.477061 0.141372 -0.235028 -1.252860 -0.013877 0.151470 1.030489 0.100340 -0.471886 0.049314 0.930924 0.848382 -0.108150 0.158330 -0.040229 -0.600210 0.082158 0.575189 0.861333 0.095127 0.500707 -0.065716
hxg4 0.397373 -0.408763 0.066344 -0.549146 0.246639 0.111094 -0.255351 0.405060 -0.192345 -0.036712 -0.183401 0.730052 -0.127227 0.261172 -0.308077 0.055996 0.154274 -0.835362 -0.728114 -0.927894 0.173719 0.031108 0.843467 -0.403593 -0.602497 0.003857 -0.369416 0.849732 0.210016 -0.322958 0.352419 -0.044423
Bb6 -0.241246 -0.741926 0.076380 -0.086294 0.534724 0.332910 0.368764 -0.002744 -0.527036 0.113675 1.026333 0.614391 0.411372 0.321974 0.046872 0.173843 0.588390 -0.746079 0.047383 0.092633 0.298087 -0.641635 1.142831 -0.007311 0.106149 0.239897 0.472439 0.397327 0.047064 0.587391 0.128093 -0.610145
Qe4 -0.519438 0.161132 0.380196 -0.207971 0.062437 -0.443765 0.094744 0.546598 -0.094257 0.128733 0.549483 0.030877 0.142107 -0.083565 0.301471 1.167746 -0.579451 0.275576 0.128826 -0.672797 1.185170 -1.051853 -0.190399 0.021161 0.390911 -0.943867 0.472444 0.004289 0.082124 -0.505034 -0.013380 -0.166833
Rc6 0.046862 0.093110 -0.276076 -0.072744 0.952222 -0.729611 -0.093080 0.057031 0.242181 -0.283735 0.938746 0.269581 -0.272857 0.132132 0.446028 0.157054 1.081575 0.391835 0.252007 0.367221 0.585982 0.672264 0.595898 -0.075075 0.074499 -0.151764 0.259766 0.734421 0.829329 0.291428 -0.716405 0.227825
Rf3 -0.136489 -0.154332 -0.106646 -1.266177 -0.089396 0.343795 -0.224486 0.165155 0.412673 0.252075 0.057033 -0.135384 0.384002 -0.676117 -0.419358 0.852289 0.283007 -0.271225 -0.209479 -0.581036 0.694803 0.901143 0.413512 0.189315 0.072145 -0.257059 -0.243622 0.090545 0.140657 -0.736539 -0.866024 -0.259351
Ra2 -0.311919 0.371024 0.356162 -1.052271 1.169340 0.766478 -0.239498 0.361897 -0.353470 -0.271719 0.060534 0.628540 0.488924 0.506321 0.276248 0.260131 1.126665 0.041490 -0.554488 0.740107 0.179586 0.950611 0.045184 0.766552 -0.608457 -0.115597 -0.009852 0.380765 0.058367 0.588874 -0.385244 0.127548
Kc7 -0.137032 -1.153262 -0.108838 1.683236 0.384029 0.298917 -0.852472 0.163106 0.700870 -0.880601 -0.255726 -0.166182 0.326558 0.276333 -1.583256 -0.410302 1.534093 0.033144 -0.822455 -1.062465 0.920792 0.291125 -0.237595 0.344357 -0.369391 0.862613 1.061777 -0.388660 -0.432142 -0.166371 0.297994 -0.285805
Qa4 -0.639502 0.465477 0.443618 0.449734 0.231780 0.596055 -0.117287 -0.086177 0.130267 -0.306144 1.164833 0.201166 -0.231343 0.078425 0.175647 0.936753 -0.884953 0.185141 0.319924 0.061140 0.910940 -1.213724 -0.379797 0.263862 -0.101332 -0.631651 0.530657 0.563439 0.004191 0.871524 0.062755 -0.044463
Kd5 0.154235 0.013605 0.200667 -0.355604 0.756163 -0.513581 -0.051172 0.426174 0.917901 -0.323207 -0.542576 -0.832850 0.254851 0.633817 -0.711013 -0.789654 3.226556 -0.351188 -0.269032 -0.900161 -0.517492 0.858614 0.963423 -0.219147 0.393261 0.626821 0.606588 -0.341623 -0.595086 0.617309 -0.181191 -0.148311
Rc4 -0.473132 -0.116677 -0.376607 -0.635207 0.408873 -0.295248 0.037464 0.602148 0.554410 0.069750 0.684535 0.927281 -0.316834 -0.436294 0.621825 0.450277 1.421439 0.360849 -0.111858 0.500426 0.564297 0.754639 0.271561 -0.105372 0.130357 -0.480806 0.181692 0.692661 0.754434 0.422699 -0.115130 0.060288
Rfe8 0.396479 -0.150159 -0.288109 -0.995779 0.183718 0.163172 0.473002 -0.504998 -0.051874 0.264480 1.635157 -0.624978 -0.043294 -0.343403 -0.271101 1.285897 -1.792926 -0.865078 0.230928 0.463748 0.807617 -0.190438 0.073890 -0.092217 0.617934 -0.868846 -1.135663 0.759771 0.234145 1.009489 0.874355 0.009564
Na6 -0.097282 0.682122 -0.889766 0.821664 0.837827 1.291570 0.274314 0.179773 0.643869 -0.486954 1.172080 0.061027 0.055435 0.279764 0.312902 -0.091254 -0.261413 -1.195562 0.299014 -0.053933 -0.379131 -0.495131 0.224853 0.517178 -0.035130 -0.525419 0.250325 -0.033420 0.027148 1.236523 0.327626 0.452237
Re6 0.813021 -0.139654 -0.101494 -0.193398 1.083030 -0.978796 -0.190115 -0.051179 0.173475 -0.088925 0.733354 -0.734515 0.189948 0.029553 -0.272302 0.793215 0.326324 0.042264 -0.045708 -0.171614 1.012021 0.786620 0.548198 -0.179067 0.539231 0.013304 -0.370959 0.315168 -0.122873 -0.302679 -0.112617 -0.015479
Nh4 0.441342 0.009495 1.267369 -0.249197 0.756367 0.647432 0.313698 -0.151922 -0.028692 0.040141 0.614959 -0.371113 -0.111445 0.460933 -0.202639 0.828441 -1.222021 -1.573170 -0.023136 -0.534046 0.012583 -0.042641 0.189593 -0.419312 0.266324 -0.267941 0.292921 -0.258853 0.288752 -0.153019 -0.010677 -0.586951
Qc5 -0.270497 -0.272513 -0.367630 0.063074 0.025200 0.329636 -0.117686 0.159336 0.172650 -0.060606 0.781209 -0.272623 -0.023972 -0.274090 0.198040 0.808196 -0.596327 0.562970 0.258985 -0.331598 1.449084 -1.044915 -0.622098 0.312862 -0.379068 -0.683568 0.156200 0.305168 0.332591 0.014682 0.094378 -0.238513
Bc8 0.428872 -0.553227 -0.510182 -0.164606 0.927032 0.890273 0.069665 -0.098321 0.267504 -0.728092 0.659363 -0.014194 0.064614 0.574204 -0.496404 0.067270 -0.775310 -0.451495 0.312870 -0.580633 0.243805 0.570200 0.195698 -0.005939 -0.834310 0.075619 0.373872 -0.079246 0.443050 0.213995 0.151517 -0.095833
Rc5 0.135343 -0.386067 -0.193136 -0.063594 0.490213 -0.371490 0.067374 0.358106 0.226213 -0.128136 0.916130 0.424264 -0.658214 -0.035616 0.680926 0.230256 1.499717 0.402555 0.475720 0.395381 0.698365 0.914793 -0.106622 -0.065123 -0.215233 -0.610893 -0.060078 0.896401 0.949925 0.209821 -0.111526 -0.278931
Bxf5 0.894487 -0.440476 0.224301 0.040648 -0.023443 0.633048 0.104811 -0.486473 0.410819 0.187934 0.509101 -0.195796 -0.100341 0.306196 -0.047128 0.756184 -0.316413 -1.316518 0.277291 -0.285165 0.655357 -0.095013 -0.054606 -0.504677 -0.223487 -0.548483 -0.914614 -1.062918 0.389303 -0.324307 -0.171692 -0.903438
Qd5 -0.552407 0.272597 0.381517 0.116894 -0.025887 -0.518066 0.077682 0.227024 0.027408 -0.183716 0.737325 -0.209881 0.431262 -0.043034 0.276455 1.186008 -0.436126 0.344634 0.157584 -0.540324 1.151446 -1.015308 -0.102999 0.051009 0.213580 -1.032885 0.356633 0.024845 -0.461909 -0.054330 0.028166 0.228183
bxc4 0.065310 0.622693 0.123119 -0.643630 -0.055458 -0.131709 -0.224062 0.380718 0.236706 -0.618366 0.498395 -0.267666 -0.516555 -0.538582 -0.762563 -0.046603 0.090523 -0.802349 -0.261988 0.414746 0.653585 -0.344112 0.587595 0.058156 -0.392590 -0.481209 0.039802 0.689570 0.543131 0.789988 0.115943 0.434453
Qe8 0.544131 0.380146 0.200156 0.074608 0.399500 0.584778 0.486667 0.130239 -0.082744 -0.279293 1.124017 0.072102 -0.312683 0.508471 -0.163640 0.759979 -1.435593 0.208839 0.498422 -0.814418 0.648448 -0.652167 0.522437 0.216826 -0.318115 -0.187936 0.204119 0.039525 0.120837 -0.137605 -0.497731 0.536596
Qc8 -0.046170 0.120762 0.024542 0.029854 0.655846 0.600859 0.307353 0.048519 0.202780 -0.171721 1.117890 0.065622 -0.378913 0.485436 0.428711 0.697743 -1.381959 0.173544 0.032547 -0.485196 0.830281 -1.012225 0.341238 0.463232 -0.581048 -0.130165 0.222363 0.270486 -0.130056 0.215682 -0.484859 0.423841
Qe5 -0.028963 -0.152710 -0.722665 -0.082824 0.002423 -0.078015 -0.215397 0.256383 0.168975 -0.146904 0.491862 0.014434 -0.034339 -0.594901 0.318602 0.954712 -0.700774 0.426057 0.353648 -0.945743 1.114484 -0.927327 -0.440769 0.021777 -0.127615 -0.754914 0.053457 -0.121355 0.364727 -0.363136 -0.159306 0.102687
Rd5 -0.292531 -0.596862 -0.253328 0.044471 0.706514 -1.042153 0.024027 -0.042069 -0.377285 0.138813 0.989673 -0.182909 -0.284264 -0.172679 0.352986 0.536899 1.371593 0.289614 -0.437726 0.090265 0.933429 0.695293 0.511621 0.285540 0.454971 -0.623714 0.009488 0.259627 0.565670 -0.170625 0.529678 -0.318039
Ke8 0.122563 0.255100 0.457088 1.449138 -0.060698 -0.164806 -0.712990 0.272310 0.184217 0.518406 0.847311 0.467563 0.844508 -0.037069 0.012985 -1.080587 0.921474 0.941511 -0.945224 -1.473991 0.044345 -0.028506 0.389640 -0.225331 -0.093468 -0.082075 0.736641 -0.614434 0.326086 0.223935 -1.186537 -0.169724
Rxd5 0.282334 -0.450397 -0.589373 0.310941 0.348897 -1.109176 0.339366 0.073779 -0.581825 0.633745 0.941406 0.396111 -0.365713 -0.606107 0.711818 0.651757 1.214291 -0.075402 -0.154814 0.568146 1.466994 0.074036 -0.229240 -0.206851 0.335789 -0.462210 -0.323020 0.116435 0.507237 0.033627 0.006419 -0.232045
Kc6 0.085993 -0.544778 -0.439338 0.726138 0.710014 0.102129 0.038104 0.271516 1.006047 -0.329592 -0.221535 -0.150414 0.310038 0.116297 -1.543074 -0.771967 2.827079 0.007286 -0.769962 -0.839228 0.531317 0.212082 0.613505 0.243394 -0.145269 0.885090 0.771578 -0.571247 -0.789035 -0.017411 -0.037309 -0.399056
bxc5 -0.965655 -0.167864 -0.544082 0.325354 0.706325 0.060214 0.016661 -0.450311 0.060820 -0.949261 0.911788 -0.016803 -0.404993 0.561164 -0.309151 0.643638 -0.087530 -0.559934 0.204979 -0.309543 -0.105030 0.429256 0.105552 0.599735 -0.483114 -0.552184 -0.088353 -0.322504 0.104184 0.752758 0.284272 0.040770
Rb2 -0.185086 0.367750 0.300636 -0.903155 1.293987 0.530813 -0.569255 0.268050 -0.188632 -0.595478 -0.071429 0.667343 0.449399 0.135790 0.210361 0.457666 1.187147 0.480885 -0.266258 0.632517 0.190455 0.896921 -0.375781 0.442725 -0.585734 -0.183431 0.183764 0.164051 0.373227 0.590004 -0.230590 -0.078604
exf4 0.270217 0.155215 -0.738464 -0.160964 0.506507 0.536814 0.058231 0.110978 0.318610 0.038321 0.061844 0.166016 -0.099552 -0.539960 0.356685 1.064147 -0.696388 -1.443174 0.137664 -0.535412 -0.038818 -0.241125 0.530686 -0.600161 -0.175462 0.433145 -0.054456 -0.286973 0.412012 0.143730 0.431431 -0.066943
Kc2 0.129735 0.639588 -0.584605 0.094761 -0.141822 0.306960 0.216959 -1.427945 0.516590 0.099529 -1.117231 -0.763233 0.807718 0.223669 -1.270060 -0.255704 2.133769 -0.005986 -0.256199 -0.411487 0.679594 -0.510734 0.513556 0.721134 0.511437 -0.168612 0.437933 0.480822 0.950473 -0.163215 1.022266 0.210865
Kb1 0.677524 0.261367 -1.024051 0.615436 -1.507653 1.613624 0.273223 -1.664743 0.411037 0.582495 -0.258453 -0.099476 -0.372514 -0.302242 -0.276583 -0.053688 1.174709 -0.404980 0.202589 0.324120 1.487901 -0.985574 -0.037291 0.485383 1.729626 -0.760694 0.721367 0.223822 0.948306 -0.177068 0.064512 1.192717
Ra3 -0.546332 0.174628 0.312382 -0.850194 1.060272 0.546861 0.292477 0.036285 0.483056 -0.158262 0.018786 0.439830 0.270804 0.149023 0.428792 0.368373 1.011894 -0.054413 -0.521207 0.605209 0.181599 1.255744 -0.093271 0.854796 -1.157284 -0.078053 -0.071050 0.381371 0.516296 0.666241 -0.370879 0.006287
Bf2 -0.036276 -0.656088 -0.111248 -0.629691 0.953004 0.970459 0.401699 -0.490677 0.113686 0.082691 0.447150 0.595341 0.161412 0.380220 -0.400850 0.542051 0.370037 -0.865898 -0.409983 -0.144259 0.124000 -0.938655 0.899388 -0.272779 0.231695 0.181967 0.074372 0.480110 0.010623 0.126265 0.201756 -0.305191
Qd1 -0.464747 0.323813 0.505181 -1.031906 0.323271 0.825609 0.321753 0.149420 -0.073298 -0.109896 0.272079 0.275964 0.115384 0.405915 0.027253 0.998282 -1.282320 0.086629 0.164805 -0.389197 0.501454 -0.847297 -0.265807 0.516062 -0.154925 -0.794158 0.236894 0.547651 0.152643 0.022840 0.309491 0.015412
fxe6 -0.177129 -0.653074 -0.142503 0.591222 -0.892058 0.772758 -0.333863 0.098387 -0.131071 0.411512 1.097849 -0.349988 0.791186 -0.340628 0.773362 0.786841 -0.194743 -0.236533 -0.342318 -0.319694 0.488501 0.147037 0.252555 -0.554746 0.473090 0.131825 0.312468 -0.659347 0.352053 0.814008 -0.513288 0.977836
Kc3 0.641202 0.230848 -0.729686 -0.088653 0.330677 0.640602 0.060316 -0.061343 0.212821 -0.379264 -1.113108 -1.184430 0.461870 0.409741 -1.044358 -0.677168 2.904735 -0.034616 0.339295 -0.620300 0.133065 0.373822 0.111836 0.493905 0.202642 0.264133 0.658989 0.376995 0.482265 0.077727 1.277748 0.053405
Ba4 0.500977 -0.397472 0.639847 -0.075176 0.098301 0.980224 -0.003234 -0.088199 -0.118655 -0.485017 0.638898 0.105846 -0.027388 -0.165424 -0.161350 -0.273422 0.112108 0.007937 0.677749 -0.267480 -0.089617 0.022375 -0.035588 0.341575 -0.324792 -0.065993 0.569406 0.344407 0.527390 1.307304 0.487802 -0.448899
Rb6 0.099153 0.610261 0.098433 0.128519 1.299500 -0.065313 -0.375975 -0.060003 0.101766 -0.515862 0.539229 0.053084 -0.092051 0.226062 0.620705 0.418655 1.104403 0.629532 -0.097290 0.458005 0.492780 1.091247 0.289320 0.368767 -0.862366 0.077213 0.219044 0.239248 0.776459 0.595577 -0.120271 0.159939
hxg6 1.169714 0.478506 0.634800 -0.157270 -0.959776 0.522402 -0.154610 -0.389526 0.324146 0.221254 0.200344 -0.245698 -0.241580 0.019270 0.232187 0.430430 -0.627380 -0.298613 0.007998 -0.339424 0.733274 0.233404 0.513331 -0.736755 0.341775 -0.322673 0.182645 0.124992 1.320983 0.196376 0.006659 0.944521
Qf5 -0.097343 0.030184 0.171138 -0.275316 0.334294 -0.607731 0.102095 -0.134774 0.224805 -0.016683 0.616234 0.303459 0.021324 -0.184380 -0.040416 1.234091 -0.987619 0.354316 -0.153425 -0.965078 0.857957 -0.854267 -0.075523 -0.282777 0.507264 -0.906566 0.064291 0.023066 -0.014955 -0.330305 -0.023431 0.241311
Rxd4 -0.322211 -0.573475 -0.631415 -0.189298 -0.302569 -0.495505 -0.006661 0.835346 -0.657822 0.587782 0.626379 0.180726 -0.372109 -0.991779 0.662809 0.789290 0.812286 0.179876 -0.154506 0.100235 1.037753 0.730535 -0.706088 -0.001020 0.328837 -0.309778 -0.004646 0.217768 0.799768 0.508047 0.759704 -0.177591
Nf8 0.481344 -0.424410 0.208769 -0.038541 0.553812 0.706331 0.567131 -0.402388 0.443815 -0.079183 1.064755 0.194151 -0.252483 0.658608 -0.363895 0.058114 -1.332109 -0.369729 -0.474760 -0.711154 0.311422 0.327513 0.866603 0.035242 0.220241 -0.043608 0.778531 -0.011520 0.825732 0.186325 -0.133819 0.802420
Rb3 -0.579030 0.465480 0.589080 -0.746657 1.036293 0.308007 -0.256258 -0.152946 0.450389 -0.296347 0.113689 0.452370 0.173908 -0.249088 0.230342 0.499474 1.169087 0.331520 -0.540160 0.569069 0.378392 0.747706 -0.025795 0.343182 -0.890452 -0.212695 0.290495 0.462222 0.534398 0.583270 -0.378719 -0.231618
Qc4 -0.603318 0.037906 -0.300858 -0.111769 0.290290 0.074948 0.076809 0.045754 0.268904 -0.026761 0.721559 -0.063127 0.284676 -0.024231 0.390284 1.082466 -0.462165 0.575607 0.039032 -0.018277 1.424036 -1.258461 -0.218683 0.288241 0.050354 -0.620408 0.441263 0.092432 0.177563 0.063192 -0.000217 0.212898
Bh3 0.198568 -0.217304 -0.343426 -0.213983 0.459919 0.780953 0.013148 0.370331 -0.358103 -0.330600 0.565108 0.056878 0.231192 0.257328 -0.256857 0.527914 -0.888347 -1.086976 0.568828 -0.701767 -0.045289 -0.054296 0.204329 -0.031680 -0.204771 0.052139 0.081547 0.173880 0.456039 0.045125 -0.205761 -0.059779
Qe1 -0.264704 -0.050084 0.250750 -1.115679 0.180961 1.077156 0.377530 0.141639 -0.023452 -0.121212 0.193866 0.535779 0.138763 -0.005030 -0.277937 0.996516 -1.096652 -0.179333 0.175044 -0.428712 0.536007 -0.926386 -0.300938 0.537147 -0.047337 -0.682932 0.056620 0.377326 0.021583 -0.114539 -0.062779 0.079195
Qb7 -0.428261 0.205601 0.002543 -0.096768 0.454292 0.348771 0.420168 0.568435 0.219157 -0.246358 1.079809 0.274652 -0.482399 0.498349 0.343805 0.806547 -0.720492 0.531475 0.162127 -0.002980 1.072271 -1.355250 0.095708 0.511752 -0.442216 -0.481804 0.215901 0.699085 0.319166 0.180078 -0.375367 0.508441
Rf6 0.603752 0.316374 -0.225825 -0.221393 0.484491 -0.428586 -0.189692 0.295155 -0.046640 -0.171331 0.270404 -0.641417 0.208647 0.167944 -0.133695 1.018846 0.045990 -0.221963 0.585738 -0.838411 0.730377 1.412869 0.656698 -0.019584 0.233269 0.122246 0.097899 -0.128205 0.094056 -0.867141 -0.354964 0.023110
Bxf4 -0.035680 -0.063465 -0.257192 -0.382219 0.259734 0.363641 0.078656 -0.001849 0.212803 0.287107 0.109362 0.391883 -0.069741 -0.569177 0.159836 1.458222 -0.578198 -1.402235 -0.408246 -0.540001 0.194373 -0.179478 0.621940 -1.222716 0.294755 0.515969 0.306866 -0.263911 -0.043468 0.217812 0.494577 0.116080
Qb4 -0.527726 -0.063254 -0.244003 -0.000886 0.101723 0.387204 0.094669 -0.016567 0.437270 -0.554723 0.860243 -0.008215 -0.022620 -0.019862 0.028323 0.675443 -0.666632 0.453368 0.411239 0.004116 1.062541 -1.069720 -0.611049 0.421177 -0.216548 -0.998950 0.347473 0.475537 0.431651 0.410827 -0.157738 0.449099
gxf6 0.730007 0.147123 0.443610 0.547002 -0.711158 -0.115501 -0.515530 0.956292 0.310291 -0.085686 0.770834 0.144861 -0.271416 -0.817689 -0.428470 -0.063963 -0.163510 -0.998716 -0.408646 -0.467877 0.371576 -0.519913 0.195935 0.507981 0.348523 -0.680819 -1.016264 -0.465361 0.672161 0.500130 -0.383160 0.195592
Re4 0.248954 -0.327523 0.018360 -0.764546 0.446152 -0.717752 0.194382 0.450280 0.359249 0.295619 0.394966 -0.181921 0.209861 -0.657752 -0.204829 1.079630 0.926194 0.123476 -0.519571 -0.080948 0.958636 0.962954 0.234511 -0.347035 0.552701 -0.320695 -0.441869 0.397208 -0.219460 -0.228586 0.572194 -0.033529
Kg5 1.205884 -0.360556 0.378200 -1.283840 0.882851 -0.910848 -0.351871 0.512783 0.686886 0.199225 -1.253084 -0.458053 -0.049945 -0.057293 1.298588 -0.877128 1.475504 0.287506 -0.511072 -1.350415 -0.023380 1.129523 0.605420 -0.229029 -0.676178 0.496213 0.492907 -0.238413 -0.066152 -0.085264 -0.352082 -0.146372
Qf7 0.485332 0.035934 0.188658 0.049028 0.500827 0.155456 0.434365 0.098348 0.126649 -0.147943 0.789707 0.134620 0.110989 0.230206 -0.363610 1.248895 -1.169495 0.157341 0.102312 -0.849033 1.017891 -0.865498 0.252915 -0.239884 0.167631 -0.470783 0.118484 -0.304582 0.298428 -0.836660 -0.232462 0.356550
Rh8 0.795650 -0.353434 0.295303 0.210321 0.064576 0.641592 -0.511502 -0.019671 0.516362 0.304363 -0.550739 0.855921 -0.343398 0.502010 -0.422933 -0.236990 0.287695 -0.275436 -1.099869 -1.311231 0.268581 1.312067 0.261470 0.084039 0.074290 0.195035 0.117294 0.579589 0.715619 -0.793243 -0.140854 0.373846
Nc2 0.020098 0.239896 0.116456 -0.571406 0.662907 1.245648 0.534507 1.343278 0.287182 0.411269 0.773164 -0.397183 0.426926 0.757943 -0.173524 -0.232385 0.391055 -0.826218 -0.082906 0.354036 0.214485 -0.474026 -0.102159 0.203278 -0.169034 -0.282136 -0.164373 0.399885 0.221802 0.636772 0.629105 -0.866694
Nxc5 -1.378202 -0.117528 -1.399707 0.354661 0.278986 0.284161 0.029926 -0.674823 -0.099309 -0.656631 1.192651 -0.328489 -0.521324 0.545989 0.085827 0.218858 -0.118465 -0.690142 -0.074606 -0.276780 -0.174398 0.336734 -0.201540 0.422616 -0.331853 -1.051927 0.131558 -0.880054 0.185089 1.282384 0.495162 0.369376
Ra6 0.192587 0.459021 0.349799 0.017358 1.220353 -0.025264 0.106216 0.085021 0.017431 -0.245155 0.536671 -0.014162 0.107323 0.609825 0.792759 0.183462 1.182482 0.164021 -0.364252 0.684757 0.569772 1.025000 0.701208 0.699464 -0.969710 0.221846 -0.029062 0.431839 0.522652 0.452621 -0.449121 0.392271
gxf4 0.024458 0.045397 -0.475429 -0.356471 0.826516 0.047561 -0.030710 0.435703 0.384127 0.091472 -0.185388 0.220235 -0.065621 -0.250938 0.177516 0.968924 -0.115042 -1.023664 -0.116584 -0.725711 -0.168480 0.327138 0.363522 -0.884747 -0.157757 0.703443 0.213708 -0.070286 0.465050 0.140291 0.631756 -0.343986
Rxe5 0.384238 -0.558425 -0.330302 -0.266345 -0.397350 -0.679962 -0.139538 -0.126692 -0.698936 -0.059319 0.911998 -0.719306 -0.324508 -0.283709 -0.194800 1.181565 0.429089 0.349147 0.065270 -0.532347 1.042517 1.348949 -0.053763 -0.430940 -0.059090 -0.515524 -0.804954 0.065178 -0.374189 0.239398 0.672864 0.228591
Re5 0.896635 -0.855132 -0.637939 -0.290816 0.594614 -0.509071 0.147125 -0.068514 0.353476 -0.038737 0.557466 -0.414596 -0.029241 -0.439705 0.035715 0.926893 0.787518 0.145127 0.064135 -0.228421 1.051095 1.218995 -0.116530 -0.134612 0.164750 -0.446215 -0.794475 0.194801 -0.022511 -0.413958 0.376289 0.019891
Kg4 0.644237 -0.554473 0.502828 -1.513262 0.954260 -0.661455 -0.169916 -0.103176 0.527357 0.486708 -1.285476 -0.673477 0.084805 0.433782 1.738358 -0.445382 1.845848 0.281201 -0.582507 -1.311007 -0.394762 0.859252 0.791957 0.039546 -0.193185 0.294522 0.248343 -0.040333 -0.170131 -0.251048 -0.431965 -0.073126
Qxd6 0.006980 -0.061289 -0.356327 0.720536 0.166121 -0.232034 -0.223367 -0.541210 -0.408306 -0.353477 1.031148 -0.769068 -0.326010 -0.596840 0.520582 0.801730 -0.901508 -0.508135 0.403605 -0.445877 0.747960 -0.915393 -0.733833 -0.054672 -0.260685 -0.678212 -0.055140 -0.027592 -0.004968 0.433551 -0.785765 0.456255
Qxe5 -0.290159 -0.185206 -0.199656 0.198852 -0.939634 -0.115185 -0.536798 0.083181 -0.798212 -0.279100 0.809377 -0.305273 -0.165355 -0.409625 0.075842 1.079904 -0.640215 0.252244 0.339437 -1.132125 0.957667 -0.279815 -0.269355 -0.258779 -0.312318 -0.845922 -0.019059 -0.239973 0.016534 0.304875 0.414484 0.125955
Rb4 -0.236992 0.361682 -0.135314 -0.639299 0.846637 0.153713 -0.376664 0.066914 0.349565 -0.544751 0.165863 0.475516 -0.323511 -0.632018 0.498879 0.397628 1.443870 0.402508 -0.463728 0.653601 0.563239 0.952160 0.187508 0.280648 -1.192902 -0.187488 0.100022 0.433456 0.706897 0.674382 0.053829 0.212695
Qxe4 -0.443426 0.371133 -0.176370 -0.156323 -0.212914 -0.841109 0.110084 -0.242845 -0.345627 -0.268760 0.364000 0.457209 0.203179 -0.573934 -0.063252 1.110553 -0.397109 -0.641949 0.014821 -0.432059 1.051374 -0.986845 -0.113069 0.072105 0.110571 -1.388058 -0.149005 -0.307883 -0.318570 -0.135590 -0.208962 0.341904
Ba3 -0.545163 0.265583 0.550050 -0.198864 0.483231 0.376179 0.268992 0.056369 0.152367 -0.368534 1.282867 0.103279 0.278231 0.360102 -0.454274 0.082430 -0.036489 -0.674590 0.031476 0.344777 -0.084610 -0.576421 0.678870 -0.100876 0.233120 -0.410566 0.567099 0.014315 0.234906 1.162244 -0.293245 -0.085053
Qg6 0.264181 0.060597 0.121708 -0.219647 0.061120 0.103784 0.090448 0.132422 -0.047623 0.030055 0.609717 0.219860 0.175397 0.112756 -0.319990 1.068731 -1.281954 -0.262995 0.170367 -0.988684 0.920160 -0.564621 0.084955 -0.211067 0.158814 -0.765491 -0.071925 -0.258083 -0.215338 -0.740445 -0.238087 -0.085391
Rxe4 0.128214 -0.030355 -0.556386 -0.780026 0.269743 -1.234368 0.318936 -0.104880 -0.082160 -0.104793 0.333973 0.135887 0.125586 -0.961680 -0.443861 1.123805 0.582438 -0.503346 -0.608877 0.128231 1.088578 0.628375 -0.080583 -0.298374 0.189698 -0.943953 -0.873815 -0.026574 -0.709598 -0.052534 0.078355 0.678507
Bc1 -0.059807 0.114008 0.604602 -1.216978 0.474705 0.867370 0.352132 0.009080 0.114114 -0.017524 0.602624 -0.028905 0.427106 0.440428 -0.776467 0.189004 0.066013 -0.649281 -0.565248 0.258412 0.333578 -0.641692 1.151992 -0.234129 0.170987 -0.274758 0.365143 0.222543 0.305631 0.094476 -0.084380 0.013855
Nxc4 -0.408262 0.819262 0.397786 -0.366412 -0.179551 -0.106185 -0.443794 0.237748 -0.513613 -0.373840 0.829137 -0.872684 -0.438050 -0.359125 -0.608452 -0.436685 0.062184 -1.227779 -0.434033 0.510735 0.681732 -0.657220 0.197506 -0.565873 -0.767132 -0.683345 0.399196 1.015302 0.027764 0.947924 -0.300290 0.078130
exf6 0.340825 0.275439 0.716405 0.429565 -0.952184 0.049046 -0.563626 1.273933 0.428159 -0.275557 0.826074 -0.036722 0.080702 -0.463870 -0.386250 0.253835 -0.801014 -1.075538 -0.309618 -0.555202 0.227368 -0.079149 0.314346 0.527720 0.432894 -0.643269 -0.775826 -0.592889 0.347521 0.723981 -0.089715 0.463483
Rh1 0.732995 0.106401 0.301640 -0.142193 0.229665 0.508900 -0.238104 -0.353252 0.325259 0.459305 -0.866748 0.770770 -0.238681 0.797596 -0.349823 -0.030736 0.507061 -0.401293 -1.006284 -1.117585 0.204243 0.991414 0.516883 0.145900 0.354253 0.057221 0.066208 0.895708 0.803237 -0.866665 0.210023 0.451993
Rxd8 -0.034067 -1.209068 -1.001274 0.441145 0.395609 -0.901672 0.182994 0.051718 -1.716067 0.310070 0.861356 0.015406 0.011492 -0.183652 0.124660 -0.651006 -0.318790 -0.789191 -0.608240 -0.134136 0.905482 -0.925776 0.114427 0.470315 0.430236 0.363078 1.017968 -0.740680 1.276992 1.107126 0.620527 -0.087506
Kc5 0.709982 -0.302346 -0.162652 0.074304 0.743406 0.250581 0.061564 0.683102 0.841560 -0.513974 -0.897920 -1.267095 -0.093120 -0.061753 -1.004873 -0.881472 3.117005 -0.292924 0.149989 -0.825036 0.212424 0.735234 -0.001821 0.146983 -0.189987 1.147395 1.168328 -0.140392 -0.311718 0.357998 0.188010 -0.337901
Ra4 -0.303563 0.276667 0.268682 -0.490260 0.796421 0.080666 0.296003 0.514507 0.196477 -0.122041 0.231099 0.690833 0.078760 0.050350 0.691327 0.372906 1.659353 0.151392 -0.667864 0.777965 0.564995 1.163043 0.338698 0.556248 -1.116588 -0.138758 -0.107564 0.461405 0.293606 0.595669 0.204188 0.211268
Nf1 0.336765 -0.756664 0.657420 -1.166352 0.886139 0.936462 -0.088400 -0.102601 -0.029018 -0.444328 0.071174 0.265685 -0.185348 1.038890 -0.607686 0.025287 -1.015878 -1.189510 -0.075940 -0.058315 0.391627 -0.126363 0.175290 0.581759 0.094080 -0.336471 0.183427 0.895741 0.313375 -0.045368 0.318552 -0.527426
Bc7 -0.161853 -0.668676 0.305695 -0.116043 1.008537 0.115987 0.257521 -0.342574 -0.431173 -0.429919 0.908698 0.350426 0.248319 0.454980 -0.506449 0.253850 0.562512 -0.616316 -0.586684 -0.230023 0.101414 -0.573958 1.459046 -0.304059 -0.103650 0.189382 0.494964 0.329260 -0.233935 0.466315 0.432029 -0.052593
Kc4 0.271758 -0.039099 -0.242884 -0.253135 0.781057 0.281701 0.479501 -0.174543 0.647607 -0.203973 -0.884454 -1.248189 0.085072 0.582597 -0.697098 -0.557820 3.585934 -0.259527 0.071008 -0.563440 -0.089348 0.346948 0.603397 0.358010 0.455231 0.664291 0.922329 -0.257868 -0.391619 0.169667 0.276885 -0.137570
Bh5 0.910414 -0.232174 0.895809 -0.051546 0.082297 0.939733 0.209187 -0.169681 -0.197522 -0.440149 0.403818 -0.230867 0.072484 -0.186192 -0.690032 0.444416 -0.772222 -1.101529 0.649644 -1.061149 -0.214305 0.435073 0.292909 -0.066237 0.155254 -0.088000 0.526578 0.010408 0.195369 0.316945 0.646198 -0.268763
Qxd3 -1.250144 0.551973 -0.060318 -0.764424 -0.424507 0.123646 -0.297496 -0.589593 0.662870 0.363057 0.667570 0.151603 -0.385736 0.022838 0.064072 0.903388 -0.954640 -0.521821 -0.354995 -0.039342 0.803684 -0.745070 -0.122220 0.321709 0.808220 -1.202298 -0.007628 -0.541442 -0.432393 0.875414 0.090016 -0.460698
Ra5 0.131554 0.020142 -0.018227 -0.021330 0.943561 0.115597 0.386861 0.039348 0.114598 -0.210678 0.399030 0.502935 -0.137932 0.295610 0.944711 0.188748 1.702397 0.218616 -0.290735 0.690566 0.555347 1.240711 0.303719 0.695596 -1.210473 -0.238170 -0.324048 0.431422 0.427827 0.453012 0.092306 0.309904
cxb5 -0.138347 0.138813 -0.625483 0.447781 0.499886 0.859653 0.337794 0.266577 0.336874 -0.231395 0.814522 -0.026297 -0.272912 -0.004625 0.158680 0.342708 0.597292 -0.687544 0.242190 0.112461 0.240735 -0.544259 0.204186 0.681260 -0.714429 0.038149 -0.476337 0.726774 0.062450 0.707233 -0.189270 0.191102
Bxd6 -0.208447 -0.203238 0.124784 1.098548 0.621555 -0.472228 -0.122663 -0.927054 -0.681951 -0.341026 1.295954 -0.749018 -0.243356 -0.275600 0.118424 0.334756 0.022780 -1.153810 -0.322776 -0.057668 0.188841 -0.764175 -0.182114 -0.224640 0.108914 -0.670361 -0.110290 0.197434 -0.201592 0.591075 -0.936568 0.464467
Rxd6 0.232229 -0.234290 -0.885034 0.700604 0.971933 -1.187488 -0.472773 -0.321255 -1.009709 -0.044445 0.732652 -0.839578 -0.555041 -0.723670 0.494835 0.248855 0.357925 -0.246185 -0.244673 0.033944 0.998833 0.202037 -0.561885 0.244421 0.019831 -0.079677 0.133339 0.124433 1.057328 0.060404 -0.680090 0.263934
Qxf6 0.737203 0.290886 0.180986 0.433939 -0.559585 -0.340635 -0.539931 0.812350 0.126028 -0.421571 0.690605 0.120658 -0.273253 -0.710374 -0.328640 0.533303 -1.048354 -0.524326 0.145829 -0.990926 0.708438 -0.551623 -0.308958 0.468852 0.185326 -0.974066 -0.792198 -0.569990 0.109865 0.214888 -0.200125 0.350237
Ke1 -0.148660 0.861037 -0.451664 -0.385011 0.564909 0.003858 -0.994441 -0.376694 -0.576192 0.183807 -1.545214 0.593624 1.329785 0.445775 0.345395 -0.532995 1.133927 -0.191560 0.420903 -0.958433 -0.465973 -0.158325 -0.924429 0.419413 0.458430 -0.812066 0.482224 0.846015 0.568985 0.007181 0.490134 -0.869070
Qb5 -0.795935 0.131907 -0.039132 -0.116849 0.161760 0.121490 0.061921 0.179217 0.329844 -0.268080 0.954744 0.115083 -0.142080 0.315189 0.051201 0.788219 -0.567021 0.699995 0.273967 -0.006900 1.175923 -1.244223 -0.093107 0.249121 -0.021371 -0.622001 0.529371 0.698535 0.088104 0.417188 -0.041845 0.199754
Rb5 -0.316167 0.296781 0.273239 -0.187441 0.941743 -0.200354 -0.234980 -0.192515 0.099563 -0.399264 0.494225 0.367861 -0.408364 0.147310 0.617726 0.498538 1.706581 0.622543 -0.364013 0.658188 0.684085 0.961232 0.579746 0.297102 -0.951536 -0.225287 0.061724 0.201284 0.482913 0.493049 0.224319 -0.214648
axb3 -0.086498 -0.304064 0.145839 -0.283625 -0.587078 1.032354 0.159311 -0.596557 0.128053 -0.087040 0.535507 -0.371924 0.017167 0.420258 0.179936 0.395455 0.594929 -0.152936 -0.034762 0.773415 0.690921 -0.053928 0.419347 0.961792 -0.091735 -0.469354 -0.374179 -0.378472 1.431612 0.689208 0.166584 0.335449
Qc1 -0.320669 0.189938 0.515659 -1.219073 0.387262 0.770230 0.232475 0.272889 0.305889 -0.289910 0.201776 0.079761 -0.008706 0.221719 0.090568 0.627056 -1.181705 0.052307 0.052550 -0.122469 0.702879 -0.981494 -0.455134 0.551646 -0.230220 -0.875364 0.411174 0.352197 0.227111 0.208605 -0.041826 0.181757
