O-O -0.076411 -0.623508 0.251304 -0.149926 -0.323840 0.238913 1.324486 -0.994475 -0.838689 -0.588524 -1.322255 -0.016742 -0.100723 0.970695 0.303355 1.839148 0.484798 0.333418 -0.406889 -0.317586 2.720677 -1.562771 -1.013434 -1.046608 1.992175
Nf6 0.399139 -0.558091 0.007874 0.057350 -0.296232 0.911479 0.478711 -0.942215 -0.495145 -0.287345 -0.702359 0.182288 -0.204859 0.852432 0.242478 0.329521 0.616664 0.355889 0.003233 0.149810 0.890710 -0.747727 -0.453467 -0.820664 1.566996
Nf3 0.476913 -0.478498 0.027527 0.219531 -0.667568 0.429580 0.578999 -0.802153 -0.436161 -0.434622 -0.592106 -0.076961 -0.320576 0.770938 0.408700 0.273426 0.903173 0.479161 0.192791 0.086724 0.773915 -0.626005 -0.545458 -0.721204 1.686358
<end> 1.147909 -0.745831 0.061034 0.173731 -0.603307 0.710479 0.158613 -1.402079 0.081300 -0.438274 -0.464435 -0.000333 -0.632430 0.878300 -0.102226 -0.119488 1.035744 0.466199 1.006244 0.424794 -0.124691 -0.500745 -0.450934 -0.556428 1.835059
<start> 0.997128 -0.684864 0.046407 0.133082 -0.554155 0.660692 0.182902 -1.251447 -0.020434 -0.442617 -0.412861 0.011464 -0.598745 0.840772 -0.064518 -0.089899 0.924773 0.412315 0.830080 0.373547 -0.074086 -0.521894 -0.451212 -0.561150 1.809427
d4 0.657100 -0.654700 0.148595 0.110558 -0.604625 0.369470 0.470612 -0.920284 -0.449040 -0.439152 -0.555679 -0.075900 -0.419236 0.968070 0.152993 0.252217 0.817795 0.405730 0.368941 0.075877 0.508576 -0.791156 -0.609601 -0.668399 1.682698
e4 0.574087 -0.579915 0.081159 0.006652 -0.449322 0.623206 0.527007 -1.120932 -0.349883 -0.285159 -0.432684 0.062139 -0.447284 0.708244 0.118753 0.404238 0.654360 0.430880 0.308553 0.240839 0.469648 -0.597964 -0.498563 -0.917493 1.644792
Nc3 0.274506 -0.513720 0.192518 -0.022948 -0.405630 0.787370 0.586413 -0.797500 -0.490578 -0.205688 -0.700823 0.125428 -0.351495 0.823389 -0.123030 0.928580 0.511112 0.526790 0.067936 0.130412 0.781948 -1.037707 -0.487686 -0.475053 1.632671
d5 0.359702 -0.517094 0.171294 -0.011313 -0.394644 0.456946 0.603064 -0.931240 -0.618463 -0.324984 -0.750135 0.197381 -0.147661 0.865710 0.225523 0.591604 0.568909 0.268082 -0.056739 -0.076998 0.803900 -0.973778 -0.640924 -0.872006 1.494461
e5 0.296424 -0.421369 0.246884 -0.344891 -0.247845 0.534056 0.552274 -0.366627 -0.570279 -0.401282 -0.607582 -0.075957 -0.243907 0.613556 0.216104 0.654569 0.784907 0.409976 -0.247114 0.130784 1.017350 -0.786516 -0.593610 -0.677306 1.459228
c5 0.300397 -0.412485 0.474312 -0.077557 -0.449564 0.608508 0.539677 -0.631150 -0.693600 -0.254194 -0.456700 -0.142532 -0.313040 0.502574 0.425469 0.513882 0.691526 0.308922 -0.020725 0.042203 0.664920 -0.762668 -0.502587 -0.986147 1.440589
Nc6 0.253667 -0.194574 0.279841 0.048383 -0.606410 0.053833 0.890488 -0.466490 -0.504916 -0.196191 -0.669785 -0.087425 -0.187923 0.718543 0.169560 1.047381 0.753317 0.655844 0.024057 -0.080250 0.959156 -0.874286 -0.783335 -0.371239 1.750146
c4 0.426321 -0.400479 0.113473 0.092085 -0.293669 0.546324 0.631890 -0.612707 -0.764421 -0.252391 -0.506285 0.049925 -0.116134 0.552843 0.168673 0.452198 0.643612 0.135511 0.039190 0.091440 0.356859 -0.657184 -0.567147 -0.871622 1.362724
e6 0.458353 -0.571292 0.139678 -0.104313 -0.543433 0.604216 0.379634 -0.937268 -0.488408 -0.612234 -0.757976 0.089250 -0.428293 0.888721 0.168954 0.507538 0.868370 0.122665 0.103802 0.054602 0.711582 -0.948166 -0.620757 -0.645230 1.633552
g6 0.498832 -0.257253 0.041940 0.155463 -0.350074 0.360889 0.552844 -0.399887 -0.648613 -0.342255 -0.347326 0.338830 -0.064258 0.628077 0.288604 0.249541 0.671619 0.003300 -0.131505 0.552335 0.509356 -0.664900 -0.542258 -0.588789 1.096051
d6 0.471030 -0.560544 0.166894 -0.318068 -0.239240 0.853907 0.599522 -1.115246 -0.344565 -0.459551 -0.694439 0.004991 -0.174412 0.938739 0.126331 0.608434 0.562193 0.219264 0.248377 -0.091386 0.656821 -0.912679 -0.718594 -0.729814 1.817520
f4 -0.130716 -0.046315 0.489617 -0.104301 -0.048899 0.272776 0.407810 0.132838 -0.766764 0.082148 0.099217 0.167417 -0.014812 0.317743 0.635856 0.222276 0.115325 0.203123 -0.674079 0.133228 0.626074 -0.492840 -0.308814 -0.347742 1.002838
f5 -0.029159 -0.124720 0.007333 -0.042801 0.049341 0.229770 0.400915 0.135483 -0.749114 0.050349 0.020909 0.270606 0.233659 0.232196 0.376357 0.256109 0.043742 -0.256994 -0.869929 0.162518 0.506311 -0.493317 -0.253358 -0.378861 0.867823
b5 -0.383950 -0.239084 0.525575 -0.132690 0.077344 0.314106 0.851311 0.273597 -0.914281 0.184646 -0.200425 0.335690 0.144360 0.156278 0.130728 0.598578 0.187471 -0.183385 -0.667088 0.004686 0.243662 -0.543137 -0.478923 -0.635043 0.996640
Be7 -0.106370 0.116240 -0.348065 0.052575 -0.248003 0.415568 0.885650 -0.002603 -0.598602 -0.100588 -1.015142 0.368220 0.096747 0.417473 0.185182 0.952139 0.891156 0.192225 -0.737862 -0.145834 1.034775 -0.570890 -0.700804 -0.971602 1.548504
a6 -0.173872 -0.137465 0.680171 -0.054742 -0.144040 0.445107 1.063727 -0.228937 -0.585700 0.211936 -0.570349 0.248530 -0.154766 0.715763 0.256119 0.783379 0.329346 0.241834 -0.406798 -0.448241 0.412404 -0.658504 -0.786397 -0.699659 1.464062
Be3 -0.269010 -0.040311 0.134095 -0.162747 -0.188740 0.203724 1.026038 0.063847 -0.669556 0.122019 -0.352927 0.081599 0.411484 0.167912 0.204385 0.739152 0.504887 0.374830 -0.582388 -0.343121 1.217488 -0.686777 -0.595134 -0.373863 1.256400
b4 -0.383509 -0.145005 0.644985 -0.189498 -0.203342 0.055845 0.580581 0.427105 -0.897389 0.087159 0.062229 0.168649 -0.000365 -0.021110 0.166926 0.568068 0.259107 -0.111656 -0.730102 0.238864 0.248286 -0.721169 -0.231465 -0.626157 0.771723
a4 -0.296681 -0.069542 0.589245 -0.034415 -0.099715 0.374323 0.775042 0.303062 -1.083983 0.143550 0.038047 0.348462 -0.216129 0.022573 0.062069 0.502144 0.265321 -0.350096 -0.603463 0.194365 -0.062275 -0.374869 -0.383615 -0.584215 0.771007
a5 -0.415882 -0.036764 0.715693 -0.025836 -0.168456 0.229454 0.770410 0.417892 -1.015212 0.151066 0.192972 0.216056 -0.222061 -0.042927 0.231219 0.461637 0.192527 -0.303384 -0.585586 0.262391 -0.048446 -0.373887 -0.327424 -0.694781 0.718830
Bd3 -0.440160 -0.520207 0.028141 0.379242 -0.411967 0.257524 0.598217 -0.154236 -0.958878 -0.439539 -0.492533 0.357954 -0.342505 0.629034 0.345222 0.716344 0.195935 0.345987 -0.535557 0.080810 1.031287 -0.885087 -0.236429 -0.890467 1.008788
g3 0.250886 -0.266996 0.403565 0.093337 -0.177214 0.466231 0.713904 -0.310355 -0.231435 0.180477 0.050480 0.042127 -0.310702 0.442833 0.529404 -0.028441 0.516298 0.046182 -0.238722 -0.118296 0.366334 -0.500905 -0.448163 -0.539237 1.158250
cxd4 0.324744 -0.657941 0.054684 0.031377 -0.512591 -0.358965 0.854457 -0.295226 -0.608553 -0.636830 -0.670594 -0.069122 -0.100979 1.057082 0.215904 0.720890 0.843464 0.475597 -0.067349 -0.448253 1.240770 -1.261723 -1.005059 -0.333876 1.286485
h3 0.076037 -0.200073 0.341959 -0.110884 -0.002254 0.602067 1.087665 -0.055874 -0.630819 0.240223 0.141251 -0.236579 -0.151725 0.204701 0.561426 0.117444 0.365626 -0.284339 -0.694290 -0.384818 0.739723 -0.399466 -0.542818 -0.559176 0.992745
h6 -0.073938 0.043786 -0.007438 0.042832 -0.298828 0.303982 0.638525 -0.091716 -0.931521 -0.535636 -0.070884 0.353398 -0.041902 0.250906 0.716638 0.549244 0.276171 0.055655 -0.706847 0.580838 0.663878 -0.634025 -0.291397 -0.737302 0.664743
Bg7 0.363629 -0.316696 0.104527 0.069335 -0.360364 0.713727 0.730655 -0.710461 -0.739721 -0.448618 -0.727809 0.193836 0.049823 0.624783 0.198942 0.358704 0.596131 0.337792 -0.143890 0.372522 0.909383 -0.697700 -0.427265 -0.514611 1.335997
h4 0.063087 0.004794 0.398087 -0.008683 -0.128707 0.246818 0.499462 0.240685 -0.712515 0.152974 0.355018 0.233860 -0.172109 0.126363 0.455480 -0.285905 0.174692 -0.184693 -0.880272 0.449062 0.039259 -0.027250 -0.101243 -0.312615 0.805331
h5 0.124828 0.035408 0.262545 0.010283 -0.049147 0.271541 0.478895 0.286899 -0.820405 0.094648 0.319452 0.308068 -0.027818 0.158377 0.314165 -0.292890 0.086034 -0.191905 -0.879289 0.541196 0.020964 -0.038864 -0.081467 -0.216944 0.727783
g4 -0.020274 -0.078690 0.083680 0.089648 0.062439 0.417704 0.419871 0.256504 -0.884434 0.189171 0.281510 0.184146 0.002265 0.148008 0.506128 -0.182194 -0.023116 -0.086061 -0.846223 0.225086 0.216099 0.016415 -0.137531 -0.393047 1.001896
c6 0.109556 -0.134272 0.447860 0.005734 -0.325648 0.447175 0.569137 -0.788060 -0.483763 -0.108214 -0.511656 0.085956 -0.129691 0.602323 0.486522 0.553494 0.355145 0.240708 0.010112 -0.211559 0.621028 -0.804149 -0.519891 -1.063574 1.557779
Bg5 0.036046 -0.265580 -0.271935 -0.035781 -0.151371 0.422373 0.765197 -0.388526 -0.606855 -0.254796 -0.789619 0.213689 0.528998 0.586218 0.434409 0.487003 0.466289 0.024719 -0.619697 0.051258 1.345506 -0.741701 -0.555657 -0.753336 1.219952
Nxd4 0.355713 -0.478531 0.350967 -0.331038 -0.535019 -0.532141 0.652564 -0.187990 -0.327072 -0.423624 -0.383621 -0.089894 0.081232 0.916062 0.095991 0.844714 0.839176 0.565447 -0.086406 -0.520398 1.288112 -1.481560 -1.009477 0.555151 1.354821
a3 -0.173278 -0.200817 0.228681 0.020205 -0.494555 0.169963 0.507729 0.190991 -1.168446 -0.200528 -0.249716 0.517178 -0.272822 0.268585 -0.083386 0.879419 0.615252 0.064208 -0.642373 0.296101 0.495916 -1.125200 -0.321662 -0.689614 0.737533
g5 -0.109156 -0.104897 0.235645 0.093365 -0.012436 0.367593 0.205093 0.375718 -0.804182 -0.141434 0.293088 0.168268 -0.228148 0.087049 0.647349 -0.142673 0.080785 -0.066556 -0.819969 0.494299 0.199801 -0.030284 -0.014514 -0.321694 0.876662
Qc7 -0.143525 0.660360 0.504491 0.211477 0.354191 0.464321 1.822092 0.273761 -0.088719 -0.632224 -0.675917 0.264028 0.305416 -0.126733 0.347451 0.550490 0.375437 -0.272764 -0.842997 -0.036312 1.638698 -1.083526 -0.414014 -0.499633 0.078564
Be2 -0.363903 -0.409465 0.432823 -0.015360 -0.272321 0.696395 0.785567 0.325527 -0.689820 0.189710 -0.491917 -0.003237 -0.162872 0.819886 0.136155 0.485954 0.299214 1.069654 -0.610951 0.087863 1.103725 -0.768446 -0.243611 -0.687286 1.293680
Ne5 -0.564063 -0.210711 0.141500 -0.054593 0.311882 0.054805 0.733586 0.266478 -0.647879 -0.760130 -0.028678 -0.020189 0.212214 -0.054087 0.901081 0.647918 0.084168 0.254014 -0.509936 -0.116909 1.210189 -0.421675 -0.589218 0.062686 0.670042
b6 -0.416121 -0.218331 0.698242 0.101677 -0.140541 0.403014 0.870416 -0.020105 -0.461007 0.143472 -0.148362 -0.061686 -0.146506 0.065676 0.621812 0.582321 0.290161 -0.002940 -0.375399 -0.236761 0.393039 -0.528605 -0.426756 -0.998465 1.154621
c3 0.172249 -0.474432 0.094355 0.037425 -0.340032 0.037275 0.464040 -0.098775 -0.907748 -0.392552 -0.534046 0.225301 0.023749 0.715912 0.017101 0.600517 0.634268 0.174580 -0.194107 0.059371 0.728827 -1.146905 -0.620930 -0.662670 1.055575
Re1 -0.092893 -0.077170 -0.108252 0.246131 -0.455832 0.532439 0.580251 -0.313832 -0.992968 -0.209810 0.501966 -0.123663 0.191280 0.206466 0.863524 0.061159 0.201084 -0.705786 -0.308417 -0.518406 0.494412 -1.057289 -0.444061 -0.161240 0.274972
Bd7 -0.764603 -0.220053 0.626104 0.443102 -0.160041 0.476375 0.807694 0.554162 -0.697733 -0.194101 -0.704217 -0.066051 -0.042722 0.707254 0.465791 0.598123 -0.189641 0.326813 -1.011530 -0.151956 1.067461 -0.842552 0.011244 -0.257120 0.949928
b3 -0.107215 -0.178066 0.293446 -0.094734 -0.029627 0.464826 0.586886 0.268390 -1.091089 -0.176366 -0.103358 0.413685 0.107715 -0.032715 -0.063096 0.587638 0.495043 -0.087400 -0.389589 0.454939 0.514586 -0.810163 -0.360137 -0.457896 0.523859
Re8 -0.251124 0.198134 0.230847 0.138039 -0.344962 0.540422 0.583351 -0.375546 -0.790705 -0.385570 0.469117 -0.008454 0.459747 0.286936 1.353369 0.209577 -0.202810 -0.578017 -0.193680 -0.048968 0.293152 -0.909735 -0.406939 -0.347688 0.214147
exd5 0.117754 -0.174632 0.119257 -0.235895 0.028370 0.221675 0.637430 -0.619141 -0.329100 -0.214753 -0.747686 0.630616 0.172753 0.971133 0.089374 1.033355 0.293455 0.144610 -0.210773 -0.382088 0.880774 -1.476680 -0.927193 -0.284190 1.063875
Qd2 -0.241835 -0.069570 0.386329 0.472925 0.089739 0.161302 1.551456 0.109455 -0.104765 -0.272594 -0.155896 0.518578 0.169560 0.317961 0.202046 0.029804 -0.001392 0.140276 -1.019458 0.073282 1.791639 -1.429353 0.014170 -0.255612 -0.257421
Nd7 -0.777700 0.081881 0.398888 0.133387 0.209785 0.701250 0.712800 0.677235 -0.558224 -0.544824 -0.518168 -0.134778 -0.272687 -0.104187 0.474396 0.855770 0.023975 -0.057098 -0.930979 0.117073 1.147594 -0.540652 0.036285 -0.635289 0.768591
Nd5 -0.450170 -0.153795 -0.054428 -0.235493 0.180484 -0.137281 0.719915 -0.251650 -0.315072 -0.059380 -0.122147 0.550849 0.664491 0.186496 0.363757 1.073989 -0.172663 0.008455 -0.611400 -0.114775 0.642435 -0.916381 -0.574433 0.170200 0.819482
Ne4 -0.742530 -0.250815 -0.584836 -0.147094 0.204540 0.223422 0.514428 -0.400765 -0.394987 -0.395818 0.190819 0.532525 0.231516 -0.520225 0.569817 0.698882 0.000044 -0.007035 -0.685807 -0.294487 1.025459 -0.519595 -0.102877 -0.605067 0.601028
f3 -0.275306 0.067269 0.244712 -0.077173 0.114556 0.402784 0.650448 -0.014690 -0.463611 0.409212 0.467553 0.190685 -0.097109 0.059714 0.519851 0.100298 -0.101203 0.360797 -0.478090 -0.181476 0.651981 -0.411218 -0.207290 -0.773277 0.883577
Qe2 -0.136629 0.045856 0.034039 0.354915 0.293499 0.179383 1.817285 0.050235 0.022816 -0.421661 -0.295767 0.368444 0.299031 -0.130032 0.228326 -0.142461 0.432423 0.177991 -0.865646 -0.319302 1.704326 -0.952779 -0.242912 -0.556791 -0.017208
Rc8 -0.834508 -0.031053 0.300143 -0.361476 -0.146453 0.015272 0.870321 0.481051 0.053606 -0.101404 0.278802 0.840889 -0.511573 0.336929 0.056961 0.837373 0.263552 -0.483227 -0.408540 0.349483 -0.002208 -0.499705 -0.725737 -0.157368 0.377208
e3 0.201650 -0.751502 0.207957 0.016566 -0.289260 0.377867 0.885568 -1.063298 -0.529449 -0.122496 0.021906 0.001289 -0.417816 0.819780 0.285857 0.594661 0.117929 0.445571 0.396115 0.005155 0.610337 -0.778279 -0.609532 -1.045649 1.471676
Be6 -0.386292 -0.151542 0.184396 -0.457618 -0.091110 0.235924 0.546231 0.266673 -0.571594 -0.096576 -0.037178 -0.028665 0.743357 0.181004 0.409097 0.814262 0.059384 0.263120 -0.753082 0.233880 0.752468 -1.098343 -0.293218 -0.085353 0.883636
cxd5 -0.296892 -0.308402 0.257239 -0.225774 -0.016011 0.371349 0.600086 -0.707864 -0.193554 -0.183160 -0.503136 0.670697 0.154018 0.827552 0.458756 0.902995 0.011878 0.254111 -0.378348 -0.349883 0.906266 -1.446268 -0.647334 -0.608867 0.853485
Bg2 0.204373 -0.528017 0.394627 0.149254 -0.414309 0.628180 0.805661 -0.572168 -0.457941 0.032814 -0.373746 -0.145137 -0.181309 0.584137 0.396900 0.198555 0.612266 0.514394 -0.115451 -0.001024 0.919391 -0.626478 -0.401469 -0.658958 1.495287
Bb7 -0.265162 -0.143124 0.405211 -0.250724 0.042497 0.153103 0.968169 -0.013208 -0.476160 -0.026923 -0.280840 0.066724 0.061664 0.306946 0.515157 1.119177 0.200845 0.138986 -0.638069 0.119015 1.178269 -0.843005 -0.639217 -0.734424 1.162783
f6 0.015299 0.211553 -0.152116 -0.025516 0.113097 0.131650 0.306018 0.780681 -0.500550 -0.380417 -0.026788 -0.010731 0.274455 0.179644 0.445191 0.306274 0.194240 -0.224538 -0.808046 0.436872 0.391475 -0.582938 -0.185760 -0.267202 0.663909
Qc2 -0.105431 0.341739 0.316545 0.564292 0.168797 0.348544 1.895154 -0.175358 -0.320284 -0.349766 -0.045224 0.363992 -0.202422 -0.339062 0.228218 0.485183 0.143288 -0.062112 -0.637588 0.116651 1.772555 -1.050168 -0.097482 -0.763041 -0.084890
Kg7 0.628806 0.581291 -0.567414 0.053782 0.386420 0.841795 0.267464 0.298036 0.433142 -0.879530 1.097280 0.060949 -0.652544 0.246240 0.638138 -0.451413 -0.405826 -0.575962 -0.499405 1.462006 -0.337715 0.222463 0.270703 0.650552 0.176200
Bc4 0.031224 -0.353001 0.235251 -0.302277 -0.286712 0.611471 0.479416 -0.344856 -0.573356 -0.222673 -0.217309 0.003215 -0.091068 0.347477 0.158739 0.907216 0.437570 0.470938 -0.096973 0.364772 0.605722 -0.930743 -0.383409 -0.531482 1.200840
Rc1 -0.733433 -0.271610 0.096706 -0.148669 -0.197077 -0.057946 0.970902 0.342577 -0.105903 0.184792 0.634022 0.753778 -0.827838 0.187221 -0.160900 0.771608 0.324067 -0.542784 -0.316459 0.111416 0.159852 -0.517675 -0.658384 -0.232371 0.369015
Nd4 -0.378412 -0.248983 0.470867 -0.286921 -0.226123 -0.426720 0.574654 0.391047 -0.445911 0.012781 0.264342 -0.023094 0.385975 0.010932 0.259036 0.764574 0.157261 0.235356 -0.673670 -0.188070 0.814061 -0.863449 -0.389783 0.810610 0.715838
Bf4 -0.245753 0.199641 -0.136377 0.083354 -0.178683 0.471401 0.592904 -0.349574 -0.573750 -0.273532 -0.454378 0.182995 0.274010 0.127883 0.668935 0.424475 0.465837 -0.027054 -0.444747 -0.735344 0.961429 -0.704651 -0.526641 -0.397964 1.149348
Nd2 -0.580136 -0.287848 -0.302086 0.552864 -0.020538 0.302675 1.161788 0.147635 -0.770933 -0.053709 -0.072314 -0.113807 -0.286560 -0.289070 0.022588 0.794409 -0.076880 0.061943 -0.651665 -0.162622 1.046333 -0.394178 0.066349 -0.903778 0.878411
Qe7 -0.287215 0.153050 0.215739 0.234087 0.203413 0.379261 1.495410 0.192628 0.409784 -0.774620 -0.350052 0.319345 0.440576 -0.063134 0.581327 -0.113832 0.220766 0.124502 -1.026404 0.308686 1.370627 -0.933171 0.107612 -0.471574 -0.155203
dxe5 -0.315753 0.201665 -0.085196 -0.569731 0.235858 0.291331 0.609736 0.370788 -0.379415 -1.237492 -0.381046 -0.632499 0.406200 -0.048288 0.863857 0.574808 0.363535 0.477890 -0.537216 -0.242370 1.704556 -0.730752 -0.390323 -0.369446 0.665047
Rd1 -0.067194 0.311504 -0.044155 -0.571286 -0.038426 0.428176 0.694847 0.508133 -0.308831 0.198841 0.974119 0.091196 0.176561 -0.322340 0.170483 0.236879 0.650517 -0.147574 -0.001639 0.029242 0.176192 -0.723933 -0.602760 -0.059874 0.302357
Bd2 -0.630173 0.066474 -0.675768 0.701255 -0.550238 0.017634 0.968633 -0.115656 -0.889435 -0.143353 -0.500652 0.347830 -0.152672 -0.028715 -0.070767 0.806541 0.112166 0.112213 -1.047222 -0.569304 0.819298 -0.669758 0.115069 -0.649850 0.989023
Bd6 -0.563020 0.297332 -0.347537 0.290672 -0.283697 0.393654 0.507534 -0.185135 -0.467975 -0.271463 -0.320043 0.359855 -0.196845 -0.159332 0.739545 0.638355 0.538985 -0.400779 -0.687137 -0.843999 0.642067 -0.558694 -0.370443 -0.688953 1.194308
Rd8 -0.213644 0.443933 0.110981 -0.624402 0.045383 0.501003 0.680799 0.509422 -0.017453 -0.020252 0.782793 0.104057 0.489559 -0.159378 0.599929 0.474882 0.334775 0.001922 0.099298 0.503201 -0.198193 -0.517254 -0.622814 -0.206258 0.310738
Rb8 -0.566820 0.637532 0.621892 -0.418805 -0.107730 0.532535 1.183445 0.124151 -0.677295 -0.340984 0.012347 0.054922 -0.558359 0.280575 -0.386572 0.917000 -0.543211 -0.207814 -0.358209 0.261136 -0.102554 -0.092058 -0.212880 -0.002285 0.451087
Kg2 0.614855 0.333618 -0.417238 0.500660 0.395101 0.430122 0.946954 0.209213 0.186377 0.129834 1.771769 -0.251200 -1.176261 -0.013807 0.436958 -1.173243 -0.276408 -0.312597 -0.178101 -0.139414 0.097769 0.484907 0.053325 0.586300 0.460950
Nbd7 -0.185935 -0.401609 0.431012 -0.115728 0.229084 1.158898 0.765774 -0.959753 -1.198929 -0.558341 -1.375760 0.165993 -0.491108 0.529128 0.293146 1.323013 0.392526 -0.041142 -0.412444 -0.185919 2.789075 -1.093479 -0.644306 -1.507576 1.631828
Nxd5 -0.266450 -0.032672 -0.088688 -0.488366 0.362564 -0.155769 0.710190 -0.730556 -0.092828 -0.155322 -0.246126 0.999896 0.769296 0.687697 0.184496 1.289542 -0.309697 0.137620 -0.316123 -0.308419 0.882843 -1.512422 -0.932052 0.244126 0.731638
Kf7 0.177439 1.302133 -0.995431 0.130934 -0.144378 0.534463 -0.631697 0.678603 0.343617 -0.255866 0.730982 0.454726 -0.401840 0.497509 0.575315 -0.070772 -0.204123 -0.355394 -0.643938 0.609964 -0.903190 -0.120313 0.200034 0.492830 0.782558
Bg4 -0.251937 -0.407914 0.269568 -0.000904 -0.310467 0.513087 0.530554 -0.150406 -0.635624 -0.030540 -0.158208 -0.269102 0.340322 0.513079 0.829838 0.118945 0.124940 0.653118 -0.474030 -0.106432 1.371686 -0.865023 -0.208124 -0.680247 1.077107
Nxe4 -0.615856 -0.418906 -0.713392 -0.666823 0.648583 0.878912 0.353955 -1.119158 -0.430011 -0.790032 0.005999 0.524372 0.213713 -0.577210 0.206044 0.689815 -0.277520 0.150893 -0.339597 -0.563752 1.522348 -0.867801 0.047413 -1.007572 0.649444
Kf2 0.139281 0.531186 -0.525085 0.405561 0.081212 0.314602 0.004634 1.022710 -0.164726 0.906038 1.766927 0.092376 -0.861702 0.662944 0.179532 -0.696028 -0.459311 0.399505 -0.045411 -0.159860 -0.355537 -0.144135 -0.022120 0.506661 0.839204
Nc5 -0.915234 0.008526 0.830767 -0.332623 0.081742 0.262577 0.356892 0.663874 -0.649049 -0.113169 0.323934 -0.074031 -0.029532 -0.858197 0.325266 1.080294 0.094823 -0.169868 -0.648029 0.284059 0.803088 -0.516215 0.034810 0.084569 0.506038
Nxe5 -0.397748 0.099518 -0.084338 -0.222031 0.342700 -0.086647 0.744662 0.272894 -0.499130 -1.615484 -0.175433 -0.650971 0.169195 -0.346717 0.978785 0.617345 0.364671 0.481318 -0.005817 -0.560526 1.498368 -0.437472 -0.622202 0.170826 0.804565
Qd7 -0.295766 0.538104 0.309144 0.703730 0.075775 0.021011 1.793951 -0.014721 0.405661 -0.483724 -0.460784 0.450425 0.491490 0.125904 0.568352 0.078186 -0.066151 -0.406707 -0.952752 -0.254783 1.162670 -0.963377 -0.150170 -0.024779 -0.142076
Ke7 -0.348769 0.371492 -0.743339 -0.343952 0.259833 0.724408 -0.760650 1.610519 0.779123 -0.423664 -0.021553 -0.032858 -0.340316 0.046431 -0.093930 0.235416 0.418329 0.339939 -0.860775 0.348802 -1.323073 0.045613 0.417825 0.341901 1.528449
d3 0.446602 -0.371873 0.038224 0.081904 -0.695598 -0.235424 0.512127 -0.719378 -0.823566 -0.551282 -0.069320 -0.122537 -0.482990 0.623875 0.265498 0.378423 0.692300 0.330031 0.503544 -0.088027 0.793277 -0.834268 -0.745155 -0.809506 1.462535
Qb6 -0.083694 0.125044 0.574756 0.177071 0.307941 0.115418 1.690385 0.307128 0.121214 -0.487733 -0.443813 0.316732 0.100649 -0.027976 -0.090675 0.723190 0.414941 -0.021078 -0.652994 -0.097662 1.315111 -1.366048 -0.376608 -0.183547 0.039830
Bf5 -0.309433 -0.353843 -0.083681 0.233848 -0.218722 0.282362 0.243772 -0.380970 -0.757532 -0.408909 0.064342 0.245681 0.112037 0.305224 0.709445 0.408716 -0.087842 0.193398 -0.382343 0.006548 0.826778 -0.947336 -0.056002 -0.621656 0.732416
Nc4 -0.794934 0.040020 -0.173522 0.030394 0.332959 0.171632 1.094267 0.333789 -0.859414 0.185465 0.110095 0.191839 0.539355 -0.854914 -0.104282 1.022267 -0.043250 -0.308760 -0.405273 -0.012784 0.536294 0.052638 -0.404174 0.123006 0.649680
Kf8 -0.040437 1.051065 -1.071812 -0.151437 -0.212814 0.700367 0.022693 0.442373 0.376826 -0.855256 0.124088 0.710867 0.150048 0.915981 0.193784 0.255968 -0.047570 0.035761 -0.123296 0.884971 -0.555083 -0.244440 -0.258185 0.892245 0.334292
Rb1 -0.455508 0.475541 0.389815 -0.109550 -0.449919 0.301387 1.213436 0.233118 -0.971160 -0.137805 0.312736 -0.281983 -1.037431 0.120431 -0.689575 0.606408 -0.209743 -0.476899 -0.315076 -0.298456 0.123494 -0.148114 -0.119319 0.110324 0.519749
Ne2 -0.744167 -0.358493 0.601707 0.168937 -0.379012 0.034685 0.293186 0.658492 -0.501841 0.408719 0.045753 0.595972 -0.122728 0.401622 0.228509 -0.060373 0.241338 0.503548 -1.083345 0.055343 1.270139 -0.932233 0.063244 -0.038341 0.623122
Bb5 -0.288570 -0.285735 0.421479 0.181024 -0.272832 0.451643 0.761409 0.258364 -0.309780 -0.020677 -0.140410 -0.027140 -0.539726 0.580112 0.093541 0.843588 0.342299 0.272887 -0.074788 0.150430 0.447492 -0.755309 -0.429015 -0.352003 1.082241
Kh1 0.438248 -0.352430 0.310991 -0.528646 -0.336365 0.001561 1.553924 -1.025693 0.768978 0.216357 0.537912 -0.759197 0.048447 0.061349 0.331402 -1.322032 0.330132 -0.974455 -0.659572 -0.668743 2.015692 -0.283516 -0.262856 0.425122 0.555026
Bxf6 -0.033973 0.108298 -1.051478 -0.829770 0.432652 0.631332 0.386888 -0.163132 -0.095616 -0.922734 -0.495885 0.166024 0.804521 0.560227 0.133612 0.658490 -0.107405 -0.429355 -0.866561 0.038726 1.283965 -1.340157 -0.298235 -0.743885 0.477262
Kh8 0.393953 0.001194 -0.197846 -0.406149 -0.337833 -0.259432 1.073818 -1.388442 0.340616 -1.138589 0.300952 0.343215 0.931569 0.567808 0.662628 -0.413477 -0.699165 -0.295838 -0.362573 2.096284 1.372589 -0.363937 0.147089 -0.152127 -0.231157
Ne7 -0.455481 0.000585 -0.215819 0.585717 -0.234996 -0.511457 0.938527 0.605136 -0.204198 0.163673 -0.629385 0.426982 0.818651 0.698520 0.637413 0.466031 -0.039855 0.084571 -1.084153 0.118395 0.421526 -0.354916 -0.442215 -0.280475 1.098089
Ke2 -0.436633 0.124114 -1.072749 0.326248 0.201372 -0.118351 0.039952 1.099385 -0.265098 0.583073 1.400290 0.452300 -0.739580 -0.244632 -0.728590 -0.421451 -0.068766 1.455313 0.216988 -0.193048 -0.695232 0.350416 0.277433 -0.132686 1.346794
O-O-O -1.733136 0.261261 -0.053690 -0.390618 0.301643 0.043786 0.048388 1.151783 -0.676930 -0.927354 -1.884945 0.676231 2.133330 0.249235 0.249540 -0.148889 0.591190 1.014773 -0.455090 -1.280267 2.490292 -1.581797 -0.565381 -0.910480 0.746077
Bc5 0.062306 -0.004229 -0.180619 -0.223119 -0.243178 0.209832 0.863157 -0.083859 -0.425569 0.054913 0.028912 -0.120809 0.262593 -0.072080 0.084076 0.725975 0.679887 0.021383 -0.089160 -0.372235 0.386916 -0.552321 -0.685804 -0.177913 1.288295
Nb6 -0.910604 0.103080 0.333012 0.035971 0.605395 0.678385 0.995398 0.533091 -0.585116 0.235530 -0.460089 0.416858 0.216809 -0.222097 -0.043566 1.412829 -0.291019 -0.306948 -0.633407 0.189952 0.685610 -0.470011 -0.310274 -0.501858 0.759874
Qd3 -0.258664 0.128127 0.029325 0.644014 0.273511 0.101750 1.706170 -0.075350 0.151805 -0.518226 0.069072 0.693492 0.074240 -0.192618 0.057270 -0.078286 0.042488 -0.189410 -0.663850 -0.316226 1.117385 -1.182959 -0.007142 -0.107892 -0.357104
Bb4 -0.194883 0.005514 -0.569713 0.137344 -0.533932 0.392336 0.789996 -0.232374 -0.423423 0.013955 -0.158327 0.316034 -0.317316 0.097609 -0.144299 1.136760 0.614075 -0.055802 -0.275710 -0.186969 0.307817 -0.812492 -0.393857 -0.768649 1.210889
Kf6 0.605295 0.660127 -0.422276 0.016529 -0.066056 0.447691 -0.860399 0.660530 -0.245711 -0.104617 1.156106 0.102568 -0.886756 0.676241 0.796666 -0.114093 -0.194045 0.210609 -0.360443 0.781667 -1.655292 0.484645 -0.034208 0.951841 1.429549
Kf1 -0.321092 0.870356 -0.766075 0.009763 -0.560881 0.270244 0.601686 -0.029740 0.225194 0.641684 1.456707 0.408074 -0.883540 0.122091 -0.040567 -0.799385 0.309304 0.429652 0.330312 -1.091994 0.175965 0.013502 -0.340810 0.614762 0.629931
Ke3 -0.218664 -0.507097 -0.157821 -0.312548 -0.053301 0.306872 -0.885112 0.842800 -0.578312 0.603051 1.530052 0.223797 -1.120226 0.033883 -0.351518 -0.327790 -0.075401 1.324638 -0.352438 0.343630 -1.391903 0.281706 0.481632 0.312552 1.672077
Nf5 -0.275154 0.031387 -0.404329 0.327320 0.059621 -0.364667 0.561103 0.045148 -0.456307 0.117539 -0.055496 0.600711 1.206392 0.107840 0.693573 0.018218 -0.230640 -0.362579 -0.817312 0.030031 0.703212 -0.054703 -0.367340 0.333288 0.672932
Bb2 0.051418 -0.092597 -0.200871 0.259636 -0.408647 0.153640 0.880403 -0.433155 -0.797621 0.040865 -0.127074 0.132951 -0.134774 -0.114191 0.182661 1.147660 0.467561 -0.236204 -0.602247 0.120562 1.027130 -0.735791 -0.373454 -0.356360 1.101083
Rd2 -0.215099 -0.067021 0.001694 -0.836563 -0.252829 0.651243 0.602120 0.448637 -0.387635 0.301851 1.379200 0.187199 -0.003372 -0.271528 0.092004 -0.074356 0.683988 -0.206655 -0.208626 0.080080 -0.449280 -0.600988 -0.488199 0.273323 -0.143150
Kh2 1.238956 0.102756 0.370224 0.065245 0.152430 0.132689 1.375229 -0.489569 0.819614 0.504464 1.415970 -0.375228 -0.705994 0.269948 0.219609 -1.366281 -0.158254 -0.871108 -0.581872 0.441102 0.714392 -0.146753 0.092951 0.367987 0.348004
exd4 0.095576 -0.211635 0.190101 -0.244779 -0.302018 -0.490956 0.671775 -0.148140 -0.442390 -0.412780 -0.180166 -0.004072 -0.032834 0.732380 0.319951 0.904317 0.343986 0.486464 -0.249180 -0.532527 1.235654 -1.398345 -0.785805 -0.284650 0.815146
Kf3 0.565058 0.429077 -0.854238 0.054624 0.081641 0.678779 -0.600584 0.126041 -0.674585 0.863189 1.740601 0.603364 -1.103641 0.255879 -0.012387 -0.615327 -0.201192 0.335020 -0.289145 -0.220369 -1.233095 0.442399 0.037547 0.784374 1.424931
Nf4 -0.671548 -0.036046 0.747650 0.103292 -0.198950 -0.259123 -0.023704 0.160378 -0.472190 0.177698 0.309839 0.541979 0.316563 -0.101094 0.942739 -0.257941 -0.008669 0.028241 -0.820337 0.312114 1.115972 -0.420935 -0.076591 0.536474 0.450044
Qb3 -0.266100 0.357562 0.261329 0.433175 0.171763 0.076449 1.921010 -0.172771 0.223580 -0.314672 -0.224636 0.506200 -0.034752 -0.290023 0.000454 0.882138 0.179480 -0.029986 -0.479944 -0.164709 1.169785 -1.232599 -0.258837 -0.497523 -0.003319
Qf3 0.223864 0.652114 -0.161513 0.200151 0.426156 0.210309 1.341628 0.045758 0.319005 -0.286896 0.048661 0.572995 0.708700 -0.088585 0.359952 -0.752918 0.287305 -0.054784 -0.625598 -0.268002 1.257695 -0.912047 -0.229511 -0.201425 -0.128265
Qa5 -0.463079 0.418164 0.417946 0.097059 0.156087 0.612447 1.430947 0.325008 -0.126291 -0.668247 -0.607076 0.652078 -0.072062 0.125673 -0.504964 0.715901 0.407026 0.110173 -0.338134 -0.062375 1.394494 -1.588259 -0.272033 -0.222012 -0.138944
Bf6 -0.337753 0.681525 -0.464388 -0.115732 -0.280988 0.219803 0.453106 0.282807 -0.453146 -0.288017 0.085623 0.278966 0.493023 -0.166753 0.389228 0.172987 0.141617 -0.339689 -0.774160 0.228572 0.500502 -0.429816 -0.054821 -0.228426 0.442658
Rd7 -0.159739 0.451840 0.090882 -0.596112 -0.145014 0.407692 0.927944 0.404458 -0.040408 -0.151197 1.050924 0.154799 0.501188 -0.067980 0.731169 0.280691 0.233661 -0.103714 0.065457 0.523055 -1.063256 -0.188131 -0.704126 0.116192 -0.053834
Kh7 1.252942 0.729466 -0.238799 -0.077331 -0.121092 -0.053968 0.885660 -0.819553 0.796075 -0.542188 0.885650 0.347155 -0.164576 0.239699 0.390037 -0.781246 -0.286080 -0.703021 -0.647554 1.864011 0.296383 -0.077328 0.362083 0.033189 0.054911
Kg8 0.391148 0.541530 -0.655213 0.171163 -0.079885 0.512038 0.489098 -0.539212 0.498409 -1.962552 0.371668 0.477816 0.040991 0.394944 0.705363 -0.525580 -0.254307 -0.101637 0.093266 1.835347 -0.192701 0.181596 0.215827 0.898434 -0.084995
Rc7 -0.610457 0.133428 0.289207 -0.441417 -0.173993 0.136755 1.121736 0.543733 0.113103 -0.316145 0.867458 0.426303 -0.553054 0.256855 0.340239 0.567648 0.004309 -0.376133 -0.261738 0.774732 -0.975513 0.121801 -0.579641 0.013408 -0.054023
Bb3 -0.037856 -0.222735 0.149314 -0.240926 -0.147916 0.298745 0.380411 0.294901 -0.968768 -0.002272 0.104984 0.127748 0.303659 0.122192 0.330428 0.982596 0.425305 0.137818 -0.419921 0.713288 0.612983 -0.896175 -0.491478 -0.355792 0.864420
Ng5 -0.723691 -0.135376 -0.288006 0.023614 -0.302481 0.002755 0.395799 -0.314916 -0.193944 -0.990882 -0.146066 0.018449 0.329959 -0.427956 1.050765 0.102776 0.127158 0.309557 -0.813741 0.315732 1.337075 -0.003369 0.186755 0.007934 0.647697
Ke6 0.259900 0.032736 -0.849666 -0.114293 0.167669 0.124454 -0.741732 0.851939 -0.098786 0.048493 0.622960 0.009172 -0.262815 0.004950 0.212994 0.210599 0.168597 0.198989 -0.503660 0.332148 -2.184819 0.699221 -0.011468 0.380431 2.142126
Ng4 -0.228995 -0.269512 -0.420782 0.010262 0.333418 0.515011 0.964614 -0.102855 -0.703573 -0.305617 -0.042858 -0.200074 0.809189 -0.202457 0.503939 -0.278026 -0.058341 0.160200 -0.595556 -0.110145 1.512847 0.153389 -0.194888 0.340245 0.696624
dxe4 -0.310608 -0.299697 -0.611004 -0.327394 0.223463 0.317012 0.488400 -0.652244 -0.464294 -0.621943 -0.010163 0.104879 0.144475 -0.074718 0.463489 0.416946 -0.045442 0.282759 -0.387462 -0.372820 1.563195 -0.765694 -0.101340 -1.435761 0.608557
Rad1 -0.281566 0.460438 0.048165 -0.965910 0.383114 0.494802 0.899556 0.439720 0.061440 0.035350 0.163558 -0.076711 1.709180 -0.406383 1.639763 0.926248 0.659962 -0.096260 -0.950291 -0.171364 1.661885 -1.172549 -1.032232 -0.207885 0.019789
Bc6 -0.417121 0.364425 0.491461 -0.213976 0.051141 0.373222 0.617827 0.679073 -0.404913 0.159705 0.346059 -0.171338 0.271097 0.015869 0.378918 0.363720 -0.134693 -0.053075 -0.504479 0.088090 0.134110 -0.646298 -0.159462 -0.218109 0.674736
Ne3 -0.241479 -0.457710 -0.019294 0.232893 0.239172 -0.154452 1.068918 0.441847 -0.732073 0.792771 0.527787 0.201564 1.055474 -0.159888 0.114837 0.016443 -0.285233 0.031012 -0.640521 0.516398 0.447113 0.038597 -0.281330 0.591970 0.675573
Nb3 -0.686868 0.065792 0.468448 0.035737 -0.290940 -0.235854 0.727730 0.955507 -0.731387 0.273179 0.080966 -0.036440 -0.320133 -0.599858 -0.194598 1.162400 0.480090 -0.178752 -0.797962 -0.000220 1.019100 -0.747128 -0.100144 -0.388300 0.747737
bxc3 -0.322546 -0.059742 -0.558214 -0.066980 0.112241 0.026559 0.598403 0.429800 -1.055692 -0.869978 -0.347292 0.461689 0.106569 0.966415 -0.689302 0.685142 -0.303023 0.016994 0.005409 -0.046677 0.903395 -1.505887 -0.468577 -0.624093 0.152919
Qe3 -0.038544 0.064228 0.411007 0.097532 0.408411 0.141063 1.356059 0.506855 0.518484 -0.358320 0.456728 0.365225 0.326329 -0.288239 0.130993 -0.750899 0.325739 0.131362 -0.655117 0.308205 1.118960 -1.050939 0.104034 -0.077640 -0.486388
Bxf3 -0.281632 0.198389 -0.335918 -0.355883 -0.115901 -0.609562 1.015908 0.173959 -0.176449 -0.488390 0.560286 -0.714253 0.063141 0.302476 0.743250 0.151526 -0.067193 0.750223 -0.056485 -0.829430 1.675722 -0.823433 -0.571506 -0.903290 0.745727
Nd3 -0.971387 -0.023895 0.536037 0.371795 -0.173157 -0.151927 0.337666 0.235996 -0.738354 0.166490 0.784695 0.306548 -0.550741 -1.165138 0.392554 0.457135 0.039581 -0.153251 -0.661216 0.104862 0.605178 0.052456 0.266822 0.480085 0.387534
Bf3 -0.449355 0.151166 0.301283 -0.177831 0.072521 0.523410 0.598759 0.531657 -0.468887 0.494136 0.666419 -0.064322 0.253474 0.085356 0.452971 -0.165212 -0.251097 0.350669 -0.543601 -0.048006 0.532692 -0.525549 -0.057173 -0.309187 0.652033
Bd4 -0.249989 0.116194 -0.007665 -0.308109 0.074634 0.262377 0.575597 0.032444 -0.535845 -0.155790 0.568908 0.137400 0.211275 -0.426295 -0.060028 0.127263 0.029712 -0.326353 -0.323199 -0.093559 0.205199 -0.493664 -0.152254 0.316282 0.607457
Bxd5 -0.301669 0.274873 -0.045380 -0.721459 0.427405 -0.189085 0.548109 -0.081074 0.098534 -0.186767 0.229765 0.751044 0.850143 0.401053 0.249045 0.749114 -0.367760 -0.169773 -0.462860 -0.158218 0.294820 -1.392387 -0.673531 0.208134 0.222783
Nbd2 0.094978 -0.079879 -0.294492 0.649179 -0.542731 -0.316478 1.285824 -0.651397 -0.916014 -0.502696 -1.093661 -0.553808 -0.224848 0.326737 0.684280 1.488160 0.561403 -0.129830 -0.204270 -0.222094 2.309484 -0.680247 -0.777736 -1.738481 1.855662
axb5 -0.326213 0.393866 0.524070 -0.281573 0.330791 0.087064 1.199088 0.209775 -0.421184 0.288112 -0.206887 0.174541 0.199856 0.107991 -0.338448 0.787494 -0.474618 -0.372581 -0.912315 -0.488661 -0.030047 -0.372256 -0.301612 0.170675 0.687733
Qf6 0.092482 0.604610 0.089132 0.366938 0.157126 0.072143 1.044015 0.208815 0.453719 -0.703569 0.165337 0.348477 0.514158 0.106092 0.711379 -0.721568 0.036015 0.155342 -0.625467 0.180403 1.085172 -1.080004 0.102538 -0.023593 -0.328783
dxc5 -0.747625 0.257397 0.647263 -0.494690 0.211580 0.250814 0.677021 0.245369 -0.221340 -0.763423 -0.236124 -0.184919 -0.460561 -0.256770 0.480175 1.178293 0.134388 0.368065 -0.441532 -0.441754 1.196521 -0.893750 -0.236118 -1.054586 0.564610
Ne6 -0.534412 0.126057 0.740149 -0.383045 -0.297945 -0.064321 0.076416 0.133843 -0.021532 0.062578 0.480243 0.071484 0.591336 -0.645744 0.895567 0.278818 0.073538 -0.050749 -0.994843 0.690689 0.488220 -0.279623 0.238429 0.634125 0.673114
Kd7 -0.680218 0.301277 -0.444018 0.748231 -0.301165 -0.094064 -0.522926 1.043437 0.511597 -0.401187 -0.730994 -0.027076 0.147113 -0.044041 -0.138354 -0.160078 0.247112 -0.437748 -0.716155 -0.945310 -2.051435 -0.247420 0.553976 0.245606 1.781176
Re2 -0.039012 -0.209641 -0.371100 -0.006097 -0.475998 0.582285 0.596359 -0.108019 -0.784772 0.042110 1.264484 0.039491 0.066877 -0.390826 0.444089 -0.701909 0.458844 -0.775457 -0.401106 -0.484722 -0.496060 -0.509597 -0.130839 0.265485 -0.320915
Rf8 -0.423364 -0.581537 0.109667 -0.124560 -0.047024 0.158556 0.749851 -0.282702 0.145536 -1.000382 0.374023 -0.196591 0.532519 -0.082673 0.757866 -0.893754 -0.305976 -0.142589 -0.405443 0.511178 -0.350742 0.154641 0.304143 -0.142400 0.241695
Rc2 -0.534616 -0.190515 -0.143273 -0.555385 -0.342764 0.338013 0.960855 0.243258 -0.188409 0.304589 1.253799 0.548625 -1.128173 -0.204834 -0.378867 0.267515 0.455108 -0.771032 -0.490219 0.001922 -0.523193 -0.021251 -0.398234 0.127852 -0.039310
Bxe4 -0.575866 -0.159199 -0.594016 -0.655280 0.666440 0.405248 0.358810 -0.446252 -0.276771 -0.657071 0.700140 0.258706 0.313093 -0.474226 0.335727 0.222995 -0.555928 -0.080428 -0.397142 -0.378214 1.049384 -0.849391 0.069799 -0.892471 0.059780
Qd6 -0.129420 0.217061 0.543975 0.649716 0.273357 0.078065 1.403885 0.129274 0.598251 -0.903982 0.053224 0.256231 0.008730 -0.078793 0.734757 -0.024508 0.079790 -0.320972 -0.499702 -0.048318 0.767678 -1.328178 -0.009041 -0.091736 -0.271739
Kd3 -0.522055 -0.603791 -0.335137 0.593298 -0.225091 0.027058 -0.671830 0.185508 -1.230913 0.520169 0.845332 0.765413 -0.576810 -0.370557 -0.846553 -0.208827 -0.305183 0.823867 -0.170442 -0.249437 -2.047221 0.072982 0.722683 0.039881 1.692707
Re7 -0.238260 0.076269 0.247502 0.058419 -0.333166 0.670726 0.577264 -0.158158 -0.299104 -0.552124 0.989018 -0.060243 0.369517 0.082126 1.356296 -0.325247 -0.260015 -0.345674 -0.107404 0.393909 -1.008241 -0.359006 -0.075710 0.024832 -0.283917
Bxe5 -0.387907 0.490071 -0.184213 -0.468015 0.324162 0.090873 0.523652 0.205291 -0.281003 -1.338393 0.286190 -0.444511 0.275878 -0.567484 0.849506 0.244822 0.136991 -0.056253 -0.159627 -0.522259 0.944988 -0.469878 -0.351639 0.073435 0.267236
Kg1 0.299256 -0.233279 -0.244724 0.170080 0.125122 0.661490 1.170825 -0.441934 0.532449 0.196177 1.480813 -0.204805 -0.885946 -0.079509 0.001509 -1.846259 0.283751 -0.290115 0.299050 -0.927439 0.537841 0.346364 -0.164010 1.026603 0.469671
Kg3 1.087119 -0.120396 -0.206426 0.221628 0.296441 0.596682 -0.020163 0.000350 -0.339983 0.189016 1.759055 -0.067421 -1.480356 0.260847 0.237616 -1.235116 -0.101187 0.208424 -0.296751 0.221129 -0.763869 0.603536 0.157796 1.144511 1.110470
Ra8 -0.277487 0.930098 0.537585 -0.516172 -0.384183 0.095997 1.042536 0.269613 -0.533967 0.222470 0.541958 -0.210284 -0.704245 0.154739 -0.618053 0.473687 -0.744133 -0.595611 -0.672796 0.561479 -0.915468 0.403704 0.149102 0.034656 0.498674
Ng3 -0.418136 -0.405863 0.123075 0.208399 0.231450 0.361489 0.228470 0.090653 -0.797823 0.370939 -0.073253 0.630575 0.598005 0.231849 0.557643 -0.512077 -0.279587 -0.280207 -1.161593 0.124625 1.498172 -0.380652 0.052392 -0.406226 0.478240
Rf1 -0.134748 -0.963534 0.026374 -0.178096 -0.088978 0.206142 0.664086 -0.073170 -0.307365 -0.542358 0.740259 -0.328768 0.236809 -0.333638 0.087807 -1.349148 0.133153 -0.446511 -0.503390 0.119606 0.117970 -0.039961 0.322817 0.188514 0.138250
Nd6 -0.821920 -0.120879 -0.083131 0.376111 0.300530 0.255133 0.651205 0.069382 -0.235478 -0.020617 0.282244 0.379445 0.569172 -0.791427 0.559241 0.988632 -0.418360 -0.435843 -0.501965 0.425130 -0.115891 0.282478 0.009883 0.407253 0.698399
Bf8 -0.516791 0.785123 -0.090038 0.062934 -0.368430 0.279996 0.998632 0.330981 -0.118214 0.195613 -0.046694 0.495388 0.404348 -0.443418 0.068071 0.579002 0.199507 -0.865708 -0.733822 1.016435 0.451517 0.001984 -0.071680 -0.363987 0.373180
Kg6 1.233032 0.399582 -0.614074 0.139478 0.375195 0.464851 -0.161276 -0.030228 0.052512 -0.579476 1.063833 0.094803 -0.818439 0.412744 0.673037 -0.598906 -0.271121 -0.220257 -0.448485 1.142238 -1.397276 0.938404 0.068298 0.814816 1.190704
Kd2 -0.837110 -0.504965 -0.115411 0.862224 -0.177795 -0.184646 -0.667337 0.897053 -1.047903 0.168962 0.876091 0.774873 -0.386161 0.101385 -0.961150 -0.693902 -0.498902 1.432580 0.370656 -0.014090 -1.098437 -0.732294 0.857619 -0.020476 0.839357
Kd6 -0.465751 -0.661533 0.492991 0.670703 -0.236542 -0.088959 -1.076734 1.056110 -0.371475 -0.098423 0.171980 -0.326067 -0.575266 0.110468 0.315514 0.088767 -0.057041 -0.073971 -0.388541 -0.002776 -2.432944 -0.011084 0.461387 0.298144 2.125359
Bxc4 -0.495598 -0.282655 -0.251313 -0.385227 0.864833 0.351426 0.948058 0.328872 -0.876225 -0.542315 -0.107415 0.312847 0.182829 -0.126986 -0.443942 1.186348 -0.171090 -0.006154 0.062101 0.166126 0.745495 -0.591944 -0.643605 -0.532450 0.414125
Bxd4 -0.083086 0.121091 0.208715 -0.658743 -0.135983 -0.696094 0.613525 0.434383 -0.298955 -0.349761 0.535362 0.052945 0.339113 0.149029 -0.008621 0.408718 0.351746 0.137116 -0.310738 -0.693859 0.938365 -1.347456 -0.714971 0.660179 0.267363
Nb5 -1.022925 0.095641 0.189000 -0.030637 -0.096257 0.133319 1.079285 0.053266 -0.118788 0.238235 -0.391060 0.612226 0.400268 -0.035734 -0.309391 1.337956 -0.168286 0.197176 -0.672749 -0.440607 0.297290 -0.433769 -0.290657 0.766677 0.886313
Qd8 -0.171646 0.693005 0.350715 0.399682 0.132351 0.386245 1.688034 0.081359 0.580118 -0.470921 -0.737631 0.276306 0.295314 0.258847 0.275907 -0.058737 -0.194060 -0.451313 -1.130169 0.389188 1.141153 -0.474136 0.156092 -0.157120 -0.109760
Be4 -0.356893 -0.042474 -0.137029 -0.016119 -0.157120 -0.373068 0.444366 0.203335 -0.427822 -0.201896 0.721180 0.112329 0.210114 -0.025338 0.505605 0.041419 -0.127982 -0.008476 -0.263558 0.147016 0.093408 -0.530180 -0.199661 -0.399910 0.626848
fxe5 -0.322072 -0.110078 -0.133159 -0.414996 0.230225 -0.026248 0.350849 0.715958 -0.391469 -1.151701 -0.006572 -0.738933 0.331315 -0.294840 0.578593 0.279548 0.180697 0.159752 -0.589090 -0.277561 0.649226 -0.413586 -0.104027 0.194677 0.492708
Nh5 -0.561309 -0.080006 0.399489 -0.186757 0.014201 0.415992 0.291224 -0.023095 -0.482180 0.251321 -0.212778 0.467239 0.670861 0.272167 0.726092 -0.468801 -0.278660 -0.388272 -1.361648 0.337354 1.880615 -0.490602 0.100645 -0.155191 0.413078
dxc4 -0.130958 -0.287123 -0.435444 0.087838 0.366800 -0.031517 1.133858 -0.026859 -0.832799 -0.721979 -0.462599 0.023102 -0.119040 0.117756 -0.059855 1.089080 0.244862 -0.061255 0.057812 -0.232062 0.932762 -0.610513 -0.807091 -1.002780 0.754748
Bd5 -0.284204 -0.020659 0.062955 -0.323392 -0.137623 -0.052509 0.466827 0.130809 -0.253494 -0.292633 0.723879 -0.138557 0.248269 -0.224152 0.449322 0.369671 -0.022727 -0.147643 -0.193064 0.233094 -0.216355 -0.551015 -0.171238 -0.047778 0.702481
axb4 -0.429021 0.017293 0.668952 -0.257070 -0.323001 -0.319091 0.597732 0.560214 -0.755916 0.005273 0.414989 -0.145403 -0.444625 -0.110018 -0.375738 0.872549 -0.391810 0.079293 -1.041137 0.336919 0.102660 -0.897189 0.403375 -0.210611 0.220011
Rd3 0.114905 -0.045043 -0.420892 -0.556303 0.148548 0.263304 0.658726 0.819587 -0.616947 0.207287 1.279047 0.338226 0.067419 -0.194693 0.032348 -0.183869 0.683313 -0.597391 -0.226560 -0.072228 -0.690953 -0.370101 -0.780881 -0.060590 -0.053772
Ra1 -0.103600 0.618139 0.309289 -0.350079 -0.513488 0.028308 1.003238 0.334705 -0.905425 0.451729 0.760263 -0.370015 -0.913295 0.121467 -0.975783 0.275900 -0.596723 -0.794988 -0.734153 0.260918 -0.662917 0.247158 0.232418 0.100422 0.531619
Bc2 -0.262771 -0.006990 0.305331 0.391906 -0.279621 0.300357 0.470606 0.575874 -1.422355 0.026232 0.299929 -0.207023 0.183171 -0.213633 0.465976 0.387812 -0.093632 0.121832 -0.688549 0.867090 0.686774 -0.470287 0.218065 -0.516455 0.601720
Bh6 -0.581358 -0.260839 -0.156885 -0.090265 -0.258321 0.018889 0.817664 0.064143 -0.308890 -0.178042 -0.114019 0.236086 0.777011 0.042260 0.103658 -0.040015 -0.172144 -0.178356 -0.999552 0.674504 1.309136 -0.420820 0.215741 -0.002133 0.347029
Na5 -0.950482 0.260517 0.154442 0.129636 -0.159440 -0.241381 1.381632 0.925017 -0.738882 0.006495 -0.286419 -0.027318 0.303389 -0.473841 -0.078256 1.396916 0.329582 0.055286 -0.536868 0.017511 0.754506 -0.307122 -0.462871 -0.294994 0.713227
Be5 -0.290602 0.320303 -0.064693 -0.346786 0.051313 0.441373 0.234561 -0.188165 -0.307539 -0.262529 0.446603 0.394676 0.244695 -0.401889 0.406751 -0.099654 0.119200 -0.472488 -0.477370 -0.172488 0.111974 -0.340234 -0.130778 0.051310 0.616300
Nb4 -0.941324 0.013632 0.354745 0.089580 -0.597913 -0.605418 0.688217 0.179918 -0.546988 0.202524 0.174251 0.511584 -0.075653 -0.297847 -0.124170 1.461909 0.100442 0.454840 -0.630425 0.046232 0.493343 -0.905297 -0.166315 0.489540 0.602588
Ng6 -0.456344 0.105419 0.229541 0.554611 -0.149063 -0.553845 0.517200 0.592071 -0.462498 -0.231878 -0.267450 0.161640 0.639796 0.263400 1.313726 -0.302740 0.041424 -0.148756 -0.987821 0.222800 1.128840 -0.007156 -0.370637 -0.009074 0.654114
Bc3 -0.254749 0.664762 -0.475251 0.266541 -0.453013 0.147992 0.706130 0.220521 -0.918477 0.056615 0.547291 0.031680 0.124689 -0.541361 0.032469 0.486509 0.045864 -0.270359 -0.523936 -0.069359 0.089979 -0.457696 0.084801 -0.098409 0.553750
Qxd4 0.191658 -0.134021 0.158107 -0.293291 0.194253 -0.312547 0.860028 0.208731 0.372081 -1.080964 0.073999 0.039279 0.018522 0.533136 0.023616 0.230721 0.417674 0.341657 0.045915 -0.585344 1.094142 -1.797145 -0.589653 0.372364 0.150085
Qxd5 0.267275 0.251241 -0.282106 -0.229768 0.224761 -0.169106 1.003824 -0.799921 0.499895 -0.850634 -0.000593 0.654716 0.345611 0.374570 0.063363 0.437616 0.136493 0.105909 0.159065 -0.607926 0.442759 -1.605896 -0.654593 -0.042580 0.318274
bxc6 -0.738970 0.874628 0.570849 -0.360108 -0.319795 -0.214504 0.834402 0.167767 0.271913 -0.316796 -0.116401 -0.332464 -0.211584 0.461740 0.626682 0.763075 -0.160444 0.309114 -0.181751 -1.200961 0.602315 -1.110506 -0.475660 -0.843312 0.820847
exf5 -0.049350 -0.163207 -0.408811 -0.062841 0.202097 -0.584037 0.434272 0.233189 -0.485205 -0.165382 -0.180744 0.468649 1.309849 0.418440 0.367743 -0.158142 -0.476135 -0.238540 -1.315303 0.096990 0.785909 -0.430312 -0.116947 0.359310 0.427790
Rg8 -0.250270 0.196762 0.011312 -0.460223 -0.581395 -0.273888 0.005569 0.413579 0.046064 -0.345310 -0.540190 0.183467 0.773501 0.799314 0.251165 -1.564947 0.144697 0.097136 -1.012142 0.340750 -0.149669 0.180856 0.173166 -0.547095 0.754545
Re3 0.196825 -0.374083 0.004739 0.044454 -0.145492 0.255555 0.292833 0.443222 -0.972277 -0.215341 1.237608 -0.069871 -0.040871 -0.000798 0.755753 -0.793634 0.346852 -0.866761 -0.417105 -0.136149 -0.352802 -0.643441 -0.317361 0.019823 -0.293029
Rf7 -0.535538 -0.401780 0.338491 -0.106160 -0.316285 0.043907 0.730694 -0.307617 0.041908 -0.761441 0.351553 -0.015371 0.606765 0.261185 0.937410 -0.965912 -0.517462 -0.162945 -0.644262 0.520476 -0.591422 0.067005 0.320669 -0.260816 -0.018786
Ba6 -1.140646 -0.354229 0.530328 0.188734 -0.091358 0.258127 1.013867 0.426318 -0.343340 -0.011233 -0.046443 0.150351 -0.389314 0.014091 0.005536 1.084641 -0.153536 0.012684 -0.374222 0.126274 0.877326 -0.550078 -0.147736 -0.227088 0.562105
Qg4 0.056362 0.189131 -0.189339 0.296086 0.124897 -0.138255 1.198712 -0.002388 0.582242 -0.726070 0.125201 0.350511 0.713971 -0.027361 0.715781 -0.866327 0.269003 -0.088620 -0.591388 0.088852 1.260274 -0.775100 -0.122804 -0.069838 -0.260102
Rfd1 -0.382296 0.748755 0.402581 -1.275673 0.434910 0.500564 1.646489 0.512915 0.612583 0.425692 0.298739 -0.004498 0.708274 -0.228499 1.100736 1.664022 0.646464 -0.292184 -0.858960 -0.083135 1.613774 -1.003644 -1.308134 -0.367387 -0.167787
Ra7 -0.327989 0.483308 0.362166 -0.691446 -0.460400 0.280053 1.137329 0.023875 -0.659474 -0.312768 0.347175 -0.242275 -0.572013 0.484710 -0.166277 0.649542 -0.697998 -0.352211 -0.690265 0.743538 -1.036085 0.639187 -0.093564 0.189063 0.278117
Rad8 -0.209583 0.067426 -0.263142 -0.498859 0.292380 0.167805 0.897722 0.590138 -0.625657 0.238137 0.944001 0.062544 1.406200 -0.483461 1.430237 0.561042 0.492644 0.226955 -0.420450 0.086504 1.746083 -1.216372 -0.899726 -0.432839 -0.530518
fxe4 -0.776293 -0.468532 -0.258813 -0.492442 0.536458 0.426117 0.310348 -0.555455 -0.306319 -0.169970 0.615294 0.264106 0.168602 -0.421376 0.145281 0.190177 -0.865537 0.291046 -0.591058 -0.337964 0.679144 -0.540680 0.459760 -0.815974 0.348349
Qh4 -0.154304 0.037556 -0.217913 -0.138979 0.046112 0.151915 1.126213 -0.346121 0.435483 -0.508800 0.009077 0.381846 0.944244 0.052009 0.478947 -1.138229 0.067980 -0.133516 -0.841991 0.099419 1.670173 -0.765908 0.107701 -0.212160 -0.386278
Bxc6 -0.572325 0.806595 0.374753 -0.475853 -0.442688 -0.461136 0.809732 0.308343 0.308274 -0.481038 0.061208 -0.396986 -0.017455 0.468124 0.552130 0.952875 0.058205 0.229130 0.028839 -0.699641 0.463096 -1.096793 -0.666712 -0.527951 0.820369
Ke4 0.403093 -0.488306 -0.579651 -0.097538 -0.127248 -0.411911 -0.938973 -0.002608 -0.844952 0.384943 1.262346 0.391802 -0.755626 -0.141745 -0.104605 -0.202849 0.132082 0.338927 -0.195688 0.365894 -2.034099 0.861153 0.027820 0.306171 2.549595
Ke5 0.303915 -0.908927 0.003950 -0.298683 0.044516 0.166437 -1.214763 0.185231 -0.579718 0.348458 1.149274 0.017037 -0.767523 0.316320 0.128360 -0.139131 -0.301794 0.187448 -0.275569 0.725394 -2.173561 0.573920 0.200271 0.344769 2.500492
Bxc5 -0.744883 0.509282 0.486529 -0.769771 0.203085 0.048388 0.435016 0.274834 -0.063733 -0.573852 0.191185 -0.182509 -0.372758 -0.919721 0.207540 1.147099 0.330737 0.000421 -0.252830 -0.576896 0.837619 -0.657904 -0.253931 -0.556867 0.587457
Bh4 -0.374930 0.030505 -0.273883 0.128187 -0.296552 0.512869 0.572138 -0.396022 -0.667218 0.214395 -0.460130 0.324359 0.661887 0.065288 0.533418 -0.227722 0.241005 -0.387281 -0.815182 -0.203379 1.159628 -0.327748 -0.160726 -0.934023 0.990075
Rac8 -1.102340 -0.358686 -0.119536 -0.421904 0.308819 -0.203261 1.025139 0.944567 -0.070372 0.030266 0.507276 1.177438 -0.054095 0.141013 0.422781 1.167277 0.448952 -0.210980 -0.822643 0.163936 1.524934 -1.160814 -1.012321 -0.253436 -0.751483
Bf1 -0.687538 -0.029340 0.900347 0.185318 -0.240980 0.396276 1.118523 0.642758 -0.223309 0.945561 0.660719 -0.075800 -0.398874 -0.094908 0.027310 0.049317 -0.112498 -0.180680 -0.591172 0.495433 0.760720 -0.178539 0.081036 -0.001836 0.417046
Na4 -1.377041 0.163878 0.721270 -0.236067 0.227208 0.797445 0.852655 0.902602 -0.639492 0.153774 -0.125625 0.175537 0.053581 -0.528028 -0.254856 1.175886 -0.077641 -0.068129 -0.529837 0.118923 0.883307 -0.556369 -0.084901 -0.078832 0.402010
Rac1 -1.287681 -0.056148 -0.095267 -0.216707 0.124156 -0.302330 1.344871 0.583500 0.764554 0.129006 0.092772 0.706823 -0.067271 0.008524 0.993359 1.643384 0.387488 -0.460540 -1.031847 -0.407618 1.320371 -0.773628 -1.023579 -0.367366 -0.087821
gxf5 0.088148 -0.024103 -0.509246 -0.064556 0.161948 -0.360628 -0.100022 0.308619 -0.559378 -0.008221 0.216482 0.504061 0.960571 0.409079 0.213194 -0.281606 -0.622954 -0.398520 -1.231344 0.407634 0.162336 -0.240219 0.150116 0.405291 0.512358
Rd6 -0.149369 0.354669 0.357730 -0.908090 -0.024049 0.445444 0.300933 0.452310 0.001136 -0.199421 1.287306 0.117689 0.111809 -0.076054 1.020241 0.182384 0.192212 -0.122866 -0.180126 0.596886 -1.206158 -0.376608 -0.508837 -0.351080 -0.029229
Bg3 -0.585267 0.187017 -0.113008 0.266995 -0.118186 0.320849 0.507385 -0.186387 -0.588077 0.208043 -0.042832 0.336495 0.302797 -0.479636 0.833182 -0.067516 0.358959 -0.509537 -0.716309 -0.811544 0.815646 -0.228009 -0.278863 -0.603760 0.892322
Qh5 -0.082372 0.152913 -0.373400 0.033689 -0.148133 -0.324226 1.282848 -0.292856 0.532943 -0.810502 -0.159900 0.231763 1.048515 0.176365 0.760279 -0.949111 0.194497 0.086542 -0.788819 0.047854 1.564130 -0.628764 -0.093045 -0.314968 -0.155755
Rfe1 -0.501433 0.484971 -0.121507 0.181937 -0.137865 0.492564 1.028454 -0.175354 -0.135815 -0.356937 0.116862 -0.324836 0.835838 -0.056963 2.005828 0.836847 -0.030359 -1.220586 -0.968583 -0.909784 1.510362 -1.379007 -0.579512 -0.087012 -0.449612
Qc6 0.259691 0.979634 0.295109 0.241771 0.591151 0.353076 1.669877 0.187173 0.659257 -0.426929 0.036372 0.332166 0.571252 -0.643470 -0.029528 -0.026791 0.185780 -0.308342 -0.366253 -0.114819 0.380324 -1.052802 -0.040507 0.051744 -0.260363
Rf2 -0.128725 -0.978737 0.069694 -0.321471 -0.358611 0.261130 0.652938 0.093957 -0.523495 -0.147678 0.798804 -0.187675 0.253197 -0.041828 -0.034384 -1.488204 0.281402 -0.414596 -0.719345 -0.075865 -0.101896 -0.222802 0.207747 0.229092 -0.061228
Kf4 0.945704 -0.176247 -0.458502 0.102914 -0.032090 0.275391 -1.048056 -0.112696 -0.957345 0.410021 1.366200 0.281767 -1.162072 0.491465 0.329302 -0.645908 -0.091732 0.180836 -0.156380 0.534702 -1.566083 0.878564 -0.020464 0.489891 2.180114
Qg3 0.027320 0.024285 0.140068 0.286038 0.293670 0.192979 1.111622 0.042380 0.179601 -0.660886 0.101580 0.396343 0.714268 -0.185217 0.582510 -1.166543 0.314049 -0.159332 -0.641679 0.035156 1.396875 -0.882627 0.024080 0.051372 -0.418856
Qf2 0.034029 0.113231 0.578624 0.234321 0.327592 0.288701 1.297460 0.404936 0.207239 0.019469 0.268682 0.415171 0.659773 -0.266371 0.022442 -1.273585 0.288158 -0.118715 -0.621632 0.159443 1.297392 -0.935973 0.151508 0.020443 -0.478667
Nc7 -0.903270 0.392311 0.766358 -0.053288 -0.277947 0.545133 0.457415 -0.113412 -0.260599 0.474127 -0.059369 0.294971 0.472708 -0.299461 0.251687 0.954202 -0.584276 -0.192300 -1.189228 0.184534 0.094395 -0.631030 0.452997 0.691033 0.699853
Qg5 0.035308 -0.083561 -0.006964 0.237029 0.456278 0.103729 1.222121 0.110223 0.667625 -0.513746 0.257284 0.336891 0.713746 0.184681 0.555254 -1.002920 -0.141226 -0.154745 -0.660322 0.356069 1.286078 -0.732239 0.021838 0.094560 -0.403608
hxg5 -0.242796 0.374864 -0.070853 -0.225734 0.220215 0.097017 -0.443748 0.527826 -0.535738 -0.808749 0.182859 0.425268 -0.203414 -0.067417 0.758827 -0.599544 -0.000510 0.412417 -0.890505 0.633161 0.334246 0.308626 0.245864 -0.204357 0.480719
Bxc3 -0.580533 0.061303 -0.699139 -0.262500 0.247941 0.351675 0.643384 0.074580 -0.749436 -0.543733 0.124277 0.481589 -0.000538 0.512707 -0.738480 0.818172 -0.424358 -0.214386 0.112935 -0.479113 0.829384 -1.431197 -0.414522 -0.384742 0.093148
Kf5 0.933809 0.234859 -0.667324 -0.027967 -0.028551 0.259646 -1.202127 -0.348359 -0.736418 0.085800 1.121850 0.303421 -1.109945 0.339651 0.536459 -0.437639 -0.117506 -0.071996 -0.364080 0.481875 -1.829593 0.913764 0.066491 0.284289 2.268705
Nxc6 -0.562732 0.825690 0.481546 -0.419623 -0.528627 -1.014821 0.938602 0.178164 0.192611 -0.587270 -0.135345 -0.147840 0.023555 0.406479 0.456457 1.296659 0.271374 0.598432 0.102149 -0.812712 0.634990 -1.049257 -0.933050 0.053624 1.011093
Qd4 0.209559 0.009031 0.333782 0.383029 0.599250 0.392918 1.275836 0.143184 0.578352 -0.821076 0.410013 0.244364 0.054860 -0.235696 -0.075022 -0.424034 0.016157 0.095651 -0.216522 0.002142 0.517086 -1.474062 0.231708 0.184947 -0.413251
Qf4 0.189668 0.473341 -0.122897 0.498109 0.325901 0.276353 1.152942 0.305548 0.569297 -0.634337 0.325249 0.484010 0.369252 -0.011125 0.504218 -0.890434 0.286036 -0.073098 -0.378611 0.060693 0.865150 -1.026228 -0.001720 0.024143 -0.456108
Ne8 -0.782387 0.206424 0.377109 -0.025840 -0.103737 1.106888 0.949964 0.151151 -0.022978 0.423759 -0.384509 0.477340 0.473134 0.028434 0.285519 0.867964 -0.365509 -0.414829 -1.401456 1.136503 0.464018 -0.139130 0.310497 -0.005812 0.551951
Rg1 -0.268641 -0.075092 -0.108656 -0.497148 -0.539912 -0.185292 -0.008495 0.014412 -0.452715 0.207382 0.103083 0.642216 0.402421 0.436373 -0.264329 -1.890805 0.125425 0.357513 -0.905307 0.165641 0.276396 0.125393 0.348383 -0.677646 0.549920
Rb7 -0.356539 0.703787 0.397690 -0.536110 -0.433747 0.439223 1.253133 0.112666 -0.498783 -0.372955 0.557833 0.010836 -0.685245 0.412628 -0.320335 0.441090 -0.539286 -0.315200 -0.338233 0.588680 -1.365570 0.482742 -0.171721 0.274855 0.139777
Qc3 0.187351 0.589832 0.387890 0.586834 0.217825 0.161226 1.547512 0.400162 0.331614 -0.361233 0.541112 0.094789 0.062276 -0.535928 -0.119171 -0.144408 0.053494 0.025131 -0.353823 0.213888 0.656869 -1.332017 0.350403 0.106566 -0.560268
Kd4 -0.295459 -1.191758 0.373595 0.364384 -0.045399 -0.091542 -1.220081 0.123112 -1.223364 0.190787 0.962448 0.226042 -0.902406 -0.226602 -0.246855 -0.054715 -0.387700 0.236313 0.043293 0.320912 -2.361325 0.273164 0.571516 -0.072115 2.348918
Qe6 0.263716 0.439897 -0.090572 0.280963 0.517082 0.004423 1.619936 0.129391 0.889203 -0.565398 0.264002 0.359887 0.858310 -0.386267 0.425260 -0.548161 0.177052 -0.228540 -0.511932 0.280102 0.444707 -0.752553 -0.055146 -0.133696 -0.233922
Rfd8 -0.200933 0.505138 -0.201503 -0.911955 0.361708 0.094243 1.496768 0.634222 -0.516841 0.242907 1.030361 0.531518 0.489358 -0.218337 0.485778 1.440319 0.492365 0.209584 -0.283991 0.592934 1.947801 -1.182682 -1.262393 -0.435138 -0.854388
Bg6 -0.480024 -0.346877 -0.019819 0.605593 -0.358092 0.021952 0.117611 0.078578 -0.963762 -0.384430 -0.092586 0.184607 0.441814 0.182344 0.912322 0.082667 -0.159425 -0.071255 -0.595935 0.517270 0.632746 -0.545656 0.114067 -0.695462 0.598320
Rc3 -0.278626 -0.349950 0.020520 -0.242654 -0.128779 -0.238539 0.876173 0.954855 -0.395660 0.143973 1.263566 0.369688 -1.087564 0.088091 -0.179761 0.116887 0.400369 -0.767767 -0.405678 0.160887 -0.807729 -0.016798 -0.583671 -0.000001 -0.027061
Nxc3 -0.613786 -0.437142 -0.292382 -0.283673 0.222800 0.346575 0.442718 -0.141184 -0.628243 -0.327536 -0.133408 0.671520 -0.115326 0.883306 -0.770229 1.314132 -0.505238 -0.019843 0.144656 -0.222063 0.896658 -1.535038 -0.560924 0.053161 0.514059
Rd4 0.293423 -0.122457 0.202041 -1.056266 0.789782 0.571842 0.216314 0.798447 -0.707710 -0.092436 1.419597 0.298334 -0.068348 -0.189641 0.258227 -0.053543 0.363941 -0.185696 -0.191865 0.067970 -1.006312 -0.559811 -0.738265 -0.019718 -0.167491
hxg4 0.001110 0.257391 -0.333516 -0.030699 0.641683 0.546577 0.329342 0.551001 -0.630596 0.297501 0.323910 0.031756 0.182066 0.037333 0.313375 -0.976193 -0.317917 0.097315 -0.827070 -0.333273 0.298653 0.731915 0.012159 0.078364 0.884016
Bb6 -0.366117 0.310390 -0.112896 -0.302215 -0.249832 0.091078 0.904660 0.218658 -0.117740 0.758874 0.333138 0.026885 0.414454 -0.472710 0.207698 0.630467 0.476809 -0.317748 -0.506233 -0.251181 0.083582 -0.129801 -0.519887 -0.300656 1.185740
Qe4 0.425327 0.408506 -0.296665 0.407000 0.354400 -0.449486 1.508524 0.043437 0.886498 -0.746122 0.536641 0.475684 0.335853 -0.476522 0.243345 -0.637268 0.520559 0.100370 -0.240868 -0.072450 0.441972 -1.010485 -0.087085 -0.167645 -0.253924
Rc6 -0.433292 0.249015 0.096016 -0.692861 0.129355 0.394033 0.649002 0.186101 0.079727 -0.119291 0.935679 0.880323 -0.654499 -0.026137 0.210103 0.569950 0.033286 -0.716925 -0.533495 0.458706 -1.411517 0.074721 -0.454332 -0.330272 0.023998
Rf3 0.196104 -1.090797 -0.060572 -0.183420 0.129960 0.049007 0.632063 0.161704 -0.705579 -0.524598 0.674219 -0.051967 0.170800 0.052495 0.180110 -1.448737 0.256116 -0.754807 -0.724453 -0.008856 -0.205239 -0.017205 -0.115499 -0.048875 -0.130435
Ra2 -0.236507 0.129784 0.024701 -0.618627 -0.842146 0.205656 1.210031 -0.085133 -1.040998 0.441259 0.819474 -0.355925 -1.113510 0.061420 -0.934767 0.115790 -0.121082 -0.768800 -0.813514 -0.183725 -0.608511 0.562387 -0.010184 0.338387 0.421208
Kc7 -0.519941 0.392420 0.787091 0.576984 0.083850 0.494640 -0.346045 1.349030 -0.079569 -0.226987 -0.820629 -0.819697 0.824115 -0.699650 0.014081 -0.546339 0.375298 -0.138271 0.119725 -0.731840 -2.180287 -0.136707 0.501227 -0.432387 1.724508
Qa4 -0.509287 0.802697 0.443519 0.554560 0.038078 0.125515 1.962461 0.345633 0.413129 -0.535530 -0.339559 0.410940 -0.099832 -0.135560 -0.188581 0.685490 0.270748 -0.023718 -0.031269 -0.350460 0.893203 -1.143617 -0.325888 -0.125612 -0.210284
Kd5 -0.080368 -0.703364 -0.116692 0.460697 -0.287214 -0.375597 -1.108970 -0.083955 -1.030351 -0.035149 0.660778 0.057377 -0.643124 -0.619224 -0.035457 0.022961 0.020444 -0.453491 -0.050730 -0.082705 -2.579195 0.523769 0.418982 -0.152241 2.664450
Rc4 -0.030466 -0.153159 0.247748 -0.820509 0.322374 -0.040411 0.577861 0.640914 -0.384050 -0.014175 1.136504 0.855731 -1.049167 0.144903 -0.232901 0.324114 0.390260 -0.603081 -0.695232 -0.004427 -1.063742 -0.339711 -0.788075 0.146769 -0.097270
Rfe8 -0.333124 0.284798 0.018445 0.086287 -0.037802 0.367732 1.060317 -0.270629 -1.127994 -0.123741 0.981495 0.263253 0.819661 0.026759 1.387554 0.527528 -0.317028 -0.485354 -0.266462 -0.160072 1.972322 -1.582014 -0.658819 -0.120681 -1.147230
Na6 -1.253622 0.092444 0.863729 -0.102529 -0.434900 0.424858 0.604162 -0.059026 -0.337501 0.048824 -0.472095 0.399156 -0.177285 -0.223413 0.133699 1.584188 -0.137612 0.695669 -1.068578 -0.021551 0.793144 -0.920974 0.298151 -0.022657 0.844769
Re6 0.007898 0.177775 -0.129844 -0.047894 -0.092029 0.422113 0.414806 -0.459866 -0.385804 -0.399807 1.015296 0.234368 0.554229 -0.114069 1.351595 -0.419020 -0.265444 -0.704856 -0.294808 -0.021925 -1.196241 -0.322371 -0.193981 -0.360366 -0.137861
Nh4 -0.481686 0.229340 -0.331933 0.652388 -0.501887 -0.816013 0.857251 -0.041028 -0.445024 0.076119 -0.037869 0.310177 0.929412 0.264266 1.154668 -0.361785 -0.300975 -0.156168 -1.017670 0.162026 1.339496 0.061286 -0.162179 -0.347281 0.605832
Qc5 0.323069 0.385461 0.539286 0.237821 0.618629 0.272660 1.555553 0.492539 0.531096 -0.481827 0.235275 0.223954 0.546088 -0.333355 -0.128009 -0.104877 0.224024 0.046575 -0.134169 0.091468 0.338476 -1.376956 -0.100653 0.220858 -0.409189
Bc8 -0.729391 -0.011907 0.972325 0.326606 -0.158108 0.568442 0.701771 0.492136 -0.295355 0.225103 0.123548 -0.369166 0.270342 -0.155227 0.862344 0.025032 -0.466335 -0.263971 -0.943128 0.714739 0.331473 0.076578 0.435657 -0.132364 0.475198
Rc5 -0.025891 0.175224 0.372286 -0.828261 0.362612 -0.127777 0.621494 0.583918 -0.297802 -0.076941 1.083348 0.973620 -0.689416 0.284765 0.108671 0.521184 0.134522 -0.346738 -0.537372 0.250904 -1.422008 -0.250636 -0.907022 0.051806 -0.055275
Bxf5 -0.053767 -0.178027 -0.419497 0.110056 0.189616 -0.575586 0.196176 -0.128284 -0.481989 -0.356294 -0.035791 0.510255 1.462683 0.507182 0.575409 -0.337959 -0.789843 -0.305128 -0.960609 0.098255 0.647065 -0.567380 0.013336 0.248993 0.343173
Qd5 0.309204 0.444964 -0.310503 0.496881 0.300144 -0.154639 1.485149 -0.208515 0.788502 -1.092637 0.274332 0.259598 0.156851 -0.580571 0.198369 -0.134098 0.358998 0.002316 -0.177323 -0.437777 0.255959 -1.258388 0.054677 -0.229940 -0.169548
bxc4 -0.338010 -0.177426 -0.277556 -0.045879 0.786733 0.268591 0.802256 0.295472 -1.074135 -0.320186 0.220226 0.350600 0.036790 -0.423955 -0.320167 0.695172 -0.348108 -0.389445 -0.232735 0.310912 0.336253 -0.307091 -0.264815 -0.583114 0.116017
Qe8 -0.253677 0.688228 0.576226 0.467263 -0.198017 0.287525 1.474615 -0.255581 0.619430 -0.579491 -0.534112 0.303048 0.465242 0.069068 0.618750 -0.250127 -0.223328 -0.370507 -0.817353 0.878247 0.874527 -0.416166 0.327298 -0.375705 -0.125233
Qc8 -0.024852 0.877007 0.774591 0.415582 0.213479 0.470704 1.745156 -0.147723 0.654670 -0.300639 -0.485304 0.249870 0.165408 -0.101046 0.336653 0.153267 -0.100999 -0.399766 -0.809737 0.427798 1.022008 -0.481518 0.070179 -0.027408 0.071214
Qe5 0.360610 0.097943 0.364188 0.003145 0.755399 0.466288 1.042434 0.172501 0.963073 -0.748250 0.391219 0.416117 0.445726 -0.166152 0.144162 -0.723695 0.177259 0.107289 -0.365470 0.238718 0.454400 -1.340023 0.167329 0.153231 -0.350092
Rd5 0.368933 0.686791 -0.086518 -0.969863 0.307071 0.059635 0.399228 0.407102 -0.448167 -0.320710 1.376046 0.386926 0.041453 -0.577168 0.704667 0.136655 0.643215 -0.152741 -0.214416 -0.147154 -1.358910 -0.264890 -0.829658 -0.231139 -0.003498
Ke8 -0.344839 0.409783 -1.002487 -0.042708 -0.377613 0.504553 0.062857 1.027480 1.181471 -1.180039 -0.766163 -0.057741 0.187298 0.457361 -0.125546 0.070969 0.751277 0.254595 -0.288232 0.550853 -1.542370 0.345277 0.032462 0.759500 1.314230
Rxd5 0.247772 0.759544 -0.129830 -1.434639 0.519469 -0.138345 0.378118 -0.120124 -0.021342 -0.371024 1.170537 0.899028 0.582460 -0.036763 0.291112 0.257739 0.189891 -0.292236 0.184273 -0.167831 -0.972962 -0.795052 -1.162136 0.264639 -0.177118
Kc6 -0.138464 -0.103539 0.655312 0.441982 -0.046692 0.208231 -0.593912 0.589547 -0.702419 0.049267 -0.325285 -0.362783 0.575761 -0.776545 -0.270982 -0.259655 0.279354 -0.300550 0.038298 -0.362247 -2.864807 0.091646 0.455703 -0.129208 2.243211
bxc5 -0.818029 0.324510 0.827879 -0.387763 0.165138 0.191457 0.541497 0.396846 -0.023617 -0.309541 0.398338 -0.441938 -0.555669 -0.635422 0.499734 0.649092 -0.283000 -0.170618 -0.582598 -0.346123 0.380983 -0.344051 0.215289 -0.717087 0.372322
Rb2 -0.243416 0.166365 0.116725 -0.455861 -0.775115 0.330148 1.120497 0.137958 -0.766131 0.228391 1.028106 -0.261623 -1.293696 0.154586 -0.904892 -0.013343 -0.147070 -0.603266 -0.525738 -0.106034 -0.946071 0.261146 0.067013 0.349311 0.146452
exf4 -0.407135 -0.198718 0.859429 -0.475749 0.276879 -0.053266 -0.000982 -0.154876 -0.226067 0.147427 0.291489 0.177360 0.390717 0.255425 0.740383 -0.425952 -0.690663 0.452381 -1.037326 -0.159923 1.140467 -0.622609 0.209913 0.145453 0.476412
Kc2 -0.383138 0.109977 -0.008551 0.440705 -0.010798 0.397224 -0.563625 0.728156 -1.767198 -0.074477 0.546695 0.644522 0.407169 -1.088298 -1.332139 -0.707183 0.169353 1.152963 0.732890 0.254677 -1.376629 -0.656242 0.852474 -0.788082 0.643513
Kb1 -0.774893 -0.212161 0.519704 -0.536312 -0.182116 0.347423 -0.669450 0.262134 -1.254788 -0.746242 -0.880513 2.028308 1.068802 -0.634153 -1.646388 -0.467844 1.300994 0.537149 0.547741 0.610014 0.147331 -1.666201 0.048251 -0.647338 -0.146285
Ra3 -0.012391 0.141608 0.350327 -0.574778 -0.272738 -0.025023 0.980300 0.450981 -1.212895 0.320642 0.835866 -0.318227 -1.267891 0.363406 -0.769734 0.268201 -0.542023 -0.759443 -0.948115 0.016019 -0.631620 0.379379 -0.104555 0.068982 0.316235
Bf2 -0.448612 0.418956 0.180138 0.323478 -0.171287 0.359281 0.624571 0.064287 -0.691061 1.075706 0.271448 0.580796 0.448055 -0.629823 0.086023 -0.258791 0.192603 -0.407087 -0.820924 -0.428124 0.480091 -0.136200 0.024402 -0.105521 0.905307
Qd1 0.088117 0.409662 0.243959 0.803531 -0.147313 -0.084650 1.822587 0.111805 -0.050564 0.070805 0.353068 0.164652 -0.278937 -0.221643 -0.192857 -0.560204 0.130108 0.060844 -0.516770 0.130684 1.546140 -0.621625 0.193494 -0.129865 -0.357266
fxe6 -0.528813 -0.013950 -0.050403 -0.756528 -0.411234 0.245273 -0.298073 0.334948 0.326783 -1.353033 -0.436985 -0.203085 0.346432 -0.144278 0.330692 0.282544 0.854935 -0.740745 -0.646474 -0.172613 0.582950 -1.066369 -0.122340 0.936065 0.291807
Kc3 -0.244666 -0.515087 0.803128 0.292215 -0.323379 0.062115 -0.848780 0.436605 -1.834523 0.312833 0.786399 0.159416 0.057538 -0.952908 -0.894930 -0.425586 0.114438 1.066708 0.451458 0.397307 -2.151832 -0.351319 0.819058 -0.206298 1.533076
Ba4 -0.267359 0.058114 0.384006 0.329965 -0.553414 0.410972 0.668920 0.651890 -0.623299 0.170604 -0.052968 -0.168583 -0.317068 0.436027 0.005696 0.749727 0.329765 0.045024 0.004451 0.570074 0.296062 -0.515077 -0.308195 -0.189518 0.893118
Rb6 -0.282581 0.776737 0.444610 -0.744873 -0.265567 0.372576 0.892827 0.210649 -0.559091 -0.429230 0.703577 0.036953 -1.063156 0.170805 -0.174474 0.601933 -0.445455 -0.335632 -0.606067 0.318325 -1.443206 0.317730 -0.090317 -0.050552 0.075853
hxg6 -0.471753 0.134394 -0.245616 0.139101 -0.115565 -0.179831 -0.216488 0.397680 -0.758293 -1.382299 -0.272480 1.049883 0.132494 0.523114 0.300077 -0.412617 -0.054372 -0.127442 -0.400101 1.120997 0.873399 -0.387269 -0.038553 -0.091207 -0.337936
Qf5 0.197376 0.675504 -0.309683 0.556602 0.322783 0.215049 1.037414 -0.082708 0.795623 -0.729326 0.468078 0.676922 0.257289 -0.246611 0.681912 -0.880537 0.239518 -0.211826 -0.317698 -0.082014 0.645899 -0.985087 0.061286 -0.262732 -0.431924
Rxd4 0.408940 0.065173 0.326194 -1.432453 0.467827 -0.250242 0.262858 0.730896 -0.253685 -0.439359 1.355091 0.094564 0.101067 0.161955 0.109420 -0.037052 0.542291 -0.152371 0.229029 -0.216925 -0.372781 -0.987231 -1.145058 0.541156 -0.191061
Nf8 -0.787622 0.673635 0.442541 0.399148 -0.459553 0.540397 0.389254 0.671452 -0.256398 -0.217488 -0.423453 0.358991 0.352644 -0.130686 1.135877 -0.077596 0.284475 -0.620902 -1.077240 1.204743 0.923686 0.101096 0.156049 -0.460402 0.291316
Rb3 -0.116576 0.284838 0.055865 -0.209398 -0.121099 0.187081 1.217859 0.519342 -1.022641 -0.061595 0.766670 0.014899 -1.252661 0.171823 -0.825507 0.159742 -0.220066 -0.644020 -0.521026 -0.151361 -0.923595 0.332483 -0.245501 0.100370 0.115965
Qc4 0.205599 0.621304 0.389277 0.277487 0.343589 0.181866 1.545934 0.139103 0.577664 -0.483183 0.359779 0.400284 0.216386 -0.691734 -0.249001 -0.023704 0.374347 -0.162199 -0.207935 -0.015675 0.333498 -1.388190 0.072877 0.129111 -0.452345
Bh3 -0.814083 -0.333944 0.411631 -0.113285 -0.196918 0.209858 0.825311 0.180786 0.132260 0.252570 0.181248 -0.216157 0.548292 -0.022351 0.594840 -0.317606 -0.206543 -0.005669 -0.873983 0.235734 1.038355 -0.177814 0.190942 -0.103259 0.504007
Qe1 0.073679 0.130595 0.210561 0.635805 -0.109154 0.139398 1.597642 -0.061801 -0.118147 0.218362 0.152656 0.306493 0.046914 -0.178362 -0.335610 -0.835910 0.217069 -0.329770 -0.607887 0.013369 1.544700 -0.751729 0.201373 -0.215946 -0.242550
Qb7 0.136710 0.981574 0.619500 0.261207 0.406034 -0.004575 1.951358 0.187549 0.746169 -0.103723 -0.086788 0.627511 -0.093056 -0.384831 -0.341954 0.340437 0.033916 -0.432265 -0.746956 0.375803 0.591218 -0.854555 -0.019819 -0.167736 -0.286339
Rf6 -0.222603 -0.552715 0.277624 -0.327999 -0.236662 -0.105179 0.456387 -0.463005 -0.111374 -0.895166 0.710633 -0.068020 0.386911 0.009708 1.207507 -1.110583 -0.280258 -0.230312 -0.670879 0.363325 -0.875989 0.133205 0.185854 -0.562260 -0.042407
Bxf4 -0.459326 -0.002058 0.668985 -0.307599 0.176223 -0.425504 -0.201049 -0.204146 -0.285311 -0.112486 0.310833 0.287796 0.336181 -0.064984 0.989446 -0.752278 -0.287490 -0.053178 -0.879979 -0.705421 1.212826 -0.560734 -0.061006 0.248928 0.490003
Qb4 -0.164249 0.365895 0.441644 0.418665 0.417713 0.374008 1.541559 0.461038 0.499051 -0.394069 0.095573 0.503983 -0.035339 -0.476998 -0.414408 0.396699 0.201726 -0.251471 -0.297234 0.200132 0.555439 -1.466098 0.133470 -0.200244 -0.509916
gxf6 0.066839 -0.016931 -1.266337 -0.678203 0.273453 0.256402 -0.147787 0.516204 -0.043224 -0.812915 -0.466220 0.078236 0.843973 0.722475 -0.110976 0.249510 0.024377 -0.392314 -0.795659 0.158821 0.596452 -1.129757 -0.130873 -0.545461 0.486872
Re4 0.549877 -0.071260 -0.124462 -0.201698 0.148034 -0.054020 0.208409 -0.052093 -1.003896 -0.408986 1.280786 0.193367 0.137031 -0.037244 0.847888 -0.705899 0.101335 -0.608740 -0.355199 -0.588765 -1.050740 -0.632764 -0.493595 0.074815 -0.250670
Kg5 1.357663 -0.442940 -0.128143 0.204602 0.420970 0.413832 -0.632572 -0.378865 -0.456208 -0.237723 1.060766 0.114349 -1.169649 0.548803 0.578038 -0.940773 -0.268848 -0.095566 -0.313891 1.071447 -1.520759 1.147736 0.085269 0.676596 1.959257
Qf7 -0.029267 0.727437 0.071351 0.540855 -0.039165 0.065433 1.155166 -0.079585 0.670190 -0.633688 -0.074035 0.483121 0.974955 -0.273753 0.715527 -0.948173 -0.046757 -0.342094 -0.879631 0.476605 0.567057 -0.785250 0.484858 -0.312243 -0.419984
Rh8 -0.566513 0.320064 0.024713 0.087021 -0.129884 0.537236 -0.414004 1.167259 -0.788061 -0.240648 -0.344634 0.521927 0.009960 0.698252 0.362630 -1.740047 0.183093 -0.020314 -0.729330 0.300482 -0.508826 1.043476 -0.001929 -0.087511 0.660096
Nc2 -0.247479 -0.106243 0.108723 0.571841 -0.570168 -0.738981 1.086581 0.413173 -1.057212 0.828641 0.499593 -0.010108 0.441378 -0.249662 -0.175096 0.889986 -0.116643 0.216245 -0.813846 0.084572 0.282692 -0.488810 -0.095115 0.881025 0.800127
Nxc5 -1.079734 0.213370 0.975593 -0.843701 0.337330 0.238913 0.030540 0.434611 0.001510 -0.718543 0.456843 -0.345444 -0.629404 -1.224293 0.374098 1.241453 0.027294 0.072666 -0.441143 -0.153944 0.961849 -0.643515 0.240814 -0.137710 0.412121
Ra6 -0.053436 0.781729 0.179063 -0.857025 -0.305847 0.227886 0.890675 -0.090418 -0.738679 -0.084710 0.518521 -0.015811 -0.793369 0.187682 -0.302360 0.748962 -0.563368 -0.621365 -0.987325 0.334482 -1.341277 0.581573 -0.094881 -0.153765 0.399932
gxf4 -0.358452 -0.110120 0.850886 -0.243598 0.213245 -0.395961 -0.158891 0.223988 -0.210707 0.333004 0.851218 0.007955 -0.043763 0.197237 0.921447 -0.673555 -0.674636 0.359353 -0.858772 -0.278756 0.338660 -0.162507 0.128561 0.339630 0.688167
Rxe5 0.304480 0.295203 0.336096 -0.666793 0.298030 0.047300 0.067501 -0.256580 -0.696297 -1.432017 0.987017 -0.312313 0.207082 -0.166090 1.257005 -0.468172 -0.086558 -0.500187 0.181585 -0.501258 -0.502802 -0.659110 -0.566004 0.226671 -0.390740
Re5 0.449021 -0.004269 0.382404 -0.440082 0.259448 0.408811 -0.040172 -0.224389 -0.813257 -0.432549 1.139669 0.330929 0.365483 0.109640 1.171861 -0.635421 -0.178172 -0.488979 -0.465821 -0.208974 -1.207796 -0.787175 -0.352460 0.059118 -0.345914
Kg4 1.421569 -0.283181 -0.410852 0.275257 0.232425 0.262079 -0.607771 -0.603907 -0.614728 0.049227 1.287620 0.403468 -1.496854 0.162283 0.320543 -1.141065 0.129134 -0.102284 -0.392955 0.606789 -1.264310 1.183645 0.087436 0.607596 1.952852
Qxd6 -0.276895 0.418380 0.126661 -0.461586 0.792109 0.624645 0.899863 -0.549122 0.935494 -0.923364 -0.157247 0.521317 0.752117 -0.247437 0.321709 0.410581 -0.200279 -0.117591 -0.019763 -0.180260 0.835843 -1.116708 -0.237216 0.009326 -0.015483
Qxe5 0.131531 0.271279 0.189905 -0.328214 0.564034 0.053003 0.788367 0.260211 0.589179 -1.618369 0.223121 -0.340273 0.315003 -0.296510 0.470644 -0.414218 0.282917 0.173517 0.095330 -0.276225 0.802006 -1.122133 -0.133215 0.134101 -0.155752
Rb4 0.083033 0.231640 0.550047 -0.873199 0.388966 0.526345 0.840891 0.447930 -1.145057 -0.266935 0.830759 0.092458 -1.291549 0.176152 -0.749803 0.383588 -0.356159 -0.457923 -0.618574 0.027813 -1.144946 0.176402 -0.314046 0.200154 0.035884
Qxe4 0.015268 0.168476 -0.733575 -0.302824 0.721526 0.132848 1.011347 -0.584504 0.540048 -1.038173 0.471556 0.509784 0.391344 -0.550954 -0.091207 -0.406085 -0.055312 -0.072401 -0.082354 -0.555006 0.841194 -1.085707 0.036222 -0.680443 -0.191662
Ba3 -0.946239 0.161875 -0.320101 0.415543 -0.464936 -0.063521 0.964638 0.259725 -0.274981 -0.024490 0.018175 0.259248 -0.145749 -0.559994 0.090981 1.267803 0.238877 -0.626890 -0.440914 0.097689 0.544420 -0.315136 -0.176957 -0.273088 0.633646
Qg6 -0.029996 0.114971 -0.219909 0.506845 0.117792 0.025056 1.203227 -0.241154 0.552623 -0.738370 -0.013725 0.278414 0.883528 -0.121132 0.780829 -1.051691 0.004220 -0.120769 -0.614793 0.066876 0.911739 -0.584491 0.213790 -0.192433 -0.286555
Rxe4 0.237310 -0.073205 -0.470252 -0.703692 0.648829 0.367890 0.154636 -0.872083 -0.761428 -0.833925 1.167359 0.325830 0.262346 -0.334016 0.500337 -0.524317 -0.426539 -0.918165 -0.088690 -0.879615 -0.371386 -0.720040 -0.307249 -0.256851 -0.485576
Bc1 -0.355699 0.097342 -0.451955 0.659462 -0.368839 0.018792 0.918528 0.103677 -1.130468 0.332308 0.194785 0.353988 0.346607 -0.868748 -0.120849 0.030691 0.271490 -0.687647 -0.848285 0.313956 0.568225 0.134506 0.166578 -0.071148 0.399594
Nxc4 -0.689693 -0.311036 -0.651217 0.014379 1.038515 0.031938 1.312908 0.138639 -0.804995 -0.503298 0.016357 0.161481 0.440777 -0.825434 -0.442365 1.252982 -0.360979 -0.189088 0.135797 -0.132843 0.538868 0.194458 -0.573649 0.017730 0.471627
exf6 -0.112919 -0.250091 -1.146221 -0.306557 -0.023003 -0.014061 -0.011730 0.565074 -0.049897 -1.148070 -0.576006 -0.503713 0.490195 0.677879 0.234483 0.325468 0.051826 -0.441589 -0.965241 -0.015126 1.069882 -1.130435 0.053332 -0.622189 0.400031
Rh1 -0.602214 0.471897 -0.127142 0.178353 -0.222612 0.396526 -0.339968 0.788806 -1.128920 -0.004366 0.066618 0.888927 -0.174449 0.398067 0.144203 -1.842325 0.090849 0.347660 -0.542029 0.210823 -0.381085 1.086232 0.133680 -0.307347 0.503205
Rxd8 -0.244609 1.181634 0.022603 -1.401581 0.165265 0.485039 -0.012368 0.782893 0.538486 0.379287 0.968946 -0.435804 1.420852 -0.952600 0.482950 0.839672 0.641577 0.119959 0.843116 1.018225 0.807305 -0.600320 -0.694400 -0.024594 1.182438
Kc5 0.070186 -0.785152 1.095070 0.420574 -0.013468 -0.183493 -0.878086 0.222192 -1.344298 0.181481 0.238058 -0.139862 0.154845 -0.541322 -0.359311 -0.186382 -0.057985 -0.143418 0.333571 0.281454 -2.812186 0.069849 0.368487 -0.117872 2.561502
Ra4 0.313066 0.443550 0.271845 -0.912126 -0.001632 -0.112545 0.863016 0.266780 -1.186207 0.017701 0.834726 -0.135619 -1.177347 0.292937 -0.728204 0.536799 -0.441890 -0.550644 -0.951952 -0.214240 -1.252594 0.287966 -0.355975 0.208527 0.357340
Nf1 -0.408691 -0.030014 -0.034982 0.880094 -0.324260 0.296679 1.276986 0.509861 -0.968415 1.304832 0.377419 0.042139 0.377975 -0.091443 0.397552 -0.471216 0.030673 -0.447179 -0.695110 0.247674 1.294437 0.264685 -0.096981 -0.650955 0.529147
Bc7 -0.426946 0.894924 -0.153173 0.195564 -0.186578 0.423780 0.646886 0.083614 -0.453996 0.534860 0.240183 -0.055812 0.250581 -0.954448 0.605236 0.410256 0.247642 -0.494212 -0.653915 -0.430409 -0.096082 0.243526 -0.048695 -0.491954 1.227150
Kc4 0.064057 -0.436398 0.675641 0.372744 -0.419911 -0.411421 -0.987814 -0.255115 -1.635781 0.288591 0.559234 0.413312 -0.200297 -1.149562 -0.654790 -0.228827 0.279009 0.020304 0.286808 0.112222 -2.543716 0.088719 0.499151 -0.307379 2.406084
Bh5 -0.494179 -0.222156 0.134930 0.497597 -0.728789 -0.045623 0.316165 0.137663 -0.790142 -0.111595 -0.221805 -0.254358 0.609029 0.421241 1.038709 -0.356467 0.042381 0.259651 -0.597906 0.351078 0.927184 -0.405459 0.089769 -0.830273 0.868037
Qxd3 -0.212755 0.095221 -0.139643 0.307852 0.153716 -0.665565 0.933344 -0.042826 -0.183437 -0.909388 0.337560 0.539703 -0.259764 -0.652181 0.037958 0.104565 0.611012 -0.231175 0.156913 -0.525590 1.747782 -1.084755 -0.437240 -0.291159 -0.251632
Ra5 0.244306 0.738874 0.516631 -1.128711 -0.002137 0.112653 0.616387 0.074391 -1.066992 0.005099 0.714372 0.122510 -1.074292 0.336452 -0.456298 0.677985 -0.484854 -0.317479 -0.987425 0.057396 -1.426819 0.246356 -0.284596 0.081934 0.337927
cxb5 -0.406625 0.243139 0.868448 -0.427832 0.338609 0.409994 0.859604 -0.009593 -0.433651 0.285540 -0.263026 0.402403 0.022391 -0.032068 -0.498627 0.828454 -0.342329 -0.043520 -0.777026 -0.415619 -0.024559 -0.659109 -0.152696 0.143922 0.652519
Bxd6 -0.772052 0.726575 -0.651378 -0.654726 0.563849 0.684070 0.470953 -0.611110 0.454530 -0.501280 -0.260209 0.736815 0.853925 -0.664651 0.380717 0.999537 -0.069369 -0.404863 -0.123110 -0.756882 0.305922 -0.350474 -0.432049 -0.258392 0.598581
Rxd6 -0.214994 0.709072 0.042327 -1.702868 0.697430 0.777353 0.272114 -0.087959 0.514499 -0.407824 0.966650 0.483590 0.832939 -0.426629 0.344780 0.237032 -0.075737 -0.221878 0.261699 0.365270 -0.713828 -0.255879 -0.609120 -0.088015 -0.038720
Qxf6 0.191013 0.066193 -0.766811 -0.257537 0.385471 0.394898 0.433926 -0.001775 0.602499 -1.226181 -0.332090 -0.072309 0.745445 0.641563 0.310776 -0.307073 -0.160125 -0.180128 -0.540290 0.162936 0.934537 -1.402378 0.147221 -0.679380 0.029704
Ke1 -0.660585 -0.622166 -0.696977 0.087979 -0.534766 0.424901 0.367375 0.343592 0.030239 0.696123 1.475415 0.377018 -0.824807 0.116741 -1.124910 -1.033850 0.236211 2.003325 0.663412 -0.244460 -0.415396 0.008406 0.430890 0.316041 0.937567
Qb5 -0.070966 0.578372 0.500818 0.595263 0.388332 0.089922 1.779039 0.404830 0.676287 -0.275883 0.147025 0.505072 -0.142732 -0.589513 -0.257417 0.331948 0.352018 -0.299895 -0.135451 -0.002630 0.398241 -1.158482 -0.074138 -0.174711 -0.379705
Rb5 0.165378 0.829880 0.373350 -0.761063 0.124693 0.020896 0.927296 0.300324 -0.954370 -0.457016 0.843617 0.130210 -1.225709 -0.061232 -0.324296 0.558523 -0.197281 -0.329119 -0.509426 -0.081004 -1.533605 0.430868 -0.435962 -0.012383 0.178119
axb3 0.076752 0.444896 0.137043 -0.747558 -0.200170 -0.115729 0.178531 0.859148 -1.258561 -0.424183 0.106392 0.049246 0.007087 -0.306975 -1.003118 0.562772 0.279013 -0.554554 -0.602937 0.698727 0.498619 -0.872691 0.034282 -0.250461 -0.077842
Qc1 0.247461 0.265279 0.160546 0.924524 0.044272 0.083270 1.755220 0.093744 -0.141061 0.073007 0.257405 0.343953 -0.295853 -0.272282 -0.416317 -0.255261 0.134149 -0.313985 -0.487872 0.443820 1.425213 -0.719089 0.202294 -0.033317 -0.235900
Rae1 -0.426817 -0.125566 -0.258769 0.522877 -0.145996 0.509153 0.528615 -0.271522 -0.657463 -0.858038 -0.070000 -0.434478 1.237355 0.004326 2.179221 -0.101666 -0.223834 -0.805724 -1.136221 -0.886131 1.165507 -1.173307 -0.084552 -0.040986 -0.635079
Be8 -0.876244 -0.060982 0.652308 0.522832 -0.649531 0.362651 0.325061 0.928051 -0.396119 0.028237 -0.167021 -0.061046 0.062130 0.270927 0.527398 -0.159815 -0.178600 -0.014602 -0.955851 1.262139 -0.163964 0.166657 0.569936 -0.201475 0.532188
Kh6 1.716142 0.160664 -0.046540 -0.054264 -0.029387 0.337739 0.079746 -0.645174 0.821341 -0.741337 1.005799 -0.095237 -0.857968 0.495752 0.484410 -1.067850 -0.058719 0.063437 -0.506806 1.726644 -1.041941 0.296591 0.554710 0.637709 0.912061
Na3 -0.476413 -0.155373 -0.277513 0.578170 -0.300083 -0.150562 1.470929 0.227710 -0.960505 0.436075 -0.635040 0.187322 0.429032 0.119335 -0.622860 1.589720 0.132023 0.392075 -0.535230 -0.400847 0.595675 -0.507253 -0.538906 0.660976 1.079506
Rg3 0.066171 -0.413225 0.042601 -0.448159 -0.299927 -0.429556 0.227416 0.410122 -0.678076 -0.387368 0.311147 0.499435 0.368871 0.572070 0.027760 -2.119072 0.364559 -0.237249 -0.757302 0.346389 -0.160079 0.181023 -0.077770 -0.509512 -0.060396
Ne1 -0.741707 0.112565 0.145418 0.754289 -0.931542 -0.611686 1.197210 0.349577 -0.532674 1.157863 0.667184 0.269068 -0.471618 -0.562796 0.183362 0.378016 0.314200 0.216416 -0.955804 0.137562 0.946883 0.016526 0.100056 -0.250544 0.637433
Qxf3 0.158840 0.384293 -0.484381 -0.140744 0.185955 -0.517006 1.214005 -0.169478 0.351019 -0.770736 0.379448 -0.188997 0.179098 0.087379 0.362772 -0.750635 0.195182 0.630660 0.075045 -0.873687 1.487796 -0.812568 -0.386742 -0.835255 0.304783
Nge2 -0.347973 -0.646143 1.098612 -0.222532 -0.192272 1.043654 0.126853 -0.646103 -0.805699 0.143692 -1.600470 0.593471 0.231040 1.401435 -0.029451 0.670253 0.031713 1.004536 -0.550185 0.095504 2.193825 -1.350326 -0.296057 -0.324099 1.297628
Kd8 -0.902540 -0.150079 -0.269857 0.823323 -0.282053 0.652961 -0.034549 0.680888 1.096146 -1.031318 -1.614984 -0.240944 0.390989 0.626257 -0.095917 -0.042182 0.193364 -0.050407 -0.208460 -0.807977 -1.806772 -0.241485 0.366522 0.683476 1.514811
Rxd1 0.006217 0.898116 -0.174233 -1.009664 0.295391 0.399511 0.209650 0.850138 -0.179384 0.677815 1.246094 -0.358820 1.334907 -0.889932 -0.001149 0.585401 0.643054 0.381193 1.251839 0.749384 1.223501 -0.665180 -0.831337 0.288713 0.966827
Bxe7 -0.637861 0.248992 -0.454179 0.379135 0.071919 -0.285085 0.533091 0.196514 -0.096248 -0.745269 -0.520374 0.124466 0.966582 1.114906 0.863339 1.056583 -0.665136 -0.498458 0.366365 -0.166223 0.835596 -1.020425 -0.901164 -0.190978 0.404730
Rf4 0.380302 -1.053376 0.273592 -0.619604 0.456678 0.009345 0.369959 -0.041375 -0.750417 -0.878693 0.857019 -0.203239 0.211049 0.069202 0.508686 -1.464360 -0.093950 -0.250063 -0.659375 -0.111657 -0.821641 -0.033418 -0.055773 -0.154305 -0.154795
Qxc4 0.049432 0.249882 -0.260252 -0.029330 0.915497 0.131064 1.505468 -0.121902 0.275588 -0.985632 0.045438 0.427670 0.066662 -0.532552 -0.572701 0.457984 0.089673 -0.243479 0.171283 -0.290633 0.751779 -1.016378 -0.372347 -0.145106 -0.199636
Bd8 -0.561196 0.812836 -0.216989 0.211871 -0.330647 0.342489 0.911305 0.355316 -0.148271 0.655999 -0.150111 0.287815 0.179240 -0.497099 -0.150267 0.191119 -0.008049 -0.642841 -1.138221 0.298953 -0.292854 0.591390 0.269389 -0.336287 0.947123
Bxe6 -0.619383 0.146813 0.171107 -0.727554 -0.640599 0.265679 -0.417481 -0.000556 0.416514 -1.068533 -0.014642 -0.397189 0.766250 -0.266493 0.948982 0.326749 0.383239 -0.232424 -0.631580 0.151647 0.449597 -1.066407 0.226844 0.770587 0.402191
Qxe7 -0.243540 0.175363 0.118958 0.488603 0.369060 -0.157528 1.040247 -0.203681 0.399062 -1.001158 -0.325901 0.256086 0.941392 0.953084 0.866611 0.516080 -0.829064 -0.556838 0.335779 0.315626 1.123605 -1.358393 -0.595870 -0.212459 -0.092459
Bxd3 -0.680109 -0.060181 -0.029414 0.198293 -0.190529 -0.712716 0.107268 0.397119 -0.912678 -0.629411 0.580069 0.367623 -0.490853 -0.554368 0.293456 0.456382 0.497458 0.008771 0.244865 -0.217019 1.388251 -0.711349 -0.438322 -0.309416 0.029842
Rxc4 -0.208136 -0.288619 -0.299221 -1.054970 0.997035 -0.062057 0.682132 0.248288 -0.295120 -0.519885 0.912366 0.972082 -0.891009 -0.031273 -0.682798 0.611549 -0.023351 -0.933096 -0.080521 -0.043428 -0.662676 0.021872 -0.982333 0.072712 -0.196667
Kxg7 0.347324 0.120984 0.318688 -0.615049 0.318866 0.074988 -0.069691 -0.051988 -0.202045 -0.986049 0.399716 0.107359 0.353391 0.901947 0.333940 0.042475 -0.964042 0.057676 -0.519292 1.504479 1.085089 -0.876293 0.172559 0.851058 0.029300
Qb8 0.197006 1.002866 0.945701 0.363975 0.474070 0.563414 1.796717 -0.232463 0.679384 -0.050591 -0.546804 0.616824 -0.043061 -0.288152 0.017269 0.583617 0.013708 -0.564750 -0.713340 0.475473 0.856889 -0.590258 -0.125900 0.070751 0.126923
Kh3 1.865761 -0.045384 -0.521989 0.142876 0.072507 0.310776 0.661388 -0.887359 0.443973 0.374918 1.417645 -0.025278 -1.116860 0.223152 -0.250821 -1.714353 0.204607 -0.041269 -0.477166 0.156695 -0.620694 0.452536 0.274373 0.644724 1.092655
Rh3 -0.411065 -0.330403 -0.131123 -0.127530 -0.093959 -0.094174 0.027263 0.780581 -1.213120 -0.614403 -0.225342 0.858546 0.131728 0.678777 -0.060670 -1.799819 0.438801 -0.155307 -0.536776 0.120857 -0.124608 0.556344 -0.366924 -0.457826 0.125846
Rxc3 -0.477310 -0.460204 -0.329064 -0.518769 0.308206 -0.268970 0.598905 0.738271 -0.259495 -0.415799 0.867479 0.928759 -1.130737 0.903785 -0.977189 0.346694 -0.162171 -0.859968 0.151168 0.152772 -0.319456 -0.599885 -0.878690 0.048687 -0.330226
Rf5 0.366882 -0.492317 0.168384 -0.623251 0.222958 -0.174591 0.246425 -0.468753 -0.526697 -1.121987 0.729333 0.058241 0.278949 -0.195411 0.927385 -1.338611 0.051292 -0.257175 -0.722449 -0.184388 -1.083393 0.125716 -0.057793 -0.247471 -0.096858
Bxg5 -0.543298 0.451218 -0.621490 -0.435887 0.010385 -0.393272 -0.087145 -0.039992 -0.058014 -1.278078 -0.364946 0.403301 0.323646 -0.340724 0.610155 -0.551092 0.210894 0.228491 -0.870529 0.120458 1.180295 0.284702 0.079194 -0.274800 0.528291
Qxc5 -0.187006 0.350379 0.731179 -0.327790 0.569995 0.073699 1.047481 0.304281 0.774109 -1.158263 0.345625 -0.163143 -0.325689 -0.488731 0.119548 0.434523 0.120564 0.237350 0.097498 -0.264388 0.763174 -1.303156 -0.046144 -0.157487 -0.211601
gxf3 -0.440645 0.314891 -0.342296 -0.469388 0.076254 -0.586785 0.557544 0.151639 0.201508 -0.159635 0.835410 -0.450627 -0.006504 0.213213 0.560706 -0.432716 -0.359972 0.895525 0.065253 -0.880538 0.920056 -0.274013 -0.259252 -0.877117 0.656656
Qb2 0.143278 0.515253 0.503687 0.706275 0.123717 0.038188 1.838838 0.358444 0.528643 -0.024917 0.394419 0.170675 -0.552535 -0.337461 -0.481190 0.126238 -0.045554 -0.291446 -0.555751 0.500527 0.767565 -1.019680 0.386682 -0.093546 -0.466586
Nxf6 -0.189985 -0.257758 -0.873634 -0.474444 0.782439 0.885572 -0.320531 0.106160 0.025700 -0.976612 -0.788290 0.120737 0.758594 0.363412 0.394918 0.165230 -0.323793 -0.492446 -1.019610 0.267344 0.852900 -0.626063 0.170193 -0.618112 0.522621
Qxc3 -0.129327 0.118128 -0.178445 0.224203 0.466066 0.172065 1.066600 0.249004 0.062683 -0.965708 0.165907 0.412228 -0.174010 0.394927 -0.839166 0.122869 -0.367306 -0.274166 0.275863 -0.156359 0.813185 -1.676095 -0.078801 -0.040569 -0.480825
Nxe6 -0.832279 0.179065 0.380381 -0.747851 -0.683959 -0.328764 -0.497591 -0.200624 0.548335 -1.132143 0.013245 -0.003634 0.485016 -0.693403 0.813058 0.417061 0.527831 -0.368091 -0.729702 -0.001292 0.649593 -0.852844 0.207568 1.209500 0.320743
Rxc5 -0.439338 0.181880 0.673159 -1.189476 0.336789 -0.396607 0.351480 0.360205 0.226896 -0.706408 1.254510 0.512129 -1.338492 -0.119434 0.201312 0.792831 0.013447 -0.364250 -0.103458 0.035778 -0.727537 -0.188354 -0.727367 -0.050658 -0.184900
Bxg7 -0.197468 0.124736 0.186248 -0.756839 0.000026 -0.042419 0.136373 -0.034437 -0.319926 -0.762850 -0.063004 0.093570 0.833481 0.633653 -0.032286 0.310069 -0.700310 0.222752 -0.563150 0.740222 1.338998 -1.126852 0.083507 0.703490 -0.052887
Qh3 -0.258117 -0.006461 -0.255575 0.075428 0.072583 -0.158632 0.999528 -0.170828 0.467399 -0.696641 -0.155876 0.623468 0.842493 -0.008614 0.337461 -1.409730 0.210812 0.099667 -0.684128 0.064463 1.340199 -0.426865 0.106139 -0.172938 -0.346314
Rxe6 -0.353198 0.408086 -0.034821 -0.412923 -0.579966 0.108698 -0.252021 -0.781199 0.035509 -1.279353 0.811336 0.075000 0.464496 -0.368336 1.318148 -0.377948 0.018923 -1.173293 -0.040228 -0.293171 -0.855402 -0.808462 -0.035731 0.333168 -0.347025
Rae8 -0.409293 -0.413538 -0.197282 0.586867 -0.065923 0.394586 0.604533 -0.377953 -1.071828 -0.386841 0.650125 -0.180268 1.169970 -0.032714 1.819993 -0.599491 -0.494347 -0.143331 -0.799161 -0.860658 1.375869 -1.241270 0.082554 -0.047974 -0.964528
Rfc8 -0.991859 -0.126051 0.091110 -0.707023 0.222180 -0.248481 1.643911 0.879906 -0.137402 -0.167674 0.226081 1.396317 -1.027154 0.373362 -0.899487 1.433863 0.207175 -0.289755 -0.981367 0.637391 1.691380 -0.871363 -0.792382 -0.099646 -1.197967
Rg7 -0.538856 -0.061561 0.228579 -0.058884 -0.584253 -0.012639 0.236182 0.198524 0.013414 -0.604625 -0.233451 0.284766 0.471793 0.758319 0.626976 -1.887662 -0.163820 0.059263 -0.649190 0.600664 -1.008491 0.833553 0.247482 -0.489206 0.399270
Nge7 0.031832 -0.478964 -0.181003 0.835813 -0.980396 -0.900619 1.247827 -0.025980 -0.663017 -0.104924 -1.681780 -0.248491 0.735643 1.398652 0.225846 0.973042 0.754211 0.898165 -0.410032 -0.789704 1.797097 -0.985001 -0.975146 0.031993 1.687383
hxg3 -0.653686 -0.121963 0.181613 0.045182 0.433226 0.169295 0.433140 0.178503 0.300977 0.585282 0.227306 0.323008 -0.121772 0.306202 0.554554 -1.104047 -0.204990 -0.708823 -0.468433 -1.090970 0.745485 0.245175 -0.329884 -0.682375 0.686224
Rg6 -0.140657 0.136358 0.066940 -0.572972 -0.369061 -0.241837 0.235956 -0.336405 -0.057383 -0.430665 0.013826 0.494068 0.702431 0.411101 0.610982 -1.846745 -0.075860 -0.173524 -0.875415 0.068671 -0.873556 0.460090 0.099737 -0.899860 0.238871
Bxb5 -0.793675 0.312013 0.553846 -0.466095 0.251079 0.350753 0.949312 0.209970 -0.013408 -0.040077 -0.385196 0.385104 -0.083074 0.331666 -0.943276 1.058472 -0.614883 0.059048 -0.576422 -0.493890 0.068220 -0.591653 -0.085334 0.892280 0.594912
Kb8 -0.970055 -0.091554 1.418576 0.567172 -0.068894 -0.257189 0.888406 0.828383 0.587259 0.068545 -1.447519 -0.090025 1.376836 -0.317459 -0.011030 -0.827907 1.053153 -0.298087 0.771302 -1.347836 -1.181816 -0.282851 -0.675159 -0.649786 1.236787
Bf7 -0.327468 0.161943 0.553677 0.584872 -0.474507 0.116530 -0.091199 0.580156 -0.627697 0.142439 0.277683 0.064013 0.640144 -0.078478 0.890800 0.007680 -0.192252 -0.118296 -0.665523 1.160962 -0.241512 -0.454459 0.406801 -0.066580 0.581220
Rxc8 -1.515104 -0.316742 0.059638 -0.064901 0.602815 -0.490772 0.621725 0.529509 1.797305 0.191327 0.564161 1.373142 -0.716604 0.115627 0.069736 1.174330 -0.327845 -0.939564 0.209925 0.912227 0.546942 0.060831 -0.696298 -0.038051 0.800424
axb6 -0.802324 0.384513 0.650763 -0.334220 0.481400 0.296211 1.280769 0.504258 -0.033010 0.492588 0.001171 -0.781748 0.189869 -0.038826 -0.023904 0.633253 -0.826563 -0.515253 -0.240006 -0.659838 -0.183681 0.017489 -0.254505 -0.920356 0.661250
fxg6 -0.296844 -0.098851 -0.160165 -0.115892 0.081669 -0.150189 -0.372817 0.160883 -0.429825 -1.475822 -0.249219 0.770561 0.369578 0.321540 0.224315 -0.690734 -0.131008 -0.593415 -0.421239 1.195938 0.930158 -0.372180 0.104450 0.168395 -0.302617
Nxf4 -0.589875 -0.262175 1.181804 -0.326309 0.163737 -0.647511 -0.532406 -0.136179 -0.153188 0.038073 0.404434 0.493238 0.380040 -0.020051 0.925050 -0.631498 -0.393856 0.147480 -0.665134 -0.146287 1.100075 -0.562182 -0.014594 0.791334 0.341633
Nxd7 -1.025227 0.442523 0.029970 -0.114189 0.605979 1.113130 0.381695 1.005284 0.558214 -0.983154 -0.391835 -0.656637 -0.298929 0.236669 0.843523 1.250393 -0.113621 -0.250297 0.369198 -0.099365 0.941371 -0.459698 -0.474926 -0.517019 0.522864
Bd1 -0.525126 -0.049758 0.437802 0.455242 -0.612480 0.366487 0.447459 1.101440 -0.978503 0.648499 0.620019 -0.424981 -0.255806 -0.033425 -0.147129 -0.362702 -0.223257 0.388036 -0.696481 0.913062 0.046698 0.104223 0.711348 -0.007324 0.509852
Rxc6 -0.696936 0.786644 0.140716 -0.894428 -0.268999 -0.657824 0.635309 0.074659 0.849402 -0.447843 0.941465 0.659560 -1.086411 0.284763 0.284542 0.789018 -0.023657 -0.581262 -0.028095 -0.183480 -1.020289 -0.174387 -0.773830 -0.376573 0.099683
cxb4 -0.246047 0.177644 0.488332 -0.004653 -0.260398 -0.715520 0.772485 0.428593 -0.716268 -0.029356 0.117790 -0.197301 -0.104150 -0.235036 -0.507631 0.810546 -0.273319 -0.024133 -0.809415 -0.037705 -0.086973 -0.752049 0.210718 0.011308 0.388669
Qh6 -0.112834 -0.085784 -0.036494 0.134125 -0.052213 -0.132675 0.852143 0.109672 0.655338 -0.659448 -0.154715 0.311555 0.843045 0.284478 0.404141 -1.491709 0.070751 -0.042668 -0.782764 0.469661 1.140714 -0.574747 0.301764 -0.118452 -0.427605
Nxf5 0.021879 -0.078654 -0.568302 0.258350 0.167885 -1.017196 0.338243 -0.302157 -0.408267 -0.020588 -0.030713 0.653995 1.805297 0.123437 0.444555 -0.264368 -0.697596 -0.521216 -0.846744 -0.089817 0.417061 -0.152926 -0.184033 0.707965 0.519177
Kb6 -0.145839 -0.388008 1.742994 0.600713 -0.075799 -0.390218 -0.393039 0.593740 -0.251442 0.102766 -0.360881 0.011062 0.246196 -0.747308 -0.189311 -0.480459 0.556016 -0.287107 0.405814 0.031216 -2.810195 -0.029719 0.225240 -0.431194 2.001827
Nf7 -0.593292 0.368616 -0.191459 0.503117 -0.198501 0.269532 0.356644 0.431303 -0.294439 -0.369255 -0.230277 -0.191180 0.872608 -0.818922 1.014758 -0.030432 0.136396 0.330650 -0.902321 0.619024 0.076753 0.729211 0.436029 0.311541 0.845407
Qa3 -0.358595 0.480709 0.624644 0.612491 0.225269 0.203134 1.793299 0.474698 0.545336 -0.429902 -0.066430 0.444898 -0.408794 -0.335490 -0.464776 0.427039 0.110426 -0.199681 -0.332120 0.158553 0.598661 -1.032342 0.118895 0.038352 -0.503074
Rxd7 -0.306922 0.713720 0.159215 -0.816930 0.417800 0.909800 0.615537 0.944340 0.699007 -0.407361 0.861565 -0.400969 0.686946 0.081993 0.824003 0.555778 0.185053 0.020294 1.177764 0.768507 -0.476452 -0.140078 -1.005917 0.115850 0.256008
Qa6 -0.389179 0.563736 0.534872 0.656698 0.335745 0.248789 1.939342 0.367248 0.504932 -0.371881 -0.119693 0.587709 -0.365171 -0.502840 -0.569227 0.493719 0.185917 -0.199956 -0.247456 -0.022510 0.593958 -0.834060 -0.015356 0.160992 -0.474487
Rxb7 -0.697784 0.895291 0.196191 -0.750228 -0.256614 0.115742 1.340889 -0.220611 -0.057373 -1.237268 0.753901 -0.517341 -0.677824 0.316741 -0.138453 0.421344 -0.826033 0.036667 0.831932 -0.119676 -0.864211 0.690483 -0.505542 0.705192 0.150995
Rxd3 0.130097 0.322514 -0.340117 -0.723068 0.128194 -0.549985 0.307180 0.851744 -0.582683 -0.244771 1.546673 0.239137 -0.002470 -0.803248 -0.020916 -0.239946 1.079483 -0.420458 0.710836 -0.004311 0.220120 -0.279074 -1.063006 0.091629 -0.236384
Nd1 -0.788959 -0.617661 0.363694 0.494239 -0.022623 0.714294 1.077780 0.443467 -1.303449 0.578781 0.298123 0.126583 0.245688 -0.256366 -0.507387 -0.305217 -0.417972 0.478341 -0.547940 0.483445 0.853911 0.164470 0.405605 0.568518 0.193418
Rxc1 -1.022916 -0.652495 -0.269141 0.280039 0.163474 -0.887495 0.324156 0.599989 1.031555 0.480167 0.824911 1.360582 -1.213108 -0.270029 -0.610560 0.976052 0.433210 -1.493503 -0.056033 0.671930 1.311457 -0.426635 -0.566792 0.331123 0.705566
Rab1 -1.279817 0.950335 0.311425 -0.017062 -0.078241 0.186872 1.728752 0.814017 -0.146185 -0.409261 -0.294201 -0.451425 -0.476448 0.006224 -0.055644 1.058396 -0.521787 -0.396626 -0.749826 -0.889184 1.057854 -0.401599 -0.134143 -0.218131 -0.499529
dxc6 -0.462100 0.859491 0.581091 -0.688711 -0.018352 -0.160360 0.531702 -0.166903 0.370852 -0.019154 -0.239649 -0.140568 0.171274 0.499089 0.367806 0.914809 -0.371903 0.599627 0.087180 -0.690244 0.899800 -1.095717 -0.430626 -1.043130 0.759940
Kd1 -0.896707 -0.544119 -0.918465 0.776474 -0.938443 -0.144891 -0.136836 -0.177004 -0.746763 -0.194794 0.697815 0.973365 -0.529954 -0.286873 -1.474585 -0.871739 0.267255 1.750546 0.715918 -0.589311 -0.568945 -0.737387 0.842999 0.057511 0.553541
Nf2 -0.749265 -0.237243 0.181269 0.410371 0.294610 0.795534 0.222414 0.371836 -0.944370 0.514997 0.563077 0.361449 0.124901 -0.789572 0.243874 -0.660429 -0.161691 0.576768 -0.597684 0.196545 0.849910 0.436870 0.506899 0.235300 0.508564
Rxf4 0.051648 -1.220019 0.972169 -1.003873 0.512500 -0.490927 -0.103140 -0.306272 -0.421025 -0.959262 0.727674 -0.197288 0.269010 0.236772 0.565809 -1.553957 -0.438501 -0.310798 -0.575511 -0.342272 -0.128119 -0.376991 -0.045581 0.305119 -0.154215
Rxf5 0.386971 -0.715607 -0.069938 -0.736466 0.370504 -0.821203 0.311679 -0.835075 -0.470341 -1.119796 0.422989 0.277429 1.108740 0.056909 0.491850 -1.162958 -0.508731 -0.576249 -0.742187 -0.219428 -0.571605 -0.074202 -0.131332 0.105954 -0.092090
Rxf6 -0.087635 -0.926097 -0.392658 -0.934529 0.294171 0.061626 0.065377 -0.327721 0.241338 -1.611253 0.205963 -0.498520 0.643643 0.379364 0.568782 -0.891695 -0.577100 -0.544284 -0.638263 0.376217 -0.425509 -0.365722 0.340894 -0.728944 -0.111414
Nfd7 -0.295562 -0.049298 0.993268 -0.154430 0.197025 0.876060 0.784521 0.496906 -0.824788 -0.397307 -1.205494 -0.428305 -0.533864 0.136755 -0.034490 1.333737 0.513458 0.297610 -0.474465 0.286751 2.325605 -0.582330 -0.346715 -0.261229 0.781375
Nxe3 -0.368597 -0.802516 -0.342278 0.194749 0.760170 -0.496479 1.244980 0.197616 -0.557546 0.401104 0.439595 0.191421 1.309882 0.261351 -0.133211 0.177406 -0.731319 0.239294 0.404665 -0.261168 0.969430 -0.206141 -0.870678 0.868646 0.417486
Rxb2 -0.475022 0.370800 -0.396298 -1.039885 -0.550179 0.640251 0.790172 -0.475709 -0.687137 -0.935118 0.907274 -0.290287 -1.164401 0.034711 -1.190452 0.201451 -0.323675 -0.586959 0.402003 -0.347611 -0.333927 0.187741 -0.131609 1.144013 -0.227706
Nh6 -0.266026 -0.211732 -0.724986 0.414523 -0.249480 0.197215 0.726994 0.323048 -0.494850 -0.363678 -0.921155 -0.389960 1.053201 0.123224 0.535671 -0.075996 0.208289 0.436754 -1.172053 0.006972 0.933944 0.346871 0.133377 0.165482 1.080901
Kb3 -0.038604 -0.594616 0.657996 0.419388 -0.116962 -0.016626 -0.640252 0.051922 -1.439678 0.354486 0.348314 1.147584 0.089919 -1.217223 -1.467015 -0.665407 0.635162 0.212108 0.499513 0.506346 -2.283066 -0.416519 0.591203 -0.580692 1.219956
Be1 -0.612829 0.375432 -0.571033 0.647242 -0.599624 0.232980 0.752643 0.008928 -0.733328 1.024946 0.310558 0.606152 -0.192433 -0.738339 -0.382566 -0.373842 0.212093 -0.463016 -0.905503 -0.224060 -0.088213 0.623394 0.378059 -0.390401 0.851143
Rh4 -0.133152 -0.215211 0.296984 -0.556644 0.429674 0.127259 -0.301380 0.486257 -1.204671 -0.704618 -0.096451 0.832839 0.094554 0.441806 0.205673 -1.799878 0.251045 0.078575 -0.672985 -0.194087 -0.585504 0.539040 -0.325028 -0.381069 0.067076
exd6 -0.320836 0.549636 -0.247163 -0.762089 0.474601 0.827684 0.323612 -0.643008 0.301830 -0.526947 -0.496098 0.413326 0.649449 0.007969 0.057312 1.068430 -0.242384 -0.305021 -0.170218 -0.557335 0.618308 -0.942766 -0.341742 0.100230 0.313605
Rxe3 0.060566 -0.605467 -0.238452 0.279871 0.193534 -0.112400 0.608394 0.023122 -0.893074 -0.063192 1.499200 -0.060117 0.497013 0.400549 0.465454 -0.873111 -0.476034 -0.901789 0.702538 -0.557837 -0.116774 -0.660553 -0.718700 0.563532 -0.390377
Rab8 -0.965170 0.838132 0.140330 -0.464475 0.181134 0.505190 1.461274 0.743366 -0.631077 -0.422667 0.096939 0.176025 -0.247623 0.010534 -0.582239 1.136589 -0.595693 0.190668 -0.608322 0.044626 0.978410 -0.626767 -0.052471 -0.020206 -1.046288
Kb2 -0.100172 -0.402182 0.760437 0.356766 -0.135241 0.020817 -0.556524 0.983355 -1.274761 0.287387 0.259653 1.154624 0.334798 -0.536400 -1.709528 -0.798648 0.609664 0.372518 0.522686 1.002466 -1.656300 -1.173124 0.596589 -0.787374 0.328552
Rg2 -0.240160 -0.341415 -0.310969 -0.362430 -0.722466 0.245287 -0.027590 -0.038692 -0.675358 0.114551 0.413160 0.660946 0.072294 0.224514 -0.441901 -2.402781 0.449237 -0.008636 -0.804596 0.063494 -0.465070 0.512988 0.466796 -0.343425 0.221243
Rxd2 -0.290892 -0.107972 -0.957195 -1.350520 -0.332162 0.728590 0.176125 0.563083 0.106619 0.624635 1.564396 -0.275612 0.219728 -0.710530 -0.554778 0.331996 0.980635 -0.056315 0.316735 0.144826 0.387647 -0.854865 -0.326741 -0.178497 0.098697
Rh6 -0.783564 0.174321 0.244684 -0.232679 -0.339257 0.173081 -0.223834 0.081168 -0.550409 -0.608122 -0.235048 0.786174 0.083272 0.397048 0.828439 -1.821572 0.145274 -0.002413 -0.658018 -0.081802 -0.823346 0.919065 -0.002464 -0.795859 0.332052
Qxc6 -0.071581 1.294048 0.418382 -0.077901 0.064280 -0.524492 1.339311 -0.028986 1.105447 -0.711313 0.225027 0.090664 0.040537 -0.127663 0.176365 0.255499 -0.035100 -0.161898 0.195424 -0.621009 0.352731 -1.247710 -0.320134 -0.265754 -0.015181
Kb7 -0.385886 0.348024 1.389426 0.677253 -0.090081 -0.287627 0.110405 0.842449 0.427926 0.432656 -0.757056 0.063960 0.599480 -0.613345 -0.231666 -0.711987 0.603749 -0.615898 0.216288 -0.619461 -2.485587 -0.237980 0.133457 -0.941762 1.617132
Bxg4 -0.380782 -0.174615 -0.292045 -0.419597 0.741148 0.599626 0.219713 0.204652 -0.492580 -0.117451 0.159083 -0.188009 0.721131 0.224316 0.140488 -1.114584 -0.717360 0.488701 -0.504895 -0.354770 1.204193 0.242041 0.191740 0.140155 0.570814
fxe3 -0.504018 -0.677916 -0.647924 0.227988 0.455924 -0.437262 1.303974 -0.088386 -0.120378 0.200107 0.940607 0.138896 0.664534 0.461568 0.155608 0.035560 -0.845466 0.513727 0.604160 -0.495810 0.419938 -0.267863 -0.703018 -0.092910 0.389328
