O-O 0.274595 -0.101561 -0.486352 -0.216832 0.680166 0.030383 -1.402013 -0.288127 0.278475 0.316605 0.087782 0.043798 -0.484512 -0.265880 -0.042472 -0.149769 0.183456 0.308166 0.654697 0.806432 -0.833703 0.255696 2.866321 0.865423 0.073603 -0.542898 -0.191233 -0.005275 0.012220 0.066282 0.205355 -0.056066 -0.157042 0.601537 0.415455 0.273628 0.599980 0.353650 0.329335 0.214752 -0.327099 -0.342550 -0.550093 -0.236540 0.433551 -0.329677 0.183123 0.173058 -0.506907 0.151548 0.581721 0.451742 0.472391 -2.800404 0.630279 0.393069 -0.234999 0.002559 0.248252 0.246076 -0.153595 -0.584649 -0.758888 -0.487630
Nf6 0.394902 0.007288 -0.290594 -0.287681 0.583776 0.011080 -0.811409 -0.070571 0.500538 0.138352 0.245177 0.396775 -0.679097 -0.066462 -0.216595 -0.188089 0.093381 0.383400 0.068476 0.310998 -0.251993 0.384254 1.369244 -0.306509 -0.153220 -0.417402 -0.076479 0.179907 0.222168 0.260949 -0.168888 0.147823 0.004367 0.291871 0.442854 0.330094 0.779330 0.528703 0.202193 0.413901 -0.406837 -0.496390 0.217233 -0.179637 0.305842 -0.097050 0.400513 -0.027047 -0.364803 0.354791 0.210428 0.289847 -0.207652 -1.013139 0.412092 0.243954 0.037635 -0.034133 0.538924 0.210210 -0.008571 -0.004884 -0.441423 -0.492000
Nf3 0.249302 0.067906 -0.291457 -0.287142 0.691977 -0.148979 -0.648574 -0.083396 0.163431 0.290578 0.112231 0.397671 -0.736462 -0.283864 -0.193376 0.145797 0.177581 -0.026560 0.123203 0.312300 -0.131354 0.562758 1.139575 -0.344391 -0.321010 -0.472801 -0.331426 0.184070 -0.020229 0.022899 -0.144805 -0.239534 -0.078219 0.153971 0.361850 0.298014 0.854884 0.465062 0.256999 0.281739 -0.299851 -0.048140 0.016653 -0.415393 -0.014337 -0.410878 0.439448 -0.075821 -0.210193 0.313000 0.225771 0.125279 -0.064526 -1.142507 0.531853 0.259679 0.067437 -0.032638 0.494488 0.050144 0.136906 -0.174941 -0.907181 -0.316802
<end> 0.375891 -0.098908 -0.312911 -0.546894 0.621669 -0.308415 -0.164252 -0.070952 0.558200 0.248609 0.069796 0.497520 -0.773306 -0.212823 -0.312394 -0.048929 0.241609 0.179720 0.249883 0.729483 -0.149088 0.701574 0.097482 -1.383819 -0.220930 -0.842199 -0.209284 0.177763 0.362896 0.085936 -0.018318 0.025477 -0.191482 0.142562 0.673562 0.550050 0.859883 0.367165 0.558463 0.546596 -0.390144 -0.177635 0.282720 -0.554170 -0.146618 -0.319425 0.479076 -0.254733 -0.024599 0.672973 0.292864 0.195793 0.002736 -0.477364 0.681517 0.293644 0.070124 0.075491 0.937764 0.238546 0.365670 0.134675 -0.598981 -0.233011
<start> 0.325603 -0.069404 -0.291743 -0.509411 0.589279 -0.250286 -0.203002 -0.081645 0.496131 0.210954 0.058605 0.425121 -0.700966 -0.238139 -0.264230 -0.068529 0.233069 0.177521 0.287366 0.637989 -0.135982 0.751298 0.278092 -1.265086 -0.209490 -0.802533 -0.186779 0.148473 0.311423 0.092157 -0.035258 -0.027297 -0.172275 0.163037 0.620873 0.472283 0.821755 0.375915 0.503103 0.489205 -0.444540 -0.207691 0.278115 -0.497532 -0.096817 -0.275379 0.400837 -0.198200 -0.052329 0.551481 0.268415 0.230169 -0.036125 -0.547516 0.611725 0.252842 0.059358 0.014593 0.819901 0.228536 0.253596 0.069389 -0.609443 -0.235262
d4 0.146501 -0.126177 -0.193194 -0.414317 0.588718 -0.111238 -0.444518 -0.082623 0.182303 0.271704 0.042203 0.296240 -0.559790 -0.312022 -0.203277 0.138267 0.309240 0.099698 0.376676 0.576927 -0.292803 0.694918 1.103689 -0.588254 -0.104272 -0.661152 -0.222039 0.303190 0.050577 0.097009 0.030184 -0.108380 -0.123628 0.260944 0.423648 0.276794 0.794982 0.359546 0.407728 0.323170 -0.425831 -0.099365 0.169348 -0.367587 0.113760 -0.373289 0.372705 -0.119106 -0.052273 0.299736 0.227037 0.362178 0.051919 -1.026019 0.548440 0.213604 -0.006187 -0.062239 0.558825 0.079819 0.139178 -0.244027 -0.806822 -0.352455
e4 0.415132 0.055204 -0.285528 -0.418447 0.613035 -0.143894 -0.419797 -0.144221 0.497151 0.136782 0.087105 0.395035 -0.534999 -0.149232 -0.276924 -0.275451 0.066785 0.219951 0.333103 0.503070 -0.246963 0.496292 0.975011 -0.590068 -0.206422 -0.471715 -0.070220 0.087938 0.257744 -0.069487 -0.065150 -0.022596 -0.167055 0.174219 0.348951 0.326247 0.880289 0.445040 0.328547 0.328799 -0.256252 -0.337328 0.089885 -0.482482 -0.026924 -0.228679 0.486214 -0.117454 -0.144018 0.442592 0.244004 0.409745 -0.096563 -0.879174 0.490702 0.344472 -0.088412 -0.037925 0.444966 0.183190 -0.161625 -0.123242 -0.471759 -0.381610
Nc3 0.192235 0.237332 -0.340077 -0.469928 0.545442 0.015609 -0.638832 0.066930 0.439698 0.486239 0.101471 0.346422 -0.497988 -0.325676 -0.583502 -0.081273 0.282917 0.445032 0.680662 0.547892 -0.564792 0.471069 1.357797 -0.189863 -0.429830 -0.460213 0.005555 -0.037894 0.361906 0.050828 0.019666 -0.009083 -0.322105 0.339939 0.379090 0.424554 0.544719 0.088451 0.220878 0.571056 -0.354441 -0.433861 -0.006093 -0.437859 0.124848 -0.047770 0.178412 -0.041283 -0.384125 0.328232 0.307670 0.416457 -0.231929 -1.218790 0.356215 0.099081 -0.094543 -0.337820 0.377349 0.638045 0.030771 -0.219015 -0.344780 -0.194629
d5 0.241545 -0.090560 -0.132961 -0.553533 0.459186 -0.084823 -0.773488 -0.377753 0.239394 0.120940 -0.081113 0.208388 -0.499497 -0.182235 -0.310551 -0.107020 0.141842 0.184433 0.345684 0.429184 -0.438165 0.520910 1.498945 0.024107 -0.104109 -0.514659 -0.062560 -0.009536 0.133071 0.137006 0.189398 -0.179565 -0.227833 0.438788 0.234315 0.274179 0.767165 0.386282 0.255922 0.176275 -0.480443 -0.336814 0.144877 -0.178576 0.306782 -0.190469 0.333795 -0.228438 -0.342692 0.347586 0.328939 0.462320 -0.138383 -1.129545 0.397108 0.338052 -0.162344 -0.092816 0.426833 0.192496 -0.050483 -0.122890 -0.507080 -0.502929
e5 0.090601 -0.141009 -0.219756 0.048575 0.659200 -0.012844 -1.121265 -0.070641 0.194015 0.245910 0.259031 -0.029914 -0.496938 -0.228111 0.174883 -0.025331 0.162849 0.165361 0.412241 0.478643 -0.305704 0.341169 1.465224 -0.108364 -0.301455 -0.133684 -0.118887 0.149979 -0.253334 0.117306 -0.044721 -0.133933 -0.227212 0.099778 0.407362 0.211568 0.403670 0.512612 0.300667 0.375964 -0.128178 -0.181675 0.046547 -0.655840 0.022244 -0.441518 0.376850 0.109537 -0.252070 0.191839 0.261561 0.425583 -0.131064 -0.998393 0.432237 0.237120 -0.016389 -0.012303 0.157694 -0.046017 -0.039285 -0.286834 -0.190231 -0.226815
c5 0.465014 -0.119505 -0.082935 -0.209730 0.441977 -0.128958 -0.591618 -0.140695 0.199052 0.276612 0.214685 0.272284 -0.230787 -0.167664 -0.064302 -0.225766 0.155101 0.162497 0.619260 0.399243 -0.337892 0.551700 1.298951 -0.047468 -0.147372 -0.169464 -0.334924 0.322056 0.247058 -0.144929 -0.102681 -0.393085 -0.081838 0.039678 0.480146 0.068877 0.864509 0.380970 0.269575 0.427994 -0.248435 -0.036948 -0.087334 -0.162610 0.113419 -0.326605 0.608160 -0.163293 -0.239390 0.075048 0.210352 0.443676 -0.256840 -0.933150 0.584118 0.206281 0.010422 -0.225123 0.278291 0.030956 -0.053934 -0.444064 -0.552862 -0.399245
Nc6 0.048355 0.070635 -0.472597 -0.354343 0.714902 0.130283 -0.569959 -0.033138 -0.063219 0.505508 -0.131041 0.186626 -0.241011 -0.732357 0.091435 0.245666 0.363201 -0.088230 0.756224 0.583215 -0.381020 0.555687 1.515557 0.060560 -0.397554 -0.512764 0.130268 0.151698 0.069935 0.273284 0.036351 -0.215059 -0.460277 0.292143 0.311893 0.265792 0.337297 0.457053 0.344521 0.152211 -0.168002 -0.020420 -0.417431 -0.514481 -0.112945 -0.558389 0.096000 -0.254509 -0.259466 0.256793 0.257714 0.141973 -0.079932 -1.446326 0.576087 -0.046875 0.319240 -0.056854 0.463888 0.031708 0.322412 -0.342846 -0.629599 -0.230440
c4 0.360453 -0.084604 -0.150919 -0.596838 0.389800 -0.290229 -0.554984 -0.270796 0.126483 0.159557 0.121331 -0.014106 -0.584315 -0.238925 -0.262430 -0.142125 0.098635 0.051661 0.458420 0.115793 -0.166641 0.475973 1.175079 -0.169040 -0.184092 -0.249949 -0.051961 0.228783 0.224711 0.250930 0.121378 -0.069692 0.043866 0.444348 0.264751 0.118096 0.725939 0.156921 0.334445 0.274205 -0.127180 -0.101293 0.118148 -0.279256 0.042795 -0.429436 0.369452 -0.084943 -0.293822 0.235572 0.541581 0.301013 -0.364967 -0.760036 0.338892 0.477316 -0.021649 -0.124632 0.383582 0.207634 -0.012905 -0.152641 -0.411732 -0.382074
e6 0.107380 -0.026823 -0.151932 -0.496130 0.589679 -0.193867 -0.915439 -0.107793 0.417684 0.050360 0.202855 0.152977 -0.734884 -0.228157 -0.193909 -0.044345 0.261382 0.368442 0.465230 0.457391 -0.383112 0.800864 1.381049 -0.298827 -0.073959 -0.766445 -0.344465 -0.076029 0.079025 0.180495 0.122035 -0.437672 -0.186921 0.419979 0.702800 0.288107 0.590599 0.304261 0.477312 0.327748 -0.527943 -0.142276 0.362725 -0.028454 0.426452 -0.159319 0.313908 -0.126408 -0.187628 0.094695 0.394399 0.390843 0.015968 -1.136334 0.453887 0.482976 0.018093 -0.301944 0.411076 0.139020 -0.019728 -0.238039 -0.470790 -0.244242
g6 0.187556 -0.133305 -0.043514 -0.138993 0.420819 -0.431032 -0.582106 0.056153 0.066937 0.042994 -0.137317 0.499490 -0.586129 -0.344495 -0.054039 0.091929 0.208259 0.162148 0.103480 0.309476 0.104125 0.194511 1.181862 -0.287107 -0.016844 -0.305170 -0.131350 0.208191 -0.002791 0.302106 0.091843 -0.129480 0.181858 0.308081 0.143843 0.346021 0.508748 0.215921 0.456103 -0.137329 -0.079108 0.047633 0.442583 -0.130908 0.032265 -0.360913 0.474302 0.044379 -0.388909 0.148044 0.151730 0.396136 -0.380140 -0.790095 0.331995 0.050988 -0.092323 0.052730 0.376337 -0.153056 0.241076 -0.196650 -0.265218 -0.230891
d6 0.142145 -0.092076 -0.288819 -0.218579 0.668613 -0.307096 -0.796490 -0.180137 0.247363 0.250411 -0.111113 0.055211 -0.429633 -0.255038 0.126499 -0.446223 0.028502 0.262382 0.686999 0.420340 -0.344971 0.928205 1.271550 -0.249066 -0.053094 -0.674339 -0.208934 -0.092221 0.115694 0.264012 0.232473 0.147844 -0.038556 0.278967 0.658890 0.261719 0.900536 0.422440 0.456750 0.612438 -0.500655 -0.535117 -0.059449 -0.846406 0.279704 0.052715 0.139021 -0.020080 -0.436711 0.184198 0.362055 0.030623 -0.155415 -1.376824 0.549325 0.097583 0.103250 0.006893 0.583184 0.004847 -0.102300 -0.357621 -0.468474 -0.537571
f4 -0.276044 0.107585 0.213948 0.411656 0.160462 0.071563 -0.913767 -0.068456 -0.029584 0.193560 0.237745 -0.045397 -0.225251 -0.123080 -0.080744 0.061212 -0.243821 0.061114 0.336871 -0.063786 0.082589 0.357211 1.307742 0.012190 0.085928 0.542524 -0.002759 -0.032985 -0.227262 0.017033 0.162009 -0.163759 -0.255343 0.163917 -0.063429 -0.073563 0.140083 0.472098 0.196474 -0.058162 -0.136923 -0.077002 -0.098800 -0.367808 0.144638 -0.291481 0.047932 -0.108486 -0.476048 0.153017 -0.060106 0.372811 -0.312875 -0.341402 0.255188 0.098832 -0.130099 0.411317 -0.296224 -0.226493 -0.034637 0.032885 -0.095906 -0.411381
f5 -0.022468 -0.225196 0.336803 0.038713 -0.160093 0.131304 -0.815706 0.223428 0.060717 0.076655 -0.155925 0.002099 0.020311 -0.188959 -0.195561 -0.164772 -0.090976 0.009273 0.163121 0.204329 0.030098 0.069784 1.325043 -0.169730 0.025521 0.563515 -0.059459 -0.065867 -0.216572 0.181909 0.175135 -0.058322 0.078316 0.196614 -0.251760 -0.020471 0.058875 0.231559 0.068110 -0.152651 0.238836 -0.331252 0.117763 -0.211858 0.030666 -0.084162 0.319237 -0.044117 -0.587756 0.019576 0.121859 0.238485 -0.323307 -0.320424 -0.135803 0.297794 -0.190585 0.111534 -0.067643 -0.388232 -0.405702 -0.077057 -0.254520 -0.151796
b5 0.056542 -0.058172 -0.052010 -0.077872 0.530583 -0.152377 -0.650403 -0.346264 -0.186151 0.206567 -0.065146 -0.240368 -0.317639 -0.346214 -0.131682 0.033401 0.050022 -0.104900 0.579427 0.009258 -0.326556 0.149367 1.397286 0.288309 0.042310 0.509894 0.174121 0.115465 -0.005398 0.281974 -0.137436 -0.136338 0.215630 0.397566 -0.172760 -0.194647 0.316244 0.065078 -0.006029 -0.194430 -0.325353 0.014776 -0.311631 -0.353210 0.147566 -0.146153 0.308789 0.079083 -0.323714 -0.407511 -0.062414 0.176920 -0.937387 -0.390919 0.022862 -0.046952 -0.108606 -0.103505 0.081370 0.270359 -0.433449 -0.233069 0.209248 -0.335515
Be7 0.064801 0.066631 -0.905416 -0.050497 0.223385 0.008759 -1.198903 -0.144396 0.051250 -0.240138 -0.071635 0.283984 -0.484373 -0.575995 -0.018182 -0.297189 0.389101 -0.053308 0.148846 0.485799 0.266122 0.511019 1.654465 0.667551 -0.342997 -0.112825 0.118578 -0.146440 0.101142 0.468691 -0.171183 -0.114284 0.125515 0.270125 0.333525 0.469905 0.378294 0.361449 -0.021867 -0.034145 -0.192088 -0.142945 -0.030940 0.464535 -0.314295 -0.113283 -0.064388 0.070518 -0.034013 -0.052025 0.830262 0.247081 -0.438557 -1.517916 0.444556 0.389087 -0.001925 -0.236166 -0.116779 0.211123 -0.347529 -0.407330 -0.080311 -0.243600
a6 -0.119116 0.194691 -0.257570 0.050137 0.451295 -0.121460 -0.651028 0.169116 -0.058728 0.198373 0.057868 0.284207 -0.390059 -0.491730 -0.169780 0.098939 0.333559 0.046104 0.995735 0.147855 0.038420 0.689966 1.608536 0.454455 0.050516 0.111261 0.226263 0.186632 -0.230939 0.454746 0.147975 -0.210183 0.266115 0.471760 0.038937 -0.101281 0.451364 0.440502 0.120841 0.118929 -0.678964 -0.054237 -0.430927 -0.533605 0.421863 -0.118122 0.298780 -0.059059 0.104842 -0.125970 0.151675 0.280537 -0.562004 -1.073367 0.161135 -0.124121 -0.046716 -0.267122 0.565260 0.197789 -0.487016 -0.161908 -0.065913 -0.374318
Be3 -0.432030 0.127779 -0.343050 0.093071 -0.307392 0.313786 -1.004190 0.041181 -0.080427 0.182204 0.097618 0.419238 -0.182926 -0.163378 0.109925 0.067592 0.584700 0.218008 0.536654 0.574901 -0.143732 0.055885 1.732903 0.426977 -0.082995 0.233636 -0.361410 -0.106813 0.156903 0.038506 0.041280 -0.308426 0.186299 0.594727 -0.027669 -0.087424 0.496697 0.310406 0.112454 -0.390848 -0.125183 0.032486 -0.209244 -0.141365 -0.213380 -0.037735 -0.349639 -0.091046 0.196721 0.004312 0.351273 0.567579 -0.000787 -1.370001 0.287316 -0.086039 -0.196172 0.274347 -0.348294 -0.076783 -0.272954 -0.446536 0.162486 -0.437577
b4 0.216517 -0.316533 0.187706 0.104464 0.343995 -0.109756 -0.608713 0.017443 -0.253776 0.093417 -0.280211 -0.230976 -0.055571 -0.184233 -0.131952 0.256664 -0.042534 -0.215059 0.632085 -0.039722 -0.727535 -0.041962 1.374811 0.133197 -0.019253 0.602253 0.125093 0.072403 0.240131 0.347178 -0.044350 -0.251684 0.162010 0.060981 -0.114099 0.076213 0.374739 0.291441 -0.053025 -0.097596 -0.228961 -0.064556 -0.152460 0.012795 -0.069172 -0.278663 0.349321 -0.099216 -0.045223 -0.398784 -0.200756 0.290553 -0.639035 -0.191908 0.017106 0.092662 -0.038868 -0.341927 -0.278413 -0.180905 -0.195958 -0.589149 -0.044942 -0.202626
a4 0.071522 0.051852 -0.097065 -0.012579 0.281975 -0.559034 -0.201202 -0.238601 -0.074221 0.062994 -0.234869 -0.106393 -0.316899 -0.356524 -0.112109 -0.060139 0.182729 -0.048381 0.741920 -0.080470 -0.029268 0.277008 1.267252 0.231727 0.031198 0.437546 -0.080892 0.181860 0.246988 0.268074 -0.012535 -0.129173 0.226174 0.222356 -0.140184 -0.167634 0.330192 0.061225 0.176273 -0.094412 -0.285216 0.158020 -0.285432 0.017717 0.176758 -0.184031 0.230364 0.067895 -0.202355 -0.380109 -0.011713 -0.084720 -1.020190 -0.191828 0.095010 0.130175 -0.096425 -0.258216 -0.399209 0.008208 -0.175203 -0.241060 0.099147 -0.249005
a5 0.432245 -0.033916 0.031782 0.025808 0.181337 -0.445356 -0.347189 0.025050 -0.045232 0.102696 -0.140313 -0.203188 -0.069170 -0.257810 -0.225379 -0.054781 0.204231 -0.009601 0.743429 -0.167077 -0.242840 0.228172 1.214024 0.142230 0.016664 0.750029 0.132521 0.291968 0.313425 0.215851 -0.010777 -0.097612 0.102026 0.193279 -0.083342 -0.180798 0.526606 0.094781 -0.014727 -0.240811 -0.273230 0.104546 -0.314031 0.221327 0.212286 -0.399543 0.180206 -0.079875 0.067275 -0.481342 -0.174212 0.059082 -0.687720 -0.081697 -0.014751 0.115859 -0.214449 -0.273976 -0.356520 -0.269191 -0.074481 -0.370509 -0.018321 -0.065278
Bd3 0.873668 0.006500 -0.082679 0.214411 0.088868 0.081037 -0.520363 0.362168 -0.180134 -0.116342 0.076907 0.189193 -0.441746 -0.304909 -0.226469 -0.168889 -0.030847 0.345583 0.313836 0.328161 -0.175270 0.052834 1.702817 0.363474 0.007058 -0.122187 -0.084527 0.518113 -0.381698 -0.117657 0.297028 0.411566 -0.072923 -0.134820 0.105218 0.115869 0.290409 0.043005 0.167508 -0.179272 -0.639694 -0.016463 0.061176 0.120124 0.431836 -0.229256 0.193272 0.272809 -0.144280 0.251867 0.135419 0.416485 -0.451388 -1.482403 0.158914 0.326951 -0.285862 0.077117 -0.044883 0.124043 -0.313228 -0.198058 -0.712689 0.151829
g3 0.278025 0.123033 -0.069466 -0.052981 0.129550 -0.118942 -0.502312 -0.179536 0.298810 0.017130 0.061940 0.373289 -0.392976 0.030114 -0.262984 0.201689 -0.309466 0.187029 0.320907 0.011627 0.313460 0.612786 1.130698 -0.180616 -0.100551 0.354698 0.222817 0.155016 -0.142336 0.253049 -0.096032 -0.106548 -0.224866 0.224700 -0.018961 0.214066 0.704975 0.223791 0.234929 0.473824 -0.473177 0.080151 0.088954 -0.185165 -0.050543 -0.355938 0.263022 -0.314856 -0.067730 -0.135748 0.035255 0.067734 0.092261 -0.468308 0.367449 0.193502 -0.005474 0.334675 0.408869 0.082872 0.312480 -0.107932 -0.247570 -0.098616
cxd4 -0.044488 -0.236414 -0.452634 -0.603315 0.778065 -0.093470 -0.690129 -0.160420 -0.264176 0.791576 -0.002744 0.310097 0.107465 -0.426214 -0.016305 0.632633 0.905883 -0.330781 0.190907 0.741261 -0.335275 0.412541 1.864163 0.153419 -0.015806 -0.342011 -0.327431 0.586076 -0.861243 0.194255 0.014840 -0.089645 0.223641 0.405564 0.438451 0.283992 0.426767 0.123223 0.497005 0.181750 -0.342798 0.362722 0.031254 -0.378002 0.253792 -0.362840 0.539635 -0.410211 0.022549 0.009684 0.158416 0.238032 0.493806 -1.466135 0.081562 -0.169171 0.123495 0.018163 0.329399 0.455887 -0.099572 -0.631118 -0.998382 -0.090050
h3 0.148703 0.106253 -0.081135 0.054126 -0.085001 -0.206776 -0.564146 -0.046025 0.021252 -0.128219 0.385249 -0.015892 -0.376851 0.255196 -0.037055 0.116471 -0.113706 0.091797 0.626138 -0.005828 0.058138 0.216108 1.777364 0.051887 -0.344850 0.398743 -0.054854 -0.063297 -0.329450 0.213379 -0.298360 -0.282146 -0.162906 0.243509 -0.354321 -0.410460 0.727776 0.417176 -0.115108 -0.002210 -0.139787 -0.358607 0.040379 0.047321 0.146443 -0.221363 0.332992 0.120747 0.085139 -0.278641 -0.044335 -0.324639 0.013548 -0.690874 0.261232 0.045514 0.120763 0.009101 0.337565 -0.436448 -0.121986 -0.247265 0.008757 -0.472603
h6 0.198222 0.233929 -0.089322 0.306098 0.418689 -0.625586 -0.689207 -0.085913 0.180633 -0.207921 -0.011260 0.362118 -0.595492 -0.350858 -0.096650 -0.396473 0.062014 0.080640 0.058627 -0.127324 0.135652 -0.074831 1.546638 0.242545 0.160754 -0.150076 0.082751 0.064188 -0.274995 -0.033170 -0.082795 -0.042535 0.345217 0.192500 -0.366420 -0.232800 0.301172 0.327016 -0.015578 0.005396 0.065940 0.118164 0.289440 0.239324 0.281150 -0.192237 -0.026864 0.073232 -0.472508 -0.165572 -0.054304 0.516910 -0.624242 -0.820234 0.221321 0.102162 0.054149 -0.105126 -0.301449 -0.049877 0.102526 -0.743492 -0.395594 0.047740
Bg7 -0.000136 0.126844 0.004603 -0.192258 0.563235 -0.103642 -0.954175 -0.016690 0.223462 0.349900 0.200887 0.196244 -0.646856 -0.267355 -0.013769 -0.130412 0.209532 0.242960 0.226515 0.479819 -0.178673 0.099675 1.381282 -0.274768 -0.290356 -0.268280 -0.251055 -0.094919 0.078841 0.450420 -0.035969 -0.095241 -0.166102 0.539646 0.519042 0.125160 0.617984 0.314974 0.295200 0.080940 0.151715 -0.247022 0.153488 -0.639489 0.091040 -0.008569 0.129078 -0.245445 -0.478692 0.203807 0.234189 0.505863 -0.284106 -0.908471 0.411947 0.273104 0.019396 0.020273 0.116552 0.069574 -0.003870 -0.209522 -0.396894 -0.670960
h4 0.112185 0.212770 0.415066 0.448429 0.217232 -0.200717 -0.493485 0.067169 0.088745 -0.039903 -0.208285 0.219065 -0.453781 -0.063897 -0.103034 0.219643 -0.261871 -0.230301 0.175945 -0.121599 0.658510 0.350100 1.076488 -0.295592 0.068335 0.605032 0.165352 0.091109 0.002455 0.077993 -0.025239 -0.152208 0.034918 0.232614 -0.260168 0.009983 0.063952 0.218785 0.092994 -0.018737 -0.101378 -0.012037 0.104415 0.321451 0.064599 -0.312872 0.100244 0.177166 -0.250959 -0.260582 -0.160670 0.032894 -0.614464 0.072983 0.129951 -0.027251 -0.256091 -0.084610 -0.061793 -0.337640 -0.024555 -0.220607 0.038986 0.119266
h5 0.028593 0.365842 0.385777 0.337367 0.090850 -0.234177 -0.408263 0.050978 0.032565 -0.073884 -0.046891 0.253748 -0.211830 -0.083084 0.069208 0.346460 -0.109956 -0.032070 0.047433 0.011856 0.531858 0.218342 1.114094 -0.429937 0.005478 0.378853 0.044065 0.206769 0.066313 0.269853 -0.102693 0.104498 -0.045553 0.240324 -0.316092 -0.137312 0.128117 0.107237 0.105108 -0.255095 0.053789 -0.104364 0.054990 0.117020 0.043618 -0.214119 0.176522 0.057487 -0.189976 -0.426241 -0.235418 0.060220 -0.702038 0.071892 -0.117662 -0.041921 -0.135395 0.066704 -0.312235 -0.461957 0.160682 -0.150202 0.113667 -0.261389
g4 0.049467 0.512876 0.291059 0.343298 0.014832 0.141282 -0.533416 0.214945 0.030360 -0.096577 -0.170190 0.213307 -0.181630 0.037560 0.045488 0.041959 -0.203057 -0.088802 -0.032648 -0.099850 0.247544 0.297104 1.330481 -0.385144 -0.066764 0.574688 -0.158590 -0.067556 0.059733 0.325677 -0.308811 0.182192 -0.091692 0.234858 -0.387842 -0.153383 0.115164 0.260053 0.235928 -0.275326 -0.014408 -0.255653 0.031089 0.096855 0.067423 -0.119077 0.488134 0.122074 -0.173666 -0.225221 -0.253571 -0.093696 -0.642460 0.048768 0.041940 -0.194421 -0.091957 0.319755 -0.195521 -0.339960 -0.166799 -0.215957 -0.176692 -0.262495
c6 0.338845 0.129090 -0.129178 -0.373853 0.318464 0.047173 -0.739012 -0.360680 0.396113 0.017982 0.038448 0.288938 -0.246167 -0.228161 -0.146928 -0.271704 -0.362349 0.380153 0.619939 0.091676 -0.313754 0.613272 1.259435 0.094100 0.002894 -0.365136 -0.035032 -0.058291 0.372790 -0.238355 -0.194729 -0.403524 -0.444823 0.393365 0.006428 -0.006215 0.736955 0.467267 0.174727 0.125797 -0.604850 -0.343228 -0.073289 -0.105449 0.227135 -0.159616 0.438463 -0.199425 -0.296918 0.167080 0.200040 0.497278 -0.342882 -1.088681 0.615873 0.098106 0.040348 -0.072201 0.451532 -0.081963 0.098756 -0.108334 -0.486399 -0.744664
Bg5 -0.045116 -0.034677 -0.298420 -0.265416 0.122173 0.046514 -1.255711 0.013808 0.105583 0.028287 -0.257742 0.098533 -0.617451 -0.345062 -0.297772 -0.241339 0.330400 -0.116090 -0.228800 0.253047 0.114276 0.080330 1.722871 0.370080 0.014679 -0.098093 0.167386 -0.149642 0.033921 0.487708 -0.317186 0.210947 0.171880 0.530384 0.009041 0.172248 0.394341 0.385417 0.197360 0.006527 -0.076693 -0.374980 0.093910 -0.183247 0.079030 -0.005898 -0.366773 0.301901 -0.373867 0.320445 0.392999 0.288199 -0.233646 -1.395251 0.250023 0.278763 -0.038282 0.446438 0.336608 -0.125862 -0.157350 -0.136216 -0.124831 -0.496234
Nxd4 -0.664016 -0.351385 -0.356362 -0.102579 0.525177 -0.041581 -0.573366 -0.093108 -0.186792 1.033175 0.066890 0.840435 0.368276 -0.399334 -0.062206 0.736436 1.127365 -0.501026 0.619012 1.037019 -0.694260 0.446120 1.693942 0.080836 -0.191030 -0.303520 -0.459504 0.232532 -0.901846 0.168187 0.173468 -0.336073 -0.075524 0.073499 0.337640 0.517225 -0.057771 0.391542 0.663750 0.374456 -0.425315 0.410221 -0.108421 -0.683487 0.054435 -0.078026 0.291867 -0.543861 -0.072841 -0.078280 -0.120305 0.066136 0.722923 -1.450555 -0.122391 -0.823061 0.116341 0.148096 0.229682 0.224856 0.223402 -0.499228 -0.816861 0.019049
a3 0.477413 -0.012882 -0.246359 -0.431443 0.359935 -0.370855 -0.432395 0.236893 -0.131461 0.034124 -0.081975 -0.056997 -0.023260 -0.480636 -0.232647 0.009175 -0.125262 0.068070 0.443081 0.189003 -0.716654 0.208267 1.735849 0.385642 -0.317401 -0.004999 -0.213164 0.037869 -0.006445 0.119395 0.096798 0.038409 -0.127309 0.269752 -0.060437 0.423790 0.150746 0.002692 -0.123385 0.101557 -0.530875 -0.102873 0.278861 0.066876 0.192221 -0.355032 0.166215 -0.235514 -0.459109 -0.574297 -0.010452 0.428971 -0.592284 -0.498490 0.276878 0.418417 0.128936 -0.449308 -0.725745 -0.035706 0.014045 -0.505455 -0.389863 -0.133899
g5 0.243793 0.412964 0.088296 0.340543 0.181055 -0.047466 -0.790881 0.103678 -0.024843 0.094795 -0.187186 0.130062 -0.356425 -0.001126 -0.087106 0.044857 -0.150935 -0.095017 -0.130044 -0.097508 0.431986 0.233379 0.945786 -0.380217 0.010889 0.633838 -0.043203 -0.115860 -0.048646 -0.007330 -0.181250 0.041420 -0.059370 0.171067 -0.444147 -0.161032 -0.108084 0.356704 0.188802 -0.224059 -0.003784 0.207961 -0.029799 0.102642 0.237787 -0.287176 0.039318 0.382344 -0.439647 -0.123738 -0.283989 0.207665 -0.837846 0.152759 0.286949 0.031247 -0.348548 0.226372 -0.147476 -0.185143 0.040753 -0.265282 -0.174449 0.013271
Qc7 0.190537 0.277744 0.099363 0.202944 0.056624 -0.583310 -1.310837 -0.078635 -0.110536 0.424501 0.273029 -0.042177 -0.022450 -0.070649 0.339507 -0.406484 0.229950 0.072983 0.657629 0.354233 0.403532 -1.068758 1.424177 1.320258 -0.008704 0.224296 -0.049874 0.174232 -0.062932 0.449880 0.119358 0.470276 0.315359 0.268401 -0.114487 0.167404 0.177025 0.274216 0.256397 0.004128 -0.261940 0.287836 -0.429095 0.432366 0.063547 -0.468175 0.191504 -0.073565 -0.453038 -0.567161 0.205251 0.174386 0.391037 -1.104967 0.426770 0.109244 -0.085230 -0.220700 0.016716 0.018947 0.113923 0.036401 -0.024798 -0.061830
Be2 0.523554 0.225306 -0.118674 0.010495 0.531262 0.395029 -0.653551 0.167048 0.021966 0.294432 0.373314 0.199091 -0.281584 -0.532496 -0.101326 0.233379 0.182980 0.593781 0.482904 0.047295 0.065340 0.092960 1.758345 0.357481 -0.266785 0.057739 -0.498683 0.412472 -0.264301 -0.264325 0.113040 0.224333 -0.518029 -0.110540 0.192601 -0.027021 0.600036 -0.006988 -0.141079 0.531256 -0.672900 -0.220138 -0.394560 -0.304373 -0.055015 -0.417222 -0.174867 0.630968 -0.043051 0.260303 0.034689 0.035848 -0.568897 -1.251753 0.160388 -0.330807 0.024257 0.140326 -0.301028 0.286696 -0.405756 -0.188199 -0.056940 -0.394281
Ne5 0.149901 0.300640 -0.383873 0.345559 0.777901 -0.266604 -1.036755 0.120259 -0.235746 -0.094284 1.337149 -0.169012 0.047112 0.204982 0.530770 -0.013503 -0.252551 -0.213682 0.224741 -0.105718 -0.397876 0.075778 1.192877 0.536557 -0.086698 0.215317 0.186996 0.362001 -0.287015 -0.106612 -0.203768 -0.011353 -0.167011 0.023952 -0.130660 -0.518100 -0.296497 -0.030785 -0.038425 -0.442193 -0.039924 0.257169 -0.054605 -0.079622 0.208442 -0.377563 -0.116185 0.144453 -0.718797 -0.037545 -0.290693 -0.327734 0.031658 -1.127016 0.066914 0.059655 0.237180 0.067302 0.004968 0.219299 0.338316 0.162910 -0.119547 -0.360246
b6 0.369653 0.012778 -0.022870 0.034457 0.185251 -0.192353 -0.587707 0.129505 0.180021 -0.022796 -0.018217 0.269988 0.059555 -0.297369 -0.049485 -0.478638 0.241578 0.095865 0.718170 -0.169707 -0.171362 0.431148 1.213783 0.373783 -0.089657 0.585925 -0.234217 0.218151 0.190448 -0.348971 -0.363898 -0.303382 0.148942 0.344471 -0.151734 -0.073990 0.750509 0.000470 0.048776 0.021787 -0.519714 -0.000705 -0.507257 -0.265310 0.270396 -0.254590 0.394584 -0.260455 -0.178242 -0.091849 -0.236913 0.411419 -0.363280 -0.705623 0.604270 0.033817 0.010209 -0.258977 0.223639 0.066755 -0.586582 -0.423943 -0.313970 0.049041
c3 -0.050809 -0.265401 -0.139543 -0.444373 0.394490 -0.347684 -0.621420 0.150128 -0.339869 0.430742 -0.122656 0.065283 -0.544998 -0.418921 -0.318105 0.268274 0.267043 0.002308 0.247453 0.379595 -0.432143 0.387769 1.625763 0.016009 -0.027441 -0.147598 0.244343 0.267406 -0.285363 0.474851 0.212639 0.065920 0.013708 0.425509 0.154847 0.018100 0.310956 0.257266 0.264751 0.328567 -0.212130 0.003613 0.382373 0.086449 -0.020753 -0.411830 0.201834 0.126669 -0.111207 -0.089685 0.614784 0.408635 0.022519 -1.042922 0.018867 0.142880 -0.103870 -0.173826 -0.058310 0.026389 0.134748 -0.658919 -0.698980 -0.030411
Re1 0.043926 -0.206916 -0.073296 -0.213382 -0.510657 -0.367464 -0.173049 -0.004621 -0.388217 0.209820 -0.239730 0.221846 -0.321587 0.228358 -0.141162 -0.423026 -0.130377 -0.237875 0.721437 -0.714942 0.032335 -0.030621 1.318157 0.199389 -0.251545 -0.053534 -0.166236 0.247317 -0.236504 0.273357 -0.069269 -0.023500 0.114183 0.068636 0.037569 -0.273535 0.304095 0.505005 -0.341127 0.069144 0.003257 0.552698 0.635732 -0.014285 0.585261 0.129201 0.205644 0.011098 -0.655118 -0.329851 -0.133468 -0.259852 0.048595 -0.692535 -0.014687 0.389041 0.317397 0.002937 0.142713 -0.064000 0.196658 -0.074738 -0.480739 -0.044691
Bd7 -0.139905 -0.060959 0.089740 0.425924 0.062238 0.390903 -1.074799 -0.009587 -0.239558 -0.022726 -0.106342 -0.209894 -0.124709 -0.198966 -0.169503 0.321580 -0.189482 0.456395 0.516740 0.133543 -0.220399 -0.179566 1.606011 0.719092 0.087922 0.100557 -0.407336 0.427958 0.019890 0.362958 0.351254 0.228135 -0.518320 -0.076207 0.115809 0.061868 0.108798 0.269104 0.067250 0.169998 -0.561567 0.118070 -0.394288 0.249630 0.505569 0.040357 -0.344391 0.504251 -0.159788 0.110856 -0.303925 -0.525651 -0.789670 -1.277196 0.401247 -0.282782 0.162712 0.163787 -0.241889 0.097267 -0.309733 -0.099030 -0.617276 -0.196251
b3 0.239360 -0.087728 -0.214074 -0.255534 0.248607 -0.579268 -0.563504 -0.123369 -0.354039 0.133147 0.045662 -0.190052 -0.267773 -0.198941 -0.110639 -0.022870 0.458991 0.063484 0.433226 0.097629 -0.519819 -0.091240 1.343132 0.169364 -0.345914 0.308426 -0.009710 -0.059466 0.167380 0.539245 0.154129 0.027168 0.003850 0.207067 0.195391 -0.104387 0.317111 0.416369 0.502450 -0.129248 -0.072179 -0.092135 -0.010256 -0.375426 0.134480 -0.198887 0.127293 0.074018 -0.546309 -0.297971 0.174606 -0.022465 -0.456325 -0.245994 -0.072202 0.365554 0.073724 -0.139991 -0.677819 -0.173805 0.090119 -0.376237 0.153227 -0.421445
Re8 0.112191 0.111145 0.138859 0.111678 -0.345244 -0.616399 -0.708065 0.164300 -0.369198 0.326906 0.225528 0.268375 -0.165103 0.165249 -0.454694 -0.408777 -0.339334 -0.186054 0.610102 -0.733232 0.101765 -0.099390 0.885701 0.369842 0.188776 0.079126 0.054837 0.003451 0.079389 0.147004 -0.346648 -0.252397 -0.084293 -0.112451 0.156821 -0.439500 0.549363 0.293975 -0.078928 -0.303983 0.062945 0.534537 0.351069 -0.131512 0.591519 0.411738 0.071855 -0.432616 -0.501406 0.009556 -0.322403 0.331009 -0.132876 -0.676118 -0.247158 0.163812 0.089835 0.318454 0.258682 -0.262444 0.037899 -0.247146 -0.337229 -0.328533
exd5 0.264128 -0.236078 -0.387536 -0.744061 0.262640 -0.210861 -1.052159 -0.277983 0.063215 -0.063555 -0.095955 0.043617 0.077959 -0.169574 -0.293807 0.066698 0.298074 -0.248784 0.662668 0.054995 -0.604910 0.198390 1.418455 0.671269 -0.051719 -0.623470 -0.201976 -0.263981 0.132399 0.432865 0.465329 0.038259 -0.245572 0.592561 -0.027277 0.804161 0.140142 -0.104159 0.009571 -0.122532 -0.959845 -0.191946 0.194860 0.093107 0.519629 -0.302037 0.058090 -0.553523 -0.510022 1.010545 0.150266 0.425186 -0.019736 -1.192393 0.340397 0.256440 -0.286071 0.285572 0.512444 0.539261 0.062129 0.208375 0.166133 -0.645575
Qd2 0.450085 0.006187 0.326374 0.205038 0.068060 -0.139840 -0.739449 0.338799 -0.129055 0.221700 -0.048160 -0.194926 -0.186686 -0.080612 -0.549439 0.243523 -0.104787 0.241192 0.156365 0.359490 0.241551 -1.343110 1.855133 0.873391 0.100766 0.273772 -0.086732 -0.086760 0.034073 0.378914 -0.073637 0.006135 -0.429946 0.461585 0.021887 0.130779 0.387734 0.019561 0.055380 0.009448 -0.633388 -0.251215 -0.424030 -0.308692 0.394922 0.049688 -0.364487 0.032566 -0.696859 -0.216728 -0.276710 -0.168384 0.700504 -0.663321 -0.191946 -0.268713 0.084909 -0.140815 -0.052465 -0.230295 0.316917 -0.303415 -0.402613 -0.220606
Nd7 0.354883 -0.202847 -0.478847 0.402637 0.262742 -0.131067 -1.373434 0.278896 0.081561 0.077053 0.643042 -0.016011 0.055549 0.123316 0.249681 -0.109791 0.092803 0.419157 0.357225 -0.035406 -0.074633 -0.299115 1.180295 0.563788 0.083175 0.636985 -0.072510 0.187564 0.313344 0.119067 -0.646970 0.058092 0.026130 -0.036083 0.236248 0.121818 0.036458 0.107731 -0.001230 -0.034879 0.126494 0.205663 -0.343708 0.380881 0.414777 -0.460991 0.194457 0.360338 -0.446240 0.086492 0.096927 -0.003459 -0.476994 -0.962234 0.414791 0.541238 -0.354334 -0.193578 -0.356230 0.163821 -0.102716 0.016825 -0.264241 -0.171200
Nd5 -0.032686 -0.216737 -0.505091 -0.696887 0.276152 -0.103275 -0.933494 -0.077384 0.372448 0.032659 0.042033 0.504415 0.288361 -0.240912 -0.197085 -0.185184 0.190260 -0.106576 0.257564 -0.198356 -0.565965 0.011858 1.270898 0.374384 0.116941 0.353171 0.610348 -0.301152 0.223087 0.284402 0.214211 -0.189654 -0.295388 0.800310 -0.401457 0.100090 -0.465417 -0.058796 -0.254616 -0.358222 0.019232 -0.444061 0.024377 -0.025085 0.285090 -0.158132 -0.806360 -0.452308 -0.732724 0.245448 0.023848 -0.015211 0.004071 -0.800774 -0.345145 0.074044 -0.033481 0.080673 0.501257 0.265497 0.068957 0.082048 -0.060964 0.033401
Ne4 0.512167 0.446018 -0.378341 -0.046386 0.123255 0.054403 -0.461968 0.146857 0.544512 -0.210761 0.361585 0.474937 0.170674 0.354281 0.015039 -0.648526 -0.274574 -0.293241 -0.018137 0.057946 -0.515863 -0.312004 1.202906 0.416674 -0.079900 0.465779 0.478142 0.051907 0.120755 -0.385928 -0.433378 -0.138541 0.627254 -0.163807 -0.404787 0.080186 0.014818 0.336287 -0.019414 0.099870 0.052266 -0.075427 0.267547 0.480884 -0.314799 0.390052 0.192814 -0.002797 -0.644879 -0.004504 0.310062 0.043915 0.093716 -1.098964 -0.528336 0.267433 0.137453 -0.615829 -0.147717 0.386130 -0.431040 -0.005186 -0.594152 0.249159
f3 0.043272 0.336661 -0.291632 0.407486 0.055870 0.003775 -0.371115 -0.393070 0.051897 -0.034738 0.433642 0.516539 -0.065700 0.218911 -0.406050 -0.252912 -0.134557 0.222646 0.253390 -0.376458 0.096457 0.173087 1.238151 0.029878 0.073359 0.647297 0.147273 -0.152870 -0.068124 0.070983 -0.322064 0.042593 -0.339119 0.006237 -0.112112 -0.107021 0.579152 0.587223 -0.084590 0.111396 -0.380188 -0.443642 -0.333995 -0.419984 -0.025930 0.053348 0.314412 -0.355769 -0.317744 -0.098867 -0.102142 0.027211 0.010400 -0.392933 -0.031529 -0.148035 0.042445 0.063734 -0.464696 0.021178 -0.425515 -0.272299 0.054916 -0.618725
Qe2 0.189809 0.472341 -0.129763 -0.227499 -0.108046 -0.268093 -0.758059 -0.009586 -0.237333 -0.120282 0.229129 0.102167 -0.144411 0.227496 0.354852 0.094176 -0.000302 -0.013149 0.042544 0.510032 0.687336 -1.140875 1.604328 0.997793 0.087270 -0.003715 -0.062540 0.249096 0.035905 0.301191 -0.036300 -0.112819 0.220506 0.411329 -0.027196 -0.040336 0.345788 0.293793 -0.075459 0.047723 -0.442326 0.216270 -0.187795 0.109064 -0.078956 -0.358197 -0.123253 0.170889 -0.341184 -0.426139 0.349661 -0.293972 0.692236 -0.988391 0.194857 0.278799 0.337619 -0.178329 -0.216337 0.232674 -0.271943 -0.006746 -0.054644 -0.240357
Rc8 -0.030542 -0.059176 -0.908653 0.192662 0.192645 -0.858433 -0.580135 0.322981 0.076046 -0.340709 0.010123 -0.144666 -0.197787 -0.738754 -0.125484 0.245600 0.169641 -0.035262 0.765105 0.130803 -0.152952 -0.043845 0.953380 0.324892 0.341259 0.259164 0.338860 -0.518930 -0.255803 0.470802 0.105520 -0.162153 0.086785 -0.173651 -0.180127 -0.131675 0.099068 0.161624 0.161427 -0.419555 -0.595467 0.293699 -0.076585 0.076840 0.344085 0.116302 -0.045291 -0.103002 0.212752 -0.215899 -0.471856 -0.024908 -0.137931 -0.195828 -0.344797 -0.036960 0.023997 -0.163883 -0.424201 0.183924 -0.394380 0.158508 0.115624 0.133200
e3 0.589582 0.231649 -0.318169 -0.377809 0.796407 -0.010864 -0.061528 -0.061527 0.513989 0.098159 0.231770 0.468297 -0.098473 -0.094965 -0.355865 -0.115086 -0.087487 0.312856 0.710541 0.175673 -0.308998 0.536391 1.384968 -0.235336 0.034323 -0.694662 0.015976 0.229063 0.393231 -0.444040 0.229520 -0.110306 0.036737 0.183214 -0.054296 -0.195893 1.155790 0.151038 -0.026912 0.227313 -0.796707 -0.022817 -0.121064 -0.278055 0.241531 -0.283170 0.378626 -0.197276 -0.193403 -0.117783 -0.063543 0.822396 0.080465 -1.230199 0.372086 0.538084 -0.189633 0.236450 0.293989 0.159881 -0.475652 -0.101941 -0.559523 -0.679876
Be6 0.079234 -0.351148 0.231048 -0.229391 0.018853 0.262832 -1.013068 -0.511678 -0.032321 -0.241648 0.038380 0.152039 0.055510 -0.330671 -0.339040 -0.360782 0.080710 0.238008 0.742848 -0.246967 -0.481577 -0.213194 1.336699 0.458788 0.105762 -0.062739 -0.081134 -0.127648 -0.459288 0.055000 0.734546 0.108759 -0.565333 0.033452 -0.110359 -0.271349 -0.234664 0.226515 0.084290 0.140407 -0.298463 -0.124266 0.071675 0.048506 -0.116914 -0.426825 -0.744535 0.041893 -0.440345 -0.108560 -0.041090 -0.002528 -0.292345 -0.990652 0.024836 -0.049115 0.169264 0.812378 -0.380645 -0.267488 -0.276501 -0.290658 0.221141 -0.000356
cxd5 0.542110 0.046045 -0.084745 -0.771368 0.156261 -0.103855 -1.053579 -0.179338 0.432818 -0.225940 -0.168225 0.247806 0.349046 0.016000 -0.507559 -0.064356 0.100713 -0.195357 0.492028 -0.213744 -0.775461 -0.041376 1.473835 0.758859 -0.004071 -0.373002 -0.259574 -0.245006 0.374229 0.036859 0.101399 -0.276705 -0.221589 0.328962 -0.158373 0.710943 0.422500 -0.053834 -0.138274 0.057482 -1.085497 -0.435617 0.136050 0.100168 0.587603 0.028388 0.234485 -0.592795 -0.553638 0.972283 -0.286279 0.537212 -0.046427 -1.063401 0.344670 0.332900 -0.189957 0.137958 0.326825 0.686111 -0.269375 0.088027 -0.030181 -0.699667
Bg2 0.573126 0.132140 0.141113 -0.330899 0.611651 0.293097 -0.561127 -0.096804 0.161459 0.417498 0.068551 0.224947 -0.376227 -0.247957 -0.231888 -0.048421 0.038084 0.187603 0.485965 0.127837 -0.245149 0.283057 1.388924 -0.162620 -0.433980 0.036082 -0.123958 -0.014664 -0.158095 0.000327 0.237158 -0.222507 -0.480477 0.267082 0.205529 0.077938 0.682966 0.573708 0.001735 0.439049 -0.337559 -0.210360 -0.067745 -0.379356 -0.114474 -0.385601 0.299918 -0.234342 -0.439916 0.173598 0.068074 0.187299 0.048798 -0.904631 0.648918 0.188579 0.074030 -0.118339 0.498438 -0.005928 -0.448365 -0.033341 -0.603741 -0.317645
Bb7 0.324339 -0.272309 -0.259926 0.008884 0.627708 -0.112867 -1.089166 0.026567 -0.203973 0.340549 0.246153 0.042451 -0.300546 -0.349824 -0.093303 -0.180832 -0.096513 -0.085867 0.677230 0.059336 -0.543047 -0.086144 1.728924 0.466633 0.238101 0.350160 0.368546 -0.041077 -0.343140 0.200327 0.379467 0.152384 -0.056920 -0.007467 -0.074331 0.064691 -0.057398 0.733700 -0.168074 0.088811 -0.117324 0.053934 -0.228754 0.292325 0.001107 -0.584208 0.193915 -0.080230 -0.358093 0.164206 0.142318 0.368187 0.024553 -1.119211 0.172009 0.215861 0.001422 -0.200284 0.455007 0.105771 -0.934531 -0.194527 -0.099042 0.194149
f6 0.087134 -0.462275 -0.124322 0.154511 -0.004413 -0.166739 -1.099247 0.581491 -0.037507 -0.118721 0.154341 -0.129199 0.146702 -0.478267 0.063527 0.098788 -0.146891 -0.353940 0.264340 -0.070699 0.370207 -0.186931 0.853872 -0.009208 -0.008615 0.230219 -0.242237 -0.033928 -0.415914 0.042052 -0.203784 -0.044275 0.145635 0.039139 -0.224768 0.017678 -0.264011 -0.022582 -0.130179 -0.059060 0.407313 0.073710 0.126900 -0.036131 -0.058334 -0.552078 0.050819 0.481255 -0.656111 0.208615 0.168624 0.254263 -0.565101 -0.306544 -0.044813 0.133227 0.108343 -0.033075 -0.008542 -0.549965 -0.029376 -0.193197 -0.314163 -0.145767
Qc2 0.415522 0.687322 0.069220 -0.243622 0.086526 -0.569603 -0.474184 -0.151512 0.209095 0.324591 0.273894 -0.025579 -0.175296 0.179093 -0.225130 -0.248268 -0.375354 0.183298 0.373737 0.322046 0.255284 -1.333177 1.560825 0.993487 0.082935 0.458488 -0.285260 0.364510 0.237376 -0.050876 -0.181965 -0.252023 0.032663 0.325343 0.033010 0.413311 0.467604 -0.025742 0.080447 -0.207832 -0.265451 -0.051292 -0.498018 0.193648 0.082331 -0.200058 0.299184 -0.050050 -0.591969 -0.427196 0.133175 0.121760 0.633820 -0.966816 0.406872 0.571933 -0.033744 -0.071529 -0.265212 0.060207 -0.186116 -0.192049 -0.231314 -0.072640
Kg7 0.763130 0.912585 -0.061170 -0.344272 0.205725 -0.724528 -0.258039 0.767777 -0.096012 0.447219 0.018212 0.001618 0.653067 0.198873 0.056978 0.082737 0.095303 0.819216 -0.056518 -0.510793 0.968963 -0.604761 0.212666 -1.232170 0.474632 -0.286266 -0.380801 -1.140597 -0.257391 0.154579 0.275814 0.320726 0.324446 -0.850982 -0.781783 0.232225 0.189129 -0.141958 0.490560 -0.136464 0.517658 0.333971 0.325388 0.840783 0.036275 -0.055140 -0.298518 0.210460 -0.469556 -0.126229 -0.503599 -0.415076 -0.334650 0.420246 0.133512 0.070153 0.142811 0.085568 0.311879 -0.192615 0.475392 -0.694339 0.182886 0.092122
Bc4 0.519488 0.021582 -0.173580 -0.296392 0.155761 0.021386 -0.761942 -0.343368 0.221972 0.142677 -0.014486 0.320485 -0.472223 -0.208524 -0.228427 -0.333565 0.304233 0.592749 0.781430 0.088648 -0.462774 0.152308 1.272520 -0.070992 -0.021419 -0.274782 -0.135848 0.071037 -0.243992 -0.236430 0.596657 -0.008165 -0.528552 0.130853 0.458707 -0.048637 0.269950 0.271655 0.146091 0.299364 -0.331854 0.123264 0.216939 0.164914 0.097248 -0.475406 -0.285544 -0.018347 -0.019954 0.250749 0.223139 0.472858 -0.333214 -0.950609 0.243340 -0.024615 0.039931 0.181873 0.132746 0.318417 0.040538 -0.368708 0.129351 0.353773
Rc1 0.354508 -0.151605 -0.843066 -0.034748 0.259538 -0.564209 0.129468 0.217759 0.300234 -0.447710 -0.204772 -0.161380 0.033844 -0.784001 -0.076498 0.044669 -0.059460 0.033204 0.925875 0.112658 -0.219356 -0.091496 1.153314 0.145939 0.066374 0.287992 -0.006509 -0.351313 -0.395820 -0.025574 -0.081468 -0.183467 -0.068231 -0.038459 -0.325000 -0.044225 0.170951 -0.111679 -0.209621 -0.501449 -0.692001 0.173803 0.081618 0.053807 0.245849 0.115833 0.314565 0.122100 -0.093011 -0.298785 -0.553447 -0.369988 0.158253 -0.204444 -0.139538 0.105753 0.045274 -0.162517 -0.521062 0.257875 -0.350811 0.235632 0.031571 -0.003812
Nd4 -0.758485 -0.324388 0.263312 0.506257 0.387606 0.119893 -0.317942 0.155621 -0.172612 0.508208 0.166833 0.585576 0.275441 -0.172835 -0.016529 0.417766 0.566889 -0.385137 0.815396 0.211190 -0.905851 -0.044894 1.199473 0.220893 -0.091023 0.441488 -0.082108 -0.270321 -0.320364 0.128662 0.124761 -0.278488 -0.143757 -0.069668 -0.202186 0.081161 -0.265874 0.284447 0.292967 -0.020578 0.094948 0.153793 -0.171094 -0.387789 -0.283062 -0.091105 -0.308144 -0.326157 -0.406516 -0.002377 -0.382611 -0.373789 0.242108 -0.801575 -0.431225 -0.593802 -0.031118 -0.041173 -0.372320 -0.143936 0.206704 -0.024776 -0.348760 0.030383
Bf4 -0.385286 0.303762 -0.380923 -0.044333 -0.082747 0.036854 -1.153576 0.294381 -0.071662 0.072608 0.375821 0.023004 -0.498838 -0.013171 0.177005 -0.565799 -0.185074 -0.118917 0.390847 0.197528 0.314766 0.381003 1.138732 0.519531 -0.249840 0.235784 -0.296953 -0.065034 -0.593484 -0.038786 -0.160138 0.117522 0.060304 0.486833 0.138527 -0.172874 0.172445 0.420069 0.236227 -0.362102 -0.158818 0.173643 0.000603 -0.301354 0.105431 0.263023 -0.181799 -0.042194 -0.224987 0.278566 0.613107 0.250262 -0.074373 -1.255992 0.049154 0.459681 0.210272 0.156154 -0.014483 -0.140878 0.015757 0.162443 -0.298569 -0.568585
Nd2 0.438183 0.316170 -0.442777 -0.219404 0.134035 -0.128471 -0.145746 -0.387340 0.148841 -0.077460 0.153353 0.156053 -0.259480 0.281887 -0.167442 -0.248448 0.031381 -0.107906 0.363249 -0.081687 -0.002076 -0.243713 1.378400 0.512515 -0.368035 0.361316 0.209503 0.148312 -0.091405 -0.059066 -0.539451 -0.002680 0.078945 0.054887 0.148393 0.185227 0.635934 0.180069 0.199470 -0.109081 0.088906 0.022685 -0.709355 -0.031557 0.017300 -0.459303 0.304561 0.323142 -0.433099 -0.107841 0.471031 -0.163077 -0.303910 -1.172842 -0.164911 0.365204 -0.251509 0.200048 -0.583509 0.040102 -0.608075 0.357347 -0.617046 0.123787
Qe7 0.623744 0.306753 0.389851 0.069899 0.211290 -0.218136 -1.263621 0.072203 0.158498 -0.070801 0.143957 0.056725 0.171979 0.005559 0.044733 -0.140992 -0.088615 0.219380 0.017704 0.320086 0.654742 -1.294726 1.021654 0.991069 0.109499 -0.005950 -0.167174 0.007930 -0.057870 -0.184930 -0.168565 -0.138101 0.326923 0.033881 -0.125142 0.134701 0.471234 -0.074647 0.042449 0.312337 -0.488457 0.232224 -0.116923 0.156658 -0.094919 -0.088718 -0.218972 0.007918 -0.601354 -0.443916 -0.237590 -0.038946 0.281149 -0.830194 0.285956 0.005977 0.238302 -0.182667 -0.135007 0.101208 -0.116142 -0.159304 -0.096286 0.007417
dxe5 -0.059069 -0.174543 -0.001269 0.148747 0.453742 -0.019493 -1.932440 0.178714 0.029555 -0.356831 0.518770 -0.429009 -0.220121 0.442538 1.074665 -0.147837 -0.371163 -0.150483 0.210690 -0.622298 -0.327531 -0.609485 1.248934 0.530195 -0.650368 -0.130275 -0.157168 0.214347 0.014698 -0.187788 -0.547862 -0.248794 -0.663712 -0.110096 0.041135 0.058506 -0.045580 0.181648 0.143779 -0.072353 0.078070 -0.255091 0.039507 -0.569119 -0.116578 -0.576371 0.123073 0.581412 -0.238983 0.479739 0.074747 0.237340 0.244762 -1.454843 0.280399 0.235779 0.317655 0.165785 -0.061858 -0.295728 0.297130 -0.304745 0.077336 -0.156976
Rd1 0.148613 0.083596 -0.555085 -0.335491 -0.277998 -0.265346 -0.225859 0.103796 0.037356 0.055354 0.103575 0.135589 0.093935 -0.303107 0.074439 -0.166267 -0.102452 -0.277435 0.921693 -0.288307 0.040597 -0.067415 0.696027 0.050625 -0.156786 0.376872 -0.070527 0.032585 -0.163837 0.092189 0.042708 -0.237414 0.300651 -0.023659 -0.155319 -0.085218 0.151131 0.048737 -0.206331 0.263971 -0.273471 0.206344 0.560075 -0.168326 -0.588083 -0.116763 -0.121346 0.001030 -0.499251 -0.463167 -0.096271 0.136455 0.275407 -0.190406 0.143328 -0.047750 0.282648 0.153197 -0.248365 -0.219566 0.061296 -0.405606 0.630419 -0.111316
Bd2 0.355169 0.465119 -0.356056 -0.358791 0.049590 0.487405 -0.598744 0.263307 -0.050593 0.099711 -0.355406 -0.240233 -0.330351 -0.015816 -0.597096 0.167554 -0.055046 -0.141592 0.288181 0.331221 0.143583 -0.128699 1.582550 0.562714 -0.459925 0.128519 -0.228794 -0.046019 0.016474 -0.176544 -0.332540 0.014639 -0.010781 0.829273 0.143487 0.280991 0.356820 -0.104754 -0.244676 -0.947858 -0.163509 -0.179024 -0.374052 0.256904 0.252517 0.210521 -0.381342 -0.263914 0.269746 -0.084925 0.587850 0.030452 -0.405683 -1.201493 -0.520862 0.575831 -0.162408 -0.066071 -0.483012 -0.054723 0.005662 -0.487982 -0.770496 -0.117814
Bd6 -0.016869 0.056085 -0.843797 0.138002 -0.275750 0.056585 -1.071182 0.155649 -0.106178 -0.468099 0.333628 0.235151 -0.129483 0.129102 0.123755 -0.687440 -0.308035 0.039273 0.435056 0.368054 0.292124 0.559018 1.060605 0.460949 -0.243815 0.405598 -0.111334 -0.044815 -0.462116 -0.189141 -0.569886 0.156127 -0.351651 0.182362 0.163216 0.073622 0.209719 0.267008 0.080821 -0.839411 -0.224717 0.544598 0.163791 0.629046 0.116950 0.321678 0.066132 -0.166838 0.134792 0.074010 0.506367 0.120646 -0.205185 -1.216255 0.252670 0.537096 0.214069 -0.213329 -0.206652 0.195549 0.289044 0.037337 -0.328035 -0.440547
Rd8 0.313430 0.145499 -0.358070 -0.263156 -0.088523 -0.485447 -0.699007 0.291343 0.078477 0.039000 0.385940 0.388414 0.310138 -0.538738 -0.054540 -0.187441 -0.146484 -0.127997 0.819696 -0.623245 0.162091 -0.094867 0.275823 0.106117 0.235449 0.507663 0.130998 0.118319 -0.053570 -0.056088 0.194567 -0.106193 0.358287 -0.183848 0.087679 -0.220987 0.161828 0.004388 0.226885 0.096828 -0.043174 0.090914 0.352727 -0.197434 -0.505372 -0.180988 -0.070943 -0.007754 -0.159691 -0.329826 -0.166003 0.286168 0.056179 -0.244062 -0.119910 -0.193876 0.397532 0.168974 0.077444 -0.182002 -0.214931 -0.484414 0.503855 0.092474
Rb8 -0.161777 0.393992 -0.292470 -0.050368 0.275206 -0.591039 -0.346152 0.153510 0.415127 0.500875 -0.174465 -0.529395 0.162906 -0.163858 -0.082995 -0.282777 0.325161 0.601983 1.248090 -0.389897 0.260682 -0.306915 0.712324 0.121759 0.241904 0.553567 0.209757 -0.130225 -0.068784 0.499402 0.761674 -0.136530 0.109650 -0.027114 -0.134140 -0.146148 -0.284329 -0.054559 0.366030 0.014054 0.136891 -0.538585 -0.298510 -0.193131 0.322627 0.047367 -0.207673 -0.485977 0.339819 0.014134 -0.191225 -0.128103 -0.677049 -0.549764 0.323660 0.058402 -0.555333 -0.167405 -0.547847 -0.442366 -0.306984 0.012907 -0.197104 -0.163031
Kg2 -0.381201 1.242364 -0.156502 0.051817 -0.434172 0.134654 0.689956 0.080748 0.436536 -0.555849 0.399104 -0.250645 0.094673 0.612899 -0.378233 -0.554436 0.196552 -0.583102 0.459919 -0.339227 1.259661 -0.061379 0.652259 -1.105683 -0.158664 0.245714 -0.309907 -0.310819 -0.558486 0.739499 -0.794092 -0.547181 0.276272 -0.021816 -0.451682 0.467478 0.501296 -0.277790 0.055975 -0.251283 -0.098277 0.318618 -0.333382 0.386866 0.123257 0.128154 -0.207499 0.320535 -0.265519 -0.175099 -0.625292 -0.316972 0.612400 0.664469 0.628440 -0.477266 0.171401 0.422340 0.370587 -0.232011 -0.149847 -0.418352 0.364144 0.242900
Nbd7 0.831645 -0.080366 -0.556165 0.301470 0.836823 -0.140640 -1.590578 -0.515226 0.416238 0.201104 1.154172 0.049033 -1.141764 0.417854 -0.037149 -0.512752 -0.127675 0.623598 0.313526 0.349016 -0.665404 0.174265 2.499952 0.745000 0.154575 -0.250984 -0.429512 0.049409 0.374054 0.146115 -0.408259 0.041768 0.014414 0.464671 0.878995 0.306732 0.634529 0.612472 -0.024753 0.180756 -0.453679 -0.167164 -0.480138 0.272688 0.842122 -0.175224 0.834062 0.415293 -0.708817 0.022355 0.608910 0.636990 0.204894 -2.168304 0.394683 0.689306 -0.685635 -0.201947 0.029149 0.355388 -0.210235 -0.066663 -0.033462 -0.996936
Nxd5 0.211628 -0.293884 -0.518688 -1.312040 0.205280 -0.238566 -1.007297 -0.097048 0.296936 -0.118503 -0.128011 0.521401 0.599857 -0.124810 -0.425023 -0.214420 0.170238 -0.311108 0.461046 -0.401295 -0.842030 -0.176470 1.341193 0.709259 0.137903 -0.292850 0.201872 -0.507672 0.396056 0.445492 0.660502 -0.046818 -0.342738 0.826250 -0.515846 0.903365 -0.445085 -0.436770 -0.352023 -0.406530 -0.727106 -0.461231 0.115020 0.105279 0.459452 0.022728 -0.738179 -0.761503 -0.775948 0.986835 -0.072468 0.218958 0.311112 -1.170377 -0.201957 0.105147 -0.191492 0.393708 0.625859 0.832161 0.093470 0.158591 0.338428 -0.447210
Kf7 -0.431442 0.243813 -0.468137 -0.209297 -0.925635 -0.213084 -0.627466 0.333911 -0.253518 0.442844 -0.168597 0.677601 0.478919 -0.389099 -0.273335 0.533188 -0.031840 0.550668 0.348168 -0.690782 0.746445 0.398191 -0.240150 -1.047176 0.139299 -0.250652 -0.272877 -0.806499 -0.138692 0.164802 0.208287 -0.225122 0.311869 -1.228922 -0.302521 0.757658 0.311470 0.142892 -0.281175 -0.587785 0.495388 -0.185664 -0.020146 0.034747 0.066978 0.004972 0.014227 0.078232 -0.631340 -0.240848 -0.011199 -0.050147 -0.739891 0.295845 -0.731033 0.609351 0.003004 -0.332084 -0.276394 -0.063516 0.694044 -0.043874 0.169568 0.052084
Bg4 -0.049753 0.092248 0.197748 -0.134536 0.244756 0.241420 -0.892469 0.069473 -0.190251 0.275013 -0.116539 0.565719 -0.208016 0.076003 -0.152852 -0.225965 -0.013309 0.378762 0.013952 -0.122397 -0.235459 0.121830 1.623568 0.238358 -0.096577 0.219754 -0.694952 -0.048053 -0.239076 -0.510225 -0.098458 0.019802 -0.936372 -0.041702 0.267236 -0.256423 0.575632 0.376879 -0.057615 0.191251 -0.360772 -0.204389 -0.008041 -0.086085 0.086025 -0.159217 -0.131222 0.498478 -0.238774 0.126671 -0.223336 -0.213074 0.048933 -1.252750 0.490002 -0.357674 0.169067 0.386243 -0.234272 -0.087368 -0.189658 -0.365077 -0.452437 -0.383823
Nxe4 0.563946 0.390239 -0.664786 -0.171546 0.092318 0.119663 -0.704088 -0.228191 0.871820 0.055539 0.303262 0.632628 -0.121068 1.080963 0.018925 -1.498014 -0.253789 0.233904 -0.216378 0.762901 -0.804000 -0.741844 1.240968 0.175260 -0.506778 0.250859 0.874216 0.269389 0.342205 -0.359356 -0.684031 0.233015 0.310139 -0.321508 -0.361014 -0.076458 0.384447 0.788596 0.129375 0.394676 -0.103361 -0.611673 0.274304 0.052287 -0.220978 0.957128 0.551732 0.205978 -0.591916 -0.006357 0.508578 0.400339 0.303942 -1.426061 -0.843885 -0.162654 -0.309364 -0.320288 -0.062353 0.335035 -0.498904 -0.469333 -0.493840 0.403902
Kf2 -0.569155 -0.062357 -0.368055 0.091286 -0.335741 0.947379 0.632154 0.469895 -0.147937 -0.296523 0.330233 -0.082074 -0.001154 -0.092674 -0.633987 -0.350984 -0.391666 0.181856 0.965853 -1.018991 0.750295 0.542668 0.508028 -1.119237 0.423238 0.357620 -0.117729 0.234976 -0.341140 0.464172 -0.142338 0.072701 0.203741 -0.100845 0.270391 0.449145 0.534013 -0.506170 -0.271357 -0.141343 -0.270105 0.152527 -0.336237 0.013917 0.148372 -0.618269 0.161197 -0.314073 -0.736253 0.338338 -0.427635 -0.042253 0.249470 0.825412 -0.176900 -0.809269 0.292285 0.229918 -0.202111 0.083498 -0.072343 -0.389350 0.084043 0.745819
Nc5 0.264855 -0.014900 -0.191441 0.607219 -0.270877 -0.047892 -0.518835 0.301991 0.162441 0.277884 0.293324 0.353746 0.396865 0.006987 -0.009948 -0.299398 0.285575 -0.152684 0.839240 0.419215 -0.919063 -0.235205 0.912134 0.451302 0.116512 0.949361 0.176098 0.261104 0.988462 0.094924 -0.203864 -0.549195 0.394536 -0.660353 0.165814 0.174745 -0.262587 0.556956 0.027287 0.289061 0.218663 0.607310 -0.483003 0.239384 -0.206359 -0.228563 0.049009 0.027301 -0.607038 -0.334489 -0.205535 -0.125974 -0.245472 -0.498342 -0.090516 0.134454 -0.306915 -0.155993 -0.531192 -0.094941 -0.124963 -0.138201 -0.070929 0.736151
Nxe5 0.043777 0.180805 -0.346763 0.378253 0.807303 -0.335797 -1.452484 0.150597 -0.251257 -0.216590 1.273277 -0.652569 -0.254492 0.493246 1.390997 -0.232738 -0.361209 -0.566433 0.328478 -0.666426 -0.490601 -0.344178 0.899997 0.327358 -0.757300 -0.253120 -0.197786 0.589701 -0.193354 -0.323251 -0.457625 -0.080514 -0.475178 -0.122901 -0.203633 -0.304970 -0.396895 0.051652 0.042236 -0.354961 -0.028318 0.341516 -0.145264 -0.678299 -0.149506 -0.759623 0.069804 0.394308 -0.173444 0.507622 -0.009183 -0.448092 0.473242 -1.603298 0.319598 0.277966 0.526996 0.360564 0.016362 0.183520 0.858105 -0.217821 -0.269284 -0.125921
Qd7 -0.393248 0.039783 0.256648 -0.015752 -0.304023 -0.403246 -0.987342 0.100668 0.030875 -0.142826 -0.641765 0.252575 0.087915 -0.270264 0.106811 -0.038121 -0.155105 -0.022987 0.348697 0.361112 0.685523 -1.304990 1.094517 1.001088 0.132614 0.013389 -0.261856 -0.195608 0.109185 0.429191 0.038906 -0.208893 -0.205555 0.608364 -0.333452 -0.011235 0.359608 0.099152 -0.015407 -0.475757 -0.086333 0.192077 -0.573834 -0.195691 0.296985 0.358354 -0.321273 0.040153 -0.544333 -0.111080 -0.211841 -0.362913 0.321215 -0.868952 0.049541 -0.072153 0.420383 -0.378686 0.185709 -0.026941 0.182027 0.066886 -0.538112 -0.422395
Ke7 0.047845 -0.173560 -0.508770 0.016633 -0.081412 0.474084 -1.315194 0.419920 0.111739 -0.198551 0.641242 0.101156 0.603554 -0.243759 0.024252 0.524281 0.321207 1.378637 0.594534 -0.296297 0.140810 0.604340 -0.843355 -0.860579 -0.382496 -0.081917 -0.107562 -0.609717 -0.608796 -0.182762 -0.180910 0.083715 0.924588 -0.884558 -0.835316 0.718667 0.517627 0.034211 -0.352689 0.429064 -0.222059 0.164345 0.441982 -0.045450 -0.726086 -0.676080 -0.146717 0.292929 0.010139 -0.110560 0.151577 -0.621515 -1.291595 0.055104 -0.368887 0.164951 -0.394185 -0.147925 -0.769635 0.114758 0.068256 -0.108418 0.331043 0.607041
d3 0.354232 0.138391 -0.256343 -0.331809 0.326769 -0.132081 -0.177092 -0.147575 -0.183172 0.288769 0.047776 0.170018 -0.727326 -0.647668 -0.265355 -0.142857 0.295977 -0.144083 0.469211 0.467639 -0.332848 0.694808 1.176517 -0.637783 0.052831 -0.357850 -0.226358 0.519984 -0.040475 -0.172469 0.106626 -0.084533 0.129684 0.499635 -0.017384 -0.045448 0.817115 0.488643 0.203099 -0.287419 -0.216919 -0.084899 0.017548 -0.667298 0.090238 -0.117402 0.038502 0.432258 -0.146832 0.234718 0.064316 0.601325 0.584040 -1.303422 0.484924 0.532996 -0.244433 -0.374836 0.124580 -0.168537 0.167067 -0.940722 -0.741781 -0.591700
Qb6 0.046458 -0.101319 -0.022854 0.126276 0.109781 -0.427117 -0.819782 0.036294 -0.227585 0.208734 0.267327 0.026337 0.041014 -0.136789 0.186848 0.219728 0.293662 -0.053003 0.916561 0.816666 -0.360465 -1.173737 1.340787 1.029468 -0.013259 -0.021021 -0.044236 0.171541 -0.074117 0.549009 0.198274 0.135994 0.404606 0.186633 -0.141883 0.192710 0.315070 0.233311 0.300953 -0.148342 -0.608756 0.050785 -0.519192 0.386608 0.208221 -0.269175 0.078106 0.098273 -0.212132 -0.611118 -0.062656 0.108489 0.516796 -0.785018 0.159452 -0.094928 0.012069 -0.211327 0.088574 0.149064 0.095721 -0.351794 -0.103143 0.169245
Bf5 0.527188 0.033058 0.194506 0.040861 -0.266331 0.035917 -0.638421 0.400476 0.036862 -0.217969 0.122193 0.454320 -0.046540 0.052522 -0.356526 -0.679768 -0.491181 0.344584 0.144990 0.023269 -0.447471 -0.042145 1.195983 0.010903 -0.038154 0.270159 -0.322646 0.523083 -0.186611 -0.375806 0.359327 0.330978 -0.382723 -0.189297 -0.008849 0.069722 0.111704 0.234946 -0.111179 -0.058237 -0.359038 -0.195698 0.431411 -0.005678 0.253307 0.183254 0.198538 0.120687 -0.348511 0.246596 -0.165679 0.235628 0.151622 -1.073195 0.287290 0.513869 0.004952 0.206356 -0.338291 -0.036326 -0.347651 -0.416168 -0.711646 0.091576
Nc4 0.204781 0.205433 -0.303151 -0.263648 0.189911 -0.114661 -0.262631 -0.269755 -0.072157 0.191273 0.450379 -0.068116 -0.106940 -0.080473 0.508549 -0.322782 0.078640 -0.132400 0.765764 -0.434802 -0.233640 -0.094360 0.918504 0.503061 -0.205465 0.642333 0.110964 -0.141057 0.476212 -0.010979 0.012883 0.104912 0.343834 0.519456 0.142394 -0.255321 -0.249584 -0.240719 0.203433 -0.695397 0.475662 0.292317 -0.605904 -0.417062 -0.146953 -0.592996 -0.092687 0.050028 -0.654437 -0.373197 0.403353 -0.705674 -0.375765 -0.613725 -0.508207 0.395232 -0.039099 0.381727 -0.406073 0.398623 0.078218 0.827176 0.413343 0.104854
Kf8 -0.169851 -0.012705 -0.598860 -0.179904 0.071783 -0.406523 -0.966741 0.217817 -0.025641 0.407060 0.688237 -0.065435 0.510170 -0.947656 -0.350374 -0.045620 0.126575 0.405217 0.547657 -0.523627 0.359986 -0.328777 -0.537142 -0.460256 -0.267510 -0.755344 0.212709 0.031152 -0.368704 0.252607 0.737736 -0.055647 0.915201 -1.166810 0.464568 0.897193 0.621623 0.294081 -0.750414 -0.700553 0.276786 -0.589746 0.651257 0.582124 0.093721 0.208393 -0.422179 0.235542 -0.529943 -0.070965 -0.403674 -0.538803 -0.348130 -0.402454 -0.739643 -0.773560 0.044241 0.196343 0.005880 -0.349692 0.646931 0.362239 -0.013812 0.397796
Rb1 -0.133766 0.446723 -0.142126 -0.146135 -0.093694 0.013628 0.291437 -0.129903 0.649911 0.431128 -0.243429 -0.723118 0.071351 -0.250161 -0.234241 -0.195918 0.387176 0.133927 1.533965 0.022463 0.226261 -0.118177 0.884688 -0.119672 -0.174614 0.509626 -0.221773 0.426126 -0.343255 0.205397 0.082260 -0.302928 0.125538 0.216704 -0.278439 0.026830 -0.096983 -0.412866 -0.059662 -0.117677 0.068046 -0.286249 -0.144703 -0.182999 0.204944 0.007434 0.248749 -0.232323 0.196609 -0.333083 -0.354893 -0.147370 -0.141563 -0.534345 0.540727 0.341897 -0.722743 -0.205444 -0.826581 -0.451473 -0.017212 0.067919 -0.323431 -0.159708
Ne2 0.001176 -0.033392 0.290910 0.525512 -0.058016 0.427235 -0.640397 0.230630 -0.161103 0.121053 -0.076186 0.265216 -0.017434 -0.084067 -0.476985 0.742991 0.330070 0.217130 0.086962 0.356376 -0.127162 0.050711 1.677585 0.217544 -0.014655 1.020670 0.351565 0.072126 -0.352854 -0.000617 -0.213746 -0.241326 -0.420861 0.098268 0.400851 0.246663 0.377733 -0.284613 0.294330 0.205955 -0.478656 0.058887 -0.000566 0.363207 -0.145693 0.031371 -0.234565 -0.011326 -0.353046 0.140729 -0.160923 0.369831 0.098141 -0.682562 0.024958 -0.550892 -0.177537 -0.304351 -0.811984 0.404512 0.510004 -0.127116 -0.100044 -0.038921
Bb5 0.315648 0.154931 -0.669842 0.196730 0.255280 -0.031121 -0.502872 -0.045968 -0.090196 0.218365 -0.360427 -0.271682 -0.351841 -0.585787 0.095877 0.367300 -0.049201 0.112203 0.953187 0.201962 -0.263117 0.087279 1.059265 0.100934 0.068905 -0.137809 -0.099949 0.469007 -0.001312 0.159051 0.178686 0.293871 -0.445245 -0.202192 0.348973 -0.053854 0.370735 0.103493 0.074749 0.113445 -0.429086 0.489010 -0.302231 -0.029543 0.038617 -0.465476 0.093483 0.482427 -0.026691 0.305695 -0.013986 0.059352 -0.526973 -0.823667 0.353024 0.049626 0.235275 0.051140 0.231335 0.436165 -0.100925 -0.145896 -0.162522 0.087441
Kh1 -0.832415 -0.718159 0.646061 0.339491 -0.342467 0.012599 -0.509325 -0.322576 0.279041 0.220268 0.214286 -0.411089 -0.775084 1.081249 -0.093519 -0.133719 0.488600 -0.679786 0.410253 1.127039 0.683324 -0.271153 1.334282 -0.394693 0.104264 0.155879 -0.341598 -0.188462 -0.204909 -0.372648 -0.265061 0.219523 0.188134 0.120785 -0.282564 -0.459040 0.885993 -0.201332 -0.237976 0.598702 0.121052 0.250805 -0.131594 0.327804 -0.247678 0.179249 -0.750022 -0.483158 -0.257593 0.164469 -0.643905 -0.765912 1.965214 -1.018607 0.657755 0.525880 0.037380 -0.387138 0.646395 0.004457 -0.351325 0.640760 0.919386 -0.245635
Bxf6 -0.007174 -0.514119 -0.736291 -0.400798 0.196652 0.148577 -1.653510 0.434341 0.294120 0.421703 0.062165 0.080745 0.557751 -0.143727 0.050733 -0.757466 0.429073 -0.499225 -0.013917 0.389126 -0.074081 -0.741795 1.307109 0.405058 0.889264 -0.480396 0.214533 -0.051367 -0.243956 0.547138 -0.899743 1.131696 0.542843 -0.055288 0.021870 0.144785 -0.436936 0.440053 -0.485702 0.269289 0.124434 -0.720923 0.335705 -0.052607 0.381824 -0.104346 -0.381655 0.067484 -0.631368 0.360087 0.209256 0.483419 -0.053889 -0.987551 -0.476631 0.479180 0.108019 0.122094 0.277691 -0.228592 -0.218280 -0.268927 0.016522 -0.678123
Kh8 0.401836 -0.057235 0.775315 -0.091347 0.368095 -1.090637 -0.823678 0.167829 0.235066 -0.135516 -0.201744 0.170118 0.634092 0.183824 -0.187139 -0.251938 -0.014773 -0.268845 -0.693494 0.606842 0.456195 -1.599723 1.042984 -0.551688 0.954646 -1.078497 0.413043 -0.014747 0.632130 -0.963259 0.903263 -0.006759 0.071377 -0.521670 0.788936 -0.295362 0.275430 -0.041292 0.135101 -0.506914 0.952379 -0.396913 0.249514 -0.031060 0.255944 -0.034587 -0.521556 -0.662163 -0.506235 0.103737 -0.940768 0.281214 0.371735 -1.026752 0.235123 -0.057111 0.943297 0.323212 0.016113 -0.449651 -0.140870 0.350059 0.021697 -0.319196
Ne7 0.197979 -0.235944 0.211649 -0.287638 -0.094445 0.266548 -0.822596 -0.253590 -0.208883 -0.454152 -0.579014 0.426331 0.333789 -1.080152 -0.108898 0.489836 0.132514 -0.065231 0.052902 -0.022689 0.444476 0.260112 1.139025 0.542069 -0.027479 0.190880 0.553341 0.124085 -0.231109 0.259829 0.103219 -0.043175 -0.294502 0.437600 -0.604227 0.084132 0.149110 -0.520614 0.127252 -0.686001 0.055892 -0.419360 -0.178167 0.217532 -0.393163 -0.406124 -0.215848 -0.129710 -0.455039 0.134436 -0.014235 -0.374877 -0.490333 -1.328602 0.101492 -0.184542 0.152263 0.023655 0.188057 -0.043297 0.172570 -0.035869 -0.403277 -0.232004
Ke2 -0.192399 0.425152 -1.153574 -0.444460 -0.073938 1.037630 0.883751 0.516304 -0.211452 -1.017010 0.549443 -0.039797 -0.022076 0.143002 -0.089177 0.164994 -0.158049 0.155363 0.307597 -0.448855 0.621531 0.253870 0.030177 -1.240058 0.096443 0.280568 0.543206 0.442908 -0.370594 0.386650 -0.367793 -0.736326 0.826968 -0.078155 0.243553 0.454564 0.214583 -0.189648 -0.087174 -0.394570 -0.661945 -0.168437 -0.355428 -0.404142 -0.755701 -0.701358 -0.173901 -0.288418 0.059164 0.421385 0.523190 -0.056903 -0.664011 0.274376 0.001005 -0.035064 0.396788 0.798610 -1.014052 0.215701 -0.555015 -0.464793 0.153959 0.520343
O-O-O 0.659662 0.350647 0.016694 -0.036815 -1.215781 1.294936 -2.815528 -0.097475 -0.687455 0.049537 -0.130900 0.630059 -0.167067 -0.273228 0.854619 -0.273744 0.575868 -0.036617 -0.676645 0.195040 -0.068572 -0.414373 1.392851 1.818543 -0.018718 0.089808 -0.225907 0.408104 0.163788 0.403067 -0.010847 0.273698 -0.396116 0.876590 0.172441 -0.764467 -1.099399 0.274531 -0.046926 0.035533 -1.733739 -0.256469 -0.133889 -0.279946 -0.163250 -0.479241 0.385495 0.165921 -0.444374 -0.289786 0.902603 0.562781 0.452090 -1.706513 -0.348032 -1.005405 -0.516895 0.042631 -0.970307 0.334966 0.429710 -0.311799 -0.601994 -0.176266
Bc5 -0.370750 -0.017465 -0.654944 -0.021989 -0.331976 0.101203 -0.357746 -0.031296 -0.291497 0.182937 0.101751 0.410642 -0.046229 -0.174023 0.018125 -0.117852 0.592775 -0.219211 0.909531 0.636934 -0.109493 0.270456 1.008369 0.032729 -0.492411 -0.222416 -0.235966 -0.041918 0.114580 0.120618 0.141517 -0.137490 0.060098 0.011933 0.030796 -0.193103 0.361526 -0.002572 0.161154 -0.489076 -0.114199 0.239921 0.087796 0.159043 -0.665663 0.029086 -0.023695 -0.412154 0.288859 -0.189078 0.443775 0.123612 -0.112447 -1.202781 0.163305 -0.040969 0.069581 0.484902 0.144573 -0.021882 -0.170645 -0.364595 0.148060 -0.177159
Nb6 0.311424 -0.214153 -0.611379 -0.415659 0.169277 -0.440316 -1.058394 -0.106553 -0.065379 0.192999 0.373928 0.269514 -0.334512 -0.133848 0.056319 -0.186285 -0.094677 0.473422 0.775796 -0.106411 -0.345497 -0.198472 1.095849 0.804945 0.050842 0.683769 -0.053474 -0.274010 0.713013 0.049573 0.019953 0.122457 -0.016894 0.574233 0.190281 -0.131092 -0.109943 -0.237094 -0.012086 -0.581081 0.055578 -0.043271 -0.723198 0.380252 0.450736 -0.483590 0.310861 0.218923 -0.565262 -0.051722 0.336001 -0.365412 -0.671466 -0.705208 -0.009793 0.111074 -0.424613 0.215868 -0.255757 0.772486 -0.192367 0.229264 0.486966 0.220521
Qd3 -0.102055 0.150259 0.128661 -0.133797 -0.067034 -0.350713 -0.312468 0.222599 -0.070498 0.144225 -0.311059 0.150775 0.057199 0.080976 0.113782 -0.091940 -0.065117 0.071203 0.415055 0.405046 0.649172 -1.444916 1.120756 0.715590 -0.006647 0.168112 0.029949 -0.048078 -0.018644 0.307052 -0.171384 0.170854 -0.060493 0.505928 -0.308791 0.038002 0.282361 -0.044749 0.268352 -0.424494 -0.524629 0.173120 -0.249828 0.094979 0.211691 0.313425 -0.115987 -0.000138 -0.568726 -0.243647 0.138753 -0.144196 0.663391 -0.590959 -0.223696 0.278973 0.084876 -0.092788 -0.122897 0.281944 -0.040720 -0.011981 -0.360217 -0.039143
Bb4 0.319105 0.336828 -0.898235 -0.161617 0.219029 0.136884 -0.454148 0.196416 0.120136 0.161800 -0.223730 -0.007554 -0.327842 -0.352440 -0.767841 -0.163475 -0.044397 -0.133990 0.853510 0.454158 -0.118457 0.217482 1.106839 0.279718 -0.594293 -0.218846 -0.063699 -0.287500 0.247195 -0.218472 -0.383811 0.161634 -0.227945 0.178681 0.382632 0.318750 0.514867 -0.219340 0.093160 -0.508545 -0.403981 -0.054882 0.144702 0.169129 -0.391721 0.144624 0.415796 -0.299705 0.135550 -0.196053 0.615006 0.328358 -0.330082 -1.041950 -0.215648 0.368263 -0.031020 -0.059941 -0.050395 0.273628 -0.238088 -0.351639 -0.211564 0.043074
Kf6 -0.260771 0.717771 -0.049614 0.039497 -0.302459 -0.287377 -0.304708 0.104928 -0.234049 0.214977 0.397169 0.268713 -0.014766 -0.135351 -0.367184 0.369148 -0.411680 0.108600 0.853231 -0.691084 0.257725 1.363708 -0.291961 -1.842070 -0.701880 -0.088612 -0.342773 -0.270378 -0.116275 -0.154249 1.367141 0.076349 -0.124566 -1.101983 -0.465791 0.288683 0.482917 0.222295 0.022066 -0.394003 0.423856 0.048937 0.028779 0.242752 -0.046660 -0.446296 0.324518 0.073169 -0.299103 0.188277 -0.394363 -0.241837 -0.769840 0.888619 -0.408425 -0.083042 -0.163394 0.008449 -0.484560 0.174087 0.439527 -0.152923 -0.096088 0.689817
Kf1 -0.467542 -0.016680 -0.838415 -0.283148 -0.525837 0.577479 0.802519 0.208113 0.051998 0.403002 0.433228 0.005970 -0.809768 -0.116349 0.228844 -0.160662 -0.322717 -0.161125 0.700193 -0.815350 0.719175 0.225891 0.454051 -0.743221 0.244302 0.594569 -0.603092 0.143794 -0.586217 0.107271 -0.137041 -0.179880 0.838083 -0.509098 0.140241 0.292456 0.969181 -0.172283 -0.495991 0.011935 -0.613025 -0.262779 -0.412772 0.276062 -0.469250 0.473793 -0.774809 -1.086987 0.081942 0.588730 -0.202657 -0.254654 1.169989 0.061999 -0.197292 0.254873 0.559387 0.054009 -0.224428 0.643540 0.326295 -0.567526 0.145238 0.506403
Ke3 0.194913 -0.087716 -0.306528 0.399062 0.501785 0.787054 0.554738 -0.069092 0.015595 -0.457954 0.227256 0.211081 0.092339 -0.121614 -0.071157 0.451356 0.092677 0.139260 0.728434 -0.377848 0.379564 1.299034 -0.004538 -1.908854 0.047223 0.719964 0.412134 0.659700 -0.652884 -0.213219 -0.273193 -0.428112 0.242021 -0.487101 0.328601 0.328950 -0.165060 0.135399 0.378979 0.219398 -0.362714 -0.154850 0.178649 0.059415 -0.244928 -0.183051 0.047620 -0.125931 -0.259588 0.734520 -0.287065 -0.123905 -1.298995 0.710469 0.143559 -0.028256 0.108865 0.165139 -0.810907 0.441593 -0.583579 -0.979790 0.434809 0.773198
Nf5 -0.323528 -0.297844 0.477668 0.495815 -0.296302 0.246280 -0.381145 0.127570 0.226003 -0.295060 -0.197256 0.929737 0.232836 -0.219835 0.029825 0.086133 -0.052130 -0.304797 -0.312876 0.131303 0.100432 -0.056247 1.072145 0.157017 0.148916 0.536209 0.134373 0.218793 0.063098 0.448194 0.279073 -0.230113 0.618033 0.105246 -0.170235 -0.210744 0.036032 -0.355394 0.466153 -0.444200 0.509953 -0.250046 0.138538 0.233122 -0.611112 0.309207 0.365641 -0.347347 -0.606921 -0.290461 0.056812 -0.566811 0.020989 -1.024018 -0.651426 -0.653078 0.144776 0.199663 0.133384 -0.291495 0.304642 0.106092 -0.837137 -0.153046
Bb2 -0.245891 0.172201 -0.306888 -0.170066 0.432822 -0.133315 -0.513297 -0.152099 0.167561 0.209703 0.528823 -0.128972 -0.117223 -0.322857 -0.394796 -0.050240 -0.315966 -0.269679 0.605292 0.463739 -0.649577 0.041213 1.627528 0.186260 -0.501978 0.060943 -0.327608 -0.315281 -0.323753 -0.297964 -0.395059 -0.026887 -0.049894 0.400299 0.034564 0.342052 0.332293 0.139081 0.043925 -0.464108 0.373902 0.014449 -0.096773 -0.097864 -0.141632 0.214039 0.168413 -0.285799 -0.350695 -0.327742 0.062114 0.494792 -0.149835 -1.049761 0.277745 0.652649 0.474431 0.235005 -0.439228 0.079776 -0.401651 -0.042053 -0.199892 -0.622439
Rd2 0.259038 0.029378 -0.332845 -0.156153 -0.182205 -0.198769 0.098338 -0.042247 0.048852 0.248525 0.036011 0.270152 0.110901 -0.198731 0.181337 0.077415 0.034681 -0.299718 1.062754 -0.434591 0.040729 -0.044311 0.555969 -0.132543 -0.064141 0.658052 -0.082914 0.104692 -0.034739 -0.116277 -0.142484 0.089853 -0.148401 -0.170560 -0.205932 -0.250326 0.004834 -0.029937 0.000328 0.119551 -0.361522 -0.264028 1.266744 0.093043 -0.420995 -0.016556 -0.396464 -0.012933 -0.416096 -0.345809 -0.554329 -0.196540 0.213112 0.470475 -0.061404 0.075026 0.125114 -0.141136 -0.171246 -0.119520 0.060009 -0.254042 0.795307 0.177732
Kh2 -0.560789 0.208203 0.742082 0.539428 -0.478042 -0.430284 0.211954 -0.162410 0.732561 -0.810265 0.146735 -0.371256 -0.404674 0.650886 -0.946211 -0.272156 -0.496821 -0.427834 0.789922 0.706537 1.402448 -0.140974 0.903876 -1.011268 0.231047 -0.011871 0.419592 0.311122 -0.196301 0.079723 -0.223886 0.038723 -0.204946 0.321668 -0.275668 0.350551 0.725006 -0.576268 -0.231644 0.486945 0.131932 0.148260 -0.072293 0.338488 -0.009739 -0.265461 -0.273781 0.180649 -0.478992 -0.300168 -0.687512 -0.506667 1.376095 0.126811 0.615531 -0.304217 0.327076 -0.267323 0.639955 -0.467537 0.090263 0.138556 0.936026 0.382853
exd4 -0.112249 -0.168257 -0.535614 -0.471676 0.420583 -0.043161 -0.672299 -0.481381 -0.161190 0.919676 -0.030615 0.630662 0.513532 -0.009287 -0.322608 0.381369 0.580288 -0.119218 0.291489 0.700162 -0.351595 -0.055691 1.521675 0.404095 0.109499 0.093570 -0.268118 0.479487 -0.876532 -0.320106 -0.022902 -0.213865 -0.049666 0.004587 0.246828 0.357791 0.301002 0.282940 0.385282 -0.045292 -0.276567 0.331032 -0.107830 -0.252782 0.211482 -0.063672 0.669358 -0.479028 0.051693 0.086872 -0.035177 0.438982 0.456176 -1.271677 -0.203999 -0.480808 -0.214016 0.289683 0.004741 0.379148 -0.028610 -0.574872 -0.652886 -0.144323
Kf3 -0.458917 0.211221 -0.515002 0.143038 -0.154689 0.987690 0.722446 0.178793 0.390100 0.049656 0.191689 0.044934 -0.041461 -0.299102 0.027857 -0.272392 -0.245014 0.136670 0.971031 -0.271374 1.003620 1.168390 0.349197 -1.987146 -0.106519 0.166597 0.077884 0.393221 0.171110 0.241989 -0.305448 -0.127710 0.546359 0.152977 -0.090715 0.134325 0.069732 0.135084 -0.086257 -0.702255 0.194833 -0.164582 0.216232 0.527417 0.261467 0.365099 0.246998 -0.780532 -0.639476 0.511109 -0.098028 0.092122 -0.721020 1.157303 -0.430365 0.032337 0.232213 0.289529 0.102102 0.232455 -0.043312 -0.554912 0.547362 0.589690
Nf4 0.416517 -0.178659 0.487316 0.326138 -0.061767 0.247072 -0.783284 -0.276828 0.203898 -0.228592 0.296860 0.537573 -0.311534 0.025515 -0.104873 0.311432 -0.313936 0.125915 -0.209762 -0.490567 -0.201147 0.113675 0.885545 0.022447 0.369617 1.066005 0.315514 0.224668 0.003771 -0.192835 0.200589 -0.391815 -0.452964 0.417780 -0.196687 0.067970 -0.268660 -0.109536 -0.236327 -0.170460 -0.076367 0.467638 -0.026365 0.379875 0.015738 -0.297576 -0.810114 -0.221152 -0.910146 0.135670 -0.604614 0.035844 0.381720 -0.410573 -0.108779 0.086475 -0.150594 -0.250455 -0.266927 0.090429 1.152755 0.404249 -0.030794 -0.108103
Qb3 0.087944 0.143264 -0.199428 -0.728932 0.331340 -0.565615 -0.552829 -0.344898 0.080134 0.004198 0.154157 0.150717 -0.136828 -0.166885 0.036795 -0.135012 -0.539455 0.373756 0.824438 0.301753 -0.024694 -1.210945 1.060529 1.163059 0.016090 0.085024 -0.176722 -0.149329 0.112031 -0.091047 -0.036539 -0.250884 -0.125329 0.642051 -0.337185 0.224783 0.425200 -0.185244 0.098992 -0.506742 -0.520271 -0.053160 -0.567536 0.370138 0.146667 0.005721 0.022719 -0.229632 -0.453489 -0.477510 0.054374 -0.012180 0.561273 -0.883026 0.329294 0.319801 0.149053 -0.153899 -0.148699 0.500012 -0.193445 -0.303492 -0.126120 0.099227
Qf3 -0.191675 -0.237148 0.068755 -0.114280 -0.108225 -0.021302 -0.974403 -0.095773 -0.242329 0.348349 0.157961 0.301462 -0.178697 0.049858 -0.118276 -0.109628 -0.231190 -0.008373 -0.053560 0.192482 1.031771 -1.338452 0.761798 0.454280 0.049680 0.277896 0.172515 0.167391 0.117235 0.379073 0.009937 0.054483 0.245347 0.389996 -0.371063 0.201371 0.234517 0.518129 -0.196949 -0.235096 -0.393177 -0.049640 0.321406 0.365993 -0.370923 0.075314 0.076548 -0.198444 -0.641239 -0.070623 0.212058 -0.242308 0.908719 -0.445462 -0.151464 -0.179199 0.056323 -0.088612 0.371834 0.046005 0.153351 0.147481 0.023378 -0.370115
Qa5 0.340779 0.617878 -0.329875 0.027713 0.131585 -0.411260 -0.936194 0.089335 0.310252 0.641985 -0.050738 -0.276464 -0.134267 -0.249362 -0.392280 0.041314 0.504359 0.210470 0.804691 0.429737 -0.243019 -1.307428 1.150806 1.153153 -0.216753 0.017822 -0.121356 0.110897 0.216519 0.533557 -0.063101 0.192097 -0.317915 0.362509 0.186024 0.239869 -0.179006 -0.131703 0.143218 0.093418 -1.063396 -0.543103 -0.296104 -0.117844 0.228948 -0.147659 0.113427 -0.088333 -0.522941 -0.469081 0.144933 0.103756 0.425752 -0.720047 -0.067660 -0.095565 -0.266431 -0.468380 -0.301040 0.047428 0.317142 -0.179924 -0.160017 0.116052
Bf6 -0.558513 0.070820 -0.243977 0.118969 -0.174912 -0.168838 -1.171581 0.301909 -0.080827 0.302409 -0.055820 -0.142084 -0.087736 -0.179295 -0.183990 -0.252843 -0.070499 -0.630607 0.028713 -0.031748 0.372345 -0.434150 0.756161 0.074276 -0.160555 0.438800 0.041117 -0.194459 -0.269576 -0.087028 -0.412783 0.086953 0.116902 -0.015180 0.172061 0.078915 -0.295642 0.158834 -0.202149 -0.513537 0.372398 -0.073706 0.148791 0.224384 -0.169061 0.243000 -0.285606 -0.291799 -0.093432 -0.012553 0.035451 0.560657 -0.404965 -0.455700 0.027796 0.402558 0.311501 0.288740 -0.530018 -0.139008 -0.047593 0.021216 0.053632 -0.204116
Rd7 -0.378761 0.518282 -0.390476 -0.288107 -0.038133 -0.746665 -0.514668 0.259726 0.118220 -0.174928 0.069999 0.493402 0.264038 -0.399608 -0.065608 -0.232537 -0.187621 -0.790430 0.908896 -0.300118 0.320746 0.013653 -0.089053 0.139913 0.229016 0.505820 0.341580 0.077947 0.037525 0.194386 0.272109 -0.059515 0.180387 -0.221603 -0.016387 -0.577579 0.351030 -0.289760 0.446448 -0.265360 0.276673 -0.049946 0.642036 -0.022080 -0.518908 0.017566 -0.421980 -0.180562 0.011961 -0.166210 -0.456289 0.381387 -0.239145 0.383420 -0.113883 -0.446532 0.308667 0.142965 0.129520 -0.175538 -0.044095 -0.332097 0.174125 0.086402
Kh7 0.165448 0.458605 0.501279 0.055386 0.034217 -1.349079 -0.096117 0.322087 0.244974 -0.033493 -0.535078 0.566650 0.229313 0.277710 -0.051741 0.545266 -0.646233 0.430425 -0.124535 0.560800 1.580025 -0.922238 0.608883 -1.129814 0.860547 -0.885601 0.088247 -0.552626 0.224645 -0.902602 0.590384 0.186250 0.061236 -0.458029 -0.344697 -0.069194 0.394052 -0.373763 0.501565 -0.236674 0.771606 -0.136860 0.095542 0.083915 -0.183562 -0.133159 -0.116560 -0.267312 -0.460349 -0.397838 -0.331121 -0.018642 -0.063684 -0.214776 0.091214 0.346714 0.823776 -0.455811 0.117003 -0.324415 0.907005 -0.213856 0.595270 -0.431751
Kg8 0.329478 0.745772 0.294049 -0.117318 0.829680 -0.738674 -0.921828 0.629770 0.311245 0.152336 0.422578 0.129157 0.646562 -0.061073 0.024981 -0.302183 -0.007860 0.138296 -0.320078 -0.125801 0.784117 -1.183724 -0.466768 -1.086290 -0.026280 -0.895148 -0.103075 -0.529857 0.001893 0.123842 0.537567 -0.483556 0.131011 -0.966583 0.700070 0.487723 0.661813 -0.382740 0.121204 -0.953896 0.807803 0.373232 0.706193 0.526735 0.003533 0.686139 -0.779346 0.120499 -0.411082 -0.277780 -0.680113 0.361513 0.003611 -0.047382 -0.298179 -0.167341 0.204078 0.128557 0.349648 0.008992 0.489811 -0.186429 -0.626052 0.053794
Rc7 0.155767 0.284886 -0.644082 0.171569 0.378842 -1.018228 -0.328612 0.175695 0.239117 -0.356651 0.119771 -0.224988 0.130642 -0.580640 -0.072681 0.081541 -0.118855 -0.394347 1.028416 -0.098444 0.298801 -0.252177 0.183869 -0.001887 0.413175 0.433591 0.475310 -0.024699 -0.163112 0.120042 0.320201 -0.054481 0.213087 -0.638870 0.007742 -0.375324 0.374571 -0.149476 0.301742 -0.508299 0.092080 0.181696 0.307471 0.359026 0.084793 -0.112696 0.024319 0.010516 0.512203 0.040746 -0.775568 -0.217001 -0.406459 0.444683 -0.131134 -0.333549 0.031117 -0.019161 -0.220976 0.284237 -0.273298 0.149679 -0.032602 0.411223
Bb3 0.112415 -0.257519 -0.214063 -0.300711 0.199887 -0.480176 -0.619052 -0.439458 -0.289307 -0.023352 0.216880 0.515113 -0.711863 -0.388945 -0.423709 -0.379139 0.234655 0.392106 0.518844 0.069350 -0.663597 0.063581 1.387862 0.211784 0.006824 0.002625 -0.333008 0.221894 -0.236495 -0.070995 0.489363 0.456418 -0.648435 -0.058391 -0.186144 -0.140466 -0.070556 0.353650 0.335382 -0.284848 -0.177645 0.216651 0.380041 0.754904 -0.163260 -0.521313 -0.307968 0.359266 -0.201053 0.118772 -0.018026 -0.267901 -0.486335 -0.901915 0.049345 -0.287965 0.067282 0.553572 -0.227489 -0.097246 -0.075085 -0.470045 0.481596 0.387916
Ng5 0.186523 0.392275 0.137470 0.260507 0.490055 0.131120 -1.065701 -0.321415 0.601520 -0.157231 0.187742 0.390838 -0.637881 0.348112 -0.009462 -0.574069 0.255547 -0.001901 -0.727331 -0.312210 -0.255008 -0.645306 0.929156 0.119407 0.079190 0.173241 0.037751 -0.194849 -0.240614 -0.310848 -0.346053 -0.726714 0.412177 0.088239 -0.374890 -0.210200 -0.095008 0.344444 -0.266561 0.165604 0.353812 0.339587 0.128876 0.511343 -0.220762 -0.035572 -0.520299 -0.356403 -0.500214 0.121480 -0.336570 -0.185993 -0.024580 -1.006777 0.112486 -0.223145 0.067542 -0.309060 -0.123593 0.130104 -0.139482 -0.316731 -0.934914 0.755203
Ke6 -0.102346 0.189691 -0.483674 -0.361762 -0.125123 -0.051695 -0.521122 0.083466 -0.042145 -0.595005 0.203540 0.143763 0.638961 -0.124580 -0.132449 0.467703 -0.059483 -0.163288 0.621556 -0.308408 0.124523 1.697768 -0.627930 -1.823297 -1.099401 0.230959 0.412976 -0.318551 0.016014 0.025048 0.295822 0.175813 0.473272 -0.217731 -0.829249 0.543653 0.936636 -0.313845 -0.107797 -0.598134 0.518534 -0.197910 0.403207 -0.121868 -0.797069 -0.282881 0.166927 0.120725 0.011850 0.594988 0.244745 -0.105277 -1.400601 0.409474 -0.381769 0.306434 -0.446687 0.219767 -0.646909 0.220807 -0.263582 -0.046870 0.271599 -0.095500
Ng4 -0.010369 0.280163 0.116293 0.194007 0.116680 0.421929 -0.610591 0.191832 0.180081 0.056845 0.841177 0.181230 -0.214593 0.541397 0.701908 0.253417 0.337735 -0.089363 -0.333661 -0.239649 -0.363666 -0.914375 1.550163 -0.238325 -0.306941 0.169863 -0.152861 -0.008182 -0.163799 0.649754 -0.399645 -0.045821 0.294256 0.046280 -0.382821 -0.785220 0.086232 0.317743 -0.415722 -0.165016 0.432803 -0.371215 0.005667 -0.067953 -0.236341 -0.276486 -0.161802 0.126568 -0.236981 -0.061652 -0.215737 -0.655329 0.088842 -0.942654 -0.075166 0.009082 0.372591 0.523995 0.223995 -0.137720 0.347619 0.408748 -0.247263 -0.875851
dxe4 0.279038 -0.124888 -0.474517 -0.138073 0.192599 0.271064 -0.674065 -0.477441 0.333228 -0.121070 0.116545 0.703110 -0.242185 0.504573 -0.049574 -0.966686 -0.072726 0.250712 -0.303484 0.604149 -0.264141 -0.620181 1.414427 0.163585 -0.297113 0.005245 0.727575 0.578829 -0.062311 -0.354111 -0.732239 0.338697 -0.283047 -0.356832 -0.456592 -0.301770 0.646518 0.887151 0.365441 0.010140 0.113289 -0.252826 0.098651 -0.045010 -0.314028 0.184766 0.721570 0.380111 -0.223099 -0.124173 0.237218 0.608423 0.518181 -1.363734 -0.419785 -0.013159 -0.121039 -0.206473 -0.267507 -0.064490 -0.342479 -0.594499 -0.688384 0.003126
Rad1 -0.203108 -0.136665 -0.148348 -0.044820 -0.123545 -0.069613 -2.014715 -0.159410 -0.217896 0.253090 0.134948 0.580801 0.506603 0.283556 0.120761 -0.340354 0.134362 -0.533043 0.319375 -0.302515 -0.353573 -0.428857 1.295231 1.769808 0.029963 0.714821 -0.071985 -0.182279 -0.067824 0.129818 0.210983 0.134784 0.223957 -0.307238 -0.343668 -0.384759 0.362671 0.148824 0.038797 0.297150 0.321298 0.254417 0.196797 -0.050496 -0.875362 -0.388956 -0.289313 -0.561178 -1.097757 -0.198069 0.027432 0.148678 0.639427 -1.118538 -0.166060 0.095919 0.328025 0.241505 0.257710 -0.173085 0.115881 -0.622216 0.881534 -0.221085
Bc6 0.053073 -0.106274 -0.161500 0.198494 -0.111961 0.051584 -0.685198 -0.288911 -0.243118 0.362920 0.038143 -0.253420 0.047806 -0.221218 -0.277348 -0.378719 -0.052220 -0.062748 0.956201 -0.233659 -0.050094 -0.249516 0.709284 0.160440 0.177331 0.476807 0.196663 0.477664 -0.051022 0.051007 0.331989 0.492930 -0.273279 -0.331273 -0.286132 -0.190345 -0.358620 0.414374 -0.063843 0.226176 -0.242488 0.368972 0.020136 0.602857 -0.283169 -0.259946 -0.104502 0.015396 -0.232361 0.122945 -0.150022 -0.149191 -0.586573 -0.440363 0.111374 -0.380725 0.250623 -0.054799 0.152647 0.013814 -0.687538 0.011442 0.327696 0.299213
Ne3 0.092537 -0.350235 0.205618 -0.575831 0.166932 0.362817 -0.055319 -0.040140 0.005815 -0.221485 0.125811 0.551361 0.112177 -0.007141 -0.029223 0.649811 0.035238 -0.002981 0.208550 -0.323196 -0.138618 -0.307971 1.036184 -0.283575 0.014170 0.730149 0.208260 0.176030 0.306087 0.643496 0.723699 0.344819 0.273217 0.819497 -0.562479 -0.544251 0.069985 -0.317530 0.039314 -0.301520 0.629339 0.152715 -0.046612 0.104362 -0.573449 -0.668763 -0.382788 -0.163150 -0.704197 -0.243682 -0.234450 -0.731281 -0.118487 -0.331523 -0.394625 -0.036935 0.085643 0.604235 -0.189420 -0.199184 -0.217912 0.591367 0.138876 -0.644532
Nb3 0.206395 -0.318107 -0.398478 0.203220 -0.188530 0.033143 -0.234478 -0.238040 -0.095410 0.273722 0.007550 0.180925 0.118483 -0.515554 -0.052814 0.183654 0.425649 -0.437078 1.056285 0.566944 -0.611956 -0.155372 1.411988 0.737369 -0.127689 0.543850 -0.153389 0.001825 0.259827 0.039547 -0.590340 -0.088700 0.097038 -0.208311 0.116380 0.283636 0.162457 0.609803 0.371678 -0.034233 -0.025865 0.767091 -0.951819 0.481851 -0.140607 -0.563569 0.248595 0.093267 -0.192537 -0.256376 0.148581 0.052425 -0.195835 -0.568403 -0.232364 -0.022264 -0.247501 0.303459 -1.042098 -0.163015 -0.112552 0.018151 -0.246568 0.324884
bxc3 -0.726542 0.047180 -0.266718 -0.532440 0.228384 -0.189006 -0.672975 0.327759 -0.068675 0.586154 -0.401881 -0.816103 -0.589769 -0.120990 -0.651007 0.068675 -0.228481 0.057739 0.217895 -0.369932 -0.420956 -0.870679 1.571569 0.177024 0.294566 -0.274072 0.606189 0.044787 -0.083271 0.667525 0.118670 0.284668 -0.550839 0.087340 -0.078723 -0.049290 -0.265773 -0.742427 0.032210 0.395493 -0.289599 -0.379999 0.902593 0.318250 -0.414991 -0.366852 0.422618 0.517245 -0.252956 0.259667 1.077034 0.875108 0.183400 -1.067793 -0.477237 0.208617 -0.455930 -0.550841 -0.455417 0.669491 -0.028478 -0.105374 -0.956136 0.001047
Qe3 0.375024 -0.056242 0.315389 0.131204 -0.250531 -0.407825 -0.702693 -0.110374 -0.216144 0.002743 0.219953 0.184328 -0.016212 0.196659 -0.066338 0.277024 0.137400 0.024386 0.179496 0.329275 0.669244 -1.498574 0.737569 0.397204 0.146343 0.405026 -0.108551 0.050561 0.018488 0.002516 -0.004026 -0.011603 0.050675 0.064386 -0.274720 0.014482 0.143449 0.327561 0.331939 0.372014 -0.650761 0.188965 -0.029401 0.138828 -0.259637 -0.269509 -0.247100 0.196260 -0.597788 -0.323700 -0.254256 -0.249188 0.918030 0.007845 0.117071 -0.160834 0.216849 -0.306437 -0.347718 0.073698 -0.077950 -0.156548 0.192712 0.171587
Bxf3 -0.506016 0.303544 -0.945905 -0.436565 0.188006 -0.249204 -0.781663 -0.332678 -0.749365 0.467839 0.601799 0.068363 -0.188674 0.653124 -0.427872 -0.391431 0.096942 -0.749639 -0.033914 -0.677910 -0.011220 -0.134101 1.213932 0.563877 0.378771 0.221842 -0.990189 -0.575244 -0.740963 -0.861598 -0.378687 -0.296035 -0.709031 -0.448885 -0.054766 0.143628 0.058658 0.238398 -0.055488 0.057543 -0.572873 -0.425685 -0.356750 -0.516938 -0.288835 -0.798808 -0.074290 0.350139 -0.351284 0.427124 0.074887 -0.469977 0.856976 -1.268441 0.459065 -0.658621 0.027677 -0.245996 -0.242190 -0.197134 -0.715670 -0.131425 -0.672830 -0.365041
Nd3 0.756871 0.239417 -0.291050 0.463985 -0.455260 -0.016525 -0.055333 0.210517 0.007040 -0.274260 0.663568 -0.514055 -0.023095 0.011821 -0.150983 0.271265 -0.341855 -0.137073 0.547055 0.153543 -0.690345 -0.154937 0.721410 -0.303628 -0.385145 1.252952 0.425308 0.109971 0.575002 -0.183435 -0.233032 -0.576246 0.046163 -0.055312 -0.238192 -0.188234 -0.070269 0.283333 -0.426747 -0.574342 0.415122 0.428805 -0.549050 0.110805 -0.020608 0.136627 -0.515508 0.113786 -0.447312 0.241673 -0.460635 -0.471417 -0.019547 -0.082809 0.192062 0.876011 0.165565 -0.306685 -0.793104 0.235122 0.834974 0.130998 0.022315 -0.151277
Bf3 -0.158881 0.012735 0.074898 0.088104 -0.004382 0.249527 -0.436177 0.109563 -0.254712 0.485742 0.361093 0.218231 -0.075215 -0.054525 -0.466493 -0.330934 -0.185089 0.114628 0.609574 -0.390404 0.111159 -0.346249 0.946090 0.034724 0.022360 0.783284 -0.172585 0.163523 -0.322311 -0.308009 0.113393 0.434489 -0.549015 -0.342189 -0.444489 -0.265337 -0.105720 0.460026 -0.429661 0.182784 -0.462397 -0.123373 0.103292 0.414855 -0.320125 -0.107220 -0.078667 0.148089 -0.340840 0.333816 -0.327535 -0.328639 -0.204057 -0.394379 0.039143 -0.528659 0.060705 0.173624 -0.154153 -0.045817 -0.886645 0.254906 0.235672 -0.125001
Bd4 -0.579722 0.235907 -0.201796 0.159917 -0.538769 -0.367640 -0.493727 0.300192 -0.137650 0.479268 0.659880 -0.146701 0.173803 0.408076 -0.028865 -0.079213 0.371977 -0.317935 0.686107 0.559215 -0.149163 -0.316384 0.718225 -0.467527 -0.316864 0.319940 -0.081619 -0.131422 -0.016692 -0.102234 -0.427908 0.068439 -0.040930 -0.027332 -0.049009 -0.331438 -0.035438 -0.131218 -0.230609 -0.671504 0.007241 0.056601 0.194602 0.063696 -0.117623 0.445554 -0.287047 -0.494458 0.200958 0.065653 -0.022024 0.274246 -0.154290 -0.400923 -0.327743 0.209459 -0.057457 0.633104 -0.499585 0.007176 -0.188224 0.210272 0.611813 -0.343011
Bxd5 0.223710 -0.548702 -0.147253 -0.910682 -0.009975 -0.367946 -1.075744 -0.322014 0.050697 -0.183101 -0.282387 0.105630 0.549325 0.020223 -0.474879 -0.449533 0.257401 -0.619586 0.658811 -0.616267 -0.543672 -0.616333 0.787767 0.604933 0.311581 -0.113776 0.140235 -0.405084 -0.109769 0.274792 0.675505 0.330532 -0.183142 0.342175 -0.743922 0.623369 -0.644532 -0.185362 -0.294746 -0.301454 -0.809837 -0.116016 0.449186 0.424601 0.195574 -0.316285 -0.524041 -0.776261 -0.395602 0.956139 -0.350125 0.166507 0.185435 -0.522230 -0.149969 -0.049139 -0.233867 0.624434 0.397736 0.466433 -0.200818 0.193879 0.708814 -0.041697
Nbd2 0.724816 -0.231702 -0.582638 -0.451700 0.406335 -0.280369 -0.839717 -0.850298 0.119717 -0.180079 -0.022061 0.350943 -0.757016 -0.387349 0.466622 -0.426112 -0.411755 -0.278665 0.138893 0.128566 -0.327450 0.393206 2.207827 0.770913 0.172766 -0.603342 -0.500936 0.404313 -0.070235 -0.148479 -0.228530 0.119485 0.222182 0.175506 0.400953 0.235251 0.966371 0.814094 0.184586 -0.130200 0.379268 0.363503 -1.208746 0.403582 0.126604 -0.942995 0.666862 0.443530 -0.167904 -0.287919 0.822380 0.147365 0.315181 -2.540864 0.493612 0.917916 0.278069 0.186418 0.013953 -0.276721 -0.173443 -0.428199 -1.299656 -0.394016
axb5 -0.403275 -0.012935 0.079149 0.277938 0.469711 0.182264 -0.559236 -0.543258 -0.184086 0.201862 -0.353453 -0.630530 -0.419299 0.024385 -0.203232 0.373547 -0.454065 -0.511468 1.258944 -0.242932 -0.068801 -0.490499 0.804818 0.492519 0.311594 0.402464 0.382392 -0.100437 -0.287390 0.394566 0.114930 -0.044815 0.922183 0.513498 -0.664986 0.208492 -0.151713 0.044852 0.063255 -0.178932 -0.092914 0.056372 -0.475979 -0.602878 -0.047612 0.257322 0.142975 0.129860 0.101072 -0.083814 -0.109623 0.094095 -1.040187 -0.527060 -0.164338 -0.278436 -0.258652 -0.271915 0.396377 0.356462 -0.571030 -0.219624 0.512379 -0.393563
Qf6 -0.169220 -0.005842 0.583027 0.164197 -0.169972 -0.346740 -1.020105 0.013695 -0.064984 0.115393 0.076085 0.171971 -0.086228 0.018100 -0.202222 -0.134386 -0.452883 -0.231763 -0.114523 -0.051906 0.807649 -1.334434 0.525062 0.411186 -0.087234 0.097983 -0.166185 0.383579 -0.359925 -0.048054 0.129934 0.004098 -0.126506 -0.240771 -0.131536 0.271720 0.206505 0.167873 0.042878 0.158147 -0.452614 0.003559 -0.154393 -0.267183 -0.099416 -0.069955 -0.084685 -0.287472 -0.738886 -0.115858 -0.502661 0.025267 0.681018 -0.320175 0.103764 -0.210262 0.505009 0.219542 -0.130143 -0.093598 0.469672 -0.031151 -0.468543 0.156858
dxc5 0.214949 -0.397975 -0.325772 0.119918 -0.070814 -0.108061 -0.889562 0.271150 0.514338 -0.405624 0.284194 0.011021 0.527084 -0.022076 0.568504 -0.617118 0.092239 -0.035716 1.057960 -0.073779 -0.544912 -0.483981 1.245469 0.930264 -0.213066 -0.024472 -0.455155 0.387183 0.796971 -0.290911 0.058627 -0.856281 -0.056792 -0.565466 -0.009589 -0.197345 0.303129 0.000084 -0.229058 0.210430 -0.366180 -0.040606 -0.760346 0.561531 0.056033 -0.139530 0.430844 0.218262 -0.104270 0.254374 0.234840 0.604453 0.120858 -1.197477 0.236550 0.497723 -0.014513 -0.643974 -0.358766 0.041671 -0.356551 -0.519530 -0.399028 -0.150257
Ne6 -0.412613 -0.099737 0.517278 0.463457 0.013143 0.101275 -1.024177 -0.229052 0.729834 -0.096559 -0.026200 0.933154 0.130091 0.182697 -0.322530 0.474500 0.014701 -0.229856 0.219705 -0.173132 -0.256974 -0.167900 0.567633 -0.048242 0.240823 0.839620 -0.111661 -0.421462 0.367964 -0.430308 0.024341 -1.323031 0.211484 0.137773 0.153475 0.025265 -0.334807 0.312746 0.342372 0.194071 0.428307 0.484206 -0.207575 0.226735 -0.238822 0.216648 -0.612296 -0.485219 -0.596271 -0.331723 -0.543965 0.289129 -0.340495 -0.168781 -0.095964 -0.103947 0.173177 0.167583 -0.366312 -0.235758 0.002094 -0.091321 0.051204 0.267542
Kd7 -0.099470 -0.546620 0.103469 -0.290950 -1.071823 0.407870 -0.847666 -0.028648 -0.269173 -0.375766 -0.485700 0.147397 0.165128 -0.587397 -0.224203 0.361984 0.429520 0.687327 0.692511 -0.225423 0.375694 0.807379 -1.074938 -0.755701 -0.719239 -0.039634 0.027876 -0.483910 -0.859899 0.248909 -0.744926 -0.388912 -0.033216 0.184024 -1.049114 0.547052 0.176691 -0.047342 -0.417580 -0.313512 -0.547323 0.458925 0.095500 -0.610089 -0.315757 0.152417 -0.367289 -0.244231 0.523483 0.308354 0.660754 -1.002354 -1.552489 -0.247015 -0.829179 0.381163 -0.260065 -0.418317 -0.056320 0.057396 0.218049 0.234224 -0.777160 0.429727
Re2 0.051277 0.038624 -0.164683 -0.116081 -0.601548 -0.319318 0.459113 -0.095030 -0.443957 0.321932 -0.065330 -0.026605 -0.112195 0.387687 0.219124 -0.041245 -0.165387 -0.635518 0.794520 -0.363668 0.451691 -0.151710 0.560986 -0.140930 -0.412739 0.291118 -0.062483 0.078617 -0.104502 -0.099357 -0.591724 0.154454 0.191111 -0.051208 -0.191583 -0.480028 0.331591 0.363796 -0.218173 -0.205945 0.022473 0.280787 1.270974 0.314233 0.151015 0.385855 -0.298723 -0.138806 -0.515885 -0.280467 -0.278126 -0.478357 -0.051595 0.409984 -0.203604 0.475272 0.225660 0.005350 -0.122538 -0.260784 0.194278 0.230894 0.067014 -0.042184
Rf8 0.391065 0.312447 0.655289 -0.075607 0.044453 -0.322013 -0.726019 0.185043 -0.221267 -0.491540 -0.071937 0.188726 0.091941 0.589364 0.203940 -0.278318 -0.018856 -0.068813 -0.173374 -0.161729 0.639926 -0.444155 0.021813 -0.465756 0.195413 0.056474 0.574417 -0.368250 -0.037810 0.089066 -0.197835 -0.222289 0.004486 -0.045204 -0.157761 -0.575499 0.195443 -0.092513 0.534465 0.021009 0.070158 0.372044 0.534588 -0.423804 -0.021756 0.280982 -0.601266 -0.183496 0.203656 -0.197812 -0.605828 -0.190655 -0.360694 -0.218028 0.379050 -0.038691 0.094046 0.330859 -0.036160 0.094474 -0.538111 -0.201720 -0.375304 0.104597
Rc2 0.260655 0.151662 -0.795091 0.105490 -0.023606 -0.528504 0.577529 -0.158545 0.493893 -0.055596 -0.077352 -0.298111 -0.188643 -0.338304 0.273536 0.168349 -0.141511 -0.301291 1.153176 0.197039 0.182263 -0.086310 0.691124 -0.185791 0.015853 0.545445 -0.109303 -0.339535 -0.159522 -0.248916 -0.475019 -0.119473 0.199873 -0.297348 -0.415725 -0.111274 0.249558 -0.165699 -0.081409 -0.414200 -0.243886 -0.118251 0.700164 0.409404 -0.009665 0.283723 -0.034937 -0.187478 0.013548 -0.140365 -0.612447 -0.435434 0.036361 0.550875 -0.147081 0.444359 -0.256732 -0.162654 -0.567243 0.234746 -0.224228 0.312057 0.476435 0.323504
Bxe4 0.342413 -0.137650 -0.456462 -0.149535 -0.078950 0.032374 -0.594977 -0.303044 0.229543 0.077545 -0.044171 0.237559 0.154532 0.877515 -0.143780 -1.321433 -0.521505 -0.009384 -0.063537 0.360716 -0.329192 -1.041944 0.894743 0.035605 -0.208833 0.456281 0.865799 0.518666 -0.080495 -0.398205 -0.241951 0.581853 -0.118273 -0.665610 -0.805287 -0.268654 -0.078150 0.664865 0.118539 0.218144 -0.039149 -0.192362 0.377358 0.010636 -0.417149 0.575548 0.559084 0.234166 -0.453676 -0.067077 0.050954 0.291694 0.432028 -0.828735 -0.662849 -0.035803 -0.126079 -0.052797 -0.144843 0.220133 -0.747470 -0.463953 -0.316058 0.550369
Qd6 0.037191 -0.167910 0.223094 0.061925 -0.103343 -0.727308 -0.924976 0.159053 -0.077473 -0.203042 0.136156 0.122829 0.352383 0.093484 0.040670 -0.078879 -0.240752 0.093129 0.567792 0.189333 0.374525 -1.264052 0.575098 0.609684 -0.015492 0.051593 -0.036877 0.196673 -0.077233 0.050597 -0.106362 0.059330 -0.580771 0.035573 -0.238418 0.031384 0.266294 0.089027 0.272705 -0.339280 -0.604199 0.491571 -0.227521 0.358785 0.490683 -0.094346 -0.233120 0.127953 -0.440487 -0.117303 -0.370914 -0.107728 0.620961 -0.492067 0.251287 0.187228 0.444179 -0.237662 0.353849 0.055225 0.347819 0.051021 -0.493110 0.109504
Kd3 -0.563288 -0.702980 -0.467993 -0.027822 0.646118 0.406565 1.060176 0.230645 -0.142078 -0.162777 -0.444649 0.441193 0.122365 0.128610 -0.229066 0.324672 0.287084 0.126944 0.593076 -0.357157 0.440253 0.845408 -0.084115 -1.746734 -0.323535 0.568516 0.642463 0.259239 -0.160546 0.088044 -0.672252 -0.333912 0.244084 0.394705 0.484109 0.060867 0.059088 0.170860 0.449953 -0.500802 -0.403135 -0.022006 0.116909 0.127408 0.031926 0.444373 -0.032382 -0.502814 0.226962 0.767664 0.633266 -0.403933 -2.319900 0.507470 -0.530732 -0.052291 0.095919 0.739986 -0.791873 0.480091 -0.379868 -0.074796 -0.558712 0.022647
Re7 0.048530 0.599852 0.309038 0.076889 -0.348312 -0.861409 -0.437861 0.203363 -0.156665 -0.056834 0.299087 0.397635 -0.021019 0.308031 -0.424603 -0.387663 -0.312607 -0.529456 0.637019 -0.646048 0.354862 -0.205527 -0.145503 -0.018732 0.316364 0.227974 0.168941 0.318203 0.069766 -0.073102 -0.138209 -0.013762 0.097763 -0.448765 0.135929 -0.757571 0.488318 0.003650 0.159332 -0.111560 0.196704 0.381654 0.716859 0.082116 0.468283 0.257943 -0.207197 -0.229897 -0.148619 0.086154 -0.783205 0.022141 -0.503331 0.348977 -0.042260 -0.123579 0.334627 0.129746 0.257552 0.112765 -0.079793 -0.102318 -0.329235 0.262539
Bxe5 -0.326445 0.159057 -0.100532 0.340417 0.303915 -0.395160 -1.493933 0.502627 -0.172507 -0.143478 0.733841 -0.607222 0.036366 0.779202 1.099285 -0.338752 -0.605797 -0.657391 0.510778 -0.546717 -0.077134 -0.629974 0.506113 0.160570 -0.650426 0.118998 -0.119914 0.150292 -0.212690 -0.447239 -0.634582 0.020051 -0.583709 -0.069330 -0.029646 -0.145520 -0.407446 0.031988 0.183458 -0.691378 0.096557 0.302523 0.301990 -0.596820 -0.122573 -0.117845 0.214626 0.204831 0.116021 0.474719 -0.033432 0.203129 0.386791 -0.925584 -0.007210 0.315012 0.382970 0.390118 -0.159179 -0.026996 0.491566 0.019742 0.298267 -0.266789
Kg1 0.025673 0.060252 0.100822 -0.057063 -0.145820 0.802560 0.875264 -0.217106 0.302045 -0.122364 0.315620 -0.088013 -0.554423 0.892540 0.643447 -0.506766 0.133174 -0.322480 0.575905 -0.263303 0.879814 -0.357048 0.494252 -1.292703 -0.336118 0.419787 -0.637576 0.053081 -0.578914 0.800096 0.052220 0.085362 -0.030995 -0.212022 -0.358139 -0.012485 0.974993 -0.204101 -0.026804 0.138694 -0.575201 0.410796 -0.010474 0.382995 -0.448950 0.539978 -0.912667 -0.202873 -0.331347 0.106117 -0.697385 -0.496831 1.679744 0.352802 0.187008 0.452922 0.192085 -0.259527 0.995542 0.282729 -0.434374 0.057658 0.324928 0.038935
Kg3 0.160170 0.775339 -0.075378 0.210681 0.192084 0.511523 0.778037 -0.311524 0.181245 -0.200640 0.498029 -0.046891 0.088960 -0.029265 -0.044247 -0.476215 0.251151 -0.111776 0.665085 -0.163012 1.366300 1.013816 0.352247 -1.964138 -0.042858 -0.162379 -0.559251 -0.007839 -0.228076 0.292942 -0.134752 -0.139193 -0.454911 0.288445 -0.438763 0.175902 -0.368466 0.109776 0.144570 -0.295879 -0.036574 0.257230 0.108760 0.641859 0.503659 0.031095 -0.592653 0.054097 -0.737684 0.083309 -0.696066 -0.659360 -0.044758 1.220450 0.529940 -0.325386 0.142164 0.078601 0.437832 -0.218498 -0.272714 -0.976534 0.395677 0.510568
Ra8 0.239827 -0.147926 -0.334337 -0.270007 -0.205921 -0.498236 0.181374 -0.052874 -0.108067 0.090632 0.159227 -0.161291 -0.310950 -0.044640 0.138530 -0.015186 -0.728425 0.086797 1.466982 -0.249422 0.621626 -0.192757 0.376142 -0.456393 0.290645 0.229683 0.363768 -0.531887 0.140404 0.352837 -0.060137 -0.072051 0.061204 -0.332287 -0.371773 0.267582 -0.358609 -0.213372 0.196242 -0.038497 0.746578 0.147190 -0.570643 0.103870 0.150297 0.087351 0.004787 -0.533107 0.746486 -0.382567 -0.567117 0.230763 -1.254987 0.172566 0.318943 -0.330647 -0.271862 -0.199827 -0.539363 -0.076320 -0.264597 -0.181924 0.249412 0.071922
Ng3 0.557372 -0.213938 0.825634 0.301948 -0.440956 0.498578 -0.607326 0.150432 0.059022 -0.216483 -0.260468 0.657866 0.075299 0.354020 -0.075936 -0.018514 0.070987 0.146008 -0.497044 0.014654 0.238298 -0.146925 1.704767 0.144549 0.055901 1.061758 0.331024 0.171341 0.022660 0.406299 -0.000022 0.183298 0.091508 0.038371 0.124563 0.097217 0.489371 0.188450 0.626981 -0.038014 0.087548 -0.141713 0.117513 0.668267 -0.126806 0.330257 0.409951 0.482532 -0.549863 -0.007068 0.099094 0.121371 0.188542 -0.828408 -0.494806 -0.316137 -0.391528 -0.130009 -0.293454 -0.231722 0.151451 0.177461 -0.145301 -0.505208
Rf1 0.465841 -0.167193 0.495591 -0.106172 -0.066536 0.113019 -0.075328 0.231056 -0.352472 -0.289549 -0.146727 -0.169327 -0.036196 0.882857 0.146978 0.124936 0.198216 -0.344906 0.053759 0.327785 0.637709 -0.487989 0.365090 -0.735728 -0.302383 0.193072 0.310848 -0.196199 -0.218690 0.001651 -0.378903 -0.253856 0.078427 0.147277 -0.439320 -0.530870 0.159542 -0.086881 0.102216 0.197043 -0.106853 0.509729 0.930770 -0.172838 -0.224229 0.229567 -0.559651 0.332734 -0.236087 -0.333062 -0.526419 -0.370766 0.007692 -0.077815 0.468982 0.160952 -0.319282 0.256210 -0.174304 -0.256058 -0.288058 0.162178 0.025036 -0.261287
Nd6 0.476999 0.103865 0.087263 0.410564 0.318391 -0.250890 -0.203062 0.506890 0.273182 -0.257020 0.139871 0.146809 0.071397 -0.284305 0.079810 -0.582822 -0.533920 0.052533 0.716383 -0.113775 -0.217406 -0.131365 0.301933 0.089626 -0.224712 0.718555 0.243938 -0.236045 0.164313 -0.470936 0.140093 -0.002209 0.706124 0.081817 -0.133323 -0.477826 -0.174715 -0.183581 0.683330 -0.338412 0.691677 0.447649 -0.345142 -0.090602 -0.392604 0.428506 0.375339 -0.032264 -0.779445 0.176922 0.056305 -0.942331 -0.799975 -0.673949 -0.527119 -0.392498 0.526257 -0.096780 0.049764 0.241607 -0.267210 0.359854 -0.397320 0.586775
Bf8 0.257275 -0.149733 -0.484921 0.606056 -0.255582 -0.427093 -0.755444 -0.072119 0.028955 0.094227 -0.222844 0.215511 -0.004115 -0.633447 -0.199409 0.087027 0.013247 0.115301 0.301616 -0.002963 0.405315 -0.877612 0.677290 0.176108 0.206648 0.473569 0.120291 -0.548298 0.487202 0.291749 -0.246076 -0.050297 0.152844 -0.033491 0.410470 0.284617 0.045720 -0.093288 0.017336 -0.852664 0.762327 0.296213 -0.074852 0.033332 -0.707057 0.272582 0.278752 -0.648003 0.130470 -0.613762 0.046246 0.073909 -0.548229 -0.659814 -0.219076 0.212245 0.237696 -0.041974 -0.366515 -0.162034 -0.286247 0.102355 0.481825 -0.519952
Kg6 0.112328 1.358776 0.162445 -0.216816 -0.101162 -0.447202 -0.080802 0.752984 0.187505 0.055266 0.125050 0.282184 0.582004 0.243425 -0.107606 0.213730 -0.260189 -0.193883 0.272395 -0.100636 0.957030 0.801433 0.135294 -2.002238 -0.320897 -0.445699 -0.376696 -1.108458 0.295954 0.204566 0.792996 0.383292 0.225719 -0.457787 -0.538513 0.250009 0.556699 0.048221 0.513829 -0.297790 0.783722 0.017584 0.058770 0.746851 0.032036 0.142158 -0.191372 0.327448 0.142164 -0.100432 -0.049198 0.040499 -0.501279 1.126199 -0.425260 -0.164627 -0.007140 0.103959 -0.135817 0.041751 0.154150 -0.536374 -0.308691 0.010208
Kd2 -0.133787 -0.557361 -0.467025 0.153232 -0.261173 0.655571 1.028415 0.896163 -0.876933 -0.688550 0.051475 0.176250 0.121525 0.266599 -0.450721 0.154570 0.054767 0.782677 0.221719 -0.390009 -0.110008 -0.111001 -0.008062 -1.378541 0.196482 0.315579 0.728131 0.560834 -0.234103 0.492443 -0.050428 -0.236014 -0.126234 0.068262 0.509639 0.205634 -0.131459 -0.284179 -0.069564 -0.104034 -1.266667 0.096018 0.120651 -0.419352 0.116601 -0.184290 -0.530653 -0.111214 0.009266 0.761407 0.299688 0.189253 -1.471845 0.417168 0.078985 -0.677414 0.163806 0.520332 -1.240343 0.568867 0.453715 -0.247969 -0.865329 0.117452
Kd6 0.065594 -0.547325 0.277713 -0.000779 -0.451903 -0.169607 -0.521057 -0.030336 -0.055473 -0.372873 0.235784 -0.022401 0.280152 -0.223835 -0.569528 0.994919 0.099567 0.202226 0.822241 -0.683549 -0.777076 1.431062 -0.594732 -1.849515 -0.937510 0.479298 0.190833 0.342529 -0.143782 -0.044827 -0.242718 -0.160945 -0.486214 -0.230960 -0.670205 0.439689 0.485402 0.132734 -0.461994 -0.035170 -0.378817 0.514886 0.173669 0.135461 0.173921 -0.452954 -0.023190 0.162146 0.664426 0.841787 -0.261840 -0.337402 -1.745638 0.484142 -0.310145 0.544403 -0.298091 0.194649 -0.321552 0.354729 -0.198916 0.428214 -0.669162 0.426066
