O-O -0.344006 2.003457 -0.455763 -0.488977 -0.219201 -0.795430 -0.208742 0.781321 0.142013 0.076170 0.017326 0.627880 -1.183263 0.287962 -1.082872 -0.817889 -2.059161 -1.585266 0.335738 1.575388 0.561009 -0.158265 -0.442383 0.257143 -0.077421 0.203101 -0.965654 -0.059790 -0.033319 -0.692552 0.291210 0.302230 0.758879 -0.309038 -0.349499 0.342779 -0.116769 -0.363732 -0.128245 1.430063 -0.024918 0.661254 0.145752 -0.701668 -0.671398 -1.285528 0.284812 0.220255 -0.127163 -0.284491
Nf6 -0.654336 1.146449 -0.401137 -0.249484 -0.291830 -0.332313 -0.101365 0.303912 -0.043664 -0.047031 0.493537 -0.055745 -0.716341 0.305509 -0.967186 0.079615 -0.242223 -1.115211 0.259311 0.804732 0.308100 -0.306269 -0.483170 0.273707 -0.281955 0.187177 -0.379747 0.026289 -0.004781 -0.435254 -0.013042 0.087617 0.419482 -0.154963 -0.023750 0.318806 -0.194789 -0.121960 -0.510141 0.721546 0.062623 0.166205 0.040205 0.510577 -0.533149 -0.722334 0.544057 0.425075 -0.037154 -0.237791
Nf3 -0.536660 1.093528 0.017332 -0.234821 -0.514942 -0.539253 0.049323 0.369872 0.075415 0.114610 0.303394 0.426258 -0.322045 0.164611 -0.955236 0.113940 -0.087358 -1.090411 0.170970 0.702766 0.152138 -0.241385 -0.460966 0.339537 -0.258220 -0.009260 -0.456612 0.070803 -0.066889 -0.702165 0.202550 0.184613 0.588083 -0.042290 -0.332612 0.407930 0.088620 -0.102062 -0.390551 0.624870 -0.089661 0.310814 0.073422 0.370491 -0.074711 -0.924503 0.518105 0.629667 -0.020877 -0.449626
<end> -0.678521 0.828205 -0.210959 -0.131801 -0.745294 -0.500756 0.168141 0.317867 0.212224 0.039502 0.471989 0.045413 -0.287891 0.361688 -1.132909 0.011843 1.142296 -0.910182 0.090185 -0.348129 0.498326 -0.433398 -0.269349 0.542607 -0.463907 0.262427 -0.310085 0.172627 0.052327 -0.722488 0.033346 0.052692 0.414019 -0.013106 -0.022022 0.363499 0.085322 -0.423902 -0.375496 0.604137 0.011949 0.106243 0.453913 1.068517 -0.223570 -1.202702 0.694725 0.664915 -0.137874 -0.570394
<start> -0.659942 0.858429 -0.203020 -0.147016 -0.665363 -0.473155 0.113311 0.365265 0.147689 0.066069 0.431037 0.111649 -0.277729 0.319002 -1.064382 0.019606 1.046277 -0.922289 0.102899 -0.161408 0.463571 -0.386154 -0.294166 0.461608 -0.429175 0.259744 -0.322570 0.131286 0.030109 -0.663481 0.026845 0.069593 0.405534 -0.067711 -0.015717 0.303027 0.057161 -0.337381 -0.328404 0.623536 0.015051 0.145646 0.367903 0.927885 -0.199469 -1.106036 0.606978 0.566391 -0.109109 -0.523576
d4 -0.499393 1.086769 -0.019239 -0.156884 -0.531441 -0.555495 -0.093577 0.574466 0.197466 0.102448 0.266981 0.423681 -0.412871 0.271165 -1.099156 0.010560 0.224911 -1.001707 0.129301 0.450053 0.390852 -0.307150 -0.409111 0.309746 -0.326755 0.215791 -0.527388 -0.012285 -0.063538 -0.743170 0.126975 0.119055 0.614880 -0.072237 -0.219121 0.241006 0.135830 -0.335249 -0.244279 0.661596 -0.074782 0.312791 0.084805 0.441680 -0.131207 -0.987821 0.406023 0.348481 -0.183608 -0.392308
e4 -0.523601 1.263614 -0.498062 -0.169782 -0.425486 -0.367973 0.106128 0.467357 0.124687 -0.067900 0.379996 0.156769 -0.490249 0.356331 -0.952049 0.051884 0.242574 -0.942842 0.214531 0.358015 0.212413 -0.284285 -0.247872 0.284000 -0.329148 0.222817 -0.265976 0.119297 -0.018956 -0.550981 -0.066511 0.325895 0.391106 -0.156634 -0.159860 0.433160 0.020489 -0.104796 -0.365144 0.657862 0.047465 0.300574 0.199301 0.436433 -0.426293 -0.930196 0.496998 0.358141 -0.097772 -0.436787
Nc3 -0.406459 1.597959 -0.399189 -0.012959 -0.372900 -0.345953 -0.192269 0.778697 0.092822 0.019326 0.282519 0.228864 -0.563994 0.442596 -0.557755 -0.376269 -0.309165 -1.216644 0.046427 0.573755 0.508621 -0.096616 -0.304391 0.316347 -0.200489 0.266499 -0.536889 -0.155739 0.138144 -0.522586 -0.198085 0.171795 0.470892 -0.319666 0.508629 0.354759 -0.143285 -0.129377 -0.099694 0.795517 0.080485 0.238859 -0.014439 0.263943 -0.385764 -0.776641 0.596388 0.252373 -0.170618 -0.400671
d5 -0.487461 1.256507 -0.323498 -0.281983 -0.113124 -0.422920 -0.008636 0.641288 -0.028314 -0.023302 0.299567 0.276738 -0.381975 0.503467 -0.949657 -0.119192 -0.424514 -0.992181 0.286721 0.852078 0.269301 -0.196094 -0.428527 0.145782 -0.240480 0.444432 -0.639608 -0.197861 -0.010317 -0.516590 0.110100 0.353860 0.581819 -0.264265 -0.104486 0.189181 0.022586 -0.244658 -0.351671 0.725283 0.178406 0.137221 0.117296 0.266438 -0.422006 -0.826317 0.480743 0.165196 -0.201484 -0.275820
e5 -0.429245 1.244467 -0.571539 -0.329837 -0.281632 -0.376079 -0.010342 0.326953 0.351568 0.031057 0.318703 0.364074 -0.458518 0.009799 -0.627996 -0.199722 -0.515221 -0.897218 0.211140 0.927476 0.147815 -0.244864 -0.474510 0.228302 0.160129 -0.083179 -0.273294 -0.110069 -0.126687 -0.511267 -0.060156 -0.076918 0.858448 -0.173216 0.008330 0.111093 0.201005 -0.078620 -0.277281 0.465742 -0.265132 0.325706 0.165260 0.076369 -0.213917 -0.774434 0.238739 0.491698 -0.119990 -0.426527
c5 -0.464110 1.240469 -0.320853 0.090959 -0.310534 -0.520719 -0.053637 0.423065 0.375946 0.043020 0.491146 0.425551 -0.319842 0.567853 -0.821483 0.110717 -0.220269 -0.982797 0.099510 0.771608 -0.028382 -0.276411 -0.441931 0.178601 -0.101125 0.187209 -0.261580 0.223608 0.016599 -0.673129 -0.117451 0.226694 0.695937 -0.317207 -0.291899 0.121745 0.025322 -0.006329 -0.176910 0.555905 -0.127082 0.548850 0.018878 0.103486 -0.363439 -0.710403 0.267064 0.341883 0.114495 -0.226099
Nc6 -0.439053 1.480483 0.181478 0.041132 -0.343240 -0.829891 0.020664 0.782141 0.282076 0.482096 0.101542 0.717154 -0.392855 0.074830 -0.465796 -0.413517 -0.577583 -1.047266 -0.103292 0.741201 0.274078 0.167172 -0.294333 0.273287 -0.003152 0.020209 -0.639076 -0.075661 -0.100250 -0.685769 0.138070 -0.131726 0.889840 -0.183676 -0.037916 0.467498 0.082616 -0.330923 -0.314186 0.609054 -0.049130 0.378525 0.308441 -0.094907 0.067040 -0.904814 0.276650 0.063943 -0.298879 -0.563942
c4 -0.347290 1.182013 -0.496845 0.035771 -0.330447 -0.495785 0.108317 0.342640 -0.108900 -0.075775 0.327711 0.172769 -0.172326 0.409237 -0.860913 -0.012065 -0.075281 -0.910368 0.342795 0.741932 0.216552 -0.148183 -0.389343 -0.043412 -0.122916 0.057139 -0.248022 -0.131602 0.013233 -0.631757 0.146692 0.160946 0.568853 -0.302114 -0.131616 0.124965 -0.017701 -0.222028 -0.294265 0.350252 0.302574 0.267943 0.009890 0.287452 -0.077036 -0.705725 0.522592 0.090410 -0.102744 -0.216548
e6 -0.519969 1.269161 -0.317283 -0.286890 -0.285052 -0.415841 -0.109369 0.547321 -0.099792 0.239471 0.321402 0.297508 -0.352342 0.435264 -1.107744 -0.247620 -0.105924 -1.193279 0.187952 0.595290 0.456739 -0.435692 -0.670258 0.115833 -0.146318 0.343799 -0.725064 -0.162076 0.035101 -0.493733 0.092421 0.340426 0.663622 -0.192320 0.022697 -0.077580 0.026266 -0.197604 -0.043065 0.804374 0.019831 0.262258 0.181703 0.379586 -0.234550 -0.917787 0.472320 0.522167 0.167919 -0.373050
g6 -0.591335 1.111493 -0.180119 -0.189574 -0.281681 -0.562966 -0.217813 0.268744 0.019206 0.179210 0.137712 -0.156198 -0.016486 0.097141 -0.800379 0.106056 -0.169253 -0.486143 0.183848 0.745256 0.253008 -0.202097 -0.491200 0.131349 0.032483 0.071415 -0.390809 0.067364 -0.112775 -0.318856 0.281504 0.073523 0.558538 -0.191710 -0.247701 0.092574 0.133674 -0.216806 -0.265772 0.148515 0.207102 0.016123 0.001355 0.387769 -0.028222 -0.832816 0.060709 0.167134 0.154299 -0.168731
d6 -0.555925 1.205036 -0.384957 -0.339487 -0.419462 -0.507586 -0.098231 0.401727 0.118793 0.181343 0.548811 0.296703 -0.249063 0.295621 -0.822654 -0.100584 -0.143026 -1.269671 0.499198 0.575939 0.517250 -0.190815 -0.441563 0.345440 -0.372946 -0.116159 -0.565480 0.017775 -0.119240 -0.662592 0.027259 0.252707 0.744184 -0.297078 0.229785 -0.021444 -0.234179 -0.231433 -0.337546 1.092512 0.125508 0.660638 0.470983 0.186451 -0.717832 -0.943294 0.202942 0.136524 -0.219527 -0.587069
f4 -0.215462 0.809290 -0.233700 -0.432716 0.227704 -0.208292 -0.072398 0.060703 0.454703 0.031503 0.223805 0.018253 -0.080861 -0.228493 -0.111435 0.326977 -0.340413 -0.597796 0.090266 1.311224 -0.380254 -0.069126 -0.145525 -0.043549 0.251251 0.007597 -0.118213 0.067574 -0.081379 -0.017744 -0.011011 0.065196 0.716991 -0.098776 0.027613 -0.056888 0.234222 -0.117512 0.127625 0.078093 -0.018327 -0.032374 -0.019314 -0.145709 -0.154545 -0.231546 0.305248 -0.095528 -0.239274 -0.045825
f5 -0.031656 0.748233 -0.420421 -0.130916 -0.087428 -0.170695 -0.260219 0.069647 0.026278 -0.016366 0.017874 -0.082154 0.106171 -0.142958 -0.221598 0.102435 -0.345130 -0.373108 0.300027 1.314871 -0.588985 0.051405 -0.317032 0.055840 0.125838 0.360286 0.157794 -0.112075 -0.147024 -0.029183 0.077203 0.071905 0.235103 -0.099049 0.130106 0.071022 0.183821 -0.142495 -0.146331 0.038003 0.057565 -0.037520 -0.285493 -0.089198 -0.341785 -0.301743 -0.097902 -0.293691 0.030941 -0.093277
b5 -0.200825 1.143703 -0.213262 -0.252229 0.027591 -0.411043 0.154831 0.310870 -0.053443 0.084385 0.483989 0.021246 0.141198 0.210017 -0.203251 -0.107997 -0.437007 -0.441274 0.188636 1.392701 0.142468 0.347478 -0.559046 -0.301736 0.376994 -0.107161 0.301976 -0.300787 -0.086310 -0.206842 -0.388538 0.203576 0.619037 -0.002399 0.137733 0.025350 -0.026916 0.091137 -0.047464 0.021021 0.082923 0.293330 -0.212306 -0.342702 -0.201120 -0.055234 0.049789 -0.408676 -0.318293 0.089249
Be7 -0.455948 1.514481 -0.751986 -0.168022 -0.471618 -0.287566 -0.021593 0.683420 -0.495214 0.493623 0.278295 0.496298 -0.512391 0.086399 -0.537684 -0.452591 -0.919316 -1.100692 0.062032 1.295567 0.032300 0.261592 -0.034685 -0.245587 0.294781 -0.182093 -0.521455 -0.305618 0.111687 0.007145 0.395262 0.129298 0.353881 -0.313436 -0.237752 0.257310 -0.145899 -0.094350 -0.475461 0.614868 0.427084 0.185545 0.170432 -0.037145 0.062762 -0.294225 -0.438228 0.643514 0.390448 0.056819
a6 -0.657492 1.412042 -0.144710 -0.215614 -0.404091 -0.658634 -0.066335 0.446900 -0.196256 0.377127 0.577785 0.374784 -0.126523 0.105248 -0.184949 -0.066259 -0.561378 -1.240217 0.069054 1.033904 0.226643 0.062815 -0.478356 -0.471617 0.160078 0.029089 -0.133844 -0.085647 -0.079865 -0.325694 -0.052546 0.302008 0.695612 -0.067954 0.127763 0.090591 0.111355 -0.229840 -0.045878 0.607417 0.041524 0.489217 -0.077784 -0.178312 -0.217590 -0.064913 -0.089866 -0.221269 -0.848896 -0.197712
Be3 -0.060004 0.954509 -0.484821 -0.317577 -0.176784 -0.184789 -0.172384 0.864464 0.580124 0.518820 0.146930 0.248018 -0.643299 -0.493605 -0.410678 -0.224614 -1.007083 -1.148517 -0.255398 1.201016 0.031226 0.154924 0.006629 -0.415343 0.420820 0.172538 -0.238615 0.009914 0.171596 -0.295623 0.339217 0.471349 0.382365 -0.282169 0.012286 0.231443 0.309685 -0.257050 -0.088609 0.332431 0.217349 -0.116488 -0.060735 -0.583794 -0.122282 -0.318685 -0.331181 0.047152 0.044763 -0.087492
b4 -0.165830 1.056047 -0.140851 0.059967 0.076560 -0.131401 -0.071188 0.393431 0.263956 0.144060 0.404973 0.439257 0.171876 0.334428 -0.259965 -0.153445 -0.342949 -0.201000 0.131022 1.186817 -0.146657 0.387211 -0.498189 0.025581 0.394704 0.135729 0.248441 -0.028807 0.031308 0.056774 -0.086679 0.085510 0.572770 -0.227799 -0.125670 0.071122 0.178050 0.387675 -0.139715 -0.134526 -0.263877 0.166921 -0.488131 -0.319998 -0.138209 -0.114835 -0.050494 -0.486211 -0.119450 0.236998
a4 -0.025262 1.316648 -0.145237 -0.041700 0.169932 -0.393179 0.027468 0.095125 -0.132468 0.135183 0.318584 0.147751 0.338143 0.149882 -0.234633 0.046283 -0.075836 -0.535319 0.153825 1.088787 0.134836 0.228522 -0.364016 -0.303062 0.428137 -0.021207 0.205530 -0.001122 0.026535 -0.087914 -0.028889 0.327897 0.530382 -0.122191 -0.016035 -0.062702 -0.057991 0.142467 0.176006 -0.299556 0.044552 0.420797 -0.196380 -0.087336 -0.146721 0.195531 -0.097621 -0.378718 -0.003445 0.133253
a5 -0.077958 1.172610 -0.247906 0.111837 0.094187 -0.278637 0.106927 0.169858 -0.029375 0.123379 0.287671 0.286235 0.265713 0.166923 -0.160438 0.110701 -0.082223 -0.498433 0.038957 1.083358 -0.042967 0.246693 -0.415432 -0.134491 0.303754 0.152474 0.345169 0.093790 0.081995 -0.074612 0.083391 0.159339 0.394337 -0.327582 -0.291774 0.009124 0.123669 0.244950 0.416264 -0.344067 -0.109901 0.260423 -0.284176 -0.180695 -0.165849 0.216724 0.042239 -0.478351 -0.072297 0.426981
Bd3 -0.496214 1.359277 -0.393068 -0.335654 -0.418793 -0.179333 -0.516056 0.268334 -0.230665 -0.199967 -0.141591 0.414762 -0.530989 0.310217 -0.020643 0.053915 -0.835742 -0.783355 0.140217 1.390551 0.632283 -0.296892 -0.175439 0.286885 -0.149945 0.225045 -0.342423 0.105449 -0.102533 -0.280723 0.109981 -0.137487 0.307674 -0.155887 -0.911714 0.264867 -0.269926 -0.164891 0.314131 0.287493 0.110292 0.257926 -0.412962 0.068043 -0.391797 -0.189916 -0.152388 0.075650 0.023047 -0.390067
g3 -0.786234 0.798823 -0.128734 -0.330000 -0.302334 -0.540052 -0.154445 0.331028 0.140687 -0.257708 0.325282 0.038336 -0.058956 0.124567 -0.324046 0.347946 0.073378 -0.905343 -0.206930 0.600141 -0.245495 -0.369928 -0.281243 -0.030299 -0.000238 -0.038731 -0.085938 -0.220425 -0.010178 -0.344018 0.247443 0.206993 0.205269 -0.335375 -0.191153 0.108553 0.061341 -0.124444 0.060406 0.151364 -0.110325 0.045304 0.110995 -0.059111 -0.186331 -0.444492 0.358405 0.195095 -0.244657 0.199109
cxd4 -0.352225 1.073926 0.405103 -0.042128 -0.764083 -0.439410 -0.150645 0.909324 0.074300 0.668397 -0.456528 0.773502 -0.412024 0.335542 -0.998878 -0.031743 -0.835528 -0.917250 0.026211 1.110233 0.411154 -0.312674 -0.529919 0.281367 0.035701 0.164783 -0.522021 -0.294856 -0.591192 -1.043529 0.065257 -0.008577 0.538348 0.381121 -0.131569 0.166908 0.335016 -0.687282 -0.137911 0.496299 -0.386105 0.529659 -0.150010 -0.481892 -0.017647 -1.106300 -0.109945 0.461451 -0.539435 -0.091651
h3 -0.340911 0.961309 -0.060226 -0.383816 0.103643 -0.593350 -0.169270 0.227958 0.113848 -0.425819 0.627942 0.001778 -0.228739 -0.339069 -0.153591 0.033754 -0.371061 -1.090218 0.130420 0.957171 -0.399405 -0.216029 -0.564381 -0.271492 -0.105053 -0.059714 0.058964 -0.261505 0.051968 -0.298423 0.461996 0.410469 0.391323 -0.267952 -0.183362 0.243731 -0.069527 0.240789 -0.436491 -0.186424 -0.219533 0.320167 -0.189627 -0.437924 -0.236916 -0.203500 -0.021663 -0.029230 -0.134249 0.175967
h6 -0.427530 1.330100 -0.232761 -0.026007 0.050215 -0.279109 -0.421866 0.115076 -0.252970 0.246676 0.015854 0.097843 -0.064203 -0.096391 -0.365376 0.260531 -0.657461 -0.483707 0.208860 1.149722 0.063675 -0.263712 -0.509062 -0.308163 0.089151 -0.325578 -0.409224 0.108171 -0.413061 0.237520 -0.023171 0.019332 0.192943 -0.310068 -0.483086 0.031336 -0.024233 0.478733 0.036190 -0.149567 0.117157 0.103550 -0.304785 -0.020009 -0.204748 -0.612070 0.220381 0.178278 0.169541 0.069032
Bg7 -0.265862 1.184638 -0.451210 -0.385569 -0.317466 -0.585553 0.035045 0.419805 0.454216 0.411308 0.203006 -0.087206 -0.399835 0.076506 -0.873679 0.079343 -0.505288 -0.892613 0.293164 0.938199 0.188936 -0.010676 -0.458379 0.117521 -0.044352 -0.010716 -0.340955 0.022674 0.008933 -0.423449 -0.057096 0.238464 0.462567 -0.114667 0.331524 0.112864 0.030092 -0.170147 -0.439069 0.378312 0.179698 0.159411 -0.118964 0.428092 -0.248876 -0.931802 0.502906 0.336376 -0.040390 -0.430835
h4 -0.364517 0.789256 0.005177 -0.108236 -0.054384 -0.401187 -0.230740 -0.011500 -0.073704 0.022306 0.305307 -0.382932 0.201725 -0.178762 -0.074243 0.258620 0.380942 -0.211317 0.067068 1.116368 -0.490368 0.117494 -0.310931 -0.303610 0.334962 -0.039779 -0.145713 -0.112985 -0.047818 0.321398 0.323672 -0.029464 0.276764 -0.229837 -0.272168 -0.058538 0.055262 0.279934 0.322224 -0.321822 -0.207470 0.097458 -0.162384 -0.010862 -0.118581 0.026717 0.021152 0.017280 0.041465 0.125914
h5 -0.140135 0.769465 -0.010972 -0.103290 0.118926 -0.411644 -0.145260 -0.004203 0.188116 0.000755 0.098075 -0.479105 0.107897 -0.555109 -0.208089 0.397285 0.337832 -0.204768 0.037390 1.169359 -0.292364 0.123670 -0.340164 -0.177383 0.294581 -0.171874 -0.073555 -0.018250 0.053238 0.235377 0.114430 0.120750 0.115090 -0.170727 -0.077670 -0.045502 0.080944 0.165376 0.118763 -0.389583 -0.075831 0.042539 -0.323729 0.172367 -0.058029 0.000437 -0.143140 -0.182688 0.038957 0.142440
g4 -0.068129 0.738463 0.051357 -0.367474 0.038002 -0.307842 -0.269715 0.045128 0.151164 0.020931 0.201063 -0.384612 -0.038220 -0.504336 -0.240008 0.398315 0.272333 -0.273241 -0.039471 1.419057 -0.566202 -0.043670 -0.531357 -0.184097 0.164381 0.023885 0.061119 0.033774 0.126393 0.206186 -0.057343 0.085222 0.180783 0.001708 -0.122375 0.308954 -0.104075 0.341973 -0.000582 -0.244517 0.181297 0.016799 -0.262399 -0.064833 -0.326979 0.028789 -0.256535 -0.145771 -0.076609 -0.084675
c6 -0.544662 1.129732 -0.088027 -0.212690 0.252810 -0.511806 -0.127206 0.491907 0.272538 -0.071827 0.627060 0.306283 -0.298065 0.371488 -0.791941 -0.061011 -0.319925 -1.067877 -0.004259 0.820241 -0.063530 -0.188686 -0.353204 0.056524 -0.318903 0.148925 -0.419744 0.000167 0.083447 -0.320140 -0.198646 0.520375 0.629101 -0.585674 -0.348744 0.189499 -0.091785 0.053752 -0.246570 0.804211 0.386216 0.254339 0.280289 0.168897 -0.525216 -0.667482 0.441748 -0.010778 -0.176393 -0.226176
Bg5 -0.392033 0.869861 -0.680032 -0.537536 -0.269082 -0.352523 -0.220187 0.433894 -0.297883 0.359972 0.418047 0.056723 -0.640196 -0.315914 -0.764705 -0.144409 -1.127222 -0.870142 0.495885 1.366914 0.113346 0.260737 -0.347536 -0.166160 -0.183098 -0.068227 -0.478244 -0.388384 -0.129664 -0.200863 0.481944 0.017778 0.244233 -0.115190 -0.070432 0.339675 0.091389 -0.115642 -0.290008 0.456700 0.371984 -0.184928 0.036441 0.028781 -0.325462 -0.665275 0.007579 0.046584 -0.062914 -0.137459
Nxd4 -0.324838 0.898763 0.875236 -0.018634 -0.808315 -0.456544 -0.425454 0.948849 0.560043 0.621423 -0.498313 0.951114 -0.120727 0.028062 -0.493338 -0.247714 -0.794713 -1.024071 -0.183379 0.829158 0.394042 -0.267346 -0.409172 0.521369 0.401814 0.433413 -0.749325 0.029515 -0.516230 -0.932130 0.004360 0.077982 0.655962 0.461053 0.639163 0.097101 0.602759 -0.606919 -0.153151 0.438177 -0.841044 0.114571 0.048295 -0.808623 -0.184755 -1.188468 -0.420727 0.432193 -0.645747 -0.294568
a3 0.115250 1.685573 -0.277627 -0.187536 0.057519 0.151512 -0.319889 0.520245 -0.008401 0.359263 -0.193356 0.675126 0.163613 0.545073 -0.315100 -0.181440 -0.510942 -0.403847 -0.076905 1.192703 0.285757 0.005354 -0.357424 0.176046 0.286788 0.037843 -0.366888 -0.220017 -0.038916 -0.187121 -0.181025 0.110534 0.536744 -0.504959 -0.174128 -0.041881 -0.132149 0.273480 -0.307897 -0.054776 -0.085096 0.300796 -0.395597 0.089526 -0.348181 -0.372368 0.268402 -0.348764 0.238048 0.226529
g5 -0.190913 0.690882 -0.201440 -0.384055 0.163822 -0.141638 0.016068 -0.095928 0.070255 0.260859 0.118400 -0.257861 0.038256 -0.378375 0.029374 0.238654 0.305340 -0.097174 0.026614 1.353896 -0.553699 -0.034774 -0.658721 -0.105187 0.184914 -0.051962 -0.093285 0.005036 0.026365 0.288167 0.078125 -0.185799 0.322283 -0.131271 -0.403149 0.117768 -0.035126 0.353923 0.371278 -0.371333 0.084303 -0.103205 -0.276532 0.039469 -0.209024 -0.096390 0.163704 0.122575 -0.078307 0.002062
Qc7 0.035689 0.642137 -0.348987 -0.122493 -0.135341 -0.497418 0.172492 0.001680 0.113538 0.172528 -0.366806 -0.326219 -0.069096 0.253740 -0.099879 -0.224290 -2.202452 -1.196770 -0.157140 1.065740 0.202823 0.034918 -0.364933 -0.310798 0.425010 0.145396 -0.108713 0.129329 0.127195 0.201873 0.469920 -0.285522 0.185125 -0.608004 -0.275709 -0.055704 -0.124135 0.179202 0.009556 -0.305235 -0.181647 0.840911 0.277689 -0.170111 -0.171784 -0.655816 -0.339722 0.078675 -0.158347 0.570075
Be2 -0.299955 1.287712 -0.197205 -0.310904 -0.275779 0.070427 -0.318952 0.752750 0.319919 -0.394649 0.318063 0.202144 -0.776825 -0.045899 0.034482 0.270517 -0.746796 -1.010119 -0.199572 1.429074 0.579474 0.110303 -0.246917 0.335428 0.178412 -0.614324 -0.327829 -0.050396 -0.231776 -0.444507 0.137569 -0.010612 0.731699 -0.224585 -0.147281 0.480238 -0.253084 -0.104528 0.228204 0.481267 -0.233221 0.711363 0.011254 0.076432 -0.404945 0.236162 0.066170 0.126775 -0.126924 -0.213320
Ne5 -0.109143 0.467119 0.029282 -0.118156 0.196212 -0.319416 0.279600 -0.148553 0.024568 -0.014628 0.181726 0.168947 -0.409633 -0.627219 0.331084 -0.192926 -1.157795 -0.685280 0.377202 1.424809 0.437508 -0.374369 -0.183594 0.234483 0.031722 -0.412009 -0.178417 0.305701 -0.085295 0.067353 -0.390971 -0.226512 0.634725 0.202984 -0.339441 -0.231339 -0.489699 -0.103256 -0.264630 -0.205204 -0.157184 0.352993 0.216502 -0.882644 0.330767 -0.464966 0.603724 0.190519 0.072293 0.179001
b6 -0.273554 1.001056 -0.298967 -0.201897 -0.399209 -0.235956 -0.113927 0.433995 0.059138 0.117086 0.539231 0.354306 0.100723 0.416260 -0.206985 0.023762 -0.509761 -0.885746 -0.269087 0.998056 -0.442261 -0.044946 -0.358980 -0.292831 0.072062 0.280663 0.354834 0.094451 -0.135467 -0.334398 -0.329576 0.515237 0.524564 -0.212294 -0.456637 0.124931 -0.008331 0.143286 0.379504 0.376766 0.072399 0.712564 -0.033808 -0.317632 -0.407683 -0.179404 0.299345 -0.130578 -0.038564 0.006816
c3 -0.206996 1.199700 -0.062294 0.158391 -0.338655 -0.367639 -0.400683 0.643883 -0.230114 0.212566 -0.025460 0.625013 -0.244671 0.231017 -0.750909 -0.207814 -0.434435 -0.657820 0.313331 1.103068 0.511018 -0.197012 -0.475682 0.008079 0.059792 -0.103783 -0.644244 -0.237409 -0.041176 -0.537726 0.280055 -0.103226 0.444235 -0.337597 -0.033380 0.294146 0.207802 -0.264663 -0.120361 0.149946 -0.114985 0.035354 -0.380622 -0.007700 0.049485 -0.741381 0.022456 0.145251 -0.306871 0.128081
Re1 -0.180151 0.490176 0.342016 -0.190487 0.152541 -0.258038 -0.331416 -0.243723 -0.431055 0.004729 0.173726 0.423994 0.102992 0.514802 0.074025 0.441617 -0.517167 -1.179457 0.285126 0.748364 -0.022954 -0.442987 -0.593473 -0.297492 -0.460855 0.063097 -0.314550 0.035085 -0.098618 -0.434968 0.368608 0.123957 0.182306 -0.135865 -0.069182 -0.288208 -0.212194 0.141513 -0.339521 -0.715966 0.076417 -0.114021 -0.416803 -0.424449 -0.109588 -0.615852 0.023319 -0.432512 0.411267 -0.006770
Bd7 -0.033931 0.907365 0.546777 -0.426629 0.132120 -0.131334 -0.503666 0.461958 0.459242 -0.231780 0.247082 0.363418 -0.368468 0.001360 0.328526 -0.040568 -1.305356 -1.017893 0.012947 1.609178 0.557398 0.094214 -0.361225 0.107928 -0.098300 0.104833 -0.263243 0.037115 -0.192992 0.320272 0.433336 -0.245604 0.772605 0.137650 -0.290665 0.079513 -0.350486 0.007038 0.419056 0.439540 0.050131 0.314934 -0.244850 -0.025709 -0.413472 0.432805 -0.125955 -0.022651 0.007330 -0.112589
b3 0.134234 1.158045 -0.595227 -0.211241 0.275110 -0.151630 0.155502 0.174771 -0.023805 0.216309 0.053459 0.258155 0.216840 0.021872 -0.265308 -0.007852 -0.557441 -0.400545 0.434811 1.051949 0.254695 0.056083 -0.427234 0.116617 0.554551 -0.094899 -0.015985 0.247297 0.167731 -0.411045 0.093125 0.195174 0.575127 -0.309666 0.296366 0.073773 -0.005462 0.007054 -0.194421 -0.463823 -0.086124 0.146210 -0.358312 0.106159 -0.128402 -0.443100 0.038142 -0.324395 -0.031700 -0.011963
Re8 -0.459859 0.364179 0.045872 -0.048033 0.127946 -0.097018 -0.076121 -0.258306 0.062271 0.274684 0.471721 -0.018362 0.270619 0.341473 0.127730 0.637973 -0.785520 -1.047920 0.527206 0.784876 -0.121330 -0.101505 -0.556847 -0.218408 -0.668140 0.080176 -0.199212 0.468957 0.012560 -0.153410 -0.083443 0.380792 0.212308 -0.080557 -0.209588 -0.320285 0.172640 0.092548 0.137213 -0.459033 0.329064 -0.243037 -0.567027 -0.441112 -0.045661 -0.661558 0.020414 -0.244583 0.041499 0.139078
exd5 -0.459623 0.979849 -0.389623 -0.563305 0.103204 0.149036 -0.106463 0.698501 -0.214012 0.086999 0.089854 0.160710 -0.377200 0.614438 -0.464866 -0.691963 -1.067307 -0.963432 0.164873 0.757954 0.467352 -0.008576 -0.341756 0.187921 -0.105900 0.978668 -0.706315 -0.329891 -0.189456 -0.094884 0.311876 0.164711 0.976169 -0.103964 -0.052597 -0.227755 -0.042411 -0.798671 -0.491148 0.553553 0.657615 -0.155663 0.456097 -0.042529 -0.229207 -0.711303 0.429796 -0.320235 -0.478891 0.103401
Qd2 -0.259523 0.467453 0.218710 -0.824562 0.147203 -0.452263 -0.627343 0.346932 0.023831 0.129395 -0.389025 -0.423433 -0.197196 -0.071721 0.183605 0.134187 -1.930539 -0.707489 0.065747 1.020781 0.330379 0.294219 -0.175369 0.103874 0.133735 0.153416 -0.220325 -0.067734 -0.051624 -0.077810 0.502323 0.155908 -0.027235 -0.568137 -0.057958 0.146835 0.061049 0.130141 0.121694 -0.106690 -0.826228 0.519034 -0.691331 -0.048602 -0.524965 -0.563760 0.207327 -0.374895 -0.302453 0.487364
Nd7 -0.119958 0.992557 -0.564707 -0.034617 0.317343 -0.008655 0.110058 -0.165697 0.241283 0.059903 0.218759 0.241733 -0.529932 -0.042962 -0.032612 -0.403290 -1.257933 -0.974610 0.187595 1.305649 -0.014575 -0.201828 -0.501485 0.015470 0.323920 -0.009671 0.480699 0.361874 0.158818 0.424599 0.017726 -0.249441 0.420131 -0.163306 -0.440407 -0.138521 -0.331423 -0.153333 0.175738 0.120734 0.018686 0.477440 -0.419397 -0.243696 0.050998 0.082193 0.176878 0.461587 0.516750 0.322817
Nd5 -0.281719 0.693711 -0.107254 0.045882 0.147543 -0.059914 0.000787 0.634628 -0.565960 0.276101 -0.067228 0.138302 -0.087286 -0.241890 0.087529 -0.656799 -0.950177 -0.545241 0.305894 0.962040 0.058490 0.372525 -0.278124 -0.102074 0.077732 0.487774 -0.449919 -0.194010 -0.355885 0.276682 -0.057109 0.164065 0.013794 -0.206336 0.402397 0.123493 -0.073913 -0.640852 -0.217234 0.145009 0.396929 -0.505647 0.254200 -0.792746 -0.378108 -0.498921 0.972944 -0.442575 -0.192091 0.396988
Ne4 -0.341434 0.534722 -0.388161 0.613347 -0.197782 0.227602 -0.298923 0.092167 -0.682804 0.072409 -0.037571 0.156979 -0.341102 0.251972 -0.147202 -0.115349 -0.864420 -0.659701 0.395798 1.160417 -0.171824 -0.261363 0.199178 0.236607 0.059570 0.435913 0.179207 0.178376 -0.000759 0.367898 -0.367321 0.302621 -0.564760 -0.300088 -0.306967 0.472376 -0.571702 0.650928 -0.587078 0.113478 -0.155982 0.112565 -0.162289 -1.010299 -0.319605 -0.493850 0.251472 0.205955 0.463734 -0.038992
f3 -0.281526 0.811950 -0.177920 -0.521837 0.226065 0.064173 -0.054744 0.186389 0.121999 -0.339906 0.308076 0.052541 -0.248484 -0.026075 0.038638 0.610007 -0.215902 -0.884240 0.016461 0.971346 -0.527360 -0.061405 0.043403 -0.212836 0.229623 -0.305630 0.143448 0.350404 0.003127 -0.020677 -0.317627 0.517906 0.110194 -0.206683 0.181253 0.403773 0.006771 0.091432 -0.240255 0.158710 -0.170127 0.226112 -0.243750 -0.375369 -0.548139 -0.157532 0.128435 -0.064231 -0.256012 0.182266
Qe2 -0.018508 0.235877 -0.207072 -0.539612 -0.024011 -0.395122 0.009983 0.439337 -0.255367 0.240103 -0.251461 -0.351073 -0.424902 -0.106794 -0.072579 0.104200 -1.768945 -0.998401 0.015842 0.936966 0.347781 -0.054383 0.106269 -0.635460 0.322528 -0.068828 -0.114047 0.034104 -0.013832 0.069233 0.641814 0.153202 -0.087897 -0.554530 -0.477389 0.183487 -0.229592 0.055402 -0.482656 -0.147441 -0.528395 0.871049 -0.100560 -0.270003 0.000526 -0.578185 -0.122794 0.033810 0.183476 0.365204
Rc8 -0.492201 1.357414 0.141030 -0.502298 0.042804 0.362682 0.198491 0.248117 -0.632468 0.516679 0.124068 0.177912 0.441008 -0.245089 0.138333 -0.332796 -0.501175 -0.517139 0.074991 0.432748 0.594317 -0.101567 -0.292997 0.155580 0.202086 0.167894 0.448853 0.103982 -0.004173 0.547508 -0.106312 0.385156 0.248472 0.061800 -0.029242 -0.021231 0.247591 0.002324 0.185196 -0.285049 -0.311458 0.077740 -0.087344 -0.342999 0.283607 0.109792 -0.416033 -0.314513 -0.396992 0.422251
e3 -0.438429 1.303070 -0.430782 -0.043147 -0.043911 -0.269335 0.180183 0.830268 0.090510 -0.074319 0.245159 0.203959 -0.716926 0.491964 -0.879787 0.397251 0.053416 -1.108262 0.042975 0.456599 0.458674 -0.350598 -0.380982 0.236298 -0.485525 0.280994 -0.187670 0.257730 -0.085420 -0.701923 -0.086517 0.634827 0.417041 -0.223339 -0.495760 0.447445 -0.068656 -0.162575 -0.042497 0.819170 0.017678 0.600711 0.031917 -0.163669 -0.493091 -0.805767 0.484406 -0.416315 -0.138235 -0.052909
Be6 -0.096278 0.665437 -0.265882 -0.244954 0.180699 0.211229 -0.254487 0.771473 0.181238 -0.561241 0.051369 0.448588 -0.123663 -0.089636 0.229499 -0.031130 -1.018329 -0.560827 0.091879 1.159315 0.328484 0.127450 -0.438107 -0.102421 0.369130 -0.063216 -0.447472 0.045933 -0.721174 0.085694 0.400731 -0.240225 0.581626 -0.207752 0.201353 0.160012 0.099366 -0.234108 0.403995 -0.086419 0.251819 -0.340288 0.508681 -0.394212 -0.671481 -0.397636 0.083716 -0.459232 0.176398 -0.110385
cxd5 -0.519821 0.874655 -0.377242 -0.558023 0.237439 0.439254 -0.247605 0.886989 -0.182260 -0.050998 0.309011 0.139402 -0.455982 0.835255 -0.508002 -0.357996 -1.201930 -0.894938 0.171983 0.830141 0.017434 -0.035862 -0.329331 0.275795 -0.319159 1.184806 -0.408518 -0.101154 -0.220160 0.157286 -0.077821 0.612105 0.721496 -0.229199 -0.153448 -0.068944 -0.098601 -0.256799 -0.342376 0.641316 0.505539 0.020162 0.152308 -0.055641 -0.506458 -0.618462 0.688625 -0.418190 -0.322604 0.115223
Bg2 -0.367301 1.026461 -0.123424 -0.276686 -0.484176 -0.428668 0.055222 0.620881 0.226601 -0.079447 0.382869 0.271991 -0.382519 0.558963 -0.415436 0.128503 -0.297568 -0.937795 -0.024560 0.867992 -0.236454 -0.068296 -0.526597 0.232728 -0.124073 0.167061 -0.304629 -0.042785 -0.127535 -0.544404 0.250130 0.130883 0.635979 -0.207594 -0.062707 0.601868 -0.112086 -0.075465 -0.322075 0.433224 -0.239869 0.489343 0.189370 0.158590 -0.501285 -0.660892 0.735396 0.071229 -0.175272 -0.401747
Bb7 -0.461071 1.342407 -0.352065 0.076610 -0.350906 0.013407 0.205745 0.267303 -0.252112 -0.005032 0.329899 0.301245 -0.355448 0.523251 0.067919 -0.447756 -1.102237 -0.799008 0.080626 1.226171 0.026901 0.064131 -0.627844 -0.189898 0.166130 0.226900 -0.255946 0.039840 -0.310121 0.124523 0.085078 -0.426642 0.694456 0.009824 -0.362638 0.521549 0.086436 -0.182258 -0.248127 0.271629 -0.329339 0.326379 0.148757 -0.663404 -0.381345 -0.563502 0.154787 -0.160102 -0.273361 0.159966
f6 -0.150792 0.609674 -0.255650 -0.001327 -0.118875 0.128351 -0.383491 -0.186049 -0.009497 0.114191 0.089796 0.116212 0.291681 -0.423701 -0.071483 -0.247151 -0.510581 -0.236551 0.401180 1.113566 -0.438016 0.137318 -0.436991 0.000930 0.208708 -0.292916 0.195654 -0.067246 -0.424941 0.191645 0.275358 -0.491417 0.554585 -0.081623 -0.252836 -0.181968 0.122095 -0.116906 -0.215002 -0.145008 0.084334 0.160913 -0.355452 -0.026773 0.219943 -0.462065 -0.232237 0.052302 0.209856 0.107173
Qc2 0.156555 0.854809 -0.363627 -0.434304 0.197188 -0.498020 -0.116582 0.073061 0.016309 0.015767 -0.518252 -0.480659 -0.316201 0.490797 -0.194363 0.067639 -1.797406 -1.051301 -0.089973 0.743163 0.061708 0.338119 0.118862 -0.254865 0.201879 0.281681 0.153736 0.249687 0.122901 -0.155036 0.235437 0.412932 -0.012031 -0.505141 -0.528873 0.288288 -0.081538 0.508730 0.061377 -0.195899 -0.270282 0.945789 -0.226328 -0.345824 -0.340361 -0.751988 0.351676 0.025445 0.282322 0.628923
Kg7 -0.348658 0.250038 -0.332321 0.247258 0.394928 0.393442 -0.240713 -0.171789 0.282640 0.609832 -0.820626 -1.089696 0.397916 -0.618240 0.705826 0.588123 0.775553 -0.128959 0.036724 -0.252735 -0.286007 -0.164094 -1.482351 0.765724 -0.536483 -0.492366 -0.087935 0.297356 -0.246661 1.102669 0.730152 -0.225289 -0.303709 -0.201982 -0.113513 0.184345 -0.447838 0.160608 0.262952 -0.641048 0.226201 0.545534 -0.041017 0.295187 0.135389 -0.655424 -0.184867 -0.201805 0.423362 0.355335
Bc4 -0.599577 1.239756 -0.536068 0.015714 -0.060872 0.022703 -0.080630 0.622202 0.136141 -0.240280 0.131856 0.300501 -0.403874 0.454179 -0.061825 -0.138553 -0.362595 -0.848972 -0.180260 0.640219 0.614859 -0.258236 -0.372626 -0.031307 0.180005 0.006687 -0.670897 -0.056198 -0.219500 -0.223924 0.187507 -0.248929 0.486336 -0.404231 -0.127046 0.230973 0.026972 -0.181321 0.544149 0.122047 0.164062 -0.188141 0.438713 -0.067047 -0.490746 -0.601279 0.422858 0.189536 0.032483 -0.253214
Rc1 -0.234905 1.474575 0.312434 -0.714703 0.183061 0.206443 -0.055922 0.284602 -0.762276 0.135663 -0.039585 0.333859 0.200136 -0.021965 0.087934 -0.315201 -0.242147 -0.432381 -0.223463 0.309349 0.395452 -0.240994 -0.037933 0.408155 0.162856 0.165886 0.635375 -0.119072 -0.164350 0.168581 -0.148685 0.545684 0.181642 0.070315 -0.179071 0.019733 -0.203145 0.119426 -0.024695 -0.456387 -0.363576 0.346796 0.008855 -0.419052 -0.011583 0.007181 -0.259909 -0.645916 -0.006779 0.473027
Nd4 0.017824 0.544159 0.806524 0.189646 -0.156064 -0.184628 -0.365251 0.443112 0.608604 0.155924 -0.161117 0.667496 0.280163 -0.462384 0.161027 -0.219881 -0.788057 -0.548348 0.062970 0.941772 0.086157 0.095369 -0.130245 0.395259 0.677573 0.344620 -0.222132 0.323409 -0.137888 -0.008961 0.118105 0.093260 0.380284 0.407800 0.793624 0.149773 0.212553 -0.180848 -0.110500 -0.148638 -0.705444 -0.136352 -0.025158 -1.029614 -0.092894 -0.318623 -0.025595 -0.275591 -0.137386 -0.264687
Bf4 -0.131511 0.549253 -0.508734 -0.441200 -0.052172 -0.219460 0.030259 -0.167621 -0.017813 0.541634 0.221189 0.382497 -0.274910 -0.232730 -0.216734 0.000718 -0.938008 -1.419749 0.149828 1.355754 -0.098178 -0.169581 0.176609 -0.210463 -0.023505 -0.207441 -0.289711 -0.134570 0.053580 -0.335675 0.167305 0.317816 0.214513 -0.027246 -0.136632 -0.165771 -0.186923 -0.147120 -0.255518 0.071218 0.556179 -0.019415 0.210314 -0.215402 -0.040537 -0.541127 -0.117558 0.398527 -0.279149 -0.336518
Nd2 0.047213 1.213495 -0.353260 -0.131890 0.168187 -0.323059 0.345054 0.100784 -0.377266 -0.340404 -0.340250 0.311540 -0.175602 0.331092 -0.172380 0.199854 -0.844377 -0.952488 0.401254 1.163822 0.118464 -0.050808 0.160391 -0.133930 0.285074 -0.068846 0.613359 0.127395 0.079743 -0.345860 0.497877 0.205254 -0.044071 -0.047551 -0.304248 0.744530 -0.292220 0.378485 0.052102 0.270286 0.098856 0.416847 -0.331399 -0.656855 -0.163473 -0.124827 0.084760 0.192294 0.319124 -0.260327
Qe7 -0.309556 0.062190 -0.262760 -0.303560 -0.162260 -0.060409 -0.111865 0.479166 0.126919 0.225517 -0.162406 -0.522714 -0.074376 0.149305 0.088332 0.237521 -1.889619 -0.629670 -0.042327 0.878797 0.108786 0.010859 -0.203874 0.016802 0.138289 -0.039108 0.159577 -0.020966 -0.400548 0.468846 0.368715 -0.005169 -0.124681 -0.608747 -0.428728 -0.141416 -0.226790 0.446801 0.068927 -0.010315 -0.515501 0.824374 -0.007735 0.054354 -0.276927 -0.609340 0.047161 0.166166 0.383979 0.378167
dxe5 -0.110472 0.105594 -0.553050 -0.402906 0.396128 0.117784 -0.213904 0.057894 0.474205 -0.439707 0.282054 0.225657 -0.707205 -0.574012 0.023334 -0.605835 -1.645779 -0.872639 0.404212 1.188616 0.031579 -0.232039 -0.538218 0.042939 0.039255 -0.513517 -0.141970 -0.050168 -0.264067 0.137625 -0.081975 0.072394 1.082733 -0.370602 -0.570543 -0.053237 0.121524 0.376734 -0.411690 -0.045338 0.041893 0.414694 0.313521 -0.527194 0.500144 -0.796013 0.248199 0.680598 0.280551 -0.629950
Rd1 -0.179789 0.480941 -0.264517 -0.107385 -0.178854 0.375530 -0.384925 0.333149 -0.122835 0.180390 0.245859 0.177858 0.099129 -0.011957 0.185362 0.040634 -0.111228 -0.673607 -0.149947 0.113163 -0.151779 0.065862 -0.015617 -0.065795 0.352075 -0.355599 0.299574 0.093161 -0.182844 -0.256975 0.157964 0.020732 0.442527 -0.698743 0.362712 -0.130052 0.025105 0.255434 -0.302742 -0.827068 -0.044176 0.068116 0.281828 -0.658954 0.066562 -0.499173 -0.098679 -0.438132 0.280091 0.444178
Bd2 0.011425 1.152686 -0.206860 -0.137165 0.305330 -0.239309 -0.017487 0.490731 -0.319151 0.727810 -0.567843 0.486225 -0.446884 -0.145224 -0.191929 -0.167769 -0.849111 -1.082907 -0.034770 1.448028 0.088695 0.711782 0.319639 -0.097276 -0.035756 0.265114 -0.147633 -0.539230 -0.059598 -0.413999 0.508238 0.395402 -0.419099 -0.136999 -0.509542 0.218256 -0.177895 0.235161 0.086548 0.210711 0.575490 -0.104732 -0.810911 -0.282733 -0.237678 -0.039584 -0.099666 0.223638 0.050123 -0.141611
Bd6 -0.375762 0.887282 -0.427958 -0.390465 0.164749 -0.151748 0.091920 -0.032531 -0.034893 0.388873 0.224786 0.739569 -0.271555 0.060523 0.028838 -0.214909 -0.650380 -1.367128 -0.201660 1.313791 -0.187915 -0.419683 0.360588 -0.051183 -0.051618 -0.063398 -0.227255 -0.213438 0.290301 0.185433 -0.015952 0.378721 -0.120217 0.057655 -0.766638 -0.265893 -0.509891 -0.147335 -0.222300 -0.129963 0.683452 -0.192624 0.110059 -0.309901 0.141352 -0.381295 -0.557070 0.695075 0.249238 0.152210
Rd8 -0.472256 0.452534 -0.303170 0.347792 -0.445237 0.596151 -0.209340 0.280387 -0.108118 0.244185 0.392601 -0.123055 0.369666 -0.145845 0.232898 0.196676 -0.323210 -0.535328 -0.059619 0.123018 -0.131360 0.151808 -0.236237 -0.106074 0.146042 -0.485127 0.398805 0.471788 -0.470522 -0.008371 -0.213817 0.017448 0.365504 -0.635648 0.106147 -0.089257 0.217014 0.054970 0.207835 -0.572859 0.261755 0.176976 0.305812 -0.540765 0.089904 -0.456602 -0.018036 -0.297707 0.110417 0.396073
Rb8 0.278020 1.349572 -0.153402 0.092032 0.278918 -0.187260 -0.060375 -0.143967 0.373322 0.355883 -0.446940 0.051078 0.043927 0.038763 0.102624 -0.338432 -0.316218 -0.717131 0.483790 0.312251 0.043361 0.435968 -0.297349 0.066035 -0.109382 0.150709 0.592751 0.238793 -0.328261 0.596422 0.315467 0.260786 0.306261 -0.581606 0.455012 0.013636 0.303306 -0.234695 0.642623 -0.359586 0.434349 0.594311 0.236558 -0.161783 -0.354849 0.575184 0.158282 -0.223015 -0.584273 -0.148643
Kg2 -0.142990 -0.147742 0.020643 -1.141413 -0.149241 -0.682148 -0.676986 0.052581 -0.257675 0.334902 -0.454965 -0.670254 -0.276169 -0.487364 0.524317 0.895992 1.274044 -0.754644 -0.140308 -0.453871 -1.009105 0.100202 -0.201885 -0.560658 -0.240101 0.073468 0.731277 -0.214749 0.111399 0.390415 0.655708 -0.167430 0.108530 0.411307 0.176096 0.130539 -0.265364 1.030315 0.224231 -0.453229 -0.012175 0.471622 -0.079702 -0.666962 0.237205 -0.509388 -0.091013 -0.009585 0.017995 0.659600
Nbd7 -0.496797 1.834323 -1.126870 -0.679998 0.181688 -0.537791 0.292114 -0.373173 -0.045222 -0.358472 0.508879 -0.078445 -1.578529 0.672747 -1.194268 -0.511211 -1.709134 -1.752104 0.388328 1.739222 0.647759 -0.503305 -0.761342 0.160238 0.288609 -0.006608 -0.618836 0.415115 0.567839 -0.543488 -0.040226 0.357498 0.760329 -0.226879 -0.393107 -0.123561 -0.346001 -0.025880 -0.363371 1.232995 -0.114054 0.559027 -0.228047 -0.382199 -0.785928 -0.749321 0.459694 0.736474 0.267681 0.232680
Nxd5 -0.399658 0.586356 -0.306608 -0.335397 0.166172 0.462409 -0.179736 0.940538 -0.650906 0.184267 -0.253299 0.001231 -0.381107 0.413423 0.069266 -0.875442 -1.291165 -0.732482 0.239628 0.688472 0.414921 0.366131 -0.244910 0.165991 -0.123708 1.042133 -0.869913 -0.184138 -0.494830 0.437909 0.123638 0.491904 0.402736 -0.172271 0.343255 -0.132431 -0.107592 -0.988614 -0.545881 0.404866 0.902654 -0.589941 0.561200 -0.701000 -0.451444 -0.783181 0.939138 -0.822729 -0.487267 0.564234
Kf7 -0.669941 0.432167 -0.081876 0.184797 0.751436 0.752836 0.123195 -0.234830 -0.158573 0.063409 -0.753336 -0.096069 0.983825 -0.697107 0.625014 0.511462 0.856947 -0.884086 0.008034 -0.070619 -0.836345 0.569325 -0.629403 0.764640 -0.189883 -0.213893 -0.149961 0.238434 0.128670 0.536427 0.113417 0.047812 -0.089026 -0.325232 0.558985 -0.373559 0.306433 -0.291403 -0.245051 0.269187 0.496256 -0.460622 -0.601907 0.586691 0.755166 -0.218721 -0.475623 -0.222658 0.803455 0.052650
Bg4 0.037169 0.644318 0.274390 -0.691850 0.100073 0.050768 -0.378201 0.697162 0.534403 -0.294225 0.475586 0.379049 -0.554634 -0.012072 -0.091399 0.417490 -0.833583 -0.910143 -0.042462 1.446721 -0.038057 -0.201878 -0.417982 0.155070 -0.273292 -0.418983 -0.781926 0.166833 -0.163345 -0.286508 0.163396 0.343629 0.516018 -0.055479 -0.182832 0.538994 -0.151846 0.001461 0.212926 0.220026 -0.136306 0.234556 0.172335 -0.194393 -0.706422 -0.389032 0.086816 0.275999 0.281594 -0.149244
Nxe4 -0.328573 0.434327 -1.067781 0.572374 -0.066477 0.152855 -0.279057 0.253219 -0.579723 -0.454566 -0.103615 -0.105075 -1.038992 0.480052 -0.115859 -0.139834 -0.954467 -0.982104 0.693124 1.066740 0.245729 -0.569414 0.087078 0.368711 -0.185437 0.627802 0.219343 0.316945 0.090528 0.031962 -0.825262 0.453143 -0.895050 -0.763893 0.093356 0.881732 -0.516679 1.078373 -0.734082 0.254083 -0.228810 -0.128760 -0.214578 -1.008530 -1.094938 -0.925740 -0.181902 0.824445 0.012227 -0.248880
Kf2 -0.629015 0.343334 0.600144 -0.492476 -0.075279 0.279417 -0.858951 -0.113077 -0.414358 -0.235320 -0.533186 -0.362134 -0.054361 0.258433 0.692489 1.263498 1.380601 -0.822840 -0.515445 -0.009895 -0.629772 -0.084001 0.264113 -0.341978 0.153023 -0.090448 0.853031 0.005913 -0.223558 -0.044908 -0.036471 -0.980542 0.631882 0.224243 0.504534 -0.006938 0.069832 -0.262718 0.242754 0.241863 0.112706 -0.006372 -0.312495 -0.507418 0.474430 0.010242 -0.027609 -0.619813 0.097603 0.398779
Nc5 0.052883 0.834157 -0.347448 0.720706 -0.229949 -0.097459 0.026481 -0.023412 0.261982 0.251827 0.159062 0.585773 0.038927 0.182396 0.464051 -0.342482 -0.819449 -0.563527 -0.007177 0.799084 -0.123496 -0.022430 -0.096242 0.139810 0.692811 0.758095 0.536775 0.993582 0.476196 0.340439 -0.208092 -0.421819 0.330884 -0.354478 0.171198 0.040993 0.033405 0.457974 0.354459 -0.050393 -0.730631 -0.023637 -0.291375 -1.063533 -0.183976 -0.009970 -0.012112 -0.206481 0.803455 0.214042
Nxe5 0.095397 -0.123760 -0.072564 -0.175260 0.225269 -0.337121 0.164948 -0.350240 0.303437 -0.333924 -0.017506 0.575220 -0.726764 -0.890096 0.386522 -0.627054 -1.307075 -1.058734 0.301864 1.148337 0.550471 -0.553273 -0.324659 0.239870 -0.018360 -0.751297 -0.071014 0.288962 -0.315757 -0.068549 -0.368257 -0.124123 1.078247 -0.001377 -0.928521 -0.270456 -0.274852 0.289230 -0.577847 -0.377100 0.006422 0.540510 0.605690 -0.957913 0.891068 -0.967093 0.630882 0.724044 0.052860 -0.544743
Qd7 -0.015929 0.181852 0.639519 -0.638603 0.216723 -0.616923 -0.188515 0.323892 -0.008897 0.383258 -0.261949 -0.362597 0.402677 -0.216026 0.118585 -0.111639 -2.031590 -0.922622 0.059239 0.758024 -0.063293 0.355007 -0.013266 -0.347589 -0.101817 0.202357 -0.136807 -0.008946 -0.135445 0.576130 0.564253 0.609670 -0.223726 -0.210541 -0.110658 -0.099393 -0.098543 0.027313 -0.173669 -0.081128 0.013206 0.539317 -0.207055 0.058439 -0.015958 -0.614953 -0.169358 -0.294123 -0.182500 0.252484
Ke7 -0.565578 0.268595 -0.735164 0.590609 0.133699 1.287696 0.177951 0.533918 0.284578 -0.469403 -0.212858 0.680070 0.666009 -0.951493 0.684716 -0.036231 0.925912 -0.729195 -0.434626 0.244299 -0.065855 -0.499341 -0.770074 0.787803 0.559522 -0.547715 1.172190 -0.298432 -0.529803 0.694575 0.326018 -0.691931 0.120455 -0.471270 0.523462 -0.440373 -0.337949 -0.030200 -0.183475 0.697899 0.276495 -0.264970 -0.047188 0.693050 0.480221 0.522828 -0.316808 0.352398 0.689454 -0.115296
d3 -0.133117 1.131969 -0.211560 -0.361588 -0.556563 -0.456775 -0.216908 0.545336 -0.094827 0.051255 0.091506 0.750715 -0.735715 -0.125543 -1.040491 -0.069839 0.185635 -0.953917 0.154558 0.558333 0.120470 0.052766 -0.067877 0.315064 -0.291794 -0.121774 -0.682098 0.296565 0.035401 -0.982804 0.113908 0.437169 0.530666 -0.265381 -0.658764 -0.063946 0.130568 0.031743 -0.079010 0.265330 0.060040 0.427342 -0.348603 0.014558 0.071565 -1.256553 0.423686 -0.257145 -0.317679 -0.274534
Qb6 -0.196666 0.632387 0.109243 -0.181701 -0.083145 -0.413634 -0.003653 0.536900 0.084517 0.180138 -0.367527 -0.118480 -0.046463 0.111271 -0.067166 -0.468074 -1.826109 -0.871756 -0.180692 0.591664 0.653607 0.146477 -0.353070 -0.154812 0.584901 0.564829 0.012832 0.202015 0.099902 -0.062290 0.276761 -0.222474 0.292551 -0.291263 -0.221677 -0.041228 -0.114522 0.217679 -0.072677 -0.120158 -0.537046 0.682614 -0.190282 -0.325270 -0.205660 -0.691717 -0.452086 -0.112430 -0.293870 0.604910
Bf5 -0.009594 0.689124 -0.369739 -0.276416 -0.287436 0.270376 -0.708063 0.216345 0.028143 -0.483996 -0.057768 0.446373 -0.442932 0.346736 0.119070 0.251474 -0.625967 -0.759275 0.043684 1.117494 -0.022967 -0.479307 0.016957 0.332845 -0.374686 0.376889 -0.366655 0.448964 -0.227757 -0.024800 -0.204462 0.242420 0.126483 -0.172602 -0.652481 0.149507 -0.250320 0.090790 0.188228 -0.058432 0.197074 -0.004272 -0.218258 -0.008242 -0.679023 -0.543896 0.139698 -0.021994 0.313079 -0.184155
Nc4 0.324783 0.754400 -0.356985 0.180836 0.306980 -0.413075 0.901448 -0.292065 -0.386168 0.080247 -0.222704 -0.183624 0.168673 -0.312550 0.213928 -0.240882 -0.803032 -0.648229 0.048154 1.079652 0.413424 0.151091 0.065507 -0.308580 0.794915 -0.232867 0.534812 0.251655 0.177330 -0.291979 0.021149 0.082231 0.124517 -0.075764 0.308205 -0.052435 -0.422553 -0.281661 -0.022978 -0.290059 0.443628 0.061910 0.411087 -1.046721 0.199193 0.075000 0.472091 -0.691422 0.532693 -0.277111
Kf8 -0.594160 0.358152 0.343587 0.478133 -0.118557 0.602368 0.053389 -0.006903 -0.602613 0.067836 -0.613607 -0.209964 0.446172 -0.517228 0.576065 0.570595 -0.140249 -0.937813 0.549850 -0.303541 0.644342 0.661426 -0.198112 1.265163 -0.644780 -0.096067 0.213459 0.533878 -0.771091 0.387225 0.396528 -0.845294 0.404994 -0.170809 0.787353 -0.625156 0.179096 0.194878 -0.471623 0.298450 0.555680 -0.537287 0.228539 0.610241 0.421354 -0.050763 -0.390510 0.239046 0.799088 0.719855
Rb1 0.595385 1.329287 0.100574 -0.212621 0.141057 -0.532469 -0.379539 -0.058702 0.304172 -0.113017 -0.709218 0.475598 -0.312503 0.143038 -0.370986 -0.366825 0.045251 -0.958278 0.077389 0.218432 -0.318464 0.416757 0.092038 0.201205 0.055438 0.356764 0.866198 -0.237826 -0.076893 -0.025171 0.303245 0.269059 0.166861 -0.342869 0.380401 -0.272276 0.135656 0.214926 0.604991 -0.699586 0.205284 0.671087 -0.034340 -0.298106 -0.086087 0.407084 0.101904 -0.368466 -0.226017 -0.119938
Ne2 -0.532331 0.817714 0.236255 -0.375868 -0.039938 -0.134307 -0.791966 0.808647 0.443226 0.093451 0.133925 0.138217 -0.388212 0.161951 0.005859 0.224668 -0.733764 -0.380124 -0.156667 1.573502 -0.101903 -0.124348 0.489248 0.507093 0.623983 0.062144 -0.233462 -0.297727 0.398512 0.230661 0.299888 0.083686 0.131126 -0.286923 0.379883 0.152263 0.041720 -0.211819 0.684513 0.000495 -0.720539 -0.238280 -0.596275 -0.265208 0.202240 -0.015830 0.013510 0.200214 -0.045774 0.308741
Bb5 -0.526258 1.287160 0.114007 -0.204422 -0.118332 -0.015960 -0.061337 0.288032 0.111072 -0.011989 0.316858 0.338723 -0.218907 0.215938 0.047994 -0.314452 -0.400246 -0.862613 -0.124257 0.640570 0.653841 0.040251 -0.208763 0.222484 -0.032123 -0.208452 -0.056449 -0.062404 0.147665 -0.220429 0.048316 -0.507988 0.801018 0.100490 -0.474029 0.355739 -0.263370 -0.154436 0.394268 0.090188 -0.012254 0.522637 0.093414 -0.104214 0.160520 -0.226868 -0.108178 -0.064526 -0.235855 -0.219388
Kh1 0.276011 -0.453957 -0.040462 -0.882907 -0.481032 -0.635506 0.469414 0.039552 0.506932 -0.481794 0.771335 -0.653876 -0.931118 -0.141109 -0.265136 -0.250559 -0.616796 -1.498122 0.021773 0.214947 -0.540250 -0.143291 0.536859 -0.274016 -0.561113 0.625075 -0.136485 -1.020436 -0.007519 -0.062067 1.096866 0.113442 -0.576483 0.526187 0.254287 -0.414184 0.162091 -0.315130 -0.096271 -0.362573 -1.848474 0.535393 0.675576 -0.771830 -0.158961 -1.060042 0.099658 -0.274606 0.497472 0.129260
Bxf6 -0.376608 0.281360 -0.951622 0.028269 0.119613 0.659628 -0.378104 -0.108272 -0.353528 0.546605 0.035575 0.284290 -0.999242 -0.291122 -0.858890 -0.381293 -1.494735 -0.921398 1.011236 1.010958 0.108697 0.489478 -0.611940 -0.036917 -0.309043 0.048449 -0.134808 -0.143181 -0.630142 0.459962 -0.415825 -0.936301 -0.289933 0.094616 0.228181 -0.027851 0.008171 -0.552343 -0.872737 0.075485 -0.014534 0.153152 -0.059618 -0.060638 -0.696364 -0.956966 -0.648440 -0.208360 -0.105587 0.337177
Kh8 0.121051 0.334905 -0.145948 0.026300 -0.070789 -0.185580 0.308089 0.170916 0.610671 0.388150 -0.032795 -1.432257 -0.204485 -0.135321 -0.302265 0.511639 -1.215459 0.368025 1.192708 0.260619 0.442208 0.374961 0.493408 0.282522 -1.250925 0.245136 -0.662087 0.784343 -0.991750 1.077454 0.203251 0.099712 -0.309201 0.097320 -0.438301 0.199302 0.798007 -0.409075 0.154154 0.033770 -0.702779 0.207836 0.388540 0.260474 -0.470076 -1.716617 0.121493 -0.388696 1.013996 -0.086786
Ne7 -0.492360 0.743197 0.488417 -0.108511 -0.265795 -0.629402 -0.252580 1.034386 -0.347803 -0.222125 -0.037457 0.187038 0.248142 -0.576296 -0.095938 -0.203942 -1.040709 -0.142407 -0.022533 1.487450 -0.450270 0.618996 0.027208 0.302000 -0.002353 -0.076562 -0.262879 -0.464529 -0.518140 0.185490 0.470052 0.035536 0.061141 -0.279464 -0.402295 0.179067 -0.189386 -0.736667 0.026221 0.253291 0.697214 -0.049115 0.153622 0.052301 0.234032 -0.134985 -0.087951 -0.522237 0.122292 0.005701
Ke2 -0.585865 0.214773 -0.328647 -0.463698 0.142085 0.273160 -0.428916 0.619005 -0.481699 0.338979 -0.573689 0.333169 -0.540696 -0.302967 0.625337 0.780582 1.734012 -0.239204 -0.169793 0.081199 0.045739 0.306618 1.049356 -0.544240 0.805742 -0.462107 1.690418 0.181453 -0.516246 -0.059900 -0.033370 -0.422297 0.487900 -0.131171 -0.067875 0.677488 0.109060 -0.162582 -0.320621 0.456874 0.548908 -0.227201 -0.313060 -0.384711 0.767823 0.297478 0.103307 0.098811 0.273750 -0.314975
O-O-O 0.145179 -0.873629 0.044514 -0.799917 -0.491248 0.262436 -0.386983 0.828083 -0.504088 0.116060 -0.441773 0.645310 -0.972097 -0.159409 -0.432358 -0.592012 -2.712086 -0.798794 -0.466217 2.972986 0.139213 -0.445850 -0.279199 -0.419199 1.079281 -0.148687 -0.887806 0.475230 0.562553 -0.199341 -0.538791 -0.498211 0.136528 -2.191442 -0.210893 0.017387 0.040491 -0.582996 0.087523 0.445751 0.305571 -0.416379 0.114769 -0.015426 -0.446252 -0.105044 -0.792869 0.598208 -0.519960 -0.487747
Bc5 -0.071065 0.781401 -0.245471 0.127308 -0.446665 -0.330163 0.020899 0.786657 0.365376 0.346478 0.130738 0.338994 -0.233026 -0.243126 -0.030659 -0.348294 -0.219419 -1.119560 -0.256250 0.574378 0.214031 0.158217 0.066508 -0.193434 0.079577 0.255654 -0.094346 0.001960 0.091047 -0.584159 0.174725 0.278519 0.294386 -0.023261 0.034552 0.317763 0.148793 -0.368778 -0.308015 -0.110632 0.432358 -0.191608 0.280200 -0.623853 0.105141 -0.559891 -0.847012 0.180109 0.315306 -0.180019
Nb6 0.041964 1.389198 -0.306698 -0.082416 0.516085 -0.095454 0.808122 0.085520 -0.472394 -0.122094 0.196482 -0.440461 -0.075296 0.128428 0.330818 -0.700096 -1.193319 -0.786075 -0.125658 1.161578 0.433120 0.068274 -0.369135 -0.419131 0.614354 0.079192 0.305252 0.382189 0.173736 0.040216 -0.204126 0.015471 0.442307 -0.326115 0.008435 -0.067923 -0.419220 -0.500210 0.296049 0.150216 0.618284 -0.022885 0.030897 -0.565644 -0.313601 0.206589 0.189834 -0.139172 0.426317 0.445224
Qd3 -0.030767 0.117015 0.143737 -0.508923 0.333243 -0.365711 -0.266379 0.374117 -0.300766 0.329033 -0.642281 -0.523560 0.016920 0.116869 0.141417 0.033720 -1.468941 -0.884390 -0.012594 0.614581 0.381981 0.066092 0.084737 -0.294907 0.241515 0.392735 0.149407 -0.042651 0.004020 0.150852 0.372440 0.501669 -0.489957 -0.225766 -0.191609 0.157530 -0.359618 -0.020034 -0.057923 -0.496674 -0.260775 0.670015 -0.396074 -0.122792 -0.048943 -0.688132 -0.309598 -0.229272 -0.163568 0.302327
Bb4 -0.268662 1.561207 -0.488506 -0.023832 -0.174496 0.046807 0.008379 0.647822 -0.269875 0.472785 -0.057896 0.402291 -0.153690 0.325850 -0.218876 -0.366279 -0.315288 -1.127235 -0.199935 0.645181 0.246905 0.329022 0.224585 0.131487 -0.171675 0.208914 0.022886 -0.453353 0.224763 -0.581640 -0.208107 0.236701 -0.048990 -0.139708 -0.136873 0.465109 -0.140569 0.138294 -0.077633 0.136080 0.521283 -0.003516 -0.144627 -0.244012 -0.152193 -0.526826 -0.562544 0.326308 0.261443 -0.066770
Kf6 -0.132649 0.943674 0.315083 0.604170 0.098267 0.680913 0.511634 0.013150 -0.061207 -0.681450 -0.622555 -0.283418 1.003103 -0.659039 1.008138 0.853232 2.229411 -0.720732 -0.188859 0.149094 -0.696218 -0.314860 -0.360795 0.901103 -0.239220 0.075549 -0.322360 0.515579 0.092278 0.360068 0.042211 -0.356915 0.807237 -0.026306 0.435593 -0.273257 0.036605 0.278177 0.204172 -0.070498 0.436701 -0.432846 -0.050319 0.310627 0.754074 -0.025578 0.120232 0.008948 0.107716 -0.214994
Kf1 -1.064005 -0.097843 0.624316 -0.377217 -0.167545 0.575916 -0.313987 -0.188019 -0.363138 0.357201 -0.442797 -0.012220 -0.653200 0.222523 0.426789 0.843298 0.858477 -1.668863 -0.788728 -0.461907 -0.369884 0.623098 0.987047 0.228265 0.046425 -0.155026 0.598211 -0.166123 -0.241202 -0.574602 0.113049 0.150122 -0.234689 -0.130438 0.070111 -0.287761 0.090034 -0.109996 -0.499944 -0.176932 -0.321717 0.056404 0.048057 -0.863660 0.562006 0.069131 0.437020 0.000470 0.128363 0.275408
Ke3 -0.979863 0.766083 -0.113099 0.184382 0.099278 0.526965 -0.514495 0.479276 -0.079444 -0.056955 0.270828 0.290163 -0.320412 -0.043057 0.629247 0.463854 2.636387 0.183694 -0.139604 0.442295 -0.531919 0.094774 0.434974 0.218566 0.880154 -0.099098 0.955864 0.067693 -0.865259 0.041125 -0.454729 -0.630014 0.792225 0.394878 0.149744 -0.141784 -0.244190 -0.095220 0.643648 -0.051769 -0.128583 0.009624 -0.367730 -0.058025 0.190263 0.387957 0.237975 0.285178 0.272523 -0.648507
Nf5 -0.375366 0.033307 0.840427 0.436544 -0.662148 -0.904418 -0.725994 0.133931 -0.123561 -0.087078 -0.199677 -0.373497 0.379499 -0.588116 -0.462725 0.336856 -0.815459 -0.090336 0.325412 1.409610 -0.457765 0.011327 0.124975 0.372354 0.194683 0.287296 0.060409 0.396158 -0.180725 0.154764 0.175586 0.325466 -0.488138 -0.063261 0.246077 0.302988 0.003508 -0.413270 -0.356680 0.129268 0.267781 -0.428610 0.016088 -0.674500 -0.089843 -0.273663 -0.430267 -0.116061 0.460809 -0.031987
Bb2 0.250521 1.602089 -0.383377 -0.240656 0.080906 -0.180677 0.154571 0.300020 0.492724 0.319949 0.109424 0.235391 -0.222878 0.070860 -0.547403 -0.229475 -0.793618 -0.875505 -0.105003 1.062511 -0.024692 0.229879 0.171790 0.143626 0.021215 -0.018245 0.018030 -0.321708 -0.097357 -0.424827 -0.211753 0.543150 0.289431 0.631765 0.074548 0.095502 -0.075579 0.406334 -0.557990 0.098777 0.219029 0.086428 -0.212790 -0.459628 -0.116221 -0.983354 0.197020 -0.084682 0.303323 0.026517
Rd2 -0.298681 0.421690 0.034901 -0.044251 0.019204 0.808024 -0.461475 0.396379 -0.118289 0.018723 0.360447 -0.067204 0.225727 -0.151127 0.199880 -0.016957 0.392764 -0.438923 -0.117918 -0.037818 -0.179883 0.095428 -0.085084 0.002498 0.261620 -0.005399 0.114485 -0.166647 -0.100163 -0.207316 -0.128876 -0.114289 0.130790 -0.617262 0.358638 -0.260657 -0.255702 0.051525 -0.072135 -1.659996 -0.346933 0.175499 0.229356 -0.546356 -0.185734 -0.034048 0.123454 -0.487834 0.384873 0.308414
Kh2 -0.142446 0.198980 -0.004314 -0.797245 -0.452990 -1.099500 -0.687798 -0.113360 -0.004237 -1.021355 0.268143 -1.253865 -0.103097 -0.228134 0.313926 0.365343 0.588845 -0.902978 -0.098744 -0.547862 -0.629402 -0.172585 0.767088 -0.740366 -0.457473 0.194647 0.079912 -0.829195 -0.083078 0.622193 0.948662 -0.375760 -0.293139 0.166580 0.251150 -0.330446 0.167462 0.448529 0.555023 -0.341843 -1.155713 0.570607 0.302157 -0.201421 0.030052 -1.181558 -0.001381 -0.556588 0.188956 0.770167
exd4 -0.375841 0.892735 0.359313 -0.010163 -0.184527 -0.042446 -0.070545 0.754618 0.468966 0.271328 -0.597515 0.620086 -0.363751 0.502112 -0.557554 0.145297 -1.027963 -0.790650 -0.058150 0.975068 0.118092 -0.168087 -0.185194 0.409730 0.114085 0.360303 -0.354960 -0.021017 -0.600067 -0.816879 -0.175021 0.204786 0.335777 0.258599 -0.041601 0.190098 0.573561 -0.477925 0.080504 0.301951 -0.299157 0.104199 -0.150575 -0.871519 -0.391729 -0.944751 -0.434853 0.578587 -0.594827 0.198809
Kf3 -0.812054 0.634214 0.036414 0.356188 0.343486 -0.010277 -0.418369 -0.252317 -0.628619 0.566571 -0.199815 -0.848319 -0.379165 -0.341510 0.369941 0.757636 2.614552 -0.742565 -0.476644 0.113594 -0.923485 0.211682 0.273535 -0.155941 0.228811 0.688759 0.625492 -0.217522 -0.334471 -0.239275 -0.589251 -0.544275 0.304077 0.495577 0.479770 -0.394901 -0.286789 -0.173753 -0.144980 -0.179610 0.544570 -0.301217 -0.276736 -0.069552 0.297080 0.100395 -0.075671 -0.261794 0.262837 -0.144799
Nf4 -0.604135 0.008801 0.352799 -0.217319 0.140439 -0.176362 -0.192216 -0.152975 0.106252 -0.379555 0.091602 -0.059199 -0.176077 -0.090313 0.064068 0.094798 -0.595823 -0.187438 -0.287835 1.379028 -0.393204 -0.132313 0.120065 0.458643 0.595307 0.034319 -0.596357 0.134538 0.160891 0.586312 0.328907 0.081054 -0.086169 -0.334129 -0.133157 -0.477731 -0.071415 -0.379061 0.462136 -0.332003 -0.380500 -0.696088 0.012686 -0.470101 0.240231 -0.196226 1.443686 -0.280501 0.317109 0.525387
Qb3 -0.002899 0.822181 0.156546 -0.435692 0.447761 -0.240417 0.261588 0.643660 -0.229211 0.042980 -0.445544 -0.354913 0.028086 0.544602 -0.012708 -0.445842 -1.772550 -0.932852 -0.395012 0.379877 0.420180 0.263719 -0.001625 -0.396530 0.337422 0.260536 0.088489 -0.012416 -0.144494 0.035882 0.055134 0.620985 -0.006585 -0.423598 -0.429738 0.055939 -0.330326 0.209278 -0.115510 -0.026623 0.113984 0.738086 0.019162 -0.414412 -0.261521 -0.765657 0.295691 -0.103012 0.081704 0.645209
Qf3 -0.184091 -0.490407 0.157772 -0.349184 -0.074945 -0.142225 -0.098176 0.145202 -0.293840 -0.069698 -0.195863 -0.832058 -0.236730 0.080760 -0.080790 0.240232 -1.307277 -0.946649 -0.038987 0.740756 -0.133865 0.209847 0.103046 -0.337160 0.225665 0.242276 -0.072910 0.010721 -0.207500 0.265029 0.558759 0.020867 -0.235220 -0.503025 -0.017006 0.037937 0.086696 -0.163835 -0.844929 -0.476838 -0.247901 0.165595 0.069271 0.072512 -0.010100 -0.746444 -0.228043 0.081029 -0.072713 0.754493
Qa5 0.089345 0.754449 -0.094911 -0.504033 0.164220 -0.135585 -0.378551 0.318854 -0.229052 0.302210 -0.680898 -0.099569 -0.128961 0.207532 -0.144899 -0.673861 -1.871875 -1.091692 -0.055031 0.631244 0.639711 0.416677 -0.233256 0.192532 0.408673 0.498475 -0.002130 0.061787 0.378160 -0.206037 -0.156114 -0.182979 0.132579 -0.976767 0.397512 0.268340 0.014741 0.199855 0.288570 -0.300472 -0.411923 0.643662 -0.135199 0.234759 -0.463365 -0.446554 0.059706 0.138481 -0.434277 0.403552
Bf6 0.084669 0.480869 -0.339903 -0.148700 0.189581 0.265990 0.046447 -0.122439 0.137692 0.731992 0.106563 -0.040046 -0.130647 -0.146690 -0.023067 -0.068824 -0.684864 -0.578577 0.205777 1.110548 -0.404745 0.613573 0.248714 -0.191425 -0.089901 -0.146091 0.101123 -0.232287 -0.242942 0.395423 -0.158572 -0.037981 -0.042460 0.118855 0.046097 -0.057943 0.445626 0.156946 -0.134810 -0.527927 0.303354 -0.417796 -0.151920 -0.077411 0.253263 -0.502598 -0.404784 0.313478 0.337342 0.110259
Rd7 -0.438160 0.447316 0.170628 0.345544 -0.419684 0.460642 0.017866 0.532867 -0.002230 0.444626 0.389699 -0.288807 0.866787 -0.372725 0.077071 0.400604 0.046644 -0.260508 0.440296 -0.126266 -0.256308 0.340237 0.202859 -0.364142 -0.185121 -0.191355 0.279638 0.398080 -0.154848 0.356302 -0.310779 -0.071423 0.229561 -0.393084 0.289865 -0.078802 0.168247 0.139359 0.274529 -1.126466 0.563878 0.020607 0.403566 -0.608126 0.308881 -0.308072 -0.186592 -0.055911 -0.255788 0.405812
Kh7 -0.438426 0.632633 -0.051259 0.226909 0.712180 -0.327157 -0.028628 -0.240572 0.738346 0.086113 -0.374807 -1.799772 0.678111 -0.691594 0.063307 0.426637 0.263976 0.018605 0.278690 -0.317959 -0.197168 0.174859 0.240661 0.270049 -0.586738 -0.554179 -0.836513 0.086625 -0.419178 1.027917 0.563491 0.525822 -0.724641 -0.471659 -0.411524 0.047081 0.325194 -0.348739 0.080941 -0.345839 -0.520390 0.688332 0.121172 0.634092 0.105457 -1.580985 -0.390729 -0.364878 0.738889 -0.023681
Kg8 -0.482723 -0.241134 -0.194542 0.110376 -0.361967 0.130875 0.225769 0.306705 0.417483 0.834390 -0.971293 -1.092240 0.437158 -0.250404 0.148612 0.756636 0.047414 -0.042721 0.840703 -0.425223 0.540319 0.625729 -0.669918 0.971378 -0.858004 -0.080131 -0.220419 0.725387 -0.408020 1.096215 0.192639 0.017701 -0.296749 0.353887 0.084475 -0.321914 -0.010038 0.596564 0.202985 -0.223588 0.438980 0.089314 -0.074839 0.440745 0.503908 -1.177087 0.146601 0.869561 0.891538 0.430071
Rc7 -0.539251 1.223580 0.381611 0.065836 -0.142545 0.341016 0.426321 0.224543 -0.331861 0.222262 0.148839 -0.275011 0.687527 -0.262171 0.190669 0.143483 0.090346 -0.137597 0.412761 -0.140200 0.319306 -0.033983 0.077630 0.128064 -0.247502 0.096536 0.807689 0.302150 -0.258245 0.812461 -0.203515 -0.156734 0.278762 0.063534 -0.297575 -0.147720 0.084244 0.212506 0.540518 -0.938624 0.036561 0.308076 0.237386 -0.396274 0.397516 0.237511 -0.284526 -0.014479 -0.311266 0.492802
Bb3 -0.071152 1.286899 -0.141067 -0.042138 0.006115 0.169590 -0.144165 0.445845 -0.117896 -0.661883 0.212815 0.227398 -0.105323 -0.129611 0.169235 -0.179798 -0.521526 -0.565205 -0.179125 1.103578 0.771274 -0.123083 -0.465186 -0.112358 0.369577 -0.021107 -0.850234 0.240186 -0.329596 -0.168347 0.278507 -0.378342 0.717226 0.090691 -0.298595 0.419274 0.016359 -0.076853 0.420469 -0.631080 0.217595 -0.487929 0.529722 -0.236243 -0.554034 -0.390907 -0.165250 -0.044169 0.400617 0.217583
Ng5 -0.287343 0.069475 0.254934 0.145880 -0.368399 -0.143395 -0.169796 0.061548 -0.279147 0.206853 -0.197447 0.150422 -0.340769 -0.054805 -0.185539 0.023305 -0.966898 -0.366287 0.213268 1.234773 -0.262212 -0.330866 -0.520748 -0.144560 0.032169 0.047309 -0.085140 0.109852 -0.529893 0.874762 0.113836 -0.088175 -0.464112 -0.076681 -0.303599 0.465616 -0.022426 0.799322 -0.004603 0.080520 -0.345671 -0.315217 0.102520 -0.612108 -0.232676 -0.516318 1.180266 0.972974 0.645994 -0.228813
Ke6 -0.071244 0.798887 -0.807605 0.638676 -0.168389 0.772124 0.704188 0.866951 0.005150 -0.481552 0.130492 0.171451 0.749397 -0.916368 0.287078 0.119446 2.375494 -0.264696 0.268144 0.518916 -0.727278 -0.014159 0.235082 0.690282 0.052680 -0.076676 0.810353 -0.203398 -0.122458 0.338355 0.258543 0.126172 0.417891 0.156068 0.387112 -0.251894 -0.340692 -0.053317 -0.438147 0.340847 1.262391 -0.623015 -0.144680 0.233654 0.909790 0.031589 -0.168526 -0.083193 0.089503 -0.279540
Ng4 -0.058146 -0.208210 0.233295 -0.227311 0.156530 -0.675403 -0.088610 -0.103664 0.432227 -0.182768 0.204312 -0.246098 -0.985114 -1.204715 -0.376955 0.144197 -0.931187 -0.736860 0.445572 1.275490 0.069891 0.018369 -0.767409 0.155333 0.012729 -0.243483 0.295030 0.291435 -0.008075 0.079224 0.272701 -0.002449 -0.150012 0.191752 0.100612 0.687748 -0.318368 0.015752 -1.170420 -0.404348 -0.242736 -0.099797 -0.057664 -0.520209 0.000490 -0.233856 0.541667 -0.010699 0.238509 -0.137067
dxe4 -0.284340 0.598560 -0.650788 0.214131 -0.004289 -0.043419 -0.117439 0.508740 -0.241883 -0.790476 -0.222606 0.274958 -1.004485 0.252797 -0.525552 0.237372 -0.996234 -0.766005 0.383449 1.115020 -0.086430 -0.589995 -0.056998 0.143376 -0.141703 0.084789 -0.001818 0.182379 -0.092391 -0.198556 -0.509964 0.374122 -0.568765 -0.424439 -0.503044 0.997576 0.050868 0.602235 -0.483350 -0.001512 -0.346126 0.092401 -0.334020 -0.561443 -0.516847 -1.026190 -0.507707 0.609338 -0.009099 -0.232576
Rad1 -0.485117 -0.072194 -0.693802 0.267020 -0.197177 0.507743 0.068885 0.502233 0.278758 -0.050987 0.544812 0.085150 0.179762 -0.220517 0.175803 0.040860 -2.544126 -0.836118 0.220750 1.115292 -0.940259 0.076140 -0.448729 -0.112176 0.352377 -0.154485 -0.456820 0.161767 -0.191292 -0.068046 0.102582 -0.133611 0.398816 -0.489776 0.413892 0.100741 0.141635 -0.306293 -0.451102 -0.494524 -0.107858 -0.025944 0.672115 -1.316183 -0.092636 -0.981721 -0.232551 -0.142745 0.347608 0.564092
Bc6 -0.072134 0.537988 0.033074 0.368335 -0.145200 0.364675 -0.115878 0.032766 0.078415 -0.419081 0.432848 0.007733 0.012534 0.445794 0.669160 -0.190367 -0.378646 -0.744682 -0.118285 0.980808 0.081778 0.280268 -0.190533 -0.190777 0.045430 0.144456 0.140915 -0.063875 -0.323265 0.362562 0.019902 -0.776924 0.574736 -0.034383 -0.145911 0.293031 -0.001771 0.044246 0.277553 -0.551360 -0.021635 0.118875 0.423961 -0.359897 -0.247833 0.022882 -0.296778 -0.348376 -0.115221 0.110828
Ne3 0.262031 0.333023 0.341969 0.246277 -0.150112 -0.305343 0.256418 0.487796 0.071871 -0.448067 0.002546 -0.588449 -0.095708 -0.598543 -0.152108 0.227232 -0.290239 -0.025728 0.059611 1.176960 -0.073276 0.133299 -0.255038 -0.012513 0.608528 -0.090117 0.451631 0.250317 -0.411205 0.046238 0.933361 0.032511 -0.116978 0.155758 0.452135 0.539992 -0.285140 -0.899298 -0.448655 -0.597059 0.288481 -0.343506 0.075130 -0.597595 0.019994 -0.009996 0.647228 -1.213792 0.185238 0.215235
Nb3 0.056437 1.367188 0.116883 0.275446 0.146013 -0.103716 0.391383 0.232291 0.194453 0.155497 -0.149866 0.762474 0.036679 0.215896 -0.251713 -0.236705 -0.918459 -0.687110 -0.400004 1.044201 0.113724 0.055651 0.097588 0.030858 1.135521 0.481947 0.473088 0.438856 0.326209 -0.312448 0.379230 -0.281461 0.430781 0.008352 -0.239191 0.213926 0.166117 0.404226 0.347230 -0.042092 -0.578226 0.038427 -0.354758 -0.872997 0.000222 -0.068568 -0.744543 -0.290760 0.370837 0.109014
bxc3 0.224161 0.924160 0.035544 0.112807 0.310695 0.276274 -1.066956 0.515260 -0.497539 -0.384420 -0.742854 0.149599 -0.487803 0.725992 -0.803235 -0.613625 -0.868916 -0.623492 0.920929 1.092048 1.034105 -0.001789 -0.280400 -0.144846 -0.380942 -0.113418 -0.271694 -0.847371 0.461482 0.304760 -0.231722 -0.330336 0.091677 -0.732060 0.366370 0.926706 0.317695 -0.266359 -0.048603 -0.123878 0.285708 0.055596 -0.485257 -0.259796 0.706900 -0.536380 -0.032598 0.161811 -0.353856 0.308456
Qe3 -0.071805 -0.328155 0.059477 -0.503432 -0.079092 0.203721 -0.186760 0.393304 -0.000779 -0.160276 -0.188166 -0.691247 0.074588 -0.028369 0.253830 0.104692 -1.145999 -0.444190 -0.201024 0.483945 0.058310 -0.127138 0.020507 -0.226051 0.588698 0.135166 0.178039 0.224309 -0.170630 0.288629 0.541473 -0.059204 -0.112825 -0.690990 -0.202836 0.010527 0.045992 0.190528 0.067105 -0.738894 -1.111057 0.659780 -0.223520 0.041136 -0.157953 -0.700424 -0.014898 -0.047116 0.097017 0.523838
Bxf3 0.579917 0.223685 0.499445 -1.322167 0.070780 0.852399 -0.075201 -0.009783 0.016998 -0.369116 -0.253579 0.832019 -0.068399 0.047539 0.075900 0.082279 -0.894333 -1.221499 0.638912 1.041823 -0.383902 0.101205 0.105270 -0.352954 -0.367701 -0.751404 -0.518375 0.127879 -0.166107 -0.239816 0.168903 0.154950 0.799154 -0.152888 -0.283897 0.719341 0.468449 -0.130480 -0.377934 0.328913 -0.493109 0.765421 0.439668 -1.294765 -0.369582 -0.633794 0.269095 0.731946 -0.089264 -0.029655
Nd3 0.072033 0.749662 -0.247730 0.020635 0.450879 -0.396965 0.329724 -0.283363 0.119664 0.053490 0.297746 0.474824 -0.366415 -0.505915 0.748565 -0.381950 -0.174763 -0.339040 -0.072123 0.756828 -0.372356 0.078740 0.787338 0.631809 0.305402 0.227318 0.655418 0.521309 0.569782 0.332307 0.123492 0.170177 0.035662 -0.127827 -0.354386 -0.386277 -0.493008 0.511080 0.020391 -0.660845 -0.419813 -0.378620 -0.734340 -0.605253 0.570681 -0.045829 1.057367 -0.543828 0.434730 0.333533
Bf3 0.198218 0.365898 0.220618 -0.191493 -0.034917 0.652903 -0.213372 0.127434 0.128823 -0.654336 0.480448 -0.116343 -0.294262 0.232094 0.692488 0.324099 -0.254045 -0.909362 -0.151273 1.176610 -0.156265 0.222938 -0.052631 -0.105909 -0.020998 0.005227 0.051043 0.120571 -0.325033 0.231785 0.089561 -0.238074 0.451270 0.100105 0.119933 0.621505 -0.050135 0.017968 -0.005180 -0.548358 -0.262742 0.131694 0.281334 -0.303640 -0.538019 0.232224 -0.102667 -0.269320 -0.104696 0.211700
Bd4 0.385420 0.288083 -0.542070 -0.109911 0.243370 0.131155 0.192453 0.140659 0.695077 0.383497 0.152347 -0.169288 -0.282813 -0.523231 0.283497 -0.234149 0.010007 -0.971508 0.119612 0.699121 0.304722 0.321177 0.333719 -0.117651 -0.085403 0.429243 0.440447 0.003443 0.176547 -0.058289 -0.294595 0.314091 -0.084694 0.303730 0.398123 -0.087070 0.303534 -0.125090 -0.064398 -0.743155 0.000781 -0.451024 -0.199733 -0.480344 0.076359 -0.408397 -0.493779 0.035754 0.100878 0.096721
Bxd5 -0.270974 0.096714 -0.339508 -0.346263 0.159099 0.885896 -0.121664 0.607621 -0.486795 -0.206326 -0.162625 -0.008536 -0.054388 0.542977 0.307592 -0.661689 -1.028333 -0.432603 0.166010 0.535444 0.245829 0.234210 -0.342399 -0.078680 -0.031943 1.085597 -0.323969 -0.264135 -0.863209 0.747170 0.263764 -0.116122 0.490862 -0.053727 0.023632 -0.221638 0.227689 -0.680597 -0.253557 -0.460825 0.687195 -0.677891 0.816553 -0.539799 -0.432162 -0.642654 0.320186 -0.842918 -0.543185 0.570543
Nbd2 -0.291620 1.745943 -0.110487 -0.051754 -0.192449 -0.910755 0.537080 -0.123165 -0.358788 -0.348253 -0.072257 0.990715 -0.709350 0.397531 -1.463965 -0.170330 -1.585609 -1.367949 0.123335 1.389401 0.056086 -0.076165 -0.432606 -0.042579 0.067116 -0.568488 -0.698872 0.449126 -0.113877 -0.787050 0.770378 0.223045 0.415241 -0.011323 -1.676527 0.551078 -0.109131 0.197803 -0.360985 1.243224 0.249758 0.821769 0.177753 -0.726539 -0.222286 -1.215369 -0.109200 0.242509 0.598029 -0.174417
axb5 -0.354199 0.777016 0.105223 -0.136198 0.040551 -0.292612 -0.053417 -0.077355 0.213296 -0.023268 0.296881 -0.363280 0.164078 0.153584 0.072620 -0.562218 -0.633008 -0.409139 0.308557 0.842035 0.079422 0.839358 -0.259719 -0.571926 0.433341 -0.127000 0.697342 -0.619265 -0.393386 0.346262 -0.019092 0.120906 0.486528 0.248375 0.359675 -0.371455 0.010994 0.409494 -0.242547 0.050015 0.451438 0.281700 -0.259253 -0.829407 -0.086528 0.093210 -0.300357 -0.650435 -1.126079 -0.358725
Qf6 -0.183688 -0.456834 0.484958 -0.512607 -0.048996 -0.096593 -0.337023 0.040865 0.190110 -0.212161 -0.453856 -0.508907 0.241808 0.109620 0.335196 0.615894 -1.402015 -0.658115 -0.084396 0.653682 -0.149056 0.099825 0.214549 0.065558 -0.092397 -0.000866 -0.015794 0.186531 -0.571808 0.289131 0.122109 -0.161131 0.030302 -0.432325 -0.172936 -0.168910 0.366185 0.346170 -0.067087 -0.354457 -0.540491 0.256706 -0.024592 0.285304 -0.026227 -0.993925 0.087240 0.230494 -0.009456 0.365492
dxc5 -0.102279 0.742389 -0.457642 0.591436 0.196468 0.193046 -0.368916 0.431378 0.018203 -0.329077 0.145102 0.679557 -0.559520 0.527279 -0.156593 -0.613311 -1.390201 -1.129026 0.135604 0.629789 -0.165725 -0.087071 -0.176440 0.133970 0.202090 0.648207 0.274187 0.654775 0.066669 0.299337 -0.291996 0.680662 0.736721 -0.621351 -0.696024 0.034879 0.021970 0.309885 -0.061766 0.459880 -0.174248 1.004092 -0.046670 -0.672838 0.195517 -0.114827 -0.218900 0.235284 0.554610 0.098593
Ne6 -0.438582 0.181080 0.256072 0.301676 0.070118 0.055325 -0.127658 0.311648 0.664700 0.491640 0.442259 -0.198494 0.451889 -0.192423 -0.024954 -0.021345 -0.448913 -0.080897 -0.093719 0.826828 -0.800288 0.210297 -0.159023 -0.094948 0.791434 0.455044 0.074874 0.486442 -0.336041 0.748401 0.224204 0.558255 0.076405 0.047739 0.559296 -0.196525 0.524516 0.314618 0.643052 0.062731 -0.370157 -0.740416 -0.129695 -0.788075 -0.172457 -0.419047 0.741503 0.289371 0.747535 0.005403
Kd7 -0.447158 -0.346803 0.163687 0.165043 -0.129838 0.134034 0.108217 0.443381 -0.228576 -0.281846 -0.113244 1.555005 1.424233 -0.629232 0.725266 -0.616912 0.990145 -0.981045 -0.386184 0.672056 -0.096835 0.051012 -0.447607 0.137247 0.220626 0.005527 0.950268 -0.903656 -0.411513 0.302838 0.439089 0.241377 -0.619050 -0.190978 0.008149 -0.664380 -0.188445 -0.370508 -0.139432 0.476842 0.918135 -0.840466 -0.621598 1.041054 0.474980 0.512412 -0.347205 0.100604 -0.116751 -0.849042
Re2 -0.016455 -0.012618 0.299567 -0.100006 0.397123 0.262487 -0.072414 -0.198339 -0.247289 0.294562 0.349183 -0.059139 0.324058 0.012437 0.114533 0.509218 0.452937 -0.741007 0.362459 0.276535 -0.183410 -0.151917 0.032451 -0.285914 -0.329943 0.235352 0.069957 -0.268547 0.122095 -0.431163 0.373907 0.043653 -0.261689 -0.087838 -0.028498 -0.456046 -0.544970 0.232236 -0.518027 -1.729271 -0.186492 -0.077303 -0.390885 -0.347287 0.032398 -0.159840 -0.146723 -0.362477 0.567423 0.069608
Rf8 -0.152005 -0.470969 -0.188318 -0.422873 -0.371163 -0.152362 0.272614 0.712875 0.352950 0.425045 0.277997 -0.321722 0.191942 -0.239008 0.266939 0.523525 0.079247 0.156473 0.619919 0.499459 0.022188 -0.320992 -0.501579 -0.387350 -0.612982 -0.177641 0.373312 0.154234 -0.499042 0.854428 0.106837 0.326689 -0.433459 -0.231179 -0.337229 -0.139691 -0.142506 0.210614 0.458089 -0.524389 0.059020 0.080548 -0.099394 -0.008152 -0.171424 -0.426825 0.173312 0.126725 0.136311 -0.547490
Rc2 -0.320111 1.220192 0.174355 -0.420431 0.384339 0.477133 0.110908 0.054266 -0.441973 0.154734 0.049466 -0.204571 0.210203 -0.251114 -0.086304 -0.277403 0.605457 -0.438032 -0.071005 -0.231469 0.038005 0.011107 0.291875 0.250386 0.150708 0.507732 0.766630 -0.387211 0.114883 0.094699 -0.100770 0.334072 -0.198266 -0.034898 -0.105095 -0.315791 -0.350418 0.362737 -0.069966 -1.298804 -0.467165 0.324707 0.054685 -0.608842 0.043099 0.384089 -0.173376 -0.335960 0.345590 0.317832
Bxe4 -0.029747 0.057644 -0.735459 0.350946 -0.005173 0.472619 -0.216804 0.142460 -0.440516 -0.842911 -0.306003 -0.082438 -0.653115 0.585187 0.430849 0.026856 -0.726480 -0.512472 0.528407 0.954077 -0.019270 -0.541948 0.064100 0.196918 -0.352971 0.369263 0.381494 0.098456 -0.326258 0.232841 -0.738292 0.080810 -0.668066 -0.454993 -0.237525 0.802954 -0.090446 0.714803 -0.442308 -0.571742 -0.333034 -0.021682 -0.069180 -0.965628 -0.812199 -0.905414 -0.539711 0.290104 -0.164358 -0.053024
Qd6 -0.173142 -0.102072 0.360546 -0.400351 0.338666 -0.215727 -0.037769 0.275006 0.072164 -0.095374 -0.177518 -0.182469 0.385228 0.148100 0.470694 -0.133320 -1.474231 -0.901081 -0.066702 0.383994 0.297743 -0.187211 -0.185816 -0.029244 -0.172352 0.423854 -0.041362 0.166789 -0.130128 0.468080 0.293666 0.095404 0.015757 -0.151807 -0.713181 -0.161697 -0.273818 0.089499 0.295861 -0.508486 -0.364065 0.589528 -0.132088 0.129431 0.117399 -0.935121 0.011514 0.046905 -0.111046 0.665288
Kd3 -0.525979 0.615891 0.389497 0.464949 0.862723 -0.168365 -0.226537 0.415404 -0.054019 0.793077 0.318465 0.488099 0.136485 0.187592 0.215191 0.444728 2.561493 -0.002578 0.345491 0.905747 0.448554 0.233693 0.598956 -0.225146 0.667697 0.200111 1.323969 -0.010784 -0.838161 -0.121548 -0.092956 0.316458 0.110938 0.832322 0.274496 0.301991 -0.294029 -0.655552 0.018967 -0.059065 0.841803 -0.721775 -0.762176 0.327565 -0.010865 0.671356 -0.183183 0.376081 0.010199 -0.753455
Re7 -0.394433 0.017265 0.356057 0.237918 -0.136251 0.286172 0.078491 -0.040796 0.019290 0.146282 0.592640 -0.349686 0.741937 0.086877 0.376056 0.948308 0.035266 -0.551143 0.642074 0.128308 -0.116610 -0.208955 -0.180846 -0.458290 -0.886275 0.148441 0.162962 0.561534 -0.129394 0.438660 -0.396376 -0.138562 -0.013054 -0.003652 -0.192468 -0.351104 -0.085495 0.384993 0.561453 -1.087363 0.281467 -0.090231 -0.313202 -0.118199 0.055990 -0.316974 0.249774 0.032156 0.007769 0.098812
Bxe5 0.158899 -0.304068 -0.442075 -0.356916 0.497846 0.167340 0.057082 -0.422820 0.576382 0.033007 0.159704 0.058537 -0.413785 -0.607036 0.451082 -0.510774 -1.003697 -0.869997 0.329565 0.843834 0.140105 -0.416843 -0.023982 -0.060170 -0.151026 -0.423784 0.173644 0.067762 -0.125542 0.290521 -0.472892 0.305492 0.662840 0.080665 -0.557085 -0.403902 0.038865 0.324798 -0.389637 -0.847629 0.245838 0.162944 0.408530 -0.771026 0.795323 -0.949279 -0.126807 0.603301 -0.077298 -0.507600
Kg1 -0.595323 -1.084437 0.097875 -1.044989 -0.604421 -0.208864 -0.068996 0.182065 -0.074888 -0.356890 -0.290487 -0.702424 -0.808792 0.403335 0.426461 0.606191 1.152503 -1.197124 -0.459329 -0.543570 -0.396584 0.262994 -0.201157 0.154943 -0.070014 0.444786 0.493868 -0.540660 0.155111 -0.235949 0.880675 0.153995 -0.439101 0.479599 -0.015927 -0.007292 -0.795542 0.104963 -0.486463 -0.908497 -0.715508 0.778347 0.397965 -0.773072 0.159885 -0.415509 0.553485 -0.270491 0.085912 0.271585
Kg3 -0.117802 0.207873 0.191605 -0.519816 -0.107229 -0.399234 -0.529813 0.041821 -0.479049 0.463542 -0.405404 -0.727338 -0.328322 -0.598637 0.744155 0.552642 2.660957 -0.356960 -0.472650 -0.179543 -0.980104 -0.005962 -0.576493 -0.370482 0.035098 0.286153 -0.188690 -0.133902 -0.431216 0.186789 0.215476 -0.725192 0.495147 0.543286 0.092587 -0.460644 -0.717613 0.226579 0.460471 -0.569937 -0.073520 0.631861 0.101004 -0.038719 -0.237156 -0.245509 0.433746 -0.010835 0.207192 0.186157
Ra8 -0.179770 1.586942 0.205282 0.125589 0.149698 -0.181686 0.606794 -0.254352 0.702280 0.116041 -0.191805 -0.439562 0.177621 0.368985 0.505442 -0.245596 0.694594 -0.186974 -0.118390 -0.134451 -0.004560 0.568574 -0.347582 -0.481271 -0.068853 -0.352540 0.696719 0.045836 -0.224325 0.898882 0.083337 0.065466 0.079634 -0.516736 -0.096946 -0.596706 0.395099 0.256494 0.185747 -0.469016 0.381752 0.050818 -0.373433 -0.527671 -0.042845 0.518439 -0.451654 -0.452028 -0.123700 -0.168158
Ng3 -0.450310 0.191844 -0.253587 -0.057037 -0.258632 -0.444355 -0.705797 0.178068 -0.035269 -0.385402 0.158995 -0.507918 -0.556845 0.169145 -0.509626 0.636302 -0.821495 -0.127240 0.324795 1.871953 -0.639388 -0.271253 -0.090867 0.572953 0.451234 0.249354 -0.229455 0.236063 0.432708 0.308810 0.727060 0.391707 -0.435279 -0.375988 0.037396 0.315738 -0.299608 -0.072515 0.145541 -0.083238 -0.191280 -0.210453 -0.433034 -0.263545 -0.343604 -0.075359 -0.554525 -0.208225 0.151340 0.183146
Rf1 0.223460 -0.591572 -0.237169 -0.694847 -0.193281 -0.274047 -0.014486 0.578548 0.364709 0.128035 0.340710 -0.203041 -0.293383 -0.145419 0.124068 0.235449 0.500414 0.113383 0.602277 0.546073 -0.009082 -0.421677 -0.298859 -0.102913 -0.251339 0.003547 0.472302 -0.348788 -0.184681 0.302118 0.866061 0.163181 -0.308283 -0.107785 -0.094335 -0.220463 -0.352792 0.190729 -0.051190 -1.122554 -0.511803 0.072700 -0.258550 -0.133488 -0.083746 -0.362760 0.000667 -0.141869 0.364927 -0.329658
Nd6 -0.134671 0.754768 0.269540 0.914264 -0.421592 -0.421590 0.054922 -0.460969 -0.394759 0.204065 0.270188 -0.430618 0.788904 -0.197003 0.818803 -0.166380 -0.524001 -0.166386 0.129372 0.960176 0.039812 -0.427278 0.273361 0.358624 0.172706 -0.058103 0.985650 0.568300 -0.416792 0.319943 -0.260936 0.166750 -0.186531 0.182812 0.071626 0.167253 -0.764746 0.268926 0.165710 -0.079743 0.423162 0.115596 0.157272 -0.756347 -0.150069 -0.175101 0.058875 -0.301828 0.405908 -0.701347
Bf8 -0.249087 1.117510 -0.397370 -0.022569 -0.236427 -0.056078 0.241135 -0.196490 0.463384 0.541254 0.108329 -0.497666 0.350671 -0.118071 -0.051671 -0.249274 -0.948443 -0.352370 -0.178681 0.599680 -0.194314 0.748355 -0.008674 0.052856 0.274776 -0.307086 0.650525 0.261053 0.032963 0.559585 0.031941 0.619108 -0.476088 -0.061049 0.004986 0.159247 0.482247 -0.281957 -0.274219 -0.456564 0.354116 -0.253456 -0.230847 -0.055687 0.230613 -0.255697 -0.694580 -0.132421 0.831570 0.199366
Kg6 0.105029 0.595569 -0.221494 0.586083 -0.166291 0.343432 0.288011 0.280634 0.137031 0.463297 -0.810554 -1.089328 0.614321 -1.091500 0.262908 0.896324 2.317160 -0.305076 0.139365 -0.026911 -0.709033 -0.158128 -0.678166 0.425425 -0.459286 0.057413 -0.567837 0.485976 0.265213 0.899726 0.503968 0.130697 -0.165229 0.172618 0.248716 0.039861 -0.402863 0.538691 0.059216 -0.082366 0.599969 0.200736 -0.266602 0.259208 0.279337 -0.447375 -0.412165 0.069715 -0.195423 0.098270
Kd2 -0.412829 0.023797 0.420495 -0.488167 0.503753 0.082553 -1.182540 0.584784 0.319515 0.266702 -0.353647 0.854332 -0.215511 0.529145 0.904044 0.693850 1.652563 0.293792 0.146997 0.694824 1.211051 -0.252023 0.860363 -0.149242 0.510096 -0.247219 1.043447 0.488415 -0.242288 0.311837 -0.120850 -0.440962 0.413072 -0.263889 -0.020972 0.370160 -0.079494 -0.813597 0.073043 0.132032 0.478624 -0.846877 -1.159139 0.533355 0.246784 0.500156 0.185073 -0.065240 -0.229734 -0.265990
Kd6 -0.108922 0.519519 0.219884 0.645983 0.024580 0.596501 0.401509 0.542559 0.319099 -1.015967 0.710660 1.218626 0.945992 -0.244675 0.629873 -0.303313 2.231874 -0.540340 -0.173635 0.872303 0.049945 -0.391361 -0.438178 0.544176 -0.115779 0.539184 0.918791 -0.254360 -0.219783 0.364729 0.219489 -0.049654 0.512164 0.569792 -0.317784 -0.251360 -0.093295 -0.027520 0.410518 0.171430 0.498255 -0.986074 -0.841695 0.752332 0.660128 0.565335 0.608020 0.032047 -0.184213 -0.236205
Bxc4 0.057953 0.931950 -0.897998 0.070807 0.462549 0.144626 0.686233 -0.033330 -0.671556 -0.758437 -0.555069 -0.218463 -0.198581 0.461787 0.201382 -0.332566 -0.937587 -0.720353 0.425868 1.004432 1.212578 -0.316947 -0.208254 0.076351 0.531133 -0.370725 0.359928 -0.222258 -0.395401 -0.627670 -0.157604 0.004263 0.466230 -0.307257 0.195483 0.042673 0.028398 -0.616532 0.484489 -0.279005 0.246653 0.203790 0.498745 -0.685348 0.047087 -0.281475 0.375750 -0.047099 -0.125938 0.011633
Bxd4 0.125669 0.192897 0.517768 -0.172088 -0.137288 0.275739 -0.256361 0.626195 0.839247 0.643245 -0.660605 0.412766 -0.132747 -0.005005 -0.038763 -0.209626 -0.766039 -0.640706 -0.179834 0.778144 -0.003858 -0.040126 0.105646 0.176938 0.415225 0.510350 0.001893 -0.067424 -0.456152 -0.547443 -0.392868 0.235576 0.195215 0.377221 0.536079 -0.046959 0.886770 -0.515104 0.037068 -0.675602 -0.612278 -0.241405 -0.159771 -1.239650 -0.063653 -0.935668 -0.928371 0.491218 -0.592071 0.228002
Nb5 -0.140848 1.054859 0.468743 -0.090747 -0.383000 -0.268978 -0.043487 0.273148 0.096338 0.798515 -0.084706 0.199839 0.441598 -0.180887 0.884504 -0.553987 -1.063639 -0.737818 -0.066944 0.878152 0.577970 0.493905 0.351086 0.061152 0.340730 -0.119172 0.331589 -0.081979 -0.088480 0.149818 -0.628217 0.332867 0.084009 0.143779 0.929453 0.020725 -0.306027 0.020493 -0.005100 0.484630 0.082206 0.205691 0.071030 -0.915712 -0.326308 0.176946 -0.128054 -0.290620 -0.390330 -0.821937
Qd8 -0.191290 0.270035 0.058604 -0.414833 -0.048173 -0.611794 -0.053465 -0.007093 -0.016686 0.290182 -0.119812 -0.750861 0.046732 -0.216224 0.278813 0.000113 -1.897866 -0.778157 0.020455 0.573106 0.170818 0.693947 -0.431531 -0.050355 -0.249147 -0.018829 0.206562 -0.115239 -0.425887 0.742172 0.633484 0.176596 -0.235831 -0.257859 -0.117211 -0.126263 0.133812 0.375231 0.166199 0.168798 -0.263934 0.628901 -0.058653 0.383928 -0.206483 -0.205522 -0.169073 -0.226659 0.052652 0.449641
Be4 0.180978 0.362449 0.063358 0.083627 -0.509395 0.502479 -0.245494 0.172283 -0.218936 -0.512591 -0.137862 0.530861 0.020620 0.327210 0.497784 -0.030962 0.100994 -0.326005 -0.072779 0.951411 -0.099952 -0.077173 0.102733 0.031665 -0.244120 0.029174 -0.086336 0.065334 -0.718165 0.451618 0.021075 -0.214222 -0.007293 0.110465 -0.787938 0.453087 0.064783 -0.322869 0.008504 -0.802303 -0.015358 0.016925 0.380950 -0.378358 -0.165925 -0.469727 0.024694 -0.336418 0.063819 0.123241
fxe5 0.120226 -0.175051 -0.331847 -0.306953 0.253429 -0.003549 -0.074382 0.050800 0.684855 -0.146788 0.120116 0.238716 -0.090890 -0.692118 0.351917 -0.580750 -0.797818 -0.270169 0.540301 0.962594 0.038567 -0.296247 -0.379936 -0.112167 0.117225 -0.136175 0.339810 -0.137883 -0.279448 0.141575 -0.072681 -0.280999 0.959550 0.114711 -0.467880 -0.260791 0.023182 0.164202 -0.246874 -0.458605 0.061682 0.262743 0.071394 -0.566831 0.673027 -0.571703 -0.278035 0.427040 0.131288 -1.004263
Nh5 -0.662614 0.172467 -0.110802 -0.431383 0.092079 -0.092393 -0.206190 -0.338546 0.541153 -0.453188 0.571502 -0.796730 -0.736321 -0.030949 -0.724258 0.394434 -1.357783 -0.409366 0.390943 1.906639 -0.327112 0.107059 0.307759 0.582067 0.250015 0.009318 -0.251649 -0.137721 0.227196 0.489033 0.463744 -0.075853 -0.307913 -0.147239 0.094175 -0.233530 0.004087 -0.152273 0.206975 0.014366 -0.476135 -0.497195 -0.076093 -0.359603 -0.346226 -0.166544 0.264838 -0.001316 0.239527 0.433841
dxc4 0.053577 1.090074 -0.603322 0.219333 0.154368 -0.270727 0.607127 0.133401 -0.850053 -0.537185 -0.503735 0.235347 -0.302002 0.570060 -0.596723 -0.262895 -0.971851 -0.999590 0.426064 0.987473 0.630093 -0.236181 -0.279371 -0.073762 0.163993 -0.197832 0.250580 -0.432321 -0.404119 -0.870025 -0.161864 0.257908 0.427281 -0.038502 -0.266953 0.152555 0.164985 -0.350063 -0.005865 0.119477 0.146769 0.631169 0.091880 -0.564048 0.504318 -0.700812 0.556310 0.161424 -0.089536 0.016865
Bd5 -0.012955 0.405055 0.021118 0.389088 -0.091290 0.423949 0.065157 0.246843 -0.136308 -0.315658 0.112445 0.379111 0.204333 0.480278 0.554996 -0.139836 0.127585 -0.482748 0.034262 0.546277 0.142710 -0.179584 -0.142856 -0.189039 -0.081653 0.301628 0.092304 0.052142 -0.819316 0.492335 0.217960 -0.343405 0.347967 0.107311 -0.397707 0.321497 0.164502 0.011774 0.322395 -0.745699 0.032487 -0.223906 0.682940 -0.486700 -0.173367 -0.530899 0.105565 -0.199162 0.155446 -0.122433
axb4 0.093454 1.171444 0.143688 0.027100 0.435742 0.126202 -0.108680 0.597059 0.843101 -0.167542 -0.244350 0.525409 -0.104144 0.747956 0.187773 -0.394903 -0.262658 0.356257 0.025407 0.675855 -0.242733 0.885468 -0.275838 0.479539 0.159620 0.165431 0.556745 -0.303180 -0.431454 0.270282 -0.199428 -0.195600 0.351118 -0.244921 -0.194812 -0.212425 0.112250 0.598700 -0.113931 -0.373142 -0.166047 0.091479 -0.817337 -0.641403 -0.550463 -0.075371 0.018224 -0.470230 -0.022713 0.657727
Rd3 -0.188168 0.380909 -0.277990 -0.229400 -0.224039 0.588821 -0.706130 0.120764 -0.076185 0.174292 -0.077143 -0.213581 1.011651 -0.397026 -0.032536 0.224550 0.590001 -0.342385 0.287815 0.155789 0.009463 -0.076224 0.041266 -0.453021 0.084025 0.109304 0.402378 -0.512834 0.450612 -0.185070 -0.037024 -0.151458 0.160689 -0.821390 0.246234 0.109370 0.193364 -0.112042 -0.548975 -1.071602 0.011603 -0.020053 0.204446 -0.865032 0.133739 0.060492 -0.250949 -0.269653 0.369823 0.421600
Ra1 0.199816 1.591189 0.246107 -0.127348 -0.016248 -0.449651 0.282791 -0.153683 0.277040 -0.321965 -0.368432 -0.041604 -0.237208 0.570500 0.254345 -0.248537 0.979765 -0.287882 -0.239551 -0.108397 -0.015778 0.465785 -0.298690 -0.591032 0.121517 -0.213705 0.725199 -0.369710 -0.182698 0.630144 0.343931 -0.230909 -0.015944 -0.248715 0.118458 -0.660938 0.173709 0.570331 0.160173 -0.717747 0.175219 0.005209 -0.506537 -0.580088 -0.106826 0.453097 -0.425892 -0.798930 0.099400 0.075969
Bc2 0.532819 0.945096 -0.264899 0.261180 -0.333211 0.053326 -0.450239 -0.111418 0.247707 -0.733677 0.051453 0.214879 -0.318916 0.256826 0.404162 0.275650 -0.425292 -0.462151 -0.098542 1.485587 0.273749 0.246148 -0.196516 -0.144539 0.206413 -0.041117 -0.270470 0.582880 -0.294613 0.118584 0.397525 -0.485141 0.464677 0.298802 -0.769893 0.504471 -0.074431 0.276244 0.612260 -0.826222 0.103479 0.048540 -0.070417 -0.082359 -0.405937 0.031198 -0.229614 -0.183066 0.817114 0.150610
Bh6 0.218958 0.444807 -0.144121 -0.698982 0.048578 0.069857 0.096474 0.359116 0.496836 0.126644 -0.003742 -0.505423 -0.354353 -0.609987 -0.612614 -0.005023 -1.190431 -0.184995 0.373115 1.259888 -0.083781 0.233421 0.085907 -0.116368 0.130324 0.008254 0.222868 -0.161298 -0.033802 0.441843 0.210490 0.038942 -0.446821 -0.049094 0.404083 0.131893 0.403832 0.003536 0.186984 -0.077936 -0.272905 -0.526240 -0.492126 -0.138894 -0.236885 -0.516185 0.253731 -0.237668 0.306045 -0.238402
Na5 0.320698 1.275651 0.016168 0.386653 0.195162 -0.321443 0.711155 0.412107 -0.229199 0.220850 -0.463192 0.709763 0.298064 -0.013337 -0.146895 -0.312069 -1.381125 -0.713325 -0.073117 1.183330 0.236626 0.312087 0.082423 -0.114198 0.712034 0.334672 0.478451 0.065880 0.091779 -0.175302 0.363356 -0.490275 0.443789 -0.209096 -0.061464 0.806311 0.115192 -0.101507 0.419791 -0.245734 0.082315 0.211750 0.653869 -0.707184 0.194999 0.111362 -0.143986 -0.586970 0.108243 -0.349666
Be5 0.055235 0.142378 -0.670939 -0.233845 0.022659 0.266080 -0.071866 -0.142121 0.494385 0.495409 0.409061 -0.218592 -0.068684 -0.238222 0.292506 -0.084655 -0.006713 -0.807829 0.152900 0.920128 -0.122675 -0.008997 0.563096 0.048681 -0.141935 0.185902 0.188334 -0.140871 0.022735 0.367691 -0.256579 0.585676 -0.186629 0.247987 0.205091 -0.314838 0.104481 -0.011953 -0.052987 -0.707965 0.301860 -0.470682 0.188144 -0.269913 -0.060791 -0.444609 -0.453192 0.397118 -0.011328 0.112337
Nb4 0.081481 1.335351 -0.068856 0.076508 -0.237711 0.178888 0.015955 0.665982 0.034812 0.639266 -0.401550 1.169876 -0.230267 0.119367 0.657554 -0.769368 -0.767284 -0.342341 -0.507477 0.635359 0.247907 0.545949 0.287141 0.255955 0.307787 0.488171 -0.237317 0.129252 0.255929 0.511190 -0.271344 -0.466514 0.022796 -0.217733 -0.085821 0.019576 -0.388206 0.037541 -0.349190 -0.199969 -0.146613 -0.247014 -0.231398 -0.735598 -0.056212 -0.245677 0.693386 -1.283410 -0.039315 0.130299
Ng6 -0.263394 0.015803 0.276981 -0.547330 -0.326778 -0.766186 -0.074717 0.138293 0.014852 -0.118057 -0.037675 -0.170650 0.121793 -0.315559 0.109165 0.241081 -1.009470 -0.009314 0.018734 1.836586 -0.712164 0.199752 -0.024776 0.276219 0.058316 -0.654315 -0.416316 -0.286221 -0.194112 0.143612 0.395974 0.203817 0.269156 -0.070882 -0.514146 -0.398170 0.034347 -0.529064 0.487314 -0.032148 0.269817 -0.034447 0.155793 -0.453077 0.656004 -0.309431 0.384843 0.242795 0.540530 0.342730
Bc3 0.573726 0.813956 -0.266041 0.270819 0.276261 0.232975 0.128108 0.044027 0.298279 0.552049 -0.181150 0.127238 -0.058105 -0.070820 0.124203 -0.099016 -0.094908 -0.870154 -0.067621 0.860328 -0.347792 0.811065 0.481782 -0.241443 -0.091590 -0.069600 0.222469 -0.209968 0.035845 -0.210803 0.021629 0.212313 -0.196492 0.087469 -0.040290 0.159962 0.150966 0.390724 0.027392 -0.825384 0.560488 -0.249928 -0.463429 -0.447846 0.213779 -0.394314 -0.317768 0.033493 0.344409 0.142705
Qxd4 -0.153445 -0.118930 0.640295 -0.222540 -0.227947 0.217355 -0.484227 0.663412 0.235361 0.214815 -0.810376 0.352149 -0.197607 0.211986 0.044861 -0.171601 -1.066274 -1.002873 -0.136897 0.316796 0.747406 -0.423245 -0.375998 0.246735 0.109159 0.302328 -0.219129 -0.006214 -0.677069 -0.391565 -0.258559 -0.221659 0.180516 0.039984 0.192277 -0.122194 0.281969 -0.353172 -0.031251 -0.157189 -0.801305 0.443775 -0.038119 -0.574334 -0.247702 -1.196836 -0.515505 0.590953 -0.621689 0.482809
Qxd5 -0.308646 -0.067512 -0.069012 -0.395758 0.290058 0.358456 -0.199962 0.865198 -0.407476 0.279504 -0.432740 0.099521 -0.107449 0.342469 -0.136634 -0.530677 -0.834026 -1.033105 0.178752 -0.120219 0.533664 0.112821 -0.031650 -0.151805 -0.274728 0.879151 -0.567708 -0.077646 -0.503923 0.205564 0.218166 0.544671 0.202958 -0.317072 -0.182270 -0.198644 0.043142 -0.465926 -0.592988 0.054377 0.509744 0.032058 0.396732 -0.204924 -0.135709 -1.270785 0.145343 -0.131873 -0.539576 0.379527
bxc6 -0.847965 0.401446 0.742788 -0.086399 1.193991 -0.617743 -0.390087 0.597314 0.858376 -0.345846 0.126475 1.008939 -0.294929 0.060604 -0.224543 -0.388030 -1.171852 -1.252089 -0.352710 0.485108 -0.390029 0.349592 -0.276841 0.370372 -0.488438 0.214200 0.186760 -0.398597 0.023694 -0.112089 -0.917746 0.060384 0.375790 -0.880844 -0.434439 0.351123 0.236568 0.001459 0.024109 0.239886 0.105306 0.366467 0.646925 -0.433733 -0.174990 -0.347884 -0.540726 -0.061189 -0.446342 -0.105728
exf5 0.365837 -0.110273 0.038799 -0.272385 -0.366631 -0.149388 -0.674075 0.405031 0.272211 -0.186350 -0.242551 -0.475877 0.110099 -0.649926 -0.238551 -0.009797 -1.003395 0.193613 0.598056 1.509576 -0.703203 0.108159 0.307619 0.404398 0.056091 0.813787 -0.025494 0.081307 -0.540231 0.280063 0.653975 0.158426 0.275149 -0.081232 0.140614 -0.348974 0.138883 -0.688322 -0.096271 0.063331 0.389721 -0.161719 -0.043573 -0.076274 -0.217607 -0.300303 -0.574457 -0.657532 0.169458 -0.532443
Rg8 -0.005449 -0.162957 0.238289 0.030605 -0.821395 0.105187 0.319635 0.115030 -0.200691 -0.321179 0.391044 -0.365974 0.068552 -0.355135 -0.257570 0.540507 0.114941 -0.344452 0.128603 1.389991 -0.210085 -0.052730 0.347820 -0.441860 -0.291076 -0.256786 0.002146 -0.432669 -0.475298 0.689143 -0.357469 -0.305344 -0.249971 -0.661872 -0.018061 -0.766092 0.887440 -0.360461 -0.107956 0.326539 -0.777661 -0.076911 -0.236907 1.000209 0.477928 0.306271 -0.197234 0.033226 0.315677 -0.565387
Re3 -0.174992 -0.056958 0.137986 -0.293403 0.013321 0.210897 -0.714785 -0.411509 0.186889 -0.147738 0.099017 0.003119 1.016244 -0.013005 0.289261 0.688339 0.443890 -0.459593 0.584180 0.504812 0.061521 -0.467675 -0.277945 -0.230971 -0.550414 0.248786 0.018255 -0.334575 0.434322 -0.239228 0.248029 -0.340059 0.221100 -0.467061 -0.291760 -0.328227 0.024836 0.138444 -0.353683 -1.071672 -0.470793 -0.046205 -0.444955 -0.614293 0.060519 -0.121851 0.182026 -0.245092 0.614915 0.398437
Rf7 -0.143104 -0.357104 0.002940 -0.444144 -0.296969 -0.034372 0.317274 0.863189 0.255751 0.194669 0.430170 -0.284289 0.400084 -0.152338 -0.074998 0.779668 -0.050494 0.057529 0.838414 0.561441 -0.316554 0.313054 -0.094944 -0.538624 -0.734491 0.135293 0.062204 0.152069 -0.156109 0.984909 -0.274114 0.507244 -0.517505 -0.097490 -0.171290 -0.444443 0.141896 0.242418 0.732812 -0.406666 -0.053674 0.108551 -0.466642 0.142623 -0.015587 -0.195834 0.227889 -0.142118 0.115400 -0.209190
Ba6 -0.301487 1.178823 -0.252000 -0.148973 -0.033633 -0.067139 -0.040891 -0.064978 -0.107305 0.318761 -0.013818 0.400338 -0.250782 0.240037 0.336639 -0.477101 -1.065118 -0.464069 0.081959 0.958447 0.360201 -0.003789 -0.091455 0.351826 0.222255 -0.200460 0.614499 -0.042979 0.207185 0.134206 0.020681 -0.402442 0.125315 -0.083503 -0.286318 0.538072 -0.432565 -0.135810 0.749185 -0.141328 -0.273928 0.580967 -0.162772 -0.556950 -0.012144 -0.017447 0.124761 -0.493530 -0.462335 -0.309714
Qg4 -0.156123 -0.691572 0.316899 -0.641452 -0.263524 -0.208745 -0.470108 0.446462 -0.149711 0.397541 -0.242651 -0.484259 0.037760 -0.147183 -0.076278 0.322574 -1.316313 -0.441215 0.139629 0.581158 -0.162024 0.051595 0.015863 -0.256262 -0.164821 0.034914 -0.168706 -0.074404 -0.291185 0.516361 0.602717 0.189637 -0.310814 -0.376442 -0.264733 0.051248 0.182643 0.079332 -0.164337 -0.272313 -0.426964 0.277431 0.132178 -0.093090 0.179739 -1.001626 -0.178427 0.174953 0.420193 0.435009
Rfd1 -0.560370 0.911081 -0.641832 -0.022694 -0.181547 0.607828 0.215750 0.573558 0.156004 -0.419559 0.410850 -0.025956 0.274096 0.017396 -0.047239 -0.353888 -2.655889 -1.006001 -0.127734 0.314466 -0.887061 0.305523 -0.239750 0.209507 0.454764 -0.159993 0.208113 -0.219458 -0.202481 0.172139 -0.169383 0.279271 0.487571 -0.266955 0.589604 0.117524 0.183865 0.150086 -0.276467 -0.430667 -0.371346 0.687752 1.129196 -1.634144 0.006716 -0.723698 -0.087474 -0.438449 -0.042303 1.054403
Ra7 -0.267152 1.502348 0.189414 0.243587 -0.119711 -0.117769 0.687866 -0.022441 0.340660 0.080599 -0.136326 -0.330610 0.073333 0.089236 0.095982 0.082664 0.451775 -0.176255 0.682450 -0.182426 0.202560 0.585319 -0.315669 -0.397321 -0.356077 -0.059124 0.415492 0.269843 -0.347049 1.135967 0.344995 -0.308544 0.163661 -0.204747 -0.023794 -0.745863 0.158371 0.372509 0.327265 -0.398355 0.567893 0.059992 -0.114040 -0.622683 -0.121438 0.799442 -0.054837 0.065831 -0.023304 0.190399
Rad8 -0.088489 -0.031314 -0.467951 -0.070015 -0.110315 0.565903 -0.771796 0.509293 0.023345 -0.223517 0.229316 -0.291900 -0.177457 -0.073888 -0.121321 0.512072 -2.082682 -0.377197 0.075713 1.083580 -0.613572 -0.098170 0.225466 -0.441250 0.340242 -0.069062 -0.100431 0.128019 -0.322510 -0.621177 -0.275973 -0.178787 0.504798 -0.422118 -0.034894 0.408764 0.284609 -0.024405 -0.189719 -0.965236 -0.019977 -0.106956 0.295719 -1.415477 0.072722 -1.127583 0.260222 -0.408060 0.692147 0.618192
fxe4 -0.090455 0.227448 -0.847179 -0.113210 0.509762 0.249957 0.091125 0.571121 0.155373 -0.788340 -0.127734 -0.061884 -0.664787 0.195795 0.365916 0.231743 -0.363550 -0.278637 0.495040 0.891425 -0.215252 -0.242154 0.323966 0.078844 -0.204111 0.386868 0.547160 0.078928 -0.063170 0.219995 -0.861926 0.456663 -0.797105 -0.424974 0.063390 0.752641 -0.210690 0.507054 -0.115560 -0.087705 -0.150463 -0.235596 -0.438714 -0.681080 -1.013588 -0.477519 -0.032323 -0.014624 -0.312227 -0.411347
Qh4 -0.176927 -0.771063 -0.174429 -0.601104 -0.206562 -0.137470 -0.309064 0.105800 -0.018475 -0.197429 0.109372 -0.643097 -0.491858 -0.040622 0.225358 0.429206 -1.578567 -0.632299 0.470070 0.864775 0.213933 0.099260 0.300327 -0.000977 -0.463568 0.130431 -0.088896 -0.334180 -0.335040 0.534476 0.459951 -0.006938 -0.566564 -0.416648 0.020079 0.227860 0.440540 0.082266 -0.380395 -0.371153 -1.079607 -0.014256 0.125185 0.112861 -0.137420 -0.682639 -0.044152 0.031988 0.366492 0.134111
Bxc6 -0.828505 0.454322 0.696521 0.175936 0.710964 -0.374813 -0.188072 0.352914 0.527047 -0.195373 0.085293 1.165052 -0.189928 -0.035582 -0.135723 -0.584951 -1.085456 -1.016056 -0.175323 0.352092 -0.015544 0.409978 -0.402571 0.378709 -0.351795 0.046183 0.030067 -0.310320 -0.292445 0.031126 -0.665540 -0.610166 0.531424 -0.359935 -0.526894 0.538570 0.363924 -0.205060 0.088166 -0.260725 -0.065272 0.333280 0.962931 -0.438783 0.130555 -0.709087 -0.707656 -0.302664 -0.650655 -0.322308
Ke4 -0.507096 0.693974 -0.337591 0.145947 -0.037736 0.015145 -0.098771 0.310696 0.265082 0.555297 0.351499 0.353834 0.546882 -0.892361 -0.213913 0.163121 3.408278 0.006310 0.286810 0.492754 -0.461640 0.641052 0.442266 0.138075 0.399291 0.160059 0.370938 -0.150372 -0.248634 0.137191 -0.017013 0.105797 0.760442 0.760535 0.051088 -0.275868 0.028928 -0.583309 -0.001668 0.572957 0.724202 -0.412955 0.134700 -0.122120 0.591709 0.037199 0.385938 -0.251381 0.616310 -0.668893
Ke5 -0.415446 0.955781 -0.458323 0.548590 -0.333244 0.335365 0.301603 0.647912 0.242218 -0.762567 0.242536 0.592599 0.650065 -0.273620 0.288546 0.645947 3.372948 -0.115804 0.267970 0.585996 -0.343468 -0.081166 -0.059667 0.843198 0.109044 0.153458 0.296324 -0.087614 -0.204748 0.214523 -0.117331 -0.418342 0.187330 0.538382 0.729886 -0.045005 -0.287395 -0.233195 0.624388 0.573559 0.101894 -0.584079 0.070912 0.112688 -0.275072 0.141212 0.376471 -0.327716 0.144089 -0.224527
Bxc5 0.051152 0.453486 -0.676364 0.717903 -0.050672 0.280094 -0.370835 0.335481 0.233358 -0.060517 0.153855 0.816858 -0.471164 0.206419 0.051266 -0.841898 -0.876897 -1.202183 -0.112236 0.234803 -0.116112 -0.044288 0.234995 -0.005231 0.512938 0.868611 0.439993 0.894954 0.243494 0.353421 -0.152950 0.766147 0.416066 -0.345763 -0.481440 -0.110352 0.207663 0.044445 -0.066678 0.072554 -0.070053 0.507839 0.145570 -0.995171 0.402906 -0.181658 -0.953762 0.190314 0.792694 0.060494
Bh4 -0.354406 0.432090 -0.631663 -0.186661 -0.054806 -0.409637 -0.101265 0.106492 -0.271938 0.226049 0.880957 -0.142029 -0.611875 0.157522 -0.131425 -0.000326 -0.775950 -0.938014 0.400425 1.653696 -0.116848 0.567585 0.254083 -0.173546 -0.468665 -0.016647 -0.388843 -0.537963 0.329953 -0.042896 0.358611 0.267578 -0.258570 -0.226494 -0.360072 0.502388 0.063517 -0.032195 -0.060268 0.127827 0.035817 -0.262867 -0.050211 -0.073323 -0.153059 -0.140973 -0.625978 0.317124 0.610394 0.027982
Rac8 -0.597316 1.124480 -0.082094 -0.712818 0.416649 0.807575 -0.309856 0.239758 -0.744778 0.112343 -0.161520 -0.070860 0.175328 -0.132082 0.196127 -0.344818 -2.172704 -0.155054 0.418650 0.888224 0.508234 -0.363860 0.119937 0.396527 0.483599 0.599833 0.502225 -0.075134 -0.004590 0.075078 -0.191807 0.080589 0.521054 0.319063 -0.096230 0.606240 0.323397 -0.350037 -0.318543 -0.736093 -0.899472 0.009296 -0.164151 -1.055298 0.484381 -0.202901 -0.413443 -0.123938 -0.025622 0.688593
Bf1 -0.414173 0.968606 0.137359 -0.583563 -0.120760 -0.177969 0.056716 -0.234697 0.175207 -0.640654 0.365837 -0.032004 -0.062591 0.746849 0.855228 0.178339 -0.450253 -0.508061 -0.352261 0.585123 -0.026789 0.200831 0.086310 0.130301 0.511842 -0.475059 0.673626 -0.119484 -0.127149 0.412009 0.719971 -0.182248 0.270373 0.135549 0.108121 0.362316 -0.012098 0.029528 0.390743 -0.564697 -0.720334 0.157407 0.149476 -0.462310 -0.068027 0.282867 0.355910 -0.593845 0.090071 0.215252
Na4 0.351361 1.036944 -0.369844 -0.057788 0.357690 -0.058326 0.160559 0.216044 0.101455 0.067963 0.198834 0.212330 -0.256443 -0.021356 0.443092 -0.752195 -1.284238 -0.933170 -0.049052 0.954611 0.223230 0.555727 -0.062213 -0.077767 0.590888 0.482950 0.726656 0.422701 0.542737 -0.032275 -0.581147 -0.042325 0.468224 -0.280557 0.596578 0.282379 0.041563 -0.280416 0.812623 -0.276848 -0.213419 0.225536 -0.038104 -0.537644 -0.098322 0.533839 0.038901 -0.076638 0.681767 0.221228
Rac1 -0.573585 1.132258 0.219809 -0.626012 0.391856 0.584017 0.340506 0.533018 -0.741859 -0.120813 0.121536 0.431841 0.068369 -0.411896 0.079925 -0.511513 -2.469417 -0.667036 -0.396933 0.623945 -0.284867 -0.292326 0.050967 0.300286 0.194639 0.417036 0.685880 -0.206341 -0.455113 0.395727 -0.525426 0.510297 0.132704 0.551513 -0.531377 0.118692 -0.112803 -0.089897 -0.253414 -0.126616 -0.305393 0.329067 0.300998 -1.027660 0.251686 -0.309986 -0.146596 -0.445370 -0.065792 0.711836
gxf5 0.444237 0.057256 0.047255 0.072953 -0.175232 0.051501 -0.897032 0.185763 0.148104 -0.063005 -0.221962 -0.660302 0.361139 -0.630582 -0.285731 0.180483 -0.169216 0.235366 0.477879 1.290600 -0.902509 -0.018000 0.262455 0.477334 0.018888 0.926854 0.209674 0.191306 -0.410117 0.368144 0.321166 0.221705 0.168748 -0.106346 0.374831 -0.270218 0.248368 -0.366317 0.199104 0.024582 0.373757 -0.244975 -0.264221 0.181456 -0.264787 -0.233412 -0.682210 -0.681679 0.379729 -0.659653
Rd6 -0.994341 0.324081 -0.227106 0.182747 0.166632 0.396658 -0.245333 0.248569 0.212593 -0.120022 0.476582 0.367352 0.865788 -0.410192 0.140697 0.609624 0.360262 -0.255755 0.346148 -0.230902 -0.275384 0.149013 -0.434521 -0.359634 0.039794 -0.294806 0.019204 0.406156 -0.093582 0.555333 -0.749112 -0.357611 0.250631 -0.394042 0.003815 -0.267064 0.225249 -0.189938 0.505791 -1.127845 0.024169 0.094052 0.538036 -0.411928 0.114850 -0.189548 -0.122629 -0.301055 0.143798 0.577368
Bg3 -0.221463 0.188527 -0.526397 -0.413783 0.108281 -0.327660 0.083281 -0.069455 -0.012118 0.403888 0.478855 0.209258 -0.157480 0.173005 0.314839 0.087685 -0.587544 -1.032243 -0.170671 1.530726 -0.383159 0.000505 0.295901 -0.265074 -0.069787 -0.082989 -0.183854 -0.403183 0.337900 -0.131480 0.214505 0.704939 -0.216729 -0.045144 -0.604061 0.053239 -0.193824 -0.097185 -0.012636 -0.240283 0.397488 -0.298130 0.162066 -0.616514 0.008385 -0.130289 -0.415267 0.458103 0.366216 0.201022
