O-O 0.615892 1.548943 0.155351 3.491834 -0.504412 -2.106058 -1.568034 -1.343543 0.675526 -0.767344
Nf6 0.738621 1.122278 0.202069 1.711714 0.083776 -1.661572 0.005278 -1.127427 -0.140129 -0.863074
Nf3 0.870283 1.015958 0.236974 1.733622 0.089437 -1.810758 0.243873 -0.950910 -0.058314 -0.728912
<end> 0.810073 1.183750 0.763679 1.196094 0.096111 -1.898737 1.507187 -0.773278 0.118023 -1.524909
<start> 0.747460 1.082548 0.663701 1.152235 0.076231 -1.823663 1.354472 -0.859315 0.066171 -1.341880
d4 0.824883 1.031853 0.440483 1.600462 0.026252 -1.726602 0.575257 -1.049248 0.018014 -0.929073
e4 0.765511 1.109773 0.304578 1.632800 -0.047036 -1.631166 0.629248 -1.036461 0.060481 -0.822888
Nc3 0.805766 1.012771 0.269785 1.946455 -0.409297 -1.489516 0.044929 -1.232172 0.331421 -0.674666
d5 0.778478 0.965033 0.217368 1.909576 0.052562 -1.526405 -0.047113 -1.232715 0.047488 -0.695099
e5 0.694111 0.935123 0.118461 1.854178 -0.075901 -1.357358 -0.243386 -1.346959 -0.020491 -0.470558
c5 0.782529 0.847585 0.017706 1.759983 0.099660 -1.358678 0.096363 -1.292747 0.084649 -0.465424
Nc6 0.692902 1.040560 0.002744 2.053221 -0.168059 -1.444173 -0.266386 -1.386915 0.526467 -0.584170
c4 0.769150 0.726489 0.100560 1.586538 -0.015370 -1.230074 0.241847 -1.285839 -0.051859 -0.507662
e6 0.688116 1.077954 0.436158 1.720426 -0.007684 -1.603264 0.227066 -1.246188 0.046960 -0.939255
g6 0.444899 0.747342 0.108883 1.397371 -0.037522 -1.040665 0.031789 -1.320007 -0.544740 -0.628560
d6 0.505456 1.104415 0.345053 1.827635 0.120921 -1.727103 0.346009 -1.165597 0.358240 -0.842110
f4 0.361384 0.302369 -0.507775 1.139379 -0.017848 -0.923010 -0.358964 -1.257707 -0.433290 0.547271
f5 0.169372 0.308281 -0.441950 0.985803 -0.073312 -0.703609 -0.493313 -1.396617 -0.617699 0.416783
b5 0.474919 0.022872 -0.691059 1.322251 -0.155994 -0.493226 -0.433335 -1.671204 -0.051692 0.400215
Be7 0.784903 0.770980 -0.406215 1.914095 0.033798 -1.122648 -0.917541 -1.640856 0.148324 -0.455020
a6 0.675286 0.544888 -0.703447 1.840509 0.108912 -0.981258 -0.153084 -1.490797 0.479207 -0.046540
Be3 0.507476 0.216184 -0.428741 1.962179 -0.174139 -1.202584 -0.905449 -1.070270 0.166878 0.419010
b4 0.451639 -0.140789 -0.535389 1.230409 -0.345215 -0.360636 -0.410089 -1.635175 -0.223123 0.514348
a4 0.494173 -0.031500 -0.717111 1.138878 -0.400232 -0.217133 -0.006882 -1.623665 -0.233806 0.540739
a5 0.384107 -0.070720 -0.813073 1.087917 -0.298814 -0.155312 -0.082497 -1.664204 -0.238814 0.549004
Bd3 0.782050 0.488260 -0.072552 1.765859 -0.437075 -1.114952 -0.743594 -1.310889 -0.343888 -0.095901
g3 0.425259 0.384040 -0.409568 1.465586 0.216203 -1.171667 0.413938 -0.817659 -0.232965 0.111331
cxd4 0.658604 0.761789 0.538375 2.262108 -0.001403 -1.460151 -0.530890 -1.128922 0.087148 -0.535708
h3 0.270200 0.357985 -0.777552 1.705100 0.116482 -0.951330 -0.025060 -0.806953 -0.319875 0.677624
h6 0.162620 0.603546 -0.230571 1.377783 -0.087616 -0.554573 -0.621831 -1.578163 -0.799389 -0.031502
Bg7 0.604957 0.893026 0.034755 1.606202 -0.054797 -1.342653 -0.292666 -1.210316 -0.318756 -0.875548
h4 0.288376 0.136659 -0.838375 0.612580 -0.077384 -0.568352 0.182900 -1.164730 -0.890227 0.591988
h5 0.217580 0.151356 -0.748235 0.483045 -0.147231 -0.460218 0.075287 -1.285401 -1.010827 0.477585
g4 0.390931 0.254126 -0.755918 0.608559 -0.052253 -0.828485 -0.034156 -1.176939 -0.766162 0.757208
c6 0.574393 0.763945 -0.163415 1.666950 0.215109 -1.454050 0.008492 -1.168090 0.352273 -0.437404
Bg5 0.430317 0.779114 -0.114521 1.825699 0.120101 -1.364586 -1.036966 -1.126357 -0.381338 -0.346574
Nxd4 0.274314 0.616302 0.664929 2.083416 -0.151316 -1.412933 -0.628157 -1.040090 0.380411 -0.233913
a3 0.767868 0.118076 0.032797 1.632003 -0.726726 -0.460931 -0.477668 -1.644560 -0.271066 0.080037
g5 0.233568 0.284400 -0.628539 0.417990 -0.045994 -0.638422 -0.114871 -1.392822 -0.871775 0.483884
Qc7 -0.586164 -0.319107 -0.912379 2.536345 0.029177 -0.260236 -1.349789 -0.812667 -0.425593 -0.684472
Be2 1.112533 0.385095 -0.412696 1.836896 -0.284184 -1.250569 -0.681660 -1.126159 -0.110878 0.097123
Ne5 -0.235309 0.265715 -0.255276 1.390956 0.116111 -0.793755 -1.228925 -1.147834 -0.256835 0.509401
b6 0.412283 0.216488 -0.777458 1.538489 0.238245 -0.788291 -0.238203 -1.315767 0.289131 0.186917
c3 0.728874 0.399818 0.397435 1.669930 -0.297145 -1.054042 -0.404940 -1.371670 -0.163848 -0.363682
Re1 -0.247548 0.096462 0.078465 1.495453 0.198288 -0.718929 -0.102790 -0.735535 -0.627468 0.765988
Bd7 0.476384 0.229263 -0.928300 1.505144 -0.026800 -0.766056 -1.310414 -1.449878 -0.171316 -0.135697
b3 0.421714 -0.100250 -0.037634 1.380370 -0.561178 -0.356161 -0.471567 -1.409281 -0.397434 0.166249
Re8 -0.658035 0.325022 -0.140476 1.180243 0.596998 -0.417265 -0.350183 -1.168365 -0.639118 0.360437
exd5 0.251743 0.592441 0.426300 2.089537 0.017460 -1.071600 -0.586006 -1.263855 0.350659 -0.465152
Qd2 -0.280474 -0.567718 -0.551812 2.424147 -0.340117 -0.550873 -1.225153 -0.152131 -1.048957 -0.221221
Nd7 -0.024730 0.207391 -0.875994 1.408297 -0.200730 -0.410969 -1.307851 -1.519519 -0.081617 -0.099470
Nd5 -0.319908 0.271136 -0.134945 1.403302 -0.081679 -0.621068 -1.021150 -1.346334 0.130863 0.342897
Ne4 -0.224682 0.154003 -0.136059 1.358657 -0.052779 -0.832255 -1.035343 -0.965629 -0.293309 0.633665
f3 0.257800 0.021796 -0.633343 1.289359 -0.000241 -0.952591 -0.126393 -0.784578 -0.233064 0.770233
Qe2 -0.190422 -0.639579 -0.653529 2.467410 0.060650 -0.743820 -1.055027 -0.070957 -0.831790 -0.230179
Rc8 -0.457555 0.007663 -0.530323 1.210756 -0.360669 0.242401 -0.045318 -1.548236 -0.045724 0.137742
e3 0.481466 0.913054 0.252985 1.815424 -0.158507 -1.516836 0.475817 -0.861846 0.239938 -0.242492
Be6 -0.153823 0.169366 -0.107402 1.260826 -0.042095 -0.634658 -1.151128 -1.615362 -0.151379 0.226949
cxd5 0.179351 0.471135 0.235729 2.023170 0.213878 -1.029330 -0.716983 -1.137924 0.183128 -0.237803
Bg2 0.849405 0.665837 -0.217447 1.777548 0.050134 -1.612671 0.015904 -0.749685 -0.047686 -0.264692
Bb7 0.076376 0.650730 -0.438733 1.953622 -0.093504 -0.808145 -0.934802 -1.442725 0.217816 0.003001
f6 -0.132108 0.122167 -0.258862 0.769550 0.007494 -0.387074 -0.651555 -1.532062 -0.670496 0.056606
Qc2 -0.389537 -0.335134 -0.745513 2.701710 -0.558651 -0.423969 -0.904132 -0.240817 -0.608297 -0.191343
Kg7 -1.569334 0.647734 -0.391853 -0.271891 -0.035536 0.064940 0.950565 -1.087123 -1.590923 -0.245453
Bc4 0.440906 0.663639 0.206473 1.597145 -0.308095 -0.972394 -0.212158 -1.383430 0.121918 -0.206279
Rc1 -0.215993 -0.136702 -0.363808 1.497661 -0.812461 0.015938 0.293141 -1.024512 -0.026475 0.665886
Nd4 -0.140859 -0.049380 -0.194310 1.229910 -0.330955 -0.560702 -0.948518 -1.087063 0.076921 0.766817
Bf4 0.277131 0.308207 -0.316246 1.638559 0.343941 -1.307338 -0.735374 -1.011908 0.055310 0.193204
Nd2 0.386816 0.057863 -0.717392 1.699972 -0.757241 -0.817717 -0.730236 -0.829435 -0.008149 0.471877
Qe7 -0.659277 -0.466300 -0.742608 1.917795 0.361240 -0.363368 -1.244699 -0.524743 -1.107788 -0.751782
dxe5 -0.413613 0.340647 0.089634 1.655285 0.407361 -1.025508 -1.501360 -0.998186 -0.234233 0.068790
Rd1 -0.401602 -0.450360 0.052286 1.315671 -0.186109 -0.240901 0.269697 -0.897357 -0.233318 0.870207
Bd2 0.712107 0.102200 -0.578643 1.677683 -0.619564 -0.906216 -0.887468 -1.074553 -0.070562 0.255839
Bd6 0.182941 0.309828 -0.530278 1.435751 0.306496 -1.018233 -0.603741 -1.328326 0.208596 0.216724
Rd8 -0.775897 -0.094325 -0.116361 0.947410 0.294626 0.076764 0.035429 -1.404847 -0.177081 0.350492
Rb8 -0.398378 0.363461 -1.141379 0.992409 -0.806826 0.381524 0.167968 -1.563389 0.067574 0.061083
Kg2 -0.820512 -0.078550 -0.810237 0.452625 -0.294230 -0.801928 1.706492 0.290587 -1.186824 1.124725
Nbd7 0.842675 1.518021 -0.116092 3.003484 -0.546483 -1.862209 -1.600482 -1.172765 0.353260 -0.738842
Nxd5 -0.572412 0.350445 0.443826 1.851264 -0.048708 -0.773272 -1.079115 -1.220303 0.390534 0.053182
Kf7 -0.893434 0.417066 -0.249119 -0.745789 0.189248 -0.181170 0.719663 -1.677080 -0.793950 -0.100667
Bg4 0.481567 0.475493 -0.198389 1.612319 0.269970 -1.501076 -0.910868 -0.791688 -0.368630 0.207618
Nxe4 -0.405613 0.272134 0.467170 1.596799 -0.126327 -1.225080 -1.118881 -0.712670 -0.110883 0.328510
Kf2 -0.076346 -0.296235 -0.312079 -0.017402 -0.495990 -0.872486 1.440246 -0.397516 -0.620381 1.360410
Nc5 -0.314347 -0.273823 -0.605851 0.945870 -0.590713 0.002490 -1.107127 -1.502418 0.175900 0.803420
Nxe5 -0.599148 0.231713 0.188522 1.463537 0.355850 -1.137643 -1.292883 -0.910421 0.078586 0.258015
Qd7 -0.872065 -0.475239 -1.109070 2.000167 0.382279 -0.259064 -1.137413 -0.378085 -0.666295 -0.654172
Ke7 -0.167229 -0.131768 -0.259490 -1.053468 0.291195 -0.313648 0.462060 -2.254066 0.078871 -0.321898
d3 0.566106 0.828449 0.662070 1.577848 -0.283618 -1.533896 0.336838 -0.948750 0.093480 -0.430504
Qb6 -0.457617 -0.560884 -0.477214 2.474329 -0.241916 -0.168749 -1.017107 -0.730597 -0.147943 -0.630903
Bf5 0.150474 0.365381 0.137096 1.212117 -0.020971 -1.005219 -0.697850 -1.127133 -0.511683 0.076981
Nc4 -0.168372 -0.266215 -0.751307 1.034194 -0.679782 -0.150590 -0.938941 -1.199543 0.268447 0.993506
Kf8 -0.951157 0.566512 0.090271 -0.015960 0.107824 0.100948 0.225307 -1.718217 -0.885218 -0.891635
Rb1 -0.007462 0.084863 -1.002068 1.220382 -1.328643 0.045637 0.561508 -0.968909 0.055576 0.571995
Ne2 0.657259 -0.355019 -0.539925 1.271590 -0.476312 -0.932444 -1.057774 -0.631850 -0.630382 0.626815
Bb5 0.341153 0.392676 -0.277053 1.564259 -0.347441 -0.683904 -0.043668 -1.303344 0.302616 -0.165991
Kh1 -0.867980 0.248317 -1.000099 1.929974 0.272637 -1.574987 0.236843 1.222215 -1.012241 0.326973
Bxf6 -0.759909 0.544495 0.614449 1.553517 0.147309 -0.727715 -1.380179 -1.229540 -0.684452 -0.524293
Kh8 -1.584592 0.980966 -0.106128 0.968777 -0.077516 -0.483344 -0.628515 -0.242240 -2.100210 -1.202377
Ne7 0.214521 0.290961 -0.882373 0.900272 0.354113 -0.665476 -1.259650 -1.395701 -0.237809 -0.191915
Ke2 0.691468 -0.958142 -0.074386 -0.398178 -0.906183 -1.084665 1.255668 -0.730284 -0.028843 1.201401
O-O-O 0.922182 -1.499464 0.262734 1.679453 0.824916 -1.953600 -3.596906 -1.102752 0.023462 -0.574223
Bc5 0.127432 0.291419 -0.133154 1.447829 -0.030074 -0.911542 -0.087717 -1.209789 0.401442 0.227841
Nb6 -0.093250 -0.028359 -0.977436 1.395436 -0.550509 -0.036913 -1.202187 -1.617918 0.532339 0.257503
Qd3 -0.666498 -0.940775 -0.535085 2.134669 -0.189679 -0.351315 -0.639156 -0.053749 -0.814651 -0.230186
Bb4 0.387211 0.413930 -0.020791 1.702090 -0.481597 -0.733607 -0.036233 -1.394187 0.404899 -0.059278
Kf6 -0.324408 0.867390 -0.085825 -1.452655 0.147888 -0.365672 1.751920 -1.886164 -0.517942 0.393268
Kf1 -0.047041 -0.392305 -0.417712 0.952074 -0.327944 -1.100012 1.437920 0.276349 -0.276594 1.093797
Ke3 0.945837 -0.259928 0.108563 -1.160350 -0.784962 -0.955858 1.787699 -1.353894 -0.114392 1.383303
Nf5 -0.275952 0.140394 -0.588783 0.472878 0.275835 -0.789317 -1.223682 -0.804470 -0.701909 0.552731
Bb2 0.277599 0.675021 -0.193078 1.829573 -0.717137 -0.832949 -0.554223 -1.073398 0.101868 0.243037
Rd2 -0.305269 -0.565550 0.067198 0.950361 -0.141478 0.228063 0.759899 -0.840251 -0.615734 1.202217
Kh2 -1.210328 0.109238 -0.976458 1.056396 -0.199796 -0.855176 1.482804 0.833411 -1.413879 0.339259
exd4 0.169991 0.465450 0.485218 2.103316 -0.087502 -1.008218 -0.707205 -0.981572 0.213940 -0.046437
Kf3 0.305068 0.193588 -0.028370 -0.875528 -0.538708 -0.978126 2.270488 -0.818974 -0.488393 1.535468
Nf4 -0.127627 -0.125573 -0.542145 0.486500 -0.060494 -0.799909 -1.171712 -0.601902 -0.815156 0.824559
Qb3 -0.537909 -0.559533 -0.619782 2.616618 -0.386490 -0.224498 -0.756552 -0.408630 0.034299 -0.420607
Qf3 -0.694119 -0.840495 -0.502625 1.716730 0.427820 -0.746410 -0.675986 0.135747 -1.076939 -0.263874
Qa5 -0.336679 -0.728744 -0.204784 2.480131 -0.656084 -0.124438 -1.074620 -0.819410 -0.176669 -0.888451
Bf6 -0.363785 -0.001048 -0.438356 0.740136 -0.018178 -0.322041 -0.766302 -1.222015 -0.701508 0.125204
Rd7 -0.861188 -0.169900 -0.257382 0.563055 0.553866 0.594915 0.595128 -1.440399 -0.432685 0.508417
Kh7 -1.630291 0.673432 -0.511272 0.332128 -0.109686 -0.214552 0.817297 -0.218125 -1.911918 -0.905696
Kg8 -1.653826 0.684439 0.066907 -0.134352 0.147986 -0.102307 0.464929 -1.002133 -1.906985 -1.353942
Rc7 -0.766086 0.047926 -0.708346 0.612431 -0.088580 0.876519 0.741655 -1.564806 -0.444685 0.305931
Bb3 0.268341 0.365296 0.219076 1.287309 -0.497795 -0.497404 -0.660350 -1.575864 -0.182449 0.348505
Ng5 -0.362838 0.472106 -0.410327 0.736415 0.191350 -1.045404 -1.407694 -0.680600 -0.812859 0.139961
Ke6 0.152066 0.370005 -0.061674 -1.704463 0.251642 -0.604166 1.505804 -2.281829 0.306533 0.378102
Ng4 -0.220584 0.278463 -0.551462 0.974661 0.034034 -1.189511 -1.195387 -0.244437 -0.836177 0.592598
dxe4 -0.010096 0.448856 0.371495 1.698165 0.074521 -1.209740 -1.018688 -0.586142 -0.391536 0.164318
Rad1 -0.897027 -0.061877 -0.168909 2.221470 1.206069 -0.236166 -1.973593 -0.814627 -0.263246 0.928440
Bc6 -0.286561 -0.220645 -0.680745 0.823515 0.037389 -0.226959 -0.343094 -1.346703 -0.032692 0.398042
Ne3 -0.058758 -0.279820 -0.707845 0.512250 -0.458373 -0.535558 -0.733758 -0.578649 -0.540916 1.211282
Nb3 0.332223 -0.388018 -0.612078 1.557460 -1.090260 -0.211867 -0.973939 -1.233187 0.407306 0.720288
bxc3 0.072262 -0.149781 0.828643 1.616530 -0.968771 -0.366453 -0.863789 -1.248369 -0.433902 -0.471937
Qe3 -0.773873 -1.262148 -0.458211 1.629692 0.008938 -0.303761 -0.530519 0.152766 -1.240644 -0.163680
Bxf3 -0.284604 0.116898 0.044336 2.012456 0.340441 -1.519888 -0.700133 -0.074362 0.052879 0.671387
Nd3 -0.149654 -0.412164 -0.807909 0.476745 -0.900520 -0.193647 -0.565149 -0.715362 -0.149742 1.370861
Bf3 0.028782 -0.334913 -0.682977 0.924644 -0.010932 -0.739730 -0.265404 -0.683251 -0.390525 0.925167
Bd4 -0.449138 -0.352717 -0.280362 0.726127 -0.400147 -0.489982 -0.046213 -0.931776 -0.276488 0.652019
Bxd5 -0.934053 -0.251406 0.313175 1.241492 0.178502 -0.188383 -0.729047 -1.201360 -0.015149 0.267975
Nbd2 0.752791 1.538215 -0.253908 2.895644 -0.412949 -1.900476 -1.345100 -0.930979 0.654054 -0.571917
axb5 -0.180788 -0.138285 -1.180045 1.054801 -0.332195 0.051711 -0.317345 -1.246477 0.418890 0.463201
Qf6 -0.959272 -0.726475 -0.374943 1.357536 0.480076 -0.488951 -0.764137 -0.125493 -1.343526 -0.636556
dxc5 -0.108057 -0.007387 -0.341349 1.961762 -0.045694 -0.456656 -0.974701 -1.184417 0.590374 0.111788
Ne6 -0.727185 0.012171 -0.715042 0.112677 0.086850 -0.316411 -1.000365 -1.129307 -0.400871 0.680711
Kd7 0.247495 -0.887429 -0.734112 -1.225401 0.754868 -0.663394 0.475629 -2.082663 0.652900 -0.575330
Re2 -0.282439 -0.605503 -0.035253 0.697666 0.161905 -0.049555 0.802678 -0.362456 -1.119360 1.246682
Rf8 -0.767822 -0.199653 -0.614696 -0.039254 0.717181 -0.423361 0.080505 -0.690922 -1.258387 -0.164967
Rc2 -0.300682 -0.231467 -0.507168 0.985942 -0.774379 0.505198 1.196479 -0.791219 -0.420048 1.155686
Bxe4 -0.856105 -0.206316 0.367171 1.151138 -0.032032 -0.678584 -0.762757 -0.551999 -0.561854 0.705878
Qd6 -1.118843 -0.775464 -0.502923 1.817741 0.408808 -0.205292 -0.552872 -0.393415 -0.666283 -0.702485
Kd3 1.362962 -0.922003 0.075996 -1.336651 -0.967161 -0.937759 1.622696 -1.539074 0.294157 1.035740
Re7 -0.898620 -0.098998 -0.266874 0.211417 0.909838 0.306101 0.521386 -1.111590 -1.018251 0.335253
Bxe5 -1.034762 -0.128023 0.058093 1.030194 0.429603 -0.632107 -0.820545 -0.796216 -0.236363 0.449935
Kg1 -0.637998 -0.414885 -0.668023 0.943409 -0.044426 -1.369987 1.790876 1.082307 -1.019856 0.802770
Kg3 -0.156973 0.348882 -0.205193 -0.650440 -0.410048 -1.027005 2.438475 -0.184987 -1.109246 1.094718
Ra8 -0.446183 0.297813 -1.573820 0.143346 -0.973408 0.692492 0.951516 -1.444649 -0.137713 0.424615
Ng3 0.358339 -0.032048 -0.706750 0.879738 -0.073595 -1.135097 -1.300828 -0.302785 -1.194146 0.738323
Rf1 -0.367012 -0.644143 -0.380438 0.230332 0.044514 -0.704547 0.390395 -0.021842 -1.468198 0.539532
Nd6 -0.724528 0.060515 -0.860417 0.154003 -0.188811 -0.027428 -0.749434 -1.352079 0.129551 0.688672
Bf8 -0.623574 0.122719 -1.121386 0.758290 -0.465617 0.261175 -0.790896 -1.203708 -0.467301 -0.137225
Kg6 -0.850479 1.025732 -0.246885 -1.292337 0.172896 -0.428909 1.965360 -1.254138 -1.147626 -0.016723
Kd2 1.175619 -1.655205 0.436990 -0.811603 -1.121478 -0.979233 0.823238 -1.035687 -0.315768 0.611930
Kd6 0.641673 -0.334028 -0.277132 -1.868177 0.278074 -0.683309 1.301815 -2.445729 0.758595 0.120416
Bxc4 -0.181519 -0.141253 0.259323 1.446879 -0.835981 -0.100051 -0.815777 -1.345790 0.225412 0.214059
Bxd4 -0.506166 -0.471847 0.466053 1.545599 -0.202814 -0.512837 -0.608614 -0.728647 0.003869 0.606913
Nb5 -0.125342 -0.129545 -0.880176 1.181115 -0.536641 -0.229653 -0.967789 -1.266691 0.797953 0.379621
Qd8 -0.874689 -0.111859 -1.440518 1.607311 0.151352 -0.030347 -1.015367 -0.379892 -0.902409 -1.037356
Be4 -0.243335 -0.223910 -0.138002 0.611568 -0.071703 -0.652588 -0.087636 -1.005952 -0.464391 0.565490
fxe5 -0.475480 -0.122747 0.013697 0.654945 0.324622 -0.550890 -0.898184 -1.059387 -0.305854 0.403320
Nh5 -0.164560 0.245672 -0.849713 0.935817 -0.016271 -0.979807 -1.697068 -0.385658 -1.276373 0.385960
dxc4 0.203062 0.336877 0.266474 1.906839 -0.443979 -0.582816 -0.646582 -1.163764 0.285505 -0.206547
Bd5 -0.577290 -0.098046 -0.138683 0.534929 -0.018174 -0.371463 0.079281 -1.281508 -0.163565 0.445976
axb4 0.096971 -0.254513 -0.586020 0.935619 -1.073117 0.331062 -0.320881 -1.323492 -0.139275 0.542326
Rd3 -0.245091 -0.695137 0.146661 0.673948 -0.032936 0.281102 0.861837 -0.976135 -0.680392 1.229091
Ra1 -0.092368 0.130713 -1.354420 0.304776 -1.459114 0.435817 1.159536 -1.052039 -0.264948 0.844757
Bc2 0.411386 0.039056 -0.479321 0.806928 -0.698216 -0.408476 -0.775495 -1.232399 -0.708406 0.616255
Bh6 -0.357493 0.022505 -0.616332 0.925630 -0.431124 -0.578270 -1.403049 -0.624217 -1.084925 0.014789
Na5 0.112830 -0.294867 -0.844765 1.542059 -0.685407 -0.013072 -1.265406 -1.459150 0.604997 0.416738
Be5 -0.525645 -0.161679 -0.355048 0.475306 0.139830 -0.567227 -0.085285 -0.983239 -0.427804 0.508273
Nb4 0.098184 -0.186397 -0.310873 1.255545 -1.020099 -0.088168 -0.952866 -1.324543 0.557054 0.569341
Ng6 -0.075505 0.238760 -0.926635 0.543761 0.513609 -0.826418 -1.471182 -0.821591 -0.927977 0.190944
Bc3 -0.098800 -0.241613 -0.442728 0.855028 -0.647612 -0.252979 -0.143004 -1.056296 -0.207832 0.749566
Qxd4 -0.785870 -0.515756 0.791027 2.002047 0.075568 -0.765068 -0.447898 -0.453311 -0.161877 -0.543354
Qxd5 -0.901038 -0.302368 0.664641 1.898260 0.327067 -0.739980 -0.056940 -0.572514 0.046463 -0.632522
bxc6 -0.320180 -0.097221 -0.636396 1.869676 0.580889 -0.752454 -0.365723 -0.860885 1.044960 0.082140
exf5 -0.317870 -0.002970 -0.319929 0.343904 0.175799 -0.669427 -1.411099 -0.806735 -1.136942 0.389224
Rg8 0.417281 -0.182770 -0.852629 -0.514993 0.782746 -0.841840 -0.287066 -0.849156 -1.436345 -0.655821
Re3 -0.270726 -0.578857 0.172893 0.493283 0.273402 -0.065932 0.639897 -0.607644 -1.307190 1.163335
Rf7 -0.635329 -0.163150 -0.810951 -0.172342 0.897949 -0.125787 0.047134 -0.773302 -1.424384 -0.133218
Ba6 -0.043807 0.000143 -0.759769 1.513746 -0.734104 -0.199281 -0.861439 -1.097838 0.325481 0.218241
Qg4 -0.953622 -0.656386 -0.339902 1.434604 0.589940 -0.740836 -0.794490 0.208010 -1.368589 -0.433022
Rfd1 -1.181928 0.139610 -0.581566 2.921729 0.622487 0.515652 -1.383808 -0.833772 0.300288 0.857586
Ra7 -0.396810 0.794620 -1.296194 0.175095 -0.572675 0.863876 0.858973 -1.628405 -0.433617 0.283319
Rad8 -0.691167 -0.341600 0.462587 2.097580 0.614377 -0.022884 -1.750088 -0.538353 -0.839688 1.177473
fxe4 -0.384453 -0.207052 -0.104989 0.739517 -0.183524 -0.709737 -0.600404 -0.552650 -0.324324 0.845361
Qh4 -0.851700 -0.561171 -0.464453 1.453547 0.494997 -0.865370 -1.096755 0.437421 -1.673128 -0.361653
Bxc6 -0.598571 0.034999 -0.260326 1.710752 0.417056 -0.578495 -0.313258 -1.063210 0.993701 -0.014325
Ke4 0.728453 0.418387 0.334690 -1.902596 -0.524214 -1.317489 2.284196 -1.663199 0.311336 1.106091
Ke5 0.448544 0.658515 0.270969 -2.081163 -0.214633 -1.139885 2.203085 -2.003757 0.290301 0.749087
Bxc5 -0.527565 -0.352901 -0.255691 1.422604 -0.226477 -0.229989 -0.678933 -1.117269 0.880884 0.517967
Bh4 0.440208 0.291979 -0.701624 1.174180 0.273322 -1.303747 -0.995542 -0.630916 -0.576280 0.248856
Rac8 -0.511903 -0.417378 0.128399 2.352624 -0.319493 0.665078 -1.481820 -0.904344 -0.533895 0.685186
Bf1 -0.035257 -0.344229 -1.371598 1.120801 -0.805475 -0.231598 -0.176581 -0.272304 -0.315830 0.902898
Na4 -0.117134 -0.605057 -0.901021 1.336233 -0.900783 0.139253 -1.273417 -1.343729 0.484263 0.622072
Rac1 -0.685547 -0.038320 -0.589396 2.500772 0.264235 0.319016 -1.408116 -0.770952 0.322720 0.651085
gxf5 -0.344923 0.083048 -0.228209 -0.378408 -0.078156 -0.497631 -0.782814 -0.983055 -1.209089 0.541979
Rd6 -0.823008 -0.212286 -0.033288 0.218541 0.690950 0.589155 0.821547 -1.539089 -0.472579 0.733697
Bg3 0.280314 -0.149685 -0.832192 1.105294 0.437349 -1.121367 -0.678448 -0.593466 -0.161894 0.832612
Qh5 -0.808381 -0.361713 -0.425811 1.456909 0.747234 -0.968850 -1.192960 0.238337 -1.522078 -0.592470
Rfe1 -1.202765 0.241846 -0.438816 2.367082 1.171366 -0.114436 -1.600886 -0.422884 -0.458285 0.718368
Qc6 -1.260911 -1.162073 -0.710149 1.604332 0.240707 0.129715 -0.282896 -0.325283 -0.295199 -0.694236
Rf2 0.036616 -0.756135 -0.348311 0.288365 0.085259 -0.477768 0.537645 -0.015126 -1.579382 0.786859
Kf4 0.537228 0.948710 0.298586 -1.681114 -0.379286 -1.362531 2.529793 -1.250889 -0.366342 0.970516
Qg3 -0.730359 -0.981875 -0.365641 1.411774 0.447215 -0.764426 -0.851867 0.342863 -1.555965 -0.273357
Qf2 -0.548420 -1.415423 -0.681192 1.435886 0.052456 -0.520173 -0.618595 0.483803 -1.385425 -0.153546
Nc7 -0.509243 0.016901 -1.179595 0.406049 -0.312632 0.077929 -1.027966 -1.391367 0.314179 0.447622
Qg5 -1.131056 -0.664282 -0.465834 1.234067 0.408973 -0.575716 -0.769637 0.303883 -1.574119 -0.421234
hxg5 0.084698 0.152496 -0.305055 -0.426175 0.120085 -0.556771 -0.521669 -1.056270 -1.334190 0.256835
Bxc3 -0.368042 -0.263639 0.745654 1.695510 -1.005126 -0.321688 -0.579311 -0.949227 -0.039044 0.034419
Kf5 0.198441 1.167673 0.166159 -1.905771 -0.028228 -1.193412 2.373709 -1.605361 -0.227904 0.626259
Nxc6 -0.456907 0.098122 -0.147291 1.833236 0.204342 -0.686529 -0.633351 -1.113657 1.320876 0.035688
Qd4 -1.076494 -1.276040 -0.026435 1.533454 0.009847 -0.254781 -0.040282 -0.034156 -0.814440 -0.611349
Qf4 -0.971026 -1.010607 -0.232467 1.424006 0.429160 -0.448175 -0.343758 0.156031 -1.304922 -0.522579
Ne8 -0.466958 0.504278 -1.421972 0.738886 -0.319011 0.301517 -1.217919 -1.388049 -0.393664 -0.117233
Rg1 0.902846 -0.596547 -0.653415 -0.189816 0.036825 -1.194244 0.081048 -0.067739 -1.668959 0.213899
Rb7 -0.519086 0.355023 -1.209266 0.189251 -0.547588 0.950732 1.249932 -1.546279 -0.349264 0.186663
Qc3 -0.981298 -1.284335 -0.455129 1.705125 -0.396338 0.114557 -0.176364 0.012814 -0.711437 -0.372653
Kd4 1.139214 -0.285586 0.311411 -2.018844 -0.702362 -1.173621 2.025201 -1.999734 0.684927 0.877233
Qe6 -1.331153 -0.959240 -0.559843 1.275259 0.616795 -0.180379 -0.360304 -0.119759 -0.995684 -0.658801
Rfd8 -0.921454 -0.099147 0.360303 2.866719 -0.405875 0.724621 -1.361588 -0.710042 -0.519490 1.011329
Bg6 0.258659 0.241218 -0.163671 0.540669 0.038121 -0.747628 -1.035707 -1.205651 -0.901116 0.012597
Rc3 -0.177455 -0.442409 -0.345449 0.617654 -0.646764 0.627136 1.220786 -1.002232 -0.511619 1.111272
Nxc3 -0.204873 0.182385 0.828690 1.702884 -1.209288 -0.475537 -0.723359 -1.181652 0.333218 -0.089945
Rd4 -0.427993 -0.671503 0.465222 0.364736 0.203053 0.524352 0.999679 -1.376185 -0.615963 1.299351
hxg4 0.234681 -0.019553 -1.036542 -0.214947 0.226736 -0.957949 -0.042853 -0.346354 -0.861787 0.992294
Bb6 -0.091735 -0.034020 -0.823150 0.972195 0.045711 -0.478124 -0.145190 -1.107475 0.529924 0.777719
Qe4 -1.054408 -1.215148 -0.073139 1.507272 0.398052 -0.424786 0.074435 0.169277 -0.886227 -0.524669
Rc6 -0.743530 -0.099426 -0.528357 0.259971 -0.010640 0.954180 1.102737 -1.623954 -0.264558 0.600025
Rf3 -0.047439 -0.582720 -0.198189 0.154750 0.286601 -0.356250 0.543340 -0.200032 -1.721721 0.746251
Ra2 0.224300 0.394106 -1.252037 0.544677 -1.283666 0.397588 1.409913 -0.768829 -0.398916 1.171224
Kc7 0.566756 -1.516184 -0.993956 -1.278802 1.104663 -0.597721 0.560782 -1.974751 1.071513 -0.674649
Qa4 -0.714218 -0.945652 -0.740624 2.396451 -0.337013 0.067578 -0.600932 -0.418248 0.224813 -0.790559
Kd5 0.808345 -0.074458 0.101306 -2.178442 -0.238460 -1.193011 1.971920 -2.203876 0.954050 0.555132
Rc4 -0.304022 -0.380984 -0.066372 0.602884 -0.416456 0.837750 1.264681 -1.425342 -0.425197 1.023586
Rfe8 -1.050497 -0.023168 0.314365 2.455415 0.186035 0.134071 -1.524958 -0.178828 -1.182532 0.995200
Na6 0.185773 0.099244 -0.832782 1.376287 -0.644094 -0.217739 -1.421025 -1.527556 0.732884 0.087611
Re6 -0.864219 -0.169406 -0.133188 0.014799 1.111706 0.154020 0.680341 -1.042794 -0.942603 0.645423
Nh4 -0.111191 0.327613 -1.020095 0.778805 0.307300 -1.116509 -1.445864 -0.235083 -1.062154 0.472182
Qc5 -1.064523 -1.376256 -0.228290 1.617347 0.113039 0.129139 -0.202972 -0.309309 -0.449346 -0.667469
Bc8 -0.285634 0.047997 -1.545027 0.325657 0.111597 -0.048735 -0.741879 -0.990882 -0.539596 0.283313
Rc5 -0.421078 -0.263430 -0.152756 0.446795 -0.091166 0.980652 1.224377 -1.720315 -0.318503 0.873083
Bxf5 -0.536681 0.003161 -0.065656 0.109077 0.314047 -0.831841 -1.336271 -0.666245 -1.210771 0.294786
Qd5 -1.128712 -1.058015 -0.011131 1.648841 0.405765 -0.344477 0.032711 -0.175647 -0.457636 -0.802780
bxc4 -0.167261 -0.255204 -0.021791 0.893558 -0.834786 0.188469 -0.509166 -1.155255 -0.262787 0.467732
Qe8 -0.998724 -0.096329 -1.333890 1.213621 0.290250 -0.087697 -0.854604 -0.323315 -1.002558 -1.190869
Qc8 -1.072432 -0.178132 -1.480759 1.662109 0.056928 -0.050830 -0.697670 -0.326073 -0.460091 -0.945161
Qe5 -1.240323 -1.216385 -0.003245 1.212773 0.451598 -0.294639 -0.092970 -0.066471 -1.022840 -0.763981
Rd5 -0.597926 -0.521041 0.267358 0.334386 0.642854 0.573635 1.135321 -1.499274 -0.361052 1.137139
Ke8 -0.362098 0.059198 -0.281601 -0.830302 0.713694 -0.165320 0.494324 -1.985806 -0.056385 -1.531830
Rxd5 -1.176470 -0.497611 0.724834 0.597518 0.496757 0.436425 0.823838 -1.223393 -0.193657 0.761801
Kc6 0.830369 -1.117586 -0.568021 -1.859583 0.512270 -0.711461 1.379580 -2.347245 1.182106 -0.245872
bxc5 -0.437977 -0.316187 -0.904023 0.953784 -0.052792 -0.015636 -0.310611 -0.899579 0.444828 0.629593
Rb2 0.011718 0.057443 -1.010668 0.455073 -1.206399 0.574210 1.682993 -0.762368 -0.457176 0.928922
exf4 -0.249788 -0.068050 -0.539390 0.486513 0.284774 -1.015304 -0.993916 -0.279703 -0.703555 0.772075
Kc2 1.395523 -2.185025 0.603023 -0.834215 -1.193777 -0.548134 0.825173 -1.257388 -0.198993 0.253542
Kb1 1.364485 -2.241027 1.294023 0.495918 -1.170407 -0.295449 -0.815279 -1.200752 -0.626767 -1.077544
Ra3 0.160733 0.358286 -1.166698 0.378786 -1.300355 0.606702 1.247833 -1.073122 -0.436309 1.168643
Bf2 0.394220 -0.601362 -1.174783 0.713829 -0.242292 -0.810315 -0.385808 -0.475114 -0.170849 1.088761
Qd1 -0.349707 -0.739412 -0.952761 1.980471 -0.721947 -0.402871 -0.353368 0.631353 -1.022782 -0.090839
fxe6 -0.979287 -0.213573 0.443841 0.435028 0.383280 -0.261356 -1.090618 -1.162490 -0.282525 -0.367420
Kc3 1.623866 -1.570225 0.430113 -1.465125 -1.030105 -0.749960 1.499217 -1.721473 0.423601 0.638351
Ba4 0.340531 0.293399 -0.369920 1.106868 -0.638129 -0.303540 -0.106630 -1.294827 0.152637 -0.083528
Rb6 -0.438415 0.272281 -1.020160 0.162873 -0.512197 1.054304 1.353442 -1.642234 -0.199000 0.494262
hxg6 -0.152594 -0.079425 0.366803 0.170206 -0.495070 -0.178594 -1.140742 -0.974099 -1.826235 -0.611257
Qf5 -1.212587 -0.975659 -0.189463 1.266922 0.615204 -0.444885 -0.129925 0.156847 -1.224856 -0.615138
Rxd4 -0.857845 -0.596193 0.923306 0.774174 0.189947 0.271437 0.751746 -1.023208 -0.364567 0.899503
Nf8 -0.272677 0.269279 -1.281665 0.407770 0.201772 -0.006937 -1.475590 -1.168218 -1.136889 -0.306378
Rb3 0.035586 -0.095634 -0.946160 0.496062 -1.132959 0.676530 1.414390 -1.017344 -0.393897 0.833007
Qc4 -1.115310 -1.428824 -0.287911 1.714804 -0.133473 0.156371 -0.026558 -0.194704 -0.400913 -0.573457
Bh3 -0.281348 -0.147662 -1.125041 0.862289 0.165895 -0.769324 -0.914386 -0.253107 -0.637528 0.502641
Qe1 -0.247287 -0.825773 -0.832956 1.830029 -0.614994 -0.616877 -0.397226 0.679856 -1.101612 -0.144350
Qb7 -1.070028 -0.852673 -1.210408 1.874459 -0.376529 0.457602 -0.230100 -0.352629 -0.275558 -0.813732
Rf6 -0.524812 -0.190928 -0.452885 -0.336137 1.121106 -0.178105 0.499613 -0.747658 -1.495016 0.251711
Bxf4 -0.338571 -0.283411 -0.444799 0.415176 0.532219 -1.284258 -0.973272 -0.104175 -0.683105 0.942286
Qb4 -0.907790 -1.335324 -0.369904 1.929229 -0.487330 0.360070 -0.357618 -0.425430 -0.270152 -0.731418
gxf6 -0.407590 0.259019 0.835201 0.647031 0.153751 -0.563873 -1.081818 -1.276555 -0.787682 -0.601520
Re4 -0.382117 -0.505960 0.419886 0.178676 0.725668 0.032584 1.028776 -0.863210 -1.080887 1.194275
Kg5 -0.089378 1.237907 0.036941 -1.793999 0.035840 -1.199834 2.503883 -1.067550 -0.819765 0.254094
Qf7 -1.101523 -0.914019 -0.849804 0.851879 0.707732 -0.211276 -0.767450 -0.107479 -1.480797 -0.949532
Rh8 0.918941 -0.254645 -1.134536 -1.201803 0.513902 -0.512553 0.096644 -1.114734 -1.558100 0.018291
Nc2 0.293521 -0.249415 -0.612109 0.843405 -1.101510 -0.240740 -0.644427 -0.808872 0.218838 1.182224
Nxc5 -0.803229 -0.416406 -0.328207 0.954629 -0.515228 0.007116 -0.978532 -1.117880 0.776469 0.744181
Ra6 -0.280089 0.683047 -1.239662 0.064524 -0.598060 0.930984 1.216564 -1.691299 -0.175898 0.656356
gxf4 -0.224633 -0.188641 -0.733451 -0.159224 0.363559 -0.927419 -0.148197 -0.345983 -0.548017 1.239031
Rxe5 -1.116574 -0.204928 0.618967 0.286812 0.999574 -0.014373 0.558675 -0.797694 -0.814308 0.720896
Re5 -0.586206 -0.393056 0.344474 0.002407 1.032373 0.205526 0.839338 -1.106973 -1.144118 0.989620
Kg4 0.244772 1.016199 0.047777 -1.503804 -0.288987 -1.435292 2.746030 -0.640167 -0.852346 0.674777
Qxd6 -1.573860 -0.529721 0.022272 1.498801 0.471821 -0.433500 -0.793998 -0.336782 0.027280 -0.587860
Qxe5 -1.332642 -0.873705 0.379869 1.213398 0.609195 -0.582008 -0.389855 -0.218193 -0.577750 -0.597052
Rb4 -0.112558 0.038317 -0.696317 0.308455 -0.981130 0.988449 1.466433 -1.472936 -0.323157 0.910340
Qxe4 -1.222472 -0.912935 0.420496 1.455876 0.221409 -0.725133 -0.244413 0.108280 -0.705538 -0.318187
Ba3 -0.264036 0.050412 -0.652777 1.269734 -0.785878 -0.087373 -0.766624 -1.110350 0.370573 0.353804
Qg6 -0.939059 -0.662188 -0.534413 1.037989 0.784224 -0.663210 -0.754387 0.198265 -1.458986 -0.672912
Rxe4 -1.022691 -0.358034 0.675729 0.452855 0.518838 -0.104683 0.622901 -0.465235 -0.934283 1.009220
Bc1 0.247784 -0.304164 -0.862939 0.671482 -0.879677 -0.243793 -0.603493 -0.548257 -0.711736 0.773793
Nxc4 -0.513815 -0.253379 -0.143508 0.954818 -0.859090 -0.000505 -0.898569 -0.966423 0.569104 0.614603
exf6 -0.372613 0.442292 0.697831 0.945351 0.208216 -0.688595 -1.398250 -1.033581 -0.817228 -0.582414
Rh1 1.260128 -0.535512 -0.991847 -1.011972 -0.001482 -0.711480 0.329763 -0.637664 -1.649185 0.528778
Rxd8 -1.727880 -0.201662 0.538356 0.492761 0.188741 -0.442921 -0.703147 -1.058052 0.924735 0.596075
Kc5 1.183162 -0.799743 -0.023330 -2.114117 -0.207397 -1.049440 1.826852 -2.314804 1.179524 0.073735
Ra4 0.002854 0.407309 -0.850080 0.236149 -0.979906 0.838485 1.543904 -1.468771 -0.150771 1.123816
Nf1 0.595126 -0.097787 -1.431539 1.189989 -0.445882 -0.731690 -0.745055 0.102729 -0.783723 1.118460
Bc7 -0.075930 -0.017581 -1.250998 0.506803 0.227589 -0.492018 -0.141729 -1.161467 0.423295 0.807259
Kc4 1.471499 -1.006998 0.239392 -1.905351 -0.759700 -1.132116 1.967285 -1.973247 1.010548 0.429088
Bh5 0.568508 0.317609 -0.480415 0.696452 0.361586 -1.176844 -1.088244 -0.812495 -0.833627 0.043769
Qxd3 -0.656585 -0.844121 0.531679 1.964697 -0.570791 -0.601351 -0.838134 0.105115 -0.408474 -0.047662
Ra5 -0.017684 0.520782 -0.852507 0.118986 -0.720330 0.971116 1.492091 -1.719982 -0.116525 0.935172
cxb5 0.046086 -0.311256 -0.902967 1.052094 -0.479655 0.010214 -0.281583 -1.206436 0.605420 0.292008
Bxd6 -1.153858 -0.126560 -0.153429 0.888070 0.598174 -0.395761 -0.866259 -0.950739 0.794733 0.174996
Rxd6 -1.498871 -0.429597 0.186067 0.218169 0.605548 0.400901 0.444203 -1.065909 -0.053844 0.550620
Qxf6 -1.007338 -0.142490 0.624116 1.136225 0.564520 -0.774882 -0.907352 -0.454829 -1.104144 -1.126020
Ke1 0.978081 -1.054419 0.240737 0.127951 -0.984405 -1.311791 1.640064 0.239257 -0.281606 0.766678
Qb5 -0.931056 -1.326564 -0.635664 1.946420 -0.270182 0.316305 -0.067342 -0.258795 -0.014296 -0.666128
Rb5 -0.230583 0.116515 -0.771612 0.189985 -0.622149 1.021429 1.650419 -1.602934 -0.047218 0.823921
axb3 -0.004729 -0.354882 0.232551 0.702532 -1.445114 0.555709 -0.551825 -1.381670 -0.611233 0.057630
Qc1 -0.443603 -0.667723 -0.787267 1.908929 -1.047525 -0.283570 -0.295108 0.400180 -0.953696 -0.290600
Rae1 -0.721218 0.003349 -0.153386 1.499562 1.735373 -0.383908 -1.676387 -0.301244 -1.201246 0.677887
Be8 0.273846 0.084968 -1.267032 -0.241067 -0.105807 0.109509 -0.604207 -1.375880 -0.856544 -0.246717
Kh6 -1.127312 0.931701 -0.062164 -0.916196 0.224908 -0.585862 2.144346 -0.509251 -1.532877 -0.977444
Na3 0.634207 0.128713 -0.481188 1.624554 -1.093760 -0.417575 -1.075899 -1.125437 0.907295 0.323231
Rg3 0.598739 -0.717521 -0.369657 -0.308202 0.354083 -0.556804 0.388409 -0.200851 -2.113591 0.231579
Ne1 0.582858 -0.173447 -1.216687 1.277941 -0.944433 -0.437288 -0.520817 -0.097929 -0.029174 1.214621
Qxf3 -0.529929 -0.517618 0.096760 1.806350 0.585718 -1.524483 -0.295535 0.591861 -0.455616 -0.093250
Nge2 1.409740 1.016678 -0.044579 2.138236 -0.508849 -1.718122 -1.795206 -0.770931 0.060068 -0.718649
Kd8 0.094506 -0.521330 -0.616433 -0.787423 1.234727 -0.589816 0.122459 -1.831337 0.773214 -1.729979
Rxd1 -1.224286 -0.568564 0.964423 0.825645 -0.535875 -0.731756 -0.582988 -0.428760 0.739845 1.077860
Bxe7 -0.901287 0.614507 0.350685 1.334776 0.480843 -0.537179 -1.433819 -1.058662 0.281419 -0.428860
Rf4 -0.163252 -0.542796 0.046387 -0.306731 0.787101 -0.244819 0.841629 -0.495716 -1.656070 0.771392
Qxc4 -1.114663 -0.866437 0.197140 1.827796 -0.460261 -0.065204 -0.270738 -0.310987 -0.017876 -0.589352
Bd8 -0.009773 0.000479 -1.712066 0.092592 -0.249605 0.052337 -0.179097 -1.140229 -0.086624 0.204900
Bxe6 -1.200584 -0.052518 0.321681 0.176345 0.674491 -0.403042 -1.192686 -1.160748 -0.259727 -0.051032
Qxe7 -1.547064 0.182251 0.225314 1.638761 0.459636 -0.486719 -1.219542 -0.453740 -0.277982 -0.950605
Bxd3 -0.073174 -0.456724 0.708749 1.221644 -0.858707 -0.451129 -0.906463 -0.502094 -0.215956 0.679973
Rxc4 -0.797583 -0.235241 0.288120 0.592012 -0.746146 0.881450 0.975895 -1.190795 -0.154356 0.785512
Kxg7 -1.303689 0.609294 0.344112 0.279903 -0.595723 -0.333050 -0.806666 -0.770048 -1.461082 -0.401969
Qb8 -1.079334 -0.233991 -1.401285 1.819665 -0.243271 0.205197 -0.491032 -0.454624 -0.017708 -1.020655
Kh3 -0.363251 0.340044 -0.315167 -0.177660 -0.139972 -1.281559 2.785188 0.635955 -1.297829 0.204517
Rh3 1.166570 -0.635120 -0.386491 -0.409422 0.177216 -0.553006 0.039474 -0.676299 -1.861546 0.227345
Rxc3 -0.511584 -0.300356 0.544977 0.818605 -1.177437 0.703332 0.854565 -0.961408 -0.468072 0.295772
Rf5 -0.314083 -0.397976 -0.033701 -0.440135 1.179499 -0.182107 0.836906 -0.705257 -1.556246 0.574510
Bxg5 -0.282218 0.185063 -0.213179 0.066782 0.281609 -1.020153 -1.321446 -0.535830 -1.116465 -0.132910
Qxc5 -1.251152 -0.972796 0.017018 1.744695 -0.001409 -0.084857 -0.213601 -0.336733 0.212834 -0.492002
gxf3 -0.234720 -0.178570 -0.201243 1.020952 0.501038 -1.337965 -0.105470 0.226719 0.054953 0.813568
Qb2 -0.851166 -0.959932 -0.931177 1.889258 -0.919379 0.330230 0.053629 0.109530 -0.574958 -0.567989
Nxf6 -0.459423 0.529079 0.328801 0.373630 0.464720 -0.707491 -1.465217 -1.107675 -0.855963 -0.572755
Qxc3 -0.971999 -0.958554 0.569827 1.704686 -0.882718 -0.097410 -0.226939 -0.268603 -0.466667 -0.830680
Nxe6 -1.316068 -0.179381 0.164954 0.023946 0.356797 -0.286648 -1.419806 -0.884072 -0.097775 0.129533
Rxc5 -0.980408 -0.171741 0.029093 0.616479 -0.276818 0.901818 1.099339 -1.243669 0.219457 0.830986
Bxg7 -0.883676 0.220180 0.374424 0.724808 -0.638830 -0.366205 -1.488708 -0.648830 -0.935822 -0.259159
Qh3 -0.541033 -0.849572 -0.446968 1.000991 0.491407 -0.900573 -0.951993 0.504886 -1.661015 -0.530191
Rxe6 -1.503592 -0.335477 0.408816 -0.168520 1.085244 0.069757 0.313691 -0.828238 -0.718359 0.329285
Rae8 -0.462978 -0.406928 0.262949 1.473746 1.159221 -0.434963 -1.491169 0.133333 -1.664003 1.065263
Rfc8 -0.355285 -0.312810 -0.311939 2.725903 -1.503107 1.375209 -0.983876 -0.715303 -0.690034 0.237351
Rg7 0.342196 -0.236126 -1.151637 -1.096828 1.025953 -0.378080 0.378182 -0.806039 -1.683737 -0.607852
Nge7 1.298673 1.066023 -0.057380 2.367131 0.114974 -1.842438 -1.832533 -0.847570 0.665961 -0.824843
hxg3 0.033057 -0.346831 -1.325425 0.585450 0.771006 -1.214382 -0.017284 0.335243 -0.247916 0.726672
Rg6 0.214203 -0.368909 -0.830768 -0.698091 1.222564 -0.456444 0.428006 -0.574272 -1.629929 -0.181224
Bxb5 -0.406887 -0.276414 -0.861258 0.937241 -0.843812 0.126511 -0.436085 -1.119639 0.812981 0.008682
Kb8 0.786440 -1.876632 -1.270532 0.225277 1.632017 -0.752875 -0.039141 -0.956017 1.392331 -1.215551
Bf7 -0.075037 -0.159573 -0.534441 -0.315530 0.028392 -0.155162 -0.618588 -1.417876 -0.718561 0.069456
Rxc8 -1.758190 0.044728 -0.731937 0.718865 -0.756750 0.088399 -0.160393 -0.662954 0.887104 -0.056477
axb6 -0.289381 -0.273879 -1.602916 0.970866 0.171075 -0.009558 0.019855 -0.749231 1.040446 0.598576
fxg6 -0.611354 -0.099764 0.376454 -0.115939 -0.381665 -0.298375 -1.090874 -0.710798 -1.868605 -0.676994
Nxf4 -0.431569 -0.319081 -0.262471 -0.087321 0.213045 -0.978039 -1.140109 -0.052820 -0.617519 0.919907
Nxd7 -1.014579 0.397768 -0.198237 1.359525 0.514835 -0.181059 -1.029084 -1.132927 0.967547 -0.411823
Bd1 0.664778 -0.386706 -1.004428 -0.013162 -0.990174 -0.166594 0.004056 -0.650798 -0.736063 0.797587
Rxc6 -1.083745 0.010270 -0.364555 0.726951 0.122137 0.668902 1.219334 -1.075258 0.568734 0.395033
cxb4 0.115865 -0.395570 -0.561011 0.773617 -0.927754 0.199768 -0.303398 -1.148515 0.256407 0.314503
Qh6 -0.667154 -0.757038 -0.470592 0.735207 0.531260 -0.660528 -0.886645 0.382529 -1.856777 -0.816006
Nxf5 -0.653078 -0.018677 -0.221693 -0.264165 0.315459 -0.782344 -1.338518 -0.394016 -0.823071 0.535472
Kb6 0.965620 -1.510819 -0.678376 -1.568394 0.553520 -0.570775 1.618057 -2.039017 1.298482 -0.688998
Nf7 -0.193490 0.049315 -1.051416 -0.522969 0.457557 -0.376205 -1.153524 -1.107992 -0.535244 0.132718
Qa3 -0.835751 -1.145075 -0.826123 1.905746 -0.689772 0.467299 -0.270598 -0.284708 -0.177394 -0.806017
Rxd7 -1.520434 -0.096809 0.200391 0.523190 0.804831 0.364320 0.351810 -1.118166 0.461344 0.065084
Qa6 -0.832609 -1.181591 -0.918979 1.939397 -0.684226 0.484566 -0.286047 -0.210848 0.023481 -0.693674
Rxb7 -1.246599 0.428379 -0.762178 0.313921 -0.427870 0.481937 1.296818 -0.719367 0.266614 0.157624
Rxd3 -0.691297 -0.906772 0.939509 0.595366 -0.389751 0.180382 0.483517 -0.451378 -0.448218 1.139344
Nd1 0.563938 -0.561779 -0.951491 0.573217 -1.208320 -0.326254 -0.757506 -0.108651 -0.758299 1.010740
Rxc1 -1.182797 -0.177669 -0.063757 1.022022 -1.939662 -0.098521 -0.219771 -0.206163 0.413082 0.324756
Rab1 -0.456355 -0.328039 -1.423413 2.093682 -0.499260 0.678466 -0.969554 -0.464379 0.294882 0.169706
dxc6 -0.333172 0.152912 -0.228286 1.770189 0.394039 -0.782737 -0.633953 -0.570642 1.174169 -0.075527
Kd1 1.407956 -1.649227 0.927892 -0.003906 -1.291762 -1.250437 0.960107 -0.089397 -0.353795 0.142296
Nf2 0.449921 -0.598751 -0.867347 0.020981 -0.551671 -0.847021 -0.677121 -0.083407 -0.766023 1.259653
Rxf4 -0.466236 -0.527516 0.183321 -0.366130 0.819882 -0.539060 0.329414 -0.111205 -1.419758 0.777646
Rxf5 -0.654993 -0.294279 0.219507 -0.452510 0.943754 -0.367349 0.127131 -0.398869 -1.551691 0.504995
Rxf6 -0.884082 0.010216 0.421427 -0.284164 0.975239 -0.270822 -0.002866 -0.627365 -1.506421 -0.298639
Nfd7 0.517033 0.760761 -0.539296 2.201175 -0.805435 -0.556466 -1.759669 -0.936026 0.434908 -0.524471
Nxe3 -0.552032 -0.351775 0.057776 0.780747 -0.392017 -0.748210 -1.065398 0.131745 0.063786 1.089900
Rxb2 -0.873235 0.371888 -0.103763 0.447622 -1.397558 0.552555 1.334485 -0.461333 -0.323077 0.412950
Nh6 0.391944 0.557891 -0.761384 0.370263 0.396273 -1.079182 -1.554186 -0.764668 -0.651837 -0.213256
Kb3 1.635037 -2.037837 0.484502 -1.270907 -1.106563 -0.493218 1.676156 -1.536945 0.298599 -0.041931
Be1 0.756607 -0.402043 -1.368158 0.226078 -0.710162 -0.493542 0.257845 -0.310286 -0.309225 0.985167
Rh4 1.057275 -0.624734 -0.295984 -0.724575 0.626766 -0.403049 0.315587 -0.798932 -1.682225 0.441175
exd6 -1.002964 0.158454 0.133951 1.239866 0.209989 -0.299826 -0.867638 -0.754399 0.620682 -0.199891
Rxe3 -0.875969 -0.625009 0.576271 0.422609 0.179983 -0.323018 0.606077 0.113642 -0.884057 1.271801
Rab8 -0.522014 -0.386777 -0.751383 1.845730 -0.984809 1.179111 -0.960973 -0.731386 -0.284238 0.097241
Kb2 1.410315 -2.451062 0.661743 -0.763807 -1.334929 -0.012970 0.990597 -1.372574 -0.385733 -0.393428
Rg2 1.064864 -0.804631 -0.602695 -0.668976 0.036334 -0.803253 0.894388 0.047455 -1.986551 0.429594
Rxd2 -0.524117 -0.485838 1.037793 1.092391 -0.540641 0.018015 0.344437 -0.366155 0.015911 1.184642
Rh6 0.853134 -0.339866 -0.973890 -0.964161 1.081820 -0.490818 0.281918 -0.879299 -1.518183 0.026482
Qxc6 -1.459847 -0.881977 -0.406105 1.727124 0.367986 -0.199793 0.101657 -0.148351 0.544306 -0.690755
Kb7 0.683759 -1.869683 -1.292346 -0.976419 1.049919 -0.406640 1.163238 -1.581478 1.318040 -0.896343
Bxg4 -0.084274 -0.136004 -0.465587 0.012668 0.147682 -1.330617 -0.890699 0.155292 -0.981990 0.704248
fxe3 -0.554228 -0.386230 0.164377 0.961463 -0.058748 -0.881631 -0.122711 0.206966 0.064391 1.008375
Nxf6+ -1.130355 1.320254 0.756772 1.376819 0.057119 -0.553383 -1.581311 -0.865354 -0.786021 -0.557080
Rxe7 -1.685383 0.343996 0.402250 0.312710 0.859126 0.130531 0.069332 -0.732688 -0.401302 -0.006433
fxg4 0.171081 -0.181420 -0.743751 -0.549875 0.171246 -1.056976 -0.160416 -0.211441 -0.964093 0.859386
gxh5 0.300457 0.104398 -0.197629 -0.931542 -0.313183 -0.711664 -0.294943 -0.829779 -1.469742 0.047297
Qxd7 -1.476282 -0.169689 -0.136436 1.677976 0.563778 -0.420455 -0.614640 -0.484511 0.454595 -0.938675
Rg4 0.740895 -0.674583 -0.305358 -0.698991 0.906066 -0.428128 0.725909 -0.459365 -1.745135 0.312948
Bxe3 -0.337104 -0.475613 0.190219 0.882580 -0.138927 -0.960552 -0.540610 0.189608 -0.083850 1.282558
Rfc1 -0.847344 0.221125 -1.637056 2.744261 -0.246872 1.127373 -0.743070 -0.606458 0.485205 0.089171
fxg5 0.020524 0.045800 -0.252073 -0.759841 0.265954 -0.735995 -0.543245 -0.843181 -1.240059 0.139438
Nb8 0.281243 0.232487 -1.663083 1.307760 0.024561 0.123910 -0.891793 -1.361850 0.832302 -0.097694
Qxf4 -1.033430 -0.989232 0.105278 0.694312 0.597552 -0.878720 -0.525266 0.483184 -1.075045 -0.149153
Rh7 0.894808 -0.065227 -1.180882 -1.299251 0.900320 -0.320022 0.355853 -1.195541 -1.304566 -0.425329
Rxf7 -1.277967 -0.002621 0.136670 -0.649295 0.647530 -0.297607 0.278467 -0.455841 -0.956051 -0.626045
Bb1 0.266841 0.576959 -0.173524 0.847536 -1.110140 -0.081325 -0.774514 -1.076018 -0.718814 0.597709
Ba5 0.156136 0.008301 -0.706397 0.911302 -0.442114 -0.196339 -0.123427 -1.189965 0.779218 0.524815
Nxd6 -1.553009 -0.066130 -0.564382 0.132580 0.134022 -0.122732 -0.875320 -0.605281 0.490542 0.478751
Rxf3 -0.292452 -0.468851 0.142399 0.252053 0.564408 -0.944370 0.626251 0.471406 -1.175231 0.756916
Rh5 0.924637 -0.453680 -0.537379 -0.873817 0.971547 -0.406008 0.403540 -0.817636 -1.525573 0.367141
Rh2 1.637155 -0.667028 -0.585997 -0.787991 -0.235022 -0.613828 0.683507 -0.398394 -1.677751 0.589001
Kb5 1.313610 -1.418988 -0.350161 -1.886621 -0.309740 -0.775841 1.941803 -2.082076 1.291739 -0.327574
Qxe3 -0.898122 -1.043279 0.222811 1.263448 -0.180620 -0.722724 -0.527551 0.650421 -0.682445 0.330473
Nxb5 -0.394959 -0.151227 -0.687376 0.750648 -0.991799 0.025628 -0.622451 -1.097240 1.276849 0.244451
Rg5 0.606043 -0.512429 -0.380971 -0.894319 1.015304 -0.379614 0.735675 -0.653788 -1.840230 0.239460
Kb4 1.628891 -1.532893 0.092816 -1.787817 -0.832666 -0.709071 1.971355 -1.897181 0.934367 -0.107281
cxd6 -0.858615 -0.089711 -0.662774 0.857108 0.803893 -0.544032 -0.837368 -0.360965 0.623681 0.196191
Bxe2 0.005360 -0.015882 0.650142 1.603322 -0.554985 -0.966450 -0.792443 0.160440 0.144890 0.833920
Qxd2 -0.570008 -0.313559 0.937969 2.202447 -0.775782 -0.553332 -0.577890 0.177258 -0.020048 -0.062029
Rxc2 -0.807953 -0.197020 0.405614 0.661518 -1.284080 0.606126 1.013771 -0.360459 -0.247700 0.508965
Bb5+ 0.959834 0.514255 0.679734 1.379453 0.166862 -1.788295 -0.593662 -1.304120 1.451859 -0.852378
Kxg2 -0.877936 0.208726 -0.653790 0.977171 0.095538 -1.367911 0.396276 0.717576 -0.150347 0.902150
Nh3 0.884885 0.207243 -0.618893 0.545907 -0.163571 -1.400340 -1.259972 -0.113290 -0.873465 0.444986
Nd8 -0.193546 0.083372 -1.496783 -0.075954 0.318376 0.017604 -0.936677 -1.093235 -0.085407 -0.005005
Rxa7 -0.879954 0.727541 -1.083075 -0.040835 -0.531996 0.490369 1.558367 -0.742181 0.319962 0.412556
Qxb2 -1.562601 -0.649917 0.398839 1.553000 -0.832241 -0.202489 -0.298349 0.103064 -0.302308 -0.959443
Qxf5 -1.284319 -0.713175 0.165100 0.541781 0.699623 -0.656025 -0.494931 0.200105 -1.211562 -0.441443
bxa4 0.007850 -0.128677 -0.477647 0.318457 -1.231621 0.582851 0.139074 -1.430195 0.093916 0.374843
Rxa2 -0.641865 0.536996 -0.238803 -0.003722 -1.419544 0.605150 1.517433 -0.692016 -0.335416 0.518882
Rxe8 -2.062914 0.167643 0.382208 -0.055771 0.720130 -0.605131 -0.428351 -0.323721 -0.057919 0.107205
Rxc7 -1.507595 0.249948 -0.534715 0.365988 -0.179701 0.743478 0.967534 -0.858437 0.513898 0.142109
Nxd3 -0.471302 -0.640064 0.281898 0.692933 -1.013849 -0.245327 -1.097629 -0.159205 -0.165707 1.042453
Qg7 -0.799508 -0.865726 -0.794000 0.222241 0.823878 -0.400680 -0.756683 -0.051910 -1.738795 -1.234295
Rxa4 -0.298245 0.621868 -0.677281 0.078903 -1.332670 1.021878 1.280976 -1.277004 0.006740 0.677746
Qf8 -1.063922 -0.573071 -1.107940 0.456849 0.427521 0.154461 -0.580667 -0.218358 -1.435135 -1.525945
Rxa5 -0.386505 0.532346 -0.991571 0.014230 -1.024685 0.905307 1.446388 -1.164266 0.246643 0.911407
Rxa6 -0.624583 0.591755 -1.119229 0.113097 -0.780368 0.691203 1.334458 -0.949873 0.440906 0.635116
Bxg2 -0.681464 0.022003 -0.368688 1.001923 0.096452 -0.996085 -0.607189 0.275455 0.218507 0.573154
Bxb4 -0.241502 -0.190682 -0.193517 0.945421 -1.172686 0.016849 -0.201612 -0.988292 0.758060 0.207155
Kc8 0.234247 -1.285593 -1.142573 -0.794337 1.712784 -0.506727 0.750682 -1.589821 1.380278 -1.506826
Qxb7 -1.705020 -0.753537 -0.386991 1.646801 0.037911 -0.379718 -0.077594 0.245797 0.505899 -0.660516
Qxe2 -0.800671 -0.457987 0.405024 2.052810 -0.315747 -0.950111 -0.590732 0.750840 -0.228968 0.192475
Bb4+ 1.143537 0.697986 1.206869 1.520310 -0.448173 -1.829379 -0.507976 -1.248674 1.244263 -0.661396
Qa7 -1.148414 -1.077673 -1.235005 1.422139 -0.698243 0.614754 -0.140206 -0.135048 -0.197214 -0.789741
Qb1 -0.517409 -0.617822 -0.805944 1.860698 -1.290435 -0.078822 0.038689 0.426797 -0.552016 -0.499134
Rxb4 -0.404766 0.251617 -0.415715 0.238715 -1.250029 1.005974 1.356134 -1.197020 0.052221 0.608174
Nxd2 -0.039490 -0.035125 0.741640 1.796458 -1.098155 -0.564537 -0.742653 -0.161202 0.508689 0.702426
Qxe6 -1.748055 -0.800162 0.040094 0.512143 0.866244 -0.410688 -0.574650 -0.296320 -0.576974 -0.807552
Nxg5 -0.227906 0.321476 -0.108325 -0.211436 0.265001 -1.078537 -1.358192 -0.426260 -0.896096 0.096483
Kc1 1.456277 -2.208164 1.338684 -0.263028 -1.522739 -0.448585 0.882368 -0.645405 -0.649255 -0.390231
Rxe1 -1.313787 -0.447347 0.795478 0.487977 -0.001621 -1.036897 -0.111031 0.529353 -0.123006 1.059126
Rxe2 -0.763064 -0.297501 0.761277 0.888105 -0.063232 -0.397937 0.568249 0.386797 -0.466124 1.241973
Nc8 -0.148153 -0.060518 -1.852940 0.154470 -0.001908 0.399822 -0.822475 -1.251890 0.524523 0.217816
Bxa6 -0.497793 -0.079162 -0.983610 0.958999 -0.762690 -0.025075 -0.172459 -0.756166 1.109158 0.104773
Rxb5 -0.544575 0.202718 -0.753296 0.214892 -0.865509 0.964828 1.494200 -1.140695 0.316017 0.584179
Qxg5 -0.837718 -0.545495 0.059796 0.464560 0.467077 -0.976114 -0.963117 0.190191 -1.364153 -0.681827
Kh4 0.262580 1.174870 0.058293 -0.981615 -0.157003 -1.615011 2.774587 0.024176 -1.057341 -0.074894
Nc1 0.696934 -0.685592 -0.855708 0.553388 -1.676749 0.203109 -0.647791 -0.622134 -0.228437 0.958597
Nh7 -0.035529 0.657766 -1.305238 0.317133 -0.006028 -0.414861 -1.691346 -0.645940 -1.633270 -0.082324
Bxh6 -0.466792 0.345637 -0.005575 -0.088705 -0.215507 -0.966128 -1.504509 -0.432897 -1.288857 -0.656163
Kh5 -0.113566 1.550286 0.039957 -1.355316 0.201472 -1.347015 2.553526 -0.437542 -1.072019 -0.592086
dxe6 -1.063078 0.106912 0.351133 0.755956 0.452684 -0.387015 -1.291104 -0.633822 0.072816 -0.167033
Rxf2 -0.651235 -0.533824 0.050301 -0.118191 0.020234 -0.790468 0.920795 0.780368 -0.872799 0.684754
Bxb7 -1.529071 -0.031890 -0.374677 0.806963 -0.172174 -0.200499 -0.226772 -0.493370 1.012768 0.577261
bxa5 -0.101589 -0.170435 -1.260068 0.279046 -0.633447 0.281357 0.442138 -1.043861 0.665984 0.656003
Bxc3+ 1.061049 0.218073 1.332252 1.932196 -0.704807 -1.660464 -0.871046 -1.028804 0.577214 -1.064225
Qxb4 -1.123422 -1.161496 -0.087444 1.569438 -0.893350 0.221625 -0.161320 -0.279280 0.132993 -0.752232
Qg2 -0.131222 -1.499837 -0.549920 0.698523 0.146685 -0.977925 -0.325464 0.904531 -1.775755 -0.269279
Qxb6 -1.267066 -0.761073 -0.842343 1.662151 -0.217899 0.033204 -0.018743 -0.127075 0.680799 -0.480709
Bxb2 -1.436819 -0.032167 0.470008 0.681473 -1.228792 -0.081293 -0.412865 -0.535271 0.183771 0.490474
fxg3 -0.446516 -0.308041 -1.226747 0.361698 0.710419 -1.352895 0.094354 0.732850 -0.401206 0.782449
Bxd7 -1.033525 0.196173 -0.166076 0.865679 0.610697 -0.108183 -0.592799 -1.018618 0.792980 -0.322481
Ng7 -0.363582 0.220871 -1.054843 -0.381892 0.219330 -0.103983 -1.155687 -0.782523 -1.206903 0.137595
Qxb5 -1.231041 -1.080279 -0.554388 1.618265 -0.582984 0.178239 0.005196 -0.216541 0.565547 -0.785556
Nxg4 -0.067691 0.105931 -0.466941 -0.113427 0.179698 -1.360919 -1.086870 0.128339 -0.785274 0.688023
gxh4 0.304862 -0.024120 -0.976406 -0.874739 0.402444 -1.107106 0.268018 -0.260921 -0.691125 0.672803
Nh2 0.278005 0.343091 -1.603303 0.935142 0.019324 -0.953796 -1.204209 0.261722 -1.187282 0.969748
Nxb3 -0.306939 -0.108256 0.136519 0.590910 -1.698450 0.244548 -0.870493 -1.101930 0.362192 0.512634
Nxf3 0.262804 -0.129746 -0.043327 0.818317 0.247291 -1.510739 -0.568567 0.419080 -0.178940 0.956953
Rxb6 -0.844346 0.302206 -1.214689 0.034861 -0.583918 0.870952 1.526447 -0.921939 0.527189 0.612920
Kxf7 -1.393542 0.486647 0.853935 -0.666649 0.401221 -0.844325 -0.224748 -1.120606 -0.369426 -0.766262
Nxb4 -0.205222 -0.164011 -0.168230 0.607279 -1.414551 0.122767 -0.586037 -1.150101 1.019831 0.458078
Qxg4 -0.710004 -0.670561 -0.148202 0.484634 0.563307 -1.247381 -0.694789 0.625137 -1.202442 -0.339618
Rxb3 -0.509418 0.222887 -0.268647 -0.001677 -1.654246 0.960276 1.455033 -0.904532 -0.305189 0.557102
Re1+ -0.442769 -0.036498 1.116023 -0.026252 0.631692 -0.606697 1.354907 -0.465809 -0.269819 0.370765
Ngf6 1.148739 1.241009 0.016117 2.081639 -0.054233 -1.546095 -1.954612 -0.717573 0.089384 -0.833455
Qf1 -0.335218 -1.449927 -1.057717 1.153605 -0.434873 -0.627258 0.291339 1.220909 -1.172887 -0.177275
Rxa3 -0.205323 0.575445 -0.488428 -0.049466 -1.689710 0.855569 1.205123 -0.998917 -0.171840 0.532460
Rd8+ -0.765473 -0.253392 0.918640 -0.317342 0.178561 0.217009 1.453532 -1.048070 0.226950 0.056601
cxd3 -0.065899 -0.877852 1.058864 0.787047 -0.755657 -0.228731 -1.000313 -0.284155 -0.517185 0.368461
Rd1+ -0.416710 -0.489023 0.817614 -0.024724 0.236984 -0.114908 1.673196 -0.680100 0.403388 0.442537
Qd4+ -0.948001 -1.483533 0.625990 0.507302 0.022595 -0.895859 0.939937 0.197355 -0.612565 -1.126205
Nxb6 -0.812024 -0.058734 -1.256364 0.580246 -0.573172 0.075160 -0.460410 -0.885008 1.459936 0.735127
Rxa8 -1.173665 0.508775 -1.475575 0.414922 -1.381083 -0.204740 -0.128695 -0.510742 0.956564 -0.338721
Ng8 0.256249 0.684714 -1.068751 -0.058054 0.375258 -0.297892 -1.486529 -0.987067 -1.117732 -0.905063
Rxd8+ -1.656468 -0.818027 0.586199 0.749697 0.397669 -0.159965 -0.794151 -0.905225 1.038873 0.353429
Nxg6 -0.219474 0.325997 -0.062366 -0.396241 0.104791 -0.909663 -1.530071 -0.648276 -1.013059 -0.516327
Nxf3+ -0.518013 0.589950 -0.101319 1.870634 0.278679 -1.518664 -0.789524 0.873156 0.133444 1.099497
Qxb3 -1.052403 -0.680591 0.136783 1.612482 -1.263851 0.225745 -0.129007 -0.246029 -0.026357 -0.760381
Nb1 0.854465 -0.234584 -0.549033 1.269452 -1.663969 0.152239 -0.799515 -0.732588 -0.015619 0.586262
Nf6+ -1.197556 1.041797 0.344709 -0.552574 -0.206268 -0.510430 -0.593359 -0.714368 -0.742224 -0.449571
dxc3 0.002014 0.101071 1.375219 1.414046 -0.541735 -0.598571 -0.787235 -0.712984 0.096592 -0.708206
Nb7 -0.359395 -0.388601 -1.352807 -0.110816 -0.312067 0.532351 -0.742337 -1.385761 0.547006 0.859916
Bxd2 0.028075 -0.041143 0.939795 1.560029 -0.917847 -0.498631 -0.415579 -0.176988 0.341644 0.672767
Rhe1 0.339220 -1.254635 1.104265 0.994724 0.801487 0.138854 -1.777512 -1.322386 0.013723 0.230557
Ba2 0.204561 0.585525 0.049927 0.787076 -1.059018 0.086968 -0.742669 -1.417267 -0.223065 0.435336
Re8+ -0.712103 0.205575 0.896349 -0.318787 0.770662 -0.468533 1.374119 -0.596768 -0.133177 0.137563
Qxd8 -2.247268 0.102090 0.457278 1.091264 0.003822 -0.617532 -1.050943 -0.289383 0.878916 -0.245752
Qa2 -0.921526 -1.052755 -1.152787 1.596441 -1.057912 0.489466 0.191689 0.198088 -0.176546 -0.660967
Bxg6 -0.452281 0.144411 0.248399 -0.371571 0.120778 -0.747077 -1.019792 -0.570819 -1.359975 -0.495466
Rxd1+ -1.231828 -1.222716 1.019487 0.957491 -0.412033 -0.418187 -0.700853 -0.316988 0.724363 0.867130
Rxa1 -0.711109 0.316737 -1.055218 0.689322 -2.291395 -0.256134 -0.180939 -0.118054 0.546141 -0.126220
exf3 -0.388264 0.131254 0.083271 1.136633 0.509840 -1.226409 -0.285378 0.453934 0.121107 0.800841
Nxg3 0.062765 -0.104269 -0.717391 0.230816 0.216840 -1.550631 -0.871901 0.512974 -0.340315 0.853455
Qa8 -1.209551 -0.492481 -1.368266 1.361367 -0.656489 0.431258 0.226338 -0.051821 -0.218377 -0.946025
Qe5+ -1.005385 -1.256366 0.597502 0.105112 0.636522 -1.221366 1.270571 0.036523 -0.539034 -1.755226
Qxc2 -1.319183 -0.982325 0.531352 1.366700 -1.146667 -0.010053 -0.153183 0.352316 -0.285215 -0.654236
Bxf8 -1.990274 0.035519 -0.053148 0.177585 -0.600160 -0.494032 -1.160130 0.100320 -0.153309 -0.714353
cxb3 -0.005607 -0.642602 0.438938 0.646903 -1.577454 0.607589 -0.701647 -1.108455 -0.236053 -0.227960
Qd5+ -1.105766 -1.362197 0.463624 0.460979 0.570426 -0.996095 1.061499 0.046004 -0.165844 -1.337977
Qe4+ -0.603303 -1.556778 0.705604 0.401011 0.307316 -1.449116 1.435530 0.430455 -0.523798 -1.354766
Bxb6 -0.791924 -0.361162 -1.010369 0.615730 -0.279182 0.004155 -0.085842 -0.719008 1.307031 0.645016
Qxa5 -1.263527 -1.124972 -0.573108 1.403600 -0.682494 0.266700 0.119876 0.023173 0.274296 -0.769095
Qxa2 -1.488355 -1.124574 0.413110 1.108396 -0.699870 0.101917 -0.036561 -0.019335 -0.470149 -1.120109
Rxh5 0.980337 -0.194755 -0.153408 -1.427577 0.417334 -0.345299 0.284616 -0.798090 -1.592155 0.183663
Nxe7 -0.833486 0.618994 0.136430 0.381573 0.842177 -0.405457 -1.411477 -0.987199 0.304164 -0.608039
Qa5+ 0.860095 -1.039043 0.800912 1.454805 -0.701566 -1.493324 -0.704621 -0.875618 1.367511 -1.895153
Qxc7 -2.014964 -0.580559 -0.567393 1.160212 0.073761 -0.018680 -0.064726 0.120338 0.691233 -0.845972
Qg5+ -1.057772 -0.684979 0.678389 -0.031566 0.433053 -1.529855 0.400305 0.319325 -1.238402 -1.213752
Nb2 0.174565 -0.726562 -0.759754 0.096438 -1.362660 0.496154 -0.503731 -0.867481 0.251850 1.322446
Rxe8+ -2.042487 0.195511 0.477043 0.632238 0.761211 -0.408360 -0.578000 -0.192119 0.007945 0.037972
Qh5+ -0.782408 -0.030027 0.672076 -0.053276 0.809420 -2.055076 -0.257968 0.041538 -1.041157 -1.503444
Qxa4 -1.210582 -1.169343 -0.319874 1.406413 -0.850630 0.402942 0.039707 -0.096475 0.001976 -0.918139
Bxh3 -0.399901 0.045745 -0.768324 0.155307 0.165269 -1.516688 -0.598013 0.744968 -0.580702 0.570021
Nxa4 -0.292316 -0.274796 -0.534809 0.146704 -1.663878 0.624663 -0.679099 -1.321456 0.804896 0.507173
Red1 -1.047013 -0.431436 -0.387984 1.667102 0.558737 1.199062 -0.765295 -0.547593 -0.127915 1.204532
Bxb3 -0.493452 -0.227337 0.392280 0.421931 -1.554682 0.466417 -0.491912 -1.129221 0.053389 0.382373
Ngf3 1.327405 1.371506 0.130546 2.088477 0.158196 -1.683328 -0.955903 -0.542268 0.422269 -0.747543
Nxf7 -1.190255 0.290829 0.370507 -0.556240 0.356226 -0.705128 -1.152075 -0.585483 -0.034687 -0.539862
Rxf8 -1.570355 -0.130911 -0.098338 -0.678775 0.308708 -0.637017 -0.686262 -0.003783 -0.753165 -0.886040
Ba7 0.303796 0.413486 -1.182763 0.806803 -0.087460 -0.566682 -0.062081 -0.782037 0.998482 0.878761
Rxe1+ -1.551589 -0.396939 0.805970 1.037703 0.082822 -0.794407 -0.360824 0.569025 -0.053610 1.030984
Qh4+ -0.522531 -0.451502 0.512261 0.238707 0.462523 -2.323547 0.132117 0.712116 -0.865216 -0.822256
Rxh4 1.004412 -0.333291 -0.445925 -1.435082 0.616251 -0.433473 0.494050 -0.507183 -1.296794 0.538403
Kxf2 -0.683538 -0.348370 0.268495 -0.031134 -0.351760 -1.568268 0.765983 0.643136 0.008793 1.172687
Rxg5 0.574186 -0.232545 0.049103 -1.273443 0.860857 -0.354970 0.434496 -0.545805 -1.717905 0.037128
Rc8+ -0.549113 -0.395543 0.184276 -0.419258 -0.520621 0.550815 1.697627 -1.075487 0.271886 -0.350365
Qxd1 -1.598047 -0.326343 0.927275 1.536440 -0.744440 -0.944425 -0.807721 0.368814 0.734695 0.369127
Rc1+ -0.270565 -0.725612 0.156072 -0.135406 -0.568478 0.263057 1.965088 -0.503629 0.356887 0.180824
Ng2 0.471135 -0.408869 -1.152997 -0.172943 -0.120660 -0.800279 -0.488023 0.320493 -0.907197 1.327015
Bb8 -0.065093 0.374712 -1.337641 0.332305 0.274020 -0.493298 0.135228 -0.727865 0.783825 0.941628
Qe6+ -1.228653 -0.844185 0.536221 0.000909 0.800038 -1.165619 0.859219 -0.095311 -0.429548 -1.872575
Qe3+ -0.567906 -1.470931 0.833927 0.398963 0.124442 -1.566802 1.165529 0.650735 -0.489639 -0.997481
Qxa7 -1.604165 -1.261933 -0.648308 1.242585 0.107293 -0.204825 0.434197 0.474576 0.341321 -0.644220
Bxf1 -1.199758 -0.260940 -0.440872 0.741984 -0.956175 -1.040646 -0.576139 0.959741 0.169618 0.051961
Qxa6 -1.416203 -1.101684 -0.692103 1.466480 -0.374201 0.043104 0.412376 0.288219 0.465912 -0.730514
Bxa4 -0.411761 -0.211959 -0.438504 0.072212 -1.344311 0.495894 -0.265475 -1.096288 0.249882 0.226755
Qg4+ -1.176869 -0.721235 0.399532 -0.004237 0.705689 -1.760458 0.655028 0.617986 -0.874137 -0.985916
Rxg4 0.727535 -0.486507 -0.184599 -1.151824 0.786138 -0.606438 0.625830 -0.097978 -1.509093 0.442696
Qc5+ -0.866358 -1.696147 0.518341 0.542503 0.376667 -0.774409 0.699905 -0.089205 0.126011 -1.204226
Rxf1 -0.760875 -0.632119 -0.116482 0.050085 -0.398501 -1.358640 -0.186940 1.230041 -0.675701 0.349770
Qf4+ -0.704717 -1.377479 0.689151 0.007838 0.431564 -1.614225 1.172476 0.499713 -0.653644 -1.274013
Rxh7 0.634797 0.249290 0.017188 -1.722933 0.103267 -0.025947 0.527803 -1.173094 -1.133975 -0.590078
Rxb8 -1.220106 0.504393 -1.590117 0.578367 -1.390404 0.156328 0.621644 -0.372780 1.233653 -0.793466
Bxg3 -0.132912 -0.232148 -0.793572 0.185218 0.633417 -1.557504 -0.222405 0.578758 -0.355334 0.811799
Qxh6 -0.663814 -0.573410 0.220611 0.265915 0.151280 -0.777070 -0.994186 0.110948 -1.512859 -1.272112
bxa6 -0.007305 -0.121538 -1.442401 0.831742 -0.191246 -0.124279 0.366426 -0.446835 1.315878 0.171288
Rd7+ -0.451882 0.220592 0.615210 -0.962006 0.962233 0.255578 1.703832 -1.571727 0.229815 0.132823
d7 -1.272303 -0.037874 0.135197 -0.410871 0.219795 -0.463526 1.368992 -0.308958 0.708658 -0.280791
bxa3 0.135241 -0.343936 0.295974 0.414122 -1.759855 0.644222 -0.213494 -1.137473 -0.202675 -0.367132
Nd6+ -0.143349 0.180795 -0.088062 -0.839888 0.397720 -0.889710 -0.791730 -1.547508 1.511240 -0.230247
Qa4+ 0.692526 -1.123373 0.585102 1.494000 -0.317731 -1.340967 -0.250134 -0.937632 1.611887 -2.006970
cxb6 -0.354561 -0.422960 -1.317234 0.930431 0.183227 0.003012 -0.063573 -0.525489 1.369058 0.382393
gxh6 -0.160484 0.350955 0.465331 -0.605553 -0.332865 -0.614122 -0.894424 -0.496228 -1.716191 -0.801647
Qxh5 -0.819149 -0.807039 -0.090277 0.129767 0.419261 -0.888405 -0.676440 0.413659 -1.513109 -0.903948
Rxg7 0.189509 -0.230072 -0.013417 -1.371356 0.527882 -0.342899 0.200579 -0.624127 -1.179161 -1.049459
Nf3+ -0.510508 0.419653 -0.180178 -0.038650 -0.229112 -1.597495 0.446687 0.829198 -0.022392 1.177809
Red8 -1.146210 -0.255512 0.061787 1.721949 0.232461 1.302770 -0.849595 -0.550312 -0.587321 1.189462
Rxg6 0.322031 -0.162417 -0.099105 -1.551835 0.676306 -0.314204 0.512105 -0.635050 -1.685493 -0.610601
Rxf8+ -2.021102 0.011156 -0.290039 -0.092494 0.298024 -0.645989 -0.505763 0.355750 -0.887921 -0.841126
Rc7+ -0.231707 0.220171 -0.051837 -0.904464 0.322677 0.523961 1.924637 -1.552482 0.403212 -0.147320
Ka2 1.205821 -2.599645 0.756760 -0.291005 -1.352438 0.170517 1.381576 -0.726367 -0.419873 -1.517333
Kxf8 -1.936477 0.264841 0.261663 -0.182920 -0.306631 -0.397867 -0.211283 -0.436687 -0.296180 -0.969873
Nxa5 -0.154924 -0.310734 -0.843686 0.181090 -1.172512 0.271097 -0.376069 -1.049632 1.283805 0.912767
Rxh6 0.683822 -0.066097 -0.142102 -1.538382 0.431431 -0.249563 0.223130 -0.900826 -1.438964 -0.247679
Bxd8 -1.631129 -0.110318 0.534074 0.300234 0.016817 -0.676363 -0.784016 -0.462234 1.223642 0.476729
Bh2 0.900163 0.358819 -1.346965 0.665655 0.459811 -1.296678 -0.691235 -0.221421 0.068375 0.925833
Rd2+ 0.358354 -0.236388 1.079082 -0.509063 -0.106124 -0.183973 2.229755 -0.619814 -0.060005 1.191722
Qa1 -0.916768 -0.717645 -1.013421 1.283489 -1.206120 0.153544 0.602905 0.553437 -0.434988 -0.744928
Rxb1 -0.604139 0.328451 -0.641718 0.792072 -2.578360 0.094106 0.466743 -0.056457 0.392380 -0.563733
Nxh5 0.277368 0.172284 -0.192739 -0.917168 -0.209159 -0.953036 -1.479406 -0.464998 -1.272705 0.122778
Kxf6 -0.491457 0.694102 0.528809 -1.506805 0.227405 -0.498043 0.803370 -1.382612 -0.410207 -0.068262
a7 -0.123943 0.040382 -1.384400 -0.614058 -0.719609 -0.975048 2.440504 -0.248643 1.311251 -0.243937
Ng1 1.178480 -0.310599 -1.180560 0.595609 -0.236609 -1.171528 -0.454617 0.685515 -0.770531 0.857134
Bxc8 -1.526789 -0.057549 -0.740653 0.256086 -0.565169 -0.179521 -0.727175 -0.334910 0.766245 -0.112173
Rde1 -0.217476 -1.031809 0.577964 0.796487 1.240598 0.438661 -1.521206 -0.399139 -1.276014 0.413591
Bh7 1.112632 0.728859 -0.147734 0.032657 -0.202022 -0.777460 -1.181847 -1.186921 -0.775166 -0.329852
Rf1+ -0.196924 0.144886 0.753056 -1.079764 0.139892 -0.717229 1.496328 0.009392 -1.256446 0.195495
Qxh4 -0.736866 -0.997127 -0.325965 0.181759 0.505826 -1.118245 -0.527140 0.845207 -1.228271 -0.527171
Qf5+ -0.885013 -1.179867 0.824329 -0.230350 0.615183 -1.391866 1.109390 0.107572 -0.724105 -1.700334
Nxe2 0.299091 -0.245572 0.663298 1.009497 -0.643960 -1.007432 -0.791090 0.536060 0.023535 1.071253
Bd4+ -0.768437 0.219731 0.035439 0.086081 -0.370842 -0.919250 0.300471 0.036060 -0.076965 0.536255
Rc2+ 0.521435 -0.377754 0.554508 -0.489397 -0.785028 0.154166 2.320651 -0.699616 -0.026112 0.812899
Rcd1 -1.102083 -0.464214 -0.081029 1.643396 0.782553 0.931508 -0.970875 -0.365339 -0.599483 1.284375
Bxa3 -0.245916 -0.004987 0.000805 0.604130 -1.662713 0.312099 -0.250165 -0.861053 0.549840 0.031287
Bxd7+ 0.682997 0.230357 0.552558 1.682374 1.223636 -1.190879 -1.302167 -1.094322 1.766618 -1.100141
Qb6+ -0.611525 -1.360953 0.132612 0.858671 0.046383 -0.761810 0.250675 -0.013502 0.470967 -1.045127
Re7+ -0.478068 0.526509 0.610442 -1.175383 1.329967 -0.042044 1.732108 -1.304131 -0.271011 0.014582
Bxh4 0.004380 -0.109484 -0.809922 -0.557058 0.179666 -1.108588 -0.602905 -0.079756 -0.656604 0.461135
Rxg2 0.784274 -0.738720 -0.173925 -0.865392 0.247133 -0.829682 1.078677 0.429156 -0.751768 0.214712
Rxg3 0.756672 -0.712476 -0.534540 -1.054879 0.621766 -0.800315 1.008713 0.335929 -1.236270 0.458304
Rxf1+ -1.413156 -0.519402 -0.137823 0.379124 -0.404130 -1.152548 -0.267204 1.267712 -0.985042 0.191560
Qf6+ -1.020128 -0.558107 0.700413 -0.474170 0.600677 -1.138772 0.880841 -0.066618 -1.032742 -2.150757
Nxb7 -1.302574 -0.223519 -0.715568 0.046785 -0.230559 0.039034 -0.420297 -0.483391 1.395126 0.805372
Kxf1 -1.082211 -0.220042 -0.091579 0.666455 -0.852022 -1.266844 0.518299 0.876018 0.092835 0.356005
Rf8+ -0.485077 0.547394 0.014879 -1.296779 0.819097 -0.695186 1.601552 -0.133123 -0.749858 -0.000648
Qe1+ -0.874256 -1.399476 0.577444 0.380453 -0.454929 -1.339359 1.898910 0.948344 -0.602574 -1.183246
Na7 0.210856 -0.041067 -1.826487 0.611793 -0.616006 0.468597 -0.762058 -1.199298 1.119087 0.258142
Ka7 0.758827 -2.153025 -1.364976 -0.518773 1.066022 -0.236018 1.552476 -0.868193 1.373544 -1.726700
Qd8+ -1.556623 -1.005028 0.254179 -0.071540 0.427568 -0.866602 1.660325 -0.023484 -0.266986 -2.063360
Qxg6 -1.052150 -0.624782 0.241467 -0.277681 0.587075 -0.658627 -0.690441 0.060347 -1.547545 -1.252785
Qxf7 -1.568809 -0.754179 0.254130 -0.252349 0.826556 -0.635166 -0.348655 0.117454 -0.663484 -1.614755
Na2 0.608209 -0.499453 -0.718862 0.988823 -1.889665 0.652021 -0.835345 -1.053540 0.400204 0.723628
Bg1 0.948324 -0.361134 -1.076157 0.074805 -0.192052 -1.029474 0.116381 0.057639 0.089887 0.994668
Rg8+ -0.062488 0.731543 -0.669351 -1.429222 0.747032 -0.809092 1.471191 -0.041525 -1.154533 -0.501421
Rg1+ 0.383694 0.334888 0.151467 -1.165664 -0.333481 -0.932445 1.488481 0.278741 -1.794049 -0.104423
Kxe7 -0.486254 0.215123 0.660145 -0.675352 0.944824 -0.483223 -0.356326 -1.648277 0.711687 -0.638707
Qc4+ -0.719065 -1.777669 0.845482 0.422203 0.162668 -0.771335 0.913633 -0.005634 0.092467 -1.206217
Rxh2 1.154419 -0.293473 -0.456282 -1.272866 0.163865 -0.596965 1.253330 -0.008765 -0.453181 0.711309
Re2+ 0.461053 -0.111425 1.104050 -0.577592 0.193066 -0.530616 2.205995 -0.274546 -0.597140 1.181624
Rxh3 1.002622 -0.386562 -0.624062 -1.231478 0.295284 -0.676701 0.749672 -0.006032 -1.050233 0.551550
Rfb8 0.007734 -0.062846 -1.386813 2.150788 -2.133936 1.449686 -0.571301 -0.199286 -0.647903 -0.342785
Nxb2 -0.961936 -0.300930 0.311167 -0.091389 -1.722423 0.384552 -0.708833 -0.523388 0.251962 0.701677
Qd1+ -0.926035 -1.527798 0.497628 0.418170 -0.437527 -1.122889 2.037203 0.856296 -0.527511 -1.243796
Bxc2 -0.669940 -0.336881 0.906870 0.337024 -1.279816 0.048319 -0.264893 -0.435109 0.190239 0.303488
Nf5+ -0.325166 0.752820 -0.127891 -1.520620 0.083299 -0.766387 -0.213208 -0.733643 -0.582852 0.353745
Qe8+ -1.520579 -0.758663 0.282060 -0.132690 0.511408 -1.005327 1.551164 0.051885 -0.260822 -2.136263
Rcd8 -0.942431 -0.476290 0.203570 1.582702 0.744630 1.103477 -0.872518 -0.353336 -0.696459 1.173905
Ne7+ -1.575673 0.684021 -0.118541 -0.598427 -0.147520 -0.305211 -0.370277 -0.501506 0.243766 -0.133708
Kxd8 -0.063767 0.027711 0.734691 -0.245157 0.884742 -1.197102 -0.956114 -1.608553 1.921096 -0.225767
Ra7+ 0.289574 0.983422 -0.937260 -1.366603 -0.125221 0.468816 1.951134 -1.587841 0.283973 -0.250603
Ndb5 0.323015 1.139169 0.314046 1.823570 -0.125462 -0.556791 -1.439346 -0.708646 1.461732 -0.693732
Ne5+ 0.038102 0.550842 0.114079 -1.419546 0.232009 -0.943507 0.035364 -1.138092 0.412944 0.472082
Bxa5 -0.505480 -0.180950 -0.921523 0.083534 -0.986291 0.213169 0.230512 -0.681667 1.005273 0.745239
Qc1+ -1.063589 -1.567439 0.504385 0.371231 -0.567703 -1.024610 1.852586 0.814587 -0.542861 -1.206681
Ka1 1.234064 -2.269518 1.319727 0.281533 -1.779044 0.410329 0.206352 -0.636418 -0.603996 -1.808313
Rb8+ -0.149374 -0.301842 -0.515284 -0.720728 -0.932857 0.629350 1.861695 -1.060253 0.352953 -0.875685
Ne4+ 0.419134 0.184689 0.346371 -1.315784 -0.542695 -1.056270 0.287329 -0.676623 0.160999 1.137255
Bxh5 0.086724 0.056111 -0.402802 -0.867508 -0.050262 -0.855329 -0.766526 -0.334572 -1.095953 0.180751
Qxa3 -1.255838 -1.075739 -0.007296 1.206806 -1.192022 0.424581 0.195392 0.050927 -0.247311 -1.129447
Kxf3 0.230972 0.136162 0.245936 -0.865635 -0.174213 -1.291671 1.518776 -0.085641 -0.106194 1.308647
c7 -0.887986 -0.006354 -0.683474 -0.354017 -0.205888 -0.606537 1.991743 -0.275581 1.300444 -0.240727
Ka3 1.822624 -2.100383 0.523048 -0.905504 -1.249204 -0.138780 1.877041 -1.164626 0.228971 -1.208321
Ba8 -0.344750 0.236247 -1.242193 0.931681 -0.110773 0.501333 -0.426757 -0.799391 0.366634 0.659843
Bxc1 -0.840062 -0.015540 -0.091201 0.749907 -1.786950 -0.427891 -0.617676 0.225092 0.354183 0.123040
Bxd1 -1.262004 -0.260437 1.229010 0.294298 -0.689607 -0.767494 -0.763896 -0.115950 0.836845 0.651985
b7 -0.368259 0.036097 -1.222147 -0.431970 -0.459791 -0.907258 2.382428 -0.162322 1.464450 -0.233199
Rhe8 0.343521 -1.215183 0.582177 1.009787 1.561303 -0.019088 -1.167441 -0.744824 0.491136 0.687778
gxh3 -0.101931 -0.043969 -1.176739 -0.261459 0.704970 -1.589292 0.230177 0.955337 -0.328789 0.557923
Rb1+ 0.227056 -0.591670 -0.560615 -0.401826 -1.103125 0.292560 2.228425 -0.367306 0.407337 -0.201240
Rb7+ 0.269799 0.372278 -0.693058 -1.134566 -0.153630 0.514868 2.141168 -1.531534 0.453554 -0.411930
a2 -0.074150 0.247871 0.289971 -1.066829 -2.160524 -0.132826 1.790879 -1.003568 -0.098804 -1.150748
Ra2+ 1.145126 0.315395 -0.265238 -0.790035 -1.445262 0.062358 2.347968 -0.595693 -0.300942 0.828896
Ka6 1.302668 -1.776874 -0.859101 -0.976476 0.613724 -0.479456 2.062126 -1.389436 1.508080 -1.516467
Bxf7+ -1.730221 0.723987 0.964929 0.456007 0.323040 -0.739664 -0.900027 -0.350854 -0.110543 -0.885190
Rf7+ -0.178170 0.908411 0.149325 -1.542652 1.075130 -0.247747 1.624515 -1.066116 -0.760963 -0.420481
Nxa6 -0.108605 0.185568 -1.126323 0.240425 -0.808749 0.017673 -0.248347 -0.914783 1.494438 0.515600
Nxe7+ -1.570580 0.730398 0.054018 1.128235 -0.011772 0.203589 -1.885801 -0.424419 0.122491 -0.223356
Qxc8 -2.271144 -0.069295 -1.025065 0.887693 -0.623788 -0.264240 -0.436714 0.178387 0.734750 -1.045958
Rb2+ 0.974822 -0.067585 -0.051339 -0.734618 -1.303587 0.152641 2.380398 -0.729087 -0.026626 0.411588
Qxg3 -0.653484 -1.094381 -0.276895 0.350729 0.665847 -1.355209 -0.133066 1.242452 -0.952736 -0.054042
Qg6+ -1.059845 -0.315582 0.645633 -0.456739 0.564117 -1.448531 0.510476 0.078191 -1.284533 -1.876521
Bxd2+ 1.512094 -0.090683 1.963916 2.169702 -0.438469 -1.355786 -1.409971 -0.694969 0.994211 -0.350145
Bxc7 -1.282684 0.090792 -0.351525 0.296679 0.119974 -0.218483 -0.045976 -0.436722 1.406444 0.374705
Bc5+ -0.270413 0.008558 0.177820 0.157054 0.299666 -0.976390 0.085788 -0.437310 0.747642 0.477844
Nxf2 -0.681563 -0.363383 0.069083 -0.154019 -0.471476 -1.208672 -0.395924 0.955167 0.106221 1.038701
Qc8+ -1.551039 -1.117830 -0.024339 -0.041143 0.332283 -0.750282 1.651932 0.157092 -0.135805 -1.977059
Qf3+ -0.462721 -1.158810 0.587827 0.072263 0.528482 -2.044175 1.483829 0.970743 -0.348966 -1.037356
Qh6+ -0.857030 -0.077161 0.762146 -0.488251 0.411823 -1.328009 0.106768 0.027445 -1.655821 -1.728746
Qc3+ -0.446860 -1.660501 0.972864 0.301221 -0.338221 -0.703385 1.019189 0.018611 -0.291090 -1.445602
Nxc7 -1.503711 0.130786 -0.675289 -0.153546 -0.079378 -0.054746 -0.554232 -0.287885 1.197424 0.356335
Qxf2 -0.984029 -1.349225 0.242614 0.475603 -0.060027 -1.181949 0.256956 1.488699 -0.690920 -0.284818
Nce2 0.936365 0.060986 -0.217981 1.532756 -0.679964 -0.524764 -2.574232 0.002117 -0.805772 0.030917
Rf2+ 0.736016 0.176811 0.550681 -0.899567 -0.054173 -0.791195 2.210194 0.132267 -1.047527 0.943861
Nxh4 0.308549 0.213740 -0.884224 -0.724544 0.261988 -1.289809 -0.921440 0.135319 -0.548448 0.681788
Qe2+ 0.177858 -1.058054 1.394856 0.804045 0.228473 -2.198884 1.416983 0.437028 0.110271 -1.356746
Kxf4 0.533784 0.866748 0.432194 -2.116192 -0.315782 -1.325527 1.711122 -1.008752 0.023247 1.183486
Qxg7 -0.571916 -0.867967 0.457212 -0.095935 0.690191 -0.893113 -1.085784 -0.233932 -0.726702 -1.802212
Ka5 1.776035 -1.555684 -0.379297 -1.269597 -0.131086 -0.501158 2.031144 -1.552808 1.352742 -1.353671
Nxg7 -0.956632 0.010909 -0.036881 -0.788920 -0.253756 -0.229356 -1.358998 -0.318811 -0.927524 -0.278285
Qxd8+ -0.859908 0.342687 0.809281 0.852577 0.719867 -0.997466 -0.962439 -0.920112 1.440439 -1.052231
Qe7+ -0.597715 -0.611686 1.044007 0.081721 0.917719 -1.645130 1.112163 -0.255521 0.103098 -2.165060
Raf1 0.017600 -0.292337 -0.365452 0.453938 1.417720 -0.061884 -1.471987 0.300572 -2.091516 0.135322
Ndf6 -0.172205 0.920874 -1.082063 1.476605 -0.280238 -0.735815 -2.520454 0.341136 -0.707046 0.120959
Nxc8 -1.802675 0.088885 -0.901237 0.237107 -0.577929 0.055297 -0.869692 -0.251093 1.388394 -0.048178
Raf8 0.233725 -0.593824 -0.540638 0.511175 1.459479 -0.302368 -1.174625 0.679208 -1.946668 0.489385
Qg3+ -0.679382 -0.864999 0.306819 0.040637 0.525611 -1.998407 1.069457 1.074808 -0.854792 -0.843979
d2 -0.503017 -0.180280 1.066052 -0.351853 -0.848549 -0.543236 1.575331 -0.038297 0.236390 -0.081247
Nd3+ 0.668786 -0.583598 0.806895 -0.881151 -1.438812 -1.126265 -0.306268 -0.464672 0.590383 1.154984
Ka4 2.051000 -1.721228 0.034549 -1.113660 -0.753984 -0.521880 2.035138 -1.356718 0.966886 -1.149065
Rhd1 0.305927 -1.272790 0.940538 0.940049 0.535682 1.185897 -0.903716 -1.418886 0.512240 0.728830
Qh2 0.356008 -1.348517 -0.297981 0.060098 -0.053976 -0.939218 -0.485429 0.801136 -1.880226 -0.752804
Nf4+ 0.073952 0.351595 -0.235379 -1.214424 -0.320053 -1.329416 0.294349 0.071598 -0.447439 1.242697
Rg7+ 0.270734 1.247097 -0.204502 -1.531101 0.665755 -0.102821 1.605274 -0.880966 -1.248575 -0.708400
Bxa7 -0.920219 -0.221568 -0.705592 0.338337 -0.237117 -0.301212 0.150453 -0.299015 1.230417 0.802189
Ne2+ -0.675869 0.038086 0.133605 -0.163700 -1.060101 -0.898983 0.196092 0.556298 0.148000 0.976448
Kxd7 0.112209 -0.460642 0.175766 -0.713075 1.170215 -0.707412 -0.227381 -1.680780 1.658772 -0.433920
Qxe6+ -1.570261 -0.521543 0.595001 0.160213 0.990492 -0.582172 -0.389116 -0.327981 -0.149044 -1.284844
Kxd2 1.345521 -0.618345 1.583183 -0.012043 -1.086008 -1.064434 -0.298680 -0.764839 0.599556 0.689807
Kxf5 0.303357 1.203804 0.448954 -2.289181 -0.152332 -1.164800 1.617995 -1.344924 0.080805 0.748682
Kxh7 -0.887694 1.029471 0.849893 -0.796006 -0.511951 -1.047941 -0.174240 -0.444082 -1.569048 -1.101891
c2 -0.539066 -0.053523 0.891049 -0.599506 -1.714691 -0.123160 1.546396 -0.529476 0.046527 -0.638065
Qd3+ -0.390924 -1.686376 1.185252 0.105142 -0.193118 -1.222133 1.584699 0.379254 -0.547297 -1.412405
Qd6+ -0.936086 -1.437729 0.369862 -0.184349 1.025733 -1.097354 1.467433 -0.143555 0.256377 -1.949370
Rde8 -0.069453 -1.115379 -0.088461 0.987887 1.806434 0.043568 -1.260079 0.147470 -0.666047 0.870171
Rfb1 -0.255138 0.096027 -2.662584 2.011550 -0.580109 1.200737 -0.524919 -0.215323 0.409975 -0.631593
Ra1+ 0.323168 -0.361975 -0.392571 -0.324156 -1.448169 0.252242 1.898719 -0.117810 -0.031653 -0.020700
Kxg5 0.071637 1.339167 0.281591 -2.063091 -0.219467 -1.150745 1.757506 -0.991041 -0.443793 0.302439
Nd5+ 0.434324 0.017983 0.139748 -1.614399 0.101066 -0.590814 -0.082353 -1.686949 1.029585 0.488281
Ra8+ -0.233665 0.190172 -0.914045 -0.804767 -0.553712 0.491862 1.650297 -0.870755 0.328197 -0.827249
b2 -0.178821 0.187124 0.559059 -0.822403 -2.181698 -0.109489 1.598039 -0.937481 -0.059245 -1.102079
Qh8+ -1.288977 -0.187415 0.477589 -0.791353 0.826795 -1.000964 0.716328 -0.254762 -0.899710 -2.404383
Kxe5 0.494900 0.692298 0.524580 -2.341527 0.028523 -1.047162 1.340691 -1.649455 0.665993 0.751450
Ne6+ -0.851789 0.562910 0.041505 -1.756387 0.253301 -0.632380 -0.143318 -1.187355 0.292815 -0.101210
Rg2+ 1.102399 0.412586 -0.086299 -0.874910 -0.082838 -0.804850 2.157652 0.332521 -1.224145 0.609705
Rxc8+ -1.462630 -0.299190 -0.807286 0.926239 -0.965402 0.658686 -0.061176 -0.516474 1.155878 -0.649909
Ka8 0.781770 -1.909238 -1.572336 0.302206 1.490891 -0.244406 0.961266 -0.446874 1.746770 -1.782818
Qh7 -0.177103 -0.918280 -0.827195 -0.316310 0.898480 -0.730899 -0.479192 0.237427 -1.459991 -1.448242
Qb1+ -0.854516 -1.812826 0.348020 0.479474 -0.683761 -0.760853 1.849599 0.738188 -0.352830 -1.371315
Qa1+ -0.689650 -2.025362 0.619853 0.321060 -1.022910 -0.413211 1.029598 0.370578 -0.407651 -1.368444
Qxe8 -2.482187 0.317448 0.069855 0.368423 0.387790 -0.627139 -0.672844 0.414763 0.149490 -0.913325
Bxc6+ 0.507441 -0.023739 0.372164 1.687532 0.960040 -1.331271 -0.735721 -0.923144 1.902695 -0.868066
Kxe6 -0.262540 0.249178 0.549652 -1.900744 0.639524 -0.667092 0.573272 -1.682298 0.599046 -0.016233
Nbc6 0.960564 0.398566 -0.232765 2.080140 -0.215693 -0.991365 -2.287775 -0.543056 0.725959 -0.877933
Rg3+ 0.578856 0.480794 0.236260 -1.087084 0.139917 -0.460769 1.726682 -0.162452 -1.740511 0.205642
Bxa8 -1.425151 0.347467 -0.645419 0.571394 -1.173779 -0.778638 -0.636130 -0.132373 1.473845 -0.355539
Bxf7 -0.983246 0.073979 0.356869 -1.078735 0.522124 -0.571025 -0.474127 -0.571808 -0.434565 -0.680940
Nxc2 -0.716188 -0.216093 0.672399 0.136488 -1.424237 0.048265 -0.496894 -0.069855 0.305284 0.528805
Kxg6 -0.512086 0.799825 0.210576 -1.854937 0.019132 -0.864417 0.949301 -0.829255 -1.009000 -0.413009
Kxg4 0.371829 1.068252 0.093349 -1.786632 -0.239957 -1.370952 1.955850 -0.495232 -0.255650 0.825833
Qb8+ -1.335912 -1.453011 -0.075142 0.087737 0.236483 -0.515384 1.659304 0.095026 0.013491 -2.137755
Qc6+ -0.636480 -1.541097 0.174952 0.364535 0.822401 -0.953519 1.296659 0.025809 0.625058 -1.546409
e7 -0.816566 0.116905 0.515392 -1.029113 0.163409 -0.673364 0.964891 -0.346399 0.099380 -0.853304
Rh8+ 0.060301 0.698742 -0.588799 -1.571116 0.521409 -0.417196 0.902090 -0.326525 -1.281938 -1.351619
Ng5+ -0.835645 1.238469 0.390219 -1.067666 0.011145 -0.978029 -0.464202 -0.424062 -0.871701 -0.229749
Qc7+ -1.072813 -1.442731 0.233094 -0.121271 0.871863 -1.064648 1.656883 -0.047968 0.247804 -2.101730
Ra3+ 1.495191 0.903364 -0.286500 -1.334304 -1.005297 0.167331 2.609362 -1.132595 -0.170890 1.151004
Qxf7+ -1.627264 0.077674 0.501419 -0.197122 0.825415 -0.548447 -0.041337 -0.339163 -0.257987 -1.610103
Bc4+ -0.252179 0.241354 0.770148 -0.269886 -0.310158 -0.653428 -0.188061 -0.768584 0.114415 -0.001488
Bg8 0.387577 0.375008 -0.300625 -1.127559 -0.099013 -0.183932 -0.405594 -1.263047 -0.535284 -0.413818
Kxe2 0.802039 -0.454454 1.124047 0.063485 -0.574979 -1.304104 0.530048 0.003741 0.527759 1.201707
Bxa2 -0.951418 0.066894 0.604223 -0.112426 -1.255241 0.443575 -0.143891 -0.995363 0.038645 0.276743
Kxe4 0.764852 0.568765 0.687165 -2.008401 -0.491230 -1.223359 1.549778 -1.101592 0.542513 1.198066
Rd3+ 0.910019 0.030647 0.996288 -0.968628 0.069833 0.030554 2.360286 -1.096051 -0.070756 1.418815
Qc2+ -0.481776 -1.780276 1.011078 0.181878 -0.578543 -1.246098 1.692567 0.532810 -0.505994 -1.473088
Kxg3 0.027654 0.239457 -0.299531 -1.193651 -0.095021 -1.589799 1.683588 0.317584 -0.539850 0.903002
Rh7+ 0.669838 0.983114 -0.332332 -1.850239 0.664455 0.046762 1.127823 -1.166337 -1.299751 -1.153484
Qxh3 -0.751032 -0.929708 -0.564099 0.387524 0.528142 -1.414368 -0.163594 1.364659 -0.862040 -0.319857
Qb3+ -0.527732 -1.404140 0.730317 0.626944 -0.125385 -0.650519 0.505857 -0.091496 0.383588 -1.362454
Rd6+ 0.288476 0.478063 0.612742 -1.385475 1.025353 0.367007 2.032679 -1.822517 0.286388 0.697506
Nd4+ 0.982877 -0.260154 0.466618 -1.418295 -0.629562 -0.885868 0.271569 -1.018779 0.962046 1.178577
Nxd8 -1.668403 0.160667 0.480635 -0.171060 0.120324 -0.505452 -1.116042 -0.484328 1.454714 0.405240
Rxc1+ -0.890820 -0.842817 -0.138833 1.174229 -2.125343 0.492033 -0.014491 -0.005794 0.517110 -0.074931
Qxc1 -1.480671 -0.336161 -0.126849 1.249756 -2.023928 -0.402996 -0.332660 0.918788 0.063325 -0.471422
Rc3+ 1.115435 -0.065939 0.544355 -1.002356 -0.475821 0.297577 2.457842 -1.196790 0.053213 0.910971
Ndf3 0.247725 1.185756 -0.848592 1.805768 0.220069 -1.015256 -2.388133 0.275831 -0.349820 -0.008329
Ne3+ 0.183970 -0.160740 0.290432 -1.075924 -0.979826 -1.361850 0.621692 0.244516 0.294359 1.442695
Rh1+ 0.877933 -0.087916 -0.152190 -0.915958 -0.428926 -0.968114 1.476634 0.859198 -1.492603 -0.061666
Rf3+ 0.735513 0.391418 0.611779 -1.218591 0.279039 -0.316789 2.144587 -0.424876 -1.169781 0.831785
Qf7+ -1.068232 -0.393434 0.738687 -0.664362 0.960925 -1.353295 0.891213 -0.223485 -0.335769 -2.463846
Kxe3 0.693784 -0.406906 0.818514 -1.154344 -0.650133 -1.162976 1.005933 -0.384853 0.323972 1.471161
Qd2+ -0.458769 -1.631098 1.155121 0.047548 -0.207685 -1.548066 1.955023 0.687378 -0.554613 -1.378127
Rbc8 -0.672742 -0.380490 -0.358473 1.668250 -0.337295 1.643035 -0.391255 -0.420321 -0.368932 0.567008
Rhd8 0.406840 -1.266309 0.660058 1.043044 1.089089 0.944026 -0.618325 -1.173895 0.951240 0.894628
e2 -0.053469 -0.292079 0.698629 -0.678305 -0.280734 -1.080276 1.684216 0.405415 0.243437 0.095018
exd3 -0.608199 -0.271187 1.040568 0.863382 -0.632289 -0.177890 -0.604495 0.295109 0.217029 0.577180
Ra6+ 0.929357 1.462971 -0.588305 -1.831118 -0.149214 0.432363 2.394679 -1.812938 0.109950 0.473433
Nxd1 -1.150731 -0.373362 1.087170 0.217395 -0.936522 -0.710961 -0.951778 0.108167 0.938905 0.971172
Qa8+ -1.212918 -1.641036 -0.342615 0.261048 0.384104 -0.463327 1.328408 0.123693 0.487052 -1.790157
Qd7+ -1.113744 -1.178455 0.462383 -0.364467 1.006858 -1.288740 1.741374 -0.032635 0.055627 -2.132099
Bd5+ -0.746524 0.293572 0.270733 -0.432945 0.104119 -0.607139 0.354753 -0.538005 0.137492 0.093535
Nxg2 -0.319223 -0.373609 -0.712187 -0.122328 0.022683 -1.010798 -0.372799 0.911096 -0.012101 0.996388
Rhg1 1.218464 -1.264754 0.235801 0.032471 0.309922 -0.085166 -2.024655 -0.293155 -1.669886 -0.349655
Rh2+ 1.695211 0.134574 -0.282108 -0.917999 -0.266054 -0.790221 2.021594 0.468282 -1.095732 0.692919
Qh7+ -0.889776 -0.056990 0.796774 -0.851783 0.725614 -1.119899 0.202938 -0.275951 -1.322708 -2.182124
Re3+ 0.880751 0.140745 1.068780 -1.058745 0.361139 -0.253313 2.301752 -0.727076 -0.517685 1.304397
Qxa8 -1.684567 -0.171186 -0.766015 0.818169 -0.943326 -0.877498 -0.641896 0.190531 1.292758 -1.522032
Rec8 -0.576330 -0.125495 -0.585550 1.917860 -0.775752 1.936110 -0.416514 -0.474610 -0.595855 0.411494
Qxe1 -1.640862 -0.587256 0.656986 0.894442 -0.475900 -1.130835 -0.291211 1.440935 0.003730 0.345540
Rf6+ 0.207984 0.849553 0.192601 -1.694161 1.130078 -0.099347 2.044976 -1.016295 -0.836320 0.310261
Qh1+ -0.253328 -1.284064 0.504725 0.111059 -0.335268 -1.989329 1.650795 1.621767 -0.759801 -0.561639
Re6+ 0.256235 0.643031 0.636377 -1.479462 1.298364 -0.010124 1.989973 -1.482105 -0.200433 0.595861
Rhf1 0.516046 -1.328662 0.685664 0.280336 0.656256 -0.013237 -1.756516 -0.375463 -0.826453 0.207297
Qg8 -0.572273 -0.715373 -1.021608 -0.576960 0.830518 -0.434539 -0.148913 -0.003162 -1.203272 -2.131957
Qh3+ -0.493531 -0.655460 0.121263 -0.138879 0.706603 -2.098241 0.900604 1.176207 -0.857695 -0.671395
Qxf2+ -0.787473 -0.708315 0.580453 0.673220 -0.347540 -1.245877 0.661519 1.409125 -0.344222 0.361613
Bxf2 -0.295299 -0.553838 -0.043682 -0.357472 -0.105324 -1.199853 0.321815 1.017355 -0.136328 0.882815
Rxf7+ -1.092980 0.445576 0.129193 -1.099181 0.977132 0.212308 0.939330 -0.509426 -0.989619 -0.820378
Rb3+ 1.385654 0.308475 -0.166304 -1.151598 -0.841859 0.323982 2.664073 -1.175339 0.123749 0.674614
Rg6+ 0.321409 0.869441 -0.283526 -1.383874 0.987916 -0.406341 1.855495 -0.449938 -1.216226 -0.016400
Nxf8 -1.730944 0.198252 -0.022641 -0.486061 -0.192503 -0.546106 -1.380355 0.247463 -0.323062 -0.830536
h7 0.876543 0.148409 0.388202 -1.999395 -0.932572 -0.999827 1.146744 -0.850922 -0.735980 -1.510943
Bxe8 -1.789416 0.348919 0.204845 -0.312411 0.251714 -0.330608 -0.629909 -0.052916 0.200031 -0.269891
Qg1 0.328069 -1.627048 -0.614990 0.289181 -0.471092 -1.025201 0.497513 1.450960 -1.233295 -0.588612
Rc6+ 0.606334 0.514637 0.080275 -1.316209 0.328124 0.526002 2.483598 -1.845210 0.520601 0.452790
Qb7+ -0.830587 -1.327475 0.090976 0.359706 0.526141 -0.721170 1.501066 0.043568 0.455007 -1.800290
Kxd5 0.621321 0.300789 0.442366 -2.407075 -0.188114 -0.960314 1.350590 -1.731528 1.148722 0.624177
Qxe5+ -0.675634 -0.585487 0.809353 0.229733 0.823011 -1.052010 0.155205 -0.024063 -0.125292 -1.311428
Kxh5 0.204164 1.574235 0.147662 -1.947633 -0.444176 -1.359907 1.851603 -0.755330 -0.542680 0.133525
Qxd4+ -0.950439 -0.998507 0.981385 0.667708 -0.063193 -0.484309 0.265423 0.359508 -0.367439 -0.385585
Rbc1 -0.801778 -0.117967 -0.700603 1.764330 -0.305856 1.451925 -0.401589 -0.216125 -0.018114 0.617106
Qf2+ -0.149116 -1.440284 0.917858 0.059445 -0.139662 -2.090656 1.717472 1.233476 -0.367512 -0.984791
Bxf2+ -1.255787 -0.062662 0.262668 0.920092 -0.030006 -1.158668 -0.096202 1.194431 0.229184 0.665262
Qf8+ -1.183969 -0.478036 0.202706 -0.609804 0.808013 -1.244880 1.778354 -0.046711 -0.208313 -2.626973
Qb4+ 0.199666 -1.763060 1.116624 0.658155 -0.318031 -0.868801 0.349022 -0.602423 0.889894 -2.053931
Qxg2 -0.173623 -1.541986 0.304972 0.358167 0.279184 -1.419280 -0.199704 1.203640 -0.340822 -0.566415
Rbd1 -0.963827 -0.210212 -0.191787 1.504929 0.558271 1.053273 -0.688445 -0.103461 -0.551122 0.997161
Ng4+ -0.292851 0.683466 -0.225386 -0.680205 -0.152951 -1.515032 0.358402 0.631358 -0.502611 1.027514
Nxe8 -2.110086 0.581655 0.059461 -0.294287 0.031101 -0.291960 -0.885654 0.027390 0.459800 -0.090703
Rb6+ 0.972620 0.707290 -0.362936 -1.524302 -0.195130 0.581349 2.494165 -1.827843 0.343798 0.102118
Kxh6 -0.517297 1.017116 0.220576 -1.608268 -0.341754 -0.768781 1.045459 -0.709346 -1.192468 -0.647288
Qb2+ -0.445850 -1.705558 0.646886 0.366238 -0.740769 -0.751458 1.506091 0.442811 -0.289244 -1.431354
Kxh4 0.361439 1.407304 -0.055040 -1.732018 -0.405530 -1.633536 2.082651 -0.319068 -0.372540 0.498055
Rbd8 -0.880375 -0.308009 -0.003710 1.469787 0.675880 1.031748 -0.651993 -0.085818 -0.687168 0.966151
Nxe2+ -0.479403 0.145712 0.202016 1.652150 -0.705587 -0.368210 -1.326592 0.934115 -0.003627 1.191703
Qxd5+ -1.261763 -0.936015 0.594263 0.343022 0.648623 -0.517425 0.373932 0.087488 0.087295 -0.795492
Qf1+ -0.288851 -1.440994 0.797750 0.078341 -0.605919 -1.626888 2.191136 1.131220 -0.658510 -1.286052
Kxd1 0.616810 -0.637439 1.807398 0.024394 -0.798624 -1.393200 -0.540729 -0.531012 1.263229 0.623487
Nfd2 0.320583 0.316032 -0.893774 2.151016 -0.760735 -0.035508 -1.882522 -0.136220 1.004241 0.332807
Rg4+ 0.502239 0.626511 0.254811 -1.095235 0.493312 -0.220643 2.046034 -0.335844 -1.478965 0.439689
Kxd6 0.050195 -0.267207 0.049862 -1.894559 0.736100 -0.478190 0.673845 -1.759621 1.437320 0.019874
Qxd1+ -0.075128 -0.479920 1.720322 1.457800 -0.667854 -1.373442 -0.557002 0.314620 1.071244 0.094977
Rxg7+ -0.685653 0.522565 0.191124 -0.918275 0.307100 0.119742 0.607398 -0.047242 -1.771395 -1.301049
Nde2 0.775679 0.086298 0.052231 2.234192 -0.370016 0.044714 -2.619530 -0.177094 -0.531889 0.538093
Nxa3 0.005129 0.071478 -0.130999 -0.263629 -1.876814 0.435068 -0.372450 -0.968029 0.711341 0.465992
Bxa1 -1.272303 0.427742 -0.087631 0.649849 -2.064292 -0.653655 -0.574600 0.082521 0.872721 -0.252168
dxe3 -0.658099 -0.262040 0.921150 0.837896 -0.049846 -0.670626 -0.532049 0.634435 0.320744 0.703340
Ba1 -0.012491 0.240525 -0.603081 0.674452 -1.292364 0.527126 -0.350120 -0.617902 -0.115896 0.696678
Rec1 -0.646243 0.046740 -1.288702 2.036120 -0.213291 1.681929 -0.147112 -0.229363 0.113828 0.403447
Bxd4+ -0.823417 -0.166614 0.704401 0.835772 -0.233582 -0.212517 -0.164437 0.111956 0.023041 0.714485
Rg5+ 0.418595 0.804229 0.110469 -1.126852 0.763391 -0.242643 2.073639 -0.418020 -1.357019 0.349042
Nxc1 -0.994056 -0.268935 0.118530 0.429064 -2.250123 -0.041397 -0.666654 0.361876 0.595471 0.483470
Qxg6+ -1.257861 0.357576 0.643331 -0.643388 0.669346 -0.852763 -0.218468 -0.294711 -1.562586 -1.685266
Rdc1 -0.809107 -0.059216 -1.025126 1.963779 -0.208572 1.946208 -0.036318 -0.634138 0.366168 0.662853
f4+ 0.544753 1.081856 0.205232 -1.395216 -0.066790 -0.799162 1.598850 -0.727402 -0.104376 1.202441
Qb5+ 0.139532 -1.966700 0.552287 0.747402 0.050902 -1.053926 0.612287 -0.315970 1.349636 -1.753927
Rhg8 1.101781 -1.258931 -0.905546 0.105239 1.838304 -0.276290 -1.454464 -0.017685 -0.585764 -0.167474
Rf4+ 0.658371 0.729147 0.687185 -1.294494 0.593032 -0.115796 2.350461 -0.780741 -0.872131 0.983224
Qxe3+ -0.691442 -1.130538 0.956963 0.688985 -0.083948 -0.930763 0.089921 0.952281 -0.342048 0.340423
Kxd4 1.107409 0.060175 0.781507 -2.113873 -0.723691 -0.942733 1.356037 -1.376102 0.926256 0.928768
Kxh2 -0.436485 0.318180 -0.650342 -0.327162 0.323218 -2.103865 0.905829 1.128380 -0.142976 0.570071
Bxh7+ -1.277143 1.045711 1.000760 0.833194 -0.304147 -0.740309 -1.625247 0.119811 -1.359481 -0.617545
Nxa7 -0.780630 0.148833 -1.163017 0.055643 -0.442210 -0.054228 -0.010742 -0.387363 1.824658 0.765238
Rxh8 0.518478 -0.542995 -0.588993 -1.576269 -0.009966 -0.877486 -0.981031 -0.237373 -0.645589 -1.268969
Rh3+ 1.432706 0.442760 0.033430 -1.534244 -0.046352 -0.510832 1.715628 -0.185567 -1.439089 0.400733
h2 1.044663 -0.031305 -1.032624 -1.615504 -0.066610 -1.937507 2.048533 0.217524 0.506016 -0.412736
f5+ 0.355774 1.271725 0.401946 -1.581619 -0.044112 -0.582648 1.234540 -1.085363 -0.222843 0.802688
Rdc8 -0.446455 -0.311424 -0.339019 1.796542 -0.733810 2.087200 -0.247819 -0.721782 -0.199052 0.702522
Bh8 0.659712 0.321996 -0.439071 -0.216824 -0.322064 0.021860 -1.441716 -0.911162 -1.189364 -0.340130
Rxg2+ 0.081605 -0.198785 -0.363588 -0.154790 0.414417 -0.736144 1.517999 1.350404 -0.976853 0.154344
Qxe4+ -0.152921 -0.918818 1.121952 0.534453 0.047042 -1.395625 0.355189 0.633131 -0.200010 -0.687635
Re4+ 1.036610 0.456341 0.986720 -1.200732 0.608580 -0.164134 2.321932 -1.186821 -0.266703 1.190179
g5+ 0.138910 1.708828 0.553568 -1.246076 -0.170268 -0.584739 1.656466 -0.703772 -0.895338 0.389712
Nce7 0.710915 0.918599 -0.792350 1.424090 0.653327 -0.548124 -2.342635 -0.116557 -0.078745 -0.482036
Rf5+ 0.509778 0.893232 0.562603 -1.422935 0.935056 -0.124948 2.324046 -0.949136 -0.743303 0.782424
Bxe1 -1.158998 -0.257468 0.658810 0.233175 -0.306770 -0.887520 -0.230890 0.935066 0.387170 0.748969
Kxc4 1.346584 -0.466156 0.533635 -2.186063 -0.828441 -0.807770 1.245792 -1.676573 1.237539 0.689672
Qg8+ -1.183115 -0.369331 0.261126 -0.889745 0.893790 -1.185061 1.312608 -0.092245 -0.294513 -2.651068
Nf7+ -1.561580 1.016492 0.200758 -1.403887 0.239068 -0.738205 -0.539939 -0.493274 -0.113354 -0.832693
Qxd2+ 1.311684 -0.456870 1.886064 1.080824 -0.987480 -0.847312 -1.247582 -0.206136 0.397929 0.121022
Rxh1 1.104584 -0.843977 -0.641658 -1.131080 -0.372694 -1.297184 -0.824974 0.565826 -0.607562 -0.415562
Qg1+ -0.135627 -1.449887 0.805626 -0.072019 -0.607913 -1.717373 1.923923 1.298087 -0.678117 -1.024052
Qxh7 -0.525530 -0.957624 0.592486 -0.395865 0.743774 -0.711844 -0.609947 -0.174947 -0.695504 -2.065251
Re5+ 0.842365 0.715189 0.978415 -1.325258 0.993875 -0.009813 2.264393 -1.454017 -0.176081 0.947617
Qxa1 -1.035149 -0.278596 -0.264788 0.971637 -2.127870 -0.963374 -0.596746 0.756680 0.755250 -1.225630
Nbd5 -0.085693 0.570957 0.073005 1.876097 -0.207120 0.093091 -2.176349 -0.492600 0.416498 0.287802
Kxd3 1.163247 -0.823949 1.092694 -1.383690 -1.112959 -0.803109 0.790237 -0.733613 0.549089 1.137363
Nc5+ 0.843996 -0.716778 -0.444810 -1.786621 -0.181447 -0.242827 -0.047607 -1.631862 1.608560 0.527826
Rh6+ 0.936282 0.952647 -0.457633 -1.957579 0.760929 -0.255067 1.627636 -0.771974 -1.048258 -0.166792
Kxh3 0.006354 0.627876 -0.522911 -1.074700 -0.168974 -1.808516 1.765756 0.670283 -0.395620 0.616938
Bxe6+ -1.373385 -0.162960 0.450968 -0.266754 0.784040 -0.189715 -0.986499 -0.517737 0.077760 -0.232968
Kxc5 1.102936 -0.326509 0.108025 -2.319179 -0.266600 -0.788397 1.199078 -1.790427 1.546865 0.467536
g4+ 0.109571 1.576188 0.044946 -1.031861 0.270749 -0.994595 2.046243 -0.167169 -0.317610 0.917636
Nc4+ 1.282428 -0.830199 0.190148 -1.659776 -1.181078 -0.279155 -0.144140 -1.399982 1.061506 0.847898
Nxa8 -1.202868 -0.192345 -0.638822 0.156117 -0.839833 -1.032108 -1.196850 0.124514 1.964871 -0.436581
Qxf8 -1.874303 0.021820 -0.176446 -0.341339 -0.049019 -0.804817 -0.938310 0.445698 -0.477907 -1.733534
Rhf8 0.332285 -1.118238 0.002749 0.228597 1.741874 -0.007845 -1.360910 -0.234272 -0.236466 0.143610
Nce4 -0.691770 0.549193 0.032884 1.364843 -0.190081 -0.279676 -2.260232 -0.004290 -0.072415 0.229099
Nxa2 -0.536205 0.094409 0.503017 -0.247196 -2.088805 0.619560 -0.320537 -0.881101 0.538867 0.487880
Nxf1 -1.000134 -0.282912 -0.230725 0.072615 -0.714330 -1.231656 -0.764861 1.412853 0.012193 0.320015
Rxf2+ -0.113227 -0.288505 0.327698 -0.328330 -0.100723 -0.580527 1.683664 1.121000 -1.058457 0.843665
Nh6+ -1.588221 1.629329 0.223921 -0.628002 -0.310282 -0.215615 -1.015073 0.037134 -1.465882 -0.551831
Qh2+ -0.017698 -1.106296 0.207022 -0.079446 0.289748 -2.211793 1.281451 1.553650 -0.743139 -0.453279
Be6+ -0.402364 0.110588 0.182480 -0.830409 0.235966 -0.418670 -0.034308 -0.493572 -0.214133 -0.519048
Rdg1 1.351977 -0.791030 -0.150620 -0.072942 0.005505 0.225805 -2.450693 -0.258624 -2.556632 -1.022294
Qxf6+ -1.277389 0.232378 0.737341 -0.645881 0.934213 -0.335442 0.078642 -0.370686 -1.008772 -1.496963
f7 0.218510 0.129402 0.518911 -1.934173 -0.255674 -0.757409 1.096103 -0.733455 -0.349509 -1.504621
Nxh7 -0.190490 0.676449 0.468481 -1.194601 -0.219276 -0.688202 -1.453908 -0.774821 -0.984682 -0.895118
f2 0.670435 -0.257099 -0.242701 -1.281004 -0.094387 -1.647554 1.938991 0.546952 0.465643 -0.150282
Rd4+ 1.276978 0.192965 1.078628 -1.295988 0.355021 0.088469 2.299142 -1.496256 0.078835 1.115337
Nxh6 -0.091547 0.355378 -0.315750 -1.621930 -0.012055 -0.674976 -1.177612 -0.462799 -0.858551 -0.214446
Nxe1 -1.175267 -0.175932 0.576150 0.178571 -0.656289 -0.747291 -0.556091 1.017460 0.486827 0.976430
Rdf1 0.528055 -0.966566 0.191175 0.211460 0.699220 0.362034 -1.767151 0.058525 -2.051045 -0.239246
g7 0.774727 0.298636 0.649500 -2.031143 -0.871660 -0.976665 1.038193 -0.866223 -0.735537 -1.734476
Bxe3+ -0.461624 -0.596422 0.479885 0.466213 -0.142610 -0.527022 -0.717778 0.601699 -0.059065 1.091084
Be3+ 0.118476 -0.370855 0.100538 -0.292237 -0.054691 -0.939067 0.555590 0.283767 0.149758 0.401414
Nf2+ -0.509675 0.004241 0.065167 -0.463934 -0.846672 -1.676723 0.360098 1.343845 -0.038634 1.111832
Qa7+ -0.901337 -1.622863 -0.393187 0.154707 0.059562 -0.356402 1.195052 0.047792 0.534261 -1.710109
Be5+ -0.341576 0.196073 0.053800 -0.793777 0.259091 -0.917588 0.917203 -0.128041 0.061963 -0.049375
Qh8 -0.161939 -0.910315 -1.020307 -0.602913 0.496326 -0.502537 0.164257 0.326776 -1.182472 -1.706987
Rce8 -0.694561 -0.364410 -0.098835 1.066962 1.235228 0.680905 -0.749790 0.440885 -1.344578 0.898534
Rd5+ 1.071377 0.419075 0.879600 -1.378381 0.773749 0.131103 2.328844 -1.681401 0.317460 0.948825
Nbc3 1.058076 0.755148 -0.040589 1.929285 -0.699829 -0.738954 -1.923550 -0.320275 0.823825 -0.312959
Rce1 -0.722689 -0.202851 0.031579 1.080685 1.124546 0.797667 -0.817422 0.252593 -1.459562 0.704838
Qg7+ -0.753470 -0.572448 0.710145 -1.085137 1.056378 -1.381684 1.048924 -0.179806 -0.606899 -2.579867
Bg5+ 0.250363 0.113059 1.094817 -0.926537 0.571585 -0.997469 -0.677638 -0.961145 0.263767 -0.541194
Kxb4 1.631626 -0.754213 0.318147 -2.244843 -0.958661 -0.761618 1.072801 -1.639653 1.231475 0.212789
Qxg7+ -1.337043 0.259308 0.502588 -1.009342 0.790337 -0.319618 -0.344971 -0.303659 -0.998973 -1.346553
Kxc3 1.427497 -0.896917 1.138906 -1.600219 -1.447013 -0.606641 0.892858 -1.277335 0.646449 0.340338
Rc4+ 1.475189 0.112394 0.688833 -1.273135 -0.045784 0.329731 2.475131 -1.582819 0.208123 0.719820
Bxd5+ -1.279600 0.133444 0.576300 0.157580 0.442393 -0.129743 -0.143847 -0.321190 0.257257 0.075910
Ng6+ -1.039168 1.194723 0.242909 -1.448714 0.157794 -0.780048 -0.585809 -0.373667 -1.057065 -0.792042
g2 0.995992 -0.167037 -0.841400 -1.399791 0.147725 -1.917070 2.032918 0.531660 0.615525 -0.336872
Ra4+ 1.685795 1.347172 -0.057394 -1.628989 -0.499764 0.108035 2.914308 -1.296898 -0.068211 0.787223
Kxc6 0.730366 -0.434458 -0.377138 -1.743766 0.548832 -0.673383 1.001947 -1.555931 1.936766 -0.095153
Kxb5 1.442164 -0.591591 -0.207850 -2.246492 -0.481179 -0.859360 1.135308 -1.695694 1.618431 0.149547
Ra5+ 1.560097 1.470608 -0.247728 -1.769607 -0.196213 0.215899 2.846480 -1.535549 -0.064873 0.489102
Kxe8 -1.191028 0.482536 0.625971 -1.071800 0.830487 -0.514061 -0.059408 -1.039581 0.772457 -0.624905
Rxg6+ -0.287879 0.567546 0.290979 -1.184701 0.581257 0.061007 0.857920 -0.315720 -1.896377 -0.791480
Rc5+ 1.304635 0.236075 0.424305 -1.351280 0.262022 0.418542 2.513327 -1.727146 0.421369 0.507577
Be4+ 0.147162 -0.072698 0.630585 -0.869928 -0.295730 -0.867330 0.805722 -0.172611 -0.194801 0.006659
Bxb8 -1.231779 0.632290 -0.918500 0.499522 -0.848001 -0.370423 0.070404 -0.090198 1.956042 -0.582371
Qg2+ 0.165848 -1.440792 0.825079 -0.348168 -0.014078 -2.223212 1.716317 1.333911 -0.571782 -0.982248
Nxd3+ 1.008035 -0.838039 1.429407 0.385179 -0.902511 -0.677079 -1.846513 0.011309 -0.083805 0.420704
Nc6+ 0.506485 -0.193305 -0.739584 -1.410626 0.214405 -0.415945 0.119890 -1.503656 2.167224 -0.033102
f6+ -0.295505 1.000847 0.578437 -1.292425 0.097179 -0.178919 0.399341 -0.831552 -1.058717 -0.594746
Ng3+ -0.336401 0.390844 -0.436512 -0.487187 -0.269306 -1.782424 0.466817 1.432127 -0.362484 1.070005
Qxg3+ -0.552646 -0.496138 0.050816 0.201659 0.302990 -1.817481 0.980958 1.691129 -0.906812 0.402363
Rxe7+ -1.034231 0.319093 0.777149 -0.664136 1.748894 0.273041 0.439081 -0.992505 0.105912 -0.535230
Qxg5+ -0.975406 -0.141149 0.573563 -0.456132 0.521913 -1.158579 -0.142137 0.349769 -1.574071 -0.999781
Qxf3+ -0.170422 -0.732868 0.480994 0.455964 0.203264 -1.408486 1.064652 1.553362 -0.418632 0.456225
Rb4+ 1.672242 0.466200 0.046132 -1.408662 -0.415706 0.421431 2.729226 -1.520773 0.261152 0.421037
Qxe7+ -0.428243 0.363464 1.095125 0.112582 1.410108 -0.714036 -0.724566 -0.892851 0.717405 -1.522897
Bf4+ 0.429636 -0.536047 0.198255 -0.783995 0.751012 -1.238167 0.339086 -0.193786 0.622809 0.141132
Qh1 0.400857 -1.490666 -0.732352 -0.310142 -0.205465 -0.886366 0.558250 1.077881 -1.308114 -1.008524
Rbe8 -0.641220 -0.170619 -0.346036 1.054419 0.994879 0.638180 -0.671444 0.662098 -1.324253 0.816804
Rxg8 0.488217 -0.095981 -0.574162 -1.637108 0.500515 -0.871106 -0.715208 0.074840 -0.999741 -1.865310
Rbe1 -0.632823 -0.065935 -0.317416 1.035309 0.970898 0.737911 -0.847337 0.385365 -1.356586 0.575683
Qxb8 -1.946479 0.254261 -1.350850 0.894534 -1.079053 -0.021365 0.162704 0.467843 1.234677 -1.626380
Nxd6+ -0.270844 -0.128479 -0.010298 -0.306597 1.125886 -0.553477 -1.565314 -0.742222 1.472188 -0.517661
Rdd1 0.181624 -0.578575 -0.243718 0.846594 -0.334621 0.981869 -0.373154 0.206814 -0.660445 0.786266
Bf5+ 0.455945 -0.324804 0.982047 -1.041501 0.052957 -0.774014 -0.040780 -0.677314 -0.075370 -0.227308
Rdf8 0.769099 -1.081625 -0.890929 0.467292 1.892092 -0.171146 -1.455066 0.544247 -0.923092 0.112646
Nc3+ 1.148987 -0.839291 0.969652 -1.217767 -2.008318 -0.325098 -0.042987 -0.947991 0.720583 0.389480
Bh6+ -0.365902 0.080549 1.199245 -0.686050 -0.222382 -0.519493 -0.727294 -0.484422 -0.546478 -0.847478
Nfd5 -0.517608 0.413944 0.184756 1.484591 -0.278537 0.212330 -2.202818 -0.485378 0.543786 0.367092
Qxf1 -1.078314 -0.693472 -0.187351 0.363639 -0.864118 -1.547083 -0.181110 1.866368 -0.349870 -0.254001
Qxe2+ 1.001366 -0.438441 1.748636 1.273665 -0.077954 -1.654392 -0.223635 0.655974 0.707974 0.277204
Rb5+ 1.535996 0.558476 -0.069594 -1.439041 -0.201384 0.467703 2.798903 -1.670653 0.318143 0.207496
Kxc7 -0.009504 -0.809530 -0.564836 -1.423450 1.144842 -0.507059 0.344579 -1.155590 1.932173 -0.459227
Bxb1 -0.577426 0.564702 0.197262 0.608529 -2.360726 -0.094506 -0.107465 0.170805 0.654502 -0.594175
Rhc8 0.874786 -0.753827 -0.029756 0.982669 0.073327 1.740168 -0.316700 -1.105608 0.828715 0.122730
Nbd4 0.066327 0.168945 -0.077453 1.741163 -0.016361 0.076425 -2.039456 -0.236641 0.795647 0.496557
Rdg8 1.708908 -1.152669 -1.887832 0.529606 1.658324 -0.603988 -1.568533 0.749345 -0.775518 -0.088489
Kxc2 0.822132 -1.543165 1.617601 -1.122180 -1.658853 -0.347754 0.326129 -0.658858 0.211287 0.099276
Qxh7+ -1.079217 0.373920 0.923652 -0.715375 0.718391 -0.733793 -0.356263 -0.269484 -1.327585 -1.890133
Nce5 -0.178851 0.551376 -0.233830 1.539175 0.181062 -0.367183 -2.205910 0.213750 0.280754 0.411279
Qxg2+ -0.317684 -0.878852 0.312165 -0.024396 0.001079 -1.456743 0.768923 1.610843 -0.603149 0.630936
Nh3+ -0.813010 0.710573 -0.870219 0.109827 0.119926 -1.440307 0.176148 1.793476 -0.342085 1.256819
Rxd7+ -0.713547 -0.141845 0.468302 -0.636949 1.675403 0.779686 0.476700 -1.537627 1.127038 -0.379296
Nxh3 0.378588 -0.186023 -0.858946 -1.173763 -0.049928 -1.426283 -0.365899 0.737863 -0.261269 1.059257
e5+ 0.523291 0.834008 0.126128 -1.755868 0.005065 -0.317428 0.700590 -1.204089 0.139037 0.502137
Kxe1 -0.006041 -0.489865 1.229550 -0.299940 -0.583007 -1.272096 0.665575 0.595598 0.561761 1.230856
